FANN_FLO_2.1
num_layers=3
learning_rate=0.700000
connection_rate=1.000000
network_type=0
learning_momentum=0.000000
training_algorithm=2
train_error_function=1
train_stop_function=0
cascade_output_change_fraction=0.010000
quickprop_decay=-0.000100
quickprop_mu=1.750000
rprop_increase_factor=1.200000
rprop_decrease_factor=0.500000
rprop_delta_min=0.000000
rprop_delta_max=50.000000
rprop_delta_zero=0.100000
cascade_output_stagnation_epochs=12
cascade_candidate_change_fraction=0.010000
cascade_candidate_stagnation_epochs=12
cascade_max_out_epochs=150
cascade_min_out_epochs=50
cascade_max_cand_epochs=150
cascade_min_cand_epochs=50
cascade_num_candidate_groups=2
bit_fail_limit=3.49999999999999977796e-01
cascade_candidate_limit=1.00000000000000000000e+03
cascade_weight_multiplier=4.00000000000000022204e-01
cascade_activation_functions_count=10
cascade_activation_functions=3 5 7 8 10 11 14 15 16 17 
cascade_activation_steepnesses_count=4
cascade_activation_steepnesses=2.50000000000000000000e-01 5.00000000000000000000e-01 7.50000000000000000000e-01 1.00000000000000000000e+00 
layer_sizes=226 227 8 
scale_included=0
neurons (num_inputs, activation_function, activation_steepness)=(0, 0, 0.00000000000000000000e+00) (0, 0, 0.00000000000000000000e+00) (0, 0, 0.00000000000000000000e+00) (0, 0, 0.00000000000000000000e+00) (0, 0, 0.00000000000000000000e+00) (0, 0, 0.00000000000000000000e+00) (0, 0, 0.00000000000000000000e+00) (0, 0, 0.00000000000000000000e+00) (0, 0, 0.00000000000000000000e+00) (0, 0, 0.00000000000000000000e+00) (0, 0, 0.00000000000000000000e+00) (0, 0, 0.00000000000000000000e+00) (0, 0, 0.00000000000000000000e+00) (0, 0, 0.00000000000000000000e+00) (0, 0, 0.00000000000000000000e+00) (0, 0, 0.00000000000000000000e+00) (0, 0, 0.00000000000000000000e+00) (0, 0, 0.00000000000000000000e+00) (0, 0, 0.00000000000000000000e+00) (0, 0, 0.00000000000000000000e+00) (0, 0, 0.00000000000000000000e+00) (0, 0, 0.00000000000000000000e+00) (0, 0, 0.00000000000000000000e+00) (0, 0, 0.00000000000000000000e+00) (0, 0, 0.00000000000000000000e+00) (0, 0, 0.00000000000000000000e+00) (0, 0, 0.00000000000000000000e+00) (0, 0, 0.00000000000000000000e+00) (0, 0, 0.00000000000000000000e+00) (0, 0, 0.00000000000000000000e+00) (0, 0, 0.00000000000000000000e+00) (0, 0, 0.00000000000000000000e+00) (0, 0, 0.00000000000000000000e+00) (0, 0, 0.00000000000000000000e+00) (0, 0, 0.00000000000000000000e+00) (0, 0, 0.00000000000000000000e+00) (0, 0, 0.00000000000000000000e+00) (0, 0, 0.00000000000000000000e+00) (0, 0, 0.00000000000000000000e+00) (0, 0, 0.00000000000000000000e+00) (0, 0, 0.00000000000000000000e+00) (0, 0, 0.00000000000000000000e+00) (0, 0, 0.00000000000000000000e+00) (0, 0, 0.00000000000000000000e+00) (0, 0, 0.00000000000000000000e+00) (0, 0, 0.00000000000000000000e+00) (0, 0, 0.00000000000000000000e+00) (0, 0, 0.00000000000000000000e+00) (0, 0, 0.00000000000000000000e+00) (0, 0, 0.00000000000000000000e+00) (0, 0, 0.00000000000000000000e+00) (0, 0, 0.00000000000000000000e+00) (0, 0, 0.00000000000000000000e+00) (0, 0, 0.00000000000000000000e+00) (0, 0, 0.00000000000000000000e+00) (0, 0, 0.00000000000000000000e+00) (0, 0, 0.00000000000000000000e+00) (0, 0, 0.00000000000000000000e+00) (0, 0, 0.00000000000000000000e+00) (0, 0, 0.00000000000000000000e+00) (0, 0, 0.00000000000000000000e+00) (0, 0, 0.00000000000000000000e+00) (0, 0, 0.00000000000000000000e+00) (0, 0, 0.00000000000000000000e+00) (0, 0, 0.00000000000000000000e+00) (0, 0, 0.00000000000000000000e+00) (0, 0, 0.00000000000000000000e+00) (0, 0, 0.00000000000000000000e+00) (0, 0, 0.00000000000000000000e+00) (0, 0, 0.00000000000000000000e+00) (0, 0, 0.00000000000000000000e+00) (0, 0, 0.00000000000000000000e+00) (0, 0, 0.00000000000000000000e+00) (0, 0, 0.00000000000000000000e+00) (0, 0, 0.00000000000000000000e+00) (0, 0, 0.00000000000000000000e+00) (0, 0, 0.00000000000000000000e+00) (0, 0, 0.00000000000000000000e+00) (0, 0, 0.00000000000000000000e+00) (0, 0, 0.00000000000000000000e+00) (0, 0, 0.00000000000000000000e+00) (0, 0, 0.00000000000000000000e+00) (0, 0, 0.00000000000000000000e+00) (0, 0, 0.00000000000000000000e+00) (0, 0, 0.00000000000000000000e+00) (0, 0, 0.00000000000000000000e+00) (0, 0, 0.00000000000000000000e+00) (0, 0, 0.00000000000000000000e+00) (0, 0, 0.00000000000000000000e+00) (0, 0, 0.00000000000000000000e+00) (0, 0, 0.00000000000000000000e+00) (0, 0, 0.00000000000000000000e+00) (0, 0, 0.00000000000000000000e+00) (0, 0, 0.00000000000000000000e+00) (0, 0, 0.00000000000000000000e+00) (0, 0, 0.00000000000000000000e+00) (0, 0, 0.00000000000000000000e+00) (0, 0, 0.00000000000000000000e+00) (0, 0, 0.00000000000000000000e+00) (0, 0, 0.00000000000000000000e+00) (0, 0, 0.00000000000000000000e+00) (0, 0, 0.00000000000000000000e+00) (0, 0, 0.00000000000000000000e+00) (0, 0, 0.00000000000000000000e+00) (0, 0, 0.00000000000000000000e+00) (0, 0, 0.00000000000000000000e+00) (0, 0, 0.00000000000000000000e+00) (0, 0, 0.00000000000000000000e+00) (0, 0, 0.00000000000000000000e+00) (0, 0, 0.00000000000000000000e+00) (0, 0, 0.00000000000000000000e+00) (0, 0, 0.00000000000000000000e+00) (0, 0, 0.00000000000000000000e+00) (0, 0, 0.00000000000000000000e+00) (0, 0, 0.00000000000000000000e+00) (0, 0, 0.00000000000000000000e+00) (0, 0, 0.00000000000000000000e+00) (0, 0, 0.00000000000000000000e+00) (0, 0, 0.00000000000000000000e+00) (0, 0, 0.00000000000000000000e+00) (0, 0, 0.00000000000000000000e+00) (0, 0, 0.00000000000000000000e+00) (0, 0, 0.00000000000000000000e+00) (0, 0, 0.00000000000000000000e+00) (0, 0, 0.00000000000000000000e+00) (0, 0, 0.00000000000000000000e+00) (0, 0, 0.00000000000000000000e+00) (0, 0, 0.00000000000000000000e+00) (0, 0, 0.00000000000000000000e+00) (0, 0, 0.00000000000000000000e+00) (0, 0, 0.00000000000000000000e+00) (0, 0, 0.00000000000000000000e+00) (0, 0, 0.00000000000000000000e+00) (0, 0, 0.00000000000000000000e+00) (0, 0, 0.00000000000000000000e+00) (0, 0, 0.00000000000000000000e+00) (0, 0, 0.00000000000000000000e+00) (0, 0, 0.00000000000000000000e+00) (0, 0, 0.00000000000000000000e+00) (0, 0, 0.00000000000000000000e+00) (0, 0, 0.00000000000000000000e+00) (0, 0, 0.00000000000000000000e+00) (0, 0, 0.00000000000000000000e+00) (0, 0, 0.00000000000000000000e+00) (0, 0, 0.00000000000000000000e+00) (0, 0, 0.00000000000000000000e+00) (0, 0, 0.00000000000000000000e+00) (0, 0, 0.00000000000000000000e+00) (0, 0, 0.00000000000000000000e+00) (0, 0, 0.00000000000000000000e+00) (0, 0, 0.00000000000000000000e+00) (0, 0, 0.00000000000000000000e+00) (0, 0, 0.00000000000000000000e+00) (0, 0, 0.00000000000000000000e+00) (0, 0, 0.00000000000000000000e+00) (0, 0, 0.00000000000000000000e+00) (0, 0, 0.00000000000000000000e+00) (0, 0, 0.00000000000000000000e+00) (0, 0, 0.00000000000000000000e+00) (0, 0, 0.00000000000000000000e+00) (0, 0, 0.00000000000000000000e+00) (0, 0, 0.00000000000000000000e+00) (0, 0, 0.00000000000000000000e+00) (0, 0, 0.00000000000000000000e+00) (0, 0, 0.00000000000000000000e+00) (0, 0, 0.00000000000000000000e+00) (0, 0, 0.00000000000000000000e+00) (0, 0, 0.00000000000000000000e+00) (0, 0, 0.00000000000000000000e+00) (0, 0, 0.00000000000000000000e+00) (0, 0, 0.00000000000000000000e+00) (0, 0, 0.00000000000000000000e+00) (0, 0, 0.00000000000000000000e+00) (0, 0, 0.00000000000000000000e+00) (0, 0, 0.00000000000000000000e+00) (0, 0, 0.00000000000000000000e+00) (0, 0, 0.00000000000000000000e+00) (0, 0, 0.00000000000000000000e+00) (0, 0, 0.00000000000000000000e+00) (0, 0, 0.00000000000000000000e+00) (0, 0, 0.00000000000000000000e+00) (0, 0, 0.00000000000000000000e+00) (0, 0, 0.00000000000000000000e+00) (0, 0, 0.00000000000000000000e+00) (0, 0, 0.00000000000000000000e+00) (0, 0, 0.00000000000000000000e+00) (0, 0, 0.00000000000000000000e+00) (0, 0, 0.00000000000000000000e+00) (0, 0, 0.00000000000000000000e+00) (0, 0, 0.00000000000000000000e+00) (0, 0, 0.00000000000000000000e+00) (0, 0, 0.00000000000000000000e+00) (0, 0, 0.00000000000000000000e+00) (0, 0, 0.00000000000000000000e+00) (0, 0, 0.00000000000000000000e+00) (0, 0, 0.00000000000000000000e+00) (0, 0, 0.00000000000000000000e+00) (0, 0, 0.00000000000000000000e+00) (0, 0, 0.00000000000000000000e+00) (0, 0, 0.00000000000000000000e+00) (0, 0, 0.00000000000000000000e+00) (0, 0, 0.00000000000000000000e+00) (0, 0, 0.00000000000000000000e+00) (0, 0, 0.00000000000000000000e+00) (0, 0, 0.00000000000000000000e+00) (0, 0, 0.00000000000000000000e+00) (0, 0, 0.00000000000000000000e+00) (0, 0, 0.00000000000000000000e+00) (0, 0, 0.00000000000000000000e+00) (0, 0, 0.00000000000000000000e+00) (0, 0, 0.00000000000000000000e+00) (0, 0, 0.00000000000000000000e+00) (0, 0, 0.00000000000000000000e+00) (0, 0, 0.00000000000000000000e+00) (0, 0, 0.00000000000000000000e+00) (0, 0, 0.00000000000000000000e+00) (0, 0, 0.00000000000000000000e+00) (0, 0, 0.00000000000000000000e+00) (0, 0, 0.00000000000000000000e+00) (0, 0, 0.00000000000000000000e+00) (0, 0, 0.00000000000000000000e+00) (0, 0, 0.00000000000000000000e+00) (0, 0, 0.00000000000000000000e+00) (0, 0, 0.00000000000000000000e+00) (0, 0, 0.00000000000000000000e+00) (0, 0, 0.00000000000000000000e+00) (226, 5, 5.00000000000000000000e-01) (226, 5, 5.00000000000000000000e-01) (226, 5, 5.00000000000000000000e-01) (226, 5, 5.00000000000000000000e-01) (226, 5, 5.00000000000000000000e-01) (226, 5, 5.00000000000000000000e-01) (226, 5, 5.00000000000000000000e-01) (226, 5, 5.00000000000000000000e-01) (226, 5, 5.00000000000000000000e-01) (226, 5, 5.00000000000000000000e-01) (226, 5, 5.00000000000000000000e-01) (226, 5, 5.00000000000000000000e-01) (226, 5, 5.00000000000000000000e-01) (226, 5, 5.00000000000000000000e-01) (226, 5, 5.00000000000000000000e-01) (226, 5, 5.00000000000000000000e-01) (226, 5, 5.00000000000000000000e-01) (226, 5, 5.00000000000000000000e-01) (226, 5, 5.00000000000000000000e-01) (226, 5, 5.00000000000000000000e-01) (226, 5, 5.00000000000000000000e-01) (226, 5, 5.00000000000000000000e-01) (226, 5, 5.00000000000000000000e-01) (226, 5, 5.00000000000000000000e-01) (226, 5, 5.00000000000000000000e-01) (226, 5, 5.00000000000000000000e-01) (226, 5, 5.00000000000000000000e-01) (226, 5, 5.00000000000000000000e-01) (226, 5, 5.00000000000000000000e-01) (226, 5, 5.00000000000000000000e-01) (226, 5, 5.00000000000000000000e-01) (226, 5, 5.00000000000000000000e-01) (226, 5, 5.00000000000000000000e-01) (226, 5, 5.00000000000000000000e-01) (226, 5, 5.00000000000000000000e-01) (226, 5, 5.00000000000000000000e-01) (226, 5, 5.00000000000000000000e-01) (226, 5, 5.00000000000000000000e-01) (226, 5, 5.00000000000000000000e-01) (226, 5, 5.00000000000000000000e-01) (226, 5, 5.00000000000000000000e-01) (226, 5, 5.00000000000000000000e-01) (226, 5, 5.00000000000000000000e-01) (226, 5, 5.00000000000000000000e-01) (226, 5, 5.00000000000000000000e-01) (226, 5, 5.00000000000000000000e-01) (226, 5, 5.00000000000000000000e-01) (226, 5, 5.00000000000000000000e-01) (226, 5, 5.00000000000000000000e-01) (226, 5, 5.00000000000000000000e-01) (226, 5, 5.00000000000000000000e-01) (226, 5, 5.00000000000000000000e-01) (226, 5, 5.00000000000000000000e-01) (226, 5, 5.00000000000000000000e-01) (226, 5, 5.00000000000000000000e-01) (226, 5, 5.00000000000000000000e-01) (226, 5, 5.00000000000000000000e-01) (226, 5, 5.00000000000000000000e-01) (226, 5, 5.00000000000000000000e-01) (226, 5, 5.00000000000000000000e-01) (226, 5, 5.00000000000000000000e-01) (226, 5, 5.00000000000000000000e-01) (226, 5, 5.00000000000000000000e-01) (226, 5, 5.00000000000000000000e-01) (226, 5, 5.00000000000000000000e-01) (226, 5, 5.00000000000000000000e-01) (226, 5, 5.00000000000000000000e-01) (226, 5, 5.00000000000000000000e-01) (226, 5, 5.00000000000000000000e-01) (226, 5, 5.00000000000000000000e-01) (226, 5, 5.00000000000000000000e-01) (226, 5, 5.00000000000000000000e-01) (226, 5, 5.00000000000000000000e-01) (226, 5, 5.00000000000000000000e-01) (226, 5, 5.00000000000000000000e-01) (226, 5, 5.00000000000000000000e-01) (226, 5, 5.00000000000000000000e-01) (226, 5, 5.00000000000000000000e-01) (226, 5, 5.00000000000000000000e-01) (226, 5, 5.00000000000000000000e-01) (226, 5, 5.00000000000000000000e-01) (226, 5, 5.00000000000000000000e-01) (226, 5, 5.00000000000000000000e-01) (226, 5, 5.00000000000000000000e-01) (226, 5, 5.00000000000000000000e-01) (226, 5, 5.00000000000000000000e-01) (226, 5, 5.00000000000000000000e-01) (226, 5, 5.00000000000000000000e-01) (226, 5, 5.00000000000000000000e-01) (226, 5, 5.00000000000000000000e-01) (226, 5, 5.00000000000000000000e-01) (226, 5, 5.00000000000000000000e-01) (226, 5, 5.00000000000000000000e-01) (226, 5, 5.00000000000000000000e-01) (226, 5, 5.00000000000000000000e-01) (226, 5, 5.00000000000000000000e-01) (226, 5, 5.00000000000000000000e-01) (226, 5, 5.00000000000000000000e-01) (226, 5, 5.00000000000000000000e-01) (226, 5, 5.00000000000000000000e-01) (226, 5, 5.00000000000000000000e-01) (226, 5, 5.00000000000000000000e-01) (226, 5, 5.00000000000000000000e-01) (226, 5, 5.00000000000000000000e-01) (226, 5, 5.00000000000000000000e-01) (226, 5, 5.00000000000000000000e-01) (226, 5, 5.00000000000000000000e-01) (226, 5, 5.00000000000000000000e-01) (226, 5, 5.00000000000000000000e-01) (226, 5, 5.00000000000000000000e-01) (226, 5, 5.00000000000000000000e-01) (226, 5, 5.00000000000000000000e-01) (226, 5, 5.00000000000000000000e-01) (226, 5, 5.00000000000000000000e-01) (226, 5, 5.00000000000000000000e-01) (226, 5, 5.00000000000000000000e-01) (226, 5, 5.00000000000000000000e-01) (226, 5, 5.00000000000000000000e-01) (226, 5, 5.00000000000000000000e-01) (226, 5, 5.00000000000000000000e-01) (226, 5, 5.00000000000000000000e-01) (226, 5, 5.00000000000000000000e-01) (226, 5, 5.00000000000000000000e-01) (226, 5, 5.00000000000000000000e-01) (226, 5, 5.00000000000000000000e-01) (226, 5, 5.00000000000000000000e-01) (226, 5, 5.00000000000000000000e-01) (226, 5, 5.00000000000000000000e-01) (226, 5, 5.00000000000000000000e-01) (226, 5, 5.00000000000000000000e-01) (226, 5, 5.00000000000000000000e-01) (226, 5, 5.00000000000000000000e-01) (226, 5, 5.00000000000000000000e-01) (226, 5, 5.00000000000000000000e-01) (226, 5, 5.00000000000000000000e-01) (226, 5, 5.00000000000000000000e-01) (226, 5, 5.00000000000000000000e-01) (226, 5, 5.00000000000000000000e-01) (226, 5, 5.00000000000000000000e-01) (226, 5, 5.00000000000000000000e-01) (226, 5, 5.00000000000000000000e-01) (226, 5, 5.00000000000000000000e-01) (226, 5, 5.00000000000000000000e-01) (226, 5, 5.00000000000000000000e-01) (226, 5, 5.00000000000000000000e-01) (226, 5, 5.00000000000000000000e-01) (226, 5, 5.00000000000000000000e-01) (226, 5, 5.00000000000000000000e-01) (226, 5, 5.00000000000000000000e-01) (226, 5, 5.00000000000000000000e-01) (226, 5, 5.00000000000000000000e-01) (226, 5, 5.00000000000000000000e-01) (226, 5, 5.00000000000000000000e-01) (226, 5, 5.00000000000000000000e-01) (226, 5, 5.00000000000000000000e-01) (226, 5, 5.00000000000000000000e-01) (226, 5, 5.00000000000000000000e-01) (226, 5, 5.00000000000000000000e-01) (226, 5, 5.00000000000000000000e-01) (226, 5, 5.00000000000000000000e-01) (226, 5, 5.00000000000000000000e-01) (226, 5, 5.00000000000000000000e-01) (226, 5, 5.00000000000000000000e-01) (226, 5, 5.00000000000000000000e-01) (226, 5, 5.00000000000000000000e-01) (226, 5, 5.00000000000000000000e-01) (226, 5, 5.00000000000000000000e-01) (226, 5, 5.00000000000000000000e-01) (226, 5, 5.00000000000000000000e-01) (226, 5, 5.00000000000000000000e-01) (226, 5, 5.00000000000000000000e-01) (226, 5, 5.00000000000000000000e-01) (226, 5, 5.00000000000000000000e-01) (226, 5, 5.00000000000000000000e-01) (226, 5, 5.00000000000000000000e-01) (226, 5, 5.00000000000000000000e-01) (226, 5, 5.00000000000000000000e-01) (226, 5, 5.00000000000000000000e-01) (226, 5, 5.00000000000000000000e-01) (226, 5, 5.00000000000000000000e-01) (226, 5, 5.00000000000000000000e-01) (226, 5, 5.00000000000000000000e-01) (226, 5, 5.00000000000000000000e-01) (226, 5, 5.00000000000000000000e-01) (226, 5, 5.00000000000000000000e-01) (226, 5, 5.00000000000000000000e-01) (226, 5, 5.00000000000000000000e-01) (226, 5, 5.00000000000000000000e-01) (226, 5, 5.00000000000000000000e-01) (226, 5, 5.00000000000000000000e-01) (226, 5, 5.00000000000000000000e-01) (226, 5, 5.00000000000000000000e-01) (226, 5, 5.00000000000000000000e-01) (226, 5, 5.00000000000000000000e-01) (226, 5, 5.00000000000000000000e-01) (226, 5, 5.00000000000000000000e-01) (226, 5, 5.00000000000000000000e-01) (226, 5, 5.00000000000000000000e-01) (226, 5, 5.00000000000000000000e-01) (226, 5, 5.00000000000000000000e-01) (226, 5, 5.00000000000000000000e-01) (226, 5, 5.00000000000000000000e-01) (226, 5, 5.00000000000000000000e-01) (226, 5, 5.00000000000000000000e-01) (226, 5, 5.00000000000000000000e-01) (226, 5, 5.00000000000000000000e-01) (226, 5, 5.00000000000000000000e-01) (226, 5, 5.00000000000000000000e-01) (226, 5, 5.00000000000000000000e-01) (226, 5, 5.00000000000000000000e-01) (226, 5, 5.00000000000000000000e-01) (226, 5, 5.00000000000000000000e-01) (226, 5, 5.00000000000000000000e-01) (226, 5, 5.00000000000000000000e-01) (226, 5, 5.00000000000000000000e-01) (226, 5, 5.00000000000000000000e-01) (226, 5, 5.00000000000000000000e-01) (226, 5, 5.00000000000000000000e-01) (226, 5, 5.00000000000000000000e-01) (226, 5, 5.00000000000000000000e-01) (226, 5, 5.00000000000000000000e-01) (226, 5, 5.00000000000000000000e-01) (226, 5, 5.00000000000000000000e-01) (226, 5, 5.00000000000000000000e-01) (226, 5, 5.00000000000000000000e-01) (226, 5, 5.00000000000000000000e-01) (0, 5, 0.00000000000000000000e+00) (227, 5, 5.00000000000000000000e-01) (227, 5, 5.00000000000000000000e-01) (227, 5, 5.00000000000000000000e-01) (227, 5, 5.00000000000000000000e-01) (227, 5, 5.00000000000000000000e-01) (227, 5, 5.00000000000000000000e-01) (227, 5, 5.00000000000000000000e-01) (0, 5, 0.00000000000000000000e+00) 
connections (connected_to_neuron, weight)=(0, 2.75955715167115533948e-01) (1, 3.58041255546148462496e-01) (2, 2.07506641759021032145e-01) (3, 2.38293867571691880825e-01) (4, 2.77258277143597020586e-01) (5, 2.25644560209148248298e-01) (6, 1.78941698324096759576e-01) (7, 2.50873451770880162570e-01) (8, 3.56036008401535319923e-01) (9, 1.69221514506564446600e-01) (10, 3.46727629389239677682e-01) (11, 1.95195951780196191860e-01) (12, 1.94501947086989285252e-01) (13, 1.71849414423993679391e-01) (14, -1.35608306076450607636e-01) (15, 1.06162967849077714833e-02) (16, 3.19655334932895385247e-01) (17, 1.45723706786954204651e-01) (18, 1.59413948174966013660e-01) (19, 2.48962120580953294446e-01) (20, 1.30399889585202710673e-01) (21, 2.29913931397779519594e-01) (22, 3.04347180822880369888e-01) (23, 1.51424565177103842561e-01) (24, 1.64465866405159616415e-01) (25, 2.82767581738167517180e-01) (26, 2.59366154059000542098e-01) (27, 1.93494911180908779613e-01) (28, 1.66148590088658981712e-01) (29, 3.13620846379895457101e-01) (30, 2.85992303649480750227e-01) (31, 2.90671732798174597967e-01) (32, 2.90221701348127969489e-01) (33, 2.42997158998577184041e-01) (34, 3.14787017712376493428e-01) (35, 2.28837879005206745742e-01) (36, 2.47216762885646451631e-01) (37, 1.85500725219209350314e-01) (38, 3.48171588535855669466e-01) (39, 1.99938494869578958779e-01) (40, 2.80654654500352152002e-01) (41, 2.90895993828073240461e-01) (42, 2.31500968756447794705e-01) (43, 3.43813199527397250765e-01) (44, 3.64312143769523144599e-01) (45, 3.60969132341264431485e-01) (46, 2.10583336175864804796e-01) (47, 3.71695695150036142795e-01) (48, 1.89188844328930516614e-01) (49, 2.61095590710883673768e-01) (50, 3.43120196563113988297e-01) (51, 3.52081769198170912993e-01) (52, 2.39277585423691208089e-01) (53, 2.22595513513652032422e-01) (54, 2.75151906336818963261e-01) (55, 2.10849069317059018003e-01) (56, 8.45631506758377921029e-02) (57, 2.85602508947915501025e-01) (58, 2.40360715003648583998e-01) (59, 2.59969052191308835909e-01) (60, 3.29822972423882143644e-01) (61, 1.98363611489841940028e-01) (62, 3.11164360631853542660e-01) (63, 3.28717136623184025268e-01) (64, 2.73804020664030700605e-01) (65, -1.18522381842862525869e-01) (66, -4.31056468446964005659e-02) (67, 3.08926461757127623908e-01) (68, 2.35477072905878215270e-01) (69, 1.58973973964420756122e-01) (70, 2.28192141336982401434e-01) (71, 3.01618505115365975744e-01) (72, 1.68673052659134153908e-01) (73, 2.60961106634686856864e-01) (74, 2.74624471974822481624e-01) (75, 1.63238383055584190817e-01) (76, 3.25712090142875776433e-01) (77, 2.73214758745314367783e-01) (78, 2.21429599914261920901e-01) (79, 1.39697909912155859846e-01) (80, 1.99950688681282018333e-01) (81, 1.76444525822921999270e-01) (82, 2.95571343059826685540e-01) (83, 1.65173627402086298233e-01) (84, 3.31753532095289793702e-01) (85, 2.39623935442011687380e-01) (86, 1.85125128174975700501e-01) (87, 3.65536801127454735738e-01) (88, 1.75540797197548559261e-01) (89, 2.08342261409581758214e-01) (90, 3.37206995603111070459e-01) (91, 2.52336445844276058281e-01) (92, 2.87703665424951793295e-01) (93, 2.59810429390557262597e-01) (94, 2.08916158065447998826e-01) (95, 1.83745864926850493992e-01) (96, 2.39086737076830369020e-01) (97, 3.65378593643038984684e-01) (98, 2.37550752973364254217e-01) (99, 2.76979257846509008267e-01) (100, 2.76218270002419830078e-01) (101, 2.87711683946737351025e-01) (102, 6.77016563518406666589e-02) (103, -4.55238625483006531525e-02) (104, 2.26702908077241090112e-02) (105, 6.88266813001051219745e-02) (106, 2.22997686772445288805e-02) (107, 1.67957675911026074744e-02) (108, -1.14621621565504788753e-01) (109, 2.29417429218125079604e-01) (110, 3.75874849995308027428e-02) (111, 4.65821439106109472239e-02) (112, 3.52381968582356416841e-02) (113, 3.70202033317394230486e-03) (114, 2.74747424514599110357e-02) (115, 9.94486738611590793957e-03) (116, 1.02449242719928557133e-01) (117, 9.80948066562163795146e-02) (118, 3.19471849223299908527e-01) (119, 3.93289575256053625107e-01) (120, 3.18551087452695280700e-01) (121, 3.04160175395148946187e-01) (122, 3.50302999978743645482e-01) (123, 3.83907485130841497067e-01) (124, -5.74827571404186235537e-02) (125, 3.78205527061155621915e-01) (126, 1.95080710723875005996e-01) (127, 1.89323636625007923895e-01) (128, 2.09840790838483060021e-01) (129, 1.66128994861092005308e-01) (130, 1.25805334451955047603e-01) (131, 2.26313991863919705683e-01) (132, 2.62100504589756810869e-01) (133, 1.77642537260941868471e-01) (134, 2.12459716709388096723e-01) (135, 3.10723664446290737118e-01) (136, 3.34429482600945071624e-01) (137, 3.26744507198727440755e-01) (138, 3.50204869024604348304e-01) (139, 2.29042483424870019215e-01) (140, 3.70053215139957869528e-01) (141, 2.52976686144512796783e-01) (142, 3.41161071055747888714e-01) (143, 2.28386852656654482097e-01) (144, 2.71368576778240166991e-01) (145, 2.19146292342541848530e-01) (146, 3.70766001955505630772e-01) (147, 3.20007060853420732816e-01) (148, 2.90100245541143608730e-01) (149, 2.77135411274682164073e-01) (150, 2.32851168987095902274e-01) (151, 2.94110444504847468039e-01) (152, 3.05602176771029410141e-01) (153, 3.56011362801934683198e-01) (154, 3.16121479448973730086e-01) (155, 3.16115172942838473791e-01) (156, 1.47300817918123078121e-01) (157, 2.99604281108512338072e-01) (158, 2.74082269789721388875e-01) (159, 2.84904356922275003861e-01) (160, 2.26813779927600767117e-01) (161, 1.72935404135970582917e-01) (162, 2.18623713973343264394e-01) (163, 2.58759136919406051991e-01) (164, 2.61457931096080176125e-01) (165, 3.29804656080878888513e-01) (166, 1.85964842423011061934e-01) (167, 2.05189304101823649651e-01) (168, 2.44506418441585882118e-01) (169, -1.00210599407039288589e-01) (170, -2.54388679553561132193e-03) (171, 2.13960889870924736433e-01) (172, 3.41598529654636051678e-01) (173, 2.27144457239475267007e-01) (174, 2.57777817368750827853e-01) (175, 3.13909084602467414182e-01) (176, 3.35450594936821555603e-01) (177, 3.65305013682373225237e-01) (178, 1.78481680318314794853e-01) (179, 3.32844154271097814046e-01) (180, 2.30420965969847069132e-01) (181, 2.50472782361594370482e-01) (182, 1.50284997145505833105e-01) (183, 2.23004382329050981904e-01) (184, 2.73178353715692878723e-01) (185, 3.33602071888324358540e-01) (186, 1.89560971501154695851e-01) (187, 1.50062204257153192222e-01) (188, 3.39797176959112323669e-01) (189, 2.32249700535247044497e-01) (190, 3.59857962132222042317e-01) (191, 2.56035738022847514372e-01) (192, 2.21982470639342788221e-01) (193, 2.73387475183654582445e-01) (194, 9.61151657383250979105e-02) (195, -1.87074331359926189500e-02) (196, -1.70110774951042105496e-02) (197, 3.79868362128873537920e-01) (198, 2.06189397562114740126e-01) (199, 2.64067224502716801915e-01) (200, -7.14616368616604380470e-01) (201, -1.20403109613696199243e-01) (202, -2.63105062073609341500e-01) (203, 2.56320594598068107750e-01) (204, 6.89678072763873772910e-02) (205, 3.30606662836840758946e-01) (206, 2.03088091107886586917e-01) (207, 3.37218282505018118744e-01) (208, 2.12864075456541956832e-01) (209, 3.05767074102242408795e-01) (210, 3.15707145624196328093e-01) (211, 2.44004793269277014955e-01) (212, 2.21216437019045253365e-01) (213, 1.74549344249494448045e-01) (214, 2.01104167959918506137e-01) (215, 1.68002610727386397782e-01) (216, 2.91637360101589748762e-01) (217, 3.12450569252925192121e-01) (218, 3.09036628205879126963e-01) (219, -3.74509795730774280864e-02) (220, -9.23008763168398221888e-02) (221, -4.80014511791591672041e-02) (222, 3.51819263581696739518e-01) (223, 3.27045214052602450927e-01) (224, 3.38998965263525742220e-01) (225, 5.76093394212169596091e-02) (0, -2.47323298563687371532e-01) (1, -1.37132041741129445667e-01) (2, -1.81388940689994032640e-01) (3, -1.92540159631249402361e-01) (4, -2.57081525954864109629e-01) (5, -2.03479840965075653436e-01) (6, -2.34299035674128935947e-01) (7, -2.69135496183003253279e-01) (8, -2.78283051198860653663e-01) (9, -3.05580310999135351668e-01) (10, -2.18085103297073118478e-01) (11, -2.53911968670822441041e-01) (12, -2.42008457896474904469e-01) (13, -2.93727145546366863460e-01) (14, -3.34579767098116709345e-01) (15, -6.15225730767997580628e-01) (16, -3.32391086511137856530e-01) (17, -2.95202713181904830009e-01) (18, -2.87444497337770221712e-01) (19, -1.87579015909876106738e-01) (20, -2.77730791525129083741e-01) (21, -2.76558854900448292113e-01) (22, -2.21185825791411772023e-01) (23, -2.69883614486586487224e-01) (24, -3.47561551983733119098e-01) (25, -1.92257838447080220412e-01) (26, -2.09309264605173905860e-01) (27, -3.29105435073451746408e-01) (28, -2.29359282612432630044e-01) (29, -2.88670428011206847696e-01) (30, -2.61398302384054370684e-01) (31, -2.06005245956116356254e-01) (32, -1.90650124957259220482e-01) (33, -2.75346862122445912302e-01) (34, -1.67014831763052928881e-01) (35, -2.07978392581840670905e-01) (36, -3.28358357372489806369e-01) (37, -2.23903569115970924042e-01) (38, -3.01717680587131609204e-01) (39, -2.34345086200930169396e-01) (40, -3.13255003751690186409e-01) (41, -3.28972001039871397854e-01) (42, -1.97418390303970903155e-01) (43, -2.86161715220263013215e-01) (44, -3.16428564619366248234e-01) (45, -2.24252007588009033556e-01) (46, -3.23880883002531427817e-01) (47, -2.60883826303657528900e-01) (48, -2.24647390844947919541e-01) (49, -1.66810055724302075397e-01) (50, -1.86927188087710083320e-01) (51, -1.26974006688842927515e-01) (52, -2.70636798457516147831e-01) (53, -2.04358393153863143743e-01) (54, -3.27921913285021127127e-01) (55, -2.74028861899011155767e-01) (56, -2.95103030492676887686e-01) (57, -2.56916229533460438450e-01) (58, -2.80606213190682518555e-01) (59, -1.77054177590546618637e-01) (60, -1.88077170540499993834e-01) (61, -3.42826531652424881802e-01) (62, -3.01551171926735250839e-01) (63, -2.10008421155021329785e-01) (64, -1.61616419830020369153e-01) (65, -6.29423876607409504835e-01) (66, -2.52947476155137851439e-01) (67, -3.21403803040721747220e-01) (68, -2.01179184704167429709e-01) (69, -1.87457982333183531543e-01) (70, -2.27020768561316588219e-01) (71, -3.65629836242414130165e-01) (72, -3.07467378419434000936e-01) (73, -1.96894278813255052540e-01) (74, -3.53177618738085785655e-01) (75, -3.15723380167089895387e-01) (76, -3.11735672069230973502e-01) (77, -2.23212525584040949456e-01) (78, -2.18869651084864252910e-01) (79, -3.21274541416735115451e-01) (80, -2.12556478468757331646e-01) (81, -3.11155619773162694930e-01) (82, -2.91139808451975679038e-01) (83, -1.39428942093578034367e-01) (84, -2.75714955355403412707e-01) (85, -1.71915159323415250858e-01) (86, -2.48995819342941321350e-01) (87, -1.32958714045697423689e-01) (88, -2.97250290837794028942e-01) (89, -2.93717857853799502177e-01) (90, -2.23070891861014142243e-01) (91, -2.75648207236904918549e-01) (92, -3.24482670113742766027e-01) (93, -2.39664142348637004831e-01) (94, -1.95421470425292537199e-01) (95, -1.84205064451109429280e-01) (96, -1.93972328361336682212e-01) (97, -1.74306303508087456766e-01) (98, -1.90999412728223294522e-01) (99, -1.45611604468030175763e-01) (100, -1.78333058155689339053e-01) (101, -2.61836956363811712567e-01) (102, -2.74548200281728604910e-01) (103, -4.92393348236584038613e-01) (104, -6.08154436257297037471e-01) (105, -4.99159386926715797905e-01) (106, -5.23506063396287690814e-01) (107, -4.25503103666438065034e-01) (108, -6.20937406884021658726e-01) (109, -2.80907137394223460625e-01) (110, -2.44606479834490020409e-01) (111, -5.12991644700222737541e-01) (112, -2.28694283055460301224e-01) (113, -1.81303456015898173392e-01) (114, -3.92361868259968216144e-01) (115, -5.03758641135577445169e-01) (116, -4.80868475790076910226e-01) (117, -1.95359394923404788846e-01) (118, -1.89207702495349017191e-01) (119, -2.04881816709204273019e-01) (120, -2.46921248901218998162e-01) (121, -3.54809250027751266199e-01) (122, -8.07084907944059237739e-02) (123, -1.23585255458405263163e-01) (124, -3.59405518175904825640e-01) (125, -2.42827814200582692283e-01) (126, -1.48264507682180496362e-01) (127, -2.85925972427430341583e-01) (128, -2.29365820048854723856e-01) (129, -3.62372871333954904571e-01) (130, -2.46173651826399803033e-01) (131, -2.75028951763473084036e-01) (132, -2.87061155437955961567e-01) (133, -3.40774816310789485652e-01) (134, -2.81770907770672596193e-01) (135, -3.23751105174407749487e-01) (136, -2.86796916172880222984e-01) (137, -1.61431470548506650342e-01) (138, -1.76462596146767070060e-01) (139, -3.09884446644060396192e-01) (140, -2.92954815608438778884e-01) (141, -1.82310198307544912844e-01) (142, -3.10974750698055246723e-01) (143, -3.26912215170717945778e-01) (144, -1.86887161552666769548e-01) (145, -1.44764918390698493766e-01) (146, -1.59668062700614815652e-01) (147, -1.95135920938717760675e-01) (148, -2.10895461000520950678e-01) (149, -2.81841276524690098615e-01) (150, -1.33459850773140015212e-01) (151, -2.05440764965671956999e-01) (152, -2.76067127726003114230e-01) (153, -2.76247624144722203621e-01) (154, -1.53627973842953097217e-01) (155, -1.49351090578046769020e-01) (156, -2.38249656969359985270e-01) (157, -2.17868047105959528054e-01) (158, -1.54691947623806308476e-01) (159, -1.80127354599189160034e-01) (160, -2.08631472079443741618e-01) (161, -1.70205679838764195599e-01) (162, -3.30042815403023992449e-01) (163, -2.97132473715924716462e-01) (164, -2.94394242582568799182e-01) (165, -2.42643062315247376448e-01) (166, -2.23488029777232838358e-01) (167, -2.06966918035406538534e-01) (168, -2.62306052739322281830e-01) (169, -1.85523246112674400354e-01) (170, -2.94413911414994899918e-01) (171, -2.15653082648356170248e-01) (172, -3.13115719800733216527e-01) (173, -9.82721466822613076708e-02) (174, -2.81466704205037498987e-01) (175, -3.38747467577777627845e-01) (176, -3.47370636268096666388e-01) (177, -2.70918669473012851956e-01) (178, -3.25958117163282656836e-01) (179, -2.48463292931452417456e-01) (180, -1.67686469991946446312e-01) (181, -1.59331432660058530670e-01) (182, -2.15170911929741609514e-01) (183, -3.06511465355245149578e-01) (184, -2.17933045166759098432e-01) (185, -1.54911250536879707695e-01) (186, -2.19218093965552890401e-01) (187, -2.89888389069643481744e-01) (188, -2.58279488325815320682e-01) (189, -1.85076806602707172322e-01) (190, -1.85887495684428638576e-01) (191, -1.94809858793324214288e-01) (192, -3.30668898747715989117e-01) (193, -1.47158734347133918208e-01) (194, -2.96582841268419328262e-01) (195, -2.82006723643406342905e-01) (196, -3.00591750156490533641e-01) (197, -1.68969370541383223649e-01) (198, -2.13878577962881205599e-01) (199, -2.71705594256878235626e-01) (200, 7.14905764111951835815e-01) (201, 1.43357610019741177343e-01) (202, 2.32156076586312126731e-01) (203, 1.09663168100794447546e-02) (204, -1.51439538068455420428e-01) (205, -2.60830170937467464842e-01) (206, -1.23768307641374350481e-01) (207, -1.85383626094862918876e-01) (208, -2.88176686947847315867e-01) (209, -1.30771072297314605581e-01) (210, -2.99427022178470725322e-01) (211, -1.78456324227403068106e-01) (212, -2.56938596358974924438e-01) (213, -2.84082639714995643931e-01) (214, -1.71823288228563242352e-01) (215, -2.32722960477859674988e-01) (216, -2.93040792643927627825e-01) (217, -2.45978173467042926514e-01) (218, -1.64902752638999200441e-01) (219, -4.33267735568974188265e-01) (220, -3.04347267838371238202e-01) (221, -2.16511392160383897565e-01) (222, -2.44385414782000737199e-01) (223, -1.10812386885663610725e-01) (224, -2.38135867163898673482e-01) (225, -2.01201987730186576675e-01) (0, -1.74810771635437511851e-01) (1, -3.19063793675436857544e-01) (2, -2.78333318244556815468e-01) (3, -3.44649847750297333437e-01) (4, -2.18792295549905396745e-01) (5, -3.42119819019835291751e-01) (6, -3.16474012900753831623e-01) (7, -1.78806290730619737994e-01) (8, -3.16289902616485485431e-01) (9, -2.83639988107145080143e-01) (10, -3.53336142912214268286e-01) (11, -3.05455230174823677558e-01) (12, -3.10388881582664477587e-01) (13, -2.12045412892552381789e-01) (14, -2.78559200280987406817e-01) (15, -2.93181478175192633540e-01) (16, -3.16402215873527403733e-01) (17, -3.05343640290041962171e-01) (18, -2.04721497470644470118e-01) (19, -2.77867857853957567205e-01) (20, -3.45171312028753951573e-01) (21, -3.20325551442752209930e-01) (22, -3.68796997514836022436e-01) (23, -2.71667763870292344741e-01) (24, -3.00405868646517026921e-01) (25, -3.04116676310223321700e-01) (26, -2.43378012898201573355e-01) (27, -3.49258151992958232324e-01) (28, -2.88215703410527213091e-01) (29, -3.04643753615010115521e-01) (30, -2.02735113111550291354e-01) (31, -2.13534476837671183258e-01) (32, -2.68510570841217433014e-01) (33, -2.52763173205094837659e-01) (34, -3.17979077314148539379e-01) (35, -2.93224854743768470478e-01) (36, -2.04193339673712892512e-01) (37, -2.67819987681998716855e-01) (38, -2.18641766899826672788e-01) (39, -2.93665717585396113254e-01) (40, -2.88228479922928659818e-01) (41, -2.20190172792596283724e-01) (42, -3.01018245346705237697e-01) (43, -2.86174533409744802359e-01) (44, -1.69716096031922808463e-01) (45, -2.20074795422731728234e-01) (46, -2.00207339939451028910e-01) (47, -2.10770841282928445004e-01) (48, -2.60952279178894464007e-01) (49, -1.93054235035512222751e-01) (50, -3.48374759599206995642e-01) (51, -1.91185830502031167688e-01) (52, -2.54041292599789081397e-01) (53, -3.18580024277988815840e-01) (54, -2.84385763185245943330e-01) (55, -2.78599861800323256311e-01) (56, -3.43676688133992824792e-01) (57, -2.61659282389334169050e-01) (58, -3.39636261001584005559e-01) (59, -2.92915595329527267410e-01) (60, -2.59064840481097236058e-01) (61, -3.01366220348542268592e-01) (62, -3.01390086718764715901e-01) (63, -3.15716102102944096153e-01) (64, -2.66796108646089769056e-01) (65, -1.89475958215946316265e-01) (66, -2.36058821857305450864e-01) (67, -2.90551886785646695799e-01) (68, -1.95931767486369701192e-01) (69, -1.97775931661715809184e-01) (70, -2.33092510909357564231e-01) (71, -3.34763797243931293668e-01) (72, -2.60344427446540904736e-01) (73, -2.14079355945531263350e-01) (74, -2.53261434601091794949e-01) (75, -1.90185629224538521598e-01) (76, -1.80627243855016134111e-01) (77, -3.32292799578743580646e-01) (78, -2.17476903725942666279e-01) (79, -2.99096547703304793675e-01) (80, -1.96749463534546448207e-01) (81, -2.82000311274887671686e-01) (82, -1.62014818689902362348e-01) (83, -3.04218239297870340909e-01) (84, -3.20712529731038031855e-01) (85, -1.66935069043866263216e-01) (86, -3.56795190950113083606e-01) (87, -2.51924667378619682179e-01) (88, -1.87961947703668613707e-01) (89, -3.47583740600034496460e-01) (90, -2.52284915031349143977e-01) (91, -1.64030021218389082671e-01) (92, -1.59443250087827975703e-01) (93, -2.73002826956115107748e-01) (94, -2.72060308334288902810e-01) (95, -2.56713048960411471811e-01) (96, -1.93137466587118084016e-01) (97, -3.48813874376003363320e-01) (98, -3.11943570397185232501e-01) (99, -3.17795062341403589112e-01) (100, -3.40804875198649159795e-01) (101, -2.32953289431277493771e-01) (102, -3.08548284985891485555e-01) (103, -5.36884148907659675132e-01) (104, -4.98214771108163367863e-01) (105, -5.70219390346152543714e-01) (106, -5.40107197504461233883e-01) (107, -5.24703723548167744184e-01) (108, -1.95676645575127261534e-01) (109, -2.26888659567110240189e-01) (110, -3.02556545140135912941e-01) (111, -3.51879033344779657000e-01) (112, -2.08334386599620363656e-01) (113, -2.24671775977266230395e-01) (114, -3.18698152466415973727e-01) (115, -6.15671991377446436999e-01) (116, -5.43474276391117339102e-01) (117, -1.34761618438500263562e-01) (118, -1.10436784845957411405e-01) (119, -6.90456288026422837500e-02) (120, -1.52824744195369344180e-01) (121, -1.71269017406475460019e-01) (122, -1.13442137207786952757e-01) (123, -2.25363371134480017233e-01) (124, -4.35183541329056178260e-01) (125, -1.76329295394799051566e-01) (126, -1.89283675239581700156e-01) (127, -3.49361380556753475801e-01) (128, -3.24621143709971138325e-01) (129, -2.45974421078041627364e-01) (130, -3.51883649701177581015e-01) (131, -2.69609534820499596730e-01) (132, -3.54344711569412329499e-01) (133, -3.27888095549282887475e-01) (134, -1.51204671943654167521e-01) (135, -1.67854224096734450100e-01) (136, -1.98349456946831148585e-01) (137, -2.72630596967964156097e-01) (138, -2.37807643612226393692e-01) (139, -2.70977309822986678345e-01) (140, -2.71585081860381993835e-01) (141, -1.40091551745012365959e-01) (142, -2.94169173836928532495e-01) (143, -1.61137472374080520376e-01) (144, -2.42664463445008304898e-01) (145, -2.66909173255047316164e-01) (146, -3.36017395001533325516e-01) (147, -2.57440393519574761694e-01) (148, -1.96803703936669377450e-01) (149, -3.52287449146079123530e-01) (150, -1.68971123840853776343e-01) (151, -2.20898386742205299349e-01) (152, -2.91134897105349343960e-01) (153, -1.82272624171795738501e-01) (154, -2.81424766387574132320e-01) (155, -2.63361109652535674286e-01) (156, -3.04273555205148704683e-01) (157, -2.72054343446142377072e-01) (158, -3.14146292006546590247e-01) (159, -3.48796544616816917017e-01) (160, -2.85911162630823056929e-01) (161, -3.40585041782311748193e-01) (162, -2.67247953536672189223e-01) (163, -1.83871788396885144090e-01) (164, -2.45420171468839015683e-01) (165, -3.51778423225662717488e-01) (166, -2.08955927919928674541e-01) (167, -2.28369373141704468111e-01) (168, -1.94553641451955028341e-01) (169, -3.59555176145320898318e-01) (170, -2.00117787963630083814e-01) (171, -3.33616878414864037605e-01) (172, -1.72938865686703358016e-01) (173, -2.84635899903780298370e-01) (174, -3.08698403559396816753e-01) (175, -3.02537175202254260409e-01) (176, -2.80220671308109903208e-01) (177, -2.20902721232242388316e-01) (178, -1.74635485228323006357e-01) (179, -2.90451876636021455447e-01) (180, -2.66981514037003153650e-01) (181, -3.57445975181374275831e-01) (182, -2.68427593010715115351e-01) (183, -2.83642626811951903409e-01) (184, -3.43810704324074123406e-01) (185, -3.20384834229704151820e-01) (186, -1.77930683818300738874e-01) (187, -3.33541962358709698222e-01) (188, -3.18293785551732877348e-01) (189, -1.89806775797158433505e-01) (190, -3.36532948035891343874e-01) (191, -2.30527905059207616212e-01) (192, -3.29725695432539656071e-01) (193, -2.31698254216418597640e-01) (194, -3.08031367142921841396e-01) (195, -3.11190384922690299607e-01) (196, -3.14342891501788235242e-01) (197, -1.77225260838142439912e-01) (198, -1.97658628674614728071e-01) (199, -2.41634335731114091583e-01) (200, 1.36403672935577491288e+00) (201, 6.50673093041152394989e-01) (202, 3.01461081152533894034e-01) (203, 3.91621566104501453442e-02) (204, -1.18142290368700997316e-01) (205, -1.15849669268042895776e-01) (206, -2.22153627477872317453e-01) (207, -2.93916638727511503326e-01) (208, -2.73744029528556587216e-01) (209, -2.37065345165544477668e-01) (210, -1.69014916438662426978e-01) (211, -3.41745887449072138775e-01) (212, -2.09751081725283117230e-01) (213, -3.37250480563345111928e-01) (214, -3.23119901380386820300e-01) (215, -2.58995847508457721631e-01) (216, -2.68973538102655396198e-01) (217, -2.45059677782946488955e-01) (218, -1.89504896776430564742e-01) (219, -2.99401987633492738805e-01) (220, -2.55885860718885638221e-01) (221, -2.45371363338927284126e-01) (222, -3.12056703130975499061e-01) (223, -3.02552749173178259223e-01) (224, -2.61206597452008526528e-01) (225, -1.67872620738308719890e-01) (0, -4.93491680891095171879e-02) (1, -4.76465153469206315062e-02) (2, -8.92422145188254412052e-02) (3, -1.17246395863265170934e-01) (4, -5.84444610147869941796e-02) (5, 3.84975749737000161321e-02) (6, -7.57748913593765810459e-02) (7, -9.95908594424240248277e-03) (8, -1.01658322812049322498e-02) (9, -2.55268463888903285319e-02) (10, 2.41258969301922018835e-02) (11, 5.72487996148750982739e-02) (12, 2.23735725326439510718e-01) (13, 7.01432161421768757270e-02) (14, -3.82217536757892689669e-02) (15, 5.42335848432495062910e-02) (16, -1.03496903234877694888e-02) (17, -4.96354164482183113360e-02) (18, -5.06364897777055594785e-02) (19, 2.54121742922057358705e-01) (20, 1.42937563930114169830e-01) (21, 3.07680066885151037859e-01) (22, 3.03664667823027367710e-01) (23, 2.60428187255387577625e-01) (24, -1.03258016643985608973e-01) (25, 1.31827487009126526063e-01) (26, 2.40369201383980241049e-01) (27, 1.67816266554412757417e-01) (28, 2.71095961988981004609e-01) (29, 2.16449062982853546178e-01) (30, 2.95205053508047876587e-01) (31, 1.98340747724694205223e-01) (32, 3.22082936225391469609e-01) (33, 1.57558295289553035312e-01) (34, 3.22014203074454719022e-01) (35, 1.71413367659567800194e-01) (36, 3.27060527122224539709e-02) (37, 5.48277628477680870067e-02) (38, -9.92790399458424593915e-02) (39, 5.91092693456364125931e-03) (40, -1.21332402461884300560e-01) (41, -1.24135978166851623783e-01) (42, -8.87605185229741050490e-02) (43, -1.50716316796618260421e-01) (44, -9.07986663129655979798e-02) (45, -1.31770105020762307024e-01) (46, -1.13085736202860054345e-01) (47, -3.89827876424604369276e-02) (48, -8.28026448889724320246e-02) (49, 1.10309966205805101008e-02) (50, -2.93008830788643453991e-02) (51, -3.59625276249757597213e-02) (52, 7.02766823608979001453e-03) (53, -5.57633531025238590728e-02) (54, 6.99422735652195370903e-02) (55, -3.44272955388728527093e-02) (56, -3.51621741563500900263e-02) (57, -5.28882232198631604958e-02) (58, -9.75730254284500470030e-02) (59, 7.35880644741071093806e-02) (60, -2.63234170489098986967e-02) (61, -3.76828588045521051253e-02) (62, 3.58935759345208826865e-01) (63, 2.22131021746730106248e-01) (64, -7.87359768631594042487e-02) (65, 6.57571650789362249778e-02) (66, 9.23367010337641791473e-03) (67, -9.79509974380921716319e-02) (68, 6.28471781796376000040e-02) (69, 5.59437197887338380498e-02) (70, -1.30875146185968516122e-01) (71, -1.09808625820745728308e-01) (72, -1.16246596109762873050e-01) (73, -2.28246221788094179328e-02) (74, 4.65842285432447635041e-03) (75, -1.51749629963146059897e-01) (76, 2.24102435201887106864e-01) (77, 1.99909800264974513162e-01) (78, 1.38321161472630183020e-01) (79, 2.29894365786092291781e-01) (80, 3.22966786340228073637e-01) (81, 1.56886883627908008121e-01) (82, 2.05347486225366776535e-01) (83, 1.37550259809429364921e-01) (84, 2.25909846111104983812e-01) (85, -5.54566078613803192798e-02) (86, -7.88338411350237300290e-02) (87, -7.93247843993693732556e-03) (88, -9.93530576023215344916e-02) (89, -1.09457572255224136470e-01) (90, 1.03610569777052748119e-02) (91, -2.83252233554602106391e-01) (92, -6.89966472275199582675e-01) (93, -5.66921870854268261652e-01) (94, -6.31134062880321367039e-01) (95, -2.11527393509586658649e-01) (96, -1.53486247309601447908e-01) (97, 2.54878602857742464841e-03) (98, -2.11681297831122321174e-02) (99, -6.57076911876214031505e-02) (100, 5.93957886092333353645e-02) (101, -1.96054665830809257687e-02) (102, 2.10648901924099934968e-02) (103, -9.79852663819314462224e-02) (104, -5.09026251637632043412e-02) (105, -8.94800013761523210798e-02) (106, -5.69158393217124858321e-02) (107, -1.04286424368733060541e-01) (108, -2.40871551236559802711e-02) (109, 8.54172908223606586198e-02) (110, 8.42245905664563143667e-02) (111, 2.75800915175413108305e-01) (112, 2.78503898505546687581e-01) (113, 3.23042903928825952953e-01) (114, -5.85559669164692573468e-03) (115, 3.32677916172873858192e-02) (116, 1.47050544947637418236e-01) (117, 1.17400327499227755124e-01) (118, 3.57897854532072901002e-01) (119, 3.01664638400852613831e-01) (120, 3.21700966107162700247e-01) (121, 1.59746664390560677571e-01) (122, 3.83982332406609894182e-01) (123, -1.67092569201930662981e-02) (124, -1.55823876466903831622e-02) (125, 7.77478259731520602444e-03) (126, 1.89149833304680214940e-01) (127, 6.92024610832576020369e-02) (128, 2.88955822386619542996e-01) (129, 2.46424771489520022527e-01) (130, 2.87532813136795128983e-01) (131, 2.86409765781472147594e-01) (132, 2.50686486491391913312e-01) (133, 2.78188106270390589358e-01) (134, 3.07946614406706786760e-01) (135, 2.12149962492765353783e-01) (136, 2.23277230955144486216e-03) (137, 4.54831457497463023665e-02) (138, -4.54108274287917407924e-03) (139, -8.71554008985985992353e-03) (140, -3.64364212903007661515e-02) (141, -1.06389606827639329745e-01) (142, -4.98496538883836312617e-02) (143, 3.47429484455152801092e-02) (144, -3.69325221537145954864e-03) (145, -4.18894377827150748983e-02) (146, -2.50893169209881021497e-02) (147, -1.11192647784236639530e-01) (148, -8.86110075529327745336e-02) (149, 6.93105029483519295003e-03) (150, 2.71656377890773903516e-01) (151, 2.15369839052756056885e-01) (152, 1.32411024077430272694e-01) (153, 2.53133547779988310467e-01) (154, -7.81094370197822490676e-02) (155, 2.06015190541522064116e-01) (156, 3.54470161927946725289e-01) (157, 2.05324273106794713550e-01) (158, 2.74645568381634841426e-01) (159, 3.42935802891365937306e-01) (160, -9.76235093626281191792e-02) (161, -2.30760131841754971560e-02) (162, -8.70641116742581003263e-03) (163, -1.04334629331260475560e-01) (164, 4.92956528198889576409e-02) (165, -1.12315589859048756138e-01) (166, -1.23553060913286633093e-01) (167, 5.99175625244036391681e-02) (168, -7.54169690921053792465e-02) (169, -3.55346072892964506829e-02) (170, -6.87683192625522382579e-02) (171, -3.21353028576388116688e-02) (172, -1.08681149566657142547e-01) (173, -1.01939962506859306546e-02) (174, 6.03072791923913494733e-03) (175, -1.36679384273688309115e-01) (176, -1.06576083664848983434e-01) (177, -1.11011230927154716519e-01) (178, -7.01649740012187522753e-02) (179, 2.99274709277687475314e-03) (180, -1.38126862154181628828e-01) (181, 1.40857143899883408000e-01) (182, 3.74615396768996467003e-01) (183, 3.69872248778219891996e-01) (184, 2.32525432557539962763e-01) (185, -5.01674306035896008793e-02) (186, 6.92930093754262482753e-02) (187, 4.33402607992669774983e-02) (188, 8.48830151972390645199e-03) (189, 2.03538496646773342524e-02) (190, 5.62464932296028829843e-04) (191, -8.95100821864914936166e-02) (192, -9.46681271056968448585e-02) (193, 3.93157943206579041373e-02) (194, 3.56350133401382718201e-02) (195, -8.52375473502965802508e-02) (196, -2.99183085209269380988e-02) (197, -6.38825149915197287864e-02) (198, -2.08532272905125569407e-02) (199, -5.54216333322907622749e-02) (200, -2.38997652958554240854e+00) (201, -1.09095411323530999681e+00) (202, -8.11722909934211811489e-01) (203, 5.59655497840922441094e-03) (204, 7.98054569721826645434e-02) (205, 3.42105669281626001421e-01) (206, 1.47476007328060820800e-01) (207, 1.79885163045977541918e-01) (208, 1.75395430151395997909e-01) (209, 2.54231979102490457390e-01) (210, -2.39703110533507936231e-02) (211, 4.70847147021701342706e-02) (212, 4.76641752191779496939e-02) (213, -1.09323710516393765579e-01) (214, -8.92411647595608981121e-02) (215, -1.14606592306458962560e-01) (216, -3.05319900911008926259e-02) (217, -8.12084745162798410378e-02) (218, -9.54247790081475949497e-02) (219, -3.52170920618082722298e-02) (220, 6.98192877463184036202e-02) (221, -2.10410288855057067692e-02) (222, -2.76540977823054520690e-02) (223, -4.54622368770099330448e-02) (224, -4.53711448389695418126e-02) (225, 5.06752280165393767519e-02) (0, 8.31097955990521719549e-01) (1, 4.95762113101998636022e-01) (2, 7.08232253078276086100e-01) (3, 1.00449987763618686643e+00) (4, 1.14930205008913577380e+00) (5, 1.27871439059228997337e+00) (6, 1.34265147350715619012e+00) (7, 1.83209146128975075563e+00) (8, 2.22766221940060571427e+00) (9, 6.24019702761894334841e-01) (10, 6.84662196406928935666e-01) (11, 5.94829870580425579263e-01) (12, 5.02485130485918141119e-01) (13, -2.98614768650198418587e-02) (14, 1.47685970199204402720e-01) (15, 5.30599895134788002160e-01) (16, 6.83036751132315100854e-01) (17, 6.65964043042956976848e-01) (18, 7.01224754601594280068e-01) (19, 8.07471869113732365619e-01) (20, 8.33785925873064770464e-01) (21, 8.75353153826768259904e-01) (22, 1.21829729590300894770e+00) (23, 1.12471055350804416406e+00) (24, 5.88573635512774751000e-01) (25, 7.66487526532416474367e-01) (26, 7.07443464857569925819e-01) (27, 5.93913954532768184613e-01) (28, 5.49925485877314712546e-01) (29, 6.72459252716736816113e-02) (30, 1.97065587286976234838e-01) (31, 4.23534222888512723593e-01) (32, 4.18522568541474626613e-01) (33, 4.97669210711085885368e-01) (34, 5.49690044510362851859e-01) (35, 5.61374068457353048167e-01) (36, 5.64768162597418132975e-01) (37, 6.48735885316017002467e-01) (38, 5.21860754495611423032e-01) (39, 7.00303344522385962101e-01) (40, 5.90756745177699493787e-01) (41, 6.19511751690970502437e-01) (42, 4.97016965391641918348e-01) (43, 5.40496879456112466755e-01) (44, 4.91322977956434592262e-01) (45, 5.39419993095360705837e-01) (46, 6.01210737546203133341e-01) (47, 4.90039538388972018002e-01) (48, 3.71199369052174432682e-01) (49, 5.05217357890595519798e-01) (50, 8.48104071940358861248e-01) (51, 6.14291404939859453371e-01) (52, 5.53695282212134598510e-01) (53, 7.12141011738310236723e-01) (54, 1.04355946366498963940e+00) (55, 1.10429063151708040103e+00) (56, 8.54773982585937286416e-01) (57, 9.54906836557181781799e-01) (58, 7.95833434045068011109e-01) (59, 7.36505205009931329663e-01) (60, 7.90897979761033265156e-01) (61, 8.54735550223507778433e-01) (62, 7.17119256401433258219e-01) (63, 5.54122670743090739442e-01) (64, 3.77614752147027277207e-01) (65, 6.19101440646842693383e-01) (66, 6.06989134238244409936e-01) (67, 7.03868350961375233155e-01) (68, 6.57342389847941133141e-01) (69, 5.54901015302187272660e-01) (70, 8.00761636830503498174e-01) (71, 3.33608970931973780605e-01) (72, 9.63012533095676248607e-01) (73, 9.09049431071427216366e-01) (74, 7.15525543597429813936e-01) (75, 4.43797588254392694207e-01) (76, 5.88170552354078446378e-01) (77, 1.79072403206774088957e-01) (78, 5.49392108199557721582e-02) (79, -9.12632655296835126890e-01) (80, -1.61945473763124869748e+00) (81, -8.45225845205849979358e-01) (82, -7.72303056868928528012e-01) (83, 3.49484787934588925218e-01) (84, 5.00826084833390083872e-01) (85, 5.28674562919764112756e-01) (86, 6.42951623544605666005e-01) (87, 5.19747927144988630666e-01) (88, 6.39880363258552464778e-01) (89, 7.23564349782057081306e-01) (90, 6.96810751348762469348e-01) (91, 6.11087314199993847375e-01) (92, 4.37771097102301165460e-01) (93, 4.54649947733103243497e-01) (94, 6.46045152131366928749e-01) (95, 5.08464953466158053885e-01) (96, 5.14474923047536503162e-01) (97, 4.62911703619687753264e-01) (98, 6.18011184681686698283e-01) (99, 4.41461121000874701092e-01) (100, 9.32142855874392606275e-01) (101, 6.02771730984277387400e-01) (102, 7.65183746185919333449e-01) (103, 7.02950405117614640638e-01) (104, 8.57043987691645026139e-01) (105, 1.19591785471963896192e+00) (106, 2.04482647989508325992e+00) (107, 3.85631067983281772271e+00) (108, 3.25353129628750181723e+00) (109, 3.09690812218346867013e+00) (110, 8.14549614298286095426e-01) (111, 9.65419236024817273290e-01) (112, 7.90921846620718738130e-01) (113, 6.19204476844299356308e-01) (114, 7.14587869262329755671e-01) (115, 7.20000708050390292314e-01) (116, 9.84213489403390151544e-01) (117, 3.28020200025824415491e+00) (118, 5.05503091410607563461e+00) (119, 5.55312068005329839693e-01) (120, 4.06758823778129385840e-01) (121, 5.18540738333905459889e-01) (122, 7.56260266517961188271e-01) (123, 4.01216143817965609220e-01) (124, 8.09262411833579081710e-02) (125, 8.48156522325103079396e-02) (126, 1.97603836147694222891e-01) (127, 1.56290112573839928833e-01) (128, -2.66809776227090955647e-01) (129, -8.28513931400758019130e-01) (130, 1.10854508108425259261e-01) (131, -5.17804676675961750298e-01) (132, -2.70241992244585121571e-03) (133, 5.15107430639342278589e-01) (134, 5.72380707558300505511e-01) (135, 6.88307064488907549560e-01) (136, 5.97050709345873675815e-01) (137, 7.82385857633501324848e-01) (138, 8.15908063760351409677e-01) (139, 1.37665053402392789650e+00) (140, 6.83906996864967142713e-01) (141, 7.21105823618498842364e-01) (142, 6.99168624250621650873e-01) (143, 4.91927084668916048127e-01) (144, 5.62097970588523843105e-01) (145, 6.03927767137204751791e-01) (146, 5.26530053318533752815e-01) (147, 5.73109181210015750096e-01) (148, 6.27478347451119522482e-01) (149, 5.65037315929300398842e-01) (150, 7.08563072150155348616e-01) (151, 6.80758669391407389426e-01) (152, 6.43923405874457621678e-01) (153, 6.52447033366166273538e-01) (154, 5.75828448049604868508e-01) (155, 6.33229009172011747530e-01) (156, 5.28568004542392277934e-01) (157, 5.33974095900655143510e-01) (158, 6.00301729946810969096e-01) (159, 6.87243739707360301594e-01) (160, 5.53061705108636614270e-01) (161, 5.92882710160931858390e-01) (162, 5.72626184217429723411e-01) (163, 6.22417139125580498593e-01) (164, 5.52873378654725744497e-01) (165, 6.56181848671179790422e-01) (166, 5.32909583013882692804e-01) (167, 5.90528096780861377901e-01) (168, 6.82217010671199997063e-01) (169, 5.08647527337620863896e-01) (170, 5.49066698122731344789e-01) (171, 3.76169491926021060113e-01) (172, 2.07252509981391469518e-01) (173, 3.16449761264649465087e-01) (174, 3.29267309783319750416e-01) (175, 5.19530223125326706679e-01) (176, 2.00380290009828210263e-01) (177, -5.39881483740941581217e-01) (178, 3.79171614109412524751e-01) (179, 4.62361747294009417519e-01) (180, 4.67130602538782746525e-01) (181, 5.79465323347848393354e-01) (182, 7.11123276484465494107e-01) (183, 6.10278148617245386198e-01) (184, 6.80232388130236342860e-01) (185, 5.82007397473037646485e-01) (186, 6.53854170729464279077e-01) (187, 5.75856156702873045461e-01) (188, 6.83636730647473767064e-01) (189, 5.46490677305942917918e-01) (190, 5.35225977504337757651e-01) (191, 6.60411656369490063234e-01) (192, 7.00706604384813358521e-01) (193, 5.20309094609395228481e-01) (194, 5.92011619396784927183e-01) (195, 5.56247786092978979688e-01) (196, 6.77273307131644908274e-01) (197, 8.79769590820868252479e-01) (198, 5.18694915578094661868e-01) (199, 3.93238474634211576664e-01) (200, -3.17530766812166007185e+02) (201, -2.34758707976371461257e+01) (202, -7.17418466805942345310e-01) (203, -1.62782706633257057138e-01) (204, -4.07755670892059468580e-02) (205, 4.27315059073458541894e-02) (206, 5.56917438409981424563e-01) (207, 8.84582715767530669559e-01) (208, 8.76765746350748664817e-01) (209, 5.24479823062270256173e-01) (210, 5.46683866265563089826e-01) (211, 5.98550991239250151921e-01) (212, 6.77697202089349359788e-01) (213, 5.27536497142872984334e-01) (214, 5.18747198703801815078e-01) (215, 5.54531590222856918260e-01) (216, 7.09354043891315400039e-01) (217, 7.04710494570992773689e-01) (218, 6.54180457728551267849e-01) (219, 6.37847920254744682467e-01) (220, 5.26325865741825604793e-01) (221, 6.05476072127091535791e-01) (222, 5.14774216243054194564e-01) (223, 5.25873143108895435560e-01) (224, 5.01740666301978666120e-01) (225, 4.39488143889362137262e-01) (0, 1.28342108886548234015e-01) (1, -1.95067463191205159312e-01) (2, -2.50685213295409381473e-01) (3, -2.88499553821886800531e-01) (4, -2.83911191161000164840e-01) (5, -3.00461359734848776348e-01) (6, -1.30144163808993934550e-01) (7, -2.09036558446564463276e-01) (8, -2.90130072810765804459e-01) (9, -3.21558939419178624330e-01) (10, -2.47908301477174158878e-01) (11, -4.61032425701769721371e-01) (12, -6.43115797155296209375e-01) (13, -6.71775696196389326964e-01) (14, -6.47583119133070761464e-01) (15, -6.93764884629526235038e-01) (16, -5.59737305134691554009e-01) (17, -5.61511134677238121782e-01) (18, -5.95136359081687937866e-01) (19, -6.01862579551104226461e-01) (20, -5.65112626875287737960e-01) (21, -6.26182320863531871602e-01) (22, -5.76859570885772110493e-01) (23, -5.49122791919450237152e-01) (24, -6.04789713502397185962e-01) (25, -6.72808704365671306213e-01) (26, -2.79950894083490886555e-01) (27, -1.65170572908017010416e-01) (28, 1.17495376361135078769e-01) (29, -2.69210494524715071574e-01) (30, -2.52221490766101952286e-01) (31, -1.56089153965907140309e-01) (32, -1.84359411381762844373e-01) (33, -3.19516778580009430666e-01) (34, -2.88536177314370478886e-01) (35, -2.30261988581795473685e-01) (36, -2.96911745995447784452e-01) (37, -2.47347361903581197673e-01) (38, -1.70915476930838472480e-01) (39, -1.63781916073049427229e-01) (40, -3.11883199475772532328e-01) (41, -2.61473759524616156114e-01) (42, -2.32431390521739028587e-01) (43, -2.89939137461793561279e-01) (44, -1.14939209879987888629e-01) (45, -2.58626894124606265812e-01) (46, -2.69263295630559840177e-01) (47, -2.37343840464777938726e-01) (48, -1.73954749466706887207e-01) (49, -2.67981902691524054294e-01) (50, -1.32477224989372477371e-01) (51, -2.52497105181343939329e-01) (52, -1.17789345467057174344e-01) (53, -1.19828654267358239438e-01) (54, -2.40657538780625457342e-01) (55, -3.11342075804046380938e-01) (56, -2.50672284553787205752e-01) (57, -1.51083101455471768837e-01) (58, -2.09822808364771795642e-01) (59, -2.17351506371262548356e-01) (60, -6.02160674684771413112e-01) (61, -5.80773453481837842460e-01) (62, -4.46549539187122701556e-01) (63, -5.65250172767556180453e-01) (64, -5.05166043174697043661e-01) (65, -5.26267195944322474510e-01) (66, -4.57050330173647767484e-01) (67, -4.58019988665090527213e-01) (68, -4.63456702978404133653e-01) (69, -4.64798769655895616104e-01) (70, -6.30632661079694400996e-01) (71, -5.17954464633063271783e-01) (72, -5.14587624773134910683e-01) (73, -5.77002576105444586752e-01) (74, -5.95818271931346732373e-01) (75, -5.84420737058636619032e-01) (76, -3.52126193355319777600e-02) (77, -1.77112167927344077434e-01) (78, -2.23532137923505319632e-01) (79, -3.17233946322931170680e-01) (80, -2.34907237141729424712e-01) (81, -2.88529632689260517875e-01) (82, -2.42149832770193418341e-01) (83, -3.09810605923540649531e-01) (84, -2.50754661690595070933e-01) (85, -2.51022519929539944528e-01) (86, -2.77708651287483676562e-01) (87, -3.08683490836206830821e-01) (88, -1.54963145073660935047e-01) (89, -2.71801672327719290312e-01) (90, -1.89974780286444433486e-01) (91, -3.07228957427576832018e-01) (92, -2.48419206279951343408e-01) (93, -2.45721360310449749020e-01) (94, -2.37613451537038944394e-01) (95, -2.21440744063501560035e-01) (96, -3.03066376727486541665e-01) (97, -3.05974777601027758678e-01) (98, -2.65485651692210888886e-01) (99, -2.17000781745813553503e-01) (100, -1.38678913647593327063e-01) (101, -1.40778839884962730933e-01) (102, -1.36495187158728686905e-01) (103, -2.02188277052343268192e-01) (104, -1.86170624997450240290e-01) (105, -2.61591388970643545786e-01) (106, -2.80932251992150272546e-01) (107, -2.93948359384407609252e-01) (108, -2.42838136215211164437e-01) (109, -2.34961278640246379323e-01) (110, -5.61588780841213330852e-01) (111, -5.57637363024136689660e-01) (112, -5.67356744735851736827e-01) (113, -6.06090683194452917171e-01) (114, -7.73534529673488679968e-01) (115, -6.84009409280910807283e-01) (116, -6.90372184443681868871e-01) (117, -6.78592574748942189977e-01) (118, -5.07759178040887770855e-01) (119, -6.45059669291053294771e-01) (120, -5.74987594996638873290e-01) (121, -6.22647247634213751866e-01) (122, -5.30958245925450711411e-01) (123, -5.31996603010261859268e-01) (124, -5.85028069632696823277e-01) (125, -6.65536323299415255583e-01) (126, -2.22855664202591202683e-01) (127, -1.36409966627652784465e-01) (128, -2.35496914704827448039e-01) (129, -2.50548722511811483571e-01) (130, -3.17885645024724716734e-01) (131, -2.58871417860365382602e-01) (132, -3.03204018816032871975e-01) (133, -2.61704646359399328848e-01) (134, -1.85451541671214581442e-01) (135, -1.75899941995954767204e-01) (136, -2.10853400802468143871e-01) (137, -1.93520532097849778941e-01) (138, -2.19822420979875837732e-01) (139, -1.65842369452439214461e-01) (140, -1.59956368476432464476e-01) (141, -2.53352019022029306683e-01) (142, -3.24404737947338317472e-01) (143, -1.67311942659009366130e-01) (144, -1.88681656258114310853e-01) (145, -1.71666886487320063948e-01) (146, -2.25151592570890513034e-01) (147, -1.40126805565658263397e-01) (148, -2.58834902902745245257e-01) (149, -2.30032785982988541296e-01) (150, 1.95377459311922019314e-01) (151, -3.77506510542451323431e-02) (152, -3.14725431666745825154e-02) (153, -1.73376541207562101521e-01) (154, -1.62347160402222717712e-01) (155, -2.20332143371529287634e-01) (156, -2.77612797925502696739e-01) (157, 1.20893018972872967609e-02) (158, 2.40759397515753932606e-02) (159, -2.63775414290130683082e-01) (160, -5.93110120414597319360e-01) (161, -5.38432410477435730023e-01) (162, -5.69139245277717420457e-01) (163, -1.38077497907965834889e-01) (164, -1.99670821090276257026e-01) (165, -2.59074350853276735851e-01) (166, -1.41491903289167775259e-01) (167, -2.15726921324235959565e-01) (168, -2.11113585289571914494e-01) (169, -2.70551662708548024128e-01) (170, -2.26741899765600274375e-01) (171, -2.99183007420626312367e-01) (172, -2.29036552289275135985e-01) (173, -1.48115360817793390025e-01) (174, -1.82352777716767278093e-01) (175, -2.00282682513104964839e-01) (176, -1.02251907723234738978e-01) (177, -1.44086540417642378076e-01) (178, -8.23808890295751466981e-02) (179, -1.63041297632146559016e-01) (180, -1.76645021845482447231e-01) (181, -3.09272125805772013507e-01) (182, -3.40530560165025752983e-01) (183, -3.59517701147966273201e-01) (184, -6.08913104982441555357e-01) (185, -5.75895300249863573150e-01) (186, -5.59728370115154416631e-01) (187, -6.29503754673875981496e-01) (188, -5.40039647674101730424e-01) (189, -1.20237479547350395448e-01) (190, -1.84518234750492088336e-01) (191, -2.05119764642457735881e-01) (192, -2.66135288670831360314e-01) (193, -1.75106478304010770852e-01) (194, -2.20416834802002886695e-01) (195, -2.68674142214993805222e-01) (196, -2.84493613904973352557e-01) (197, -1.25876483180046655486e-01) (198, -1.66277628538265664915e-01) (199, -3.07323946222802679706e-01) (200, 1.97990880602010488332e+00) (201, 5.97852239371148619362e-01) (202, 2.23793162295202845147e-02) (203, -1.99844504625108637663e-01) (204, -4.67791535113790332701e-02) (205, -1.37102246830402729749e-01) (206, -2.44581285857297964226e-01) (207, -5.55429334219858118066e-03) (208, -3.29454897881095776224e-01) (209, -5.64362990100553574280e-01) (210, -6.41882158517021683686e-01) (211, -4.61590539093890306344e-01) (212, -5.54574826834315248725e-01) (213, -5.21950318055042328247e-01) (214, -5.78539156509099372627e-01) (215, -1.27341106762339950631e-01) (216, -2.56210645505247358589e-01) (217, -1.38936438422515157187e-01) (218, -2.97374788071271933809e-01) (219, -2.84973038809987144759e-01) (220, -1.91156760117521029585e-01) (221, -1.32405973988750924608e-01) (222, -1.19712862507533282508e-01) (223, -1.98681890937456279156e-01) (224, -1.84178678855468985764e-01) (225, -2.72518814020240474072e-01) (0, 9.32319564131290023923e-01) (1, 8.61833400109666691868e-01) (2, 8.69837208242196902042e-01) (3, 8.25404308735630198868e-01) (4, 8.80251709583734109899e-01) (5, 7.59700516409993809042e-01) (6, 7.88013784278566720154e-01) (7, 8.02803231103795145174e-01) (8, 8.34144801489082432511e-01) (9, 8.76086936873707533557e-01) (10, 9.14365167624341612651e-01) (11, 8.06602105986829243101e-01) (12, 8.37225948231935968025e-01) (13, 8.28392516924803090639e-01) (14, 9.56127248315307376458e-01) (15, 1.13370507006137200001e+00) (16, 8.91569958868405620933e-01) (17, 7.87694752558765309836e-01) (18, 5.89754867620291944874e-01) (19, -3.78973977923675597879e-01) (20, 6.72859623656964056515e-01) (21, 6.47721639207751498368e-01) (22, 3.07598675315142344733e-01) (23, 1.09953297701143393184e+00) (24, 1.04394539612116310501e+00) (25, 4.40239377856394442645e-01) (26, -1.59068559083888194650e+00) (27, 4.20169926907508595182e-01) (28, 4.14067456023654412167e-01) (29, 1.13533123781317057954e+00) (30, 1.12901594898801582723e+00) (31, 1.10936510331705417975e+00) (32, 1.01389391449331855988e+00) (33, 1.01576303342080387360e+00) (34, 1.08094345147070969304e+00) (35, 1.02027310626713774155e+00) (36, 1.06130374127298510167e+00) (37, 1.02735959578052438168e+00) (38, 9.77406073983681844553e-01) (39, 1.03454467266296190608e+00) (40, 1.07735280762044660641e+00) (41, 1.17332173847373311126e+00) (42, 1.13835423428698390147e+00) (43, 1.01791981091079741795e+00) (44, 1.01767828788435688026e+00) (45, 1.07696404868422290768e+00) (46, 1.14278586729078113216e+00) (47, 1.10563558382995785756e+00) (48, 9.94575116167836115189e-01) (49, 7.29828415758097093224e-01) (50, 7.00478833028114866721e-01) (51, 6.92918291214789761057e-01) (52, 8.49807099950579236669e-01) (53, 7.95688183380919955567e-01) (54, 6.77386391124229936267e-01) (55, 6.90584851292881496398e-01) (56, 8.04081189240488436454e-01) (57, 8.11323001425804601894e-01) (58, 8.74917434272236116399e-01) (59, 9.15832655819276530984e-01) (60, 7.98185582640194679627e-01) (61, 8.01612320812305489959e-01) (62, 8.00436032585580603538e-01) (63, 7.68452323873525355857e-01) (64, 8.64622428032271739262e-01) (65, 1.03407336656816251086e+00) (66, 1.07999794370900947804e+00) (67, 1.02026576923795420093e+00) (68, 5.83914303030175108056e-01) (69, 2.70951757059754327894e-01) (70, 7.47851931207769493604e-01) (71, 8.71876979533601992323e-01) (72, 1.14516288133942234495e+00) (73, 1.07798974817430659456e+00) (74, -3.17307233478082340028e+00) (75, 5.70942541939458703126e-01) (76, -6.94296960532650303533e-02) (77, 1.04580972197822807956e+00) (78, 1.03408762900999606771e+00) (79, 1.11204626115875271353e+00) (80, 1.00997878190355772077e+00) (81, 3.73260919701728588471e-01) (82, 6.27108887243760459995e-01) (83, 1.05188054838828670690e+00) (84, 9.85648767289092231358e-01) (85, 9.04849787647027170578e-01) (86, 9.47375868750541361152e-01) (87, 1.09604986043980412447e+00) (88, 1.10085966524617795415e+00) (89, 1.04034959412568972503e+00) (90, 1.03480655096348050925e+00) (91, 1.00499561865848141551e+00) (92, 1.10361474322384367497e+00) (93, 1.09584356703537433297e+00) (94, 1.10384063095533591081e+00) (95, 1.04547223733730554329e+00) (96, 1.16465067884737805137e+00) (97, 8.41425040695711556893e-01) (98, 8.12245072959842384641e-01) (99, 6.78737010273211316402e-01) (100, 6.98354275428039961149e-01) (101, 8.35184664894170092353e-01) (102, 8.39399654246562043625e-01) (103, 9.08182361493313217160e-01) (104, 8.21536503969674036796e-01) (105, 7.73680546670688418232e-01) (106, 9.05050463330058452271e-01) (107, 7.50413882914562457849e-01) (108, 8.81806634014261847554e-01) (109, 9.35740220819064431879e-03) (110, 9.08087993841752205704e-01) (111, 7.71635830822378521177e-01) (112, 6.84629055828123722627e-01) (113, 9.09923040261478965895e-01) (114, 6.25443682554543856078e-01) (115, 6.91893262338860837168e-01) (116, 7.80150688536619396629e-01) (117, 7.89834863054416858041e-01) (118, 4.04578921143224634616e-01) (119, -2.23217157222765116842e+01) (120, -1.93006374057788310239e+00) (121, 7.85406441796405552225e+00) (122, -2.10970310362253471448e-01) (123, 9.89887771927015047702e-01) (124, 1.82124159827847198478e+00) (125, -6.04275917012699181896e+01) (126, -6.19775492162173762267e+01) (127, -4.78617565139015965769e+00) (128, -6.27557534767506286499e+00) (129, 1.10423587077648455157e+00) (130, 1.09462605554385383755e+00) (131, 9.34404495723424433073e-01) (132, 1.03420319372813573899e+00) (133, 1.09704874482733982788e+00) (134, 9.96182330768871748816e-01) (135, 9.90847727499141517349e-01) (136, 1.16848974720691978213e+00) (137, 1.10882622633544691837e+00) (138, 9.96952089168209987236e-01) (139, 9.51624205769006636935e-01) (140, 9.64077497986587483858e-01) (141, 9.72019022667371723756e-01) (142, 1.05587762405173934965e+00) (143, 8.86107470732791058232e-01) (144, 7.25537205519069416937e-01) (145, 8.79400355209900896902e-01) (146, 7.62068542502080781276e-01) (147, 7.30657418840884420597e-01) (148, 7.77215561015980105353e-01) (149, 7.07334906022482501342e-01) (150, 8.52995592604840369155e-01) (151, 9.80739008201096162942e-01) (152, 1.13561872212686099104e+00) (153, 9.75852144138818933250e-01) (154, 1.14097563935101020682e+00) (155, 1.12043653723187786042e+00) (156, 8.24174682686089732364e-01) (157, 7.98439832801190130240e-01) (158, 7.47043704012147813387e-01) (159, 1.14139515204066777088e+00) (160, 1.01540194528510308025e+00) (161, 1.12584419395856305535e+00) (162, 8.35258781871167976796e-01) (163, 9.45683085987554461482e-01) (164, 8.53869796168394423752e-01) (165, 1.13431363839808097005e+00) (166, 8.25151325549597913778e-01) (167, 8.76292682103149478401e-01) (168, 7.10951283330752636935e-01) (169, 7.80599800414740974119e-01) (170, 8.10394600628110639562e-01) (171, 8.81278151798370879000e-01) (172, 7.09076332732013203675e-01) (173, 7.73748565242593167035e-01) (174, 1.01482737685401924743e+00) (175, 1.09065433371959064068e+00) (176, 1.16440952798080710195e+00) (177, 1.14899527777093446446e+00) (178, 1.01098090221531977662e+00) (179, 9.57453315471502253153e-01) (180, 1.00783003212798960568e+00) (181, 8.60206577368078595391e-01) (182, 5.47751107640912948682e-01) (183, 7.03354176738026914961e-01) (184, 8.72677997897117752046e-01) (185, 7.71006673683856003088e-01) (186, 7.99650703465329515396e-01) (187, 1.11506327366177027116e+00) (188, 1.07685912813706696767e+00) (189, 1.14843656254704362674e+00) (190, 1.05067860047715466720e+00) (191, 1.13136707258069857396e+00) (192, 1.12970444129419100854e+00) (193, 1.07374189948925025107e+00) (194, 1.07178026925485414544e+00) (195, 1.04601879876843639749e+00) (196, 7.95905617114434860149e-01) (197, 7.38651364646982888651e-01) (198, 7.82176922488954762258e-01) (199, 6.97885038937658630509e-01) (200, 5.46060209584361277990e+00) (201, 3.20396143876616124047e+00) (202, 2.36487716324392671652e+00) (203, 1.27741630238447645418e+00) (204, 1.10591540897752871331e+00) (205, 1.08111300470197924106e+00) (206, 7.79049613130942675276e-01) (207, 9.57584830368193529182e-01) (208, 7.91131874757432740353e-01) (209, 8.39768426133922551990e-01) (210, 7.77300109505333347570e-01) (211, 1.19108454536140273561e+00) (212, 9.25124352668307614600e-01) (213, 9.20490521193168764746e-01) (214, 8.97572710446058685818e-01) (215, 1.06119184085376172533e+00) (216, 7.87163746662764673978e-01) (217, 7.11231741385601856642e-01) (218, 7.15807417447616112227e-01) (219, 8.99541980498069992933e-01) (220, 7.25099968390209737024e-01) (221, 7.32227934668801538898e-01) (222, 7.05705107535661291251e-01) (223, 5.75775743659228345095e-01) (224, 8.05363393318837883506e-01) (225, 6.71716613258620087734e-01) (0, -1.48636975424569439674e+00) (1, -1.39069668038480043215e+00) (2, -1.61509842086495636337e+00) (3, -1.48575398783677403713e+00) (4, -1.56579044577722537035e+00) (5, -1.75109145117274933590e+00) (6, -2.03673138019779331742e+00) (7, -2.66596037831344556679e+00) (8, -3.04161125363962048240e+00) (9, -1.57493159137287763727e+00) (10, -1.66046296251936942312e+00) (11, -1.37315569064313347525e+00) (12, -1.33639763191177052271e+00) (13, -1.31570029934469623356e+00) (14, -1.28745766803948180623e+00) (15, -1.22034239595017779401e+00) (16, -1.17520871081941113978e+00) (17, -1.28117768356637840022e+00) (18, -1.29786869790790726498e+00) (19, -1.74670294014764126977e+00) (20, -1.70011641343173036667e+00) (21, -1.68561064655916381660e+00) (22, -1.68783058771608462934e+00) (23, -1.65275226523331775219e+00) (24, -1.42763727607739099312e+00) (25, -1.53400320295462022635e+00) (26, -1.56010448545742685944e+00) (27, -1.57764639996564204338e+00) (28, -1.45302398137933796995e+00) (29, -1.50608504511187568653e+00) (30, -1.39206289866072108197e+00) (31, -1.25738887930810472326e+00) (32, -1.20623158014347420242e+00) (33, -1.20563307825490872993e+00) (34, -1.26186006771375547331e+00) (35, -1.41210201570758897560e+00) (36, -1.40458982828823586431e+00) (37, -1.24622059443254840083e+00) (38, -1.31002584597113935772e+00) (39, -1.19714998344920409146e+00) (40, -1.32724107322164530665e+00) (41, -1.36798208677740573691e+00) (42, -1.23384437886518449901e+00) (43, -1.15770486942355965709e+00) (44, -1.35342493036414834862e+00) (45, -1.33109599433049474726e+00) (46, -1.29278161991958939758e+00) (47, -1.21626312678542847223e+00) (48, -1.22790656434187472890e+00) (49, -1.37937931099023480819e+00) (50, -1.56151127322973248823e+00) (51, -1.34445006069707218010e+00) (52, -1.29384889468085662045e+00) (53, -1.34742127334387262749e+00) (54, -1.45338892949552223044e+00) (55, -1.48358297179250797626e+00) (56, -1.31987990751109784959e+00) (57, -1.44318878383602222648e+00) (58, -1.36066533208593942739e+00) (59, -1.32994980487629921306e+00) (60, -1.31042355522844000681e+00) (61, -1.30644203919046808515e+00) (62, -1.24687115101665102479e+00) (63, -1.16183389027198358256e+00) (64, -3.97736329460437243455e-01) (65, -5.03661556575179414352e-01) (66, -3.91629309871134034804e-01) (67, -4.61042986905091156657e-01) (68, -4.83696084701523587590e-01) (69, -3.88330564970568503647e-01) (70, -1.69192929449728879376e+00) (71, -1.60329542392654422756e+00) (72, -1.65903868391435471707e+00) (73, -2.09130827517539064075e+00) (74, -1.80879058716177443245e+00) (75, -2.18149533989640964649e+00) (76, -1.80242081444959345582e+00) (77, -1.75052487352397467824e+00) (78, -1.57117523753721322066e+00) (79, -1.76207932306164516412e+00) (80, -1.36926097909321020651e+00) (81, -1.28763351492108579777e+00) (82, -1.22061368072712306265e+00) (83, -1.01041954656186572237e+00) (84, -9.55304329065587376490e-01) (85, -1.34332710851994918677e+00) (86, -1.29106546026947976991e+00) (87, -1.35403658089524148167e+00) (88, -1.27466965938015563964e+00) (89, -1.36800628912512101110e+00) (90, -1.09775021507071701699e+00) (91, -1.26810398052520945100e+00) (92, -1.21813973516526585783e+00) (93, -1.23631754283904404801e+00) (94, -1.15542710208791032933e+00) (95, -1.22712281954565538555e+00) (96, -1.18968315966613613632e+00) (97, -1.35371947648370261064e+00) (98, -1.22606545055219195994e+00) (99, -1.26771148840812841740e+00) (100, -1.54154642973811917273e+00) (101, -1.46840248237577997159e+00) (102, -1.55572166265220146464e+00) (103, -1.52750873925839614209e+00) (104, -1.53712891399260298542e+00) (105, -4.16672133686389045693e+00) (106, -5.97718668930401975103e+00) (107, -8.05662780241793363700e+00) (108, -7.99261566262269695926e+00) (109, -1.77719582648802920666e+00) (110, -1.33854772464483429140e+00) (111, -1.16147255810765370754e+00) (112, -1.21617176953760397495e-01) (113, -4.44081470837026370813e-02) (114, -3.04275094875023043028e-02) (115, -3.39304819559155035336e-01) (116, -2.33758456765625732832e-01) (117, -5.26859292562433023654e-01) (118, -5.31757222646772609309e-01) (119, -4.34164934337713859236e-01) (120, -6.06299402018397048941e-01) (121, -4.52382088221241929205e-01) (122, -5.26819216038638904465e-01) (123, -6.13893866092773410337e-01) (124, -4.96067592056667672207e-01) (125, -5.27251069690148010949e-01) (126, -6.56568476575929205197e-01) (127, -7.02859919993438886365e-01) (128, -7.88103181881324110769e-01) (129, -4.81243541762801640971e+00) (130, -1.22188509794369992711e+00) (131, -1.22404161992389082236e+00) (132, -8.85744477751161274348e-01) (133, -8.22893074036842198105e-01) (134, -1.25756590772404197587e+00) (135, -1.17573791129355242902e+00) (136, -1.27932439303533440622e+00) (137, -1.17853047013730871662e+00) (138, -1.32619428434805053385e+00) (139, -1.20868040262640685789e+00) (140, -1.28650534941161920344e+00) (141, -1.17185834074854899889e+00) (142, -1.13580935649039771462e+00) (143, -1.13652496125027280272e+00) (144, -1.15057580573409423685e+00) (145, -1.19550447638272783202e+00) (146, -1.16796952111859142498e+00) (147, -1.18460507514544266527e+00) (148, -1.21786417749053632598e+00) (149, -1.30186088278305334143e+00) (150, -1.45972543569812018838e+00) (151, -1.36607348812044815389e+00) (152, -1.29527438822962204235e+00) (153, -1.36543450303918634248e+00) (154, -1.41939221634915591075e+00) (155, -1.22850587133118738237e+00) (156, -1.25175143338389438519e+00) (157, -1.41283164407429051579e+00) (158, -1.32234341284526824012e+00) (159, -1.22019064733199078532e+00) (160, -1.31273625344761435407e+00) (161, -1.29368227296380511326e+00) (162, -1.22845037475793406045e+00) (163, -1.41351940267986697641e+00) (164, -1.33595570490122761420e+00) (165, -1.43205042947401417486e+00) (166, -1.27529546088064216214e+00) (167, -1.44766574186292684701e+00) (168, -1.33367447245395087663e+00) (169, -1.27641616299509652599e+00) (170, -1.36533502034003650927e+00) (171, -1.30765230311115754347e+00) (172, -1.34695761866771102078e+00) (173, -1.44604155159938985165e+00) (174, -1.38256582953467055397e+00) (175, -1.03573387478520873017e+00) (176, -1.06472293009927865270e+00) (177, -1.02623245322589840001e+00) (178, -1.10754103148999538675e+00) (179, -8.13421420818285501042e-01) (180, -1.21748494150671882075e+00) (181, -1.22591196402396174214e+00) (182, -1.30200799048645232681e+00) (183, -1.28945676419958399350e+00) (184, -1.18573487591725812429e+00) (185, -1.22834960785751423629e+00) (186, -1.12805119074967752368e+00) (187, -1.18493870486930208408e+00) (188, -1.27448777567419391232e+00) (189, -1.33494465033314591018e+00) (190, -1.34820594969645091155e+00) (191, -1.30958890374290159997e+00) (192, -1.33242889853927248822e+00) (193, -1.38167131170498502790e+00) (194, -1.31533719612842325830e+00) (195, -1.25899977485061431715e+00) (196, -1.33045427907840130288e+00) (197, -1.41772476271640179846e+00) (198, -1.26552337216873755921e+00) (199, -1.28528682542757222151e+00) (200, 4.40910881593541237322e+00) (201, 6.01481516898080825761e-01) (202, 3.92855683034124436581e-01) (203, -1.19872967100872085400e-01) (204, -6.47527195590758108956e-01) (205, -1.16748141700924867870e+00) (206, -1.29139816547241959022e+00) (207, -1.96993339924705868071e+00) (208, -2.12100321985990047935e+00) (209, -1.58269416389962103153e+00) (210, -2.10532613829327708288e+00) (211, -2.19103356748244637586e+00) (212, -1.32131631242468805532e+00) (213, -1.17208463559330700043e+00) (214, -1.14720260910342708449e+00) (215, -1.28937679966472340531e+00) (216, -1.22097260552723230198e+00) (217, -1.27741865563237744219e+00) (218, -1.29572639187667548732e+00) (219, -1.35690686089725320862e+00) (220, -1.37061847153113425257e+00) (221, -1.33772811255918377960e+00) (222, -1.43640787022492322222e+00) (223, -1.33643509255714953987e+00) (224, -1.22028243536016312021e+00) (225, -1.17126920581915161534e+00) (0, -6.45632159742361017019e-02) (1, -1.19380118396865297914e-01) (2, -9.58998478940531751125e-02) (3, -7.08280729001768416531e-02) (4, -3.80308515442506767101e-02) (5, -8.78505790775922501545e-02) (6, -7.86846917052707317541e-02) (7, -4.01620772237739342980e-02) (8, -8.49688873844579584116e-02) (9, -2.08726598385497669544e-03) (10, 5.95279048271630042977e-02) (11, -1.10085752303904979565e-02) (12, 1.36064534768996936442e-01) (13, -2.91105637139588667439e-02) (14, 3.43040395563980818339e-02) (15, -1.31358445870981624393e-02) (16, -8.22445473060309795166e-02) (17, 1.76849004969758916150e-01) (18, 1.36735563032513857129e-01) (19, 2.63105874239625336930e-01) (20, 2.02615553481472004949e-01) (21, 2.25864009800201853695e-01) (22, 2.37412945746241943468e-01) (23, 2.45802180385878865643e-01) (24, 1.11112002871276441263e-01) (25, 1.39412261302626683257e-01) (26, 2.27103368867212190851e-01) (27, 2.17630538618811403273e-01) (28, 1.53131242605812178947e-01) (29, 2.96649457897837920406e-01) (30, 2.86647872783400536889e-01) (31, 2.06079752349291128732e-01) (32, 1.34706125805575976928e-01) (33, 3.08922991852190742534e-01) (34, 3.23302145889860392813e-01) (35, 2.63357261576822765381e-01) (36, -1.45696580486385594139e-02) (37, -1.22368696707465723916e-01) (38, -1.31618002257815253087e-01) (39, 8.83239815633131072903e-03) (40, -1.73904632472562298284e-01) (41, -5.31226262574393537363e-02) (42, -1.42247693109445905169e-01) (43, -2.12361256524721889183e-02) (44, -9.21108480044319777313e-02) (45, -1.14023813524820105680e-01) (46, -6.54601808138763896494e-02) (47, 2.60538832861613878916e-03) (48, -3.97488698633567238278e-03) (49, -8.57416718761804114157e-02) (50, 3.12434675446565668366e-02) (51, 1.37411126114958329070e-02) (52, 3.54321394162213365586e-02) (53, -1.84175809986173964761e-02) (54, 2.96113792017418629710e-02) (55, -7.05469703565348854601e-02) (56, -1.07970323918990585010e-01) (57, 7.93306697621986717239e-02) (58, -9.38689668152958012204e-02) (59, -5.25851832968701818349e-02) (60, -7.83481018203404377953e-02) (61, 5.90985150900073183400e-02) (62, 2.71606979265285597425e-01) (63, 2.83506350794352435241e-01) (64, -8.84531276716383069170e-02) (65, -3.93943893577563541974e-02) (66, -3.12829525589517210005e-02) (67, -1.41933923424350603298e-02) (68, 4.65790526523788550595e-02) (69, -3.80221358062474076855e-02) (70, -7.43058476875634588144e-02) (71, 1.68516004619710252355e-01) (72, 1.89766677051065341120e-01) (73, 4.16761337039423598871e-02) (74, -8.01149842000600659331e-02) (75, -2.25705344059859459860e-02) (76, -1.46091099328575502181e-01) (77, 6.76345371314446275335e-02) (78, 3.02102234890143761525e-01) (79, 2.24287300157215180318e-01) (80, 1.83664746071738466116e-01) (81, 2.24475110124012083856e-01) (82, 3.44281516715943952667e-02) (83, -2.06937848914752670071e-01) (84, -7.58498456611938903782e-02) (85, -1.42852901563992051859e-01) (86, -1.31449248125224738004e-01) (87, -9.67242306139201313275e-02) (88, -1.30372708583476742961e-01) (89, -1.13400385915634061007e-02) (90, -2.95026430212446122425e-02) (91, -6.11457929336840788626e-02) (92, -6.13909377181878004870e-02) (93, 6.74796290363630351522e-03) (94, -6.27061766293438294095e-02) (95, -1.67576000534504054862e-01) (96, 2.15673766003737221730e-02) (97, -7.62358767713974122548e-02) (98, -1.46896667911894287378e-02) (99, -4.45325810640854590633e-03) (100, 2.14498654451436773782e-02) (101, -9.36329548684968759886e-02) (102, 3.59422394681126050608e-02) (103, -5.14633451078908288334e-02) (104, 2.39242753544411206057e-02) (105, 1.48176559851108807786e-02) (106, 1.82499587343549381224e-02) (107, -6.50638017221557554345e-04) (108, -1.01827481409132712155e-03) (109, -8.97826752957901902397e-02) (110, 8.22246893412699880743e-02) (111, 2.20943522567088740383e-01) (112, 3.28402313534331080636e-01) (113, 6.25473746289133769594e-01) (114, 2.84151020239047868987e-01) (115, 4.19372364869062930204e-01) (116, 3.23288387963537260372e-01) (117, 2.71773718797807872782e-01) (118, 3.01094551275135291490e-01) (119, 2.73817197528361255809e-01) (120, 2.81856351895383772099e-01) (121, 2.09603812611992762482e-01) (122, 3.29140693056009792095e-01) (123, 5.37853339679459294120e-02) (124, -4.11118032859078719188e-01) (125, -3.83381810784682100501e-02) (126, 2.14874065662415458799e-01) (127, 4.68331598944643837101e-02) (128, 2.66171127681881503069e-01) (129, 3.47962406718582140108e-01) (130, 4.26383613519044024631e-01) (131, 2.64479834306405592326e-01) (132, 2.61687839134415511921e-01) (133, 2.09258315198998512408e-01) (134, 2.38247413404743341170e-01) (135, 3.19905840937451113604e-01) (136, -3.24258226013385579198e-03) (137, -1.06389188466062042243e-02) (138, -2.49281258995189200500e-02) (139, 1.47731359452890620432e-02) (140, -5.10266976732396057570e-02) (141, 1.28920962360545687114e-02) (142, -9.00100354323652568356e-02) (143, -5.98755449764593952744e-02) (144, 2.43199071410099970647e-02) (145, -2.87743049421461602466e-02) (146, -1.16207207358150960141e-01) (147, 2.38928449173668247529e-02) (148, -1.34030565631218595568e-01) (149, -9.92532902477279571629e-02) (150, 1.14884257555337168655e-01) (151, 1.50528698928264231816e-01) (152, 2.60498439669551828946e-01) (153, 9.94377621151438101377e-02) (154, -1.33015933536869107590e-01) (155, -1.45542335833828195835e-01) (156, 2.68465948191892400665e-01) (157, 1.73568785487515087063e-01) (158, 1.62963643325931190065e-01) (159, 3.08843406516174312504e-01) (160, -4.98956912667230870206e-02) (161, -1.37000379747978850986e-01) (162, -5.56400093122545388868e-02) (163, -4.15782312637183390502e-02) (164, -5.75392939549281209888e-02) (165, -2.70407934490268161976e-02) (166, -4.44909027501814852146e-02) (167, -5.70630873341403319077e-02) (168, -2.89869185749866975499e-02) (169, -1.15839955093509430761e-01) (170, -8.93705590803427207813e-03) (171, 3.60878621795366061331e-02) (172, -4.28681679471029433715e-02) (173, -1.09830256295114919718e-01) (174, -1.20966582415502538206e-01) (175, -3.74043290948722281786e-02) (176, -7.76653540630907607278e-02) (177, -2.29312927887994510989e-01) (178, -1.19977567861256920190e-01) (179, -5.34265108007702035908e-02) (180, -6.04895989397316331121e-03) (181, 3.27010792302762087758e-02) (182, 2.62336660237287799813e-01) (183, 2.36817221218972639996e-01) (184, 2.60608107021164214778e-01) (185, -2.45646448684968821130e-02) (186, -8.20905326175503935460e-02) (187, -4.96099056933840126815e-02) (188, 4.79882376121344295106e-02) (189, -1.32024031693992932590e-01) (190, -7.96448676517722692347e-02) (191, -9.68497666498917553213e-02) (192, -9.34057573158815906966e-02) (193, 3.75447184676392167746e-02) (194, -1.00409339843157432992e-01) (195, -1.72589282678841382523e-02) (196, 6.59794801141419529067e-02) (197, -1.15969414370544338100e-01) (198, -2.67388096337120712009e-02) (199, -9.27022694395912005838e-02) (200, -1.34718660916733812272e+00) (201, -2.11309100590109233408e+00) (202, -7.69162201892566121941e-01) (203, -5.16464100028853789759e-01) (204, -3.59072945679899044324e-02) (205, -2.29125238365388318729e-02) (206, 2.71658628815631020270e-01) (207, 2.75710079254642526081e-01) (208, 3.43398105356071625671e-01) (209, 1.67722705091869039862e-01) (210, 2.97069729541841964782e-01) (211, 1.96950163793950111524e-01) (212, 2.11728080202756852035e-01) (213, -5.70264241335510374542e-02) (214, -4.34975743043404597388e-02) (215, 2.15894938572591572890e-02) (216, -5.71621549510406071204e-02) (217, -1.30518408573644495441e-01) (218, -5.23661644545198598846e-04) (219, -8.65795644232380257055e-02) (220, 3.94178926951549574165e-02) (221, 2.02232166062527307648e-02) (222, -1.06361072265227021849e-01) (223, -1.82562540640624007549e-02) (224, -6.80825275987959332991e-02) (225, -2.51769148746355184154e-02) (0, -9.18519338835111498476e-02) (1, -2.55933146629556858287e-02) (2, -9.70475430570143376974e-02) (3, 6.96018190398823011211e-02) (4, 6.71880696108716757298e-02) (5, -1.17251223107684172248e-02) (6, -5.20817504833197136849e-02) (7, -3.23757198378223295943e-02) (8, -1.35442537673083313043e-01) (9, -1.37424766308084089772e-01) (10, -1.19582447128845678619e-01) (11, -6.22631649091944724961e-02) (12, 2.46375598369838709478e-02) (13, -2.17255798504946591454e-02) (14, -1.10194794417854333157e-01) (15, 2.89509323212809692449e-02) (16, -1.27459433968407864768e-01) (17, 1.65556955983014147948e-01) (18, 1.25297505811509557461e-01) (19, 1.83831836333396253513e-01) (20, 2.55941880122365184036e-01) (21, 2.78133285921299766574e-01) (22, 2.46602580034522095298e-01) (23, 1.11766115029995144470e-01) (24, -4.97288774232967217825e-03) (25, 1.97616708828433573775e-01) (26, 1.30900996817331471966e-01) (27, 1.48575448883760286023e-01) (28, 2.49922552827227917316e-01) (29, 1.89302328820311949187e-01) (30, 2.12992638721166138716e-01) (31, 1.86469655361881481159e-01) (32, 1.58657070354559004421e-01) (33, 1.55889442283802026612e-01) (34, 2.52294382345650269883e-01) (35, 3.09855417092343377039e-01) (36, 1.55077878267911944965e-01) (37, 4.43230172622598346532e-03) (38, 1.61204447411321637185e-02) (39, -1.45022020895023223686e-01) (40, 1.74728248189658270928e-02) (41, -5.54326971381526520388e-02) (42, -1.33194794157917822952e-01) (43, -1.24615116406950277028e-01) (44, -4.06327828660261666793e-02) (45, -1.47122297807987356677e-01) (46, -1.22951710239094333388e-01) (47, -3.38399752328900557674e-02) (48, -2.15779795923768356880e-02) (49, 7.78348798698393160717e-03) (50, 6.80681130861663929998e-02) (51, -7.74942244097204940845e-02) (52, -1.66357588088298126439e-02) (53, 4.33892975745911180230e-02) (54, 8.21329548066187659083e-02) (55, -8.44638836646875446057e-02) (56, -6.53462073382484187611e-02) (57, -4.74118324378205394792e-03) (58, 1.91289114905038720726e-02) (59, -1.30839453331098282129e-01) (60, -2.10657827250230328398e-02) (61, 4.13163904338700177510e-02) (62, 3.53898603055994964706e-01) (63, 2.62115826963676135097e-01) (64, -8.50824965733005811330e-02) (65, 4.49372745616224006371e-02) (66, -4.77031519095807918229e-02) (67, -9.86003929883832452852e-02) (68, 2.99050910677032100171e-01) (69, 2.36921535226423646270e-01) (70, -8.80954505448917901678e-02) (71, -4.16664347497274600851e-01) (72, -9.34553832941871498452e-02) (73, -6.69177131927892604457e-02) (74, -1.70412855621582426391e-01) (75, 9.56463473490301446800e-02) (76, 1.53547922502742434370e-01) (77, 7.15597975282998843838e-02) (78, 1.35241129888129751890e-01) (79, 1.67462342314520312714e-01) (80, 3.05638113757569808426e-02) (81, 1.59084562062329848420e-01) (82, 8.82099895772855968623e-02) (83, 1.55676267510467342126e-01) (84, 3.17099299364644246491e-02) (85, 1.50597088012320828865e-01) (86, -8.59232888881324013974e-02) (87, -1.58320333711339411575e-01) (88, -4.81565305691899273044e-02) (89, -3.37402120025046756147e-02) (90, 6.01267021539219313764e-03) (91, -7.67413034849181857622e-02) (92, -1.21511880979691622162e-01) (93, -6.89394646819685985584e-02) (94, -1.24919439249868091668e-01) (95, 3.13551525327621788408e-02) (96, -5.15539135916331173193e-02) (97, -1.37932547000707339535e-01) (98, -9.47512696320744647605e-03) (99, 5.97409564037538858006e-03) (100, 2.09480661931244677154e-01) (101, -6.77114803386468094848e-02) (102, 5.88085737388708285067e-02) (103, 2.18459190935478657358e-02) (104, -1.31496829692328356942e-02) (105, 6.50455796263566254911e-02) (106, -5.05411927583192255309e-02) (107, -4.80716803983262733202e-02) (108, 4.14651928494861182761e-02) (109, -1.10985325616660135406e-01) (110, -2.99999873927627863646e-02) (111, -1.23918760679134015712e-01) (112, 2.80461319507078477020e-02) (113, -2.28991750023648931323e-04) (114, -1.86928633925796741644e-02) (115, 1.60832224226238690301e-01) (116, 4.10761968836570401375e-01) (117, 4.74154445581323802372e-01) (118, 9.90650137026683613728e-02) (119, 2.34274619961869462470e-01) (120, 5.65808413887299993528e-02) (121, 9.13862132852969744068e-02) (122, 1.90548162037514429157e-01) (123, -2.03436512655837328789e-02) (124, -8.68613491536790460756e-01) (125, 2.82813001008810904757e-02) (126, -4.06012294884802293210e-03) (127, -2.55829740792823286111e-02) (128, 1.00295593867321647386e-01) (129, -4.09694370969336113530e-02) (130, 2.07073491656184105469e-01) (131, 2.03247859055450480481e-01) (132, 2.86533912796842094028e-01) (133, 2.13863767992609532520e-01) (134, 3.08555556129113173203e-01) (135, 2.37171248623935210231e-01) (136, 2.70754439274382030511e-01) (137, 1.28575167950013419249e-01) (138, 2.03212956929665650163e-01) (139, 3.07362477224296992695e-01) (140, 1.81902866478346969537e-01) (141, -1.80567767401035410291e-02) (142, 2.32112123371103970526e-02) (143, -8.90749507624078729062e-02) (144, 2.98315861675271486175e-02) (145, -8.45281930237051781774e-02) (146, 4.42599932853296323954e-02) (147, 2.23528129123326084471e-02) (148, -7.42830350237355940823e-02) (149, -1.26586773302846622435e-01) (150, 2.87449669632643955985e-01) (151, 1.30681486828352788621e-01) (152, 1.85689152805244450661e-01) (153, 1.60092725259503299018e-01) (154, -8.89079320166044476982e-04) (155, 2.81712812600546591568e-01) (156, 2.50883961401085486820e-01) (157, 3.25835817327442323066e-01) (158, 1.52918388500337093516e-01) (159, 2.59048518589406251422e-01) (160, -1.22764421120717864833e-01) (161, 3.03423619913036728135e-02) (162, 2.76670316794219196821e-02) (163, -1.45015463689731421981e-01) (164, -9.38863124667436294013e-02) (165, 3.75956408380291179361e-02) (166, -2.96513300817261814257e-02) (167, -1.23830064444309620453e-01) (168, -4.31892684512830762888e-02) (169, -2.26245375191269394721e-02) (170, -7.89343493179972266471e-02) (171, -7.32431624012874343821e-02) (172, 3.27388144953053072950e-01) (173, 1.61546861108971234744e-01) (174, 3.50403559346186971313e-02) (175, -8.60969676667129091285e-01) (176, -5.56533564339939279542e-01) (177, -2.34604244314496135360e+00) (178, -3.72801551423233790139e-01) (179, -1.78824540245143465134e-01) (180, -1.08116474961443193026e-01) (181, 4.25074128997630640292e-02) (182, 2.81228469896963984009e-01) (183, 1.54549038374936026363e-01) (184, 1.62863984119457794186e-01) (185, -1.06303247824743110628e-01) (186, -8.77589335514292745444e-02) (187, -6.93573364223009775076e-02) (188, -4.84989295633171321742e-03) (189, -9.04938648121922789569e-02) (190, -7.29059495412622965427e-02) (191, -3.58112924729990372841e-02) (192, 2.98576243712537665875e-02) (193, -3.01589301335356031741e-02) (194, -1.09134057685973936969e-01) (195, -3.72588580554314777182e-02) (196, -1.00473970908603840724e-01) (197, 1.91934673551824391824e-01) (198, -6.16475659771961101430e-02) (199, -5.36035337761186364558e-02) (200, -2.59236084856630277784e+00) (201, -1.21103007446113242196e+00) (202, -1.30599579048181868579e+00) (203, -2.21701226339975299151e-01) (204, 6.85955718167059885770e-02) (205, -6.51920440003876666690e-02) (206, 2.19200431596397515843e-01) (207, 3.32519923619061352760e-01) (208, 3.22127730943778556316e-01) (209, 2.97620479647351110497e-01) (210, 2.45614004187659606959e-01) (211, 1.63706194495237183917e-01) (212, 2.99112416766263211620e-01) (213, -9.66531556859810125903e-02) (214, -4.34622829894768941683e-02) (215, -8.76386726302615937101e-02) (216, 2.64769212679652365949e-01) (217, -8.77631311019814730479e-02) (218, -8.80700008434251307987e-02) (219, 6.97552493529373339454e-03) (220, 4.57556821517407785738e-02) (221, -7.39399701058500030681e-02) (222, 1.95273359562172232895e-01) (223, 2.54817564783213212909e-01) (224, 6.02500394202827860290e-02) (225, 1.74623910726092214374e-02) (0, -1.35531771454881933003e-01) (1, -1.64690034586144895545e-01) (2, -3.11056122036685089860e-01) (3, -3.22559458680380939377e-01) (4, -2.17607176258309775729e-01) (5, -2.58101290469017252693e-01) (6, -2.25886782582027711985e-01) (7, -1.98416583732158063880e-01) (8, -1.96652160621409222152e-01) (9, -2.12429274574162857414e-01) (10, -3.10557166506501725056e-01) (11, -2.71886663866710065474e-01) (12, -1.69745282637132566261e-01) (13, -1.55451903670641572441e-01) (14, -3.45251003538392775560e-01) (15, -2.99636309820498325518e-01) (16, -2.86651835333033955244e-01) (17, -2.19508377365719792307e-01) (18, -3.08380576170830755789e-01) (19, -2.68620066424082259982e-01) (20, -3.00746555627958211954e-01) (21, -2.95477947591157419360e-01) (22, -2.96488789255459350702e-01) (23, -2.48208129527148185778e-01) (24, -3.84076040649248551251e-01) (25, -3.13810943289891175478e-01) (26, -1.90777233354376046792e-01) (27, -1.52316978375689832115e-01) (28, -1.52912896535106118678e-01) (29, -2.15625995473810866399e-01) (30, -3.43504014233202037421e-01) (31, -2.81315751129109503648e-01) (32, -1.83399561996635512839e-01) (33, -2.54021933902115748527e-01) (34, -1.77377838835776874271e-01) (35, -1.95952276028206640035e-01) (36, -3.15749081183835211828e-01) (37, -1.41737830964154015723e-01) (38, -2.97083386986979836042e-01) (39, -3.00009355333670735266e-01) (40, -1.59135120454931805467e-01) (41, -3.09991808058973083995e-01) (42, -2.53210693796946828549e-01) (43, -2.65771069410197569027e-01) (44, -2.23214327097728593152e-01) (45, -1.74197862917751439271e-01) (46, -2.69365422762022688197e-01) (47, -2.62828574312591267681e-01) (48, -2.36350740785821966661e-01) (49, -2.07781682922559884918e-01) (50, -1.67470142084795658999e-01) (51, -3.30849072262759169583e-01) (52, -2.30081854715091155272e-01) (53, -3.20820400124874172132e-01) (54, -2.61827428535572281909e-01) (55, -2.71822303370688689306e-01) (56, -2.94350113473035246425e-01) (57, -1.77866965942395399702e-01) (58, -1.82313210777445611210e-01) (59, -2.53596756103893095080e-01) (60, -1.92806613537793603008e-01) (61, -1.61216236327025835839e-01) (62, -2.80960169026201134201e-01) (63, -2.35079602986458274794e-01) (64, -2.36266549133175407515e-01) (65, -5.80772297094674594398e-01) (66, -2.13808240978605540450e-01) (67, -2.30765707634074695997e-01) (68, -2.41933622744857163012e-01) (69, -3.18554190992363761570e-01) (70, -2.84246829441740456179e-01) (71, -2.80933041527632487711e-01) (72, -3.38863239396464566155e-01) (73, -2.46687943095858674969e-01) (74, -2.44670059931432842815e-01) (75, -1.67635383183036001942e-01) (76, -2.46811795544516154877e-01) (77, -2.44424771462438489289e-01) (78, -2.08492014389918961514e-01) (79, -2.79527640861278570128e-01) (80, -1.73802142939874199046e-01) (81, -3.13275581990160090218e-01) (82, -3.10028907610493786873e-01) (83, -1.62639242866574079693e-01) (84, -2.02031239179933708172e-01) (85, -1.43203311512969472252e-01) (86, -1.89512211981995026822e-01) (87, -3.15077480401174725433e-01) (88, -3.17712916152355306920e-01) (89, -2.17620643644302724784e-01) (90, -1.93630235577352954879e-01) (91, -2.70770058740861074842e-01) (92, -2.16538834655753381631e-01) (93, -2.39689961700812498302e-01) (94, -1.45817953295763580446e-01) (95, -2.74336183049410431423e-01) (96, -2.33741496880138399650e-01) (97, -2.11055315119749120623e-01) (98, -1.78416171163951198242e-01) (99, -1.45421318157497675427e-01) (100, -2.04834844480525940513e-01) (101, -3.05215328784693873398e-01) (102, -1.57255354747092374046e-01) (103, -4.84714947489612246745e-01) (104, -5.47387369316186034318e-01) (105, -5.26010733912645078725e-01) (106, -4.27415124339233176709e-01) (107, -5.68772570113576847461e-01) (108, -6.07796129235193993701e-01) (109, -1.59707177406824829546e-01) (110, -5.23608072971568971887e-01) (111, -6.05484140208352061840e-01) (112, -2.23968305461020839031e-01) (113, -1.45671876961739693579e-01) (114, -4.49821881409071810953e-01) (115, -4.64131701959773768085e-01) (116, -3.96478970440691191879e-01) (117, -3.71019277666059077436e-01) (118, -5.41164104725013750397e-02) (119, -1.24110700337956167405e-01) (120, -9.40791369942477889721e-02) (121, -2.23430700373763974076e-01) (122, -2.12485127085168146177e-01) (123, -3.69102011371744309631e-01) (124, -4.02839886322064466562e-01) (125, -1.62928031860456623559e-01) (126, -2.40255248416681665979e-01) (127, -8.98058816045146229845e-02) (128, -2.02813715725584930993e-01) (129, 1.99478124346905982822e-01) (130, 3.18987649690765762145e-01) (131, 2.28790948781525338429e-01) (132, 2.70699166590204098881e-01) (133, -1.46036027076087815413e-01) (134, 2.16943658898463287432e-01) (135, -2.85175842471466378658e-01) (136, -1.42460621667142489644e-01) (137, -1.62425331717651111330e-01) (138, -1.96559061141315744026e-01) (139, -1.90196417505757831012e-01) (140, -2.19696793515885058223e-01) (141, -2.52340550915146510924e-01) (142, -1.30280728832645603665e-01) (143, -2.75205547226786639836e-01) (144, -3.18847630703672890728e-01) (145, -2.10869653580896571077e-01) (146, -3.35868692175922578524e-01) (147, -2.02247303368914027599e-01) (148, -1.97766569990467322437e-01) (149, -3.12954772921286206167e-01) (150, 