FANN_FLO_2.1
num_layers=3
learning_rate=0.700000
connection_rate=1.000000
network_type=0
learning_momentum=0.000000
training_algorithm=2
train_error_function=1
train_stop_function=0
cascade_output_change_fraction=0.010000
quickprop_decay=-0.000100
quickprop_mu=1.750000
rprop_increase_factor=1.200000
rprop_decrease_factor=0.500000
rprop_delta_min=0.000000
rprop_delta_max=50.000000
rprop_delta_zero=0.100000
cascade_output_stagnation_epochs=12
cascade_candidate_change_fraction=0.010000
cascade_candidate_stagnation_epochs=12
cascade_max_out_epochs=150
cascade_min_out_epochs=50
cascade_max_cand_epochs=150
cascade_min_cand_epochs=50
cascade_num_candidate_groups=2
bit_fail_limit=3.49999999999999977796e-01
cascade_candidate_limit=1.00000000000000000000e+03
cascade_weight_multiplier=4.00000000000000022204e-01
cascade_activation_functions_count=10
cascade_activation_functions=3 5 7 8 10 11 14 15 16 17 
cascade_activation_steepnesses_count=4
cascade_activation_steepnesses=2.50000000000000000000e-01 5.00000000000000000000e-01 7.50000000000000000000e-01 1.00000000000000000000e+00 
layer_sizes=226 227 8 
scale_included=0
neurons (num_inputs, activation_function, activation_steepness)=(0, 0, 0.00000000000000000000e+00) (0, 0, 0.00000000000000000000e+00) (0, 0, 0.00000000000000000000e+00) (0, 0, 0.00000000000000000000e+00) (0, 0, 0.00000000000000000000e+00) (0, 0, 0.00000000000000000000e+00) (0, 0, 0.00000000000000000000e+00) (0, 0, 0.00000000000000000000e+00) (0, 0, 0.00000000000000000000e+00) (0, 0, 0.00000000000000000000e+00) (0, 0, 0.00000000000000000000e+00) (0, 0, 0.00000000000000000000e+00) (0, 0, 0.00000000000000000000e+00) (0, 0, 0.00000000000000000000e+00) (0, 0, 0.00000000000000000000e+00) (0, 0, 0.00000000000000000000e+00) (0, 0, 0.00000000000000000000e+00) (0, 0, 0.00000000000000000000e+00) (0, 0, 0.00000000000000000000e+00) (0, 0, 0.00000000000000000000e+00) (0, 0, 0.00000000000000000000e+00) (0, 0, 0.00000000000000000000e+00) (0, 0, 0.00000000000000000000e+00) (0, 0, 0.00000000000000000000e+00) (0, 0, 0.00000000000000000000e+00) (0, 0, 0.00000000000000000000e+00) (0, 0, 0.00000000000000000000e+00) (0, 0, 0.00000000000000000000e+00) (0, 0, 0.00000000000000000000e+00) (0, 0, 0.00000000000000000000e+00) (0, 0, 0.00000000000000000000e+00) (0, 0, 0.00000000000000000000e+00) (0, 0, 0.00000000000000000000e+00) (0, 0, 0.00000000000000000000e+00) (0, 0, 0.00000000000000000000e+00) (0, 0, 0.00000000000000000000e+00) (0, 0, 0.00000000000000000000e+00) (0, 0, 0.00000000000000000000e+00) (0, 0, 0.00000000000000000000e+00) (0, 0, 0.00000000000000000000e+00) (0, 0, 0.00000000000000000000e+00) (0, 0, 0.00000000000000000000e+00) (0, 0, 0.00000000000000000000e+00) (0, 0, 0.00000000000000000000e+00) (0, 0, 0.00000000000000000000e+00) (0, 0, 0.00000000000000000000e+00) (0, 0, 0.00000000000000000000e+00) (0, 0, 0.00000000000000000000e+00) (0, 0, 0.00000000000000000000e+00) (0, 0, 0.00000000000000000000e+00) (0, 0, 0.00000000000000000000e+00) (0, 0, 0.00000000000000000000e+00) (0, 0, 0.00000000000000000000e+00) (0, 0, 0.00000000000000000000e+00) (0, 0, 0.00000000000000000000e+00) (0, 0, 0.00000000000000000000e+00) (0, 0, 0.00000000000000000000e+00) (0, 0, 0.00000000000000000000e+00) (0, 0, 0.00000000000000000000e+00) (0, 0, 0.00000000000000000000e+00) (0, 0, 0.00000000000000000000e+00) (0, 0, 0.00000000000000000000e+00) (0, 0, 0.00000000000000000000e+00) (0, 0, 0.00000000000000000000e+00) (0, 0, 0.00000000000000000000e+00) (0, 0, 0.00000000000000000000e+00) (0, 0, 0.00000000000000000000e+00) (0, 0, 0.00000000000000000000e+00) (0, 0, 0.00000000000000000000e+00) (0, 0, 0.00000000000000000000e+00) (0, 0, 0.00000000000000000000e+00) (0, 0, 0.00000000000000000000e+00) (0, 0, 0.00000000000000000000e+00) (0, 0, 0.00000000000000000000e+00) (0, 0, 0.00000000000000000000e+00) (0, 0, 0.00000000000000000000e+00) (0, 0, 0.00000000000000000000e+00) (0, 0, 0.00000000000000000000e+00) (0, 0, 0.00000000000000000000e+00) (0, 0, 0.00000000000000000000e+00) (0, 0, 0.00000000000000000000e+00) (0, 0, 0.00000000000000000000e+00) (0, 0, 0.00000000000000000000e+00) (0, 0, 0.00000000000000000000e+00) (0, 0, 0.00000000000000000000e+00) (0, 0, 0.00000000000000000000e+00) (0, 0, 0.00000000000000000000e+00) (0, 0, 0.00000000000000000000e+00) (0, 0, 0.00000000000000000000e+00) (0, 0, 0.00000000000000000000e+00) (0, 0, 0.00000000000000000000e+00) (0, 0, 0.00000000000000000000e+00) (0, 0, 0.00000000000000000000e+00) (0, 0, 0.00000000000000000000e+00) (0, 0, 0.00000000000000000000e+00) (0, 0, 0.00000000000000000000e+00) (0, 0, 0.00000000000000000000e+00) (0, 0, 0.00000000000000000000e+00) (0, 0, 0.00000000000000000000e+00) (0, 0, 0.00000000000000000000e+00) (0, 0, 0.00000000000000000000e+00) (0, 0, 0.00000000000000000000e+00) (0, 0, 0.00000000000000000000e+00) (0, 0, 0.00000000000000000000e+00) (0, 0, 0.00000000000000000000e+00) (0, 0, 0.00000000000000000000e+00) (0, 0, 0.00000000000000000000e+00) (0, 0, 0.00000000000000000000e+00) (0, 0, 0.00000000000000000000e+00) (0, 0, 0.00000000000000000000e+00) (0, 0, 0.00000000000000000000e+00) (0, 0, 0.00000000000000000000e+00) (0, 0, 0.00000000000000000000e+00) (0, 0, 0.00000000000000000000e+00) (0, 0, 0.00000000000000000000e+00) (0, 0, 0.00000000000000000000e+00) (0, 0, 0.00000000000000000000e+00) (0, 0, 0.00000000000000000000e+00) (0, 0, 0.00000000000000000000e+00) (0, 0, 0.00000000000000000000e+00) (0, 0, 0.00000000000000000000e+00) (0, 0, 0.00000000000000000000e+00) (0, 0, 0.00000000000000000000e+00) (0, 0, 0.00000000000000000000e+00) (0, 0, 0.00000000000000000000e+00) (0, 0, 0.00000000000000000000e+00) (0, 0, 0.00000000000000000000e+00) (0, 0, 0.00000000000000000000e+00) (0, 0, 0.00000000000000000000e+00) (0, 0, 0.00000000000000000000e+00) (0, 0, 0.00000000000000000000e+00) (0, 0, 0.00000000000000000000e+00) (0, 0, 0.00000000000000000000e+00) (0, 0, 0.00000000000000000000e+00) (0, 0, 0.00000000000000000000e+00) (0, 0, 0.00000000000000000000e+00) (0, 0, 0.00000000000000000000e+00) (0, 0, 0.00000000000000000000e+00) (0, 0, 0.00000000000000000000e+00) (0, 0, 0.00000000000000000000e+00) (0, 0, 0.00000000000000000000e+00) (0, 0, 0.00000000000000000000e+00) (0, 0, 0.00000000000000000000e+00) (0, 0, 0.00000000000000000000e+00) (0, 0, 0.00000000000000000000e+00) (0, 0, 0.00000000000000000000e+00) (0, 0, 0.00000000000000000000e+00) (0, 0, 0.00000000000000000000e+00) (0, 0, 0.00000000000000000000e+00) (0, 0, 0.00000000000000000000e+00) (0, 0, 0.00000000000000000000e+00) (0, 0, 0.00000000000000000000e+00) (0, 0, 0.00000000000000000000e+00) (0, 0, 0.00000000000000000000e+00) (0, 0, 0.00000000000000000000e+00) (0, 0, 0.00000000000000000000e+00) (0, 0, 0.00000000000000000000e+00) (0, 0, 0.00000000000000000000e+00) (0, 0, 0.00000000000000000000e+00) (0, 0, 0.00000000000000000000e+00) (0, 0, 0.00000000000000000000e+00) (0, 0, 0.00000000000000000000e+00) (0, 0, 0.00000000000000000000e+00) (0, 0, 0.00000000000000000000e+00) (0, 0, 0.00000000000000000000e+00) (0, 0, 0.00000000000000000000e+00) (0, 0, 0.00000000000000000000e+00) (0, 0, 0.00000000000000000000e+00) (0, 0, 0.00000000000000000000e+00) (0, 0, 0.00000000000000000000e+00) (0, 0, 0.00000000000000000000e+00) (0, 0, 0.00000000000000000000e+00) (0, 0, 0.00000000000000000000e+00) (0, 0, 0.00000000000000000000e+00) (0, 0, 0.00000000000000000000e+00) (0, 0, 0.00000000000000000000e+00) (0, 0, 0.00000000000000000000e+00) (0, 0, 0.00000000000000000000e+00) (0, 0, 0.00000000000000000000e+00) (0, 0, 0.00000000000000000000e+00) (0, 0, 0.00000000000000000000e+00) (0, 0, 0.00000000000000000000e+00) (0, 0, 0.00000000000000000000e+00) (0, 0, 0.00000000000000000000e+00) (0, 0, 0.00000000000000000000e+00) (0, 0, 0.00000000000000000000e+00) (0, 0, 0.00000000000000000000e+00) (0, 0, 0.00000000000000000000e+00) (0, 0, 0.00000000000000000000e+00) (0, 0, 0.00000000000000000000e+00) (0, 0, 0.00000000000000000000e+00) (0, 0, 0.00000000000000000000e+00) (0, 0, 0.00000000000000000000e+00) (0, 0, 0.00000000000000000000e+00) (0, 0, 0.00000000000000000000e+00) (0, 0, 0.00000000000000000000e+00) (0, 0, 0.00000000000000000000e+00) (0, 0, 0.00000000000000000000e+00) (0, 0, 0.00000000000000000000e+00) (0, 0, 0.00000000000000000000e+00) (0, 0, 0.00000000000000000000e+00) (0, 0, 0.00000000000000000000e+00) (0, 0, 0.00000000000000000000e+00) (0, 0, 0.00000000000000000000e+00) (0, 0, 0.00000000000000000000e+00) (0, 0, 0.00000000000000000000e+00) (0, 0, 0.00000000000000000000e+00) (0, 0, 0.00000000000000000000e+00) (0, 0, 0.00000000000000000000e+00) (0, 0, 0.00000000000000000000e+00) (0, 0, 0.00000000000000000000e+00) (0, 0, 0.00000000000000000000e+00) (0, 0, 0.00000000000000000000e+00) (0, 0, 0.00000000000000000000e+00) (0, 0, 0.00000000000000000000e+00) (0, 0, 0.00000000000000000000e+00) (0, 0, 0.00000000000000000000e+00) (0, 0, 0.00000000000000000000e+00) (0, 0, 0.00000000000000000000e+00) (0, 0, 0.00000000000000000000e+00) (0, 0, 0.00000000000000000000e+00) (0, 0, 0.00000000000000000000e+00) (0, 0, 0.00000000000000000000e+00) (0, 0, 0.00000000000000000000e+00) (0, 0, 0.00000000000000000000e+00) (0, 0, 0.00000000000000000000e+00) (226, 5, 5.00000000000000000000e-01) (226, 5, 5.00000000000000000000e-01) (226, 5, 5.00000000000000000000e-01) (226, 5, 5.00000000000000000000e-01) (226, 5, 5.00000000000000000000e-01) (226, 5, 5.00000000000000000000e-01) (226, 5, 5.00000000000000000000e-01) (226, 5, 5.00000000000000000000e-01) (226, 5, 5.00000000000000000000e-01) (226, 5, 5.00000000000000000000e-01) (226, 5, 5.00000000000000000000e-01) (226, 5, 5.00000000000000000000e-01) (226, 5, 5.00000000000000000000e-01) (226, 5, 5.00000000000000000000e-01) (226, 5, 5.00000000000000000000e-01) (226, 5, 5.00000000000000000000e-01) (226, 5, 5.00000000000000000000e-01) (226, 5, 5.00000000000000000000e-01) (226, 5, 5.00000000000000000000e-01) (226, 5, 5.00000000000000000000e-01) (226, 5, 5.00000000000000000000e-01) (226, 5, 5.00000000000000000000e-01) (226, 5, 5.00000000000000000000e-01) (226, 5, 5.00000000000000000000e-01) (226, 5, 5.00000000000000000000e-01) (226, 5, 5.00000000000000000000e-01) (226, 5, 5.00000000000000000000e-01) (226, 5, 5.00000000000000000000e-01) (226, 5, 5.00000000000000000000e-01) (226, 5, 5.00000000000000000000e-01) (226, 5, 5.00000000000000000000e-01) (226, 5, 5.00000000000000000000e-01) (226, 5, 5.00000000000000000000e-01) (226, 5, 5.00000000000000000000e-01) (226, 5, 5.00000000000000000000e-01) (226, 5, 5.00000000000000000000e-01) (226, 5, 5.00000000000000000000e-01) (226, 5, 5.00000000000000000000e-01) (226, 5, 5.00000000000000000000e-01) (226, 5, 5.00000000000000000000e-01) (226, 5, 5.00000000000000000000e-01) (226, 5, 5.00000000000000000000e-01) (226, 5, 5.00000000000000000000e-01) (226, 5, 5.00000000000000000000e-01) (226, 5, 5.00000000000000000000e-01) (226, 5, 5.00000000000000000000e-01) (226, 5, 5.00000000000000000000e-01) (226, 5, 5.00000000000000000000e-01) (226, 5, 5.00000000000000000000e-01) (226, 5, 5.00000000000000000000e-01) (226, 5, 5.00000000000000000000e-01) (226, 5, 5.00000000000000000000e-01) (226, 5, 5.00000000000000000000e-01) (226, 5, 5.00000000000000000000e-01) (226, 5, 5.00000000000000000000e-01) (226, 5, 5.00000000000000000000e-01) (226, 5, 5.00000000000000000000e-01) (226, 5, 5.00000000000000000000e-01) (226, 5, 5.00000000000000000000e-01) (226, 5, 5.00000000000000000000e-01) (226, 5, 5.00000000000000000000e-01) (226, 5, 5.00000000000000000000e-01) (226, 5, 5.00000000000000000000e-01) (226, 5, 5.00000000000000000000e-01) (226, 5, 5.00000000000000000000e-01) (226, 5, 5.00000000000000000000e-01) (226, 5, 5.00000000000000000000e-01) (226, 5, 5.00000000000000000000e-01) (226, 5, 5.00000000000000000000e-01) (226, 5, 5.00000000000000000000e-01) (226, 5, 5.00000000000000000000e-01) (226, 5, 5.00000000000000000000e-01) (226, 5, 5.00000000000000000000e-01) (226, 5, 5.00000000000000000000e-01) (226, 5, 5.00000000000000000000e-01) (226, 5, 5.00000000000000000000e-01) (226, 5, 5.00000000000000000000e-01) (226, 5, 5.00000000000000000000e-01) (226, 5, 5.00000000000000000000e-01) (226, 5, 5.00000000000000000000e-01) (226, 5, 5.00000000000000000000e-01) (226, 5, 5.00000000000000000000e-01) (226, 5, 5.00000000000000000000e-01) (226, 5, 5.00000000000000000000e-01) (226, 5, 5.00000000000000000000e-01) (226, 5, 5.00000000000000000000e-01) (226, 5, 5.00000000000000000000e-01) (226, 5, 5.00000000000000000000e-01) (226, 5, 5.00000000000000000000e-01) (226, 5, 5.00000000000000000000e-01) (226, 5, 5.00000000000000000000e-01) (226, 5, 5.00000000000000000000e-01) (226, 5, 5.00000000000000000000e-01) (226, 5, 5.00000000000000000000e-01) (226, 5, 5.00000000000000000000e-01) (226, 5, 5.00000000000000000000e-01) (226, 5, 5.00000000000000000000e-01) (226, 5, 5.00000000000000000000e-01) (226, 5, 5.00000000000000000000e-01) (226, 5, 5.00000000000000000000e-01) (226, 5, 5.00000000000000000000e-01) (226, 5, 5.00000000000000000000e-01) (226, 5, 5.00000000000000000000e-01) (226, 5, 5.00000000000000000000e-01) (226, 5, 5.00000000000000000000e-01) (226, 5, 5.00000000000000000000e-01) (226, 5, 5.00000000000000000000e-01) (226, 5, 5.00000000000000000000e-01) (226, 5, 5.00000000000000000000e-01) (226, 5, 5.00000000000000000000e-01) (226, 5, 5.00000000000000000000e-01) (226, 5, 5.00000000000000000000e-01) (226, 5, 5.00000000000000000000e-01) (226, 5, 5.00000000000000000000e-01) (226, 5, 5.00000000000000000000e-01) (226, 5, 5.00000000000000000000e-01) (226, 5, 5.00000000000000000000e-01) (226, 5, 5.00000000000000000000e-01) (226, 5, 5.00000000000000000000e-01) (226, 5, 5.00000000000000000000e-01) (226, 5, 5.00000000000000000000e-01) (226, 5, 5.00000000000000000000e-01) (226, 5, 5.00000000000000000000e-01) (226, 5, 5.00000000000000000000e-01) (226, 5, 5.00000000000000000000e-01) (226, 5, 5.00000000000000000000e-01) (226, 5, 5.00000000000000000000e-01) (226, 5, 5.00000000000000000000e-01) (226, 5, 5.00000000000000000000e-01) (226, 5, 5.00000000000000000000e-01) (226, 5, 5.00000000000000000000e-01) (226, 5, 5.00000000000000000000e-01) (226, 5, 5.00000000000000000000e-01) (226, 5, 5.00000000000000000000e-01) (226, 5, 5.00000000000000000000e-01) (226, 5, 5.00000000000000000000e-01) (226, 5, 5.00000000000000000000e-01) (226, 5, 5.00000000000000000000e-01) (226, 5, 5.00000000000000000000e-01) (226, 5, 5.00000000000000000000e-01) (226, 5, 5.00000000000000000000e-01) (226, 5, 5.00000000000000000000e-01) (226, 5, 5.00000000000000000000e-01) (226, 5, 5.00000000000000000000e-01) (226, 5, 5.00000000000000000000e-01) (226, 5, 5.00000000000000000000e-01) (226, 5, 5.00000000000000000000e-01) (226, 5, 5.00000000000000000000e-01) (226, 5, 5.00000000000000000000e-01) (226, 5, 5.00000000000000000000e-01) (226, 5, 5.00000000000000000000e-01) (226, 5, 5.00000000000000000000e-01) (226, 5, 5.00000000000000000000e-01) (226, 5, 5.00000000000000000000e-01) (226, 5, 5.00000000000000000000e-01) (226, 5, 5.00000000000000000000e-01) (226, 5, 5.00000000000000000000e-01) (226, 5, 5.00000000000000000000e-01) (226, 5, 5.00000000000000000000e-01) (226, 5, 5.00000000000000000000e-01) (226, 5, 5.00000000000000000000e-01) (226, 5, 5.00000000000000000000e-01) (226, 5, 5.00000000000000000000e-01) (226, 5, 5.00000000000000000000e-01) (226, 5, 5.00000000000000000000e-01) (226, 5, 5.00000000000000000000e-01) (226, 5, 5.00000000000000000000e-01) (226, 5, 5.00000000000000000000e-01) (226, 5, 5.00000000000000000000e-01) (226, 5, 5.00000000000000000000e-01) (226, 5, 5.00000000000000000000e-01) (226, 5, 5.00000000000000000000e-01) (226, 5, 5.00000000000000000000e-01) (226, 5, 5.00000000000000000000e-01) (226, 5, 5.00000000000000000000e-01) (226, 5, 5.00000000000000000000e-01) (226, 5, 5.00000000000000000000e-01) (226, 5, 5.00000000000000000000e-01) (226, 5, 5.00000000000000000000e-01) (226, 5, 5.00000000000000000000e-01) (226, 5, 5.00000000000000000000e-01) (226, 5, 5.00000000000000000000e-01) (226, 5, 5.00000000000000000000e-01) (226, 5, 5.00000000000000000000e-01) (226, 5, 5.00000000000000000000e-01) (226, 5, 5.00000000000000000000e-01) (226, 5, 5.00000000000000000000e-01) (226, 5, 5.00000000000000000000e-01) (226, 5, 5.00000000000000000000e-01) (226, 5, 5.00000000000000000000e-01) (226, 5, 5.00000000000000000000e-01) (226, 5, 5.00000000000000000000e-01) (226, 5, 5.00000000000000000000e-01) (226, 5, 5.00000000000000000000e-01) (226, 5, 5.00000000000000000000e-01) (226, 5, 5.00000000000000000000e-01) (226, 5, 5.00000000000000000000e-01) (226, 5, 5.00000000000000000000e-01) (226, 5, 5.00000000000000000000e-01) (226, 5, 5.00000000000000000000e-01) (226, 5, 5.00000000000000000000e-01) (226, 5, 5.00000000000000000000e-01) (226, 5, 5.00000000000000000000e-01) (226, 5, 5.00000000000000000000e-01) (226, 5, 5.00000000000000000000e-01) (226, 5, 5.00000000000000000000e-01) (226, 5, 5.00000000000000000000e-01) (226, 5, 5.00000000000000000000e-01) (226, 5, 5.00000000000000000000e-01) (226, 5, 5.00000000000000000000e-01) (226, 5, 5.00000000000000000000e-01) (226, 5, 5.00000000000000000000e-01) (226, 5, 5.00000000000000000000e-01) (226, 5, 5.00000000000000000000e-01) (226, 5, 5.00000000000000000000e-01) (226, 5, 5.00000000000000000000e-01) (226, 5, 5.00000000000000000000e-01) (226, 5, 5.00000000000000000000e-01) (226, 5, 5.00000000000000000000e-01) (226, 5, 5.00000000000000000000e-01) (226, 5, 5.00000000000000000000e-01) (226, 5, 5.00000000000000000000e-01) (226, 5, 5.00000000000000000000e-01) (226, 5, 5.00000000000000000000e-01) (226, 5, 5.00000000000000000000e-01) (226, 5, 5.00000000000000000000e-01) (0, 5, 0.00000000000000000000e+00) (227, 5, 5.00000000000000000000e-01) (227, 5, 5.00000000000000000000e-01) (227, 5, 5.00000000000000000000e-01) (227, 5, 5.00000000000000000000e-01) (227, 5, 5.00000000000000000000e-01) (227, 5, 5.00000000000000000000e-01) (227, 5, 5.00000000000000000000e-01) (0, 5, 0.00000000000000000000e+00) 
connections (connected_to_neuron, weight)=(0, 5.88407232883263273809e-03) (1, 5.19531645094777269622e-02) (2, 1.14878094808309530461e-02) (3, -1.91216023917169519741e-02) (4, 2.02076350876933142492e-03) (5, -1.29034699681192417675e-02) (6, -1.61653785943239930098e-03) (7, 1.34371174551900618432e-01) (8, 2.50376964372743815446e-01) (9, 2.94439790498483677794e-01) (10, 1.50459438975795833926e-01) (11, -7.25864490771119030832e-01) (12, -1.17240207861164513758e+00) (13, -5.62515005852074270742e-02) (14, -1.16242447207074175997e-01) (15, -3.07287281094332231923e-01) (16, -4.27191755926001337507e-02) (17, 1.40799866255391675773e-01) (18, 1.54616345394905707611e-01) (19, 1.03687003138714567418e-01) (20, 2.35431772966031821470e-01) (21, 3.52067882579244706420e-01) (22, 1.18236117272970875369e+00) (23, 4.14921201179251186719e-01) (24, 5.13591185801651861631e-01) (25, 3.89825478073801123813e+00) (26, 1.85818162987253776564e+00) (27, 1.70652512205327044903e+00) (28, 1.79608504338640773135e+00) (29, 3.17299177496931816833e-01) (30, 1.57901032917371009212e+00) (31, 3.38546714884337962559e+00) (32, 1.16340741210283948881e+00) (33, 1.09215740510168446420e+00) (34, 1.22266689278379958594e+00) (35, 4.90786836257989134147e-01) (36, 3.96279428352352636189e-01) (37, 2.99137505570169326408e-01) (38, 3.23611028608331241507e-01) (39, 2.66980943087867739205e-01) (40, 1.93011399739930228359e-01) (41, 2.71565769558372527293e-01) (42, 1.31194148561428886035e-01) (43, 2.28636262602239209718e-01) (44, 1.76201955322855437214e-02) (45, 1.01770755315289687659e-01) (46, 1.50997384182923383156e-01) (47, 1.00787824488358115915e-01) (48, 1.87605392920377589405e-01) (49, 3.97970499110118669517e-01) (50, 3.64746680343257301260e-01) (51, 2.81553345799559373575e-01) (52, 1.90980020054655669215e-01) (53, 2.51726632120733206932e-01) (54, 1.29137127824840991508e-01) (55, 1.12911732230749108086e-02) (56, 3.82844469274531140623e-02) (57, 2.14989693831844130845e-01) (58, 3.34455441985639756464e-01) (59, 1.02977475028417586600e+00) (60, 7.51564065712418682974e-02) (61, -1.87562825126213805760e-01) (62, -1.54313855762769680524e-01) (63, 9.91751581973990548047e-02) (64, -9.46642300101861212946e-03) (65, -7.17367357010922024330e-01) (66, 1.14755115215296934345e-02) (67, 9.88323593941486056025e-01) (68, 2.18288146987273251609e-01) (69, 1.27179507989360229825e-01) (70, 6.80628323348650560165e-02) (71, 3.20879774660088823435e-01) (72, 1.85530861828383279999e+01) (73, 9.11395291420392217319e-01) (74, 7.78203844812863643199e-01) (75, 1.65229805351188723250e+01) (76, 2.52565267592895326132e+00) (77, 1.24926790402466858509e+00) (78, 2.65159577453640882272e-01) (79, 1.52262988372978358420e-01) (80, 7.78909707862695865899e-01) (81, 2.16204763255357201857e+00) (82, 1.72391975923976037421e+00) (83, 2.56259625292296444599e+00) (84, 2.47466938105523048819e+00) (85, 4.89858665773613422001e-01) (86, 6.73197387637095912005e-01) (87, 7.59241457076960557515e-01) (88, 5.55347064692715775003e-01) (89, 3.72395292959817214573e-01) (90, 2.43361580806107369312e-01) (91, 2.78179718454067692601e-01) (92, 3.61783457685537601645e-01) (93, 2.26348311048944289547e-01) (94, 1.83681245520287139694e-01) (95, 3.21848211424438923611e-01) (96, 3.52777294140957820012e-01) (97, 2.62394318301913065383e-01) (98, 4.77539735662761255508e-01) (99, 1.60012595143603908454e+00) (100, 3.00275101425942103628e-01) (101, 2.69246448121419901245e-01) (102, 3.45001782788565469762e-01) (103, 2.04891389954238806181e-01) (104, 1.49837102893291523875e-01) (105, 6.57614475608508247673e-02) (106, 1.18838713278782245886e-01) (107, 3.20177697712733688729e-01) (108, 3.12822838581066575703e-01) (109, 5.34189729513701916375e-01) (110, 1.64160142391837599041e-01) (111, -8.68412117631117808081e-01) (112, -2.14784881485445078297e+00) (113, -1.56007224416648465626e-01) (114, -8.68161807102409976977e-01) (115, -1.34670328588641954326e+01) (116, 3.97072901836660219210e-01) (117, 2.64108394216764814644e+01) (118, 3.94829198052673413510e-01) (119, 7.15506756995831882939e-01) (120, 4.76413057892389746328e-01) (121, 4.48650100203706436730e-01) (122, 1.13934546412009893857e+01) (123, 1.63737891476128982760e+00) (124, 5.07989731234751884514e-01) (125, 3.74654746321261500341e-01) (126, 2.28677183467814737483e+00) (127, 2.17034057222074538984e+00) (128, 4.22710057141398254377e-01) (129, 2.27103081854200805623e-01) (130, 1.68438485679398702866e-01) (131, 2.09437274236306159025e+00) (132, 1.56971786982608585426e+00) (133, 7.22412982582940954579e-01) (134, 4.87731743936996142708e-01) (135, 5.54569817446936563776e-01) (136, 3.26964436716396134042e-01) (137, 2.45297244865389868496e-01) (138, 1.66620591780153065598e-01) (139, 2.61952553401342214112e-01) (140, 3.87211908688577577387e-01) (141, 3.20524948227579598026e-01) (142, 1.93339354046458467007e-01) (143, 2.76271340693174161096e-01) (144, 1.17391259272554671078e-01) (145, 3.71416626223333212753e-01) (146, 3.41208690734048747384e-01) (147, 3.46135810307675706454e-01) (148, 6.61954059400621908082e-01) (149, 1.02069218309174249981e+01) (150, 4.34972529644957139894e-01) (151, 1.11163067110500224377e-01) (152, 2.86194479077969965441e-01) (153, 3.77129510518760480142e-01) (154, 2.43859409285146044866e-01) (155, 1.22504015752092521030e-01) (156, 4.53155657560594671285e-01) (157, 9.14626727818082629895e-01) (158, 1.30123831510048526550e-01) (159, 8.54275750581280218787e-02) (160, 2.06088073875323740669e-01) (161, 1.36514149201556717061e-01) (162, 7.24872457636875772158e-02) (163, -4.00897504069179077407e-04) (164, 1.63310059720026823360e-01) (165, 3.33179156469828388620e-02) (166, 1.56696590762424627086e-02) (167, 6.20590890035907158384e-02) (168, -3.68295653451858632718e-03) (169, -7.26673853356685356397e-02) (170, -9.77936807237680394422e-02) (171, -1.84580083972046588014e-01) (172, 9.80962960546015450003e-02) (173, 8.22539959950534249611e-02) (174, 3.18120884163631489905e-01) (175, 2.72126293658136453324e-01) (176, 1.07844064085362567607e-01) (177, 2.01384589630081906053e-01) (178, 2.81681430692485079703e-01) (179, -1.86351591523225862401e-01) (180, -2.50475746085803141483e+00) (181, 1.36895737663902106185e+00) (182, 1.28669383685568110565e+01) (183, 4.34401860908910020243e+00) (184, 1.27048171552545463570e+00) (185, 2.24197677172093157161e-01) (186, 2.81234981510649129088e-01) (187, 1.22234709541067229632e-01) (188, 7.48735734455443918689e-02) (189, 1.55987499307023852468e-01) (190, 1.35638407713364328444e-01) (191, 1.67187097769634113176e-01) (192, 2.06265865755151350802e-01) (193, 1.34756236539002816066e-01) (194, 1.06682978008068418685e-01) (195, 3.74032333380279816137e-02) (196, 5.39368105714769299763e-02) (197, 1.98715043998205914688e-01) (198, 1.39066841467447716019e-01) (199, 2.42913530841377928171e-01) (200, -2.27366013453015991530e-01) (201, 7.99172386376756027637e-01) (202, 2.03737588890531007291e-01) (203, 1.94626507495191947150e-01) (204, 2.10067923198580058797e-01) (205, 6.66093354154661532185e-02) (206, 8.29234888051739837955e-01) (207, 5.42457169763664648343e-01) (208, 3.47924389556399427104e-01) (209, 2.16081690005906129626e-01) (210, 3.50198209024834672398e-01) (211, 3.27674372989918638588e-01) (212, 1.21098972756985862054e-01) (213, 1.19471890859058404999e-01) (214, 1.78254212525136401801e-01) (215, 8.26204853366461627884e-02) (216, 3.26312313726673741687e-01) (217, 3.51830006534644579297e-01) (218, 8.52310793716029913014e-01) (219, 3.47888564023598689801e-01) (220, 1.51979834614659414793e-01) (221, 1.74533455624568567544e-01) (222, 2.26767023070582579569e-01) (223, 2.81750476886518663733e-01) (224, 5.40131725317816835386e-01) (225, 2.56112552709586349664e+00) (0, 2.98496574934056297934e+02) (1, 1.57587492480747144441e+01) (2, 1.40788331765056717870e+00) (3, 1.00514192913786803985e+00) (4, 9.60978029233854336155e-01) (5, 9.80985166686610288167e-01) (6, 1.10934484862919213732e+00) (7, 1.09209168625374575257e+00) (8, 1.06862983889675966509e+00) (9, 9.31583518593601112023e-01) (10, 1.01562582457909744704e+00) (11, 1.04490062207665945770e+00) (12, 9.43911844460344817698e-01) (13, 9.99954668709658212045e-01) (14, 1.00904663665391725047e+00) (15, 1.18840569530316386704e+00) (16, 1.31407447150367762134e+01) (17, 3.46300928872370405998e+00) (18, 1.29444695291676103999e+00) (19, 9.19405617513894268811e-01) (20, 9.39029569883543913100e-01) (21, 9.18585592056718081011e-01) (22, 8.92248298525706307061e-01) (23, 9.21224871961971891743e-01) (24, 8.38318854968803761629e-01) (25, 1.00885189214621195930e+00) (26, 1.00544414390849046192e+00) (27, 9.58742366164438086784e-01) (28, 1.01382028941010693401e+00) (29, 8.40138552624168588601e-01) (30, 1.01648387951826513209e+00) (31, 1.01036608042712039435e+00) (32, 1.01751887586300382438e+00) (33, 8.92166573742808055592e-01) (34, 8.42945508268939436292e-01) (35, 9.76059331449664058233e-01) (36, 9.63613770692231197401e-01) (37, 8.82080054090488285823e-01) (38, 9.46023470801859556190e-01) (39, 9.57661828859393104985e-01) (40, 8.89787764332332198336e-01) (41, 1.04354752142608253607e+00) (42, 1.15158388970882441527e+00) (43, 1.32065122428034831259e+00) (44, 6.32494330935306336983e+00) (45, 1.58804329727505368908e+01) (46, 1.97193811297951127059e+00) (47, 2.53253413149528974202e+01) (48, 3.12141653473641326855e+02) (49, 1.02014227361103881897e+00) (50, 1.03623849334627848862e+00) (51, 9.68433346862412891554e-01) (52, 8.95323075779751342829e-01) (53, 1.02128712374678554120e+00) (54, 1.06504622646801871966e+00) (55, 1.10057038733777701189e+00) (56, 1.00166702339840330005e+00) (57, 1.07724631728019026866e+00) (58, 1.03071815826118262649e+00) (59, 1.03278170339377317610e+00) (60, 9.08359123557068603994e-01) (61, 9.50381758945832766372e-01) (62, 1.02145219478901205790e+00) (63, 8.87557626620076645096e-01) (64, 1.23725497526086125610e+00) (65, 2.16374583683335419693e+00) (66, 3.80651968516331322689e+01) (67, 2.33312775261989848730e+01) (68, 1.39929810954969138237e+01) (69, 4.61039033069228310069e+00) (70, 1.48104955034402419045e+00) (71, 1.81849945312544902798e+00) (72, 3.75720433091863892372e+00) (73, 1.65736565208801023275e+00) (74, 2.60684644488222749814e+00) (75, 3.91042893634402588532e+01) (76, 9.37039831986602393954e+01) (77, 1.93823913824912139603e+01) (78, 6.35178354099107878028e+00) (79, 1.05858709070233758531e+00) (80, 1.07505505715934468469e+00) (81, 9.62139676559091494568e-01) (82, 9.15210831795275958633e-01) (83, 8.42633659554245628698e-01) (84, 8.28703366310351796642e-01) (85, 8.89299927277066637465e-01) (86, 8.10774709791899139688e-01) (87, 9.20825837997818141822e-01) (88, 9.04347961899993002532e-01) (89, 8.64702152618207375845e-01) (90, 9.34336000395230792392e-01) (91, 8.90460403361124752664e-01) (92, 9.00830526635960859849e-01) (93, 8.30197546986892076504e-01) (94, 9.59819592542021537973e-01) (95, 1.08909931649230906636e+00) (96, 8.77607094247884633731e-01) (97, 1.01454884150533164444e+00) (98, 1.07953223679694487736e+00) (99, 9.74467702317947215285e-01) (100, 9.32915090877846187034e-01) (101, 9.19592591788773394690e-01) (102, 8.92316146723217129555e-01) (103, 9.92273380643201141638e-01) (104, 9.46504085286523078047e-01) (105, 9.70682461692063958125e-01) (106, 1.02161606165875706864e+00) (107, 7.13393245013407617527e-01) (108, 6.70634018267892817455e-01) (109, 7.83291585894082986741e-01) (110, 5.70875271375819837161e-01) (111, 2.63927308046585873402e-01) (112, -5.19304975073549499598e+01) (113, -1.37473205458794858203e+01) (114, -8.22843660534956722330e-01) (115, -2.13697498565700250150e-01) (116, 4.02368651318681103124e-01) (117, 1.90207726754357309140e+00) (118, 9.19968610860606759161e+01) (119, 1.48626530748600038656e+00) (120, 9.38905918726876898006e-01) (121, 5.28854653352708169223e+02) (122, 1.79568485592817372876e+00) (123, 6.47306670726628174961e-01) (124, 5.13058102347790298547e-02) (125, 8.26504773848584339824e-01) (126, 9.48338501807383882358e-01) (127, 1.16511570349889015397e+00) (128, 1.04286629500816241389e+00) (129, 1.13231344067376671347e+00) (130, 1.28553809477834790620e+00) (131, 1.09436514270033291574e+00) (132, 1.11393730206137520078e+00) (133, 1.17864789419271875914e+00) (134, 1.16860887444287042669e+00) (135, 9.87909537025510764430e-01) (136, 9.79678861766477226958e-01) (137, 1.17449986973052089567e+00) (138, 1.06266168811106442860e+00) (139, 9.96306404388165423036e-01) (140, 9.40901931607132202551e-01) (141, 8.98415666119910305554e-01) (142, 9.35457043966297696613e-01) (143, 8.67274385048838247769e-01) (144, 1.06755058086248832971e+00) (145, 1.10719419555224973806e+00) (146, 1.01544964430916384579e+00) (147, 9.23977843976757751143e-01) (148, 9.13373984425852047941e-01) (149, 9.93610338828171624215e-01) (150, 1.07711782611311979174e+00) (151, 1.11408374483550853817e+00) (152, 9.29731796728904158478e-01) (153, 8.78245272974917612352e-01) (154, 8.55858956927926239899e-01) (155, 1.00565261764480884388e+00) (156, 1.19055046830554100978e+00) (157, 1.44697001239030242914e+00) (158, 2.32547113846431496853e+00) (159, 1.17105326349329530444e+00) (160, 9.63806770183989081069e-01) (161, 9.76111874074448881977e-01) (162, 9.33843671545380060728e-01) (163, 9.18665055776440753199e-01) (164, 9.61112370617762445946e-01) (165, 9.91823827205213004454e-01) (166, 8.64504701778798567702e-01) (167, 9.19807629193403752943e-01) (168, 9.43462759201301404133e-01) (169, 1.03215179770371490164e+00) (170, 1.09537201217507562667e+00) (171, 1.06707190168403465158e+00) (172, 2.47369941873157443979e+01) (173, 1.34363384959100557126e+02) (174, 9.09572235165744702456e-01) (175, 1.25279119141054547981e+03) (176, 4.36624514173512245918e+00) (177, 1.93357192847946706138e+01) (178, 1.02840737276560245661e+00) (179, 1.11033205372291354784e+00) (180, 1.06251293663041712634e+00) (181, 1.13491278772421688714e+00) (182, 9.41561780471304232698e-01) (183, 8.81097858544936829439e-01) (184, 8.73805900827977488632e-01) (185, 9.45918073074926257782e-01) (186, 9.03650525720313679834e-01) (187, 8.98699827251505434234e-01) (188, 1.00063154572122781083e+00) (189, 8.85276223237730808258e-01) (190, 1.05036420054915291544e+00) (191, 9.98407082957600722217e-01) (192, 1.00033342024288973704e+00) (193, 9.31647030373151441296e-01) (194, 1.02700138507035920732e+00) (195, 1.05001474209943701510e+00) (196, 8.80340027978379735529e-01) (197, 9.21508159746368016307e-01) (198, 9.03941707583144959948e-01) (199, 8.84331690140240600506e-01) (200, -1.50000000000000000000e+03) (201, -1.49998557394196109271e+03) (202, -1.17085460645023744064e+02) (203, -3.91417710128957718752e+00) (204, -3.29989658576956568226e+00) (205, 5.68939266016897349232e+00) (206, 4.14568320943709807125e+01) (207, 1.06148295291152083841e+00) (208, 9.31423353641104290190e-01) (209, 9.75149354625422071230e-01) (210, 9.91295370116700547136e-01) (211, 1.00501466333744771120e+00) (212, 8.71580991360804357981e-01) (213, 8.89395603282374103138e-01) (214, 9.73187363433963503745e-01) (215, 9.22185260099085191143e-01) (216, 8.31127528170979679167e-01) (217, 9.53481208533410229400e-01) (218, 8.50549106972410928762e-01) (219, 9.40022523668723963830e-01) (220, 9.81690322103327406289e-01) (221, 9.18377281925870647683e-01) (222, 9.49223117765148227676e-01) (223, 9.99426250858807319055e-01) (224, 1.02241189232578610913e+00) (225, 8.85444774614584040329e-01) (0, 6.74358562704303499125e-01) (1, 6.15223296673568120774e-01) (2, 7.59589732071650369782e-01) (3, 7.50046039700282385354e-01) (4, 8.96152723419832208940e-01) (5, 9.25373364016186528147e-01) (6, 8.48630372210016803436e-01) (7, 8.06890007330345770953e-01) (8, 9.02414550465352904851e-01) (9, 7.35341635340741150983e-01) (10, 5.86777255354915427965e-01) (11, 6.18492872638075952274e-01) (12, 4.81183606179704459471e-01) (13, 3.92455702188946098374e-01) (14, 3.31410323933198414093e-01) (15, 2.59268144613301498858e-01) (16, 3.84855213783185712284e-01) (17, 4.55841209378015865816e-01) (18, 3.20415244181518954480e-01) (19, 3.76124921711584958572e-01) (20, 3.49564650146937050401e-01) (21, 4.61013660858063278880e-01) (22, 4.35492878063883537276e-01) (23, 4.54442743372894808473e-01) (24, 4.39657928681075838018e-01) (25, 3.90610533906513901492e-01) (26, 4.60912834689459760540e-01) (27, 4.70613839847312032116e-01) (28, 4.69360060645875376562e-01) (29, 4.54604537030317112922e-01) (30, 4.96360770460760880596e-01) (31, 5.29841464191265099082e-01) (32, 5.09420252851262023164e-01) (33, 5.55038501757668445435e-01) (34, 4.09531182626946266279e-01) (35, 5.12816414340377613179e-01) (36, 5.00172636859536723364e-01) (37, 4.54632480571195041197e-01) (38, 6.03094274163747168238e-01) (39, 5.21791976999414264249e-01) (40, 5.18101021537704875541e-01) (41, 4.31476758395963277959e-01) (42, 3.79038400200386538241e-01) (43, 5.56223335184258371733e-01) (44, 3.78108155344497043338e-01) (45, 4.99353669023509028069e-01) (46, 5.48539486985002655572e-01) (47, 5.30538019128719340323e-01) (48, 5.54714466689170349056e-01) (49, 3.94388538224012652478e-01) (50, 5.72553422011248702717e-01) (51, 5.92534998944964974577e-01) (52, 5.83171988678727215571e-01) (53, 6.07046278148346551973e-01) (54, 7.75800781138339612397e-01) (55, 8.33676136304271286903e-01) (56, 8.71483397766198097933e-01) (57, 7.80905636879691389396e-01) (58, 7.25631437537567092200e-01) (59, 5.49301042257545057979e-01) (60, 4.80357701277972948262e-01) (61, 5.82647896321549452203e-01) (62, 5.45116014240749624520e-01) (63, 3.84639203643241889274e-01) (64, 1.65469330717049167845e-01) (65, 8.42334846543578291689e-02) (66, 2.41186803491818119172e-01) (67, 2.82392833736350878926e-01) (68, 3.86015769305252498533e-01) (69, 2.35181228493424682169e-01) (70, 2.92886106425163106337e-01) (71, 4.06089612024401747092e-01) (72, 3.40904487062824113064e-01) (73, 7.47733773783064270546e-01) (74, 5.07851320329074429338e-01) (75, 4.58950181152955938302e-01) (76, 6.96006612305808958219e-01) (77, 5.16918787500517229461e-01) (78, 3.35417186998250516083e-01) (79, 3.22103389926742256222e-01) (80, 3.48771909206509300727e-01) (81, 4.35540519810197424011e-01) (82, 4.28665808415526927710e-01) (83, 3.86729607217337290059e-01) (84, 5.31760337715570741146e-01) (85, 5.13657928311288869416e-01) (86, 6.42641505157936943071e-01) (87, 5.37916141657864943504e-01) (88, 5.88254688018621907375e-01) (89, 3.78357665612442717329e-01) (90, 3.96476118633345586684e-01) (91, 4.69835756809724280902e-01) (92, 3.60845429772168546645e-01) (93, 4.84891478659432439979e-01) (94, 4.36067082966645425124e-01) (95, 4.09931642349237901346e-01) (96, 4.92423595774076905407e-01) (97, 4.12665311339673601676e-01) (98, 5.87452813463189671417e-01) (99, 4.99437484553906962947e-01) (100, 5.51790844456467977075e-01) (101, 4.65470595777663087578e-01) (102, 6.44546752812464429638e-01) (103, 8.25272085761637241852e-01) (104, 7.91446560818759525802e-01) (105, 7.62077021241029828325e-01) (106, 7.49851186707636618856e-01) (107, 7.36537725479256000227e-01) (108, 7.03294242118378765127e-01) (109, 4.81676067587840261996e-01) (110, 4.78551637532679485787e-01) (111, 2.89773598153001202271e-02) (112, -2.12823602024786362463e+00) (113, -1.39741951784571205586e+00) (114, -8.46687745631496513354e-01) (115, -1.90574220165163343843e+00) (116, -9.57910988573140387281e-01) (117, -4.10408142080013915720e-01) (118, -1.19803771717825982557e-01) (119, -5.69135420015114221887e-03) (120, 3.56532825501567340876e-01) (121, 2.89695496999796286985e+00) (122, 7.03195563757571449059e+01) (123, 4.90387545379578126958e-01) (124, -5.87780126477823808284e-02) (125, 7.43347828224333456726e-02) (126, 2.76513731802653650593e-01) (127, 4.42339665078943372611e-02) (128, 7.00408915809012759535e-03) (129, 9.60404198144200610399e-02) (130, 3.36687854902690889003e-02) (131, 4.77155302601984590560e-02) (132, -9.45705145913774414268e-02) (133, -5.78568304530162280663e-01) (134, 3.96608205403533364830e-01) (135, 3.96135898632685556908e-01) (136, 2.57334535183493195998e-01) (137, 3.95320560104401363954e-01) (138, 4.43828231674983419985e-01) (139, 3.25168301899416978262e-01) (140, 2.33518112155395501928e-01) (141, 2.43462942741587085038e-01) (142, 8.37232573305697752586e-02) (143, 4.65567576434964339183e-02) (144, 2.50959955585654370669e-01) (145, 3.29558703265679986405e-01) (146, 2.82782095874231254040e-01) (147, 4.58633367314618733968e-01) (148, 4.43390155611630421006e-01) (149, 4.16810895663040581471e-01) (150, 5.72599509821433816370e-01) (151, 6.12509219636508173146e-01) (152, 6.15496144792794797063e-01) (153, 6.89573461261708597902e-01) (154, 5.02910715249631490309e-01) (155, 5.24389897923471792751e-01) (156, 5.14015967199057843828e-01) (157, 6.05385499926583636743e-01) (158, 5.02117505953989406997e-01) (159, 4.53516010921960088798e-01) (160, 5.06028481865188783928e-01) (161, 5.24826894279002198473e-01) (162, 5.19089344902476712562e-01) (163, 4.98120850125018499455e-01) (164, 5.20686706772407026378e-01) (165, 4.57536581381521423317e-01) (166, 4.36360993132129337813e-01) (167, 5.92517535163317954350e-01) (168, 5.93996895582876716091e-01) (169, 4.39920563401208941645e-01) (170, 4.54402252967399722383e-01) (171, 4.45274025026926367765e-01) (172, 6.37312097087012974228e-01) (173, 4.68405548062164389655e-01) (174, 4.73556239459698768979e-01) (175, 1.64293173057733241649e+01) (176, 5.53678890129996603697e-01) (177, 6.15927077034296943658e-01) (178, 6.74638112137135870228e-01) (179, 4.41574395867281144223e-01) (180, 4.40283943964255519710e-01) (181, 4.68774179827628201256e-01) (182, 5.10097974295346645590e-01) (183, 4.28250600515450607908e-01) (184, 4.05767439405905150362e-01) (185, 3.01023732249631748026e-01) (186, 4.04732975063153532780e-01) (187, 3.90878982458698343017e-01) (188, 2.98647880170918089693e-01) (189, 4.59304295458896449933e-01) (190, 5.27560288168853364077e-01) (191, 5.05690294951436469795e-01) (192, 4.40679867767744315454e-01) (193, 5.95698764968591309987e-01) (194, 5.88519437607714746008e-01) (195, 5.84397445585949304458e-01) (196, 4.61855031486992029244e-01) (197, 5.65856721224829550820e-01) (198, 5.10816245862617424045e-01) (199, 4.81030907376814031995e-01) (200, -1.73727193247078615101e+00) (201, -5.66708980371477100135e+00) (202, 1.86784925000693657893e-02) (203, -4.80802768970526039904e-01) (204, -6.89176560207481470055e-02) (205, -5.31923876192351707815e-02) (206, -1.15756958032117440727e-02) (207, 9.04514749757499986194e-02) (208, 9.67871211351471888440e-02) (209, 1.26871801573612441594e-01) (210, 1.62185444438927434119e-01) (211, 9.46975511417735699160e-02) (212, 2.09847618287989562402e-01) (213, 2.33798135842108095739e-01) (214, 4.14008524696626245554e-01) (215, 3.20778928188568346336e-01) (216, 3.50074173932460097625e-01) (217, 4.92696471221536591578e-01) (218, 4.13585315310568024660e-01) (219, 4.65773155398958083051e-01) (220, 4.87816840130161966105e-01) (221, 5.54277637257714395069e-01) (222, 4.55749126477761279386e-01) (223, 5.01092032733192471738e-01) (224, 5.79920059093503303949e-01) (225, 4.57860050814661079244e-01) (0, 4.19740717778158620166e-02) (1, -5.03277845161340109392e-02) (2, 5.18617200221048804676e-03) (3, -1.61582307747117244479e-02) (4, -1.40429262060321451838e-02) (5, -4.86357290409611259241e-02) (6, 1.24307843758219155328e-01) (7, -3.61408247890441444716e-02) (8, -3.29374322986690296067e-02) (9, -3.15033849229404703043e-03) (10, 1.83126733519535372929e-02) (11, 1.56197301041575177527e-02) (12, 8.09842867293090323821e-02) (13, -7.41330040898781766900e-02) (14, -9.28513245889261290555e-02) (15, -4.52032158684683577077e-02) (16, -1.10266951392592391090e-01) (17, -6.84790333356714991941e-02) (18, 2.80157510593325512205e-02) (19, 6.15128298858414676586e-02) (20, -1.18116132145004049114e-01) (21, -1.19781141298195531464e-01) (22, -1.46488102114227081163e-01) (23, -1.67413067383848979119e-01) (24, 1.46853320246911230040e-02) (25, -2.37439620301206182063e-02) (26, 2.29344339755803844350e-02) (27, 3.10492679187879885849e-02) (28, 1.78623188154519302318e-02) (29, -3.44024469499919355320e-02) (30, 2.94937374619530998099e-02) (31, 5.24871500120117906452e-02) (32, 1.21001953014391747110e-01) (33, -4.82376240672036243895e-02) (34, 1.28483366669438242580e-01) (35, 5.53598236222197573331e-02) (36, 6.36189687982962326362e-02) (37, -5.21864077285481564594e-02) (38, -6.56454911367148740559e-03) (39, -4.27278410898392982387e-02) (40, 8.86671495178292662365e-02) (41, 1.20166486896346860758e-01) (42, -3.24664380756551403800e-03) (43, 3.18179814230624274929e-02) (44, 4.45967478130924466218e-02) (45, 6.57546648875505235221e-03) (46, 4.61221834112990683452e-02) (47, 7.55410383481916816728e-03) (48, -4.46817639454775636376e-02) (49, -4.63492902378795576523e-02) (50, 2.44269123021201087220e-02) (51, 1.04130479792699071062e-01) (52, 7.20601586699066987141e-02) (53, -4.33477591666524830760e-02) (54, 4.74437019787726857456e-02) (55, -4.38274716370984987468e-02) (56, 1.30054336779713078376e-02) (57, 6.88845794619766388367e-02) (58, 7.91675633268323630798e-02) (59, -1.70063270003498433203e-02) (60, 1.54914629756419508499e-01) (61, 8.51328053409109442029e-02) (62, -3.68529313858008966687e-02) (63, 3.10913912009280098137e-02) (64, -5.04127545015187542021e-02) (65, 2.81304818060116312850e-02) (66, 7.11736515904904248897e-02) (67, 5.90913965337402577460e-02) (68, -7.77880878425414729049e-02) (69, -4.66676639994820993684e-02) (70, -5.03385890101719531142e-03) (71, 1.15057601798473352339e-02) (72, -7.19166180169270169431e-02) (73, -1.11333849317881757729e-02) (74, 1.97671376213256443088e-02) (75, 7.34846872884063473386e-02) (76, -7.73305230954951794420e-02) (77, 3.47014948651623534800e-03) (78, 1.52129512761699503542e-02) (79, -1.63075920632959753265e-02) (80, -6.61921765158484942670e-02) (81, -8.62691819284519129107e-02) (82, -8.75394227682796122192e-02) (83, 3.40337788318176917568e-02) (84, -8.74854684888743822091e-02) (85, -6.91093670606272858503e-02) (86, -1.02513842892743151092e-01) (87, -7.69291226033873027507e-03) (88, -7.45528499763210925760e-03) (89, 4.29631078709897598622e-02) (90, 6.79940556415478403185e-02) (91, -8.69145574642220114514e-02) (92, 1.41059815596011519506e-02) (93, 3.63489956775772497799e-03) (94, -1.38381613687336868512e-01) (95, -1.94420448321965325111e-02) (96, -1.24736111423107837171e-01) (97, -1.30537277258861800222e-01) (98, -1.80834600571690373716e-01) (99, -4.53878508327005658618e-01) (100, 6.96825426325029251284e-02) (101, 7.71111439982603008580e-02) (102, -8.39904923050694141029e-02) (103, 1.60982602871086385998e-02) (104, -1.01029272429875634914e-02) (105, -4.83408407279562329917e-02) (106, 2.80566798573267939254e-02) (107, -1.96420155536909234878e-03) (108, 2.75183480842002455014e-02) (109, 8.45712633133382518658e-02) (110, -6.72243716452739364930e-02) (111, -9.63447446713772970295e-02) (112, -1.57585886389103002614e+00) (113, -3.87364995768474162929e+00) (114, -1.55529677697180290785e+00) (115, -2.74203099730194632677e-01) (116, -1.73362981318180536805e-01) (117, -1.70208116304656320583e-01) (118, -3.10218066071467936384e-02) (119, -1.59798941959003820701e-01) (120, 7.11441797583618196210e-02) (121, 1.32845916048281609267e-01) (122, 1.48351530394828734494e-01) (123, -1.24236178237437655536e-02) (124, 3.43527808182863547692e-02) (125, 8.28929641316784177052e-02) (126, -1.81951728445088473096e-02) (127, -3.73479988899910395062e-02) (128, -1.33754132096521594075e-01) (129, -2.26882974924004984785e-02) (130, -7.41905919249001333292e-05) (131, 6.02356129609272344938e-02) (132, 1.92875725470050239652e-02) (133, 1.17879364847789158688e-01) (134, 1.16539518592173541034e-01) (135, 2.71710231633479487590e-02) (136, 4.14707183196775033829e-02) (137, -8.37828437210941107116e-02) (138, 1.43788644248462361974e-02) (139, 4.34151035838774915221e-02) (140, 2.65277943131967675061e-02) (141, -1.27103145078611812213e-01) (142, -1.70439374551476424680e-01) (143, -2.34237387949743913751e-02) (144, -9.06461896044555570651e-02) (145, -1.56905185077745562561e-01) (146, -1.63581315473446037290e-01) (147, -1.61589189556108181467e-01) (148, -6.38905131446914908988e-02) (149, -5.85258244305590258350e-01) (150, -7.63254890059204965658e-02) (151, -1.46876427540325593668e-01) (152, -2.66212606465783124809e-02) (153, -1.12418102069223924122e-01) (154, 8.24513618138128056949e-04) (155, -1.00991128936854784176e-02) (156, 1.02028813850486871351e-01) (157, 6.34482409830061933054e-02) (158, 1.31577754174255517894e-01) (159, 1.15713931756754352664e-02) (160, 1.00451896109134408697e-01) (161, -7.22103806535452641402e-02) (162, -1.02648102664470664003e-01) (163, -6.03130501797457183044e-02) (164, -1.07855338124896518726e-01) (165, -5.35353692985548537675e-02) (166, 5.59886808196081095512e-02) (167, 4.34538064320578523714e-02) (168, 1.72810572225617527231e-02) (169, -3.03588612312044800468e-02) (170, -4.22554016911869667616e-02) (171, 2.52699012264505015746e-02) (172, 6.45317592742497281311e-02) (173, 7.20358854932379305547e-02) (174, -1.14542851359462946603e-01) (175, 1.43804623634460865267e-01) (176, 1.45051364625940315545e-01) (177, 2.39484269684036576997e-02) (178, 5.41488638926163959320e-02) (179, 8.30001400999784144652e-02) (180, -6.06921217500571083536e-02) (181, -2.26782430008548654965e-02) (182, -9.60265603953043417329e-02) (183, -2.71877480570883144073e-03) (184, -9.93845944525854618767e-02) (185, 3.14526344757201994917e-02) (186, -1.43687418848696939894e-02) (187, -1.16850055872145919267e-01) (188, -1.45763814631400756561e-01) (189, 2.55927041966460197542e-02) (190, 6.99972151588654639687e-02) (191, -1.20669393801923000020e-02) (192, -4.84604422540272777864e-02) (193, 6.46511819286421929309e-02) (194, 6.45490669812893852475e-02) (195, -1.09045766130095991842e-01) (196, -7.88827515189967215514e-02) (197, -7.53926962062842903611e-02) (198, -5.76215357382747067616e-02) (199, -1.39911139954601165813e-01) (200, 1.92634240520715427358e+00) (201, 5.04488339318581946458e-01) (202, 2.11758305193868595628e-01) (203, 2.39490692221372952764e-01) (204, 1.10690971392194553724e-01) (205, 6.69422582443868346980e-02) (206, 1.20830258033907692039e-01) (207, 9.52663682397711097938e-02) (208, 3.99745950417481760164e-02) (209, -4.09588361217311999751e-02) (210, -1.44265337116025044173e-01) (211, -8.21523980301801376447e-02) (212, -6.61835635097828556273e-02) (213, -2.25048020441183105333e-02) (214, -1.52210285531860944896e-01) (215, -1.08485572686915679452e-01) (216, -4.42911768951508022507e-02) (217, -8.70410153865701086140e-02) (218, 3.23641403135338581731e-02) (219, -8.00008087753139029985e-02) (220, -1.09065369056146020676e-02) (221, -1.39969764198681640571e-02) (222, -1.21937706610902567989e-02) (223, 5.59691608972297735547e-02) (224, -1.85750196778595527691e-01) (225, -1.25716192879640309421e+00) (0, 5.46805750691616299086e-01) (1, 5.53205930177563587335e-01) (2, 4.29868077395104519756e-01) (3, 4.28818846630720784674e-01) (4, 4.01209046162676163938e-01) (5, 5.95653803691373884277e-01) (6, 5.00189617347211346043e-01) (7, 5.21974366567801717487e-01) (8, 5.82444788218497211396e-01) (9, 4.76452485974198758356e-01) (10, 4.36624287994012760805e-01) (11, 4.37167114445937643463e-01) (12, 4.20809092566333087237e-01) (13, 4.28351763141500474497e-01) (14, 4.90988592880454877143e-01) (15, 4.52364838465134977419e-01) (16, 3.97147011961981211137e-01) (17, 3.51815788703691789685e-01) (18, 5.02747353976430000344e-01) (19, 6.43368700755468508889e-02) (20, 9.05213726853435485253e-02) (21, 8.42900760314829883280e-02) (22, 1.68012504076476311410e-02) (23, 3.15577189318498596560e-01) (24, 3.71213631509454300428e-01) (25, 3.70962085321358547851e-01) (26, 3.66316857952968200074e-01) (27, 4.58043135670487933098e-01) (28, 4.33413878815015307655e-01) (29, 4.26666880090739331077e-01) (30, 4.08090563919862592268e-01) (31, 4.60256958318143283293e-01) (32, 4.41441490470250774703e-01) (33, 4.91460437004586747634e-01) (34, 5.60996853929136674033e-01) (35, 4.15275867642466323115e-01) (36, 3.66942185071491400183e-01) (37, 3.97873424064801417543e-01) (38, 4.48578401121388081751e-01) (39, 4.92232837953531066066e-01) (40, 5.04997848635855839383e-01) (41, 3.86368407053456375255e-01) (42, 3.97784795091765952524e-01) (43, 3.60607129484353472471e-01) (44, 3.76550396149523625144e-01) (45, 5.03884456160269333935e-01) (46, 5.41846065990766234677e-01) (47, 5.11155445343405623326e-01) (48, 5.43744417301093685424e-01) (49, 3.59363618576647281255e-01) (50, 3.67234408693265956813e-01) (51, 3.62495303052776662867e-01) (52, 5.00057457494890611471e-01) (53, 3.69303799988912218044e-01) (54, 4.10884963224085020261e-01) (55, 3.81765357996245335848e-01) (56, 5.96324011475066639854e-01) (57, 4.69354249959251457192e-01) (58, 3.97756665444504775575e-01) (59, 5.80144612008037907636e-01) (60, 4.54199529012774882997e-01) (61, 4.46549412972188475290e-01) (62, 4.83659355991263584240e-01) (63, 5.03845379992147068826e-01) (64, 5.17567250833282255229e-01) (65, 5.37947722008931816795e-01) (66, 5.14406138437693227772e-01) (67, 5.29850118033910688631e-01) (68, 2.92685709429979165619e-02) (69, 1.98152429975443911125e-01) (70, 7.16077445840659215781e-02) (71, 1.79179173806359448573e-01) (72, 1.34239029787483643563e-01) (73, 3.85116203401090984038e-01) (74, 4.92237790621138815439e-01) (75, 5.65091929717736363159e-01) (76, 4.25011444571688656868e-01) (77, 5.14798566471478813433e-01) (78, 5.04580566971059241155e-01) (79, 3.20887820545779245407e-01) (80, 5.22652393361954570317e-01) (81, 4.59847661827108566968e-01) (82, 4.73942476869587681065e-01) (83, 5.50561118073945032769e-01) (84, 4.73154078331903704679e-01) (85, 4.60315608730442527019e-01) (86, 2.93312155822555875595e-01) (87, 4.61822755568030207662e-01) (88, 4.61838588961560714274e-01) (89, 3.77383139306758541576e-01) (90, 3.39741708341382342429e-01) (91, 4.80998836440967802996e-01) (92, 4.88154784876610570166e-01) (93, 3.21717875104827355504e-01) (94, 4.00212089489521138930e-01) (95, 3.71320003927769259899e-01) (96, 5.14009534286916425216e-01) (97, 5.20730101222764196756e-01) (98, 5.32252665015550907590e-01) (99, 4.80771035149190284486e-01) (100, 3.82745691061789183873e-01) (101, 4.68843108462450364193e-01) (102, 3.57227342063096697800e-01) (103, 3.84167596701146252247e-01) (104, 4.28727772886834057608e-01) (105, 3.92459401355142234458e-01) (106, 4.57348609752848966892e-01) (107, 3.55642474471250469303e-01) (108, 4.43094852680748330087e-01) (109, 5.17600523153981861846e-01) (110, 3.03493762613504969305e-01) (111, -1.99842578805198428649e-01) (112, -3.59952602334300886255e+00) (113, -9.95698730074633786558e+00) (114, -2.12384426798214098753e+00) (115, 2.44163450827258460274e-02) (116, -1.08884577387715564267e-01) (117, 2.18630013909142939532e-02) (118, -3.05189126592488382816e-02) (119, 2.81255406963120541119e-02) (120, 1.19323043223810473790e-01) (121, 4.74327127823732166978e-02) (122, 5.61079826057006656598e-03) (123, 3.41340138225324607468e-01) (124, 3.12019542086782453172e-01) (125, 3.02782658307920504726e-01) (126, 4.69915153817605568687e-01) (127, 3.76220344479605395271e-01) (128, 5.07557647563940061985e-01) (129, 4.95100010428351777758e-01) (130, 3.98091215250511332169e-01) (131, 6.00936836662046780511e-01) (132, 6.03340737132978310875e-01) (133, 5.89273522810642713665e-01) (134, 4.57816443142770090891e-01) (135, 3.69522823797728716677e-01) (136, 3.86598821459225527875e-01) (137, 5.05563234789919158096e-01) (138, 4.14557603684092834673e-01) (139, 5.31023183425308742400e-01) (140, 4.81091111031838547518e-01) (141, 5.15296796656136590897e-01) (142, 3.48352168531651074090e-01) (143, 3.95055010995967459397e-01) (144, 4.22540935035236986383e-01) (145, 3.84049164741143034263e-01) (146, 4.20980832145824268586e-01) (147, 3.55495879356810706717e-01) (148, 5.04250724429471608445e-01) (149, 3.13063776770722612675e-01) (150, 4.57019895416036103786e-01) (151, 4.38877174669579761535e-01) (152, 4.83537602788234155415e-01) (153, 3.50777284867045513472e-01) (154, 3.34148226493658884184e-01) (155, 5.26352057257416294789e-01) (156, 5.30931763947225965339e-01) (157, 5.54717214414952697332e-01) (158, 4.76501262677999248840e-01) (159, 5.10055746206775739715e-01) (160, 4.07295334431689470822e-01) (161, 5.45700842275980702034e-01) (162, 3.50523171703893854367e-01) (163, 4.78993508878862495060e-01) (164, 3.53367356497335027843e-01) (165, 4.20941066833499799582e-01) (166, 4.91338697214129926927e-01) (167, 5.05855627450468081641e-01) (168, 4.93222222940918053613e-01) (169, 4.55496846150533429842e-01) (170, 4.61876686491863530648e-01) (171, 4.87842987727650556629e-01) (172, 5.61509803100915139140e-01) (173, 4.98092444225390396095e-01) (174, 4.26940276219055392382e-01) (175, 5.14472360229429548362e-01) (176, 4.96991748810793831925e-01) (177, 5.18463898642539278150e-01) (178, 4.52926871022150068224e-01) (179, 3.68291585341791571917e-01) (180, 5.49587587037328906270e-01) (181, 4.27226957847981370087e-01) (182, 5.15023020645600015932e-01) (183, 5.53580519853664965169e-01) (184, 4.48955999813342998550e-01) (185, 5.34875359702783770288e-01) (186, 3.63804945575849081330e-01) (187, 3.73007067973408767969e-01) (188, 3.48196348594053239900e-01) (189, 4.60644376129586918811e-01) (190, 4.21421728405465823020e-01) (191, 3.66715888009179813434e-01) (192, 3.91722144463893251487e-01) (193, 4.86986994878557788446e-01) (194, 3.56052969401140839700e-01) (195, 5.29144689613720853316e-01) (196, 4.27084416229782770635e-01) (197, 4.65855939968366883353e-01) (198, 5.27837715692640485621e-01) (199, 3.71318148422157767730e-01) (200, 1.16383436758140756950e+00) (201, 1.32352778079479582729e+00) (202, 8.66850744301827402793e-01) (203, 6.55702157911406735558e-01) (204, 4.17294525038806762840e-01) (205, 3.73491215988534019932e-01) (206, 4.86044312941874945277e-01) (207, 4.75534934345405169154e-01) (208, 5.23148229020858113181e-01) (209, 3.74553595141527750911e-01) (210, 4.90417391582677608675e-01) (211, 4.65764378292853331587e-01) (212, 4.24950516474689066193e-01) (213, 3.45095484386697237689e-01) (214, 5.17593586521695625535e-01) (215, 3.72457363436233868104e-01) (216, 4.81742604105636462730e-01) (217, 3.27015200369021430404e-01) (218, 4.83326341706400541831e-01) (219, 3.44767812585091371069e-01) (220, 4.77969393869626668625e-01) (221, 4.99363719363394464867e-01) (222, 4.96694052392472551460e-01) (223, 5.44907081968709960940e-01) (224, 4.91467163831293851750e-01) (225, 4.25668413203865836358e-01) (0, 1.02036743480922606486e-01) (1, 2.06480430862118202739e-01) (2, 1.07396570967532994922e-01) (3, 1.08471352715058741434e-01) (4, 1.47675859720715924039e-01) (5, 1.39001033632513648630e-01) (6, 1.14506442027087249058e-01) (7, 2.60576596784605069024e-02) (8, -1.41366664501086092276e-01) (9, -1.09335111207185614601e-01) (10, -3.84309483103272897520e-01) (11, -1.08900928322729151354e+00) (12, -9.81035325618360598554e-01) (13, -1.93049186163043506870e-01) (14, -2.16076136797300477621e-01) (15, 3.22604568032362620800e-02) (16, -1.88335527708421400506e-02) (17, -2.58964445789290287347e-01) (18, -1.69218542243007452619e+00) (19, -1.67442818014813377125e+00) (20, -1.71366080598804537694e+00) (21, -8.51326136374231101644e-02) (22, -5.36949233877690376704e-02) (23, 3.72145478568769658145e-02) (24, -6.75558977719474818002e-02) (25, -1.36104807615591655301e-01) (26, 1.11329357636148068567e-01) (27, 2.02123275945637927153e-02) (28, 1.20695379871288463458e-01) (29, 1.12435411783896932469e-01) (30, 2.86217062497057112003e-02) (31, 2.38060263708218255996e-01) (32, 2.62394285910540814299e-01) (33, 2.87353691710207324872e-02) (34, 1.05349082176824551671e-01) (35, 4.66753444578681050969e-02) (36, -4.96381386437160024294e-02) (37, -2.89674670799811712074e-02) (38, 1.60751749450744330083e-01) (39, 1.10551313704227702206e-01) (40, 1.17774465866322897156e-01) (41, 5.44747345592830334304e-02) (42, 3.11404993487398480678e-02) (43, 8.80385717228173020343e-02) (44, -5.32932077837679832322e-02) (45, -1.30920396944592936500e-02) (46, 6.82738786576164852216e-02) (47, 8.95501692661255510597e-02) (48, -3.44304895461137669410e-02) (49, 1.70815964579827478387e-01) (50, 9.47607896238679553447e-02) (51, 6.99956631579334576099e-02) (52, 1.00925945970168587373e-01) (53, 2.03710387187136438003e-01) (54, 6.82162543202124577180e-02) (55, 1.90272101443840740975e-01) (56, 5.91203022919478612951e-02) (57, 1.13945856955902771745e-01) (58, -7.33023803727423511889e-02) (59, -3.27039240247701201714e-01) (60, -2.10725297328967747790e-01) (61, -2.20722397138280540529e-01) (62, -1.64064452120837617199e-01) (63, -1.11092321108935843804e-02) (64, 7.92430972364069202696e-02) (65, 1.13209533192245123678e-01) (66, 7.43932722192153228491e-02) (67, 1.63551096734049772330e-01) (68, 1.83599571449368781373e-01) (69, 2.76698616634745264697e-01) (70, 1.31993616118745871191e+00) (71, 2.08096389901367778696e-01) (72, 3.49270057067451872301e-02) (73, 9.24916409944692187450e-03) (74, 5.81740898633501327120e-02) (75, -3.44016568441773973319e+00) (76, -5.10014056875260912705e-01) (77, -5.27971211563041986636e+00) (78, -4.82405251003328261472e-01) (79, 1.72491737816461737642e-01) (80, 1.22850294227494188926e-01) (81, 5.09090167832082718391e-01) (82, 2.82073744234907719530e-01) (83, 1.94925308781509126765e-01) (84, 1.10696267828391897714e-01) (85, 6.41615656262410766209e-02) (86, 1.59165069336853759463e-02) (87, 1.24930447071392738100e-03) (88, 8.28920705464436941012e-02) (89, 1.84669242858619381265e-01) (90, 2.13204270765642883712e-01) (91, 1.09654914769128822294e-01) (92, 5.16479292776725260050e-02) (93, 6.63911297583539561362e-02) (94, -7.94890541580571263758e-02) (95, -6.81068261397138746682e-02) (96, -7.21179370622198889773e-02) (97, -3.74925146127341041291e-02) (98, 4.63731759541675600533e-03) (99, 1.07539322468719528159e-01) (100, 2.06267706303607523122e-01) (101, 1.11624459765940958755e-01) (102, 3.33381555388203465462e-01) (103, 1.14434054828294329287e-01) (104, 2.76296785949440515395e-01) (105, 1.37215110974551107725e-01) (106, 9.33484243648593919884e-02) (107, 1.38155441585849969588e-01) (108, 1.54951760069407584730e-01) (109, 1.40682066083725548777e-01) (110, -2.50446181265826128826e-01) (111, -1.16045303282667322531e-01) (112, -2.38869451359849077621e-01) (113, -1.33629216979139320287e-01) (114, 4.79841426932047093734e-02) (115, 7.22739255792787249622e-02) (116, -1.33331305030320104721e-02) (117, -6.73323963731001007282e-01) (118, -6.82043591781565927690e-01) (119, -7.48355228378484338414e-01) (120, -5.02731012745942562603e-01) (121, -5.66378492160023006008e-01) (122, -1.00235864573652500020e+00) (123, 4.16735869937759739745e-01) (124, 1.54596316228764729672e+00) (125, -2.46989640161630719106e-01) (126, 2.85149179632470495260e-01) (127, -2.06491021039358318978e-01) (128, 2.47244378935674946618e+00) (129, 1.06491681741543722239e+01) (130, 8.67575529804557210589e-01) (131, 5.49884023443397840225e+00) (132, 3.96026870366618544139e+00) (133, 1.48060604366410908384e+00) (134, -2.96422216235729840683e-01) (135, -1.35324539311831260058e+00) (136, -1.38266512555103693316e-01) (137, -3.62617291317071863133e-02) (138, -1.74793473357384814004e-02) (139, 1.25577835911804769342e-01) (140, 1.07845417930577266996e-01) (141, 2.20425015337348956246e-01) (142, 4.64597181834833835440e-03) (143, 1.34079777057183519018e-01) (144, 7.15006907822812037834e-02) (145, 6.41703232696524267231e-02) (146, -7.92521279892899332964e-02) (147, 1.17700134173933795845e-02) (148, -1.18866399844085202098e-01) (149, 9.50681396118192301170e-02) (150, -2.15284637493932083652e-02) (151, -7.67140529715964025748e-01) (152, -2.22093146070940439252e-01) (153, -1.17166709209616970444e-01) (154, 2.70773519403506718328e-02) (155, -2.01714147689763700910e-01) (156, -9.24783698674968013265e-02) (157, 5.43212400361812314253e-02) (158, 5.23260562279111510198e-02) (159, 2.09035400338444948831e-02) (160, -2.08720370437705193822e-01) (161, -1.03574964533089397545e-01) (162, -7.91377235684132679383e-02) (163, 2.50025236398833880513e-02) (164, 3.33793839629161204208e-02) (165, 1.75097970999193830455e-01) (166, 3.92751604306194254668e-02) (167, 1.15599358551897318792e-01) (168, 1.54082021386068884761e-01) (169, 2.26569993054216350936e-01) (170, 8.35490140749957505006e-02) (171, 2.52117776795200976281e-01) (172, 2.52650725832292422091e-01) (173, 1.47921222728547574476e-01) (174, 1.68277985599547569295e-01) (175, 8.22500574169402365321e-01) (176, 1.88370142112720656558e-01) (177, 4.06245112532159946550e-01) (178, 7.54147443286360547043e-02) (179, 1.35122583130665802065e-01) (180, 8.57034834396968314696e-02) (181, 1.47750354498290853433e-01) (182, 1.16611883012196132503e-01) (183, 1.21582386576462878058e-01) (184, 1.24931556904358004312e-01) (185, 5.68328072047073820650e-02) (186, 1.15303173082592275156e-01) (187, 9.19459486102315766420e-03) (188, -3.77179846650655611895e-02) (189, -1.99490228455249593575e-02) (190, 4.55753470743584659930e-02) (191, 6.42034514041788101357e-02) (192, 3.46429739763177632628e-02) (193, 2.06815946754979385069e-01) (194, 1.43672568023483909760e-01) (195, 1.60368041086371371229e-01) (196, 7.74888597682717866766e-02) (197, 4.74644070135374560038e-02) (198, 2.66589172769450440115e-02) (199, 5.42455185265365083525e-02) (200, 2.61686370131502377134e+00) (201, -1.47035522361215651443e+01) (202, 1.05400425030966999884e+01) (203, 1.33340159774729971609e+00) (204, 2.67517612834128171162e-01) (205, -6.09886106593897814321e+00) (206, -5.36469464158826614408e+00) (207, 1.61153284439489383195e-02) (208, -4.14128197461771929699e-02) (209, 5.49988813986089578045e-02) (210, 7.08474736708427366150e-02) (211, 1.21505992205382148952e-01) (212, 6.52542678916881186552e-03) (213, -1.89070807684869196530e-02) (214, 1.89391230217342720898e-01) (215, 1.80201726119239097335e-01) (216, 1.23857147731479780295e-01) (217, 2.89257659770257469223e-01) (218, 2.61281483168128436656e-01) (219, 3.00197949784584583455e-01) (220, 1.49957023126075728037e-01) (221, 1.60544716225503564244e-01) (222, 2.51396498776035814959e-01) (223, 2.03265717807846996168e-01) (224, 2.28540116005054444459e-01) (225, 1.74963344364371053974e-01) (0, 7.77482272228324333696e-01) (1, 7.50233890666811786829e-01) (2, 7.47231691260743513539e-01) (3, 9.38095037253424912649e-01) (4, 9.32984528962971348953e-01) (5, 8.55484830419582342742e-01) (6, 9.40031026592719642920e-01) (7, 7.58446078926833577860e-01) (8, 8.33165527788517601415e-01) (9, 8.27978069258138327235e-01) (10, 9.01385199463510811135e-01) (11, 7.51079401064246865438e-01) (12, 7.20017786238933421572e-01) (13, 7.41513002652099073586e-01) (14, 7.51167984090366225303e-01) (15, 8.60428939312770535430e-01) (16, 8.61414458663451454434e-01) (17, 8.54962761297082041168e-01) (18, 7.61570997662534110439e-01) (19, 8.20145721919557368906e-01) (20, 8.86617555010995150866e-01) (21, 6.97882508563157366588e-01) (22, 7.61595332977617278658e-01) (23, 8.52332066999339943436e-01) (24, 8.61641757909435979101e-01) (25, 8.52233284030300963785e-01) (26, 8.24134914675224372616e-01) (27, 8.46586865144484557177e-01) (28, 8.78551491709936294150e-01) (29, 1.05621783774612043594e+00) (30, 9.31055717205372834755e-01) (31, 1.07605632274494378287e+00) (32, 9.34859495526888517603e-01) (33, 1.00832708331261211576e+00) (34, 8.67514566218921645557e-01) (35, 9.49866319680280901672e-01) (36, 9.32545528056291428420e-01) (37, 1.00274599083875903816e+00) (38, 1.01828094139380342931e+00) (39, 1.05957626717091968338e+00) (40, 9.72510619967785761020e-01) (41, 1.07005692454734591124e+00) (42, 9.23646690621434340862e-01) (43, 1.08779135362802059639e+00) (44, 1.05132138033526567611e+00) (45, 1.01141238953353163055e+00) (46, 9.99546771826048230380e-01) (47, 9.89866107181336163379e-01) (48, 1.08893663484585712098e+00) (49, 7.65524484233150670498e-01) (50, 7.14766302626989258329e-01) (51, 7.61094410542989985302e-01) (52, 9.07961556487232313017e-01) (53, 9.73355312962756125117e-01) (54, 8.34257840905111680563e-01) (55, 9.94748691943177942854e-01) (56, 8.70601172733861061737e-01) (57, 8.87561759408347583644e-01) (58, 9.47397090522434148774e-01) (59, 8.72805683377577024018e-01) (60, 1.03140907183812857717e+00) (61, 1.02938270657043284828e+00) (62, 9.49898771508304817779e-01) (63, 8.64262447369281261444e-01) (64, 9.85014480993931185182e-01) (65, 9.56067541849296542722e-01) (66, 1.16114213752617612130e+00) (67, 1.19660883020057773329e+00) (68, 1.41104923415592820035e+00) (69, 1.07485170373883542894e+00) (70, 1.70884108879789931024e+00) (71, 1.68546650813551335268e+00) (72, 1.10165911499781854488e+00) (73, 1.07270023973979045095e+00) (74, 1.55203490139903155232e+00) (75, 1.15257799409278405278e+00) (76, 1.09465180259655614492e+00) (77, 1.06136590799032548560e+00) (78, 1.38840143486971379083e+00) (79, 1.10175091109662615096e+00) (80, 1.25859315795443671426e+00) (81, 1.21458817880059899430e+00) (82, 1.09745537243268986849e+00) (83, 1.08508119991583651398e+00) (84, 1.06987952163295929608e+00) (85, 1.04687090658413040067e+00) (86, 8.81646227050100761424e-01) (87, 8.92507285414867013174e-01) (88, 1.07554864178015563425e+00) (89, 8.96755927056577140100e-01) (90, 1.03006736761975181693e+00) (91, 9.69575851973310642862e-01) (92, 1.11858684036548816643e+00) (93, 1.00406430560518744599e+00) (94, 1.13287909122652230565e+00) (95, 9.86402927942815588302e-01) (96, 9.96547601022458651165e-01) (97, 1.02817092307766588810e+00) (98, 9.96030698048889662211e-01) (99, 7.35341329478177763157e-01) (100, 8.63415737508455904958e-01) (101, 7.08100665544125318362e-01) (102, 8.67969190609820140381e-01) (103, 7.59640550847193174455e-01) (104, 7.47625993046271752895e-01) (105, 8.31594809792272959825e-01) (106, 7.79343963061380429203e-01) (107, 5.76849927514450300237e-01) (108, 5.12107397595309987715e-01) (109, 4.05696754265014336571e-01) (110, 5.20160976403995722883e-01) (111, -4.30136922066632809702e+00) (112, -1.53568015489319158462e+01) (113, -3.65840159884964855053e+00) (114, -6.68000654647745162329e-01) (115, 2.98541658974678311700e-02) (116, 3.39648650534220997166e-01) (117, 3.06711703326133122705e-01) (118, 6.67595271522524735808e-01) (119, 8.05136051736882407681e-01) (120, 2.51095611295577869626e+00) (121, 1.82035564655012005453e+00) (122, 1.44893525104833398309e+00) (123, 1.57620093565844693329e-01) (124, 3.83075977694883829106e-01) (125, -1.41200698110286304576e+00) (126, -1.57357473332666336630e-01) (127, 6.86977224356360105517e-01) (128, 5.05310074396230435312e-01) (129, 1.27971124428336024970e+00) (130, 1.20095363377617747602e+00) (131, 1.32197386589314391792e+00) (132, 1.20669381321681346009e+00) (133, 1.12787078755672798280e+00) (134, 1.05672416682635916807e+00) (135, 1.00101422652593585738e+00) (136, 9.94102118876709961448e-01) (137, 9.53701310593417339589e-01) (138, 1.05191845781460346920e+00) (139, 1.04943008456666664330e+00) (140, 1.02554109598029818962e+00) (141, 8.86874331332706655751e-01) (142, 1.05719382798906247345e+00) (143, 1.00106041735247708324e+00) (144, 1.09585805843952344141e+00) (145, 1.11341395312040614130e+00) (146, 1.12534706429928621496e+00) (147, 1.04896094130153683111e+00) (148, 1.01919146968899210215e+00) (149, 7.84292724617333902870e-01) (150, 7.91683791972528028147e-01) (151, 8.72232415737847155413e-01) (152, 1.14517832335949720779e+00) (153, 8.60195538641078338848e-01) (154, 8.83689024590681659888e-01) (155, 9.11337314856609737035e-01) (156, 8.53808647990258018368e-01) (157, 8.82783031251185845711e-01) (158, 8.59345313229110230324e-01) (159, 7.92668752833093459564e-01) (160, 8.50041570993110395804e-01) (161, 9.05555617468832063643e-01) (162, 9.34672749149801251889e-01) (163, 9.08397040055658244739e-01) (164, 8.65331119254853287082e-01) (165, 8.52775586672093077745e-01) (166, 7.44829379445527739456e-01) (167, 8.79762987362833315252e-01) (168, 7.61887570722121210132e-01) (169, 8.55766665804833626119e-01) (170, 8.80957791543358958997e-01) (171, 8.10181757799803614617e-01) (172, 8.15524767312989284918e-01) (173, 9.36078464214465388871e-01) (174, 8.24715416894445607632e-01) (175, 1.41118284512697051980e+01) (176, 4.87605636155280919297e+00) (177, 1.14600250559091580982e+01) (178, 1.56364235790913097546e+00) (179, 1.01670326434802515969e+00) (180, 1.08940992781121481769e+00) (181, 9.91351806280434733054e-01) (182, 7.98591811325332412430e-01) (183, 9.09355097678223867064e-01) (184, 9.30889653778108061566e-01) (185, 9.02038429429973032114e-01) (186, 9.85702099236211215505e-01) (187, 9.55336657767549057851e-01) (188, 9.00161949655550963634e-01) (189, 9.41247060476795183170e-01) (190, 8.19616811655853760854e-01) (191, 9.42459083289429400132e-01) (192, 8.77455631204112074251e-01) (193, 7.87622956168105958774e-01) (194, 8.37335465863010108833e-01) (195, 7.66888838274910167314e-01) (196, 7.80296563555369693255e-01) (197, 7.30197724163286210342e-01) (198, 8.25000774477615994584e-01) (199, 7.68872950593005310971e-01) (200, -3.73519044336063066325e+00) (201, -5.08060821788783423258e-01) (202, -8.70681166200714073966e+00) (203, -1.64003062097537792852e+02) (204, -5.87895814887638650248e+01) (205, -1.58166717018530555983e+00) (206, 7.95979804030962800887e-01) (207, 9.21598866513922310162e-01) (208, 9.67103569008241570337e-01) (209, 1.07746540577368410396e+00) (210, 8.25732657380899293109e-01) (211, 7.97159425925371922794e-01) (212, 8.05707696169767895178e-01) (213, 9.24990678983494851728e-01) (214, 1.04196291839526633538e+00) (215, 9.97556207556987595275e-01) (216, 9.66484661671250355752e-01) (217, 9.02538820245462836134e-01) (218, 8.38397235028319309791e-01) (219, 8.61239648268471325032e-01) (220, 7.04977160168312355637e-01) (221, 7.71596424203672581754e-01) (222, 8.12119833863125251128e-01) (223, 8.19284460606197195709e-01) (224, 8.28248221619425906148e-01) (225, 7.17504248029908531237e-01) (0, -1.46265280799736933659e+03) (1, -1.50000000000000000000e+03) (2, -2.27702929979578726716e+02) (3, -7.62791739797114018984e+01) (4, -3.11905616128103169160e+00) (5, -2.40600650535815887565e+01) (6, -3.80663706603257949723e+01) (7, -3.98669212573059672522e+00) (8, -3.36856082600996575849e+00) (9, -1.43127015959648562493e+00) (10, -1.84921012262831174766e+00) (11, -1.92352591834306139162e+01) (12, -3.71205760065524215108e+00) (13, -9.90400001192782375448e-01) (14, -1.12821581266219439499e+00) (15, -6.64542673973407804766e+00) (16, -2.41548333876610099580e+00) (17, -1.70618670729718182599e+01) (18, -9.67544775241708343572e+00) (19, -1.05124440139107406367e+02) (20, -5.88722182657353300783e+02) (21, -1.36433086569023475931e+03) (22, -5.88777804482907427541e+01) (23, -5.82371450287164749149e-01) (24, -4.13176418763461561490e-01) (25, -3.15988943995464344194e-01) (26, -4.42094614369715588342e-01) (27, -3.11912523857782453263e-01) (28, -4.40299408356607024917e-01) (29, -5.11227025393089951066e-01) (30, -5.11676788059398535147e-01) (31, -4.19020274663015113159e-01) (32, -5.05780629030518569245e-01) (33, -5.31579434619774526816e-01) (34, -1.89684585366395119799e+00) (35, -2.87719442603629582678e+00) (36, -1.20109084105201429082e+01) (37, -2.68454816893814609102e+02) (38, -2.68776666601293527492e+02) (39, -6.16016943661623031403e+02) (40, -1.05274258562655163018e+02) (41, -4.45539949119425742197e+01) (42, -8.50037843557956662721e+00) (43, -2.03542104544767932239e+00) (44, -1.41201403431785674769e+01) (45, -1.21994851415020661989e+03) (46, -1.21982725569017316047e+03) (47, -1.50000000000000000000e+03) (48, -1.50000000000000000000e+03) (49, -1.04700380991352233195e+02) (50, -2.48703830585285068366e+00) (51, -1.59826181750692941641e+00) (52, -8.10859781772490073593e-01) (53, -1.20110133971679244880e+00) (54, -1.45551079880146727596e+00) (55, -1.65399948564434637888e+01) (56, -4.59966341733662034130e+01) (57, -1.17888667181195216926e+00) (58, -1.07920696411390704128e+00) (59, -3.78987438842259105609e-01) (60, -5.93767483799415463075e-01) (61, -1.04997773271385574922e+00) (62, -6.61530545403209546684e-01) (63, -6.69902327791651708289e-01) (64, -7.38764983505485162141e+00) (65, -8.39817625479942932998e+01) (66, -6.92413139266279699768e+02) (67, -1.48176732222063128575e+03) (68, -1.50000000000000000000e+03) (69, -1.50000000000000000000e+03) (70, -1.50000000000000000000e+03) (71, -1.50000000000000000000e+03) (72, -1.49934670634664621502e+03) (73, -1.47705995855491846669e+03) (74, -1.49497260463753582371e+03) (75, -4.30538190149266952744e+01) (76, -4.67883364876483742734e+00) (77, -6.87558058811525096843e-01) (78, -9.09687098765976309700e-01) (79, -1.40571910273488254184e+00) (80, -8.56308674333524955102e+00) (81, -5.47034919826839716173e-01) (82, -6.38062290063261428052e-01) (83, -4.40980577404264384445e-01) (84, -4.56432102132684480722e-01) (85, -5.82504378961975821660e-01) (86, -1.41609108823443041736e+00) (87, -1.07674145717976998959e+00) (88, -1.92027817765141173290e+00) (89, -1.83663667126052776446e+00) (90, -9.54887515199698277968e-01) (91, -1.01497027211285240078e+00) (92, -7.45280710727621031886e-01) (93, -7.12624460869414444453e-01) (94, -1.72673276422699228938e+00) (95, -2.29719702375563317176e+00) (96, -2.39445471489713845870e+00) (97, -2.19630528702672078722e+00) (98, -7.34474313539837737608e+01) (99, -2.45106730623287951687e+01) (100, -9.13695297448835708209e-01) (101, -7.60520838512269037324e-01) (102, -7.46088878428056823111e-01) (103, -8.53190875482389365914e-01) (104, -8.60097441157654185595e-01) (105, -4.77189447506065977933e+00) (106, -7.67089518738549269727e+00) (107, -1.04351489901770944080e+00) (108, -8.73480195399487735486e-01) (109, -6.17924853505110505125e-01) (110, -4.02959389398120149117e-01) (111, -4.84543345816905779433e-01) (112, -4.07572123036695488363e-01) (113, -1.56137136582213259528e-01) (114, -3.24542665670042862480e-01) (115, -4.87544089247224698980e-01) (116, -4.27751180695296995271e-01) (117, -1.14255899598427146380e+00) (118, -2.88250007891874275856e+01) (119, -3.11758460030166162369e+00) (120, -4.33361135550148368623e+00) (121, -4.68860579334210747504e+00) (122, -4.21592526093279662547e+00) (123, 7.81514052796172919990e-01) (124, 7.22440772714019185941e-01) (125, 6.09159853457100552987e-01) (126, 8.94091825486556107672e-02) (127, -4.85284964743209062954e-02) (128, 2.13332045027443628626e-01) (129, 3.30263602144585333154e-01) (130, 7.59102025831753235430e-02) (131, 2.00949706755647966583e-01) (132, 1.43088324097096729337e-02) (133, -1.04957409623133116061e-01) (134, -1.50512880429468365318e-01) (135, -5.73319443473792461630e-02) (136, -2.59711281014031847292e-01) (137, -2.62014870965071977604e-01) (138, -3.49451299473281129515e-01) (139, -2.49191767126643953789e-01) (140, -1.50069124032955164560e-01) (141, -2.34471203965159857852e-01) (142, -3.01806092354180599546e-01) (143, -2.72417940140618486389e-01) (144, -5.32920353590975670599e-01) (145, -1.16400353377792686871e+00) (146, -1.19745895266734603268e+00) (147, -1.11657842868045142914e+00) (148, -2.09191686968478629538e+00) (149, -1.05766707451788022354e+01) (150, -1.42684139595900001041e+03) (151, -1.50000000000000000000e+03) (152, -1.49842708086529773936e+03) (153, -1.11958775022901813045e+00) (154, -6.38708733182593912936e-01) (155, -8.56387270216934504141e-01) (156, -4.12620457173181787169e+00) (157, -6.91373311085678324162e+02) (158, -1.85493334801740132889e+01) (159, -3.68682748162571050088e+00) (160, -5.56544856232519147277e-01) (161, -7.21644482505157336405e-01) (162, -8.18818597780307966261e-01) (163, -7.87018601486827118485e-01) (164, -1.17813815186776293942e+00) (165, -8.31481451861766140965e-01) (166, -8.13367290445064616833e-01) (167, -7.68221817555569397307e-01) (168, -6.91064822315908822148e-01) (169, -9.12994923293923621443e-01) (170, -1.00387433890946775605e+00) (171, -2.66144941130972156884e+00) (172, -4.11066527291240735309e+00) (173, -9.70832649210321164901e+02) (174, -2.70119173320171732655e+01) (175, -1.49851540597830035040e+03) (176, -1.46111932866631582328e+03) (177, -1.48133221626143108551e+03) (178, -2.41157382392523267356e+00) (179, -4.77340559132246100571e-01) (180, -3.84611922653540327932e-01) (181, -4.27977307586267119444e-01) (182, -4.08620335354201280609e-01) (183, -5.67249011927740909300e-01) (184, -7.02471767753438669502e-01) (185, -4.49967383910427676241e-01) (186, -4.32457123193531522976e-01) (187, -6.36173954625703585997e-01) (188, -8.83744952877965950222e-01) (189, -8.77658648559573428827e-01) (190, -7.00900477548083045143e-01) (191, -5.22900779957077954663e-01) (192, -5.14940484397344744316e-01) (193, -6.39641302778138798324e-01) (194, -9.07023481999036818024e-01) (195, -1.51958873185968346142e+00) (196, -2.64648505423905122669e+00) (197, -1.95862270190194132091e+00) (198, -7.92341868243960067986e+00) (199, -1.07537711861128588708e+01) (200, 1.49995802160655239277e+03) (201, 1.43428093189813353092e+03) (202, 1.49522852715809176516e+03) (203, 1.12517532218929386545e+03) (204, 4.52967651878445654035e+00) (205, -2.25540911774354202457e-01) (206, -1.10207567642686882214e-01) (207, -2.36443178407281712206e-01) (208, -2.14344307199415967657e-01) (209, -1.22339587326618051688e-01) (210, -1.70499744259677288305e-01) (211, -2.35251636795583862760e-01) (212, -4.03090249965832869705e-01) (213, -2.81164182384167071760e-01) (214, -3.65155753085461942664e-01) (215, -4.47388656640155868427e-01) (216, -3.67464262664570051609e-01) (217, -3.69612462480150949506e-01) (218, -3.25087285677991277844e-01) (219, -4.78111203865126010992e-01) (220, -4.33868170122731544591e-01) (221, -6.02497126960907625204e-01) (222, -8.39894615993611037830e-01) (223, -2.13687687895662437043e+00) (224, -1.06027629907938099052e+01) (225, -1.19469778988753438931e+00) (0, -7.62048244644247585455e-01) (1, -8.26640951720635119848e-01) (2, -7.99406963439088569245e-01) (3, -7.31790425855209147876e-01) (4, -7.32700063607428120349e-01) (5, -1.17603846677205337024e+00) (6, -1.17113292093348664302e+00) (7, -8.05712637290282085445e-01) (8, -7.67437738144035042076e-01) (9, -7.78297672120656702788e-01) (10, -8.38207862508310919125e-01) (11, -3.32049294624342961058e+00) (12, -6.52989670756187035039e+00) (13, -1.42902331213011368760e+00) (14, -1.15099573026857870950e+00) (15, -1.62296603905766634313e+00) (16, -1.36317874811250527856e+00) (17, -1.82821999013752778396e+00) (18, -1.91588821336803754036e+01) (19, -9.54622270889424973106e-01) (20, -7.36419203682663114918e-01) (21, -8.42567504471717798609e-01) (22, -3.17704593998244466668e-01) (23, -5.31335011019363312457e-01) (24, -6.30030209844081534598e-01) (25, 2.98635270663099805510e-01) (26, 2.66337593138025685580e-01) (27, -8.73807663010367940970e-01) (28, -6.58134334221618821914e-01) (29, -5.15151394318725586174e-01) (30, -3.96650048054220993876e-01) (31, 2.34700834272421587912e+00) (32, 1.72671090092892631773e+00) (33, 1.67100017230504427346e+00) (34, 2.77392426182498597065e-01) (35, -2.66982596556854023806e-01) (36, -3.17980114076860498340e-01) (37, -5.58870437374931139374e-01) (38, -5.27155303265200769758e-01) (39, -5.73493024810431628602e-01) (40, -4.73523537252751425264e-01) (41, -5.92407790741848572225e-01) (42, -6.74566084835741097692e-01) (43, -8.33357935192171384031e-01) (44, -8.42032843875538894451e-01) (45, -8.07564267737937990788e-01) (46, -7.62271031978169033572e-01) (47, -8.42063071857141687282e-01) (48, -9.21998066381683689663e-01) (49, -5.33476474562080471564e-01) (50, -5.43646952188546972451e-01) (51, -6.94807858923859877898e-01) (52, -6.31000109630364680591e-01) (53, -5.89120779036210295843e-01) (54, -6.64951210875035614301e-01) (55, -6.36480183858562420518e-01) (56, -8.33960115646204425133e-01) (57, -7.33863395358971160043e-01) (58, -5.39670275347864603077e-01) (59, -3.53406351639800997422e-01) (60, -7.02182938739120077187e-01) (61, -1.31194236337075476051e+00) (62, -1.12836216571939162989e+00) (63, -7.58045559676322922016e-01) (64, -9.19817577614723602686e-01) (65, -4.28129431494263190672e+00) (66, -1.41871183596053929143e+00) (67, 1.73957231440608195427e+00) (68, -8.68948035173870980685e-01) (69, -6.22041930214862870407e-01) (70, -8.31310560699719980349e-01) (71, -6.42308850349013860104e-01) (72, -1.41338492653446023972e+00) (73, -2.49987864753816568797e-01) (74, 3.03122734760261393350e-02) (75, 1.26073742540155198100e+00) (76, 1.45274806888640317659e+00) (77, 5.05776332511661430580e-01) (78, -2.51077895298476516661e-01) (79, -2.78210359503641369017e-01) (80, 2.54131169143863777649e+00) (81, 9.50164713252741499616e+00) (82, 4.53262827227181563927e+00) (83, 1.11967412516822251156e+00) (84, 1.23326219399949321698e+00) (85, 1.04466841099169638341e+00) (86, 1.19078370242924758138e+00) (87, 3.05541905478284581132e-01) (88, -1.93034291656073719867e-01) (89, -2.53927029378614221855e-01) (90, -1.48814633192950240836e-01) (91, -4.21830987442622984407e-01) (92, -2.52156648304620312206e-01) (93, -3.33602661986845350217e-01) (94, -6.20838764972601930836e-01) (95, -5.37474001839271520176e-01) (96, -4.37963667800466027735e-01) (97, -6.93119651756031962542e-01) (98, -4.47975498993300691453e-01) (99, 1.28397125994008365346e+00) (100, -5.07308892283228285436e-01) (101, -4.65075711549702008885e-01) (102, -5.24108174592813891302e-01) (103, -6.58056161346849965987e-01) (104, -4.30775255322965955340e-01) (105, -5.86109857264252021025e-01) (106, -5.42437885083134174735e-01) (107, -1.25042903114920667118e-01) (108, -2.68268813269226746865e-01) (109, 2.12134535565230257503e-02) (110, -6.02575690008518405349e-01) (111, -2.84873339218620325042e+00) (112, -6.23014732120367131785e+00) (113, -8.47821409862585140260e-01) (114, -1.83305744682609139673e+00) (115, 1.75505455844001758692e+01) (116, 4.85990408687167487756e+01) (117, 2.49472993495249397711e+01) (118, -5.23853192312449089663e-01) (119, -2.07918747170334872187e-01) (120, -5.54669551321155362977e-01) (121, -1.21019982969536998851e+00) (122, -8.47205564361669827278e-01) (123, 8.19170066768407312274e-01) (124, 1.40145830727189779630e-01) (125, -1.31159037490006125104e-01) (126, 1.16835380628601370745e+00) (127, 5.50645742701232454586e-01) (128, 1.47379479749007824552e+00) (129, 1.78338820317329815879e+00) (130, 1.78658227207187003671e+00) (131, 1.62818310510109132139e+00) (132, 1.37614515385409896808e+00) (133, 1.17754171260816220546e+00) (134, 1.62273095777627585079e+00) (135, -5.65318238657329330543e-01) (136, -1.37427650618762298151e+00) (137, -4.75471908391631059576e-01) (138, -4.03980165084613984661e-01) (139, -4.23016059780876252372e-01) (140, -2.67107773471248144403e-01) (141, -4.74677323586468302707e-01) (142, -5.41057993725915564731e-01) (143, -4.04218623913749186549e-01) (144, -4.53285345142544926489e-01) (145, -5.75826124886371748524e-01) (146, -3.10236945945178033135e-01) (147, -5.78083686352998005198e-01) (148, -3.24192305334637109748e-01) (149, 1.31944388993458328052e+00) (150, -3.48940007424478282338e-01) (151, -6.97948641701080174649e-01) (152, -4.74118148353301349651e-01) (153, -4.18321143336411238600e-01) (154, -3.35755869303748122334e-01) (155, -3.03725457188931957653e-01) (156, -4.32029120766772523066e-01) (157, -5.53563633701003698917e-01) (158, -7.83456053567777699342e-01) (159, -9.50758163576464254696e-01) (160, -6.95366529103832564651e-01) (161, -6.61935262285984871156e-01) (162, -8.15449196374942064658e-01) (163, -7.15619699328047365050e-01) (164, -7.84111149671204210598e-01) (165, -8.08063906167555079385e-01) (166, -7.69884422326878037346e-01) (167, -7.73326293048799628949e-01) (168, -7.96683675274623248619e-01) (169, -8.29194172059539824637e-01) (170, -7.75080941669767042868e-01) (171, -1.10259392099893749339e+00) (172, -9.06186280879301531144e-01) (173, -8.72209158209902746250e-01) (174, -6.22297109972096418318e-01) (175, -3.01215629732655010287e+00) (176, -9.44763321290536084440e-01) (177, -6.39604540064747206785e-01) (178, -6.66252616052732116181e-01) (179, 7.80549649523202382362e-01) (180, 1.90119542773195582264e+00) (181, 7.52445284139089665132e+00) (182, 6.67343163385238025143e+00) (183, 3.74285355823235299511e+00) (184, -2.45165811257269300460e-01) (185, -5.21813997887851765967e-01) (186, -4.06116945445622268274e-01) (187, -6.91507205249961898197e-01) (188, -6.88349298798526576526e-01) (189, -6.02365799752647590459e-01) (190, -6.05753828165877528100e-01) (191, -5.80984193532796067139e-01) (192, -6.39724272473688904128e-01) (193, -6.26425851337827910292e-01) (194, -6.37350257316954271758e-01) (195, -6.77241695092948514656e-01) (196, -7.36277582828004484305e-01) (197, -7.93341438840997947857e-01) (198, -6.46011630628286814826e-01) (199, -3.75072295834268432113e-01) (200, 4.04432937895049171573e+00) (201, 2.51952692511548193011e+00) (202, 3.10017739421845561765e+00) (203, 4.13412413233817677138e+00) (204, 4.48193137943086483688e+00) (205, 7.20167208204868652954e-02) (206, 5.99208730421111127051e-03) (207, 8.63512947250363205320e-01) (208, 3.49537546441153701426e-01) (209, -5.34581532003037485090e-01) (210, -4.80297268459371207161e-01) (211, -2.95514103298247787777e-01) (212, -6.45182244105792723765e-01) (213, -5.56604843966539863942e-01) (214, -5.35784956049204175166e-01) (215, -5.76542992431686052157e-01) (216, -4.82997097247867490655e-01) (217, -4.37584322336978359669e-01) (218, -3.70583330817568556981e-01) (219, -5.37459786909916137354e-01) (220, -6.61111794139159325567e-01) (221, -6.73568019584717347925e-01) (222, -5.94489958132932927448e-01) (223, -6.86328349653065772351e-01) (224, -4.91567198125404225539e-01) (225, 1.18194975651830702645e+00) (0, -4.65848961642077938450e+02) (1, -4.59441078926536931704e+02) (2, -8.68857757603417212522e+02) (3, -9.75912813536874750753e+02) (4, -9.75971641468929306029e+02) (5, -9.78628106905436538909e+02) (6, -9.98476190270739039079e+02) (7, -6.78589371596316652813e+01) (8, -7.34106200045943335653e+00) (9, -5.31553823405817027492e+00) (10, -2.70216609109395790256e+02) (11, -1.46821387492524127083e+03) (12, -1.46768352690739970967e+03) (13, -1.35417826736896040529e+03) (14, -2.95137781852466730470e+02) (15, -3.10582152574679696500e+02) (16, -2.90560985570389824773e+01) (17, -4.07737836319171709221e+00) (18, -2.83747505371872570379e+01) (19, -7.71535718517595281440e-01) (20, -2.32507276176536770151e+01) (21, -1.84713575511610002877e+02) (22, -1.62461828042230308711e+02) (23, -3.30597145123945210798e+01) (24, -3.30601825850540933516e+01) (25, -6.32857288077087254408e+00) (26, -2.07022220401074896756e+00) (27, -9.26082321630010696367e+00) (28, -2.10726030174949556795e+01) (29, -2.12389324605899503240e+01) (30, -4.97928187651303844063e+01) (31, -4.97222030866903637047e+01) (32, -5.95593964970187244035e+01) (33, -2.63054402140919769693e+01) (34, -1.21439209374036209965e+01) (35, -4.44461244335693237417e+01) (36, -2.93920426626841390316e+02) (37, -4.48261079822172973763e+02) (38, -4.48232528341677948447e+02) (39, -4.48229285400970923092e+02) (40, -1.66119894998591206559e+02) (41, -1.66116055326342660692e+02) (42, -1.65869801422176976757e+02) (43, -1.65825821134289213887e+02) (44, -3.90367172667341151282e+02) (45, -3.90923023472633531128e+02) (46, -3.90197322654561901345e+02) (47, -4.60450925356645029751e+02) (48, -4.60402490026402119838e+02) (49, -5.98778892930904693692e-01) (50, -2.27516040801629841894e+01) (51, -2.00216096206448579409e+00) (52, -6.88763584843125098445e+00) (53, -2.87570014534482027102e+02) (54, -4.13869008532744032891e+02) (55, -5.66534108038740328084e+02) (56, -4.14838389161735733524e+02) (57, -3.38416309824976968557e+00) (58, -1.04419523876508035798e+00) (59, -1.00120067174475368965e+00) (60, -4.07301646883063810378e+01) (61, -1.08468753223876728953e+03) (62, -8.16821226003082074385e+02) (63, -8.16856252860888389478e+02) (64, -5.67049828372809542998e+02) (65, -2.72266848359497316778e+02) (66, -5.70746369799779245113e+02) (67, -1.36889837141321653036e+01) (68, -2.01104230684060336642e+00) (69, -4.07709166230997954727e+00) (70, -9.99823750378134718630e+02) (71, -1.22723233649906546816e+03) (72, -1.23914398493331509599e+03) (73, -3.43454069799122692075e+01) (74, -1.28093810148431881402e+01) (75, -7.41773170380751079023e+00) (76, -6.61313624915787912073e+00) (77, -2.83909223635929492957e+01) (78, -1.42618596184523568127e+02) (79, -1.13907230903364329322e+01) (80, -5.91508813535345510104e+01) (81, -2.58161124380743132178e+01) (82, -1.14350997516164856194e+01) (83, -9.73529799263813000465e-01) (84, -6.29875905040563233150e-01) (85, -7.70664770753533456826e-01) (86, -1.30493506190080066354e+00) (87, -2.11642246159770230918e+00) (88, -1.07273276941511630511e+00) (89, -8.92768464669037586923e-01) (90, -7.61998493882969585300e-01) (91, -6.84784516779619933935e-01) (92, -7.47757276671048409789e-01) (93, -8.41689440592052418033e-01) (94, -1.32255690792039759529e+00) (95, -1.67632961916734735119e+00) (96, -1.03699446527377592275e+00) (97, -1.11712024196611281468e+00) (98, -1.09847680307602635352e+00) (99, -5.14429096820467002260e-01) (100, -2.66210399994495761078e+00) (101, -1.86229793467974835686e+00) (102, -3.69475246061887663274e+00) (103, -2.87176209951748091953e+02) (104, -4.13385559601351644687e+02) (105, -4.18373376673034101714e+02) (106, -1.87675752917962142874e+02) (107, -6.61965892884928464035e-01) (108, -4.15784470675047479471e-01) (109, -4.31731123303819297465e-01) (110, -4.82541092299415108613e+00) (111, -1.14853860862243641350e+03) (112, -1.32128393735180588919e+03) (113, -3.11528488016856726972e+02) (114, -2.14102277044892481683e+01) (115, -1.03198326956619137462e+01) (116, -8.76469543082989743787e-01) (117, -8.47593463049776341123e-01) (118, -3.78072549665705404109e+00) (119, -6.26341867089128645496e-01) (120, -2.41023099472965434131e+01) (121, -1.21106089519958163692e+03) (122, -5.67533198287007053295e+02) (123, -4.36940232462353195242e-01) (124, -6.36417739766472423391e-01) (125, -1.42627311668925393917e+00) (126, -3.19167732147347305016e+00) (127, -9.79964075419006697132e+00) (128, -4.83467573995686794586e-01) (129, -6.68708450780462260177e-01) (130, -5.88619800805357229478e+01) (131, -2.51252294221358916104e+01) (132, -1.39788874846889275005e+01) (133, -3.42453998861374131479e+00) (134, -5.93566748106225361425e+00) (135, -8.90740725954616507920e+00) (136, -8.99080720790217569061e+00) (137, -1.89026082111519997397e+01) (138, -1.90374808541816804563e+01) (139, -8.94142282083228323586e-01) (140, -8.39869921397271346208e-01) (141, -8.26545331327770971264e-01) (142, -7.63921309891838373751e-01) (143, -1.06263701504197283221e+00) (144, -1.16991386773482930472e+00) (145, -1.84815001906343256977e+00) (146, -1.29071268858583620975e+00) (147, -1.13977677449489966932e+00) (148, -1.00847541649521632579e+00) (149, -4.70703579658144688480e-01) (150, -3.01884841011886813078e+01) (151, -3.97345058080502099074e+02) (152, -3.97357219163138836393e+02) (153, -7.26005195602059416160e+02) (154, -1.94168415124263553651e+01) (155, -1.26502754941635629393e+02) (156, -1.51814813018415634360e+02) (157, -2.93799485195577119612e+02) (158, -1.52132933463956135256e+02) (159, -1.51767789360862366266e+02) (160, -6.36005420336823732441e+01) (161, -6.35448164187880024656e+01) (162, -2.93834079887265602338e+02) (163, -2.93889694072800807589e+02) (164, -2.93886724458272340144e+02) (165, -2.93844956966006861876e+02) (166, -1.22948758533753149891e+02) (167, -1.22821137799413605762e+02) (168, -1.22944306251202675639e+02) (169, -1.24911464130396311134e+02) (170, -1.99306771388009167367e+02) (171, -4.55324708187112378255e+02) (172, -4.50624632111538971913e+02) (173, -4.64328731725654279217e+02) (174, -1.25862138028107506393e+00) (175, -3.62928477049600572979e-01) (176, -1.27920409362344955184e+02) (177, -7.02295574064913052936e-01) (178, -5.48148323641385193383e+00) (179, -6.13347967643529945470e-01) (180, -2.68384855553870522726e+01) (181, -1.11405830112099368812e+00) (182, -2.69377642138692996454e+00) (183, -5.44109350813853875906e+00) (184, -5.28305043796097972830e+00) (185, -2.23355362978767546522e+00) (186, -2.28717737970984691387e+00) (187, -2.38307221003888720645e+01) (188, -1.22861538910428748750e+02) (189, -1.22815443101993366781e+02) (190, -1.22881770075585791346e+02) (191, -1.22739983467103229486e+02) (192, -2.22929102486773267344e+01) (193, -2.23903031186670595787e+01) (194, -5.29912830173893354413e+01) (195, -2.63790271532350857342e+01) (196, -5.78183622932593905830e+01) (197, -2.03397961427183870953e+00) (198, -3.08574168453182773320e+00) (199, -5.07780321270989931648e-01) (200, 7.93682355020493712772e+00) (201, 3.23816983314425144158e+00) (202, 1.42065085672360481794e+02) (203, 8.90780008439824477762e+00) (204, -3.97644588494122444899e+02) (205, -5.65562586512367147407e+02) (206, -1.50048045420132574179e+01) (207, -5.88507544910252278214e+01) (208, -4.01658637508051086229e+00) (209, -5.24443828669406908460e+00) (210, -2.18722686812336908346e+00) (211, -1.55797606448622416586e+00) (212, -2.38456336517844036393e+01) (213, -2.93806805226858330116e+02) (214, -1.22806404006424159547e+02) (215, -1.22783019147722967546e+02) (216, -4.60386159692133389854e+00) (217, -7.49015076137905300158e-01) (218, -4.61344318786749807426e-01) (219, -5.56575871975165448191e-01) (220, -6.74696669556511308130e-01) (221, -1.43852875496097132313e+00) (222, -1.40069580842554763933e+00) (223, -2.28897846188698892433e+01) (224, -6.72241443261122562092e-01) (225, -4.84180990255388576937e-01) (0, 1.30668034496719509541e+00) (1, 1.21972791225958876460e+00) (2, 1.26682792073490202434e+00) (3, 1.30002360482534640163e+00) (4, 1.25329117784432519933e+00) (5, 2.15601833947693721782e+00) (6, 2.03063554179191863014e+00) (7, 1.33508758628770229926e+00) (8, 1.36585521271629239948e+00) (9, 1.17632423759088933224e+00) (10, 1.21099043692482899459e+00) (11, 1.23311777578889603113e+00) (12, 1.13980435892744069726e+00) (13, 1.11634166445346960650e+00) (14, 1.02144006901270878451e+00) (15, 1.00359192563019883337e+00) (16, 1.09261679946690559717e+00) (17, 1.00695475096445585805e+00) (18, 9.10236364159607513891e-01) (19, 9.26239169748360402501e-01) (20, 1.10771988675042076800e+00) (21, 9.44263628064457183342e-01) (22, 1.02271788567644827950e+00) (23, 9.03141101846455907065e-01) (24, 1.05846086579997322730e+00) (25, 1.01986032705263629516e+00) (26, 1.03090587545191669783e+00) (27, 1.14775325443307396611e+00) (28, 1.18107305054180855564e+00) (29, 1.05800322009561220682e+00) (30, 1.12512175744352749263e+00) (31, 1.10347354771458405764e+00) (32, 1.19056414823691292248e+00) (33, 1.04946033112710535029e+00) (34, 1.05185567529079326832e+00) (35, 1.17517061555858259858e+00) (36, 1.12310035017549814107e+00) (37, 1.11835931822835821237e+00) (38, 1.06896962238199888517e+00) (39, 1.16858990335549184358e+00) (40, 1.25192597035509600722e+00) (41, 1.18800784809048942670e+00) (42, 1.01795848280425160759e+00) (43, 1.00440951564193015066e+00) (44, 1.11996219580445921515e+00) (45, 1.01369172664123063932e+00) (46, 1.01477121523579438822e+00) (47, 1.13093466139794140979e+00) (48, 1.14227165584654355435e+00) (49, 9.59904489598857102450e-01) (50, 1.19931468390296358528e+00) (51, 1.14491533364124653538e+00) (52, 1.15956411271930948104e+00) (53, 1.21839391060105928233e+00) (54, 2.06961644394225974253e+00) (55, 2.23260424712594351959e+00) (56, 2.16933307880080405994e+00) (57, 2.25010943297969578936e+00) (58, 2.09799636180396298357e+00) (59, 1.42011771962825283921e+00) (60, 1.22021165701431666406e+00) (61, 1.27541533472614521116e+00) (62, 1.14666606475286902977e+00) (63, 1.11302780000068946009e+00) (64, 9.76158424970888560779e-01) (65, 9.68400053482127654014e-01) (66, 1.18614380579687694883e+00) (67, 1.02142947357512103856e+00) (68, 9.40537036910766954811e-01) (69, 8.17153055516239845701e-01) (70, 1.04341636025204897997e+00) (71, 1.10925459216577970700e+00) (72, 1.03816598082430555650e+00) (73, 9.01675872199805161777e-01) (74, 1.05737735777131525161e+00) (75, 1.01418081701027107400e+00) (76, 1.05271789248473246481e+00) (77, 1.09957931559671839850e+00) (78, 1.04665957168019918555e+00) (79, 9.31292519886368741489e-01) (80, 1.04689431568205382206e+00) (81, 1.08701405688142727080e+00) (82, 1.06834599417659359410e+00) (83, 1.03424433781646052388e+00) (84, 9.58688401392720268568e-01) (85, 1.01295354507144286238e+00) (86, 1.05949095999923326161e+00) (87, 1.02855816640008312923e+00) (88, 1.02727340354857576976e+00) (89, 9.85496221166409558379e-01) (90, 1.01667936041138617931e+00) (91, 9.51729495006588877004e-01) (92, 9.52264190254078379816e-01) (93, 1.03137866874058947708e+00) (94, 9.63755870229904054725e-01) (95, 1.04767101924890848608e+00) (96, 1.01306310877676364335e+00) (97, 1.03068456452886492158e+00) (98, 9.86767243071304367419e-01) (99, 9.48971259196479288711e-01) (100, 1.07305851945390928748e+00) (101, 1.18089485316244813262e+00) (102, 1.16279457771434602265e+00) (103, 1.25126436522445838584e+00) (104, 1.74116016703349663075e+00) (105, 3.09441895493044061283e+00) (106, 1.76757196839571095737e+00) (107, 1.75589577510398942017e+00) (108, 1.28277975001595634374e+00) (109, 1.06594202778068614101e+00) (110, 1.09342868057315523167e+00) (111, 9.57451976492683876074e-01) (112, 7.84662175391687255477e-01) (113, 4.53597499561159189785e-01) (114, 3.51160846334421447579e-02) (115, -2.14888258132767302755e-03) (116, 6.14145582811079671082e-01) (117, 8.07415606289944243201e-01) (118, 9.89792700181901130563e-01) (119, 8.43655416027662030665e-01) (120, 8.76253307441922868470e-01) (121, 9.54775111180220514839e-01) (122, 1.09908701621110749258e+00) (123, 1.04230664849032295116e+00) (124, 9.16379500412651037955e-01) (125, 1.01646229434884705078e+00) (126, 1.09352120874063118983e+00) (127, 1.03313848646537076448e+00) (128, 1.13915528652773301310e+00) (129, 1.39604261164025800213e+00) (130, 1.85689232029338513463e+00) (131, 1.97327182909751308593e+00) (132, 1.45026685883620065631e+00) (133, 1.35998911342044737083e+00) (134, 1.51260260662892775940e+00) (135, 1.39552913375693621312e+00) (136, 1.42442645705807957590e+00) (137, 1.41109900059516513160e+00) (138, 1.21998055403986516154e+00) (139, 1.04391059084343829078e+00) (140, 1.08915603873546706915e+00) (141, 1.05760054888430987674e+00) (142, 9.34636801661320126833e-01) (143, 9.00976729387655717041e-01) (144, 9.53073313172220215606e-01) (145, 1.05689641096435971157e+00) (146, 9.28750265668268015773e-01) (147, 1.00091678893329105726e+00) (148, 9.96086159896531264657e-01) (149, 9.97000581158353771372e-01) (150, 1.04300529735321445557e+00) (151, 9.70355277151530803970e-01) (152, 1.02521664592162542462e+00) (153, 9.94188883384265253973e-01) (154, 1.09119453629641771641e+00) (155, 1.14770782377217539505e+00) (156, 1.29070332201422188767e+00) (157, 1.70253414430932492607e+00) (158, 4.17799799100028756982e+00) (159, 1.21689443980926892408e+00) (160, 1.10463794124730685375e+00) (161, 1.05853176981925822808e+00) (162, 1.08927280899072953524e+00) (163, 1.18213872935002783926e+00) (164, 1.16873111731274614833e+00) (165, 1.15643614859706689302e+00) (166, 