FANN_FLO_2.1
num_layers=3
learning_rate=0.700000
connection_rate=1.000000
network_type=0
learning_momentum=0.000000
training_algorithm=2
train_error_function=1
train_stop_function=0
cascade_output_change_fraction=0.010000
quickprop_decay=-0.000100
quickprop_mu=1.750000
rprop_increase_factor=1.200000
rprop_decrease_factor=0.500000
rprop_delta_min=0.000000
rprop_delta_max=50.000000
rprop_delta_zero=0.100000
cascade_output_stagnation_epochs=12
cascade_candidate_change_fraction=0.010000
cascade_candidate_stagnation_epochs=12
cascade_max_out_epochs=150
cascade_min_out_epochs=50
cascade_max_cand_epochs=150
cascade_min_cand_epochs=50
cascade_num_candidate_groups=2
bit_fail_limit=3.49999999999999977796e-01
cascade_candidate_limit=1.00000000000000000000e+03
cascade_weight_multiplier=4.00000000000000022204e-01
cascade_activation_functions_count=10
cascade_activation_functions=3 5 7 8 10 11 14 15 16 17 
cascade_activation_steepnesses_count=4
cascade_activation_steepnesses=2.50000000000000000000e-01 5.00000000000000000000e-01 7.50000000000000000000e-01 1.00000000000000000000e+00 
layer_sizes=226 227 8 
scale_included=0
neurons (num_inputs, activation_function, activation_steepness)=(0, 0, 0.00000000000000000000e+00) (0, 0, 0.00000000000000000000e+00) (0, 0, 0.00000000000000000000e+00) (0, 0, 0.00000000000000000000e+00) (0, 0, 0.00000000000000000000e+00) (0, 0, 0.00000000000000000000e+00) (0, 0, 0.00000000000000000000e+00) (0, 0, 0.00000000000000000000e+00) (0, 0, 0.00000000000000000000e+00) (0, 0, 0.00000000000000000000e+00) (0, 0, 0.00000000000000000000e+00) (0, 0, 0.00000000000000000000e+00) (0, 0, 0.00000000000000000000e+00) (0, 0, 0.00000000000000000000e+00) (0, 0, 0.00000000000000000000e+00) (0, 0, 0.00000000000000000000e+00) (0, 0, 0.00000000000000000000e+00) (0, 0, 0.00000000000000000000e+00) (0, 0, 0.00000000000000000000e+00) (0, 0, 0.00000000000000000000e+00) (0, 0, 0.00000000000000000000e+00) (0, 0, 0.00000000000000000000e+00) (0, 0, 0.00000000000000000000e+00) (0, 0, 0.00000000000000000000e+00) (0, 0, 0.00000000000000000000e+00) (0, 0, 0.00000000000000000000e+00) (0, 0, 0.00000000000000000000e+00) (0, 0, 0.00000000000000000000e+00) (0, 0, 0.00000000000000000000e+00) (0, 0, 0.00000000000000000000e+00) (0, 0, 0.00000000000000000000e+00) (0, 0, 0.00000000000000000000e+00) (0, 0, 0.00000000000000000000e+00) (0, 0, 0.00000000000000000000e+00) (0, 0, 0.00000000000000000000e+00) (0, 0, 0.00000000000000000000e+00) (0, 0, 0.00000000000000000000e+00) (0, 0, 0.00000000000000000000e+00) (0, 0, 0.00000000000000000000e+00) (0, 0, 0.00000000000000000000e+00) (0, 0, 0.00000000000000000000e+00) (0, 0, 0.00000000000000000000e+00) (0, 0, 0.00000000000000000000e+00) (0, 0, 0.00000000000000000000e+00) (0, 0, 0.00000000000000000000e+00) (0, 0, 0.00000000000000000000e+00) (0, 0, 0.00000000000000000000e+00) (0, 0, 0.00000000000000000000e+00) (0, 0, 0.00000000000000000000e+00) (0, 0, 0.00000000000000000000e+00) (0, 0, 0.00000000000000000000e+00) (0, 0, 0.00000000000000000000e+00) (0, 0, 0.00000000000000000000e+00) (0, 0, 0.00000000000000000000e+00) (0, 0, 0.00000000000000000000e+00) (0, 0, 0.00000000000000000000e+00) (0, 0, 0.00000000000000000000e+00) (0, 0, 0.00000000000000000000e+00) (0, 0, 0.00000000000000000000e+00) (0, 0, 0.00000000000000000000e+00) (0, 0, 0.00000000000000000000e+00) (0, 0, 0.00000000000000000000e+00) (0, 0, 0.00000000000000000000e+00) (0, 0, 0.00000000000000000000e+00) (0, 0, 0.00000000000000000000e+00) (0, 0, 0.00000000000000000000e+00) (0, 0, 0.00000000000000000000e+00) (0, 0, 0.00000000000000000000e+00) (0, 0, 0.00000000000000000000e+00) (0, 0, 0.00000000000000000000e+00) (0, 0, 0.00000000000000000000e+00) (0, 0, 0.00000000000000000000e+00) (0, 0, 0.00000000000000000000e+00) (0, 0, 0.00000000000000000000e+00) (0, 0, 0.00000000000000000000e+00) (0, 0, 0.00000000000000000000e+00) (0, 0, 0.00000000000000000000e+00) (0, 0, 0.00000000000000000000e+00) (0, 0, 0.00000000000000000000e+00) (0, 0, 0.00000000000000000000e+00) (0, 0, 0.00000000000000000000e+00) (0, 0, 0.00000000000000000000e+00) (0, 0, 0.00000000000000000000e+00) (0, 0, 0.00000000000000000000e+00) (0, 0, 0.00000000000000000000e+00) (0, 0, 0.00000000000000000000e+00) (0, 0, 0.00000000000000000000e+00) (0, 0, 0.00000000000000000000e+00) (0, 0, 0.00000000000000000000e+00) (0, 0, 0.00000000000000000000e+00) (0, 0, 0.00000000000000000000e+00) (0, 0, 0.00000000000000000000e+00) (0, 0, 0.00000000000000000000e+00) (0, 0, 0.00000000000000000000e+00) (0, 0, 0.00000000000000000000e+00) (0, 0, 0.00000000000000000000e+00) (0, 0, 0.00000000000000000000e+00) (0, 0, 0.00000000000000000000e+00) (0, 0, 0.00000000000000000000e+00) (0, 0, 0.00000000000000000000e+00) (0, 0, 0.00000000000000000000e+00) (0, 0, 0.00000000000000000000e+00) (0, 0, 0.00000000000000000000e+00) (0, 0, 0.00000000000000000000e+00) (0, 0, 0.00000000000000000000e+00) (0, 0, 0.00000000000000000000e+00) (0, 0, 0.00000000000000000000e+00) (0, 0, 0.00000000000000000000e+00) (0, 0, 0.00000000000000000000e+00) (0, 0, 0.00000000000000000000e+00) (0, 0, 0.00000000000000000000e+00) (0, 0, 0.00000000000000000000e+00) (0, 0, 0.00000000000000000000e+00) (0, 0, 0.00000000000000000000e+00) (0, 0, 0.00000000000000000000e+00) (0, 0, 0.00000000000000000000e+00) (0, 0, 0.00000000000000000000e+00) (0, 0, 0.00000000000000000000e+00) (0, 0, 0.00000000000000000000e+00) (0, 0, 0.00000000000000000000e+00) (0, 0, 0.00000000000000000000e+00) (0, 0, 0.00000000000000000000e+00) (0, 0, 0.00000000000000000000e+00) (0, 0, 0.00000000000000000000e+00) (0, 0, 0.00000000000000000000e+00) (0, 0, 0.00000000000000000000e+00) (0, 0, 0.00000000000000000000e+00) (0, 0, 0.00000000000000000000e+00) (0, 0, 0.00000000000000000000e+00) (0, 0, 0.00000000000000000000e+00) (0, 0, 0.00000000000000000000e+00) (0, 0, 0.00000000000000000000e+00) (0, 0, 0.00000000000000000000e+00) (0, 0, 0.00000000000000000000e+00) (0, 0, 0.00000000000000000000e+00) (0, 0, 0.00000000000000000000e+00) (0, 0, 0.00000000000000000000e+00) (0, 0, 0.00000000000000000000e+00) (0, 0, 0.00000000000000000000e+00) (0, 0, 0.00000000000000000000e+00) (0, 0, 0.00000000000000000000e+00) (0, 0, 0.00000000000000000000e+00) (0, 0, 0.00000000000000000000e+00) (0, 0, 0.00000000000000000000e+00) (0, 0, 0.00000000000000000000e+00) (0, 0, 0.00000000000000000000e+00) (0, 0, 0.00000000000000000000e+00) (0, 0, 0.00000000000000000000e+00) (0, 0, 0.00000000000000000000e+00) (0, 0, 0.00000000000000000000e+00) (0, 0, 0.00000000000000000000e+00) (0, 0, 0.00000000000000000000e+00) (0, 0, 0.00000000000000000000e+00) (0, 0, 0.00000000000000000000e+00) (0, 0, 0.00000000000000000000e+00) (0, 0, 0.00000000000000000000e+00) (0, 0, 0.00000000000000000000e+00) (0, 0, 0.00000000000000000000e+00) (0, 0, 0.00000000000000000000e+00) (0, 0, 0.00000000000000000000e+00) (0, 0, 0.00000000000000000000e+00) (0, 0, 0.00000000000000000000e+00) (0, 0, 0.00000000000000000000e+00) (0, 0, 0.00000000000000000000e+00) (0, 0, 0.00000000000000000000e+00) (0, 0, 0.00000000000000000000e+00) (0, 0, 0.00000000000000000000e+00) (0, 0, 0.00000000000000000000e+00) (0, 0, 0.00000000000000000000e+00) (0, 0, 0.00000000000000000000e+00) (0, 0, 0.00000000000000000000e+00) (0, 0, 0.00000000000000000000e+00) (0, 0, 0.00000000000000000000e+00) (0, 0, 0.00000000000000000000e+00) (0, 0, 0.00000000000000000000e+00) (0, 0, 0.00000000000000000000e+00) (0, 0, 0.00000000000000000000e+00) (0, 0, 0.00000000000000000000e+00) (0, 0, 0.00000000000000000000e+00) (0, 0, 0.00000000000000000000e+00) (0, 0, 0.00000000000000000000e+00) (0, 0, 0.00000000000000000000e+00) (0, 0, 0.00000000000000000000e+00) (0, 0, 0.00000000000000000000e+00) (0, 0, 0.00000000000000000000e+00) (0, 0, 0.00000000000000000000e+00) (0, 0, 0.00000000000000000000e+00) (0, 0, 0.00000000000000000000e+00) (0, 0, 0.00000000000000000000e+00) (0, 0, 0.00000000000000000000e+00) (0, 0, 0.00000000000000000000e+00) (0, 0, 0.00000000000000000000e+00) (0, 0, 0.00000000000000000000e+00) (0, 0, 0.00000000000000000000e+00) (0, 0, 0.00000000000000000000e+00) (0, 0, 0.00000000000000000000e+00) (0, 0, 0.00000000000000000000e+00) (0, 0, 0.00000000000000000000e+00) (0, 0, 0.00000000000000000000e+00) (0, 0, 0.00000000000000000000e+00) (0, 0, 0.00000000000000000000e+00) (0, 0, 0.00000000000000000000e+00) (0, 0, 0.00000000000000000000e+00) (0, 0, 0.00000000000000000000e+00) (0, 0, 0.00000000000000000000e+00) (0, 0, 0.00000000000000000000e+00) (0, 0, 0.00000000000000000000e+00) (0, 0, 0.00000000000000000000e+00) (0, 0, 0.00000000000000000000e+00) (0, 0, 0.00000000000000000000e+00) (0, 0, 0.00000000000000000000e+00) (0, 0, 0.00000000000000000000e+00) (0, 0, 0.00000000000000000000e+00) (0, 0, 0.00000000000000000000e+00) (0, 0, 0.00000000000000000000e+00) (0, 0, 0.00000000000000000000e+00) (0, 0, 0.00000000000000000000e+00) (0, 0, 0.00000000000000000000e+00) (0, 0, 0.00000000000000000000e+00) (0, 0, 0.00000000000000000000e+00) (0, 0, 0.00000000000000000000e+00) (0, 0, 0.00000000000000000000e+00) (0, 0, 0.00000000000000000000e+00) (0, 0, 0.00000000000000000000e+00) (0, 0, 0.00000000000000000000e+00) (0, 0, 0.00000000000000000000e+00) (226, 5, 5.00000000000000000000e-01) (226, 5, 5.00000000000000000000e-01) (226, 5, 5.00000000000000000000e-01) (226, 5, 5.00000000000000000000e-01) (226, 5, 5.00000000000000000000e-01) (226, 5, 5.00000000000000000000e-01) (226, 5, 5.00000000000000000000e-01) (226, 5, 5.00000000000000000000e-01) (226, 5, 5.00000000000000000000e-01) (226, 5, 5.00000000000000000000e-01) (226, 5, 5.00000000000000000000e-01) (226, 5, 5.00000000000000000000e-01) (226, 5, 5.00000000000000000000e-01) (226, 5, 5.00000000000000000000e-01) (226, 5, 5.00000000000000000000e-01) (226, 5, 5.00000000000000000000e-01) (226, 5, 5.00000000000000000000e-01) (226, 5, 5.00000000000000000000e-01) (226, 5, 5.00000000000000000000e-01) (226, 5, 5.00000000000000000000e-01) (226, 5, 5.00000000000000000000e-01) (226, 5, 5.00000000000000000000e-01) (226, 5, 5.00000000000000000000e-01) (226, 5, 5.00000000000000000000e-01) (226, 5, 5.00000000000000000000e-01) (226, 5, 5.00000000000000000000e-01) (226, 5, 5.00000000000000000000e-01) (226, 5, 5.00000000000000000000e-01) (226, 5, 5.00000000000000000000e-01) (226, 5, 5.00000000000000000000e-01) (226, 5, 5.00000000000000000000e-01) (226, 5, 5.00000000000000000000e-01) (226, 5, 5.00000000000000000000e-01) (226, 5, 5.00000000000000000000e-01) (226, 5, 5.00000000000000000000e-01) (226, 5, 5.00000000000000000000e-01) (226, 5, 5.00000000000000000000e-01) (226, 5, 5.00000000000000000000e-01) (226, 5, 5.00000000000000000000e-01) (226, 5, 5.00000000000000000000e-01) (226, 5, 5.00000000000000000000e-01) (226, 5, 5.00000000000000000000e-01) (226, 5, 5.00000000000000000000e-01) (226, 5, 5.00000000000000000000e-01) (226, 5, 5.00000000000000000000e-01) (226, 5, 5.00000000000000000000e-01) (226, 5, 5.00000000000000000000e-01) (226, 5, 5.00000000000000000000e-01) (226, 5, 5.00000000000000000000e-01) (226, 5, 5.00000000000000000000e-01) (226, 5, 5.00000000000000000000e-01) (226, 5, 5.00000000000000000000e-01) (226, 5, 5.00000000000000000000e-01) (226, 5, 5.00000000000000000000e-01) (226, 5, 5.00000000000000000000e-01) (226, 5, 5.00000000000000000000e-01) (226, 5, 5.00000000000000000000e-01) (226, 5, 5.00000000000000000000e-01) (226, 5, 5.00000000000000000000e-01) (226, 5, 5.00000000000000000000e-01) (226, 5, 5.00000000000000000000e-01) (226, 5, 5.00000000000000000000e-01) (226, 5, 5.00000000000000000000e-01) (226, 5, 5.00000000000000000000e-01) (226, 5, 5.00000000000000000000e-01) (226, 5, 5.00000000000000000000e-01) (226, 5, 5.00000000000000000000e-01) (226, 5, 5.00000000000000000000e-01) (226, 5, 5.00000000000000000000e-01) (226, 5, 5.00000000000000000000e-01) (226, 5, 5.00000000000000000000e-01) (226, 5, 5.00000000000000000000e-01) (226, 5, 5.00000000000000000000e-01) (226, 5, 5.00000000000000000000e-01) (226, 5, 5.00000000000000000000e-01) (226, 5, 5.00000000000000000000e-01) (226, 5, 5.00000000000000000000e-01) (226, 5, 5.00000000000000000000e-01) (226, 5, 5.00000000000000000000e-01) (226, 5, 5.00000000000000000000e-01) (226, 5, 5.00000000000000000000e-01) (226, 5, 5.00000000000000000000e-01) (226, 5, 5.00000000000000000000e-01) (226, 5, 5.00000000000000000000e-01) (226, 5, 5.00000000000000000000e-01) (226, 5, 5.00000000000000000000e-01) (226, 5, 5.00000000000000000000e-01) (226, 5, 5.00000000000000000000e-01) (226, 5, 5.00000000000000000000e-01) (226, 5, 5.00000000000000000000e-01) (226, 5, 5.00000000000000000000e-01) (226, 5, 5.00000000000000000000e-01) (226, 5, 5.00000000000000000000e-01) (226, 5, 5.00000000000000000000e-01) (226, 5, 5.00000000000000000000e-01) (226, 5, 5.00000000000000000000e-01) (226, 5, 5.00000000000000000000e-01) (226, 5, 5.00000000000000000000e-01) (226, 5, 5.00000000000000000000e-01) (226, 5, 5.00000000000000000000e-01) (226, 5, 5.00000000000000000000e-01) (226, 5, 5.00000000000000000000e-01) (226, 5, 5.00000000000000000000e-01) (226, 5, 5.00000000000000000000e-01) (226, 5, 5.00000000000000000000e-01) (226, 5, 5.00000000000000000000e-01) (226, 5, 5.00000000000000000000e-01) (226, 5, 5.00000000000000000000e-01) (226, 5, 5.00000000000000000000e-01) (226, 5, 5.00000000000000000000e-01) (226, 5, 5.00000000000000000000e-01) (226, 5, 5.00000000000000000000e-01) (226, 5, 5.00000000000000000000e-01) (226, 5, 5.00000000000000000000e-01) (226, 5, 5.00000000000000000000e-01) (226, 5, 5.00000000000000000000e-01) (226, 5, 5.00000000000000000000e-01) (226, 5, 5.00000000000000000000e-01) (226, 5, 5.00000000000000000000e-01) (226, 5, 5.00000000000000000000e-01) (226, 5, 5.00000000000000000000e-01) (226, 5, 5.00000000000000000000e-01) (226, 5, 5.00000000000000000000e-01) (226, 5, 5.00000000000000000000e-01) (226, 5, 5.00000000000000000000e-01) (226, 5, 5.00000000000000000000e-01) (226, 5, 5.00000000000000000000e-01) (226, 5, 5.00000000000000000000e-01) (226, 5, 5.00000000000000000000e-01) (226, 5, 5.00000000000000000000e-01) (226, 5, 5.00000000000000000000e-01) (226, 5, 5.00000000000000000000e-01) (226, 5, 5.00000000000000000000e-01) (226, 5, 5.00000000000000000000e-01) (226, 5, 5.00000000000000000000e-01) (226, 5, 5.00000000000000000000e-01) (226, 5, 5.00000000000000000000e-01) (226, 5, 5.00000000000000000000e-01) (226, 5, 5.00000000000000000000e-01) (226, 5, 5.00000000000000000000e-01) (226, 5, 5.00000000000000000000e-01) (226, 5, 5.00000000000000000000e-01) (226, 5, 5.00000000000000000000e-01) (226, 5, 5.00000000000000000000e-01) (226, 5, 5.00000000000000000000e-01) (226, 5, 5.00000000000000000000e-01) (226, 5, 5.00000000000000000000e-01) (226, 5, 5.00000000000000000000e-01) (226, 5, 5.00000000000000000000e-01) (226, 5, 5.00000000000000000000e-01) (226, 5, 5.00000000000000000000e-01) (226, 5, 5.00000000000000000000e-01) (226, 5, 5.00000000000000000000e-01) (226, 5, 5.00000000000000000000e-01) (226, 5, 5.00000000000000000000e-01) (226, 5, 5.00000000000000000000e-01) (226, 5, 5.00000000000000000000e-01) (226, 5, 5.00000000000000000000e-01) (226, 5, 5.00000000000000000000e-01) (226, 5, 5.00000000000000000000e-01) (226, 5, 5.00000000000000000000e-01) (226, 5, 5.00000000000000000000e-01) (226, 5, 5.00000000000000000000e-01) (226, 5, 5.00000000000000000000e-01) (226, 5, 5.00000000000000000000e-01) (226, 5, 5.00000000000000000000e-01) (226, 5, 5.00000000000000000000e-01) (226, 5, 5.00000000000000000000e-01) (226, 5, 5.00000000000000000000e-01) (226, 5, 5.00000000000000000000e-01) (226, 5, 5.00000000000000000000e-01) (226, 5, 5.00000000000000000000e-01) (226, 5, 5.00000000000000000000e-01) (226, 5, 5.00000000000000000000e-01) (226, 5, 5.00000000000000000000e-01) (226, 5, 5.00000000000000000000e-01) (226, 5, 5.00000000000000000000e-01) (226, 5, 5.00000000000000000000e-01) (226, 5, 5.00000000000000000000e-01) (226, 5, 5.00000000000000000000e-01) (226, 5, 5.00000000000000000000e-01) (226, 5, 5.00000000000000000000e-01) (226, 5, 5.00000000000000000000e-01) (226, 5, 5.00000000000000000000e-01) (226, 5, 5.00000000000000000000e-01) (226, 5, 5.00000000000000000000e-01) (226, 5, 5.00000000000000000000e-01) (226, 5, 5.00000000000000000000e-01) (226, 5, 5.00000000000000000000e-01) (226, 5, 5.00000000000000000000e-01) (226, 5, 5.00000000000000000000e-01) (226, 5, 5.00000000000000000000e-01) (226, 5, 5.00000000000000000000e-01) (226, 5, 5.00000000000000000000e-01) (226, 5, 5.00000000000000000000e-01) (226, 5, 5.00000000000000000000e-01) (226, 5, 5.00000000000000000000e-01) (226, 5, 5.00000000000000000000e-01) (226, 5, 5.00000000000000000000e-01) (226, 5, 5.00000000000000000000e-01) (226, 5, 5.00000000000000000000e-01) (226, 5, 5.00000000000000000000e-01) (226, 5, 5.00000000000000000000e-01) (226, 5, 5.00000000000000000000e-01) (226, 5, 5.00000000000000000000e-01) (226, 5, 5.00000000000000000000e-01) (226, 5, 5.00000000000000000000e-01) (226, 5, 5.00000000000000000000e-01) (226, 5, 5.00000000000000000000e-01) (226, 5, 5.00000000000000000000e-01) (226, 5, 5.00000000000000000000e-01) (226, 5, 5.00000000000000000000e-01) (226, 5, 5.00000000000000000000e-01) (226, 5, 5.00000000000000000000e-01) (226, 5, 5.00000000000000000000e-01) (226, 5, 5.00000000000000000000e-01) (226, 5, 5.00000000000000000000e-01) (226, 5, 5.00000000000000000000e-01) (226, 5, 5.00000000000000000000e-01) (226, 5, 5.00000000000000000000e-01) (226, 5, 5.00000000000000000000e-01) (226, 5, 5.00000000000000000000e-01) (226, 5, 5.00000000000000000000e-01) (226, 5, 5.00000000000000000000e-01) (226, 5, 5.00000000000000000000e-01) (226, 5, 5.00000000000000000000e-01) (0, 5, 0.00000000000000000000e+00) (227, 5, 5.00000000000000000000e-01) (227, 5, 5.00000000000000000000e-01) (227, 5, 5.00000000000000000000e-01) (227, 5, 5.00000000000000000000e-01) (227, 5, 5.00000000000000000000e-01) (227, 5, 5.00000000000000000000e-01) (227, 5, 5.00000000000000000000e-01) (0, 5, 0.00000000000000000000e+00) 
connections (connected_to_neuron, weight)=(0, -7.88174924530795406596e-01) (1, -8.80396753976300572297e-01) (2, -9.35192825304812069831e-01) (3, -9.92486498181161969079e-01) (4, -8.59035473513637071186e-01) (5, -4.15367888110359517739e-01) (6, -3.89496242485983579229e-01) (7, -3.64527608531692526306e-01) (8, -3.22057665750451360687e-01) (9, -2.48072943953151381358e-01) (10, -7.60071484369944427861e-01) (11, -1.20981303804071549379e+00) (12, -7.57416800115839783381e-01) (13, -6.98098339780867882531e-01) (14, -5.83446620744015320703e-01) (15, -6.92845691227272575397e-01) (16, -6.31028229532661133483e-01) (17, -7.48016042110536627519e-01) (18, -7.16961464782985169464e-01) (19, -6.12833813397809179513e-01) (20, -8.66803666797847705006e-01) (21, -1.11479842024589625993e+00) (22, -3.04919737357106535036e-01) (23, -9.26164249615901158386e-01) (24, -9.69044163319724982664e-01) (25, -7.99892470066711602783e-01) (26, -7.91698738025119919115e-01) (27, -8.80712880175701817720e-01) (28, -8.40661509639436088648e-01) (29, -7.75783418270075353362e-01) (30, -9.85028277348193426199e-01) (31, -9.08924506786052632812e-01) (32, -9.11749575512301069224e-01) (33, -7.68813556984610957379e-01) (34, -7.18342109340353029978e-01) (35, -8.18691403047427490591e-01) (36, -7.93805968133471817616e-01) (37, -7.53354419151950116529e-01) (38, -9.83420213438482515578e-01) (39, -1.00327789734859162962e+00) (40, -7.45664821252556064834e-01) (41, -6.69203353695503322385e-01) (42, -7.30725299873066780343e-01) (43, -7.42427782578561568094e-01) (44, -8.29731611512125821761e-01) (45, -7.98466975319788274668e-01) (46, -8.70674372462234225090e-01) (47, -8.98168733781633199520e-01) (48, -7.93109238512803904619e-01) (49, -8.70523767470276710334e-01) (50, -8.05779571239526815063e-01) (51, -8.78866524289172890150e-01) (52, -7.90158968600475963839e-01) (53, -6.64202694126786896689e-01) (54, -8.36182772727998568918e-01) (55, -9.44360692830611192505e-01) (56, -8.40810463078401792991e-01) (57, -7.25734266296210628333e-01) (58, -7.23335525262070899721e-01) (59, -6.67914323007770871499e-01) (60, -7.54080276958915995955e-01) (61, -6.62728851463081136686e-01) (62, -6.51893255900977020012e-01) (63, -5.90741289014217518805e-01) (64, -6.81591364038214408971e-01) (65, -6.84257628753065949567e-01) (66, -6.75636320567311488006e-01) (67, -6.14552010392488856638e-01) (68, -6.03450667481027491768e-01) (69, -7.14233319564950175362e-01) (70, -1.30688919933994607270e+00) (71, -3.02983089964545193595e+00) (72, -1.17294162915953625870e+00) (73, -1.23731716670668934199e+00) (74, -7.81862130659514154019e-01) (75, -8.26875314025514063232e-01) (76, -8.33903746662530975797e-01) (77, -6.94871995547064025267e-01) (78, -7.22293456331190797393e-01) (79, -7.09166537913836547702e-01) (80, -5.99863019029946431537e-01) (81, -6.96613561864517505384e-01) (82, -7.27105981668076717384e-01) (83, -6.68972548103405784126e-01) (84, -6.97930687641404645660e-01) (85, -7.22819504827207581776e-01) (86, -7.18047358158142356999e-01) (87, -7.46703836082386662731e-01) (88, -6.70933160025828256856e-01) (89, -6.33348469818510229068e-01) (90, -7.04898351998538341689e-01) (91, -7.37606680307014039855e-01) (92, -8.07910800475497792306e-01) (93, -8.01627583347429895078e-01) (94, -7.66310086397444689688e-01) (95, -6.96001984364616022027e-01) (96, -8.28762500468038676438e-01) (97, -7.78084547788214897501e-01) (98, -8.80555478863391472011e-01) (99, -6.99846533106564638871e-01) (100, -7.79081602056767574815e-01) (101, -8.31058121506132563283e-01) (102, -8.17889270922038558176e-01) (103, -8.49843101556087998638e-01) (104, -6.79872084010785804331e-01) (105, -3.63724517113064804708e-01) (106, -3.30490224310581559575e-01) (107, -2.70311886152204694511e-01) (108, -5.91271546053009355859e-01) (109, -6.63458086055158213767e-01) (110, -5.90095775603994621150e-01) (111, -5.30117172038448103422e-01) (112, -6.22552121087379561892e-01) (113, -5.12576117030393296758e-01) (114, -4.95037848827856064027e-01) (115, -5.27840043830533511837e-01) (116, -5.36784534039276839401e-01) (117, -5.79068050117149013545e-01) (118, -4.44765015532067597981e-01) (119, -4.72133147767909211456e-01) (120, -8.79568591847382563742e-01) (121, -7.14765275478187356306e-01) (122, -8.06906248169846129770e-01) (123, -9.07791243156383265145e-01) (124, -1.60492898634711700367e+00) (125, -7.31423354699750061236e-01) (126, -4.43942932988115879223e-01) (127, -5.87312089317827523693e-01) (128, -8.28374983141437093437e-01) (129, -8.37639091075419894850e-01) (130, -7.44326346179574049877e-01) (131, -7.63126543632297371644e-01) (132, -8.57631425812026670918e-01) (133, -8.02365978055626927201e-01) (134, -6.76776666563821072131e-01) (135, -6.87463075002614720788e-01) (136, -7.86028763342540126580e-01) (137, -8.02575143161747717180e-01) (138, -8.10739744457242283993e-01) (139, -7.74191947681329040165e-01) (140, -7.94396520527312022253e-01) (141, -6.63931383495051319343e-01) (142, -7.16277830072163945729e-01) (143, -6.99150030363149488366e-01) (144, -6.33724990497351092777e-01) (145, -7.96350364457910075977e-01) (146, -8.42375851429007171944e-01) (147, -8.69086657101446724560e-01) (148, -8.26284251372393918622e-01) (149, -7.72656125708716667866e-01) (150, -7.61104271085433103927e-01) (151, -7.12186127857837414368e-01) (152, -8.62811110096458278029e-01) (153, -7.16276610791806045420e-01) (154, -8.63613623790664197699e-01) (155, -1.00470980970067391702e+00) (156, -7.65410837636123830841e-01) (157, -7.67611414902249267200e-01) (158, -5.72243664241559368833e-01) (159, -6.45504454990759257704e-01) (160, -8.91196043100342394361e-01) (161, -7.09636224428745410187e-01) (162, -8.61775550509353727158e-01) (163, -1.00383433453577519678e+00) (164, -1.02810628351344224285e+00) (165, -6.81676144419251506257e-01) (166, -9.13142550334485436636e-01) (167, -8.92010648817923246234e-01) (168, -8.63832667246963614716e-01) (169, -9.03894598690607509184e-01) (170, -9.22371224244530441005e-01) (171, -1.00833740744433564274e+00) (172, -1.14825648456292528365e+00) (173, -1.23461633975877038694e+00) (174, -8.87467772402100840701e-01) (175, -7.88765904186181754376e-01) (176, -7.07087702633446335554e-01) (177, -8.07971092295716952769e-01) (178, -7.88727777671860752484e-01) (179, -7.67402948554368635747e-01) (180, -6.95001373368236197159e-01) (181, -6.76462521762701829431e-01) (182, -6.13383536998610034985e-01) (183, -6.42529152066236619589e-01) (184, -6.48993729867102686626e-01) (185, -6.54824814344697414548e-01) (186, -6.11709381555613829207e-01) (187, -6.53604955126597220172e-01) (188, -5.73733916029706803030e-01) (189, -7.47095248188083704832e-01) (190, -6.20527657383793007639e-01) (191, -7.05923342900787509357e-01) (192, -6.43907754702013668258e-01) (193, -8.69886239209312850384e-01) (194, -7.78527944817020256529e-01) (195, -8.76257788844003848716e-01) (196, -8.44023827995154407589e-01) (197, -9.03334250721228082526e-01) (198, -8.22347961728762566480e-01) (199, -7.99971222410334137365e-01) (200, -1.78330055000118803399e+00) (201, -4.95444674475453350482e+00) (202, -1.03406605345756807957e+00) (203, -5.79820378871246155938e-01) (204, -7.71906763592618450076e-01) (205, -7.52577302075442045037e-01) (206, -8.54578248283817676345e-01) (207, -5.46987358927444655698e-01) (208, -5.49353097603849427344e-01) (209, -5.39985204252232620092e-01) (210, -7.24262176817012437446e-01) (211, -5.86023199895438384743e-01) (212, -8.76813115731385317453e-01) (213, -8.49173304764544778500e-01) (214, -7.32805406909797119042e-01) (215, -6.55838482176288817271e-01) (216, -7.38890265005860413794e-01) (217, -6.83116308488136536603e-01) (218, -7.28576624333582500981e-01) (219, -8.19496257067635514026e-01) (220, -8.16097381935332322200e-01) (221, -8.14151019279938714668e-01) (222, -8.09097290650144351787e-01) (223, -7.78173574523743249998e-01) (224, -8.06261297609433991163e-01) (225, -8.29337333312072821911e-01) (0, -4.53743389101925909124e-01) (1, -5.95119046566727538661e-01) (2, -2.79766925009551525871e-01) (3, -3.92932367408042770851e-01) (4, -4.89708849577546900811e-01) (5, -8.81103545975285951108e-01) (6, -5.81682391078054750189e-01) (7, -5.75089544722055090453e-01) (8, -4.67294171972383931557e-01) (9, -3.43517414451337932402e-01) (10, -5.91119213595958425955e-01) (11, -5.01943619858432499292e-01) (12, -5.45733786055369263224e-01) (13, -6.53270623654658710855e-01) (14, -3.35247024485418820827e-01) (15, -4.80506262350708257536e-01) (16, -3.14869682174686360554e-01) (17, -2.01355285829163982436e-01) (18, -3.18704085756259525297e-01) (19, -2.58323541062565387172e-01) (20, -3.07244286710565583931e-01) (21, -4.39285651077869376824e-01) (22, -2.00663300357674739827e-01) (23, -2.03580613338952332025e-01) (24, -1.49621897402238718255e-01) (25, -6.05022085029712108906e-01) (26, -5.86499169744762016698e-01) (27, -7.15379193354257592041e-01) (28, -5.99255550911027556893e-01) (29, -1.05807898849204451430e+00) (30, -1.05607600703993331770e+00) (31, -7.94120032281333432245e-01) (32, -8.05182836586267103307e-01) (33, -7.53991246629420630576e-01) (34, -7.27834906123917990683e-01) (35, -2.05841657579256875898e-01) (36, -2.46809442435871190247e-01) (37, -3.07868955261869747808e-01) (38, -3.94122932315322915819e-01) (39, -3.27585866569339634324e-01) (40, -7.56634249567871286501e-01) (41, -6.44256313442022388038e-01) (42, -6.95022627113908941787e-01) (43, -6.99338109130951623982e-01) (44, -6.32779177758218014382e-01) (45, -7.37986350055674922288e-01) (46, -1.01635127360066523927e+00) (47, -9.26067899922480619601e-01) (48, -1.34327662002165526545e+00) (49, -4.96663237367271859224e-01) (50, -4.40722221187238971662e-01) (51, -4.68773169976777925871e-01) (52, -3.35204179325962636771e-01) (53, -3.13054284194343723779e-01) (54, -4.62991980729656305016e-01) (55, -1.48260600087228389121e+00) (56, -1.43295911464313197037e+00) (57, -4.61541437255873154832e-01) (58, -2.40568580960857592022e-01) (59, -3.56155977371493126515e-01) (60, -3.66152356005566170793e-01) (61, -2.95496655610441194550e-01) (62, -2.25839030525653183812e-01) (63, -6.46822825555374292250e-01) (64, -6.91487273152702530687e-01) (65, -7.38254841236759995482e-01) (66, -6.51598755434034226930e-01) (67, -6.25057716833586907157e-01) (68, -6.94939015366291101827e-01) (69, -3.12361590003848443864e-01) (70, -6.52109875875248934385e-01) (71, -2.83517841847354468143e+00) (72, -6.04779121605617975277e-01) (73, -6.60121202868190870561e-01) (74, -8.75405441126112515704e-01) (75, -7.21723407069571498695e-01) (76, -6.19593011134243032423e-01) (77, -6.75820665756844740635e-01) (78, -6.23754879899240610719e-01) (79, -7.22941616173056966765e-01) (80, -7.17156406276422742074e-01) (81, -6.57729255187977646102e-01) (82, -5.99765832876267723783e-01) (83, -7.05069319415630557657e-01) (84, -6.25648876732353143026e-01) (85, -2.33891524321845151180e-01) (86, -1.76415490010619513406e-01) (87, -2.36898341001413714757e-01) (88, -1.95924090500510517110e-01) (89, -3.21626952811867927728e-01) (90, -7.00436164777122671765e-01) (91, -5.86783651660333527289e-01) (92, -6.25912996869703586178e-01) (93, -6.61044368274648297401e-01) (94, -7.46648285140632750334e-01) (95, -7.20921637014568794655e-01) (96, -7.84936588278420388498e-01) (97, -6.49505336411843492428e-01) (98, -6.69163305519556050882e-01) (99, -4.03109008340659380476e-01) (100, -4.00987982627496075683e-01) (101, -3.62637392345025122431e-01) (102, -2.53796673109688675218e-01) (103, -3.26950393455023247125e-01) (104, -3.96008221491225498312e-01) (105, -4.02703198120596350673e-01) (106, -3.11928056984907386973e-01) (107, -3.53859512886378568819e-01) (108, -4.15633081122940895025e-01) (109, -3.42184146742687711473e-01) (110, -1.48175863256910539389e-01) (111, -3.07836963032744714841e-01) (112, -7.12604839706712178682e-01) (113, -5.24916812865174331471e-01) (114, -5.76642587043637022681e-01) (115, -6.74036523186823277598e-01) (116, -6.32832013047564423402e-01) (117, -5.63101439674426162973e-01) (118, -4.18359946384807002140e-01) (119, -2.53968930826142191837e-01) (120, -5.33183727072545798897e-01) (121, -5.96040118072729385723e-01) (122, -6.06143532797676520829e-01) (123, -1.09337903591740404075e+00) (124, -1.04294098743449481503e+00) (125, -9.77315503591124734584e-01) (126, -5.72596965387644707413e-01) (127, -5.19753633386215496692e-01) (128, -7.98148614302861325598e-01) (129, -8.49260431740496368747e-01) (130, -6.61697938053011136539e-01) (131, -6.81496107579969256918e-01) (132, -6.68421863324996201605e-01) (133, -7.31214289911119252885e-01) (134, -7.03803893551303572096e-01) (135, -6.39103171659939239824e-01) (136, -6.63887089353563553118e-01) (137, -7.06036269428640728130e-01) (138, -7.06895880507316554109e-01) (139, -6.31205728877426430756e-01) (140, -6.98676942363866682051e-01) (141, -6.60838561105615784896e-01) (142, -6.09876677365290942312e-01) (143, -7.04432325605253484291e-01) (144, -5.77104992630631419281e-01) (145, -7.61469305950533970062e-01) (146, -7.15250331531506633453e-01) (147, -7.64425119832316535273e-01) (148, -9.12615185487666291664e-01) (149, -3.96491987132206402666e-01) (150, -1.33385946323653831191e-01) (151, -1.50174104743639097448e-01) (152, -2.35089473280008565137e-01) (153, -1.40449724826482408302e-01) (154, -7.87840784390956172523e-01) (155, -9.72418501920659039683e-01) (156, -9.29405888166344840151e-01) (157, -2.45107467816498586499e-01) (158, -2.52719252007517380942e-01) (159, -1.79047191568590280397e-01) (160, -6.22738177562626282757e-01) (161, -5.23131214001382738310e-01) (162, -6.64160924658166451628e-01) (163, -6.79027221529770130815e-01) (164, -7.20335483219357142204e-01) (165, -3.05655748948035821400e-01) (166, -1.87650138982001474242e-01) (167, -3.24573036843261386597e-01) (168, -2.55072899433768540689e-01) (169, -2.75195420059358986098e-01) (170, -2.78096746988393539457e-01) (171, -3.79121056415009760610e-01) (172, -3.46668306337807152762e-01) (173, -8.39939153710470565173e-01) (174, -3.24831683672958060338e-01) (175, -9.90116706852308903208e-01) (176, -9.66323253031628248699e-01) (177, -9.04868151852158186799e-01) (178, -6.86597526801495772197e-01) (179, -6.45977599909501543074e-01) (180, -6.74682798704165809234e-01) (181, -7.92794832664919457699e-01) (182, -7.65927705844030359827e-01) (183, -7.20053111908455223400e-01) (184, -6.58914548245471243249e-01) (185, -7.00774768573211748190e-01) (186, -7.52346771208427966826e-01) (187, -7.34881298923756753894e-01) (188, -7.75886027617983531357e-01) (189, -6.34037884102376936291e-01) (190, -6.37984247025040529522e-01) (191, -6.32141601460290858405e-01) (192, -6.27938939255638040038e-01) (193, -2.10050061066089671646e-01) (194, -3.13277880055918722668e-01) (195, -1.79520632123371520761e-01) (196, -1.80980924539360626957e-01) (197, -3.83794423097021220048e-01) (198, -4.34291799539324785417e-01) (199, -4.40266615394118099314e-01) (200, -1.01694351415804051797e+00) (201, -1.05906628055610614325e+01) (202, -1.11543173206455814572e+00) (203, -6.07429027236900065390e-01) (204, -4.77462141007527873793e-01) (205, -5.15226579560383646239e-01) (206, -7.34874792729151127268e-01) (207, -6.04259689404536892710e-01) (208, -5.23368360162779766576e-01) (209, -5.76380401629134953012e-01) (210, -6.35894385807347584105e-01) (211, -7.08348996437771605272e-01) (212, -7.36384411853346132482e-01) (213, -1.02908795751246051609e+00) (214, -7.44421439909460747053e-01) (215, -7.11428192447072116344e-01) (216, -6.43824025688377710175e-01) (217, -7.01761732965916151805e-01) (218, -6.84351334677016587271e-01) (219, -6.68870408479983025174e-01) (220, -6.25391880553129442255e-01) (221, -7.48567316962876705411e-01) (222, -2.57543545258601180858e-01) (223, -4.33790212866127899982e-01) (224, -3.13575795694176095996e-01) (225, -3.18121376574548697658e-01) (0, 5.54657754348901654851e+00) (1, 2.70200783838801594783e+00) (2, 5.49607121749195393079e+00) (3, 4.67248841907200063162e+00) (4, 4.78143514700911875792e+00) (5, 4.73586988801169361807e+00) (6, 3.44345093458483297866e+00) (7, 3.45382565259236828936e+00) (8, 1.52563327909664714355e+00) (9, 1.03538137655976369977e+00) (10, 7.65446582634372374443e-01) (11, 6.23427697651651402388e-01) (12, 6.60812242522488269003e-01) (13, 5.71402881335157042386e-01) (14, 5.17730826404605992686e-01) (15, 5.28364447262482994638e-01) (16, 4.90482042071096746572e-01) (17, 7.77512298168443471980e-01) (18, 6.05014930562189467977e-01) (19, 5.92140369531120258628e-01) (20, 4.75825077955521202888e-01) (21, 6.34069019156018653938e-01) (22, 6.09028235009841267811e-01) (23, 6.49593093367850094033e-01) (24, 6.51933967548249282409e-01) (25, 7.05341225532926663355e-01) (26, 8.18902042017758846626e-01) (27, 7.60180390731569066709e-01) (28, 8.94954932683210135913e-01) (29, 6.33050933223895384572e-01) (30, 6.94303982705711697498e-01) (31, 5.80604736227156248418e-01) (32, 7.71697343963846815740e-01) (33, 6.69082355915796789247e-01) (34, 1.74636804581735782804e+00) (35, 1.85445669787089340019e+00) (36, 2.74179362296227857598e+00) (37, 3.10832111525196319590e+00) (38, 3.00338955293648846023e+00) (39, 2.95615765751840742226e+00) (40, 2.92923529762175993696e+00) (41, 2.95141014685185920641e+00) (42, 7.22714687206503891836e-01) (43, 6.86791816830148116324e-01) (44, 6.92708616262108001216e-01) (45, 6.84561375411237515998e-01) (46, 7.52854454684147356147e-01) (47, 6.98428418279375518019e-01) (48, 8.46472618312165470122e-01) (49, 7.54248388761055932328e-01) (50, 2.70469954421147340540e+00) (51, 1.82052193887844970810e+00) (52, 4.63833543703473694109e+00) (53, 3.56746940257607603186e+00) (54, 3.51103853033932411520e+00) (55, 3.34635902687395514477e+00) (56, 1.70107337508706368823e+00) (57, 8.14572139283475937788e-01) (58, 6.25900822121585376223e-01) (59, 6.66136163421660487671e-01) (60, 5.98668638727783974929e-01) (61, 5.65503856859942866109e-01) (62, 5.03656982158494970214e-01) (63, 5.97704388208394554738e-01) (64, 5.56321930626576532930e-01) (65, 6.49395050070642354534e-01) (66, 6.49309490942564182525e-01) (67, 1.22002153948091285329e+00) (68, 6.15703434958016937451e-01) (69, 5.09938063511289119134e-01) (70, 6.33915161961517537037e-01) (71, 6.04306218375151305011e-01) (72, 5.32322481364096100620e-01) (73, 6.82985081459058118725e-01) (74, 5.98223430504630893090e-01) (75, 5.61171177654653741129e-01) (76, 1.08850621830528071499e+00) (77, 1.24366678076841119527e+00) (78, 1.27987151482230521182e+00) (79, 1.30474847436368301956e+00) (80, 1.33791639652418337114e+00) (81, 1.32718037209360484319e+00) (82, 1.23878639419459468662e+00) (83, 6.05958020753846415829e-01) (84, 9.48624970331890637887e-01) (85, 1.37443543329422990240e+00) (86, 6.48356110859327383622e+00) (87, 3.07214579476989824158e+00) (88, 2.89792819327726913770e+00) (89, 2.99572092328224970359e+00) (90, 2.97192828662700403441e+00) (91, 8.70316177591168860239e-01) (92, 6.36304454471377400893e-01) (93, 6.91217182042114131058e-01) (94, 6.04534999406407425049e-01) (95, 6.84916547253259899719e-01) (96, 6.21871932163366558655e-01) (97, 6.77372696980751309859e-01) (98, 6.69977081052709366737e-01) (99, 4.99230219456934409816e-01) (100, 5.55882150190216162144e+00) (101, 2.30590925131171342599e+00) (102, 1.10192514284063012298e+01) (103, 5.04924289127712810910e+00) (104, 5.97190106226634043196e+01) (105, 5.97721140776393085048e+01) (106, 2.38721968610896233542e+01) (107, 7.32193830698712844196e+00) (108, 2.17007383009199150692e+00) (109, 1.07858861980768061528e+00) (110, 6.12446993514291326832e-01) (111, 4.52989111667555677254e-01) (112, 5.25140103951280634575e-01) (113, 4.35791725084808567736e-01) (114, 4.21506508626586950950e-01) (115, 9.80848802579018519410e-01) (116, 1.70306387012151105864e+00) (117, 4.83035997636873659644e+01) (118, 3.73965209809749765668e+00) (119, 4.42437451755642996432e+00) (120, 3.47889024291612947160e-01) (121, 1.90521674295003906607e+00) (122, 3.21707270698949798771e+00) (123, 4.31964818679106166144e+00) (124, 1.69455560315262476756e+00) (125, 2.12517482661969570046e+00) (126, 1.24181076713184097571e+01) (127, 5.42422379801007714661e+00) (128, 6.10751877494208539332e+00) (129, 1.87019510109811593068e+00) (130, 1.60475290592968566905e+00) (131, 1.86286096903891373877e+00) (132, 2.53393194292872214746e+00) (133, 2.56437122565218844628e+00) (134, 1.47171603624244919928e+01) (135, 1.61130640679717842545e+01) (136, 1.79100872363732825931e+01) (137, 3.46620343020049901384e+01) (138, 3.46788183117594357441e+01) (139, 2.24091428064309070578e+01) (140, 1.48613458486562475258e+01) (141, 1.45886154281393061183e+01) (142, 3.59877516699327371086e+00) (143, 2.17722637339288560554e+00) (144, 1.34308974575054351774e+00) (145, 1.35102653242492065644e+00) (146, 6.38346913906517987591e-01) (147, 7.66370226673532273232e-01) (148, 6.85039457909513260780e-01) (149, 6.52688963744417982582e-01) (150, 7.78258345465060341617e-01) (151, 7.12389334592485323761e-01) (152, 6.03862611478182431668e-01) (153, 5.76172317691696189712e-01) (154, 6.99788967596386979331e-01) (155, 7.54867005792299483602e-01) (156, 1.77773536973166534914e+00) (157, 1.84968187796368277453e+00) (158, 2.24587813830790405945e+00) (159, 1.12140376647457484793e+00) (160, 6.26448715026351021784e-01) (161, 6.49063539179995263595e-01) (162, 6.42263991953831214765e-01) (163, 5.49736167244359807960e-01) (164, 7.28097664612734618572e-01) (165, 1.85453689109712960281e+00) (166, 1.73464568206649927262e+00) (167, 1.87734722025022282565e+00) (168, 1.79661000944003834690e+00) (169, 1.84146016622046371225e+00) (170, 1.89781266685411997841e+00) (171, 2.35174469447413114764e+00) (172, 2.66622598548703404475e+00) (173, 2.63933569775424770043e+00) (174, 6.86797465097635284614e-01) (175, 2.28399793293608288636e+00) (176, 1.46387638362018179805e+00) (177, 1.45759710617569848701e+00) (178, 1.22306546422426554166e+00) (179, 1.15334260201452498684e+00) (180, 1.11883963666271113446e+00) (181, 7.21299110481054550625e-01) (182, 8.55209085983398287212e-01) (183, 1.11103229337120401610e+00) (184, 5.15758103190386840708e-01) (185, 5.72352550804355653113e-01) (186, 6.55277438387086408333e-01) (187, 5.68445894927700368093e-01) (188, 6.57537074113332731251e-01) (189, 4.83560172021362977279e-01) (190, 5.12232050439826225308e-01) (191, 6.52578053639716659795e-01) (192, 7.59894706415185416937e-01) (193, 7.41486387996184936888e-01) (194, 6.60057180742846694166e-01) (195, 8.06730918305307853622e-01) (196, 7.71863291430080367128e-01) (197, 8.25835959838208011341e-01) (198, 8.40586695764298008626e-01) (199, 6.74714795193264160744e-01) (200, -1.33812313860592779768e-01) (201, 2.14687656634097168151e+00) (202, 5.28597634615732392405e+00) (203, 1.98622360869735370414e+00) (204, 1.43203862456232897671e+01) (205, 6.43080114473927721974e+00) (206, 6.07350758305260374215e+00) (207, 1.49456535850102607554e+01) (208, 1.78102749110487792450e+01) (209, 8.11702017534547692890e+00) (210, 3.51891145467487787002e+00) (211, 5.71752258518556155664e-01) (212, 6.33097512820630203834e-01) (213, 1.17664412141600460693e+00) (214, 1.33486166432434849582e+00) (215, 9.69734016025469602873e-01) (216, 1.12703914281962913613e+00) (217, 1.09136019904027636862e+00) (218, 1.79957148179226855689e+00) (219, 3.56349290949494346137e+00) (220, 1.80019906845932697870e+00) (221, 2.34400065329624718302e+00) (222, 2.37216337830330425973e+00) (223, 1.89231375562702730520e+00) (224, 6.15382528743335877053e-01) (225, 6.46803904719141731228e-01) (0, -6.14029336069497055917e-01) (1, -7.64835451854390280246e-01) (2, -6.13503252337385007742e-01) (3, -3.32905464936006534327e-01) (4, -2.50927823359938850789e-01) (5, -4.35392028283967502666e-01) (6, -3.42714939643844085371e-01) (7, -2.24798758147117666573e-01) (8, -3.09910063554475034842e-01) (9, -2.23154076801993284107e-01) (10, -6.05662715920913474754e-01) (11, -8.76887303838172260662e-01) (12, -6.48698326940287395281e-01) (13, -6.64422660016430244312e-01) (14, -7.28674224042443086091e-01) (15, -7.12657122144048416068e-01) (16, -7.72783408343150735043e-01) (17, -7.91407398333425660120e-01) (18, -6.60886772267455402385e-01) (19, -6.78191355599283562938e-01) (20, -7.20773168286271026517e-01) (21, -9.72954098312867721177e-01) (22, -8.69407078327843807486e-01) (23, -8.03525094110355442290e-01) (24, -8.39595664812049835568e-01) (25, -9.39636551125052843503e-01) (26, -7.88302625641289944625e-01) (27, -8.72701591391274345000e-01) (28, -9.08448570384363329744e-01) (29, -7.51847833052969094503e-01) (30, -7.85994086253790857910e-01) (31, -6.57908287646153278061e-01) (32, -7.85216866861382811749e-01) (33, -7.43638685253612430337e-01) (34, -7.05104934776182745715e-01) (35, -6.41933436462637452280e-01) (36, -6.78650777558958306912e-01) (37, -7.36499694218742395613e-01) (38, -7.77570432589664295442e-01) (39, -5.77494129667985411913e-01) (40, -5.65250746462353848010e-01) (41, -6.48195435436813682806e-01) (42, -6.18787496892721944342e-01) (43, -5.55744639471591694857e-01) (44, -5.82126780295864620918e-01) (45, -7.34462449083188029242e-01) (46, -6.25248971077295045973e-01) (47, -6.38621970496214275137e-01) (48, -6.84287274192291961050e-01) (49, -6.48267132170471716002e-01) (50, -6.25333069298626531562e-01) (51, -7.73299426749052831731e-01) (52, -6.29197323396537444573e-01) (53, -6.17459940028871501205e-01) (54, -6.56846223732183820410e-01) (55, -7.13182656013206739409e-01) (56, -1.13210360282942668064e+00) (57, -7.49483961055500524928e-01) (58, -6.47817302758667556972e-01) (59, -6.72594131119001681363e-01) (60, -6.69944776048697065995e-01) (61, -7.95643075481551886874e-01) (62, -6.41646444190178910638e-01) (63, -6.97063701881437403074e-01) (64, -5.82238280010074382709e-01) (65, -6.60827651729205767239e-01) (66, -5.72773271777678560923e-01) (67, -7.53132465065448841735e-01) (68, -6.06707188352049731073e-01) (69, -6.07773820475277282149e-01) (70, -8.73943217075388134596e-01) (71, -8.32908053818912863520e-01) (72, -8.97776001091542652510e-01) (73, -9.25330267877356837936e-01) (74, -9.60310502881735139624e-01) (75, -8.22941866879826178227e-01) (76, -7.74460276753234255764e-01) (77, -7.95617665862492828843e-01) (78, -5.66048235900297180834e-01) (79, -7.06565923158907316370e-01) (80, -5.22914316438390813779e-01) (81, -6.18991340963589098401e-01) (82, -6.19063919718469968245e-01) (83, -7.19404349798690834206e-01) (84, -7.38809126520957426543e-01) (85, -1.41710475423020232366e-01) (86, -2.49055354296912417889e-01) (87, -2.17192853377350392208e-01) (88, -2.47222814874591995116e-01) (89, -5.77701240880062805161e-01) (90, -6.58169054483214943652e-01) (91, -5.87200089124634727611e-01) (92, -6.64992545559265235688e-01) (93, -7.05792975662885013755e-01) (94, -6.65969018055403760847e-01) (95, -6.60213637870840752697e-01) (96, -6.43404451980677638545e-01) (97, -7.55499275333665565313e-01) (98, -8.28314200748232587479e-01) (99, -7.92465660133150673339e-01) (100, -7.23952577927349683051e-01) (101, -5.92268074247515596831e-01) (102, -6.19638575543568825843e-01) (103, -2.21681383759685851631e-01) (104, -1.78864722064143416569e-01) (105, -2.33949523325403002660e-01) (106, -3.12326031453294905571e-01) (107, -2.62141446985417081450e-01) (108, -2.71475876534313431687e-01) (109, -6.87225845232081411496e-01) (110, -7.37801512682540017174e-01) (111, -5.59330545926855715599e-01) (112, -7.34592390793226135415e-01) (113, -7.28900866724791818285e-01) (114, -7.11444991030361850726e-01) (115, -7.26864814661014269070e-01) (116, -7.18288871075785539944e-01) (117, -6.83296288907334958829e-01) (118, -2.70906301029565532712e-01) (119, -4.03315986474391152683e-01) (120, -7.76510556153014674940e-01) (121, -1.26250176369174411661e+01) (122, -4.81489406048573986840e-01) (123, -5.46605564588596593012e+00) (124, -2.67052738725956029242e+00) (125, -1.24342129525166567028e+00) (126, -9.67294451232500684945e-01) (127, -6.90936102749073577378e-01) (128, -9.25183357846915299660e-01) (129, -8.54062715018415685719e-01) (130, -1.15307788664379096133e+00) (131, -1.07277414356845568477e+00) (132, -6.77008304144794181845e-01) (133, -6.50913307494623727401e-01) (134, -7.02845669627823799175e-01) (135, -6.69378011797881145029e-01) (136, -5.56193638554473901436e-01) (137, -6.76617392882284063305e-01) (138, -7.29452955405484826379e-01) (139, -6.25436312154569074018e-01) (140, -6.43683220951672852017e-01) (141, -6.65443020996086542773e-01) (142, -5.63144391627171891912e-01) (143, -6.06005765645327154623e-01) (144, -5.47585935625743758237e-01) (145, -7.24475025338651268392e-01) (146, -6.73885536113626892885e-01) (147, -7.04443992832991527919e-01) (148, -8.24311942566660627030e-01) (149, -7.26600024261263466308e-01) (150, -3.40341936765988339886e-01) (151, -3.08116870820964894317e-01) (152, -2.76420039735112699208e-01) (153, -2.26526245991523239587e-01) (154, -8.11180471466930952396e-01) (155, -7.20750259838877971319e-01) (156, -7.71381997694837062696e-01) (157, -6.22651159269801524054e-01) (158, -6.21714133910040156472e-01) (159, -6.97747442131221418116e-01) (160, -7.15294636275781381407e-01) (161, -6.87431455107654132419e-01) (162, -8.34593068395213522059e-01) (163, -8.55763821567659621614e-01) (164, -8.51737469021634496791e-01) (165, -7.50830248392173826844e-01) (166, -8.13733114807778323829e-01) (167, -7.01344324684567310690e-01) (168, -7.57067321069066045958e-01) (169, -6.59815127672116363833e-01) (170, -7.82224932731271249686e-01) (171, -8.26369054185749241093e-01) (172, -8.11190119224849515156e-01) (173, -8.38772241590586165039e-01) (174, -8.29770881861903619736e-01) (175, -2.88138244892049699697e-01) (176, -2.25950433755080087872e-01) (177, -2.22581222681859119961e-01) (178, -2.47734917230306356251e-01) (179, -8.04477880127678512956e-01) (180, -7.83226663841123604826e-01) (181, -7.15980650023072096033e-01) (182, -6.83780556553991836211e-01) (183, -6.40883084717802087305e-01) (184, -7.16870827751245109916e-01) (185, -7.58672388973810507551e-01) (186, -7.25303890614861446196e-01) (187, -7.76507237177603282241e-01) (188, -7.56110016540983864708e-01) (189, -7.88237412876333976008e-01) (190, -6.10775984047224773654e-01) (191, -7.58170646188625285689e-01) (192, -7.64131245511081469424e-01) (193, -7.10043795616048134534e-01) (194, -7.22674684932428146311e-01) (195, -6.76794561534859062668e-01) (196, -8.10787203989891014366e-01) (197, -7.60283371121357132161e-01) (198, -7.91687775312480135348e-01) (199, -6.57213390286159215847e-01) (200, -2.89716082170943201035e+00) (201, -1.23669491782724509932e+01) (202, -1.22350990586170896290e-01) (203, -4.15079788556196815907e-01) (204, -7.32124771881538238816e-01) (205, -7.69036091147584088823e-01) (206, -7.88477554668776225988e-01) (207, -7.40582616185754383231e-01) (208, -5.58633396118514813367e-01) (209, -6.63775681317762877853e-01) (210, -6.41188087397482675556e-01) (211, -7.37403214599066436641e-01) (212, -8.76474767792904896346e-01) (213, -9.53100100712083064813e-01) (214, -8.28074955689595326724e-01) (215, -7.40802455113302227296e-01) (216, -7.36189819217193064382e-01) (217, -6.69273218086368415491e-01) (218, -5.70790045668210788143e-01) (219, -7.00730650057890147586e-01) (220, -6.21548288825211847630e-01) (221, -5.91992332677829136145e-01) (222, -6.31168194250095515585e-01) (223, -7.46271679036155322073e-01) (224, -6.85198521072655553077e-01) (225, -7.57699937364153863761e-01) (0, -5.49269854771146648353e-01) (1, -5.55311457031951061225e-01) (2, -3.68721792652015656344e-01) (3, -5.07497062430054324267e-01) (4, -3.83127907331049510908e-01) (5, -9.61990814614534506255e-01) (6, -9.76327006677074726859e-01) (7, -4.65400216740392891346e-01) (8, -4.48319554084367521973e-01) (9, -4.65583447695026797497e-01) (10, -9.67539889596662150417e-01) (11, -1.13521448358973975346e+00) (12, -9.25282031027212403806e-01) (13, -1.09154268660619302445e+00) (14, -4.16025924086870668717e-01) (15, -6.68749551096381900095e-01) (16, -6.52846569536580934034e-01) (17, -3.27325531739153519073e-01) (18, -3.04865164281576783711e-01) (19, -2.90020424902969309322e-01) (20, -5.21556949769442557141e-01) (21, -5.14627604234472180167e-01) (22, -4.14717747832475225334e-01) (23, -3.89329080422517626037e-01) (24, -4.09326509320172171602e-01) (25, -2.31085857348734852179e-01) (26, -2.80779688305160701756e-01) (27, -3.93290914196502749967e-01) (28, -4.58624775466056844309e-01) (29, -1.15656678053122008443e+00) (30, -9.83446632593765079910e-01) (31, -2.09601730026336996460e+00) (32, -1.33084971654445838318e+00) (33, -5.53378448429778568851e-01) (34, -3.05718817320971170126e-01) (35, -4.50683787360347420936e-01) (36, -3.57866085243078946299e-01) (37, -4.20762022004069202730e-01) (38, -3.68663984853670134711e-01) (39, -4.67720281152065320285e-01) (40, -3.09643384401573351639e-01) (41, -3.97025395984558548967e-01) (42, -4.15221648407300358841e-01) (43, -3.59959014863709514387e-01) (44, -4.48061971789283641776e-01) (45, -4.68220165460463966234e-01) (46, -6.75480952925403221876e-01) (47, -6.91610322708380076406e-01) (48, -7.59479073327668285920e-01) (49, -7.16374554758966053392e-01) (50, -4.15041377425212354435e-01) (51, -7.12163973994228372000e-01) (52, -3.91267229336903721304e-01) (53, -4.87647867874679175060e-01) (54, -5.27128200730672458185e-01) (55, -2.81405969502396802184e+00) (56, -2.78139741079152491565e+00) (57, -7.20945925680701149574e-01) (58, -4.78081333374369421563e-01) (59, -3.63406277616912243289e-01) (60, -4.27769705060966232146e-01) (61, -4.08761741213533924544e-01) (62, -3.41669515713251270572e-01) (63, -2.90400994959917058136e-01) (64, -2.22620394499014023770e-01) (65, -3.05832469117209182485e-01) (66, -2.63184353840820284276e-01) (67, -2.36449654996340630220e-01) (68, -3.84243500656026248929e-01) (69, -3.08633452551709208667e-01) (70, -9.14999360939132699855e-01) (71, -6.62496238575810458826e+00) (72, -6.85105547112579427171e-01) (73, -7.34536799283364238988e-01) (74, -6.73999008376964914291e-01) (75, -6.09327507077482288800e-01) (76, -2.90452739914558000223e-01) (77, -8.59030852178587545076e-01) (78, -8.52370412136771782308e-01) (79, -8.36981979975131573646e-01) (80, -7.31025962495642112060e-01) (81, -1.91746224379814728112e-01) (82, -2.91839743083479652430e-01) (83, -2.15077690029683965545e-01) (84, -3.71637316228598080237e-01) (85, -2.81396331839657676266e-01) (86, -3.51846501908337716547e-01) (87, -2.36506811418956797155e-01) (88, -3.64532515112278132641e-01) (89, -2.31621594250679768701e-01) (90, -2.84698406688858651759e-01) (91, -2.72215618368250145132e-01) (92, -1.80522262189460130921e-01) (93, -2.39974706357568373649e-01) (94, -5.04308316878646523129e-01) (95, -4.56831452994330144968e-01) (96, -5.71268505283378469350e-01) (97, -6.92607936899837239864e-01) (98, -8.11386995358184037741e-01) (99, -7.66419420466195155939e-01) (100, -2.89570517554601114529e-01) (101, -4.50859791247345431664e-01) (102, -2.85652498215461014830e-01) (103, -3.63405029774211241200e-01) (104, -3.84306025355685643152e-01) (105, -4.91698584912545810788e-01) (106, -3.48182186523116110610e-01) (107, -4.03382690813007871444e-01) (108, -3.50792017737450056991e-01) (109, -2.79256665614972310330e-01) (110, -2.13674788149708777540e-01) (111, -2.42724033640172698334e-01) (112, -1.60285502930486684070e-01) (113, -2.34716530518431026886e-01) (114, -2.18014581645267019328e-01) (115, -1.23261940652252044437e-01) (116, -3.23633603169570627234e-01) (117, -8.45027907099186598172e-02) (118, 6.44072510433754269465e-02) (119, -3.09916938736372535312e-02) (120, -3.69413826085294327850e-01) (121, -1.70145388052209667329e+00) (122, -9.07017810721185036016e-01) (123, -6.66670306006587498615e+00) (124, -6.83748954933167940595e+00) (125, -4.32809810336691924704e+00) (126, -6.93235205690979072735e-01) (127, -5.11656305395519650503e-01) (128, -7.73451283780800413759e-01) (129, -6.05543730236787869359e-01) (130, -7.53824509313132384847e-01) (131, -6.67149193808484919366e-01) (132, -7.00607015860230553095e-01) (133, -6.72865526885008891078e-01) (134, -5.17908979589839280067e-01) (135, -5.28357034596839802987e-01) (136, -5.79336612119037863700e-01) (137, -6.38397068620337293510e-01) (138, -6.03706254620875237826e-01) (139, -2.37440363964828676790e-01) (140, -1.25517355998445490073e-01) (141, -1.61296171621376410732e-01) (142, -5.90136443790672649001e-01) (143, -1.97024441541094774699e-01) (144, -2.24979614284460616158e-01) (145, -2.70802943276883534285e-01) (146, -4.65400084054301554914e-01) (147, -6.11079068169029238078e-01) (148, -6.43416706907275037786e-01) (149, -6.96923475764221755924e-01) (150, -1.91142782519448134471e-01) (151, -3.35815846512289406522e-01) (152, -3.53199442590133583231e-01) (153, -3.58152244702081234973e-01) (154, -3.87986469058244132224e-01) (155, -6.32208521145457003065e-01) (156, -5.14562084179803425066e-01) (157, -4.27104972046629338678e-01) (158, -3.03522162172056741980e-01) (159, -4.17408780566781989485e-01) (160, -6.10731523706970591547e-01) (161, -7.03305038081870614874e-01) (162, -6.80224170925822546607e-01) (163, -7.67717588252533222892e-01) (164, -5.42707992195280986003e-01) (165, -6.98731017121252628854e-01) (166, -6.95659816395019614532e-01) (167, -6.36682482693599727241e-01) (168, -5.64977211118144695412e-01) (169, -5.76004437519111123223e-01) (170, -7.27495289259116884040e-01) (171, -6.78430972553325739582e-01) (172, -8.47538495835742700102e-01) (173, -8.69791104053705077526e-01) (174, -7.61910863286827000351e-01) (175, -8.98971518149003889775e-01) (176, -8.22522968466242510033e-01) (177, -8.38666110701876466038e-01) (178, -8.03871218429388023630e-01) (179, -4.33991024111364032123e-01) (180, -5.37056129098652079712e-01) (181, -3.66082333489273603622e-01) (182, -2.69769655629467308700e-01) (183, -2.83051095415891296181e-01) (184, -1.63058872241265723213e-01) (185, -3.12110733816925278727e-01) (186, -2.54118064936341647719e-01) (187, -4.73551716360650187809e-01) (188, -5.42035039964145259894e-01) (189, -4.14149917602205763778e-01) (190, -2.96516709722319360409e-01) (191, -3.98222113535776189863e-01) (192, -3.71744021736149232726e-01) (193, -3.05742466620124497823e-01) (194, -4.76609115945854810992e-01) (195, -6.33811339776785165334e-01) (196, -8.62994606663434749017e-01) (197, -8.15615071196975072176e-01) (198, -1.46522267993955002119e+00) (199, -5.33794258965051393595e-01) (200, -8.21119998355166802462e-01) (201, -7.04455934303715647360e+00) (202, -1.31361080859413514865e+00) (203, -7.63143052721720782650e-01) (204, -3.31300136473871797982e-01) (205, -7.93586441808930231900e-01) (206, -7.04423022156161704466e-01) (207, -2.05754319690165082823e-01) (208, -2.36878662114580668119e-01) (209, -1.54943541671550139016e-01) (210, -3.73673546916752474800e-01) (211, -3.05517305239364378444e-01) (212, -5.03658673659262756672e-01) (213, -6.46253009258078159327e-01) (214, -5.03887070987729668303e-01) (215, -4.54776293718642143915e-01) (216, -4.12894159006948924251e-01) (217, -3.13917176893343252697e-01) (218, -2.49245256825676719803e-01) (219, -3.84073416721282590025e-01) (220, -2.02154407556249693378e-01) (221, -3.98122108876160174518e-01) (222, -5.03573056364275739583e-01) (223, -6.43073052389430133147e-01) (224, -5.79340615930678981549e-01) (225, -6.37239520312052110107e-01) (0, 5.10093393033315467555e-01) (1, 7.19132470094922870985e-01) (2, 6.21968397093896840921e-01) (3, 4.74930139415712659900e-01) (4, 4.84321210056555151446e-01) (5, 7.89921116355434826950e-01) (6, 3.44371964160909871389e-01) (7, 3.63711001893013863295e-01) (8, 3.88360524266835149820e-01) (9, 2.40613212229449202617e-01) (10, 2.73868745128186819038e-01) (11, 3.56643098772439270938e-01) (12, 2.76219159047526086059e-01) (13, 2.37244839482212921400e-01) (14, 2.54479595029149463503e-01) (15, 2.26612565930782772217e-01) (16, 2.29124482320681999159e-01) (17, 3.21171891139777010427e-01) (18, 1.92040289698414551323e-01) (19, 1.59451640842339620319e-01) (20, 2.04585986231701266735e-01) (21, 1.82557865638128119512e-01) (22, 2.04408315691767816791e-01) (23, 2.50564952593485212873e-01) (24, 2.73606607910258203820e-01) (25, 3.06533377904877613052e-01) (26, 2.15825099052171426317e-01) (27, 2.38765440471693762836e-01) (28, 2.35193178647684075777e-01) (29, 1.52161201556899550180e-01) (30, 1.23423282802618355936e-01) (31, 1.54304732964130886241e-01) (32, 1.90701992393204816656e-01) (33, 3.45355194023179823404e-01) (34, 3.27845991723406782192e-01) (35, 2.44691732784675153312e-01) (36, 2.94655185250584372714e-01) (37, 1.93381567743412474680e-01) (38, 3.34436801770244485077e-01) (39, 2.35949845223597465260e-01) (40, 3.47448760724194727345e-01) (41, 3.38698597517868627005e-01) (42, 1.92667030193445332209e-01) (43, 3.73344240305703289895e-01) (44, 2.40322529822361435903e-01) (45, 4.29957878863511555600e-01) (46, 3.78015884270656354893e-01) (47, 5.45060361285840011547e-01) (48, 6.94660031877966321900e-01) (49, 4.56966265204014565615e-01) (50, 4.08695277014042401831e-01) (51, 4.48583641354927564748e-01) (52, 3.78394299173570258787e-01) (53, 4.25466699956351390721e-01) (54, 5.93933156746801360626e-01) (55, 1.54915780421678017653e+00) (56, 8.47927053446054124208e-01) (57, 6.04639847484144121736e-01) (58, 4.38539047383986968498e-01) (59, 4.94227076969013079388e-01) (60, 3.15565797071618914238e-01) (61, 3.33796248518560600971e-01) (62, 2.86436597776192680698e-01) (63, 3.62957604060069050078e-01) (64, 2.17746558449206734087e-01) (65, 3.83513034452953760489e-01) (66, 7.29671738875583786310e-01) (67, 1.45044271307062389020e+00) (68, 5.73814099480434691714e+00) (69, 6.78410954544628075347e-01) (70, 4.94105586749436165306e-01) (71, 2.70574116917686124939e-01) (72, 3.84917567366939550322e-01) (73, 5.15569080704696314221e-01) (74, 8.28835575349027187109e-01) (75, 3.54451074244524266810e-01) (76, 3.10482559512350542175e-01) (77, 2.08600182842139408868e-01) (78, 3.11512729002961952229e-01) (79, 2.81037990325616493514e-01) (80, 1.51653810662432275702e-01) (81, 1.48371403570579957210e-01) (82, 2.54554873806686954296e-01) (83, 2.66252275681841510391e-01) (84, 1.36809253955919224444e-01) (85, 2.02426315831611414175e-01) (86, 6.90957485845833385696e-02) (87, 1.66244659350121559704e-01) (88, 2.78326665709008269634e-01) (89, 2.99261714906414122428e-01) (90, 2.80564951657108152538e-01) (91, 2.09342161588561725960e-01) (92, 1.98705637812995133951e-01) (93, 2.64674521484817348860e-01) (94, 1.98394055810638958448e-01) (95, 2.95974137051600694193e-01) (96, 2.12548611845931323394e-01) (97, 3.66558217740476588453e-01) (98, 5.79435387183154904100e-01) (99, 3.86634806003106179517e-01) (100, 3.08539035756858592841e-01) (101, 3.67459772994877309493e-01) (102, 3.70694903656562213534e-01) (103, 3.71008556294861069347e-01) (104, 3.86715631542110360730e-01) (105, 2.93552308662909378079e-01) (106, 2.92034801551488920612e-01) (107, 1.99732769130121029511e-01) (108, 1.45661265305393611280e-01) (109, 1.68990395962142103681e-01) (110, 1.55927966663826966798e-01) (111, 1.56817255297168695050e-01) (112, 2.35731131919354380821e-01) (113, -8.12060221991466768543e-01) (114, 1.70284294819016829292e-01) (115, -1.22167854369400946668e-01) (116, 1.07631403936615036021e-01) (117, 3.92725015745065741957e-01) (118, 4.73682757468737933304e-02) (119, 1.36568172284084188295e-01) (120, 1.30208103400253599746e-01) (121, -3.23108744190577154565e-02) (122, 1.22478926973900476005e-01) (123, -1.23836586505044962681e-01) (124, 1.87625662589089498011e-01) (125, 5.00247517567169452946e-01) (126, 5.01749472901778181821e-01) (127, 4.34068888979887046453e-01) (128, 1.52160870255493985148e+00) (129, 1.39687826323724983979e+00) (130, 1.39192336748690470571e+00) (131, 1.81914979052804937076e+00) (132, 1.62010346635457080922e+00) (133, 1.49077670060972189425e+00) (134, 1.74540101519633394922e+00) (135, 1.66180793174823793201e+00) (136, 1.71149200748633933955e+00) (137, 1.73986378816293729699e+00) (138, 2.66326471745202186803e-01) (139, 2.03711617832226660196e-01) (140, 3.09931484880313190544e-01) (141, 2.16059106970770381517e-01) (142, 3.16530728719236209567e-01) (143, 2.66051362958658610403e-01) (144, 3.14098393072906156842e-01) (145, 2.83280045834334748278e-01) (146, 3.28332202597480138362e-01) (147, 2.83575235453315033229e-01) (148, 5.33217414672515488405e-01) (149, 4.88717774411370542431e-01) (150, 1.16835886957234375005e-01) (151, 2.83878922535460154197e-01) (152, 1.87302718224950898174e-01) (153, 3.00423061939238400520e-01) (154, 1.97912434625496208573e-01) (155, 3.33425688310402756898e-01) (156, 3.53312240699898194585e-01) (157, 3.81415377222722118411e-01) (158, 2.48494676054889923611e-01) (159, 1.85122662591904713070e-01) (160, 2.15556549668784402929e-01) (161, 2.41693160163221038017e-01) (162, 3.51913636989490630214e-01) (163, 3.87879401522648825651e-01) (164, 3.89304910905049483816e-01) (165, 2.44741043835472488199e-01) (166, 3.97346023918685953280e-01) (167, 2.16949459928265808717e-01) (168, 3.06775284866224684510e-01) (169, 4.23015581026201459292e-01) (170, 4.30655579542657374059e-01) (171, 5.39624672560052309755e-01) (172, 5.71005706625845044222e-01) (173, 7.71492781128040316929e-01) (174, 5.37205692758530140019e-01) (175, 1.74665929283893928137e+00) (176, 1.74179087933803056210e+00) (177, 1.62632267828455034930e+00) (178, 5.51713507889171728138e-01) (179, 1.74266386578151050157e-01) (180, 6.37817479410955567865e-01) (181, 6.58302687064981517651e-01) (182, 3.82181631643440766766e-01) (183, 2.57420339677958076585e-01) (184, 2.02076455018286110787e-01) (185, 3.40862021847258445106e-01) (186, 2.69330552993388927518e-01) (187, 2.13584636579257275413e-01) (188, 3.62625554184966447657e-01) (189, 3.90661927823501009538e-01) (190, 2.98305375587878784938e-01) (191, 2.30020749283014136477e-01) (192, 3.83900134511806601090e-01) (193, 3.00602147799577168463e-01) (194, 3.79207896608253325343e-01) (195, 2.86412445160836193203e-01) (196, 3.35725376311839129873e-01) (197, 5.36539132028502674387e-01) (198, 6.26421412906734143000e-01) (199, 4.91660449448695469066e-01) (200, -3.57098109007836095330e+00) (201, 2.24928335287110598983e+01) (202, 1.80668738196969846932e+00) (203, 1.09489743738960232378e+00) (204, 4.62446080175723472916e-01) (205, 5.33775905980315212851e-01) (206, 1.18485540260294186510e+00) (207, 3.08366137444945676016e-01) (208, 2.45918171903362237085e-01) (209, 2.36337443491813570251e-01) (210, 1.51196438293234119987e-01) (211, 3.23859512846180419565e-01) (212, 2.25831484296404538803e-01) (213, 2.57006889753432554713e-01) (214, 2.76177601463663546788e-01) (215, 3.38956070489175143035e-01) (216, 2.28474153243448607764e-01) (217, 2.44853795701768767179e-01) (218, 2.99528754338480251995e-01) (219, 3.52857321795409295540e-01) (220, 2.07695681450095065435e-01) (221, 3.94363574344631651059e-01) (222, 4.81728713591754620360e-01) (223, 4.41759026752300942853e-01) (224, 4.76678181973603343202e-01) (225, 3.90926802309714771511e-01) (0, -1.32784227614562554826e-02) (1, 1.81480858810761785938e-02) (2, 6.71361498342284007679e-02) (3, -6.95025447565418980078e-02) (4, 4.22474489477690784422e-02) (5, -4.04544877405792202563e-03) (6, 6.84389037951112499947e-02) (7, -3.79469237213859930669e-02) (8, 3.28441212070021276714e-02) (9, 6.47654603322535271648e-02) (10, 3.98609714334719617002e-02) (11, 1.06373987085599697178e-01) (12, 1.31671025237848599021e-01) (13, 4.96712546966200166332e-02) (14, 9.40153938516439385831e-02) (15, 9.22595394881576685853e-02) (16, 4.19374596297466123440e-02) (17, 7.43599314814299416909e-02) (18, 1.52782341664662053154e-02) (19, 2.07799971763718491213e-02) (20, -1.02212575180948891246e-02) (21, -8.81514505959013067171e-02) (22, -5.23797271010807280467e-02) (23, -1.48518121231286381878e-01) (24, -1.44022058056943458304e-01) (25, -1.07640133943767937752e-01) (26, -8.05091261722164497350e-02) (27, -2.35787200214020477296e-02) (28, -2.87921872318882866859e-02) (29, 1.08269320686917677743e-01) (30, -1.92122036449164715344e-02) (31, 9.32381617928008804563e-02) (32, -5.98730733799040445997e-02) (33, -6.35528862286406925897e-02) (34, 2.76325555581116884263e-02) (35, -2.14729871171247076308e-05) (36, -7.53179039389676868721e-02) (37, -2.89417589394248397222e-03) (38, -8.12332308086380489032e-02) (39, -1.16023126639694489082e-02) (40, -2.59962550521078278321e-02) (41, -1.71828250014938108126e-02) (42, -7.98926703412701499918e-02) (43, 3.16693945995657269443e-02) (44, -3.58027215336154669423e-02) (45, 4.06948878399679900286e-02) (46, 1.48767258761226192632e-02) (47, -8.25652673514868686022e-03) (48, 4.63155266976960910963e-02) (49, 2.23667661813077636723e-02) (50, 1.12934682373420549467e-02) (51, -1.18615418728706054075e-01) (52, -4.76027060288060008264e-02) (53, 4.20486187968994312714e-02) (54, 1.08979140705703539393e-01) (55, 1.68452509417227946908e-01) (56, 1.22134617992702823597e-01) (57, 1.10322915934981148622e-02) (58, 5.53972384913448689936e-02) (59, 6.68424103521566420616e-02) (60, 2.37113176593276325788e-01) (61, 2.93727072140347378326e-01) (62, 1.17163291707269023867e-01) (63, 6.80759371735343149501e-02) (64, -1.27996896107474902871e-02) (65, 1.64574138933031466348e-01) (66, 1.58999889915360154147e-01) (67, 1.53918050073963197377e-01) (68, 9.72317511605147594134e-02) (69, 6.09466167404608197278e-02) (70, 8.01520765181977651315e-02) (71, -9.86407273996107863967e-02) (72, 5.17466246805599536240e-02) (73, 8.21533847938527017618e-02) (74, 7.58997244858660019551e-02) (75, -6.97129643299418816360e-02) (76, 1.16088830526477185257e-01) (77, -6.48022733481318502502e-02) (78, 4.75063210233279409334e-02) (79, 1.22120326314546237545e-01) (80, 9.73206167750803596839e-02) (81, -6.48686801101403254233e-02) (82, 5.93285051801648866121e-02) (83, 4.26507278103256809443e-02) (84, -1.30646500617805666478e-01) (85, -1.58423975954377516118e-01) (86, -8.49438789570712143862e-02) (87, -9.10269372344122418284e-02) (88, 5.48964865786262037894e-02) (89, -1.33280281420435520179e-01) (90, 4.78174507725257560975e-02) (91, -7.77539673643819762017e-02) (92, -8.61453625812844958620e-02) (93, 4.67796717225330629941e-02) (94, 5.11866360636392195294e-02) (95, 4.93325029315420330450e-03) (96, 9.97927130810219442658e-02) (97, 4.60198555587033111824e-02) (98, -1.24097528021707391443e-02) (99, 4.41023557122256631979e-02) (100, -7.69648978834358704626e-02) (101, -2.94097935519886909128e-02) (102, -9.02608767207523365883e-02) (103, -3.67613309297579668455e-02) (104, -4.07655560344055492572e-02) (105, 5.43145761689198189326e-02) (106, -7.36234730146424504876e-03) (107, -6.40507062610927522389e-03) (108, 2.55430667541012672295e-02) (109, -6.57198315990067949421e-02) (110, -4.06135965631538170539e-02) (111, 1.53279271070452249859e-02) (112, 1.10078796406073264880e-01) (113, 2.09308314033415265865e-01) (114, -2.75253578210646443480e-01) (115, -3.07279195047833131316e-01) (116, 1.20179624774497825768e-01) (117, 1.68824755334545634211e-01) (118, 1.54493719606323770543e-01) (119, 1.02467811738873228883e-02) (120, 3.54556602041722693230e-02) (121, -6.84324817594444793911e-03) (122, 2.29745671280881455512e-02) (123, 8.18880556476774407182e-02) (124, 1.15073215258594818700e-01) (125, 7.08319865959904371167e-02) (126, 2.07405634405942090881e-01) (127, 1.23832922597676517440e-01) (128, 2.72165197988825602327e-01) (129, 2.85339036331956064085e-01) (130, 2.33551592076347569460e-01) (131, 3.07914141332697177678e-01) (132, 2.44589939862903921197e-01) (133, 1.37016327964876560852e-01) (134, 8.68475192344893703877e-02) (135, -5.12350503975550486402e-03) (136, -3.18999378546826611869e-02) (137, 3.87030637336603818011e-03) (138, 7.61314189187217715826e-02) (139, -4.70284355547248775209e-02) (140, -1.04571453657187257713e-01) (141, 1.34768010713155694802e-01) (142, 6.14282751864072690262e-02) (143, 4.37232067963010326284e-02) (144, -7.44378803249730672253e-03) (145, -4.58147159051274718844e-02) (146, 1.21621269128069933729e-01) (147, -1.20969389760513773568e-01) (148, -1.13120670929427083462e-01) (149, 8.42726945238267237392e-03) (150, -7.85749291899830670793e-01) (151, -5.58214443099623980338e-01) (152, -6.34926166515287548897e-01) (153, -7.05144125835638679867e-01) (154, -4.09891323583050845580e-02) (155, -5.52489076965067479885e-02) (156, 9.01629391001646379733e-02) (157, -8.45125741256680385050e-02) (158, -9.34374560275583188051e-02) (159, 7.69672122271133213323e-02) (160, -8.40076598796100637578e-02) (161, 1.25761085980541347656e-02) (162, 1.69764446290027737341e-02) (163, 9.42202895720564009840e-02) (164, -2.08726260431222341088e-03) (165, 3.18510084738701307328e-02) (166, 5.00510932206259320787e-02) (167, 6.08192069316426317527e-02) (168, -1.88327024074036453172e-02) (169, -1.11173490691332046976e-01) (170, 6.77604671366106442454e-02) (171, -7.41039776905310226818e-02) (172, 6.04590054845886570867e-02) (173, -3.88403453898575612424e-02) (174, 5.18982181031345680272e-03) (175, -5.87871270235960419193e-01) (176, -4.61493277607803509266e-01) (177, -5.30131095442298971854e-01) (178, -5.67838936707855346242e-01) (179, -1.08207925185424505554e-01) (180, 8.81624670420639439117e-02) (181, 4.43754638244741525521e-02) (182, -4.94441925604324674509e-03) (183, 9.93163766680207477089e-02) (184, 1.31884208048399426128e-01) (185, 4.59522142146557704967e-02) (186, 4.79932336383725871576e-02) (187, 5.74630923866838658198e-02) (188, 1.04581129777467279895e-01) (189, 1.17506857331768799213e-01) (190, 1.48702287787772012388e-03) (191, 1.05594918231482787219e-01) (192, -4.27478760471938085130e-02) (193, 5.09596649802987328171e-02) (194, 4.98694391433121553270e-02) (195, -4.55717789620041155429e-02) (196, -2.07239212416793477239e-03) (197, 2.09891681909796269656e-02) (198, 5.27265179458800553602e-02) (199, 4.86725936322213170726e-02) (200, -6.55171508451654283078e-01) (201, 3.41285349632606793691e+00) (202, 2.93029853219808400500e-01) (203, -3.70621792630291935211e+00) (204, 1.45960801342196855312e-01) (205, 1.56707486883581437187e-01) (206, 2.00239243919642623259e-01) (207, 1.92547446622177625963e-01) (208, 9.52583430174216705399e-02) (209, 7.26786036572986404725e-02) (210, 3.71404004935561443679e-02) (211, 1.33510262165359629843e-02) (212, 8.82817913346129051755e-02) (213, 3.49092842538121644891e-02) (214, 5.34909897326798361439e-02) (215, -9.28070043389438159576e-03) (216, 5.98529613903044516166e-02) (217, -6.48087856468107098573e-02) (218, 5.32072832804540447188e-03) (219, 4.81117767780129962363e-02) (220, 5.05660087992074458452e-02) (221, -3.46065866764668633726e-02) (222, -4.67240234369791646030e-03) (223, 5.78782887051851116511e-02) (224, 6.78031772406291130539e-03) (225, 1.04891584565381265626e-01) (0, 6.23342173310891700666e-01) (1, 5.02942376095363297139e-01) (2, 5.97515326332635265949e-01) (3, 5.54561874850189484576e-01) (4, 5.46098517689134310693e-01) (5, 5.04205948354446653603e-01) (6, 5.17352327969656244910e-01) (7, 5.65376197371566302508e-01) (8, 6.64180075875892894643e-01) (9, 4.89936516767981278253e-01) (10, 6.26143401691690026922e-01) (11, 4.78502262723158322544e-01) (12, 5.74368715372470806102e-01) (13, 6.56647457497978370711e-01) (14, 6.11121250696047502160e-01) (15, 5.71933228721215547452e-01) (16, 4.78045331915255999888e-01) (17, 4.98524103416800423716e-01) (18, 5.42975292926493491308e-01) (19, 5.51581427566307347377e-01) (20, 4.69702913892643458826e-01) (21, 5.58750578363898298129e-01) (22, 5.19232854709129276749e-01) (23, 5.45604681268329172461e-01) (24, 4.93519976572066421117e-01) (25, 5.86665946920443159840e-01) (26, 6.90387433017746965369e-01) (27, 5.88894390469209771943e-01) (28, 6.63917928248571320715e-01) (29, 5.51942289589472667721e-01) (30, 6.11496390415682045116e-01) (31, 5.48371896922577040101e-01) (32, 4.79713587453155787532e-01) (33, 6.03212409664333648607e-01) (34, 6.56357928543966351320e-01) (35, 6.87905230083135865726e-01) (36, 6.69629614510061976773e-01) (37, 6.99538217001344442281e-01) (38, 6.79966271686755163728e-01) (39, 5.39844072337514080395e-01) (40, 4.99884728726175342484e-01) (41, 6.29677908904160865688e-01) (42, 5.09079903713092418727e-01) (43, 5.22073228543477374508e-01) (44, 5.71188936423256299335e-01) (45, 5.56314282086137756878e-01) (46, 6.63018230608693692751e-01) (47, 6.72486689242318913529e-01) (48, 6.39051413327398010189e-01) (49, 6.92372854426518968829e-01) (50, 5.56054572941226399330e-01) (51, 6.47205117124680207041e-01) (52, 5.40066954765139883854e-01) (53, 5.12224618119526353688e-01) (54, 6.04945919193696890481e-01) (55, 4.80852893553827320794e-01) (56, 6.09069575375146832208e-01) (57, 6.22682013872556172629e-01) (58, 5.38294639752857517756e-01) (59, 4.54876736044549589977e-01) (60, 4.69100626523370645149e-01) (61, 5.18715981391888347751e-01) (62, 4.88705271453959866346e-01) (63, 6.39504028320726281009e-01) (64, 4.78565317258257294508e-01) (65, 4.54827308333795365947e-01) (66, 5.53488200202686964069e-01) (67, 5.06306085917790471562e-01) (68, 4.95393565678439451450e-01) (69, 4.42036097995392562865e-01) (70, 4.92564513475068799231e-01) (71, 4.60610447847953574652e-01) (72, 6.25410645814924559538e-01) (73, 6.06336970674418052063e-01) (74, 5.64872289115565084927e-01) (75, 7.03988722563269275767e-01) (76, 1.19346851239790674448e+00) (77, 1.40100553398455862641e+00) (78, 1.57527120138999721100e+00) (79, 1.04728039847993392719e+00) (80, 1.11717479127331742461e+00) (81, 9.83190322381829240328e-01) (82, 5.17352007451913342706e-01) (83, 5.36250804558622840013e-01) (84, 6.91450065142387493289e-01) (85, 6.26414595892647252384e-01) (86, 1.04065184835804847019e+00) (87, 8.77683802020487235929e-01) (88, 7.58170417115244021922e-01) (89, 5.25507227696985768084e-01) (90, 6.06136935521677022720e-01) (91, 6.49936312044370412266e-01) (92, 5.43795839889678167545e-01) (93, 4.68807618515455271080e-01) (94, 5.12600443623744905786e-01) (95, 5.45441903045136511352e-01) (96, 5.63732400069792416453e-01) (97, 5.06460606627180509598e-01) (98, 6.38402679777734904931e-01) (99, 6.45721954336576309252e-01) (100, 7.21130105798828302532e-01) (101, 6.55817759537589251018e-01) (102, 6.21692763799178149675e-01) (103, 6.56044850945469937287e-01) (104, 7.70172704008104558326e-01) (105, 1.52091301018858238159e+00) (106, 8.48056405465404394839e-01) (107, 6.78977351076972657218e-01) (108, 6.22943895585721052477e-01) (109, 6.00291593742165674463e-01) (110, 5.33522440097869976583e-01) (111, 4.80971856167073053001e-01) (112, 5.00327267999202462967e-01) (113, 4.53766071426409678402e-01) (114, 3.15247039474282841898e-01) (115, -1.56547738345829001716e+00) (116, -8.44074819821142963150e-01) (117, 3.56206221100918174471e+00) (118, 2.36436560045061250346e-01) (119, 6.54180924520891493579e-01) (120, 1.05171018446004493896e+00) (121, 7.78641572460486597329e-01) (122, 2.04333527748590597639e+01) (123, 8.59583898655871436745e+00) (124, 3.51196744962790674549e+00) (125, 3.82536964071181628810e+00) (126, 4.53193224369210945213e+00) (127, 5.04708050740282132551e+00) (128, 7.14180019663823828502e-01) (129, 7.05239628179073152481e-01) (130, 9.86793578122393211238e-01) (131, 1.09104791699115355463e+00) (132, 1.11223423097236762125e+00) (133, 1.10602426639504858308e+00) (134, 1.19640701807728211392e+00) (135, 1.90450208739028914451e+00) (136, 9.85259025472989407035e+01) (137, 5.45426051028577987267e+01) (138, 6.57248881370808124558e+00) (139, 3.31237097683080161659e+00) (140, 1.63584791426414866145e+00) (141, 1.28163012945159837663e+00) (142, 1.26016017287711012962e+00) (143, 1.17086474322546751914e+00) (144, 1.12990111667605686030e+00) (145, 5.44687825166278338784e-01) (146, 5.42453937509364547687e-01) (147, 6.03195229677675692770e-01) (148, 5.43008005089159140333e-01) (149, 5.50327217271904811646e-01) (150, 5.31402571067974838215e-01) (151, 5.80451354966784682787e-01) (152, 5.90651196288718316474e-01) (153, 4.69306186143484349582e-01) (154, 5.39209994511277823648e-01) (155, 5.65653612756480295154e-01) (156, 4.65323867494205067885e-01) (157, 5.18778191655690279482e-01) (158, 6.75991926276447663291e-01) (159, 6.25331067197772538790e-01) (160, 5.82340980569595156879e-01) (161, 6.57825241220993062186e-01) (162, 5.43471536877505823071e-01) (163, 4.97303624152770240574e-01) (164, 6.06114306641624578376e-01) (165, 6.08204022626844476029e-01) (166, 5.92227861862150262162e-01) (167, 4.83601425349229285811e-01) (168, 5.45505932509623869819e-01) (169, 6.00809005583483046742e-01) (170, 5.59165559977512716117e-01) (171, 5.74822029321465977070e-01) (172, 6.08460307909218123257e-01) (173, 5.45777856930075633279e-01) (174, 6.09929263676504240799e-01) (175, 1.16251558879880589892e+00) (176, 1.15875029042872990104e+00) (177, 9.92274939293659619111e-01) (178, 5.90548827647916052541e-01) (179, 5.53602973263584763330e-01) (180, 3.96408743104370242527e-01) (181, 6.15588841658248564492e-01) (182, 6.77326394827915567731e-01) (183, 5.88044213635845913757e-01) (184, 6.18741946921937513437e-01) (185, 6.39350842990260126442e-01) (186, 6.22083879682315599169e-01) (187, 6.56438496032489271492e-01) (188, 5.03942363568378737249e-01) (189, 4.79742143687409638986e-01) (190, 6.44008327721106277330e-01) (191, 5.96134520421018332392e-01) (192, 6.63881123628295544137e-01) (193, 6.09372731294462677276e-01) (194, 5.72985670115417566883e-01) (195, 5.01684348471934438152e-01) (196, 6.13307319668488948317e-01) (197, 5.22381740748330880564e-01) (198, 6.48657524657271111757e-01) (199, 6.74143247059016403888e-01) (200, 4.38134769663626355563e-01) (201, 9.76859954016975118307e-01) (202, 1.74643091750709844590e+00) (203, 5.71669681053322276121e-01) (204, 3.05079619914740252096e-01) (205, 2.70137300523041801181e-01) (206, 1.00156888847369041073e+00) (207, 1.98961259719410077373e+00) (208, 3.50952346408780968545e+00) (209, 7.58402103258494775240e-01) (210, 6.48277418855699671951e-01) (211, 6.21821443397790329932e-01) (212, 6.17728969485163426079e-01) (213, 5.44373828458345698778e-01) (214, 6.50806449598399061607e-01) (215, 4.74295628975407612682e-01) (216, 5.49316203645590861449e-01) (217, 6.61901060557840259513e-01) (218, 5.74025788272283676861e-01) (219, 6.47659257533128585038e-01) (220, 5.32702357436084072972e-01) (221, 5.25893825591277064291e-01) (222, 5.84925865288375312900e-01) (223, 5.39960378358458559234e-01) (224, 6.92240409305720505451e-01) (225, 6.78642507588068100155e-01) (0, -1.76016359587099213702e-02) (1, -8.85217696306842133369e-02) (2, 1.34888796311224117702e-02) (3, 7.14616778580309114366e-02) (4, -1.13341801436905240119e-01) (5, -5.69972228608598835420e-02) (6, -1.03772459262350388864e-01) (7, -1.26374288192030226341e-01) (8, 2.28437970550007078685e-02) (9, -2.59674895964007480809e-02) (10, 1.90151988719906989145e-02) (11, 4.38019593701433583577e-03) (12, 1.74934011365314057151e-01) (13, 1.15128603412444407983e-01) (14, 1.48342427393628517596e-01) (15, 9.18111257657612395144e-02) (16, -1.13355812055175961262e-01) (17, 1.67672926234885888430e-01) (18, -2.38678750378691961753e-01) (19, -6.93681240428882239790e-02) (20, -5.78407372404590239268e-02) (21, 2.12877214114446690341e-02) (22, -2.02254725675869301282e-02) (23, 9.28272962757235725606e-02) (24, -1.15423719940534932199e-02) (25, 1.76199406964861887692e-02) (26, 4.02234350810689450517e-02) (27, 1.78457707671366150315e-01) (28, -8.26633933622559591119e-04) (29, 1.73262074522462811155e-01) (30, 6.35650712602135042895e-02) (31, 1.14306186299348092050e-02) (32, 1.50120646467254259537e-01) (33, 2.28362120054123263202e-01) (34, 3.05366563333658802559e-01) (35, 9.72954198666610564628e-02) (36, 2.09173562241936408790e-02) (37, 1.10562049241091350793e-01) (38, 1.93762980043078840431e-02) (39, 2.46392453967895774802e-02) (40, -9.60454406207240651838e-02) (41, 7.08880314348546702874e-02) (42, 3.19573134280134868446e-02) (43, 4.81153416236038203313e-02) (44, 1.25349762935359834715e-02) (45, 8.24823143610647346868e-02) (46, 6.22950587648831571874e-02) (47, 2.50557389474282722619e-03) (48, -7.22774828542899067108e-02) (49, -1.14685313913567690780e-01) (50, 5.83979961987030338211e-02) (51, -4.55951969261718173532e-02) (52, -4.80343020655461042101e-02) (53, 1.89846043670354146238e-02) (54, 6.19852300991282773035e-02) (55, -1.11476586754763254405e-01) (56, -4.41365310110542127808e-02) (57, 1.35087453679415298025e-01) (58, 1.36664836648446530454e-01) (59, 3.24507615601786703063e-01) (60, 3.23550578287603918248e-01) (61, 2.60696647454345176165e-01) (62, 4.98123635292220034998e-01) (63, 2.86263948581480132116e-01) (64, 4.57558778971600244034e-01) (65, 3.63560362905485101592e-01) (66, 1.72860655065044666046e-01) (67, 1.14803024571655254427e-01) (68, -6.83458591416830296694e-01) (69, -1.34808525397503986554e-02) (70, -2.25335865560246401129e-01) (71, -1.00958454846714382191e-01) (72, 1.36725779453730333229e-02) (73, 8.29811742277671571255e-02) (74, 2.44541381241403822655e-02) (75, 7.20032756664758244458e-02) (76, 4.62910000671905505487e-02) (77, 5.41034113268673358399e-02) (78, -2.53617272276754658622e-02) (79, 1.73116235396355455656e-01) (80, 2.33434159287310177833e-01) (81, 7.88065504312955300570e-02) (82, 1.36408289656083786534e-01) (83, 8.87387262247935737491e-01) (84, 5.32142160530567620569e-01) (85, 1.21081834683233052763e-01) (86, 1.40475865022557711015e-01) (87, 8.34979036199545165964e-02) (88, 4.28255444796052930911e-02) (89, 2.11663303349999762371e-02) (90, 1.03839839187845783819e-01) (91, 8.24417656777153146086e-02) (92, -6.00188399857197740772e-02) (93, -7.13224974070516548608e-02) (94, -6.34446817195014750590e-02) (95, -1.38868191817247427916e-02) (96, 7.84554546033727484566e-02) (97, 8.37809640773901354027e-02) (98, 6.73240676879693633605e-02) (99, -8.43828166385318378939e-02) (100, 9.43308118840794906923e-02) (101, -9.28013885209927197328e-02) (102, 5.98136082616889871999e-02) (103, 8.64497088116523010326e-02) (104, 8.47709361398857885739e-02) (105, -9.21223852570947493446e-02) (106, -3.73027546446826480109e-02) (107, 8.77554206126668762122e-02) (108, -2.13635015899486038760e-02) (109, 3.42447000791433364686e-01) (110, 2.79193611553749332366e-01) (111, 2.60481380871570300517e-01) (112, 3.50269417449076192472e-01) (113, 3.01890102106816105021e-01) (114, 4.07034022498489522768e-01) (115, 2.87184888283888162253e-01) (116, 2.01625999290195284663e-01) (117, 2.10443964764591512351e-01) (118, -9.09065409517929245986e-01) (119, 2.09366821459722046717e-01) (120, -2.18479469493859879137e+00) (121, -8.88955665012042262063e-01) (122, 9.87370151192040468313e-02) (123, -1.47862433017912492383e-01) (124, 1.42770131087523229757e-02) (125, -1.00970059521672025915e-01) (126, -9.37455042816054961996e-02) (127, -1.32191091258022336286e-01) (128, -4.48615062913360451713e-01) (129, -2.41028207001273198085e-01) (130, -2.11341370142044460145e-01) (131, -2.18723105745925266996e-01) (132, -1.78846189064171240402e-01) (133, 1.13918008311875693095e-01) (134, 6.23948142328857313643e-01) (135, 4.17635837447289104407e-02) (136, -1.35465628780759544947e-01) (137, -3.63711936954277115230e-01) (138, 9.77108620465384214437e-02) (139, 3.77362979979992685386e-02) (140, -1.49229673299050777380e-02) (141, 9.13165506771991125623e-02) (142, 6.57842274198299076238e-02) (143, 3.75339208274831706569e-02) (144, 1.21953825443006633189e-01) (145, -1.11110894155936369698e-02) (146, 1.97736253083276650178e-02) (147, -5.15284797107660383353e-02) (148, -5.60879730270519225033e-02) (149, -1.35532595330884686469e-01) (150, 1.54624063262327943180e-01) (151, 1.38264520784126265784e-01) (152, 1.21155227964765063731e-01) (153, -2.53512240011094999725e-02) (154, 3.21041031595845072211e-02) (155, -1.99921690931757142784e-02) (156, -5.67526676851464947915e-02) (157, 1.24046261669274973660e-01) (158, 3.06051200650301752360e-02) (159, -1.76891537348503082028e-02) (160, 1.51741476034415977148e-02) (161, -1.99354915354707029965e-03) (162, 6.88655632018176089293e-02) (163, 2.96838361694824401371e-02) (164, 1.06567890297672353966e-02) (165, 2.50141886067763476176e-02) (166, -7.63074540804047490861e-02) (167, 1.09946130762456732721e-02) (168, 7.22886575447347357048e-02) (169, 1.22917477688070528319e-01) (170, -2.93430981644688705645e-02) (171, 3.35778481636121867160e-02) (172, -4.46711161191382308266e-02) (173, -7.18108426404330119075e-02) (174, 1.24963480572938285401e-02) (175, -2.77628162199650252440e-01) (176, -3.67166701066258649444e-01) (177, -3.92652527099019876822e-01) (178, -3.75020821026089246075e-01) (179, -4.13963244268933383552e-02) (180, 2.66985933042659329129e-01) (181, 1.91539056931303020015e-01) (182, 1.79981545333077808113e-01) (183, 4.72025055643017887874e-01) (184, 2.41524435106989426858e-01) (185, 1.60164760884646678596e-01) (186, 1.72496086157925915261e-01) (187, 2.80992843628163124770e-01) (188, 8.07125304221357614542e-02) (189, 1.91934874764433410776e-01) (190, 3.07738367619063493685e-02) (191, -8.79775152011587346923e-03) (192, -1.66137383918353483125e-02) (193, 2.40635016979513019497e-02) (194, 1.74966836353357066414e-02) (195, 1.05065894744495423596e-02) (196, 8.81440896967475018275e-02) (197, -4.08709226068241712748e-02) (198, 4.32172982230487265354e-02) (199, 4.62420930696862270137e-02) (200, -3.82928443363216164386e+00) (201, -4.85644582086638809670e+00) (202, -6.81559062370264712172e+00) (203, -8.25973688738265043874e-01) (204, -3.88136130395883682809e-01) (205, -2.85224590285465373629e-01) (206, 1.19212906098412355083e-01) (207, 1.31767356383207107084e-01) (208, 3.04355423441072914237e-01) (209, 1.59897266369441543032e-01) (210, 1.24598652653466049345e-01) (211, 2.26483620967896537302e-01) (212, 1.51111835639351238525e-01) (213, 1.87211687835795392854e-01) (214, -9.43970829457711074761e-02) (215, 1.25198508070929998004e-01) (216, 7.76285325288258581944e-02) (217, -3.25567792359667054769e-02) (218, 1.28447556287263009445e-01) (219, 5.98587829014610300904e-02) (220, 1.57018856087035862945e-01) (221, 2.24429452500128287507e-02) (222, -5.26068187913109261422e-02) (223, 3.44977314556365807774e-02) (224, -4.22469587317481909405e-02) (225, -5.98576640758239925805e-03) (0, 5.68118122969690331203e-01) (1, 5.63073725301011518418e-01) (2, 5.89181009226661056566e-01) (3, 4.71059530035975115858e-01) (4, 4.34549383580729475796e-01) (5, 5.02218689567455633949e-01) (6, 4.43108547923705131666e-01) (7, 5.99858134654556618415e-01) (8, 5.92762439787808403935e-01) (9, 4.94774376716321295788e-01) (10, 4.79373592990486541154e-01) (11, 5.76740158267696867433e-01) (12, 6.15297956508900067973e-01) (13, 4.47026240267561492114e-01) (14, 4.74892248073057632318e-01) (15, 5.70602641810960875546e-01) (16, 1.05682281287058921215e+00) (17, 4.68029248809600340042e-01) (18, 5.20971533885385196250e-01) (19, 5.99810409018789680857e-01) (20, 6.25596428001146676046e-01) (21, 5.58476737076945783933e-01) (22, 7.06868773583024023743e-01) (23, 6.54049905217224281095e-01) (24, 5.37378524714875904778e-01) (25, 7.71367522492539148260e-01) (26, 6.65568420623270706749e-01) (27, 6.63495307568534586906e-01) (28, 7.23028938594845960175e-01) (29, 6.24696386188194785483e-01) (30, 4.99346094197422596395e-01) (31, 5.54999884383807207122e-01) (32, 5.41790186668333673126e-01) (33, 5.93454848119902789172e-01) (34, 6.28074024539196473782e-01) (35, 6.80597153217668116021e-01) (36, 5.59998955896195860227e-01) (37, 5.62512006362525185388e-01) (38, 5.81576690081349045869e-01) (39, 5.59661769168423695042e-01) (40, 4.64750289380910786008e-01) (41, 5.10456289075765679009e-01) (42, 5.65371066826989343568e-01) (43, 4.28233971966092086259e-01) (44, 5.62000939523584430724e-01) (45, 5.32702216874506251365e-01) (46, 4.38856931546217632345e-01) (47, 4.44342801808000231745e-01) (48, 5.75621213430452360882e-01) (49, 4.49805672126569300318e-01) (50, 6.39582200403349898643e-01) (51, 6.68512955139160647278e-01) (52, 5.74225816494360663533e-01) (53, 5.80709265166476251707e-01) (54, 5.01988017686319842880e-01) (55, 6.01977517473457734987e-01) (56, 5.01485247727224470182e-01) (57, 4.85503054989941673636e-01) (58, 4.69506530948358979938e-01) (59, 4.47551748525701342807e-01) (60, 4.47323861773647080131e-01) (61, 5.30716535014148949045e-01) (62, 5.41743208017911204166e-01) (63, 1.05821286771448774822e+00) (64, 9.63812597421471406456e-01) (65, 6.14089377735574593054e-01) (66, -2.41132736667201186265e+00) (67, 7.96100894453995566735e-01) (68, 8.30662259051997309278e-01) (69, 7.99979299799251530878e-01) (70, 1.21312788770254464943e+00) (71, 1.41639726096296914015e+00) (72, 5.76393351981117407767e-01) (73, 5.68693370047496649100e-01) (74, 1.18102705953310738174e+00) (75, 1.29994507480293997048e+00) (76, 1.25992452913766728173e+00) (77, 6.69595922610656479890e-01) (78, 6.97611682766031027114e-01) (79, 7.26649473273587309663e-01) (80, 6.01161851103371946969e-01) (81, 6.59227007911743934088e-01) (82, 5.10219511509365397650e-01) (83, 6.03758909539214960738e-01) (84, 8.39961792313360988693e-01) (85, 1.45544115014794295249e+00) (86, 1.93153165667134563144e+00) (87, 7.04061512419480117764e-01) (88, 6.37500805014284188665e-01) (89, 5.90407048652747845630e-01) (90, 5.74879273480780828010e-01) (91, 4.41533600558019267979e-01) (92, 5.54047729322433069044e-01) (93, 4.73068665808703436859e-01) (94, 5.69029883570293493200e-01) (95, 5.25756544920196855486e-01) (96, 6.13252166046290736467e-01) (97, 5.88930180485748078212e-01) (98, 4.82892600010701000812e-01) (99, 5.59178075549240261033e-01) (100, 7.45357780368531952497e-01) (101, 5.63512171927315397291e-01) (102, 6.47809127854688471260e-01) (103, 5.26929118647917138496e-01) (104, 4.88899731538691539878e-01) (105, 6.09744310200074801642e-01) (106, 5.59950546238640933794e-01) (107, 6.57083729731410715047e-01) (108, 7.67324470836936445295e-01) (109, 7.60922150586560652741e-01) (110, 9.23018534651809829938e-01) (111, 1.78806044483022463787e+00) (112, 6.62011539301223983500e+00) (113, 2.62566050539758188975e+00) (114, 1.09390753371387061677e+00) (115, 8.42325110488046480128e-01) (116, 2.14561760423804065434e-01) (117, 1.22655569631339111947e-01) (118, 6.39852591395207337399e-01) (119, 3.85798270181658242706e+00) (120, 1.12149914725345247746e+01) (121, 2.07762377221065293043e+01) (122, 5.72301118395233245906e+01) (123, 9.34335132523473355093e+00) (124, 3.41761059230092853478e-02) (125, 1.55684826029134470993e+00) (126, 1.28223159592120006245e+00) (127, 1.20454453728143606739e+00) (128, 1.18637391134921843516e+00) (129, 7.70108649297911007636e-01) (130, 7.59171224271220190793e-01) (131, 8.25970319883762238433e-01) (132, 8.84551093930646903374e-01) (133, 9.70056673819349457588e-01) (134, 4.71163800802023302605e-01) (135, 1.44474307086011410917e+00) (136, 8.96304631813770313897e+00) (137, 4.19617730901329721860e+00) (138, 7.88280161421849312475e-01) (139, 5.77485157043100660879e-01) (140, 5.54400920836065513875e-01) (141, 5.23093822823967102842e-01) (142, 4.27179240140951377303e-01) (143, 5.60566259059666505138e-01) (144, 6.08297417681785801413e-01) (145, 4.67685657045901981288e-01) (146, 4.85980265154716872811e-01) (147, 6.32808690246485339159e-01) (148, 5.83704281220148946119e-01) (149, 6.07638316199264783002e-01) (150, 8.24836322974217384107e-01) (151, 6.63361846648871211762e-01) (152, 4.82501254380888644491e-01) (153, 6.08332350385754949684e-01) (154, 5.64660109534476761795e-01) (155, 5.79018765935570112191e-01) (156, 4.36415467819148694684e-01) (157, 5.24164139865440747990e-01) (158, 5.77694255216524510388e-01) (159, 6.72227045382198906687e-01) (160, 5.72558995865220410337e-01) (161, 4.89748332313992840170e-01) (162, 4.96798081831974824851e-01) (163, 4.17483937902499546713e-01) (164, 4.41980311542808979031e-01) (165, 5.28456691903708142277e-01) (166, 5.68905370807234689323e-01) (167, 4.99044416321125172686e-01) (168, 6.66210621212168563332e-01) (169, 4.98558092123305984789e-01) (170, 4.64453940868747472415e-01) (171, 4.80606478738975773091e-01) (172, 5.92063867126454090872e-01) (173, 6.42988300172896098950e-01) (174, 5.74979164040069212760e-01) (175, 4.01369885806078019463e-01) (176, 4.29811015089601344830e-01) (177, 3.83079405523840288428e-01) (178, 4.38831872166661196566e-01) (179, 4.39134907123422790765e-01) (180, 2.88468543569962432294e-01) (181, 4.40509425960137424028e-01) (182, 6.51798096545496252752e-01) (183, 7.99615851490517504097e-01) (184, 6.67177507436110039940e-01) (185, 6.74463310557455564265e-01) (186, 6.46366477029873820470e-01) (187, 4.96625996496196153718e-01) (188, 5.71478371003223517555e-01) (189, 5.81666281730411682815e-01) (190, 6.39234445494222147666e-01) (191, 6.35768198581227572674e-01) (192, 4.90098873417262437258e-01) (193, 6.79782212802088614545e-01) (194, 4.85628505030568868861e-01) (195, 6.37127679807991120775e-01) (196, 5.89477486146957496693e-01) (197, 4.81562900448113173635e-01) (198, 6.69891343496930913304e-01) (199, 5.47778966627884944529e-01) (200, -4.65984308120105883422e-01) (201, -5.24663834937069806230e-01) (202, -1.37952709230323544709e-01) (203, -4.15294994603358280649e-01) (204, -1.17423097777463458780e-01) (205, -2.25042650647040098910e-01) (206, 9.38987274248470726867e-01) (207, 1.30835457721999914860e+00) (208, 1.50950832700449621981e+00) (209, 1.36200209007140027317e+00) (210, 1.21714413330306103767e+00) (211, 1.24725464107521855084e+00) (212, 1.16486293731857681877e+00) (213, 1.05604127612899678645e+00) (214, 1.07385607899901724949e+00) (215, 5.49644754518282430134e-01) (216, 6.35385226056813912088e-01) (217, 6.58661492731048126004e-01) (218, 7.82254411499355484239e-01) (219, 6.66236316359441027579e-01) (220, 6.87503567668769077770e-01) (221, 5.33327181005864736640e-01) (222, 5.66370053603532097597e-01) (223, 6.79958495290204578687e-01) (224, 6.15677232910121663423e-01) (225, 6.33166934601780750924e-01) (0, 6.63128259901626826434e-01) (1, 5.07858094264789783345e-01) (2, 5.55762395067572967378e-01) (3, 4.40528858229561948168e-01) (4, 4.88685731619228791445e-01) (5, 6.23529510103461581672e-01) (6, 5.07239971427098201850e-01) (7, 4.80022071858535903655e-01) (8, 5.21510416680861177419e-01) (9, 4.75979958753004861460e-01) (10, 5.67851903773390231933e-01) (11, 5.44075652927061503839e-01) (12, 3.67437644921335682113e-01) (13, 4.25900678791421405389e-01) (14, 4.80196442357367081488e-01) (15, 8.38171077376643869350e-01) (16, 9.84189370147818154422e-01) (17, 4.40291247067569890827e-01) (18, 4.43571850874334538961e-01) (19, 4.16160115915883199733e-01) (20, 5.53512814052317003721e-01) (21, 4.93745443701505748457e-01) (22, 5.81762458067158427788e-01) (23, 5.68235449006686765827e-01) (24, 6.18933777668511653225e-01) (25, 4.59962123207632578303e-01) (26, 6.23070059797408037916e-01) (27, 4.80522122478401647605e-01) (28, 5.03278744400373900802e-01) (29, 4.90342358541553668960e-01) (30, 4.70503038619736246861e-01) (31, 4.77223012818412506419e-01) (32, 4.29588825907679494609e-01) (33, 5.58533302852250446158e-01) (34, 4.81135344875689097144e-01) (35, 6.36346657267417570303e-01) (36, 6.99804132003394196992e-01) (37, 7.21538997709532781144e-01) (38, 1.08002532768305892219e+00) (39, 7.08981751856724407013e-01) (40, 6.14040536849669194019e-01) (41, 6.20610980874634066140e-01) (42, 4.96586330038131906761e-01) (43, 4.93945688127076842910e-01) (44, 4.17442148930004919283e-01) (45, 5.54047005117279112163e-01) (46, 5.52292125322300098134e-01) (47, 5.36429828226233196276e-01) (48, 5.93428409849677374055e-01) (49, 6.48103936354202936343e-01) (50, 5.93595858031946477240e-01) (51, 5.34073797950947115609e-01) (52, 5.52241505465561277610e-01) (53, 5.26388265730942328524e-01) (54, 4.52235437005722218373e-01) (55, 3.86585644201207168091e-01) (56, 4.78226121229682721303e-01) (57, 5.06931143441309961517e-01) (58, 3.37682566208260703799e-01) (59, -2.71496056213963278883e-03) (60, -2.51446988049869091242e+00) (61, -2.55735326420221387167e+00) (62, -6.60703800067024182852e+00) (63, -6.13908741172768923633e+00) (64, -1.51300551006111998475e+01) (65, -1.51436085574470578052e+01) (66, -1.49998912722665114217e+01) (67, -2.88164739442962103411e+00) (68, -4.38434029293635951774e-01) (69, 1.10291504070343471255e+00) (70, 4.24158764480231320615e-01) (71, -9.13664561246435802389e-01) (72, 4.92314930603718614588e-01) (73, 4.02184475251048889621e-01) (74, 4.90842681104444789053e-01) (75, 5.57313402398515456149e-01) (76, 1.01148238485343067161e+00) (77, 1.04829799644094223687e+00) (78, 1.08040710422878816210e+00) (79, 5.55030981795803457501e-01) (80, 4.94904941233549888757e-01) (81, 6.05329653216269969462e-01) (82, 4.79921659220067686746e-01) (83, 5.32435519145710967059e-01) (84, 7.57318038788212799517e-01) (85, 1.89579724314736886015e+00) (86, 4.14419577672344452424e+00) (87, 9.35400934761179136956e+00) (88, 5.65778706229174410680e+00) (89, 2.61026935965777173720e+00) (90, 1.24428441919121102188e+00) (91, 6.57804022628198037381e-01) (92, 6.44403934550896728695e-01) (93, 4.47304373223477103050e-01) (94, 5.61146168643493425954e-01) (95, 4.93894413849283786533e-01) (96, 5.15603460676391511797e-01) (97, 4.62735720053102372873e-01) (98, 3.95007607642945346438e-01) (99, 6.61639852261856398208e-01) (100, 7.86684440120676509167e-01) (101, 5.87351156855172695792e-01) (102, 6.06239135972446052669e-01) (103, 6.19577886751486062167e-01) (104, 5.75152005512529873599e-01) (105, 8.26327068961547506198e-01) (106, 9.71571338629624747796e-01) (107, 5.40793389959207226880e-01) (108, 5.81782818800110179680e-01) (109, 4.85758923599172276475e-01) (110, 6.87800471805184332474e-01) (111, 6.22521712124791237741e-01) (112, 1.49303436508930853499e+00) (113, 7.49365895211950405752e+00) (114, 7.57702236231100911823e+00) (115, 7.33076789977061604731e+00) (116, 9.02476027410612613444e-01) (117, 7.43086892590797720715e+00) (118, 1.49527046342307312621e+00) (119, 2.10961586746695495265e+00) (120, 1.43153420202293624186e+00) (121, -4.27786008232901582282e-01) (122, 3.26116713280914005679e+00) (123, 7.68601754562809214022e-01) (124, 4.35884152746769115705e-01) (125, 5.42880798328355340665e-01) (126, 4.54271337746348813358e-01) (127, 7.00735181333693057937e-01) (128, 6.50932295504500046945e-01) (129, 1.03039286880000391378e+00) (130, 8.29224365863722612247e-01) (131, 8.96724606478839891821e-01) (132, 9.90703293565712073132e-01) (133, 9.37703388757406108844e-01) (134, 7.72966102525271203660e+00) (135, 1.29074039989308140264e+01) (136, 1.71110611388035636082e+01) (137, 9.39453320716611806063e+00) (138, 9.45669020126158876849e+00) (139, 7.51585215065046963190e+00) (140, 8.10391246001606724292e+00) (141, 2.60551563648795969641e+00) (142, 1.64418888819922681677e+00) (143, 1.79020262684250153207e+00) (144, 6.63804865653993214636e-01) (145, 4.99306256167454831640e-01) (146, 3.88780835374679223371e-01) (147, 5.08876135781794580737e-01) (148, 4.70330413334543062653e-01) (149, 4.94686976597531247180e-01) (150, 7.63894164162713051880e-01) (151, 4.61847388814477399777e-01) (152, 4.98166236200530354594e-01) (153, 4.45859175974332888615e-01) (154, 5.57288427872683844733e-01) (155, 4.85955422242202506045e-01) (156, 5.13944038396708324790e-01) (157, 6.50831044773186317975e-01) (158, 6.67590074276140255094e-01) (159, 