FANN_FLO_2.1
num_layers=3
learning_rate=0.700000
connection_rate=1.000000
network_type=0
learning_momentum=0.000000
training_algorithm=2
train_error_function=1
train_stop_function=0
cascade_output_change_fraction=0.010000
quickprop_decay=-0.000100
quickprop_mu=1.750000
rprop_increase_factor=1.200000
rprop_decrease_factor=0.500000
rprop_delta_min=0.000000
rprop_delta_max=50.000000
rprop_delta_zero=0.100000
cascade_output_stagnation_epochs=12
cascade_candidate_change_fraction=0.010000
cascade_candidate_stagnation_epochs=12
cascade_max_out_epochs=150
cascade_min_out_epochs=50
cascade_max_cand_epochs=150
cascade_min_cand_epochs=50
cascade_num_candidate_groups=2
bit_fail_limit=3.49999999999999977796e-01
cascade_candidate_limit=1.00000000000000000000e+03
cascade_weight_multiplier=4.00000000000000022204e-01
cascade_activation_functions_count=10
cascade_activation_functions=3 5 7 8 10 11 14 15 16 17 
cascade_activation_steepnesses_count=4
cascade_activation_steepnesses=2.50000000000000000000e-01 5.00000000000000000000e-01 7.50000000000000000000e-01 1.00000000000000000000e+00 
layer_sizes=226 227 8 
scale_included=0
neurons (num_inputs, activation_function, activation_steepness)=(0, 0, 0.00000000000000000000e+00) (0, 0, 0.00000000000000000000e+00) (0, 0, 0.00000000000000000000e+00) (0, 0, 0.00000000000000000000e+00) (0, 0, 0.00000000000000000000e+00) (0, 0, 0.00000000000000000000e+00) (0, 0, 0.00000000000000000000e+00) (0, 0, 0.00000000000000000000e+00) (0, 0, 0.00000000000000000000e+00) (0, 0, 0.00000000000000000000e+00) (0, 0, 0.00000000000000000000e+00) (0, 0, 0.00000000000000000000e+00) (0, 0, 0.00000000000000000000e+00) (0, 0, 0.00000000000000000000e+00) (0, 0, 0.00000000000000000000e+00) (0, 0, 0.00000000000000000000e+00) (0, 0, 0.00000000000000000000e+00) (0, 0, 0.00000000000000000000e+00) (0, 0, 0.00000000000000000000e+00) (0, 0, 0.00000000000000000000e+00) (0, 0, 0.00000000000000000000e+00) (0, 0, 0.00000000000000000000e+00) (0, 0, 0.00000000000000000000e+00) (0, 0, 0.00000000000000000000e+00) (0, 0, 0.00000000000000000000e+00) (0, 0, 0.00000000000000000000e+00) (0, 0, 0.00000000000000000000e+00) (0, 0, 0.00000000000000000000e+00) (0, 0, 0.00000000000000000000e+00) (0, 0, 0.00000000000000000000e+00) (0, 0, 0.00000000000000000000e+00) (0, 0, 0.00000000000000000000e+00) (0, 0, 0.00000000000000000000e+00) (0, 0, 0.00000000000000000000e+00) (0, 0, 0.00000000000000000000e+00) (0, 0, 0.00000000000000000000e+00) (0, 0, 0.00000000000000000000e+00) (0, 0, 0.00000000000000000000e+00) (0, 0, 0.00000000000000000000e+00) (0, 0, 0.00000000000000000000e+00) (0, 0, 0.00000000000000000000e+00) (0, 0, 0.00000000000000000000e+00) (0, 0, 0.00000000000000000000e+00) (0, 0, 0.00000000000000000000e+00) (0, 0, 0.00000000000000000000e+00) (0, 0, 0.00000000000000000000e+00) (0, 0, 0.00000000000000000000e+00) (0, 0, 0.00000000000000000000e+00) (0, 0, 0.00000000000000000000e+00) (0, 0, 0.00000000000000000000e+00) (0, 0, 0.00000000000000000000e+00) (0, 0, 0.00000000000000000000e+00) (0, 0, 0.00000000000000000000e+00) (0, 0, 0.00000000000000000000e+00) (0, 0, 0.00000000000000000000e+00) (0, 0, 0.00000000000000000000e+00) (0, 0, 0.00000000000000000000e+00) (0, 0, 0.00000000000000000000e+00) (0, 0, 0.00000000000000000000e+00) (0, 0, 0.00000000000000000000e+00) (0, 0, 0.00000000000000000000e+00) (0, 0, 0.00000000000000000000e+00) (0, 0, 0.00000000000000000000e+00) (0, 0, 0.00000000000000000000e+00) (0, 0, 0.00000000000000000000e+00) (0, 0, 0.00000000000000000000e+00) (0, 0, 0.00000000000000000000e+00) (0, 0, 0.00000000000000000000e+00) (0, 0, 0.00000000000000000000e+00) (0, 0, 0.00000000000000000000e+00) (0, 0, 0.00000000000000000000e+00) (0, 0, 0.00000000000000000000e+00) (0, 0, 0.00000000000000000000e+00) (0, 0, 0.00000000000000000000e+00) (0, 0, 0.00000000000000000000e+00) (0, 0, 0.00000000000000000000e+00) (0, 0, 0.00000000000000000000e+00) (0, 0, 0.00000000000000000000e+00) (0, 0, 0.00000000000000000000e+00) (0, 0, 0.00000000000000000000e+00) (0, 0, 0.00000000000000000000e+00) (0, 0, 0.00000000000000000000e+00) (0, 0, 0.00000000000000000000e+00) (0, 0, 0.00000000000000000000e+00) (0, 0, 0.00000000000000000000e+00) (0, 0, 0.00000000000000000000e+00) (0, 0, 0.00000000000000000000e+00) (0, 0, 0.00000000000000000000e+00) (0, 0, 0.00000000000000000000e+00) (0, 0, 0.00000000000000000000e+00) (0, 0, 0.00000000000000000000e+00) (0, 0, 0.00000000000000000000e+00) (0, 0, 0.00000000000000000000e+00) (0, 0, 0.00000000000000000000e+00) (0, 0, 0.00000000000000000000e+00) (0, 0, 0.00000000000000000000e+00) (0, 0, 0.00000000000000000000e+00) (0, 0, 0.00000000000000000000e+00) (0, 0, 0.00000000000000000000e+00) (0, 0, 0.00000000000000000000e+00) (0, 0, 0.00000000000000000000e+00) (0, 0, 0.00000000000000000000e+00) (0, 0, 0.00000000000000000000e+00) (0, 0, 0.00000000000000000000e+00) (0, 0, 0.00000000000000000000e+00) (0, 0, 0.00000000000000000000e+00) (0, 0, 0.00000000000000000000e+00) (0, 0, 0.00000000000000000000e+00) (0, 0, 0.00000000000000000000e+00) (0, 0, 0.00000000000000000000e+00) (0, 0, 0.00000000000000000000e+00) (0, 0, 0.00000000000000000000e+00) (0, 0, 0.00000000000000000000e+00) (0, 0, 0.00000000000000000000e+00) (0, 0, 0.00000000000000000000e+00) (0, 0, 0.00000000000000000000e+00) (0, 0, 0.00000000000000000000e+00) (0, 0, 0.00000000000000000000e+00) (0, 0, 0.00000000000000000000e+00) (0, 0, 0.00000000000000000000e+00) (0, 0, 0.00000000000000000000e+00) (0, 0, 0.00000000000000000000e+00) (0, 0, 0.00000000000000000000e+00) (0, 0, 0.00000000000000000000e+00) (0, 0, 0.00000000000000000000e+00) (0, 0, 0.00000000000000000000e+00) (0, 0, 0.00000000000000000000e+00) (0, 0, 0.00000000000000000000e+00) (0, 0, 0.00000000000000000000e+00) (0, 0, 0.00000000000000000000e+00) (0, 0, 0.00000000000000000000e+00) (0, 0, 0.00000000000000000000e+00) (0, 0, 0.00000000000000000000e+00) (0, 0, 0.00000000000000000000e+00) (0, 0, 0.00000000000000000000e+00) (0, 0, 0.00000000000000000000e+00) (0, 0, 0.00000000000000000000e+00) (0, 0, 0.00000000000000000000e+00) (0, 0, 0.00000000000000000000e+00) (0, 0, 0.00000000000000000000e+00) (0, 0, 0.00000000000000000000e+00) (0, 0, 0.00000000000000000000e+00) (0, 0, 0.00000000000000000000e+00) (0, 0, 0.00000000000000000000e+00) (0, 0, 0.00000000000000000000e+00) (0, 0, 0.00000000000000000000e+00) (0, 0, 0.00000000000000000000e+00) (0, 0, 0.00000000000000000000e+00) (0, 0, 0.00000000000000000000e+00) (0, 0, 0.00000000000000000000e+00) (0, 0, 0.00000000000000000000e+00) (0, 0, 0.00000000000000000000e+00) (0, 0, 0.00000000000000000000e+00) (0, 0, 0.00000000000000000000e+00) (0, 0, 0.00000000000000000000e+00) (0, 0, 0.00000000000000000000e+00) (0, 0, 0.00000000000000000000e+00) (0, 0, 0.00000000000000000000e+00) (0, 0, 0.00000000000000000000e+00) (0, 0, 0.00000000000000000000e+00) (0, 0, 0.00000000000000000000e+00) (0, 0, 0.00000000000000000000e+00) (0, 0, 0.00000000000000000000e+00) (0, 0, 0.00000000000000000000e+00) (0, 0, 0.00000000000000000000e+00) (0, 0, 0.00000000000000000000e+00) (0, 0, 0.00000000000000000000e+00) (0, 0, 0.00000000000000000000e+00) (0, 0, 0.00000000000000000000e+00) (0, 0, 0.00000000000000000000e+00) (0, 0, 0.00000000000000000000e+00) (0, 0, 0.00000000000000000000e+00) (0, 0, 0.00000000000000000000e+00) (0, 0, 0.00000000000000000000e+00) (0, 0, 0.00000000000000000000e+00) (0, 0, 0.00000000000000000000e+00) (0, 0, 0.00000000000000000000e+00) (0, 0, 0.00000000000000000000e+00) (0, 0, 0.00000000000000000000e+00) (0, 0, 0.00000000000000000000e+00) (0, 0, 0.00000000000000000000e+00) (0, 0, 0.00000000000000000000e+00) (0, 0, 0.00000000000000000000e+00) (0, 0, 0.00000000000000000000e+00) (0, 0, 0.00000000000000000000e+00) (0, 0, 0.00000000000000000000e+00) (0, 0, 0.00000000000000000000e+00) (0, 0, 0.00000000000000000000e+00) (0, 0, 0.00000000000000000000e+00) (0, 0, 0.00000000000000000000e+00) (0, 0, 0.00000000000000000000e+00) (0, 0, 0.00000000000000000000e+00) (0, 0, 0.00000000000000000000e+00) (0, 0, 0.00000000000000000000e+00) (0, 0, 0.00000000000000000000e+00) (0, 0, 0.00000000000000000000e+00) (0, 0, 0.00000000000000000000e+00) (0, 0, 0.00000000000000000000e+00) (0, 0, 0.00000000000000000000e+00) (0, 0, 0.00000000000000000000e+00) (0, 0, 0.00000000000000000000e+00) (0, 0, 0.00000000000000000000e+00) (0, 0, 0.00000000000000000000e+00) (0, 0, 0.00000000000000000000e+00) (0, 0, 0.00000000000000000000e+00) (0, 0, 0.00000000000000000000e+00) (0, 0, 0.00000000000000000000e+00) (0, 0, 0.00000000000000000000e+00) (0, 0, 0.00000000000000000000e+00) (0, 0, 0.00000000000000000000e+00) (0, 0, 0.00000000000000000000e+00) (0, 0, 0.00000000000000000000e+00) (0, 0, 0.00000000000000000000e+00) (0, 0, 0.00000000000000000000e+00) (0, 0, 0.00000000000000000000e+00) (0, 0, 0.00000000000000000000e+00) (0, 0, 0.00000000000000000000e+00) (0, 0, 0.00000000000000000000e+00) (0, 0, 0.00000000000000000000e+00) (0, 0, 0.00000000000000000000e+00) (0, 0, 0.00000000000000000000e+00) (0, 0, 0.00000000000000000000e+00) (0, 0, 0.00000000000000000000e+00) (0, 0, 0.00000000000000000000e+00) (0, 0, 0.00000000000000000000e+00) (0, 0, 0.00000000000000000000e+00) (226, 5, 5.00000000000000000000e-01) (226, 5, 5.00000000000000000000e-01) (226, 5, 5.00000000000000000000e-01) (226, 5, 5.00000000000000000000e-01) (226, 5, 5.00000000000000000000e-01) (226, 5, 5.00000000000000000000e-01) (226, 5, 5.00000000000000000000e-01) (226, 5, 5.00000000000000000000e-01) (226, 5, 5.00000000000000000000e-01) (226, 5, 5.00000000000000000000e-01) (226, 5, 5.00000000000000000000e-01) (226, 5, 5.00000000000000000000e-01) (226, 5, 5.00000000000000000000e-01) (226, 5, 5.00000000000000000000e-01) (226, 5, 5.00000000000000000000e-01) (226, 5, 5.00000000000000000000e-01) (226, 5, 5.00000000000000000000e-01) (226, 5, 5.00000000000000000000e-01) (226, 5, 5.00000000000000000000e-01) (226, 5, 5.00000000000000000000e-01) (226, 5, 5.00000000000000000000e-01) (226, 5, 5.00000000000000000000e-01) (226, 5, 5.00000000000000000000e-01) (226, 5, 5.00000000000000000000e-01) (226, 5, 5.00000000000000000000e-01) (226, 5, 5.00000000000000000000e-01) (226, 5, 5.00000000000000000000e-01) (226, 5, 5.00000000000000000000e-01) (226, 5, 5.00000000000000000000e-01) (226, 5, 5.00000000000000000000e-01) (226, 5, 5.00000000000000000000e-01) (226, 5, 5.00000000000000000000e-01) (226, 5, 5.00000000000000000000e-01) (226, 5, 5.00000000000000000000e-01) (226, 5, 5.00000000000000000000e-01) (226, 5, 5.00000000000000000000e-01) (226, 5, 5.00000000000000000000e-01) (226, 5, 5.00000000000000000000e-01) (226, 5, 5.00000000000000000000e-01) (226, 5, 5.00000000000000000000e-01) (226, 5, 5.00000000000000000000e-01) (226, 5, 5.00000000000000000000e-01) (226, 5, 5.00000000000000000000e-01) (226, 5, 5.00000000000000000000e-01) (226, 5, 5.00000000000000000000e-01) (226, 5, 5.00000000000000000000e-01) (226, 5, 5.00000000000000000000e-01) (226, 5, 5.00000000000000000000e-01) (226, 5, 5.00000000000000000000e-01) (226, 5, 5.00000000000000000000e-01) (226, 5, 5.00000000000000000000e-01) (226, 5, 5.00000000000000000000e-01) (226, 5, 5.00000000000000000000e-01) (226, 5, 5.00000000000000000000e-01) (226, 5, 5.00000000000000000000e-01) (226, 5, 5.00000000000000000000e-01) (226, 5, 5.00000000000000000000e-01) (226, 5, 5.00000000000000000000e-01) (226, 5, 5.00000000000000000000e-01) (226, 5, 5.00000000000000000000e-01) (226, 5, 5.00000000000000000000e-01) (226, 5, 5.00000000000000000000e-01) (226, 5, 5.00000000000000000000e-01) (226, 5, 5.00000000000000000000e-01) (226, 5, 5.00000000000000000000e-01) (226, 5, 5.00000000000000000000e-01) (226, 5, 5.00000000000000000000e-01) (226, 5, 5.00000000000000000000e-01) (226, 5, 5.00000000000000000000e-01) (226, 5, 5.00000000000000000000e-01) (226, 5, 5.00000000000000000000e-01) (226, 5, 5.00000000000000000000e-01) (226, 5, 5.00000000000000000000e-01) (226, 5, 5.00000000000000000000e-01) (226, 5, 5.00000000000000000000e-01) (226, 5, 5.00000000000000000000e-01) (226, 5, 5.00000000000000000000e-01) (226, 5, 5.00000000000000000000e-01) (226, 5, 5.00000000000000000000e-01) (226, 5, 5.00000000000000000000e-01) (226, 5, 5.00000000000000000000e-01) (226, 5, 5.00000000000000000000e-01) (226, 5, 5.00000000000000000000e-01) (226, 5, 5.00000000000000000000e-01) (226, 5, 5.00000000000000000000e-01) (226, 5, 5.00000000000000000000e-01) (226, 5, 5.00000000000000000000e-01) (226, 5, 5.00000000000000000000e-01) (226, 5, 5.00000000000000000000e-01) (226, 5, 5.00000000000000000000e-01) (226, 5, 5.00000000000000000000e-01) (226, 5, 5.00000000000000000000e-01) (226, 5, 5.00000000000000000000e-01) (226, 5, 5.00000000000000000000e-01) (226, 5, 5.00000000000000000000e-01) (226, 5, 5.00000000000000000000e-01) (226, 5, 5.00000000000000000000e-01) (226, 5, 5.00000000000000000000e-01) (226, 5, 5.00000000000000000000e-01) (226, 5, 5.00000000000000000000e-01) (226, 5, 5.00000000000000000000e-01) (226, 5, 5.00000000000000000000e-01) (226, 5, 5.00000000000000000000e-01) (226, 5, 5.00000000000000000000e-01) (226, 5, 5.00000000000000000000e-01) (226, 5, 5.00000000000000000000e-01) (226, 5, 5.00000000000000000000e-01) (226, 5, 5.00000000000000000000e-01) (226, 5, 5.00000000000000000000e-01) (226, 5, 5.00000000000000000000e-01) (226, 5, 5.00000000000000000000e-01) (226, 5, 5.00000000000000000000e-01) (226, 5, 5.00000000000000000000e-01) (226, 5, 5.00000000000000000000e-01) (226, 5, 5.00000000000000000000e-01) (226, 5, 5.00000000000000000000e-01) (226, 5, 5.00000000000000000000e-01) (226, 5, 5.00000000000000000000e-01) (226, 5, 5.00000000000000000000e-01) (226, 5, 5.00000000000000000000e-01) (226, 5, 5.00000000000000000000e-01) (226, 5, 5.00000000000000000000e-01) (226, 5, 5.00000000000000000000e-01) (226, 5, 5.00000000000000000000e-01) (226, 5, 5.00000000000000000000e-01) (226, 5, 5.00000000000000000000e-01) (226, 5, 5.00000000000000000000e-01) (226, 5, 5.00000000000000000000e-01) (226, 5, 5.00000000000000000000e-01) (226, 5, 5.00000000000000000000e-01) (226, 5, 5.00000000000000000000e-01) (226, 5, 5.00000000000000000000e-01) (226, 5, 5.00000000000000000000e-01) (226, 5, 5.00000000000000000000e-01) (226, 5, 5.00000000000000000000e-01) (226, 5, 5.00000000000000000000e-01) (226, 5, 5.00000000000000000000e-01) (226, 5, 5.00000000000000000000e-01) (226, 5, 5.00000000000000000000e-01) (226, 5, 5.00000000000000000000e-01) (226, 5, 5.00000000000000000000e-01) (226, 5, 5.00000000000000000000e-01) (226, 5, 5.00000000000000000000e-01) (226, 5, 5.00000000000000000000e-01) (226, 5, 5.00000000000000000000e-01) (226, 5, 5.00000000000000000000e-01) (226, 5, 5.00000000000000000000e-01) (226, 5, 5.00000000000000000000e-01) (226, 5, 5.00000000000000000000e-01) (226, 5, 5.00000000000000000000e-01) (226, 5, 5.00000000000000000000e-01) (226, 5, 5.00000000000000000000e-01) (226, 5, 5.00000000000000000000e-01) (226, 5, 5.00000000000000000000e-01) (226, 5, 5.00000000000000000000e-01) (226, 5, 5.00000000000000000000e-01) (226, 5, 5.00000000000000000000e-01) (226, 5, 5.00000000000000000000e-01) (226, 5, 5.00000000000000000000e-01) (226, 5, 5.00000000000000000000e-01) (226, 5, 5.00000000000000000000e-01) (226, 5, 5.00000000000000000000e-01) (226, 5, 5.00000000000000000000e-01) (226, 5, 5.00000000000000000000e-01) (226, 5, 5.00000000000000000000e-01) (226, 5, 5.00000000000000000000e-01) (226, 5, 5.00000000000000000000e-01) (226, 5, 5.00000000000000000000e-01) (226, 5, 5.00000000000000000000e-01) (226, 5, 5.00000000000000000000e-01) (226, 5, 5.00000000000000000000e-01) (226, 5, 5.00000000000000000000e-01) (226, 5, 5.00000000000000000000e-01) (226, 5, 5.00000000000000000000e-01) (226, 5, 5.00000000000000000000e-01) (226, 5, 5.00000000000000000000e-01) (226, 5, 5.00000000000000000000e-01) (226, 5, 5.00000000000000000000e-01) (226, 5, 5.00000000000000000000e-01) (226, 5, 5.00000000000000000000e-01) (226, 5, 5.00000000000000000000e-01) (226, 5, 5.00000000000000000000e-01) (226, 5, 5.00000000000000000000e-01) (226, 5, 5.00000000000000000000e-01) (226, 5, 5.00000000000000000000e-01) (226, 5, 5.00000000000000000000e-01) (226, 5, 5.00000000000000000000e-01) (226, 5, 5.00000000000000000000e-01) (226, 5, 5.00000000000000000000e-01) (226, 5, 5.00000000000000000000e-01) (226, 5, 5.00000000000000000000e-01) (226, 5, 5.00000000000000000000e-01) (226, 5, 5.00000000000000000000e-01) (226, 5, 5.00000000000000000000e-01) (226, 5, 5.00000000000000000000e-01) (226, 5, 5.00000000000000000000e-01) (226, 5, 5.00000000000000000000e-01) (226, 5, 5.00000000000000000000e-01) (226, 5, 5.00000000000000000000e-01) (226, 5, 5.00000000000000000000e-01) (226, 5, 5.00000000000000000000e-01) (226, 5, 5.00000000000000000000e-01) (226, 5, 5.00000000000000000000e-01) (226, 5, 5.00000000000000000000e-01) (226, 5, 5.00000000000000000000e-01) (226, 5, 5.00000000000000000000e-01) (226, 5, 5.00000000000000000000e-01) (226, 5, 5.00000000000000000000e-01) (226, 5, 5.00000000000000000000e-01) (226, 5, 5.00000000000000000000e-01) (226, 5, 5.00000000000000000000e-01) (226, 5, 5.00000000000000000000e-01) (226, 5, 5.00000000000000000000e-01) (226, 5, 5.00000000000000000000e-01) (226, 5, 5.00000000000000000000e-01) (226, 5, 5.00000000000000000000e-01) (226, 5, 5.00000000000000000000e-01) (226, 5, 5.00000000000000000000e-01) (226, 5, 5.00000000000000000000e-01) (226, 5, 5.00000000000000000000e-01) (226, 5, 5.00000000000000000000e-01) (226, 5, 5.00000000000000000000e-01) (226, 5, 5.00000000000000000000e-01) (226, 5, 5.00000000000000000000e-01) (226, 5, 5.00000000000000000000e-01) (226, 5, 5.00000000000000000000e-01) (0, 5, 0.00000000000000000000e+00) (227, 5, 5.00000000000000000000e-01) (227, 5, 5.00000000000000000000e-01) (227, 5, 5.00000000000000000000e-01) (227, 5, 5.00000000000000000000e-01) (227, 5, 5.00000000000000000000e-01) (227, 5, 5.00000000000000000000e-01) (227, 5, 5.00000000000000000000e-01) (0, 5, 0.00000000000000000000e+00) 
connections (connected_to_neuron, weight)=(0, -4.57250510756338143792e-02) (1, 1.14823834338397323673e-01) (2, 1.80235363801256542882e-01) (3, 2.91646490981546727128e-02) (4, -1.93123933806601394414e-01) (5, -2.82313138346915126764e-01) (6, -2.49411930919176072496e-01) (7, -2.88151451898942645435e-01) (8, -3.29408207668423325121e-01) (9, -2.14503200423809187170e-01) (10, -2.07542695058988369006e-01) (11, -2.55905173087803361476e-01) (12, -2.44070653971778100955e-01) (13, -2.11897801444819761096e-01) (14, -1.13361140319836795065e-01) (15, -5.59482623881777038632e-02) (16, -7.61545970139654720965e-02) (17, -7.68956256182134478827e-02) (18, -8.42489896965680218344e-02) (19, 6.88619102506105029704e-02) (20, 7.02183895756738375715e-03) (21, 6.85728198779183006906e-02) (22, -1.27435751335254789096e-02) (23, 1.57879351367054346356e-02) (24, -3.85919421387605279805e-02) (25, 2.51639570176698940118e-03) (26, 6.35147938652395188663e-02) (27, -9.06148976651012239003e-02) (28, -3.98011056415299505074e-02) (29, 7.87984422258074801437e-02) (30, 5.87519154028817922053e-02) (31, 1.24473034040288463298e-01) (32, 2.70455436925705339224e-01) (33, 5.27155902476661858413e-02) (34, 1.27002653471227966442e-01) (35, 2.03143638397793868666e-01) (36, 2.57026044560380931281e-02) (37, 9.01555624258585514008e-02) (38, 4.48785863900894796408e-02) (39, 3.74399600523035100408e-02) (40, 2.20542627628121101768e-02) (41, 6.89343189363126329638e-02) (42, -1.15906937586431210696e-01) (43, -8.33239049187110836225e-02) (44, -1.26670996905924232445e-01) (45, -2.13264681719572635199e-01) (46, -8.91519408382813183245e-02) (47, -1.89737139223455475445e-01) (48, -3.01729744256394705193e-01) (49, -1.73523210115763798500e-01) (50, -2.34315536295402943034e-01) (51, -1.22183079212726183882e-01) (52, -2.44654046366902050424e-01) (53, -1.55356217656005435312e-01) (54, -3.90002303538206751554e-01) (55, -3.28870430093076093758e-01) (56, -2.97395741334722130134e-01) (57, -4.30828415916296225685e-01) (58, -3.49680547157665888580e-01) (59, -3.95296739886714709744e-01) (60, -7.11819433132882650739e-01) (61, -8.62114999188486108572e-01) (62, -4.99056610162687208643e-01) (63, -5.28398413720108206526e-01) (64, -2.11052998040747841202e+00) (65, -8.12709421894588612822e-01) (66, -6.13123388712772854348e+00) (67, 2.42970500529345826562e-03) (68, -3.96441908476069804212e-02) (69, 3.06625276838700422388e+00) (70, 3.46622661518607225184e-02) (71, -2.42690259370119426618e-01) (72, -6.30910862209787259847e-02) (73, -1.85243273858213985950e-01) (74, -7.54923268246524142855e-02) (75, -1.35050752100639215314e-01) (76, -2.64691146554325962281e-01) (77, -1.80847668362098534800e-01) (78, -1.68100053048035436021e-01) (79, -6.04068482941359993776e-02) (80, -3.03481448770068565346e-02) (81, 5.56624375719504196902e-02) (82, -1.13661858562434991970e-01) (83, 3.82299475680378253450e-02) (84, 1.04007813740732025370e-02) (85, 1.16648149144995313953e-01) (86, -9.39138955848838608009e-02) (87, -2.95180178211032935576e-02) (88, -1.28868363299467714178e-01) (89, -1.40764311357772751998e-02) (90, -1.81948986700561615715e-01) (91, -9.50189669180944024296e-02) (92, -2.21182265232364949625e-01) (93, -1.93525868105164117194e-01) (94, -1.65986235043732915928e-01) (95, -2.64503036617783404694e-01) (96, -1.28591041505368514075e-01) (97, -2.07797684852200098549e-01) (98, -1.77106077993766097833e-01) (99, -6.61076934717366171412e-02) (100, -1.08187879466603617540e-01) (101, -2.63487014535191521603e-01) (102, -2.10160462536693987134e-01) (103, -2.31452373438613162593e-01) (104, -2.99187599050405317325e-01) (105, -2.52503897674900390502e-01) (106, -3.43533806531127805517e-01) (107, -4.02021879681923544059e-01) (108, -4.60277489576293608042e-01) (109, -5.48278866683230892143e-01) (110, -8.03489947160678341653e-01) (111, -2.78121801026450743421e+00) (112, -1.29965182203340812173e+00) (113, -4.02576196365956562317e+00) (114, -2.88598810123422810925e-01) (115, 3.08170940233767731709e-01) (116, 2.35969459223037497653e-01) (117, 1.83964871594490486650e-01) (118, 1.66311847820779790119e-01) (119, 3.53970354814185150794e-01) (120, 2.62583181966057399581e-01) (121, 3.14429842994115193999e-01) (122, 3.78620060553642112655e-01) (123, 4.77030828495504621856e+00) (124, 2.04078516652419539312e+00) (125, 4.14029401718536693711e-01) (126, 2.35578405655121947415e-01) (127, 2.25554841053106247539e-01) (128, 1.63777750137228367278e-01) (129, 4.37107966236354006373e-01) (130, 3.11006380150712025134e-01) (131, 2.78985229188963568259e-01) (132, 2.59933824726315931830e-01) (133, 7.97246945654684902038e-01) (134, 4.69007720233029556933e-01) (135, 5.21193210886405799975e-01) (136, 3.66685310215225712671e-01) (137, 4.46284082645690860502e-01) (138, 2.17483644629763800404e-01) (139, 9.33046830218757783371e-02) (140, 1.90705664981294265026e-01) (141, 3.97095823919126622581e-02) (142, -2.52563487978927948829e-02) (143, -3.25848361123183133392e-02) (144, -1.93240580724069258012e-02) (145, -1.75225769876175663242e-01) (146, -1.35578523171590636931e-01) (147, -1.15744752836859116085e-01) (148, -2.36141407273603581851e-01) (149, -2.36535904211132769204e-01) (150, -1.85224172173865747615e-01) (151, -2.25469223582056371713e-01) (152, -1.50691896160117855263e-01) (153, -1.15093464655388971751e-01) (154, -2.06544881362138527114e-01) (155, -8.66395579650350716738e-02) (156, -2.58347956623014018973e-01) (157, -2.33622351921119325580e-01) (158, -2.12577570014222366757e-01) (159, -1.91110242974454114240e-01) (160, -1.74658731928835797564e-01) (161, -1.28983654221648036398e-01) (162, -2.31629429778053230748e-01) (163, -2.66888758521642732724e-01) (164, -1.78694087293146258721e-01) (165, -2.33683806771063401486e-01) (166, -1.03390119540255551178e-01) (167, -1.20348619000286496949e-01) (168, -2.03464362625833880549e-02) (169, 3.93153784971618791566e-02) (170, 3.01213424572901400378e-01) (171, 4.88483073970157610777e-01) (172, 4.60717028985488996629e-01) (173, -7.16471311327238347122e-02) (174, -8.56003297262215856467e-02) (175, -6.50642622401000014776e-01) (176, -1.81298398754058287530e-01) (177, -1.36474592605082517549e-01) (178, -1.75306941306591940188e-01) (179, -4.59289119157523795245e-02) (180, -1.19722632487256785971e-01) (181, -9.60806953247917983063e-02) (182, -1.58582205342047283247e-01) (183, -3.02715957668510227130e-01) (184, -1.75246160395459898984e-01) (185, -1.48385321664945807330e-01) (186, -2.59357489761566584185e-01) (187, -1.61252530852659337057e-01) (188, -2.04559621854007278596e-01) (189, -1.34800120351068863922e-01) (190, -1.22946816280367771101e-01) (191, -2.13893028419709446686e-01) (192, -2.53020969643258153425e-01) (193, -2.05601544777826467092e-01) (194, -2.89224698766366195013e-01) (195, -2.63345332322026337568e-01) (196, -1.30515920811020896819e-01) (197, -1.26861486561557823549e-01) (198, -1.49521730147948089806e-01) (199, -2.35199676273636831825e-01) (200, 3.14603474868983461477e+01) (201, 1.21533993265210216173e+00) (202, 8.59360691157981304578e-01) (203, 3.34375276629809314866e-01) (204, -7.70468104855009938703e-02) (205, 9.32319140996511613872e-02) (206, -3.93544144226976796985e-02) (207, -1.15091470249176000551e-01) (208, 9.76426342514382650251e-02) (209, -1.79326198417832614884e-02) (210, -1.21905753336285241351e-01) (211, -6.68263851443997025648e-02) (212, -7.52299596095703793086e-02) (213, -1.41649337683054182824e-01) (214, -7.65194564245378905376e-02) (215, -1.41641302537867552758e-01) (216, -4.70015565659702982959e-02) (217, 1.11643552315267180486e-01) (218, -1.46542993939952439532e-03) (219, 4.74405660694107514375e-02) (220, 6.18992736604322205118e-02) (221, -1.05639871836772203384e-01) (222, -1.21600106814903421992e-01) (223, -1.82323057682003464297e-01) (224, -1.17324017255411888749e-01) (225, -8.94691748437004691352e-02) (0, 1.23904828504382988341e-01) (1, 8.29360121033714398076e-02) (2, 1.41642682752979143235e-01) (3, 9.15063234053108270905e-02) (4, 1.77562220105495827127e-01) (5, 2.03706868011738484459e-01) (6, 6.34031585621195187263e-02) (7, -6.59961237364188602061e-02) (8, -2.26904661392904327677e-01) (9, -9.00232532001834229174e-02) (10, -4.34462284333752765675e-02) (11, -5.70933739061540157511e-02) (12, 1.19500466678085726091e-01) (13, 6.56891876293957260868e-02) (14, 1.90003781213929467953e-01) (15, 6.05622565603973553316e-02) (16, 1.31696334929339964326e-01) (17, 6.18870100040786116913e-02) (18, -8.37519057255761922853e-01) (19, -2.58769683706707365189e+00) (20, -3.43910317122891551200e-01) (21, -1.64892040913668647129e+00) (22, -9.19719400837888612088e-01) (23, -2.85641623244087372591e-01) (24, -1.43436006262823156909e-02) (25, -1.57133070521281753562e-01) (26, -6.91480302464375085059e-02) (27, -1.04093278139626224665e-01) (28, -9.42707865758122820488e-02) (29, -1.68727499450506385203e-01) (30, -2.65965730950966892931e-02) (31, -1.22161310996024802082e-03) (32, 2.14811409102285723327e-03) (33, -7.71031902521534945327e-02) (34, -1.91616462906508133734e-01) (35, 8.85802952021980394282e-02) (36, 1.05718899324648576976e-01) (37, 8.50348460199691208450e-02) (38, 1.04848106284825215440e-01) (39, 1.41013670436705762512e-01) (40, 1.87948456868428120936e-01) (41, 1.72195549166192590773e-01) (42, 2.17021545741713839384e-01) (43, 1.79966725800200455510e-01) (44, 1.71258663612572359369e-01) (45, 2.37600827650030710370e-01) (46, 2.10561059950028245380e-01) (47, 1.04171480236902647132e-01) (48, 2.35199541794237465542e-01) (49, 1.74526309734092111015e-02) (50, 1.58789776467501198010e-01) (51, -6.16147586996729987319e-02) (52, -1.20249865029256802762e-01) (53, -1.20674250057835510952e-01) (54, 4.62770050767049162532e-02) (55, 1.24327937986438652462e-01) (56, 1.55043399023724493002e-01) (57, -1.39976578566949561022e-01) (58, -5.65949135223149241147e-02) (59, -9.53069896298481128438e-02) (60, 1.15731854576810302970e-01) (61, 1.96027566982937218043e-01) (62, 1.33508997571790910541e-01) (63, 2.32788816062265258022e-01) (64, 1.60842393285269280589e-01) (65, 2.06238490392294998577e-01) (66, 1.83657844630665145758e-01) (67, 1.35087869293461948494e-01) (68, -9.04849806506101972392e-02) (69, -2.37361196499355636691e-01) (70, -1.27353765893613302129e-01) (71, -8.68417616687795768105e-02) (72, -3.67788684406521598769e-02) (73, 8.77696376462561989040e-02) (74, 1.93660560642884491123e-02) (75, 6.94615897977851615153e-02) (76, 4.51461584046624897493e-02) (77, 3.48659133965907169772e-02) (78, -8.74339255780138963070e-02) (79, -5.52733012698613662694e-02) (80, -8.31239097932474566011e-03) (81, -4.38997561966024130164e-02) (82, 1.44176947783305857420e-02) (83, -1.61581527500044563883e-01) (84, 1.22213668255110582961e-01) (85, -2.73439087077319634145e-02) (86, 3.05609655369774302347e-02) (87, 1.31524669564019036638e-01) (88, 6.61572827613456926343e-02) (89, -4.04282146733301282759e-03) (90, 9.22004657819723294487e-02) (91, 2.10327315160269312511e-01) (92, 2.07058503641821239905e-01) (93, 1.76177687708972074976e-01) (94, 1.88740074490477242886e-02) (95, 1.43736429961120071308e-01) (96, 1.87893720202829489496e-01) (97, 9.58654382994945236662e-02) (98, 5.98224784345316243361e-02) (99, -7.20146149922282208244e-02) (100, 1.46879262840559715597e-01) (101, 4.14867583388154048674e-02) (102, -1.30440663311071236574e-01) (103, -1.54538507656735185636e-01) (104, -1.52222080802059928084e-01) (105, 8.23672627647282912244e-02) (106, -4.49468677270285499326e-02) (107, -2.62832684906398272862e-01) (108, -3.20489429758350874433e-01) (109, -2.81410197594453292957e-01) (110, -1.67691696114700361520e-01) (111, -6.04630846154165402240e-01) (112, -1.10383230056037939804e+00) (113, 8.29861506191441195002e-02) (114, 1.48951142891353638387e-01) (115, -6.13181508463848556900e-01) (116, -6.25983786970658928617e-01) (117, 2.34906047328385936268e-01) (118, -2.67367363488164866414e-01) (119, -1.30815521991823424663e+00) (120, -1.40543603810457974623e-02) (121, 6.52100056764500557449e-01) (122, 5.81088549237830029326e-02) (123, 2.03667112716759218793e-01) (124, 3.05060488427979326076e+00) (125, -1.34137883357023501851e+00) (126, 1.07364702871612621715e-01) (127, 1.02564190700472956941e-01) (128, 8.99429383432804319121e-02) (129, -2.06665313678240300521e-02) (130, 4.40457317705440151712e-02) (131, 2.97040476387402385683e-02) (132, -1.27626294223573355513e-01) (133, -3.75425940388549261861e-01) (134, 1.35367048119234029135e-01) (135, -2.30939317777314398472e-02) (136, -1.17730644876354179074e-02) (137, -5.45540495289730115180e-02) (138, -4.38393688787666116480e-02) (139, 8.78112670612774676160e-03) (140, 1.88727122948073700037e-01) (141, 6.75552100574098729480e-02) (142, 1.07242190852097366016e-01) (143, 4.78163581143393398576e-02) (144, 6.01302906764011810270e-02) (145, 2.18304069172648468333e-01) (146, 2.08562645401663138145e-01) (147, 3.68516487555946223309e-02) (148, 7.73730085368461578677e-02) (149, -5.86770948502427919236e-02) (150, 2.11833956641517801023e-01) (151, 8.71458101602820417453e-02) (152, 2.23222436776324278940e-01) (153, 5.01469405424759401280e-02) (154, 1.08450345257863220438e-01) (155, -2.15977755549349309527e-02) (156, -4.35477888628376524904e-02) (157, -2.99750296869754923740e-03) (158, 1.31099466271922177052e-01) (159, 2.05042179009597980155e-01) (160, 8.53149376295809780402e-02) (161, 9.88355074802635125142e-02) (162, 4.39710029602989743713e-02) (163, -4.44591834737705429714e-03) (164, -7.86956922731682495531e-02) (165, -7.66425575064103442591e-02) (166, -4.58156846224404903922e-02) (167, -1.62228633263739457915e-01) (168, -1.69084165554296173006e-01) (169, -9.85402894563549708318e-02) (170, -1.06767444151987314638e-01) (171, -1.03191494408345046940e-01) (172, -1.03982266164828474064e-01) (173, 2.26833861543922869763e-02) (174, -1.29315671253573571953e-01) (175, 1.83695533685031708870e+00) (176, 9.03086129779538282492e-01) (177, 4.02359421344816559074e-01) (178, 5.23448759929934892554e-01) (179, -3.12103506103810594829e-02) (180, 5.94408910688167466119e-02) (181, -6.73329631942713169312e-02) (182, 9.11489660531338008465e-03) (183, -8.01122296612425677242e-02) (184, -1.13755414373407914841e-01) (185, -3.67469221285687680512e-02) (186, -3.10104058002267438110e-02) (187, -2.90712496144558546485e-02) (188, 1.72068485130244697157e-01) (189, 4.88416741245411359373e-02) (190, 4.54612199501004815572e-02) (191, -1.61404665410627534694e-01) (192, -1.64472661455867478347e-03) (193, -9.24179842996584455239e-02) (194, 1.21984339653841335899e-02) (195, -4.69043192313486900780e-02) (196, 3.05082339002288663310e-02) (197, -9.48217081892889085415e-02) (198, -1.08697041827628265720e-01) (199, -1.38120199624110734371e-01) (200, 8.39643758828259834104e+00) (201, 2.70102036800890887847e+00) (202, 1.34511403378825145083e+00) (203, 2.19008071828214934129e+00) (204, 3.16181497916426967887e-01) (205, -1.71406637256988836349e+00) (206, -1.39226455476583355075e-01) (207, -1.06455091729277917523e-01) (208, -1.03493807804936943651e-01) (209, 1.29323894604091133020e-01) (210, 2.04584369007605459956e-01) (211, 2.34625218570111676586e-01) (212, 1.27190107977657951288e-01) (213, 1.80816398834674429974e-01) (214, 2.07692756526341691659e-02) (215, 1.59231324566987852975e-01) (216, -1.33578476853184135997e-01) (217, -9.48692028142402998814e-02) (218, -8.23568393207961962910e-02) (219, 8.01379124638247619661e-03) (220, -1.09513456003856122362e-02) (221, -1.50355307559836171016e-01) (222, -1.06186882532511919774e-01) (223, 8.05554247791736253992e-03) (224, 1.62269518937652942880e-02) (225, -1.37748135828182877161e-01) (0, -3.25951945868768744319e-01) (1, 1.79866109431717109690e-02) (2, 1.61102228443099002031e-02) (3, 1.13202001722542869300e-01) (4, 8.58041500955259717198e-02) (5, 1.45153679429166626580e-01) (6, 3.91065488360635080123e-02) (7, 1.79002225193928860003e-01) (8, 1.27650798523495451198e-01) (9, 1.26833998386834650995e-01) (10, 7.81426885171084689707e-02) (11, 4.61836925710224777131e-02) (12, 1.89489172680347178757e-01) (13, 8.96464855910674984774e-02) (14, 1.05015158324619689578e-01) (15, 9.43248090904957731118e-02) (16, 2.20216225583404201505e-02) (17, -4.49466582022036570399e-03) (18, -5.24176328457984924691e-02) (19, -1.45968869568975201378e-01) (20, -8.21538764985675351582e-01) (21, -1.51172527869763567709e-01) (22, -9.16307615181635448653e-02) (23, -6.38929907672070029889e-02) (24, -1.41792339324316424287e-01) (25, -5.63061552434492451624e+00) (26, -1.18265025972816059663e-01) (27, -1.64512241096903794046e-01) (28, -2.50877281474946089990e-01) (29, -1.30312425633453188301e-01) (30, -7.03583452690991872913e-01) (31, -1.09270341931070047448e-01) (32, 1.94374890576267250752e-02) (33, 2.99623089143551679658e-02) (34, 6.04244986181854890073e-02) (35, 3.99905177274944845234e-02) (36, -1.31845745941804926016e-01) (37, -1.22431799167314572796e-01) (38, -8.29860728267440422856e-02) (39, -1.54031560202019440764e-01) (40, -1.80486195936051418975e-01) (41, -1.07526055414537996535e-01) (42, -8.12050236020346177801e-02) (43, -1.10116054090374851371e-02) (44, -1.91388111493774798477e-01) (45, -1.16126153168957021306e-02) (46, -1.41613863923575722392e-01) (47, -2.87725414859505632115e-02) (48, -8.14253655371921340744e-03) (49, -8.52712336728336794955e-03) (50, 8.29506740233952322150e-02) (51, -7.33858242138121091847e-03) (52, 1.26648654737914423407e-01) (53, 1.06813285819326628245e-01) (54, 1.91935250259479717183e-01) (55, 2.11035076859627329648e-01) (56, 1.87072073153154327940e-01) (57, 1.43265382866403584439e-01) (58, 2.08518217156932611500e-01) (59, 2.28490964737697005438e-01) (60, 1.45667955785794528412e-01) (61, 2.15028220551409465777e-01) (62, 2.54149641016027383333e-01) (63, -1.74274125659703224556e-02) (64, -1.63504550744383581051e-01) (65, -9.68289514659968153509e-01) (66, 1.08823215790126680280e-02) (67, 1.56895460413028597912e+00) (68, 2.04978233501972278985e-01) (69, 9.19349213196623965549e-02) (70, 5.71075601850971015239e+00) (71, 1.53547901691694438364e-01) (72, 1.10446300795721130683e+00) (73, 8.41111910627148517960e-01) (74, 4.92706564783583600420e-01) (75, 2.06766134439759080577e-01) (76, 3.44852569587235979753e-01) (77, 4.98932147471884357426e-01) (78, 1.08825744914713362643e-01) (79, 6.94293140983091305873e-02) (80, -2.15083164170054486064e+00) (81, -1.18788516429254073503e-01) (82, -7.45501904443090640529e-02) (83, -1.80544266267479158738e-01) (84, 6.45767941692526742381e-02) (85, -1.69065093353070294846e-01) (86, -3.95113175392378945805e-02) (87, 3.51652122168040481842e-02) (88, 7.39406888606933404562e-02) (89, -5.77498990844306434034e-02) (90, -4.48312523242071631069e-02) (91, -9.61013901606931203458e-02) (92, -8.87966264491552303983e-02) (93, -9.06754769983280500822e-02) (94, -2.02049313123944418447e-01) (95, -3.02356468529402566681e-01) (96, -2.42623740718490604751e-01) (97, -1.15005321216861647327e-01) (98, 6.65560780177412852909e-02) (99, -6.03941348520126153332e-03) (100, -3.22507966763131911914e-02) (101, 9.31311959075430129129e-02) (102, 1.17269997790273167171e-01) (103, 7.40586856157015582802e-02) (104, 1.71114822918738751500e-01) (105, 1.64868387981148001309e-01) (106, 6.29505176792682918929e-02) (107, 8.05238242171728638152e-03) (108, 9.08730636229242681734e-03) (109, 1.61982004251299438469e-01) (110, 2.54431098213013517917e-02) (111, 1.95977889389271631160e-02) (112, 3.36030204091415166112e-02) (113, 4.49634071244703059644e-02) (114, -1.69078936086936637562e-01) (115, -7.92643371448681666180e+00) (116, -1.94913459918878761989e+00) (117, 2.10403052981337035376e+00) (118, 7.33272135158800519861e+00) (119, -4.72643187961437449829e-01) (120, -5.07434542200073668283e+00) (121, 3.74209870091698343364e-02) (122, 1.46580866339567634782e+01) (123, 2.88618829633059670314e+00) (124, 2.33633302753883637104e-01) (125, -5.79321917104442474233e-01) (126, 5.10200354283333212813e-01) (127, 1.08145986006696359638e+00) (128, -4.38298517738830439860e-02) (129, -1.19563666222909614767e+00) (130, -2.07863746980116337326e-01) (131, 5.75365962922048779227e-01) (132, 2.54290398554093233230e+00) (133, 1.10318284248253198343e-01) (134, 2.52330082515318659953e-02) (135, -1.29050513206446088033e-01) (136, -3.59107819871010647272e-01) (137, 9.33820928858032917041e-02) (138, 1.07681259588685310224e-01) (139, -5.59752675415212952448e-02) (140, 8.05191044803149208464e-02) (141, 1.39226795177607803877e-01) (142, 6.13691435594415635180e-02) (143, 1.19088209230491150897e-02) (144, -7.83308221176551022769e-02) (145, -1.66315603812160900388e-02) (146, -1.86484946593028333428e-01) (147, -1.32671397682192493406e-01) (148, 8.28717124141179345420e-02) (149, -7.27357626141273277964e-02) (150, -3.75939408999289475036e-03) (151, -6.76302928808742986888e-02) (152, 1.31234927313745919353e-01) (153, -6.51788834632238550659e-02) (154, 7.09314490627109828225e-02) (155, 1.73401891003651636991e-01) (156, 9.63695667732160782259e-02) (157, 1.32720577651519094919e-01) (158, 1.72588956282825195521e-02) (159, 9.24991679959454859983e-02) (160, -1.36435665164180291997e-01) (161, -9.09575133323978733679e-03) (162, -2.88418960515716138460e-01) (163, -6.59845182646882494337e-02) (164, 8.85204481918757668524e-02) (165, 5.79673032969494229222e-03) (166, 6.15511043889009623609e-02) (167, 3.27987275062475505671e-02) (168, -9.45960775129848913112e-02) (169, -7.59430572881335808066e-02) (170, 5.19292254458410540430e-02) (171, 6.63013917015112773379e-03) (172, 4.70059889726819196687e-02) (173, -1.67380158337938136914e-02) (174, -1.05753663162577740686e-01) (175, -1.26865229784023503257e+00) (176, -5.43256174256099289011e-02) (177, 1.84858545660191775362e-01) (178, 3.02691178704323993198e-01) (179, 2.84525775966959448837e+00) (180, 2.49229314046792577164e-01) (181, 1.88160003104266948526e-01) (182, 7.73813467179342989732e-02) (183, 1.54504787069827065338e-01) (184, 1.29801233409099603389e-01) (185, -1.17254740447848004870e-01) (186, -1.04870083923910048518e-01) (187, -7.99715838035498643999e-02) (188, 3.26991588165913217752e-04) (189, -6.21408340896805119757e-02) (190, 1.97416634669717566686e-01) (191, 1.65487557631056492191e-01) (192, 2.00902189157695143518e-01) (193, 1.50368687807198753159e-01) (194, -5.14428947560475469114e-02) (195, -2.07408019020290969314e-02) (196, 8.78296693904422887123e-02) (197, -6.60259550612230655675e-02) (198, 2.01121026800394689382e-02) (199, -3.57140138899066719724e-02) (200, -1.56928410584009920825e+01) (201, -2.13132233278760807593e+00) (202, 2.76784074143283827241e-02) (203, 4.55873050987316619231e-01) (204, 4.72196149584163726853e-01) (205, 2.83214704188856636335e+00) (206, 3.17236731602416166531e-01) (207, 2.70504782220857609154e-01) (208, 2.25762773305204333951e-01) (209, 8.35014021588158517062e-02) (210, -6.28113353347620528844e-01) (211, -2.33936358741978406295e-01) (212, -7.21282309179689939960e-02) (213, -5.60735080118890324985e-02) (214, 2.74143379291861111202e-01) (215, 1.19264509431531648409e-01) (216, 1.38527369035741476644e-01) (217, 1.07597435518048109571e-01) (218, 1.72933308340417132842e-02) (219, 2.10015707146703756170e-02) (220, -2.97971124015216325132e-02) (221, 1.44946057943758366271e-01) (222, 4.46299673098601648591e-02) (223, -1.87067780069759860562e-02) (224, 1.24576583035761800922e-01) (225, -1.34139679896428387629e-01) (0, 3.41758025355453243233e-01) (1, 1.38920927127460042128e-01) (2, 1.76974591113756019034e-01) (3, 2.82744367416760733480e-01) (4, 1.22177515086650950726e-01) (5, 1.78195818520555743225e-01) (6, 2.07140689920646159372e-01) (7, 8.06442711301564307824e-02) (8, 2.39868143920636739397e-01) (9, 2.05957504299422056171e-01) (10, 2.58898932206618748175e-01) (11, 1.21062966722913251116e-01) (12, 8.41177391245790939678e-02) (13, 2.10328358226149314536e-01) (14, 1.42953087529126277033e-01) (15, 1.48405420498524065476e-01) (16, 3.05729301955113330624e-01) (17, 1.64761321513527903004e-01) (18, 1.03893011382523103858e-01) (19, 2.62951881758538175138e-01) (20, 2.36062671371379678709e-01) (21, 3.09617403696742066188e-01) (22, 2.65469287352931127000e-01) (23, 3.64241085944365772242e-01) (24, 3.83892755977707333948e-01) (25, 3.21945086066226571209e-01) (26, 2.15557226712412508540e-01) (27, 2.64598421783309445399e-01) (28, 3.54837762962294744895e-01) (29, 4.76095932576009850390e-01) (30, 2.17019028540106767577e-01) (31, 2.23872773207190567391e-01) (32, 2.24554387021938972602e-01) (33, 1.31210204148165449078e-01) (34, 9.79279332891295345442e-02) (35, 1.91958357101379040177e-01) (36, 1.12389307973314353517e-01) (37, 1.01465857221993846493e-01) (38, 3.39681648535531260924e-02) (39, 7.92918453543791368343e-02) (40, -1.37682664972081439392e-02) (41, 8.89797324014753206189e-03) (42, -5.83102571516181666933e-02) (43, -1.06368501089869393894e-01) (44, -1.88820585498444770689e-01) (45, -8.54897655853071175569e-02) (46, -3.94802286992832832113e-02) (47, -1.89381036316242958029e-02) (48, 2.02123002007580862549e-02) (49, -2.39630293710510512695e-02) (50, 2.16474715189999833420e-01) (51, 3.21822856766818266028e-01) (52, 2.92119761993723692228e-01) (53, 1.35259877155378738234e-01) (54, 1.25878067917919833629e-01) (55, 1.87110226727865008867e-02) (56, -4.88927249146843545535e-03) (57, 1.21551795523608341387e-01) (58, 9.51961366011472437387e-02) (59, 2.45105540474653882388e-01) (60, 1.04755485912366858026e-01) (61, 1.52426624236826013803e-01) (62, 1.27421437743475862714e-01) (63, 1.64708911081482112237e-01) (64, 3.25833900995843028792e-02) (65, -1.10940029728078717874e-01) (66, 1.62032186570586045349e-01) (67, 4.18311516294736229771e-01) (68, -7.17257067450539909093e-02) (69, 2.53206225194505418763e-01) (70, 4.15613688034897066359e-01) (71, -2.26812553033679323300e-02) (72, 1.30522550847442714295e-01) (73, 1.82805479264005685258e-02) (74, 2.59500417925433490840e-01) (75, 3.04398185907855722832e-01) (76, 3.50319998421380840448e-01) (77, 2.45341374717634119751e-01) (78, -7.89439114611892658879e-03) (79, 4.11632515005187493706e-02) (80, 7.11067220703083119338e-02) (81, -5.14012095110325181735e-02) (82, 1.90690629631909303043e-01) (83, 1.13978966398924297376e-01) (84, 1.97003284761189667584e-01) (85, 2.29343283655315616221e-01) (86, 1.36692459122119469583e-01) (87, 2.77981790373899084745e-01) (88, 1.23013324607165769331e-01) (89, 8.88305130434777386050e-03) (90, 1.33962454444579048829e-01) (91, -7.17936871961058487024e-02) (92, -1.07618850558780135285e-01) (93, -1.34274735130508582337e-01) (94, -6.27293837328280201593e-02) (95, 4.66640064834214080003e-02) (96, -1.28284276613706161446e-02) (97, -6.28512187816565037757e-02) (98, 2.58553886350275166639e-02) (99, 1.77062841036008333795e-01) (100, 4.45567186342202048444e-01) (101, 2.40866382959032870881e-01) (102, 3.47844601935866859499e-01) (103, 3.07116353455309520903e-02) (104, 1.17650708245982157929e-01) (105, -2.11609717736969578372e-02) (106, 8.09875162267079257150e-02) (107, 2.60943003245136528889e-01) (108, 2.57186543323992433674e-01) (109, 5.27556033648347716403e-02) (110, -3.60370741946798101366e-03) (111, -1.34862854110024393134e-02) (112, -9.23715099401010569791e-02) (113, -8.39502797416816076703e-02) (114, 2.52228433848458166722e-01) (115, -4.31142411339408782034e-01) (116, -2.38177423904720020342e-01) (117, 2.54057458276310710321e-01) (118, -5.03708259204814101651e-01) (119, 6.27308390736367599283e-02) (120, 4.49609034472383747860e-03) (121, -8.17486226880487637514e-02) (122, 3.81398170610304176886e-01) (123, 4.07557351652283517129e-01) (124, 2.16935388742495238734e-01) (125, 3.07931682336134646127e-02) (126, -5.00952400741166758991e-01) (127, -5.99055974776761868128e-01) (128, -4.42282771405651753405e-01) (129, -5.60264804339519750798e-01) (130, -1.07715092593057581993e+00) (131, -7.83361725683337728476e-01) (132, -3.49304074690213184340e-01) (133, -1.69228429528440216245e+00) (134, -2.39158279186565514429e-01) (135, 1.02487671232986146674e-01) (136, 8.63518974446880055451e-02) (137, 1.49031599463343072953e-01) (138, 8.05190873129950496212e-02) (139, 1.29797006703697981322e-01) (140, 1.50354870866387685391e-01) (141, 2.22167812840293910082e-01) (142, 1.01713369734335354333e-01) (143, -7.05423802784822667755e-02) (144, 7.05090722002760517118e-02) (145, 1.46505414476720847300e-02) (146, 1.34250647709127313156e-01) (147, -3.73768845873045651995e-02) (148, 6.50110212486219446459e-02) (149, 1.39819766826465713416e-01) (150, 1.90292542414768395265e-01) (151, 1.51696107855588180335e-01) (152, 2.69251334540969500253e-01) (153, 1.85653201414533786107e-01) (154, 1.86009883029136402488e-01) (155, 1.73479374622281301566e-01) (156, 1.64275769274456306945e-01) (157, 1.61025182630521346283e-01) (158, 3.08519557596312166137e-01) (159, 4.87588672471088863114e-02) (160, 5.54004640462545279445e-04) (161, -1.33748328057489498932e-02) (162, -1.22394225061242034602e-01) (163, 6.35152180535036303688e-02) (164, 7.84755148336039459744e-02) (165, 8.47434393647586714504e-02) (166, 1.90079451901626284016e-01) (167, 1.06163490068669069677e-01) (168, 1.99788442217052220062e-01) (169, 1.63112757633196658880e-01) (170, 1.36580975964846862425e-01) (171, 1.53093397165161987372e-01) (172, 1.17615399342501897317e-01) (173, 2.85366429485023442858e-01) (174, -7.25647091439649005729e-03) (175, -5.35911568203403687605e-01) (176, -6.97972197184438813977e-01) (177, 2.55498148665029733984e-01) (178, 1.56594618515195321828e-01) (179, 3.46359921346289234556e-01) (180, 4.73105927849376828309e-02) (181, 1.80767434386033321037e-01) (182, 2.41606991535170567698e-01) (183, 2.20335493896198858499e-01) (184, 2.07370561809851000623e-01) (185, 2.10020956990124188328e-04) (186, -4.64422413432654390686e-02) (187, -1.02161690521957709138e-02) (188, 9.74217108233787210114e-02) (189, 8.98781655476929564053e-02) (190, 3.85796563777009299256e-02) (191, 2.20213301817373641178e-01) (192, 2.21036870309852390148e-01) (193, 4.04402331007430171361e-02) (194, 7.46817829021630824604e-03) (195, -2.27494872469114484126e-02) (196, -1.27557386924166765718e-01) (197, 6.39946174842833948038e-02) (198, 1.25005535759237590421e-01) (199, 4.84754335629012517161e-02) (200, -2.20681264901448070948e-01) (201, 1.42820695521804874595e-01) (202, 3.72919702573609179730e-02) (203, 1.84622727224905386345e-01) (204, 3.22904635688954777528e-01) (205, -1.95954204650176794233e-01) (206, -1.17076774143993006527e-01) (207, 1.95897496212122879111e-01) (208, 2.24860618422266927974e-01) (209, 1.97823837242409927839e-01) (210, -3.02412754158274364735e-03) (211, 1.28462109727710827034e-01) (212, 1.29546616651229684614e-01) (213, -9.51288465108378854251e-03) (214, -6.83412906396667768627e-02) (215, 1.35774083765161146520e-01) (216, 2.40960863887118847959e-01) (217, 1.40638452086176979350e-01) (218, 2.38523912657397668680e-01) (219, 2.37831333219555546288e-01) (220, 2.06811570078491074876e-01) (221, 2.06159332601566047671e-01) (222, 1.15987463256059603056e-01) (223, 2.79519258035227313730e-01) (224, 1.56472768281671920088e-01) (225, 1.39090448845685388246e-01) (0, 2.37360583457559115583e-01) (1, 8.85566299024894559855e-02) (2, 6.52103203637179051899e-02) (3, 1.74939958031499143143e-01) (4, 3.17875499528759014600e-02) (5, 3.56926725811827910695e-02) (6, -4.71047263314964895220e-02) (7, 7.84040896279755150644e-02) (8, 7.47683650636540991785e-02) (9, -7.17676833030113647816e-02) (10, -9.14420983364722800291e-02) (11, -4.81659829372505024492e-02) (12, -6.01959203140398219078e-02) (13, -1.55592195113434361708e-01) (14, -4.72541054925329981340e-02) (15, -1.81554584295746418432e-01) (16, -5.48812065590181044628e-02) (17, -8.58531792561890716442e-02) (18, -5.27329835244036565500e-02) (19, -2.03134775148845841963e-01) (20, -3.43418441377299904493e-02) (21, -1.84639993932065649140e-01) (22, -1.16866994025110387811e-01) (23, -1.51668381946068853150e-01) (24, -2.15705216357891305101e-01) (25, -1.04341316238134806937e-01) (26, -2.40868340757660809315e-01) (27, -1.80812646895879974851e-01) (28, -1.72139237672120165579e-01) (29, -1.06672372777414134482e-01) (30, -3.00173008212991865307e-01) (31, -5.67130474170773474230e-02) (32, -6.95466190430014119528e-02) (33, -2.63977356325758166777e-02) (34, -7.03375817343775272539e-02) (35, 7.09762559065294645899e-02) (36, 8.13364489853948824383e-02) (37, 1.38553657595530982372e-01) (38, 4.99879673329773482893e-03) (39, 1.13786804398896379542e-01) (40, 1.39092481630932740533e-01) (41, 1.13295530272515737602e-01) (42, 6.97787892005840432175e-02) (43, -2.17484243243692212944e-02) (44, 1.24694728119207010053e-01) (45, 1.28012115844943000220e-02) (46, 2.93796884354680307161e-02) (47, 5.31230375273719912510e-02) (48, 1.75210302438891407650e-01) (49, 8.79819593739000205268e-02) (50, 8.00671606714374040070e-02) (51, -5.16064903815642225804e-03) (52, 7.84425001919499403913e-02) (53, 9.86950373659681301497e-02) (54, -9.65143976949255910647e-02) (55, -4.85962907410430397515e-02) (56, -9.58535431131799127435e-03) (57, -9.93887775386803340449e-02) (58, -2.90519930690951375118e-02) (59, -5.78207783198731797847e-02) (60, -1.36443334454013825985e-01) (61, -1.90952752186529734271e-03) (62, -7.06779228051187397019e-02) (63, -1.80046494477263008260e-01) (64, -1.96001913209302797148e-01) (65, -1.26211057362288325834e-01) (66, -2.11520239723081898697e-01) (67, -2.06888972799298881400e-01) (68, -1.06370373121700348418e-01) (69, -2.90425314072538624799e-02) (70, -5.74554608936168748068e-02) (71, -4.79418817544021158561e-02) (72, -8.45051000880434194373e-02) (73, -1.07999076595531887102e-01) (74, -1.19307254240846344340e-01) (75, -1.85642085789676947183e-01) (76, -8.04028048955764684802e-02) (77, 9.55104899731426320794e-04) (78, 9.60701800342749490103e-02) (79, -6.59594730135232149015e-02) (80, 2.52489080429667694938e-02) (81, 6.28977653451566059983e-02) (82, 1.07623732856431980620e-01) (83, -1.34629477961328014590e-02) (84, 6.12615713969399174749e-03) (85, 2.06867595156607145257e-02) (86, 9.45319022361836291957e-02) (87, 2.23586848720430664272e-01) (88, 1.37653639885538553456e-01) (89, 8.02999624543929424458e-02) (90, 1.18380441621045578993e-01) (91, 7.99099251698626722451e-02) (92, -5.52090648775649395219e-02) (93, -1.95263532676907304586e-02) (94, 9.37500777401275610379e-03) (95, -3.69500871290918408985e-02) (96, 1.15803555635736243890e-01) (97, -3.45303597686538107925e-02) (98, 1.55208922058328278870e-02) (99, 1.05025081640958931062e-01) (100, 2.25438540259755459960e-01) (101, 1.77137272122749156456e-01) (102, 1.62327950375935392557e-01) (103, 1.42065284866691565746e-01) (104, -6.23665831779467855212e-02) (105, 3.31795318815025080950e-02) (106, -1.01150536851114219994e-01) (107, -8.02107845553374880498e-03) (108, -5.88122250362629328535e-02) (109, -1.47364047282396104510e-01) (110, -4.42987235644671933921e-02) (111, -2.94745795873835592094e-01) (112, -3.07987831953491331127e-01) (113, -1.55699457148677528062e-01) (114, -1.88290954444328362261e-01) (115, -2.51328095019780928254e-01) (116, -3.02956907327916080686e-01) (117, -1.19922818032772229846e-01) (118, -5.83251025013807655739e-01) (119, -3.49601898444364456164e-01) (120, -3.19114888359164183829e-01) (121, -5.84260046527175669340e-01) (122, -4.34550524492340606297e-02) (123, -5.26466305476546297948e-02) (124, -2.22117607042161463449e-01) (125, -2.14041276139345565399e-01) (126, -2.59930562166901080179e-01) (127, -2.61629809942969249192e-01) (128, -7.09644494655954222173e-02) (129, -2.07262696876588187189e-01) (130, 4.48347160186350485178e-02) (131, 3.35055515316912466695e-01) (132, 4.30778354143625114014e-02) (133, -5.75264497606817637454e-01) (134, -1.44657074264851248646e-01) (135, -9.60830249869226299397e-02) (136, -1.10947173796463356699e-02) (137, -5.47531728179111859545e-03) (138, 1.14876170992402396043e-01) (139, 1.82556159853914573565e-01) (140, 9.00146089174005126221e-02) (141, 5.12150864939417971300e-02) (142, 1.15280730681529691717e-01) (143, 6.25461031652637666767e-02) (144, 1.36044649978292464532e-01) (145, 5.90309551462638026909e-02) (146, 9.94061235515404234553e-02) (147, -1.74380066079632065068e-02) (148, -5.04587277993837277079e-02) (149, -2.75443461948856153920e-02) (150, 1.02119345763016511341e-01) (151, -3.79276314581770135348e-02) (152, 2.90370831855985209180e-02) (153, 1.04347692210494585874e-01) (154, 1.40689273301131166985e-03) (155, -3.66428406120845942540e-02) (156, -1.32056025645353892345e-02) (157, -6.06513321725740475743e-02) (158, 1.27916530034365122370e-01) (159, -1.08678965650586656366e-01) (160, -2.28046403697024835378e-01) (161, -8.46533526391167329139e-02) (162, -1.67027490466353484289e-01) (163, -5.82406762128806487766e-02) (164, 3.52532918568018022176e-02) (165, -4.96662308155150430955e-02) (166, -8.72382647123524507249e-02) (167, 7.42939283579371889665e-03) (168, 8.95814543486801173611e-02) (169, 2.22639963463119316955e-02) (170, 1.79067640270783673406e-01) (171, 2.70115785732992011448e-02) (172, 2.12060500545081270785e-01) (173, 1.11771070880825496019e-01) (174, 9.91516580658733104325e-02) (175, 6.28746019236923303630e-01) (176, 3.35237636368398539410e-01) (177, 1.65730071892630559383e-01) (178, 1.16473304056816870378e-01) (179, -4.78415076977197137320e-02) (180, -5.42420430132154324232e-02) (181, 4.33317434025280306953e-02) (182, -2.19583076999692428100e-01) (183, -8.98079632145886291861e-02) (184, -1.93518631417058190047e-01) (185, -7.81156977166263116752e-02) (186, -2.16308075890441903200e-01) (187, -2.32430111303504494114e-01) (188, -1.45915395161811012326e-01) (189, -2.16076085535450240771e-01) (190, 4.68744283903478123343e-02) (191, -9.39349595579884628915e-03) (192, 1.77427371562331376298e-01) (193, 4.61901283091966444183e-02) (194, 1.27468773963280795902e-01) (195, 5.63938322167302844012e-02) (196, 1.50905311650541745783e-01) (197, 2.12776221576695373505e-01) (198, 2.17246531901154421584e-01) (199, 1.04463418627309997944e-01) (200, -1.67946807324066837985e+00) (201, 3.82526483575861542263e+00) (202, 1.35132031826782150752e+00) (203, 5.59212169677391068845e-01) (204, 2.82933701284068084281e-01) (205, -7.64361965412279908971e-02) (206, -2.90211405753963369580e-01) (207, -1.97490288359045196298e-01) (208, -1.50135832678668312834e-01) (209, -2.21922094161629113174e-01) (210, -2.57736329564913158041e-01) (211, -1.69818621036834732640e-01) (212, -2.00705133309484778925e-01) (213, -4.55831837464245950842e-02) (214, -6.79550544707966386326e-02) (215, -1.07617855425237635147e-01) (216, -1.06576900945113489660e-01) (217, -1.75670991657275510356e-01) (218, -9.57468222788364214937e-02) (219, -2.81262930603561021881e-02) (220, 1.19428412459139696167e-01) (221, 1.32544442185639543830e-01) (222, 1.17687592471516319637e-01) (223, 1.31617970964598568484e-01) (224, -1.10446651052922648756e-02) (225, 6.62497097844127191824e-02) (0, 4.24798547003667315014e-01) (1, 3.59933598777041230399e-01) (2, 4.19147861219569151103e-01) (3, 4.22534505709841412546e-01) (4, 2.50360215970481247982e-01) (5, 2.42671065678614489292e-01) (6, 2.45662843550428694472e-01) (7, 2.36222860362279130086e-01) (8, 1.77259212263857351966e-01) (9, 2.41891447842359941234e-01) (10, 3.93336331053363241761e-01) (11, 1.48154242338226077580e-01) (12, 2.66889869972217530503e-01) (13, 2.42727233413237791781e-01) (14, 2.73915907332618169256e-01) (15, 5.03810859160499641130e-02) (16, 3.38353284645762530936e-01) (17, 3.00328418044925105068e-01) (18, 9.28215594956722650499e-02) (19, 2.43344749436556567757e-01) (20, 2.37789319144476818391e-01) (21, 8.99793695867131260169e-02) (22, 1.78442586713697920464e-01) (23, 1.99661527332200855467e-01) (24, 3.04127157753511512261e-01) (25, 1.54480076151273015839e-01) (26, 1.49845065079506345462e-01) (27, 2.04079426449553819056e-01) (28, 1.13593376858226888237e-01) (29, 1.78211917645572315294e-01) (30, 6.77909596461726826622e-02) (31, 6.57652898593582835307e-02) (32, 1.12266932149664336316e-01) (33, 1.17757220986439273269e-01) (34, 2.29517402365093353689e-01) (35, 3.21795679935972078756e-01) (36, 2.45531491213551444908e-01) (37, 2.73140203060811770364e-01) (38, 3.56873256571327124309e-01) (39, 2.23978771586509028957e-01) (40, 3.64603233171631457843e-01) (41, 3.19025559848385042994e-01) (42, 2.70968625744471780514e-01) (43, 2.75513771486644742925e-01) (44, 7.88958308636082128462e-02) (45, 8.96623908628320226422e-02) (46, 8.02880857544795573100e-02) (47, 2.23891705242591720904e-01) (48, 1.85498491738346010793e-01) (49, 2.65735504158162771926e-01) (50, 3.78583545986748648549e-01) (51, 2.73785110221647587370e-01) (52, 2.83671561925818771499e-01) (53, 1.23957932689264610504e-01) (54, 2.52929610931570902910e-01) (55, 1.12556259535053243548e-01) (56, 1.76142450873525702182e-01) (57, 2.65732531159356022421e-01) (58, 1.11528726537719072298e-01) (59, 3.28079222902105005488e-01) (60, 3.81330242497535443214e-01) (61, 2.31692098571777527205e-01) (62, 4.23066550069650215704e-01) (63, 3.08678057503135538919e-01) (64, 2.26181543576218474501e-01) (65, 1.96217871157095352652e-01) (66, 1.70468157421459293177e-01) (67, 4.52017128401725531983e-01) (68, 3.64001947288575211648e-01) (69, 2.71841188405061162658e-01) (70, 3.69965216888777148618e-01) (71, 3.06906291918573659316e-01) (72, 1.82096309597523375867e-01) (73, 2.72094611516243589655e-01) (74, 3.45096334212394162400e-01) (75, 2.60308082162964082862e-01) (76, 7.40601514318651316104e-03) (77, -1.84713950309167360131e-02) (78, 4.16206039720219966860e-02) (79, -1.17977588753369680430e-02) (80, -2.62328787380676185792e-02) (81, -1.03337113438311131719e-01) (82, 1.96180359571296522581e-02) (83, 1.58071871405707914393e-01) (84, 3.20457939703246597052e-01) (85, 3.41243330547749024184e-01) (86, 4.05253074687316805491e-01) (87, 2.94823152740547100858e-01) (88, 2.05972882244417065944e-01) (89, 3.70180253546941562259e-01) (90, 2.98787173507362668889e-01) (91, 3.45534087886061158645e-01) (92, 3.11276551946503665658e-01) (93, 1.84144828431752449749e-01) (94, 7.65805330643824916370e-02) (95, 7.69095958226216763753e-02) (96, 7.58407801843980072798e-02) (97, 1.53802003255778252377e-01) (98, 1.99182307215081316754e-01) (99, 4.35982746991842640139e-01) (100, 4.86066753514960980809e-01) (101, 3.03693265043181392926e-01) (102, 3.67619527928364331348e-01) (103, 3.90237121976700851445e-01) (104, 1.86583425021207283123e-01) (105, 1.34311801661685492615e-01) (106, 1.72211354343756367635e-01) (107, 3.02995609995774295431e-01) (108, 3.66308737631094560872e-01) (109, 2.54676706190451018763e-01) (110, 2.30653734958918110731e-01) (111, 2.23880635269498667883e-01) (112, 1.99347678941895062321e-01) (113, 3.14499543517181234797e-01) (114, 4.05570871968268853447e-01) (115, -8.88272332743037962288e-01) (116, -1.00232952068637715115e+00) (117, 2.26043528203513754971e-01) (118, -5.59750329659201106836e+00) (119, 1.45666911760600398251e-01) (120, -1.29992404657620741482e+00) (121, -5.26701410657238744406e-01) (122, 5.59256060844253166664e-02) (123, 7.65077747218645271010e-02) (124, -4.55689948642102216070e-01) (125, -4.09981774992570879856e-01) (126, -5.82760568300017545162e-01) (127, -7.17341239025374943772e-01) (128, -6.83162805395067684877e-01) (129, -5.74646335277506192796e-01) (130, -6.64517294935132341038e-01) (131, -6.91217802893233534967e-01) (132, -5.28354990666119572751e-01) (133, -6.83932612180378485256e-01) (134, -5.65189105186007512138e-01) (135, -7.14828481798404302694e-01) (136, -1.70096256862013905931e-01) (137, 1.75289258821123866694e-01) (138, 2.05452378334740892729e-01) (139, 1.21262167456773789498e-01) (140, 2.95479764575573622398e-01) (141, 3.63284188995568801950e-01) (142, 2.24554306065915976198e-01) (143, 2.36815065989728679163e-01) (144, 3.61970299404798967480e-01) (145, 3.80181630499328793160e-01) (146, 3.66792218354721644147e-01) (147, 1.43734129870724647304e-01) (148, 2.14538248075144988292e-01) (149, 2.70222204913534602699e-01) (150, 1.41095180856273011427e-01) (151, 2.89029521290437407810e-01) (152, 3.25445209356986675520e-01) (153, 2.71418995601048596011e-01) (154, 3.49882378560893381181e-01) (155, 2.80258301809756804612e-01) (156, 2.40403287086123462757e-01) (157, 3.53949585445569647746e-01) (158, 4.15808361360653244709e-01) (159, 3.97381377209582220544e-01) (160, 1.17831993398566980957e-01) (161, 1.40238235578008546556e-01) (162, 1.19469346064719275646e-01) (163, 4.83963276879802589692e-02) (164, 1.32193379370020791530e-01) (165, 1.44790913444361651896e-01) (166, 1.49968415648612879432e-01) (167, 2.36064837093828278070e-01) (168, 5.48101722497401494527e-02) (169, 6.93509433372087591430e-02) (170, 4.78182045379053344281e-02) (171, 5.46518930618610232486e-02) (172, 1.91313723567328480835e-01) (173, 1.40395635604447899247e-01) (174, 9.60130678105518831078e-02) (175, 2.08142374275117614246e-01) (176, 1.46681278588566443855e-01) (177, -3.33273102721690250849e-01) (178, 1.67707619417357789438e-01) (179, 4.48306708010538679243e-01) (180, 3.88233162256753638886e-01) (181, 2.97157940528846475914e-01) (182, 2.56939327803471728728e-01) (183, 4.32533021557672481272e-01) (184, 2.65582563183932141015e-01) (185, 1.93646855935440925789e-01) (186, 4.73796286623639067992e-02) (187, 1.49305181259334451838e-01) (188, 7.10375902860268942929e-02) (189, 8.58443266125699516733e-02) (190, 2.24221985754255059842e-01) (191, 1.61626300741714329368e-01) (192, 2.55144039012410617229e-01) (193, 2.45346361430266501902e-01) (194, 1.09240651591707191304e-01) (195, 1.34642791990444515848e-01) (196, 1.69079299436986657534e-01) (197, 1.83484150898415826481e-01) (198, 1.67411883168584130210e-01) (199, 2.42850140406317360764e-01) (200, -8.69183003264898523810e+00) (201, 1.72798407772188189480e-01) (202, 1.70779933595998967277e-01) (203, 2.17647954682960387274e-01) (204, 2.02435596124573652377e-01) (205, -4.09866090372869362746e-01) (206, -7.00926717737749060966e-01) (207, 2.17537596799236065959e-01) (208, 4.02925031631074292982e-01) (209, 3.43340552124926368105e-01) (210, 2.97994359166675049089e-01) (211, 2.24916196447092125998e-01) (212, 2.11755185571818299595e-01) (213, 8.54721384869356198832e-02) (214, 1.58614834192431025661e-01) (215, 4.06581502737557054505e-01) (216, 2.79375101459869434883e-01) (217, 3.21780880522767709362e-01) (218, 3.38846280108183683932e-01) (219, 1.78570011154735003300e-01) (220, 2.62665532234003518131e-01) (221, 3.60099256327344741102e-01) (222, 2.32183516857562555202e-01) (223, 1.79263923480284442791e-01) (224, 1.34036394980778489350e-01) (225, 1.01893746332784168596e-01) (0, 3.60015312415253863065e-01) (1, 5.77998860628759492108e-01) (2, 4.69198895378411640067e-01) (3, 5.58898577599808099592e-01) (4, 6.26070900487580073168e-01) (5, 7.19991883323306325337e-01) (6, 5.30036779825340920169e-01) (7, 5.91241684528296174150e-01) (8, 2.58815736612613311873e-01) (9, 7.62109145665664927671e-02) (10, 1.75516434144394439798e-01) (11, 1.30361726529994920165e-01) (12, 1.88337628668579254443e-01) (13, 2.57692308791894753028e-01) (14, 2.77595156173744361805e-01) (15, 2.83047219490552171006e-01) (16, 8.60760785452011345509e-02) (17, 1.13618949539949207206e-01) (18, 4.69773044453101890072e-02) (19, 3.05970696686939241937e-02) (20, -1.09134003867763576534e-02) (21, -5.96447255932086792263e-02) (22, -1.16169704559595007853e-01) (23, 2.60471628630222756112e-03) (24, 7.25769495815477699852e-02) (25, 6.81122689613845866408e-02) (26, 4.60947399626621540092e-02) (27, -1.80654602363599487390e-03) (28, -7.83384617841366703850e-02) (29, 6.12314207559305906381e-02) (30, 6.76326231835667618375e-02) (31, 5.15115756710675665175e-02) (32, 1.62149332690178921146e-01) (33, 1.94340363480941469287e-01) (34, 1.13599608714778768648e-01) (35, 7.76421385346557080265e-02) (36, 2.36535296856705906654e-01) (37, 2.65166553955292150224e-01) (38, 1.73137240132774206103e-01) (39, 3.25579351210593948007e-01) (40, 4.38759219194301164357e-01) (41, 3.54849429233640545345e-01) (42, 4.41379787017707969632e-01) (43, 3.94756224484004769604e-01) (44, 4.85492706936034579268e-01) (45, 4.95341253236852518960e-01) (46, 3.81717842876503898886e-01) (47, 4.97851430104705450219e-01) (48, 5.03936316118844707113e-01) (49, 2.64009544154849229436e-01) (50, 4.58654183582520358353e-01) (51, 2.58890509719301109559e-01) (52, 3.61658617703930762577e-01) (53, 3.12374911380120912074e-01) (54, 6.30491643442679050580e-01) (55, 1.90740062391459552771e+00) (56, 1.55507707647573667487e+00) (57, 4.37853139528338208830e-01) (58, 2.58172822972368987138e-01) (59, 1.17514200310069580335e-01) (60, 3.26564726766518931278e-02) (61, 2.27915179756966707059e-01) (62, 1.51747237143144475535e-01) (63, 1.86210967687334888465e-01) (64, 9.92969084693970382993e-02) (65, 2.50019513442577334672e-01) (66, 5.54448941977124243330e-01) (67, 2.25958423099799565748e+00) (68, 3.29490214795910185686e+00) (69, 3.33277095416264657057e-01) (70, 1.22492903251549836718e-01) (71, 2.22815386778261945167e-02) (72, 6.60312814676302789474e-02) (73, 6.25276233670875314363e-02) (74, 9.26064003616325487345e-02) (75, 6.95910406153753824388e-02) (76, 1.76330589333811349473e-01) (77, 8.75019726296924760245e-02) (78, 1.99717504106068671765e-01) (79, 1.80345064049708569964e-01) (80, 1.76075431049043329423e-01) (81, 1.03215769121133282837e-01) (82, 2.06603107165480415208e-01) (83, 1.35551730154416488761e-01) (84, 1.66655960750484083421e-01) (85, 1.87027934755435637504e-01) (86, 5.14392218696501785091e-02) (87, 2.16809668327887172801e-01) (88, 9.58120823477681266001e-02) (89, 1.00828464890904870299e-01) (90, 2.17988663336963983674e-01) (91, 1.87310230510580461027e-01) (92, 8.53976387512354745413e-02) (93, 2.03363930797441250231e-01) (94, 2.08293807611192816065e-01) (95, 1.28258664787842230348e-01) (96, 1.02561075705541543401e-01) (97, 2.06027577622849261685e-01) (98, 2.84505944857571468898e-01) (99, 6.10797773791162679213e-02) (100, 3.19370279834843839861e-01) (101, 3.63557190168897759186e-01) (102, 4.01141120518393567984e-01) (103, 3.40342326786756577128e-01) (104, 9.18092988853040803399e-01) (105, 1.91192141980742058571e+00) (106, 1.44408241480184007521e+00) (107, 4.64942631596233724167e-01) (108, 1.65162378660004549591e-01) (109, 3.79411033067869052360e-02) (110, 7.41836439534775821114e-02) (111, 2.70791116537731912928e-01) (112, 2.31397072162856543009e-01) (113, -5.91267116317041943607e-02) (114, -1.61725619571245093908e-01) (115, -1.35143957728715929933e-01) (116, -1.41112280632390646451e-01) (117, 7.83079422869310468047e-03) (118, 1.08216760795569119646e-01) (119, 1.43828674639516429501e-01) (120, 4.83347723011210358979e-02) (121, 1.09834028406649908405e-01) (122, 1.52840730876090930002e-01) (123, 4.92250500500860388442e-02) (124, 6.41003702576395800738e-02) (125, 1.05193113509493993418e-01) (126, 1.33549139844371694830e-01) (127, 6.53758806202266781055e-03) (128, 1.22881103908868624663e-01) (129, 3.42314865866619133516e-01) (130, 2.18277046121192530581e-01) (131, 4.19744662492657516495e-01) (132, 1.22766386281855294227e-01) (133, 1.84403870317355361719e-01) (134, 2.64888864809628199470e-01) (135, 2.29481615608801814421e-01) (136, 2.26197717160833838834e-01) (137, 1.69674079079655953928e-01) (138, 1.42904020269020881617e-01) (139, 1.92820629625733541701e-01) (140, 1.39536988410157186680e-01) (141, 7.51592290661775852545e-02) (142, 1.52033243361801906346e-01) (143, 1.70711645054287930456e-01) (144, 2.17176566559437900228e-01) (145, 8.08018583553537089736e-02) (146, 1.15544306804503726926e-01) (147, 4.08818731127476908682e-01) (148, 1.96681584019106847627e-01) (149, 1.74260630078409251009e-01) (150, 2.37071313779475850714e-01) (151, 3.39335021251631063777e-01) (152, 2.89541228120367699628e-01) (153, 1.08919773027287364320e-01) (154, 1.70317708765639841406e-01) (155, 6.58971209774827232364e-02) (156, 3.93530664940414165454e-01) (157, 2.22604543002596244605e-01) (158, 2.32187989628308999457e-01) (159, 2.94081419957472445237e-01) (160, 7.55487115565223014968e-03) (161, 3.06943058842739577297e-02) (162, 9.04409127909607327145e-03) (163, 1.15185756719718757068e-01) (164, 7.19360197493990327633e-02) (165, 2.14384291754674882746e-01) (166, 1.74742761209739666528e-01) (167, 1.58029809932723447341e-01) (168, 1.17741685497515166658e-01) (169, 2.49854006108968268451e-01) (170, 1.77007534314219810989e-01) (171, 2.53235221613505756544e-01) (172, 4.24800605190703672864e-01) (173, 5.40925427003236092283e-01) (174, 2.83856496577094941092e-01) (175, 2.51783353729352965544e+00) (176, 4.66491189722953225605e-01) (177, 3.98329726218437762952e-01) (178, 1.19855586314557727157e-01) (179, 1.61655193367796989889e-01) (180, 1.51363802768789385000e-01) (181, 2.54412125908161701471e-01) (182, -1.68574486160978610164e-04) (183, 1.43757303722820029002e-01) (184, 1.14980540113344756326e-01) (185, -2.77816110110193255356e-02) (186, 9.42935135958189174499e-02) (187, 8.32604372154073235635e-02) (188, 8.01724986032534129611e-04) (189, 1.14417539778124924266e-01) (190, 2.33180852795968590607e-01) (191, 1.87425877663812023854e-01) (192, 1.41384348621887145914e-01) (193, 2.18431724236765462122e-01) (194, 1.63703845923902358006e-01) (195, 9.06228605210078336230e-02) (196, 1.45316821569619780696e-01) (197, 1.12009294714412163674e-01) (198, 2.07324034524599382090e-01) (199, 5.21967026557891566885e-02) (200, -1.18633205781452977234e+00) (201, 2.91281539973655290154e+00) (202, 3.39697847690660426068e+00) (203, 1.78559067331240917120e+00) (204, 1.57106879064557919401e-01) (205, 2.76795311960907508553e-01) (206, 1.97344844308874667327e-01) (207, 2.66048533929114872087e-01) (208, 1.61677596490152258868e-01) (209, 2.69406737018272834927e-01) (210, 9.51765127089477039335e-03) (211, 8.12309050214470446116e-02) (212, 2.26765646625356614985e-02) (213, -5.61916227674722490448e-02) (214, 1.60798956748279736617e-01) (215, 5.80336490656416514877e-02) (216, 1.41492490961275335648e-01) (217, 1.01199683391513459152e-01) (218, 9.21095127690963327849e-02) (219, 6.65123179715046281002e-02) (220, 1.43544721676982900416e-01) (221, 1.50291112140353178006e-01) (222, 2.07871788049588807068e-01) (223, 2.18494529750558108550e-01) (224, 1.37362849852564916642e-01) (225, 1.62507128126894023756e-01) (0, 9.26460132967369398571e-01) (1, 1.00289271796637979861e+00) (2, 1.01291211515298229529e+00) (3, 1.44305441654777366622e+00) (4, 2.35386271358749832316e+00) (5, 4.22481578118581069248e+00) (6, 4.01338833872887956744e+00) (7, 4.12328527043826831289e+00) (8, 1.79331631123307722042e+00) (9, 1.57593024665091219205e+00) (10, 1.40734408796733778679e+00) (11, 1.08689960542612729100e+00) (12, 9.63174010064957286659e-01) (13, 1.12965245163001082318e+00) (14, 9.59693635331141159384e-01) (15, 1.22945591718232005718e+00) (16, 1.92584188102084286065e+00) (17, 9.16062276071088144036e-01) (18, 9.20889132044125702237e-01) (19, 8.32859161878963027981e-01) (20, 7.93027297608018377773e-01) (21, 7.87904736650887449478e-01) (22, 1.01754368135747097490e+00) (23, 9.22642573047790293117e-01) (24, 1.01929973437380816392e+00) (25, 9.81059132011751100499e-01) (26, 1.01153086047778528744e+00) (27, 1.05651772460538007081e+00) (28, 1.31714900511722121657e+00) (29, 1.33590769533065722996e+00) (30, 1.28676119940563005173e+00) (31, 1.21934529296850180380e+00) (32, 1.28520306874020184829e+00) (33, 1.21049133342701353833e+00) (34, 1.15700878604802426253e+00) (35, 1.12449819473894785382e+00) (36, 1.14651805289311004010e+00) (37, 1.23194458319286970216e+00) (38, 1.11300771819613575353e+00) (39, 1.26043657840721001762e+00) (40, 1.69905064777320213842e+00) (41, 1.78935127991922038326e+00) (42, 1.43982730833000571735e+00) (43, 1.74461135696558877761e+00) (44, 2.14950331595893651127e+00) (45, 2.21457210429050777023e+00) (46, 1.37178369235556329997e+00) (47, 1.50853219245823111372e+00) (48, 1.49556575324766005686e+00) (49, 1.15089023877742069324e+00) (50, 1.01288938412922968624e+00) (51, 8.54876817944190681153e-01) (52, 1.07447118435394650682e+00) (53, 2.31264069504351832407e+00) (54, 5.43320512959126222796e+00) (55, 9.83016054790742188629e+00) (56, 1.75393325986403247896e+01) (57, 1.73013345181498188197e+01) (58, 1.73382907683540743449e+01) (59, 1.73273330458743828331e+01) (60, 7.82584357125448981662e+00) (61, 2.66123377131294036602e+00) (62, 1.13014380523621738028e+00) (63, 9.39334775314710768157e-01) (64, 1.08486354470321177956e+00) (65, 1.16103363816774352024e+00) (66, 1.56414957529829523608e+00) (67, 9.74484702201096175678e-01) (68, 3.60318452795305221859e-01) (69, 4.76511949830992487254e-01) (70, 2.04870235578993975523e-01) (71, 5.46593279012354660296e-01) (72, 1.02471616545328281234e+00) (73, 1.07294285379058274010e+00) (74, 1.06654358389074510605e+00) (75, 1.24921308952434273465e+00) (76, 1.39409453909958003237e+00) (77, 1.32856059675179127844e+00) (78, 1.50028739816004597074e+00) (79, 1.12349170246915130988e+00) (80, 1.22602871013315462001e+00) (81, 1.20895602322268214124e+00) (82, 1.08852970685534367057e+00) (83, 1.05072020656445186404e+00) (84, 1.07414215176140803720e+00) (85, 9.77789174253002379977e-01) (86, 1.14889337117715029102e+00) (87, 1.13267960983516857709e+00) (88, 1.14009214647226420070e+00) (89, 1.18710566213490409382e+00) (90, 1.13408921494017267406e+00) (91, 1.13712638183211267595e+00) (92, 1.09037522916494022951e+00) (93, 1.03983172605045726122e+00) (94, 1.13477068941057024354e+00) (95, 1.08837030397686396199e+00) (96, 1.00304336603367416636e+00) (97, 1.05187857906145909581e+00) (98, 1.03895571717892232222e+00) (99, 1.13395869539715854479e+00) (100, 9.89258384430581227953e-01) (101, 9.64910038759761001792e-01) (102, 8.64118639348944617140e-01) (103, 1.47626242706553134632e+00) (104, 4.01159319691166160737e+00) (105, 9.55428424702902745480e+00) (106, 9.62449772878248310803e+00) (107, 9.56609970913880758303e+00) (108, 2.39557381081964892999e+00) (109, 1.05354208288446127284e+00) (110, 9.17816360387140095511e-01) (111, 1.72854436838629799134e+00) (112, 1.27622623391579814722e+00) (113, 3.76566828202291814520e-01) (114, 2.35517232346021482270e-01) (115, 1.22778623696437905188e+00) (116, 1.93827044691858541015e+00) (117, 9.19242440056062370957e-01) (118, 3.25602602536128826749e-01) (119, 2.32771548856151339058e-01) (120, 1.68998794028235838072e-01) (121, 5.59880696496022900455e-01) (122, 4.70068251042152218666e-01) (123, 1.93541483324538077238e-01) (124, 7.26150817095511769139e-01) (125, 9.44182598228241909410e-01) (126, -2.56942528518909130142e+00) (127, 3.79505953935302553504e+00) (128, 6.77785545492196739303e+00) (129, 4.89767357368546818464e+00) (130, 1.07404111024300448207e+01) (131, 1.72640780494782468679e+01) (132, 8.61064722206685040362e+00) (133, 5.64995359721433665356e+00) (134, 1.94026335485610923470e+00) (135, 1.24106226842528388765e+00) (136, 1.27351966275956862695e+00) (137, 1.23481119618657508852e+00) (138, 1.12426622545410026532e+00) (139, 1.11171313127328041936e+00) (140, 1.17436037764494938251e+00) (141, 1.15745598587458098372e+00) (142, 1.11124743153047877975e+00) (143, 1.21790646508169730922e+00) (144, 1.30040590487919094365e+00) (145, 1.23561018675132205935e+00) (146, 1.11010540367252841243e+00) (147, 1.12106907965995339360e+00) (148, 1.17928848260139784720e+00) (149, 1.07694375973388112300e+00) (150, 1.37024222415245056084e+00) (151, 1.15389053633790950038e+00) (152, 1.26603485081191591277e+00) (153, 9.80722588495181235579e-01) (154, 1.17892242948278869186e+00) (155, 1.22564511475004733754e+00) (156, 4.68487963821162711753e+00) (157, 2.11705152359022363839e+01) (158, 1.16194434571977964765e+01) (159, 1.53097581938921134537e+01) (160, 1.15612961547732528977e+00) (161, 1.20703045096968564209e+00) (162, 1.21521004745293770277e+00) (163, 1.05662642844538345877e+00) (164, 1.03751528749165511378e+00) (165, 1.11510476185923002035e+00) (166, 1.18987934529707417575e+00) (167, 1.14948027770771288303e+00) (168, 1.14413905548021421765e+00) (169, 1.19672446109826902116e+00) (170, 1.06248203163054566467e+00) (171, 1.10991771203406686119e+00) (172, 1.17714969610059427829e+00) (173, 1.13833996340834331384e+00) (174, 1.06513132375639996141e+00) (175, 1.52665352206427074044e+00) (176, 1.15568398051266640891e+00) (177, 1.08914981058367432709e+00) (178, 1.03662972335743419627e+00) (179, 9.34966909431858894663e-01) (180, 9.58528064978869220880e-01) (181, 1.13266689147773225166e+00) (182, 1.70085919921555017709e+00) (183, 1.78132964565483309372e+00) (184, 4.61983679325418883366e+00) (185, 1.22204933515884150985e+00) (186, 1.13843866444102825852e+00) (187, 1.06152848694650625561e+00) (188, 1.06073446874329624379e+00) (189, 1.07369657220585312807e+00) (190, 1.03769921735856307521e+00) (191, 1.02661801622860360261e+00) (192, 1.09979324942189449210e+00) (193, 1.07592494560705032036e+00) (194, 1.11143531918803883940e+00) (195, 1.13096168031995714109e+00) (196, 1.02677455336967637933e+00) (197, 1.11014619997590302525e+00) (198, 1.19189887619111845041e+00) (199, 1.02603233733404608508e+00) (200, 5.73053760662436584283e+00) (201, 5.53303430959707664982e+00) (202, 1.20560309838853214615e+01) (203, 1.42150160811462722421e+00) (204, 8.72553128582527870449e-01) (205, 7.48709281256089043133e-01) (206, 2.09196044789894086691e+00) (207, 1.59512754078618312903e+00) (208, 9.98921206454392529572e-01) (209, 1.86742898356682229810e+00) (210, 1.05398337037208134070e+00) (211, 9.92829719364007545757e-01) (212, 1.12568788437865219265e+00) (213, 1.10569729325829091415e+00) (214, 1.07625816547731045780e+00) (215, 1.11781321897085850203e+00) (216, 1.05731868875506296312e+00) (217, 9.33364244653283159359e-01) (218, 9.80879772753980305744e-01) (219, 1.10237403136420342165e+00) (220, 9.63555331949539017877e-01) (221, 1.14976155249653722024e+00) (222, 1.00093412859333574794e+00) (223, 1.09639517777092798667e+00) (224, 9.99818367614698888524e-01) (225, 9.42266634551396919939e-01) (0, 6.52006692055160375077e-02) (1, -1.47880370592200577340e-01) (2, -1.22151010864888741325e-02) (3, -2.63857327119569988472e-02) (4, -4.30946106968627742906e-02) (5, -5.09898071812177888784e-02) (6, 4.36682998076447226321e-02) (7, -5.24574357413680053552e-02) (8, 1.13962821258744382430e-02) (9, 1.16360816881166105087e-03) (10, -3.56713260948706908926e-02) (11, 1.71509395037371895759e-03) (12, -5.75217502112035546091e-03) (13, 1.33663423427290740941e-02) (14, -1.47723280808016079607e-02) (15, -3.10046530687470789367e-01) (16, 8.24062140253560282410e-02) (17, -4.73325872010163344050e-03) (18, -2.01938398011178465996e-01) (19, -2.60061191462431340327e-01) (20, 9.68522572589288199829e-02) (21, -3.67888187950464115583e-02) (22, -4.17485544997863930461e-02) (23, 1.05465839738057148844e-02) (24, 1.29074134662182510302e-01) (25, 3.91095085879599596579e-02) (26, 1.29424738184680615527e-01) (27, 1.63964294226531609455e-01) (28, 5.95125406383280389222e-02) (29, 1.56922667367328672050e+00) (30, 6.19035530711094933443e-02) (31, -4.25564559612277709677e-02) (32, 1.12041467621528584298e-01) (33, -7.55727005049394995329e-02) (34, 1.01845790139701616872e-01) (35, 1.62786752154323623165e-02) (36, 8.03790101900153236558e-02) (37, 1.24689421776177106899e-02) (38, -4.80236831769670496906e-02) (39, 7.07218022752766073413e-02) (40, -5.80806999400502246833e-02) (41, 6.05152592928336618971e-02) (42, -1.63882519300492607295e-01) (43, -2.33090045006441537456e-01) (44, -1.51768078618120833001e-01) (45, -5.40011286000535301044e-02) (46, -7.84511340527301731518e-02) (47, -1.65532135019400422626e-01) (48, -7.28897676781896791676e-02) (49, -2.37291562654158676160e-02) (50, 1.18702999584128790489e-01) (51, -4.29925091057295691299e-02) (52, 7.75223515102286125922e-02) (53, 4.52674171442300765644e-02) (54, 1.97873643843208407711e-03) (55, -3.87712414080983933107e-02) (56, 5.56263538609268887170e-02) (57, 7.76027797343836062138e-02) (58, 1.57341484982414597793e-01) (59, 1.10037720453796866726e-01) (60, 4.97671035836532854590e-02) (61, 1.02218111700265554265e-01) (62, 1.38377024551556617599e-02) (63, 1.08419604643688952117e-01) (64, 2.67309730121791586099e-02) (65, 3.08925934045224566404e-02) (66, -6.62571047240424499530e-03) (67, 2.79213074454523146883e-01) (68, 7.86900110774079175613e-02) (69, 3.49301627455201602057e-02) (70, 4.57462987698832382333e-02) (71, 2.08462758965740818651e-01) (72, -1.77752990545025107982e-01) (73, -1.44648033643034912288e-01) (74, -5.93313336454726579505e-03) (75, 5.78126784389144388054e-02) (76, 4.29548174994758974465e-02) (77, -2.40131587252256431531e-02) (78, -2.03117287785993444471e-01) (79, 4.90372017641869939464e-02) (80, 4.86017760670303319848e-02) (81, 9.50855343800272034827e-02) (82, 6.00075191892863596399e-02) (83, -1.59475063004008189849e-02) (84, 1.19364462745401994637e-01) (85, -6.52401468257895501834e-03) (86, 7.00555545540630791868e-02) (87, -3.22000306787636816908e-02) (88, -8.08947104973580521925e-02) (89, 6.15602774842221034390e-02) (90, 6.16739459025055711261e-02) (91, 7.32034268151188771689e-02) (92, -1.12572643661331503462e-01) (93, -1.51694697566374853137e-01) (94, -3.85769813708063957769e-01) (95, -1.91621159018055264855e-02) (96, 3.70499472624855573366e-03) (97, -3.78318929802963360709e-02) (98, -1.36957772497394714151e-01) (99, 6.23856639986529737385e-02) (100, 1.08369635882786627401e-01) (101, 2.02848547000178958122e-02) (102, 1.25190901045176050665e-01) (103, 2.93510531167199759106e-02) (104, -2.81432292523865312805e-01) (105, -2.82237992642882074001e-01) (106, -6.54519417194936170556e-02) (107, -6.58963683499857316717e-02) (108, -7.19629740184263427816e-02) (109, 4.54097301427926827722e-02) (110, -4.45602164547833912156e-02) (111, -7.73392138204064133467e-02) (112, -2.68274024930768406616e-01) (113, -5.16376977048731075626e-02) (114, 7.84007221223750327965e-02) (115, -5.27529219070781540957e-01) (116, -4.44197940135110991289e-01) (117, 2.18671417716984034518e-01) (118, -1.77495337849845613576e+00) (119, -1.10683257766990200688e-01) (120, 5.86987144610740863016e-01) (121, -8.74285655433056502206e-02) (122, 2.14622588770068034592e+00) (123, 3.62999660801962886758e-01) (124, -3.59629385915982311903e-04) (125, 1.07969619274660533215e-01) (126, 1.22201655470540286597e-02) (127, -3.44889988707206163188e-01) (128, -1.48331924280824395401e-01) (129, 1.78484730665650181969e+00) (130, 2.71623757767836815358e-01) (131, -4.10643685705362956884e-02) (132, 3.38951914572682644344e-01) (133, -5.05215039816217625912e-01) (134, -3.19498019253413867435e-01) (135, -8.14252342679446516893e-02) (136, -1.90593682194749106107e-02) (137, 5.05585679710466445735e-02) (138, 7.98328910554890608386e-02) (139, 1.70968456670110256768e-02) (140, 1.03488540827153904789e-01) (141, -4.58817521297229455324e-02) (142, -9.16246868029922667542e-03) (143, -1.03323587607873107475e-01) (144, -1.81851707636078475938e-02) (145, 4.55930914180178725736e-02) (146, -7.31181694230529782841e-02) (147, -3.66617550406946324237e-02) (148, -1.02636730685741583979e-01) (149, -4.67345781227590587048e-02) (150, 1.21327091078913901212e-01) (151, -1.23306368836540586331e-02) (152, 7.41439020638898996923e-03) (153, 6.77977623129457779294e-02) (154, 4.26470823812747784620e-02) (155, 4.94571344727252754092e-02) (156, 1.16977094059979080942e-01) (157, 1.26610559177660036978e-01) (158, 1.54455226536211437383e-01) (159, 1.73617445635764117151e-01) (160, 4.06767963611483485131e-02) (161, -9.12567224314906472182e-02) (162, -9.88661824313026571520e-02) (163, -5.28374042497947934982e-02) (164, -1.09132542306897960954e-02) (165, -8.29577535942314057971e-03) (166, -1.19666431464190703426e-02) (167, 2.52522213611885634754e-02) (168, -1.76687594090743943509e-01) (169, -1.34742492423305382232e-01) (170, 5.95571810837065406669e-03) (171, -1.28848139308668507841e-01) (172, -1.80442119131772799046e-01) (173, -9.15492015812604809089e-02) (174, -4.22630986614209794294e-02) (175, -5.57805803252268583847e-01) (176, -6.65273081387794618102e-01) (177, -3.58710236731510812014e-01) (178, 1.08218815034993490198e-01) (179, 1.24262526582125942820e-01) (180, 9.12630065222153584459e-03) (181, 1.48565594481686519268e-01) (182, 1.64183341572768620731e-01) (183, 2.92584358353791762486e-01) (184, 3.42697820725214097326e-01) (185, 8.90712161714515560096e-02) (186, 9.72872180466574226765e-02) (187, -5.63755966755699680637e-02) (188, -3.30044577769043126492e-02) (189, 2.30766604163234537173e-02) (190, -7.75446119336388461907e-03) (191, 3.62878610597778122893e-02) (192, 3.89692149370358675853e-02) (193, 1.27258162466747145464e-02) (194, 7.25875960590760972019e-03) (195, -2.05074717150162261214e-01) (196, -1.69363622700823807099e-01) (197, -1.44679571962123165729e-01) (198, -9.68147037846706637332e-02) (199, -1.14130754765039921228e-01) (200, -4.57503283209153188693e+00) (201, -4.37030803124208944155e-01) (202, -3.34247785937567487569e-01) (203, -3.22012876001467995835e-01) (204, 2.01582477448175922952e-01) (205, -4.30715605011954161263e-01) (206, 2.58481706547051166833e-02) (207, 1.70585169848173234808e-01) (208, 7.86521693930634924197e-02) (209, 1.31865159965390582597e-01) (210, 7.63590402891430458654e-02) (211, 1.95457389104909257105e-02) (212, 9.99428076427810174742e-02) (213, 7.58302793546850179007e-02) (214, 1.25199775851059106127e-03) (215, -2.04782976213778236674e-02) (216, 1.23124358193377692050e-01) (217, 1.06550627333746067427e-01) (218, 1.19611581679082271124e-01) (219, 1.16495728225557967916e-01) (220, -7.37946252071011304929e-02) (221, -1.01865829412558353551e-01) (222, -5.02488405756584821660e-02) (223, -1.46765677129076232976e-01) (224, 7.27567752878122142590e-02) (225, 1.26364840862163013702e-01) (0, 1.30318684292922482015e+00) (1, 1.20461976536901693713e+00) (2, 3.83180527278908389377e+00) (3, 5.01765772924411557199e+00) (4, 5.02939934817940770273e+00) (5, 9.05873310449851665282e+00) (6, 8.84464023621129413755e+00) (7, 8.86586159030867371200e+00) (8, 4.59218763931660500788e+00) (9, 2.04300469764176417797e+00) (10, 1.33776964411316368064e+00) (11, 6.94091805414864038148e-01) (12, 6.76388466230284701730e-01) (13, 6.48909218819074373741e-01) (14, 6.69113625918144050431e-01) (15, 6.27265062558327590736e-01) (16, 5.10604870131913690656e-01) (17, 6.05195681579759003910e-01) (18, 5.25562448103376933517e-01) (19, 5.62369003018014845807e-01) (20, 2.96314670261735135792e-01) (21, 4.11315955242831932104e-01) (22, 4.96539306376402089782e-01) (23, 4.98882492214122175156e-01) (24, 6.12717357262173356602e-01) (25, 7.29531040442260469980e-01) (26, 8.83570977612236463372e-01) (27, 8.85419542964178574174e-01) (28, 1.01076655409804549990e+00) (29, 8.45373091815473598487e-01) (30, 7.56233109329701114198e-01) (31, 6.28386143558805176923e-01) (32, 7.49215581185685319809e-01) (33, 6.18248884488587058250e-01) (34, 6.77654509502466195769e-01) (35, 7.89453260375261867132e-01) (36, 6.68515873127604076664e-01) (37, 1.67728007262412437406e+00) (38, 1.65689648809539780139e+00) (39, 1.62555268550732323618e+00) (40, 1.65250043148891512246e+00) (41, 6.75739547046354527282e-01) (42, 7.50519445794839756836e-01) (43, 6.74389248253019824020e-01) (44, 7.97455814506248250595e-01) (45, 8.05279842897404507518e-01) (46, 7.02833562477577999950e-01) (47, 7.00208028760561096426e-01) (48, 7.31978277093074058968e-01) (49, 8.32219071873226079461e-01) (50, 9.30494021779142532758e-01) (51, 8.98300205859662970198e-01) (52, 1.12239061460752598265e+00) (53, 2.22066482379773599831e+00) (54, 4.96784236049011607150e+00) (55, 9.02150479894830503724e+00) (56, 5.01692680007134050868e+00) (57, 4.98168864021398771769e+00) (58, 2.22370097882099004849e+00) (59, 1.85555919763799526123e+00) (60, 9.66262642982415487225e-01) (61, 8.03408440539643664557e-01) (62, 1.01215872411698915023e+00) (63, 6.78430786962298304488e-01) (64, 5.71733496022764131617e-01) (65, 5.65304887717667070568e-01) (66, 5.63005057076870207844e-01) (67, 6.16482533727185977313e-01) (68, 6.40377912625965661775e-01) (69, 5.03785759089300566593e-01) (70, 6.57068309722804499984e-01) (71, 5.69625786985441862065e-01) (72, 7.18383414379373030911e-01) (73, 7.47307735898721903212e-01) (74, 6.62115787019132984170e-01) (75, 7.07573895218190807022e-01) (76, 9.65888585692516565828e-01) (77, 9.48606156654944965290e-01) (78, 9.08742791751976364267e-01) (79, 9.50068458442792973528e-01) (80, 9.60464632534833051558e-01) (81, 6.46660664572897170288e-01) (82, 8.33948944209522480264e-01) (83, 7.79241986077890746998e-01) (84, 7.04271978111651653087e-01) (85, 1.57374465239469252253e+00) (86, 1.58178499208784906216e+00) (87, 1.65170631252778732367e+00) (88, 1.78094981472687452495e+00) (89, 1.62308537373452033137e+00) (90, 1.55046322728646313038e+00) (91, 1.65074882747759943413e+00) (92, 7.34127617494923057073e-01) (93, 7.81820070488224327931e-01) (94, 6.67348331561815277801e-01) (95, 6.66055384606371370104e-01) (96, 7.90550674119055662992e-01) (97, 7.97649255517758226652e-01) (98, 6.57694925189856616221e-01) (99, 8.24428772087993477768e-01) (100, 9.42963167990760298132e-01) (101, 1.03146061237433728230e+00) (102, 3.04681503889696703169e+00) (103, 5.09584165733987415337e+00) (104, 3.39066713317848495990e+01) (105, 3.61473539129696774808e+01) (106, 3.36825100151381988667e+01) (107, 3.14173259908391351303e+01) (108, 1.48113803053952270972e+01) (109, 1.03122004727395588652e+00) (110, 7.27690383245550465041e-01) (111, 7.46344137817200881102e-01) (112, 4.66006890593584244264e-01) (113, 1.75129747884019110193e-01) (114, -7.79354116370692823201e-02) (115, -1.38005957189033610227e-02) (116, 2.04565335308643092560e+00) (117, 3.46761598450528651938e+00) (118, 4.88944847022881157184e-01) (119, 6.37401231596269712831e-01) (120, 4.52934132556840396422e-01) (121, 3.30216293045934528028e-01) (122, 4.10179278151648729622e-01) (123, 4.82339562620273276661e-01) (124, 3.88337415293172782960e-01) (125, 5.36105810495462353771e-01) (126, 5.17150010000363868912e-01) (127, 5.69068554682320870697e-01) (128, 7.02534750125471729731e-01) (129, 6.51961071470214315049e-01) (130, 5.95375265532280928404e-01) (131, 5.85822022471122916265e-01) (132, 1.56568338704931320216e+00) (133, 1.43916901536716967946e+00) (134, 1.60428041496020545864e+00) (135, 1.56683693962900116858e+00) (136, 1.76315879181057200142e+00) (137, 1.74112601760165452980e+00) (138, 1.76088656939663690260e+00) (139, 1.63216986030396626894e+00) (140, 1.57041293673792692331e+00) (141, 1.68047243759709963307e+00) (142, 6.91299721928137711480e-01) (143, 8.10333820923326175745e-01) (144, 7.19801825104643078213e-01) (145, 7.37743098608948599804e-01) (146, 6.79246814290894063149e-01) (147, 7.33034820058945824073e-01) (148, 6.41246137286404782607e-01) (149, 7.71179919596614693589e-01) (150, 1.84895824248921147870e+00) (151, 1.65909791812184947979e+00) (152, 1.68576646952694653159e+00) (153, 1.73659826408035122824e+00) (154, 8.18018641879865282540e-01) (155, 7.38420408500409686248e-01) (156, 7.66611242901095391034e-01) (157, 7.22874206390222595608e-01) (158, 1.05859723168432440232e+00) (159, 1.04507608546918806525e+00) (160, 7.43476200817334342830e-01) (161, 7.04954553716422571696e-01) (162, 6.27075128594862252207e-01) (163, 7.01069547623010436155e-01) (164, 6.64595297365995318906e-01) (165, 6.67730237422116457147e-01) (166, 7.55028094229825086359e-01) (167, 7.69891731784375199510e-01) (168, 7.24363511572544749306e-01) (169, 7.80972159679773403340e-01) (170, 7.24184643485357715242e-01) (171, 6.85693046150262275340e-01) (172, 8.98528911827940923729e-01) (173, 8.58767175269014026995e-01) (174, 6.95972640254297281182e-01) (175, 2.15993199664683954708e+00) (176, 1.89585377997858639532e+00) (177, 1.91088037812294153639e+00) (178, 1.78940187354474122827e+00) (179, 1.67578679270169450533e+00) (180, 7.89048843209630090811e-01) (181, 8.34459275995162896855e-01) (182, 8.81735022118652178591e-01) (183, 9.85510175044326475202e-01) (184, 1.00068433223567643253e+00) (185, 5.16651674901041801924e-01) (186, 4.51747024127968410667e-01) (187, 6.11889492945341895158e-01) (188, 8.04388698729908258045e-01) (189, 8.80688690220809533571e-01) (190, 9.62895121454227731483e-01) (191, 1.01260041569365322189e+00) (192, 9.61629402646732023285e-01) (193, 8.41802955391793172879e-01) (194, 6.78413961359314976463e-01) (195, 7.88663216696256164084e-01) (196, 8.18488623498052181304e-01) (197, 7.56922117874104793955e-01) (198, 6.65793429722290497352e-01) (199, 7.61890602763595436997e-01) (200, -1.29167754220386719055e+01) (201, 1.83937980395064881733e+00) (202, 7.19765329562606037683e+00) (203, 1.30812532325453800830e+00) (204, 1.65623484603945470006e+00) (205, 8.75167765922573170911e-01) (206, 7.71822368436903993860e-01) (207, 8.89846063138997944719e-01) (208, 6.36541919341655271225e-01) (209, 7.36577449151246788084e-01) (210, 5.65412137057039410060e-01) (211, 6.32937834882402072800e-01) (212, 5.45351066843234422166e-01) (213, 6.29091299912022061669e-01) (214, 7.78879128695155409368e-01) (215, 7.54929292544802676979e-01) (216, 8.19806956650412255172e-01) (217, 7.02617918461484358694e-01) (218, 8.13450977197251789974e-01) (219, 6.78966709690553615886e-01) (220, 6.95962468904124387237e-01) (221, 7.94656504485470760457e-01) (222, 8.14057930251022909829e-01) (223, 7.90913558461075028028e-01) (224, 8.32331275101604317612e-01) (225, 6.58371018554397724465e-01) (0, -2.19939723519467250634e-01) (1, -2.64820481110525862700e-01) (2, -3.18423672241522237591e-01) (3, -3.18024187673043745583e-01) (4, -4.71718582793860863323e-01) (5, -5.36283923618904534436e-01) (6, -4.67852114483933989586e-01) (7, -4.42217678034186489899e-01) (8, -5.16082006453518316036e-01) (9, -3.41888546725054642828e-01) (10, -3.09005370348954200299e-01) (11, -1.07762583764322616986e+00) (12, -1.20865640144483443841e+00) (13, -4.19894695070568590989e-01) (14, -3.22311891147522400214e-01) (15, -9.18702542186403126045e-01) (16, -1.66392600700593973340e-01) (17, -3.01805664318282595993e-01) (18, -3.70408167162295687280e-01) (19, -1.52341277260289842399e-01) (20, -4.53526754117152874901e-01) (21, -3.30291053595560990530e-01) (22, -3.20145392195593347928e-01) (23, -3.55324057938732840167e-01) (24, -2.06791619029553119802e-01) (25, -1.84302922913930772308e-01) (26, -1.66422804704882271176e-01) (27, -3.11249386787636916907e-01) (28, -1.17870684058779748304e-01) (29, 2.99511063011883182927e-01) (30, -4.03365440448271495022e-01) (31, -4.95386226915163485618e-01) (32, -4.91524377483945562606e-01) (33, -1.97699585431810520575e+00) (34, -5.17032562654099359101e-01) (35, -4.84397820055828653985e-01) (36, -2.83959856093833729052e-01) (37, -3.82283630397427631742e-01) (38, -1.13623541859557120048e+00) (39, -7.04547816523340197925e-01) (40, -4.56101361393384363563e-01) (41, -5.56477076201448039861e-01) (42, -6.43043238946965911573e-01) (43, -8.57771815185043862151e-01) (44, -8.10564942266381427416e-01) (45, -4.94308351106396370866e-01) (46, -5.73438277735082602149e-01) (47, -6.48740122306920019568e-01) (48, -5.01386802278719345694e-01) (49, -3.74666476294552519555e-01) (50, -2.46191884078058725871e-01) (51, -2.87929062016201942065e-01) (52, -2.65816744824932504887e-01) (53, -3.50820166512328557307e-01) (54, -4.97337979251092465738e-01) (55, -5.54584552618435422389e-01) (56, -5.15068467785204320286e-01) (57, -4.00283129220123101710e-01) (58, -3.70382169930262794555e-01) (59, -3.62233812199629301443e-01) (60, -3.67314645372113446342e-01) (61, -2.94583314478090996236e-01) (62, -4.50128574327560426749e-01) (63, -2.97134985689598618563e-01) (64, -8.57168708268949836038e-02) (65, -6.29553864224201342736e-01) (66, 7.54668020032208258785e-02) (67, 3.90374000080607919116e+00) (68, -2.41651271074563356311e-01) (69, -2.98327772349793296502e-01) (70, -2.17066926747094962602e-01) (71, -1.71474885049570258122e-01) (72, -4.46571204070395577634e-01) (73, -1.96086471302900161584e-01) (74, -3.41104187077739484657e-01) (75, -2.61583145358310287243e-01) (76, -1.51577555892173476693e-01) (77, -2.30520407514720526709e-01) (78, -6.22206754584060384161e-01) (79, -4.85174996434017125058e-01) (80, -6.28174493452728688325e-01) (81, -6.62205716133163924120e-01) (82, -4.00485593410830120753e-01) (83, -4.35060958931186902987e-01) (84, -4.06638492515736027499e-01) (85, -3.39755814168920866614e-01) (86, -3.21322370032602999679e-01) (87, -2.23713280271192721527e-01) (88, -3.49204292369954871766e-01) (89, -4.61496552043753893724e-01) (90, -5.12618361612807160732e-01) (91, -6.15683539390980971717e-01) (92, -6.34067033176783034776e-01) (93, -7.50809837215346664863e-01) (94, -8.09985909586015240258e-01) (95, -4.95593451690574171575e-01) (96, -5.29674457342156790318e-01) (97, -5.30162313038963994849e-01) (98, -5.03105676112466260186e-01) (99, -4.70473763171358583257e-01) (100, -1.17878132583737138539e-01) (101, -1.94189770653400428646e-01) (102, -2.17153235258344234904e-01) (103, -4.32223483558028809259e-01) (104, -5.10959764982838127167e-01) (105, -6.46097412522133374146e-01) (106, -5.22427259272708388593e-01) (107, -3.73367920169926814644e-01) (108, -4.12072303927662197953e-01) (109, -3.64872548584926903459e-01) (110, -3.83060930933236287732e-01) (111, -1.33812449235714558959e+00) (112, -1.83476145791564082543e+00) (113, -1.14695045962784192284e+00) (114, -1.54590512044616712473e-01) (115, -9.81640165134949449488e-01) (116, -5.74068269358475213870e-01) (117, -8.63668993187769601372e-02) (118, -6.60779502140996832793e+00) (119, -3.45421843653987759026e-01) (120, -2.34799694388113988630e-01) (121, -4.75994600625892494428e-01) (122, -1.84454515342706570902e-02) (123, -1.09837593578381784165e-01) (124, -1.10182777280874777404e-01) (125, -4.40246592000939240830e-01) (126, -3.48986639954990351953e-01) (127, -4.05463863758177278651e-01) (128, -5.62666284364594759815e-01) (129, -6.64813915356844198357e-01) (130, -3.77592396887808945394e+00) (131, -3.86744146075952199837e+00) (132, -1.35898540580850890613e+00) (133, -3.83303025220850956956e+00) (134, -1.00943931817840848453e+00) (135, -7.55786455765238618376e-01) (136, -4.21953668988595265166e-01) (137, -3.25505963874847037420e-01) (138, -5.11447271105928580326e-01) (139, -2.49067555569274207139e-01) (140, -3.45417103311064066506e-01) (141, -1.91427676802018248425e-01) (142, -5.39801117747109149292e-01) (143, -4.93296699363863833110e-01) (144, -7.52624563005582891684e-01) (145, -5.56645071068845420648e-01) (146, -4.12495880114668533878e-01) (147, -5.78851164272617735307e-01) (148, -3.99508524361427641569e-01) (149, -4.79678806216814856977e-01) (150, -2.57868498129950274311e-01) (151, -3.06616524878020935141e-01) (152, -2.37816834083233064057e-01) (153, -3.37379209080339304005e-01) (154, -2.75549333840065135970e-01) (155, -4.10169178925833766147e-01) (156, -3.20573254249688244233e-01) (157, -3.21749250514179463423e-01) (158, -1.61647550264204659110e-01) (159, -4.01533141866661946739e-01) (160, -4.80412411280998485896e-01) (161, -5.03234829187436005782e-01) (162, -7.44160598625535851802e-01) (163, -5.12006440530334949734e-01) (164, -9.29049085259846640916e-01) (165, -3.34648091529793523247e-01) (166, -3.11583797236135662256e-01) 