FANN_FLO_2.1
num_layers=3
learning_rate=0.700000
connection_rate=1.000000
network_type=0
learning_momentum=0.000000
training_algorithm=2
train_error_function=1
train_stop_function=0
cascade_output_change_fraction=0.010000
quickprop_decay=-0.000100
quickprop_mu=1.750000
rprop_increase_factor=1.200000
rprop_decrease_factor=0.500000
rprop_delta_min=0.000000
rprop_delta_max=50.000000
rprop_delta_zero=0.100000
cascade_output_stagnation_epochs=12
cascade_candidate_change_fraction=0.010000
cascade_candidate_stagnation_epochs=12
cascade_max_out_epochs=150
cascade_min_out_epochs=50
cascade_max_cand_epochs=150
cascade_min_cand_epochs=50
cascade_num_candidate_groups=2
bit_fail_limit=3.49999999999999977796e-01
cascade_candidate_limit=1.00000000000000000000e+03
cascade_weight_multiplier=4.00000000000000022204e-01
cascade_activation_functions_count=10
cascade_activation_functions=3 5 7 8 10 11 14 15 16 17 
cascade_activation_steepnesses_count=4
cascade_activation_steepnesses=2.50000000000000000000e-01 5.00000000000000000000e-01 7.50000000000000000000e-01 1.00000000000000000000e+00 
layer_sizes=226 227 8 
scale_included=0
neurons (num_inputs, activation_function, activation_steepness)=(0, 0, 0.00000000000000000000e+00) (0, 0, 0.00000000000000000000e+00) (0, 0, 0.00000000000000000000e+00) (0, 0, 0.00000000000000000000e+00) (0, 0, 0.00000000000000000000e+00) (0, 0, 0.00000000000000000000e+00) (0, 0, 0.00000000000000000000e+00) (0, 0, 0.00000000000000000000e+00) (0, 0, 0.00000000000000000000e+00) (0, 0, 0.00000000000000000000e+00) (0, 0, 0.00000000000000000000e+00) (0, 0, 0.00000000000000000000e+00) (0, 0, 0.00000000000000000000e+00) (0, 0, 0.00000000000000000000e+00) (0, 0, 0.00000000000000000000e+00) (0, 0, 0.00000000000000000000e+00) (0, 0, 0.00000000000000000000e+00) (0, 0, 0.00000000000000000000e+00) (0, 0, 0.00000000000000000000e+00) (0, 0, 0.00000000000000000000e+00) (0, 0, 0.00000000000000000000e+00) (0, 0, 0.00000000000000000000e+00) (0, 0, 0.00000000000000000000e+00) (0, 0, 0.00000000000000000000e+00) (0, 0, 0.00000000000000000000e+00) (0, 0, 0.00000000000000000000e+00) (0, 0, 0.00000000000000000000e+00) (0, 0, 0.00000000000000000000e+00) (0, 0, 0.00000000000000000000e+00) (0, 0, 0.00000000000000000000e+00) (0, 0, 0.00000000000000000000e+00) (0, 0, 0.00000000000000000000e+00) (0, 0, 0.00000000000000000000e+00) (0, 0, 0.00000000000000000000e+00) (0, 0, 0.00000000000000000000e+00) (0, 0, 0.00000000000000000000e+00) (0, 0, 0.00000000000000000000e+00) (0, 0, 0.00000000000000000000e+00) (0, 0, 0.00000000000000000000e+00) (0, 0, 0.00000000000000000000e+00) (0, 0, 0.00000000000000000000e+00) (0, 0, 0.00000000000000000000e+00) (0, 0, 0.00000000000000000000e+00) (0, 0, 0.00000000000000000000e+00) (0, 0, 0.00000000000000000000e+00) (0, 0, 0.00000000000000000000e+00) (0, 0, 0.00000000000000000000e+00) (0, 0, 0.00000000000000000000e+00) (0, 0, 0.00000000000000000000e+00) (0, 0, 0.00000000000000000000e+00) (0, 0, 0.00000000000000000000e+00) (0, 0, 0.00000000000000000000e+00) (0, 0, 0.00000000000000000000e+00) (0, 0, 0.00000000000000000000e+00) (0, 0, 0.00000000000000000000e+00) (0, 0, 0.00000000000000000000e+00) (0, 0, 0.00000000000000000000e+00) (0, 0, 0.00000000000000000000e+00) (0, 0, 0.00000000000000000000e+00) (0, 0, 0.00000000000000000000e+00) (0, 0, 0.00000000000000000000e+00) (0, 0, 0.00000000000000000000e+00) (0, 0, 0.00000000000000000000e+00) (0, 0, 0.00000000000000000000e+00) (0, 0, 0.00000000000000000000e+00) (0, 0, 0.00000000000000000000e+00) (0, 0, 0.00000000000000000000e+00) (0, 0, 0.00000000000000000000e+00) (0, 0, 0.00000000000000000000e+00) (0, 0, 0.00000000000000000000e+00) (0, 0, 0.00000000000000000000e+00) (0, 0, 0.00000000000000000000e+00) (0, 0, 0.00000000000000000000e+00) (0, 0, 0.00000000000000000000e+00) (0, 0, 0.00000000000000000000e+00) (0, 0, 0.00000000000000000000e+00) (0, 0, 0.00000000000000000000e+00) (0, 0, 0.00000000000000000000e+00) (0, 0, 0.00000000000000000000e+00) (0, 0, 0.00000000000000000000e+00) (0, 0, 0.00000000000000000000e+00) (0, 0, 0.00000000000000000000e+00) (0, 0, 0.00000000000000000000e+00) (0, 0, 0.00000000000000000000e+00) (0, 0, 0.00000000000000000000e+00) (0, 0, 0.00000000000000000000e+00) (0, 0, 0.00000000000000000000e+00) (0, 0, 0.00000000000000000000e+00) (0, 0, 0.00000000000000000000e+00) (0, 0, 0.00000000000000000000e+00) (0, 0, 0.00000000000000000000e+00) (0, 0, 0.00000000000000000000e+00) (0, 0, 0.00000000000000000000e+00) (0, 0, 0.00000000000000000000e+00) (0, 0, 0.00000000000000000000e+00) (0, 0, 0.00000000000000000000e+00) (0, 0, 0.00000000000000000000e+00) (0, 0, 0.00000000000000000000e+00) (0, 0, 0.00000000000000000000e+00) (0, 0, 0.00000000000000000000e+00) (0, 0, 0.00000000000000000000e+00) (0, 0, 0.00000000000000000000e+00) (0, 0, 0.00000000000000000000e+00) (0, 0, 0.00000000000000000000e+00) (0, 0, 0.00000000000000000000e+00) (0, 0, 0.00000000000000000000e+00) (0, 0, 0.00000000000000000000e+00) (0, 0, 0.00000000000000000000e+00) (0, 0, 0.00000000000000000000e+00) (0, 0, 0.00000000000000000000e+00) (0, 0, 0.00000000000000000000e+00) (0, 0, 0.00000000000000000000e+00) (0, 0, 0.00000000000000000000e+00) (0, 0, 0.00000000000000000000e+00) (0, 0, 0.00000000000000000000e+00) (0, 0, 0.00000000000000000000e+00) (0, 0, 0.00000000000000000000e+00) (0, 0, 0.00000000000000000000e+00) (0, 0, 0.00000000000000000000e+00) (0, 0, 0.00000000000000000000e+00) (0, 0, 0.00000000000000000000e+00) (0, 0, 0.00000000000000000000e+00) (0, 0, 0.00000000000000000000e+00) (0, 0, 0.00000000000000000000e+00) (0, 0, 0.00000000000000000000e+00) (0, 0, 0.00000000000000000000e+00) (0, 0, 0.00000000000000000000e+00) (0, 0, 0.00000000000000000000e+00) (0, 0, 0.00000000000000000000e+00) (0, 0, 0.00000000000000000000e+00) (0, 0, 0.00000000000000000000e+00) (0, 0, 0.00000000000000000000e+00) (0, 0, 0.00000000000000000000e+00) (0, 0, 0.00000000000000000000e+00) (0, 0, 0.00000000000000000000e+00) (0, 0, 0.00000000000000000000e+00) (0, 0, 0.00000000000000000000e+00) (0, 0, 0.00000000000000000000e+00) (0, 0, 0.00000000000000000000e+00) (0, 0, 0.00000000000000000000e+00) (0, 0, 0.00000000000000000000e+00) (0, 0, 0.00000000000000000000e+00) (0, 0, 0.00000000000000000000e+00) (0, 0, 0.00000000000000000000e+00) (0, 0, 0.00000000000000000000e+00) (0, 0, 0.00000000000000000000e+00) (0, 0, 0.00000000000000000000e+00) (0, 0, 0.00000000000000000000e+00) (0, 0, 0.00000000000000000000e+00) (0, 0, 0.00000000000000000000e+00) (0, 0, 0.00000000000000000000e+00) (0, 0, 0.00000000000000000000e+00) (0, 0, 0.00000000000000000000e+00) (0, 0, 0.00000000000000000000e+00) (0, 0, 0.00000000000000000000e+00) (0, 0, 0.00000000000000000000e+00) (0, 0, 0.00000000000000000000e+00) (0, 0, 0.00000000000000000000e+00) (0, 0, 0.00000000000000000000e+00) (0, 0, 0.00000000000000000000e+00) (0, 0, 0.00000000000000000000e+00) (0, 0, 0.00000000000000000000e+00) (0, 0, 0.00000000000000000000e+00) (0, 0, 0.00000000000000000000e+00) (0, 0, 0.00000000000000000000e+00) (0, 0, 0.00000000000000000000e+00) (0, 0, 0.00000000000000000000e+00) (0, 0, 0.00000000000000000000e+00) (0, 0, 0.00000000000000000000e+00) (0, 0, 0.00000000000000000000e+00) (0, 0, 0.00000000000000000000e+00) (0, 0, 0.00000000000000000000e+00) (0, 0, 0.00000000000000000000e+00) (0, 0, 0.00000000000000000000e+00) (0, 0, 0.00000000000000000000e+00) (0, 0, 0.00000000000000000000e+00) (0, 0, 0.00000000000000000000e+00) (0, 0, 0.00000000000000000000e+00) (0, 0, 0.00000000000000000000e+00) (0, 0, 0.00000000000000000000e+00) (0, 0, 0.00000000000000000000e+00) (0, 0, 0.00000000000000000000e+00) (0, 0, 0.00000000000000000000e+00) (0, 0, 0.00000000000000000000e+00) (0, 0, 0.00000000000000000000e+00) (0, 0, 0.00000000000000000000e+00) (0, 0, 0.00000000000000000000e+00) (0, 0, 0.00000000000000000000e+00) (0, 0, 0.00000000000000000000e+00) (0, 0, 0.00000000000000000000e+00) (0, 0, 0.00000000000000000000e+00) (0, 0, 0.00000000000000000000e+00) (0, 0, 0.00000000000000000000e+00) (0, 0, 0.00000000000000000000e+00) (0, 0, 0.00000000000000000000e+00) (0, 0, 0.00000000000000000000e+00) (0, 0, 0.00000000000000000000e+00) (0, 0, 0.00000000000000000000e+00) (0, 0, 0.00000000000000000000e+00) (0, 0, 0.00000000000000000000e+00) (0, 0, 0.00000000000000000000e+00) (0, 0, 0.00000000000000000000e+00) (0, 0, 0.00000000000000000000e+00) (0, 0, 0.00000000000000000000e+00) (0, 0, 0.00000000000000000000e+00) (0, 0, 0.00000000000000000000e+00) (0, 0, 0.00000000000000000000e+00) (0, 0, 0.00000000000000000000e+00) (0, 0, 0.00000000000000000000e+00) (0, 0, 0.00000000000000000000e+00) (0, 0, 0.00000000000000000000e+00) (0, 0, 0.00000000000000000000e+00) (0, 0, 0.00000000000000000000e+00) (0, 0, 0.00000000000000000000e+00) (0, 0, 0.00000000000000000000e+00) (0, 0, 0.00000000000000000000e+00) (0, 0, 0.00000000000000000000e+00) (0, 0, 0.00000000000000000000e+00) (0, 0, 0.00000000000000000000e+00) (0, 0, 0.00000000000000000000e+00) (0, 0, 0.00000000000000000000e+00) (0, 0, 0.00000000000000000000e+00) (0, 0, 0.00000000000000000000e+00) (0, 0, 0.00000000000000000000e+00) (0, 0, 0.00000000000000000000e+00) (0, 0, 0.00000000000000000000e+00) (226, 5, 5.00000000000000000000e-01) (226, 5, 5.00000000000000000000e-01) (226, 5, 5.00000000000000000000e-01) (226, 5, 5.00000000000000000000e-01) (226, 5, 5.00000000000000000000e-01) (226, 5, 5.00000000000000000000e-01) (226, 5, 5.00000000000000000000e-01) (226, 5, 5.00000000000000000000e-01) (226, 5, 5.00000000000000000000e-01) (226, 5, 5.00000000000000000000e-01) (226, 5, 5.00000000000000000000e-01) (226, 5, 5.00000000000000000000e-01) (226, 5, 5.00000000000000000000e-01) (226, 5, 5.00000000000000000000e-01) (226, 5, 5.00000000000000000000e-01) (226, 5, 5.00000000000000000000e-01) (226, 5, 5.00000000000000000000e-01) (226, 5, 5.00000000000000000000e-01) (226, 5, 5.00000000000000000000e-01) (226, 5, 5.00000000000000000000e-01) (226, 5, 5.00000000000000000000e-01) (226, 5, 5.00000000000000000000e-01) (226, 5, 5.00000000000000000000e-01) (226, 5, 5.00000000000000000000e-01) (226, 5, 5.00000000000000000000e-01) (226, 5, 5.00000000000000000000e-01) (226, 5, 5.00000000000000000000e-01) (226, 5, 5.00000000000000000000e-01) (226, 5, 5.00000000000000000000e-01) (226, 5, 5.00000000000000000000e-01) (226, 5, 5.00000000000000000000e-01) (226, 5, 5.00000000000000000000e-01) (226, 5, 5.00000000000000000000e-01) (226, 5, 5.00000000000000000000e-01) (226, 5, 5.00000000000000000000e-01) (226, 5, 5.00000000000000000000e-01) (226, 5, 5.00000000000000000000e-01) (226, 5, 5.00000000000000000000e-01) (226, 5, 5.00000000000000000000e-01) (226, 5, 5.00000000000000000000e-01) (226, 5, 5.00000000000000000000e-01) (226, 5, 5.00000000000000000000e-01) (226, 5, 5.00000000000000000000e-01) (226, 5, 5.00000000000000000000e-01) (226, 5, 5.00000000000000000000e-01) (226, 5, 5.00000000000000000000e-01) (226, 5, 5.00000000000000000000e-01) (226, 5, 5.00000000000000000000e-01) (226, 5, 5.00000000000000000000e-01) (226, 5, 5.00000000000000000000e-01) (226, 5, 5.00000000000000000000e-01) (226, 5, 5.00000000000000000000e-01) (226, 5, 5.00000000000000000000e-01) (226, 5, 5.00000000000000000000e-01) (226, 5, 5.00000000000000000000e-01) (226, 5, 5.00000000000000000000e-01) (226, 5, 5.00000000000000000000e-01) (226, 5, 5.00000000000000000000e-01) (226, 5, 5.00000000000000000000e-01) (226, 5, 5.00000000000000000000e-01) (226, 5, 5.00000000000000000000e-01) (226, 5, 5.00000000000000000000e-01) (226, 5, 5.00000000000000000000e-01) (226, 5, 5.00000000000000000000e-01) (226, 5, 5.00000000000000000000e-01) (226, 5, 5.00000000000000000000e-01) (226, 5, 5.00000000000000000000e-01) (226, 5, 5.00000000000000000000e-01) (226, 5, 5.00000000000000000000e-01) (226, 5, 5.00000000000000000000e-01) (226, 5, 5.00000000000000000000e-01) (226, 5, 5.00000000000000000000e-01) (226, 5, 5.00000000000000000000e-01) (226, 5, 5.00000000000000000000e-01) (226, 5, 5.00000000000000000000e-01) (226, 5, 5.00000000000000000000e-01) (226, 5, 5.00000000000000000000e-01) (226, 5, 5.00000000000000000000e-01) (226, 5, 5.00000000000000000000e-01) (226, 5, 5.00000000000000000000e-01) (226, 5, 5.00000000000000000000e-01) (226, 5, 5.00000000000000000000e-01) (226, 5, 5.00000000000000000000e-01) (226, 5, 5.00000000000000000000e-01) (226, 5, 5.00000000000000000000e-01) (226, 5, 5.00000000000000000000e-01) (226, 5, 5.00000000000000000000e-01) (226, 5, 5.00000000000000000000e-01) (226, 5, 5.00000000000000000000e-01) (226, 5, 5.00000000000000000000e-01) (226, 5, 5.00000000000000000000e-01) (226, 5, 5.00000000000000000000e-01) (226, 5, 5.00000000000000000000e-01) (226, 5, 5.00000000000000000000e-01) (226, 5, 5.00000000000000000000e-01) (226, 5, 5.00000000000000000000e-01) (226, 5, 5.00000000000000000000e-01) (226, 5, 5.00000000000000000000e-01) (226, 5, 5.00000000000000000000e-01) (226, 5, 5.00000000000000000000e-01) (226, 5, 5.00000000000000000000e-01) (226, 5, 5.00000000000000000000e-01) (226, 5, 5.00000000000000000000e-01) (226, 5, 5.00000000000000000000e-01) (226, 5, 5.00000000000000000000e-01) (226, 5, 5.00000000000000000000e-01) (226, 5, 5.00000000000000000000e-01) (226, 5, 5.00000000000000000000e-01) (226, 5, 5.00000000000000000000e-01) (226, 5, 5.00000000000000000000e-01) (226, 5, 5.00000000000000000000e-01) (226, 5, 5.00000000000000000000e-01) (226, 5, 5.00000000000000000000e-01) (226, 5, 5.00000000000000000000e-01) (226, 5, 5.00000000000000000000e-01) (226, 5, 5.00000000000000000000e-01) (226, 5, 5.00000000000000000000e-01) (226, 5, 5.00000000000000000000e-01) (226, 5, 5.00000000000000000000e-01) (226, 5, 5.00000000000000000000e-01) (226, 5, 5.00000000000000000000e-01) (226, 5, 5.00000000000000000000e-01) (226, 5, 5.00000000000000000000e-01) (226, 5, 5.00000000000000000000e-01) (226, 5, 5.00000000000000000000e-01) (226, 5, 5.00000000000000000000e-01) (226, 5, 5.00000000000000000000e-01) (226, 5, 5.00000000000000000000e-01) (226, 5, 5.00000000000000000000e-01) (226, 5, 5.00000000000000000000e-01) (226, 5, 5.00000000000000000000e-01) (226, 5, 5.00000000000000000000e-01) (226, 5, 5.00000000000000000000e-01) (226, 5, 5.00000000000000000000e-01) (226, 5, 5.00000000000000000000e-01) (226, 5, 5.00000000000000000000e-01) (226, 5, 5.00000000000000000000e-01) (226, 5, 5.00000000000000000000e-01) (226, 5, 5.00000000000000000000e-01) (226, 5, 5.00000000000000000000e-01) (226, 5, 5.00000000000000000000e-01) (226, 5, 5.00000000000000000000e-01) (226, 5, 5.00000000000000000000e-01) (226, 5, 5.00000000000000000000e-01) (226, 5, 5.00000000000000000000e-01) (226, 5, 5.00000000000000000000e-01) (226, 5, 5.00000000000000000000e-01) (226, 5, 5.00000000000000000000e-01) (226, 5, 5.00000000000000000000e-01) (226, 5, 5.00000000000000000000e-01) (226, 5, 5.00000000000000000000e-01) (226, 5, 5.00000000000000000000e-01) (226, 5, 5.00000000000000000000e-01) (226, 5, 5.00000000000000000000e-01) (226, 5, 5.00000000000000000000e-01) (226, 5, 5.00000000000000000000e-01) (226, 5, 5.00000000000000000000e-01) (226, 5, 5.00000000000000000000e-01) (226, 5, 5.00000000000000000000e-01) (226, 5, 5.00000000000000000000e-01) (226, 5, 5.00000000000000000000e-01) (226, 5, 5.00000000000000000000e-01) (226, 5, 5.00000000000000000000e-01) (226, 5, 5.00000000000000000000e-01) (226, 5, 5.00000000000000000000e-01) (226, 5, 5.00000000000000000000e-01) (226, 5, 5.00000000000000000000e-01) (226, 5, 5.00000000000000000000e-01) (226, 5, 5.00000000000000000000e-01) (226, 5, 5.00000000000000000000e-01) (226, 5, 5.00000000000000000000e-01) (226, 5, 5.00000000000000000000e-01) (226, 5, 5.00000000000000000000e-01) (226, 5, 5.00000000000000000000e-01) (226, 5, 5.00000000000000000000e-01) (226, 5, 5.00000000000000000000e-01) (226, 5, 5.00000000000000000000e-01) (226, 5, 5.00000000000000000000e-01) (226, 5, 5.00000000000000000000e-01) (226, 5, 5.00000000000000000000e-01) (226, 5, 5.00000000000000000000e-01) (226, 5, 5.00000000000000000000e-01) (226, 5, 5.00000000000000000000e-01) (226, 5, 5.00000000000000000000e-01) (226, 5, 5.00000000000000000000e-01) (226, 5, 5.00000000000000000000e-01) (226, 5, 5.00000000000000000000e-01) (226, 5, 5.00000000000000000000e-01) (226, 5, 5.00000000000000000000e-01) (226, 5, 5.00000000000000000000e-01) (226, 5, 5.00000000000000000000e-01) (226, 5, 5.00000000000000000000e-01) (226, 5, 5.00000000000000000000e-01) (226, 5, 5.00000000000000000000e-01) (226, 5, 5.00000000000000000000e-01) (226, 5, 5.00000000000000000000e-01) (226, 5, 5.00000000000000000000e-01) (226, 5, 5.00000000000000000000e-01) (226, 5, 5.00000000000000000000e-01) (226, 5, 5.00000000000000000000e-01) (226, 5, 5.00000000000000000000e-01) (226, 5, 5.00000000000000000000e-01) (226, 5, 5.00000000000000000000e-01) (226, 5, 5.00000000000000000000e-01) (226, 5, 5.00000000000000000000e-01) (226, 5, 5.00000000000000000000e-01) (226, 5, 5.00000000000000000000e-01) (226, 5, 5.00000000000000000000e-01) (226, 5, 5.00000000000000000000e-01) (226, 5, 5.00000000000000000000e-01) (226, 5, 5.00000000000000000000e-01) (226, 5, 5.00000000000000000000e-01) (226, 5, 5.00000000000000000000e-01) (226, 5, 5.00000000000000000000e-01) (226, 5, 5.00000000000000000000e-01) (226, 5, 5.00000000000000000000e-01) (226, 5, 5.00000000000000000000e-01) (226, 5, 5.00000000000000000000e-01) (226, 5, 5.00000000000000000000e-01) (226, 5, 5.00000000000000000000e-01) (226, 5, 5.00000000000000000000e-01) (226, 5, 5.00000000000000000000e-01) (226, 5, 5.00000000000000000000e-01) (226, 5, 5.00000000000000000000e-01) (226, 5, 5.00000000000000000000e-01) (226, 5, 5.00000000000000000000e-01) (0, 5, 0.00000000000000000000e+00) (227, 5, 5.00000000000000000000e-01) (227, 5, 5.00000000000000000000e-01) (227, 5, 5.00000000000000000000e-01) (227, 5, 5.00000000000000000000e-01) (227, 5, 5.00000000000000000000e-01) (227, 5, 5.00000000000000000000e-01) (227, 5, 5.00000000000000000000e-01) (0, 5, 0.00000000000000000000e+00) 
connections (connected_to_neuron, weight)=(0, -3.98748376785186819937e-01) (1, -4.85953396058288578097e-01) (2, -5.35770440761330402069e-01) (3, -5.30819350884678575753e-01) (4, -4.97821626274028705694e-01) (5, -4.29839085137205756393e-01) (6, -5.57489273285263431390e-01) (7, -4.76065731896799737566e-01) (8, -4.97445982130610031557e-01) (9, -5.46682279810987381552e-01) (10, -3.86389989460859617498e-01) (11, -5.27026560197189741785e-01) (12, -5.68583369640138336365e-01) (13, -4.83888150515976056543e-01) (14, -5.13775685070137044796e-01) (15, -4.82183723902913197179e-01) (16, -5.52386709819275845135e-01) (17, -4.39574800486347283535e-01) (18, -4.26423761182495475452e-01) (19, -4.58397477086598725826e-01) (20, -5.47812653142638716908e-01) (21, -4.52037453683637180379e-01) (22, -5.75675048544725953548e-01) (23, -4.81386088188770044916e-01) (24, -5.68671495246990676975e-01) (25, -5.57715939611815536558e-01) (26, -5.30005054693488575346e-01) (27, -5.92782609439830299181e-01) (28, -3.86413430685647263374e-01) (29, -5.67610944553115115419e-01) (30, -4.98209247403907651286e-01) (31, -4.88636680344155582834e-01) (32, -4.49323019565922965324e-01) (33, -5.22151055586410506315e-01) (34, -4.24631095473240960381e-01) (35, -5.49114487412991625348e-01) (36, -4.96366241299058208458e-01) (37, -5.69876871205873714032e-01) (38, -5.61157322018065896074e-01) (39, -4.52270535449963484442e-01) (40, -5.13118383984439208056e-01) (41, -5.08992088097820372106e-01) (42, -4.68025937112465373335e-01) (43, -3.95290073674583852803e-01) (44, -4.49835396522803021568e-01) (45, -4.10666799421904316070e-01) (46, -4.56391522237124480643e-01) (47, -5.53251483526664977752e-01) (48, -4.91408120127992953385e-01) (49, -5.37877100735905333551e-01) (50, -3.83448428096881732685e-01) (51, -5.61719356921341672617e-01) (52, -4.32850417511657703518e-01) (53, -4.06746093941322106602e-01) (54, -3.92616558811870408618e-01) (55, -4.87372678689528271434e-01) (56, -4.67180821900700538052e-01) (57, -4.13192694439594276901e-01) (58, -5.83860790089197667641e-01) (59, -4.42394601086648464605e-01) (60, -5.58149789820361119652e-01) (61, -4.61460017537821343137e-01) (62, -4.66993209226133354495e-01) (63, -5.64175795698014903579e-01) (64, -4.82519365482761974917e-01) (65, -3.97942391030383035844e-01) (66, -5.14644295461010203852e-01) (67, -5.41293707240566801531e-01) (68, -5.09981074799618072646e-01) (69, -4.60952225752673139247e-01) (70, -3.88619775870798822570e-01) (71, -5.24250181474008480897e-01) (72, -5.98989442124423510094e-01) (73, -4.22519416348951126761e-01) (74, -4.55358549558978198402e-01) (75, -5.91797731653940117802e-01) (76, -5.30424280812733739410e-01) (77, -5.80456407074159130843e-01) (78, -5.41616255755190123544e-01) (79, -5.11208932544514049745e-01) (80, -4.91257507984917685118e-01) (81, -4.32333296571803915587e-01) (82, -2.91757690451457774028e-01) (83, -5.24022895340189531765e-01) (84, -4.03902823958786461045e-01) (85, -5.03413799732562505795e-01) (86, -4.74470125899374761680e-01) (87, -4.82754709525994640806e-01) (88, -4.20917439845772678453e-01) (89, -5.50796529094106590563e-01) (90, -4.74382958905125329263e-01) (91, -5.13498576613741319896e-01) (92, -5.65018136900175438342e-01) (93, -5.05329017693642468245e-01) (94, -3.83015855198473642584e-01) (95, -5.28409285239729853423e-01) (96, -4.04107748164002411606e-01) (97, -5.26493323527926104788e-01) (98, -4.79291942962103478809e-01) (99, -4.93835812401870744015e-01) (100, -4.63335564815440970055e-01) (101, -5.46852738514759240118e-01) (102, -3.61514590187877182803e-01) (103, -3.55296951350225653776e-01) (104, -4.63330297401363278009e-01) (105, -5.30522187068485862049e-01) (106, -4.97942166930545548897e-01) (107, -4.64259131534933533469e-01) (108, -4.04221161015648366988e-01) (109, -4.18398104999546160965e-01) (110, -5.45479744721347192815e-01) (111, -4.20920354683120223616e-01) (112, -4.76768130078576601871e-01) (113, -3.83361526589044154800e-01) (114, -4.72549561714917354394e-01) (115, -4.28768166205219347642e-01) (116, -4.83256919261184636483e-01) (117, -5.08495897123381057625e-01) (118, -5.06878273585989247429e-01) (119, -5.14326945056879925033e-01) (120, -5.55800938766818686254e-01) (121, -4.78795143841862613776e-01) (122, -4.73187412668756579581e-01) (123, -3.18492859327126509594e-01) (124, -2.16532068282971779105e-01) (125, -3.99226461809320587459e-01) (126, -2.53408610086106100834e-01) (127, -3.63233537339973988622e-01) (128, -1.92298521968006314031e-01) (129, -1.85416452513883889264e-01) (130, -2.00959953672251001588e-01) (131, -4.20285270234604657613e-01) (132, -4.65212586442754927329e-01) (133, -4.56018371681157441699e-01) (134, -4.83648534780143135592e-01) (135, -4.24638300358906539689e-01) (136, -3.90677890539966710115e-01) (137, -4.25400434883719980039e-01) (138, -4.11525774210589889712e-01) (139, -3.60130802697906260423e-01) (140, -5.60263968794810551799e-01) (141, -5.58890760690139432043e-01) (142, -5.56633206703984528829e-01) (143, -4.42518079934349772842e-01) (144, -5.12366289867351110132e-01) (145, -4.47069437027926008810e-01) (146, -4.74010534405343186837e-01) (147, -5.03456210476882271010e-01) (148, -5.62872465890637885266e-01) (149, -4.62251550851730419467e-01) (150, -4.21957271479185436203e-01) (151, -4.34762918076578852578e-01) (152, -5.35535300377402712080e-01) (153, -3.90071895465163576144e-01) (154, -4.82852794341566748937e-01) (155, -4.75313817526389070789e-01) (156, -5.40909117021273866399e-01) (157, -3.84487915832780302594e-01) (158, -4.27382671311976103379e-01) (159, -4.93155891332351659084e-01) (160, -5.07068866223463032838e-01) (161, -5.71207262892448053293e-01) (162, -5.65232604937910720899e-01) (163, -5.06589616928686536923e-01) (164, -5.51715539847316360778e-01) (165, -4.04489704713033360051e-01) (166, -4.34053836112378854661e-01) (167, -5.54166254547319381274e-01) (168, -4.90468331289552528229e-01) (169, -5.21306563355874885701e-01) (170, -5.64604010581213344722e-01) (171, -4.17061946577755027210e-01) (172, -4.03293158592048728295e-01) (173, -3.97578418452732229582e-01) (174, -5.53081610121727518248e-01) (175, -6.15720169222348956417e-01) (176, -4.06855884261640377009e-01) (177, -4.29743665833955679201e-01) (178, -4.38283965533379782364e-01) (179, -4.30676598197672066970e-01) (180, -5.89604150875335908388e-01) (181, -4.46700093589571967101e-01) (182, -3.99301015343642762279e-01) (183, -3.78480697712488822759e-01) (184, -5.53657781377324687000e-01) (185, -4.94579561407996193267e-01) (186, -4.90578581948089120779e-01) (187, -5.75158879902411657170e-01) (188, -3.91386774947427296123e-01) (189, -4.00474252078889370043e-01) (190, -5.17565606991931881353e-01) (191, -3.71992527050184040860e-01) (192, -5.33904889038346652796e-01) (193, -5.18746038338683490565e-01) (194, -5.44813605143243839812e-01) (195, -4.20754314554910968660e-01) (196, -4.22457772517944363244e-01) (197, -4.91391287267471277289e-01) (198, -4.85455443259922125865e-01) (199, -5.65447496480217859371e-01) (200, 1.75705287015517908067e-01) (201, -2.00643370866448877976e+00) (202, -5.49573218039221766951e-01) (203, -2.13250833325936806073e-01) (204, -3.49669395215729483795e-01) (205, -6.23082610213105958508e-01) (206, -5.50577133946048902224e-01) (207, -5.67671657813371144385e-01) (208, -5.13928603906965486559e-01) (209, -5.69411304224739178714e-01) (210, -4.24729035925550169051e-01) (211, -4.18646502557860400451e-01) (212, -5.17618490410555520675e-01) (213, -3.98587993273137652928e-01) (214, -4.21732770176957871833e-01) (215, -4.90948026860959729767e-01) (216, -4.08053992877381310755e-01) (217, -3.90493766981851009312e-01) (218, -4.28452748247319381569e-01) (219, -4.37606445647630570850e-01) (220, -3.82399781653032233564e-01) (221, -5.46509990757603092426e-01) (222, -4.02886065606666454730e-01) (223, -4.51223983576026943521e-01) (224, -5.51049398313561367146e-01) (225, -4.99657947045436812150e-01) (0, 1.01523166777289272633e-01) (1, -3.41828138653748822562e-02) (2, 1.04077990533174694066e-01) (3, 1.84781150445322395193e-01) (4, 1.91526627342493177553e-01) (5, -1.39523257371341295741e-02) (6, 3.52196451573909413701e-02) (7, -1.11597483974850506666e-02) (8, 1.01411985081564570699e-01) (9, 1.34916753534154471028e-01) (10, 1.06701106790381666789e-01) (11, 8.46991634311020230585e-02) (12, 2.14005640024489907081e-01) (13, 1.62057213485981926882e-01) (14, 7.35785824326767173842e-03) (15, 7.31709460128305011484e-02) (16, 1.05565969435846729318e-01) (17, 7.71389397846009849946e-02) (18, 1.54350935454122734081e-01) (19, 1.88867026036515589515e-01) (20, 2.63087513945895086487e-02) (21, 1.30655027152641378674e-01) (22, 1.78226098798282467373e-01) (23, 1.46427981968850290384e-01) (24, 1.62309832287995503552e-01) (25, 9.83305028745343479013e-02) (26, 1.15932515294360716229e-01) (27, 3.14024261584786926194e-02) (28, 9.23244851221146495268e-02) (29, 2.97107404759119550497e-02) (30, 1.54555986916594334524e-01) (31, 8.89447455281485582779e-02) (32, 5.52321581432178437820e-02) (33, 1.80858663623779031271e-01) (34, -6.89647554814236743437e-03) (35, 5.07133168726551994410e-02) (36, 3.03380871193934115171e-02) (37, 6.35979261935464140754e-02) (38, 8.84516516767752808414e-02) (39, 1.29025832978946125573e-01) (40, 1.29578715766799940079e-01) (41, 1.60847284594143075109e-01) (42, 4.58708815164727001790e-02) (43, -8.32648699313262748156e-03) (44, 5.90733017316422970300e-02) (45, 1.32993693231642701180e-01) (46, 1.13416153988227963456e-01) (47, 4.95625851718528992462e-02) (48, -1.83693623378173090388e-02) (49, -3.11009664511215653052e-03) (50, 2.08965716515482902160e-01) (51, 9.77066501026108563677e-02) (52, 1.96188287727538684946e-01) (53, 2.15188683774814731864e-01) (54, 1.47179456978121292465e-01) (55, 8.26262531732340210766e-02) (56, 8.82060211207854813487e-03) (57, 7.03661569205991238585e-02) (58, 1.22766372083066468979e-01) (59, 6.30996337395372253187e-02) (60, 6.37416160683812738075e-02) (61, 1.64974756577124681556e-01) (62, 7.06898280683895541276e-02) (63, 1.04763928410356921272e-01) (64, 1.63802590466118641599e-01) (65, -4.96906385115942865471e-03) (66, 1.45916815988506920476e-01) (67, 1.16494877960939907657e-01) (68, 1.65787258314312763163e-01) (69, 2.01496323184254005900e-01) (70, 1.33592973750610355399e-01) (71, 6.50540136893871384638e-02) (72, 4.83006087990473439997e-02) (73, 9.94845102721816088032e-02) (74, 1.80044767923298376644e-01) (75, 7.04103417319291158272e-02) (76, 1.19200337774886463982e-01) (77, 6.17172227007943205446e-02) (78, 1.46977750326982188611e-02) (79, 4.35622197016567042072e-02) (80, 1.33123700569249131531e-01) (81, 1.92507763000309500834e-01) (82, 3.04957928411543691127e-02) (83, 1.23090618625096417937e-01) (84, -3.00569053201633663852e-02) (85, -8.81592898748383840823e-03) (86, 7.01451212725521661140e-02) (87, 2.86731385235918755094e-02) (88, 5.21251149256607496096e-02) (89, 1.20322178634618762172e-01) (90, 7.49572544599096945994e-02) (91, 9.90225667983100910075e-02) (92, 7.30117904343641765941e-02) (93, 1.14910231116277905539e-01) (94, 8.05886789338294828866e-02) (95, 5.04282890932294253217e-02) (96, 1.46523463659483321742e-01) (97, 1.05557460925500154469e-01) (98, 1.15621816954536119071e-01) (99, 1.39373802199700025373e-01) (100, 2.27007930320217710118e-01) (101, 7.23590543390224688602e-02) (102, 2.50710207785709016104e-01) (103, 2.16734720521495977108e-01) (104, 4.92581908061512155350e-02) (105, 1.09213570978034038572e-01) (106, -8.09703571084779971656e-03) (107, 8.22000152198922584557e-02) (108, 1.28332557402415892156e-01) (109, 2.00993176826851444039e-01) (110, 1.28323700245321942193e-01) (111, 1.86942464635080934920e-01) (112, 2.31555641212594698342e-01) (113, 1.29004092247207796662e-01) (114, 1.75723668674611477325e-01) (115, 8.05713973431522040292e-02) (116, 6.79962329563583642300e-03) (117, 1.36004839059812837609e-01) (118, 1.56431125267734366657e-01) (119, 6.51302015759600977374e-02) (120, 9.52833277890293844914e-02) (121, 1.91229225251066892177e-01) (122, 8.15315560102436442946e-02) (123, 2.14584030805557268717e-01) (124, 3.08411699512331660689e-01) (125, 4.66243512103241164457e-01) (126, 4.14510066255947329239e-01) (127, 9.66812619756559077366e-02) (128, 4.82394888313704209293e-02) (129, 2.56418063273213259201e-02) (130, 9.68638586734277551304e-02) (131, 1.66985013111750374426e-01) (132, 1.14069545112149506316e-01) (133, 1.03433938656207313755e-01) (134, 6.29146052605063094143e-02) (135, 3.15691421033083424730e-02) (136, 2.87846671600073683583e-02) (137, -2.67400912209527497065e-02) (138, 7.01848752843580239724e-03) (139, -8.36164714121093860522e-02) (140, -2.80540308556455862676e-03) (141, 2.02135531680045055225e-01) (142, 2.11818370284760415512e-01) (143, 1.24209587835565432590e-01) (144, 1.76826613028788520721e-01) (145, 1.08978306908892874638e-01) (146, 9.23237618854213654140e-02) (147, 1.93599867901310951357e-02) (148, 2.30344133575031390082e-01) (149, 2.03435031182268688532e-01) (150, -1.58662921686913510610e-01) (151, -4.29893327831957637770e-04) (152, -8.90728874446800739095e-02) (153, -2.62703646778597900424e-02) (154, 6.26629157923626611826e-02) (155, 9.17194891847850218847e-02) (156, 3.49294001542446164166e-02) (157, 5.94617479454260383642e-02) (158, 2.44960764034366645925e-02) (159, 1.34573154782389098338e-01) (160, 9.89644668956719819608e-02) (161, 9.53676154957575489268e-02) (162, 1.03929212166946102758e-01) (163, 7.93832154095813896655e-02) (164, 9.48326834560086068260e-02) (165, 1.63038826318849333630e-01) (166, 8.73320895956203602228e-02) (167, 8.79488887725993484512e-02) (168, 2.18862089531910442020e-01) (169, 1.79678226089954873324e-01) (170, 1.17278609222428747971e-01) (171, 2.15030723481487828774e-01) (172, 2.44599350119900998957e-01) (173, 2.33741026650504751805e-01) (174, 4.28807032764018936088e-02) (175, -3.31559105538538179125e-01) (176, -1.90990858202586162584e-02) (177, -7.95637218184121058906e-02) (178, 3.54427588759770317850e-02) (179, 1.86762212230848295702e-01) (180, 6.85292568328145224044e-02) (181, -2.72130415871208418410e-03) (182, 5.68743064927794556018e-02) (183, 9.78837619739667957885e-02) (184, 4.19629733879152144738e-02) (185, 1.19560009799441466227e-01) (186, 1.69501922109908637060e-01) (187, 1.71646582917607398722e-01) (188, 1.40138401278498997415e-01) (189, 1.14107263979514594876e-01) (190, 2.55615925019292311582e-01) (191, 1.33849174907142820512e-01) (192, 1.50653959443503210336e-01) (193, 1.88980007587173953754e-01) (194, 1.19334384189256126341e-01) (195, 1.28182993462021499464e-01) (196, 1.21602895451636813795e-01) (197, 2.43639589458122834964e-01) (198, 7.28248704280400477318e-02) (199, 9.72308021307038972125e-02) (200, 6.21396645925785695574e-01) (201, -5.35855504037955274188e-02) (202, -4.88572107944701572446e-01) (203, 5.25323971410165402318e-02) (204, 9.97145225816873786995e-02) (205, -5.48651378397838965228e-02) (206, 1.13267706484686758728e-01) (207, 3.42741394837814614127e-02) (208, 1.69301284568367987893e-01) (209, 1.26803463010168149250e-01) (210, -2.43956786321773352877e-03) (211, 1.81310626905976171597e-02) (212, 6.33888290569356027682e-02) (213, 1.67833181603459530296e-01) (214, 7.01401483510333267901e-02) (215, 2.01918460124962784175e-01) (216, 1.91107231608608596485e-01) (217, 1.37320145905334367598e-01) (218, 1.84000155127647641029e-01) (219, 2.03851294923046433283e-01) (220, 1.13891950285561968648e-01) (221, 1.75585658493069451946e-01) (222, 2.56325042588559592893e-01) (223, 1.06246897729318418024e-01) (224, 2.42341441433466475708e-01) (225, 1.59791970011584544276e-01) (0, 2.75261054508951830133e-01) (1, 2.90669985474821424010e-01) (2, 2.50027429117427257843e-01) (3, 3.08512013210521129913e-01) (4, 2.58857842339740296111e-01) (5, 3.48897238519755625852e-01) (6, 3.76630082767104579222e-01) (7, 2.35411259348742046837e-01) (8, 5.10257030098139940932e-01) (9, 1.93523824448577824731e-01) (10, 9.68700042908867131608e-02) (11, -9.26843683153908033667e-03) (12, -1.84409325805067539350e-02) (13, -8.10881504872205671752e-02) (14, -2.68993411499103933504e-02) (15, 6.74642242771023720183e-03) (16, 9.30210620811188770851e-02) (17, 6.57373691380376407034e-02) (18, 9.09637890820699929195e-02) (19, -3.29790866937502216705e-02) (20, -6.12977870500951357857e-02) (21, -2.99326303680353851544e-02) (22, 1.16614606359629238708e-01) (23, -1.40648098340943994433e-01) (24, -7.74387909572597440966e-03) (25, -8.14212682699047424206e-02) (26, -6.56702776996612863636e-02) (27, -7.47539565917035020437e-02) (28, -1.43138056761403176242e-01) (29, -1.34520927182178284820e-01) (30, -9.06177502729927641933e-02) (31, -1.39088691631197830523e-01) (32, -7.67992311118078363474e-02) (33, -5.81809403084024567843e-02) (34, -5.60920843672942023850e-02) (35, -5.98832085599574001633e-02) (36, 1.01350029767962798721e-02) (37, 7.68105182860219920515e-02) (38, 1.54386052535043477585e-01) (39, 9.26928772756713675873e-02) (40, 3.37234609311745370253e-02) (41, 8.81346302685549615186e-02) (42, 1.88734835630398722905e-01) (43, 1.24603452718882956596e-01) (44, 2.28708872078101430178e-04) (45, -2.59431045683401889645e-02) (46, 3.74079402537265681694e-02) (47, -3.79919062704293306054e-02) (48, 1.33304776198367502804e-01) (49, -6.85425521538299553637e-02) (50, 8.44646179712626732350e-02) (51, -4.26963300130402123589e-02) (52, 7.65588984378231390826e-02) (53, 1.10021955493444484331e-01) (54, -2.18412259031337645243e-02) (55, 1.13818836963017672170e-01) (56, 1.48498283913895662289e-01) (57, 8.30536294009477232825e-02) (58, 1.34002493974264391685e-01) (59, -3.46492517300543007019e-03) (60, 1.03487530889912384552e-02) (61, 1.53428791376103933718e-03) (62, 1.36645228019058345703e-01) (63, 6.06657761721777558095e-02) (64, -1.90828728353338375467e-02) (65, -2.39658494701805557803e-01) (66, 3.42724736666625728887e-01) (67, 2.52556626192269768894e-02) (68, 3.62387361461091184189e-02) (69, 1.26401832156442323063e-01) (70, -3.46019741372689981773e-01) (71, 6.73894256492706955619e-02) (72, -7.80106413500114698190e-02) (73, -5.09165909663141375008e-02) (74, -1.27935131384755568229e-01) (75, -3.25489391855297571787e-02) (76, 1.03871993669777534786e-01) (77, -5.39232956519587573740e-03) (78, -1.97004254371869295948e-02) (79, -1.13553778583854847462e-01) (80, -2.08416557670696001026e-01) (81, -1.92494558661954001666e-01) (82, -9.67838688178745132351e-02) (83, -9.62867729170737707278e-02) (84, 1.70104901751091003607e-04) (85, -1.17651847560065303533e-01) (86, -3.27031422366085705589e-02) (87, -8.41638347007798576227e-02) (88, -2.50953681057878782990e-02) (89, -5.73079488566004824346e-02) (90, 9.04443374318606857498e-02) (91, -6.06402469757781354548e-03) (92, 7.88070604157158627334e-02) (93, 7.20061783531867199981e-02) (94, 9.81312537625754627291e-02) (95, -2.79117266652619336331e-02) (96, 4.12563603385119673228e-02) (97, 4.14254948005693263147e-02) (98, -7.90713480989983091840e-02) (99, -3.67692837401220329330e-02) (100, 6.02591723307911372731e-02) (101, 8.00030867690221525468e-02) (102, 1.76977502586041640642e-01) (103, 1.86927183350327624778e-01) (104, 3.01410150747719762787e-01) (105, 3.28365611019235281720e-01) (106, 3.05548604657766287307e-01) (107, 2.70182738511697217998e-01) (108, 2.05235909697286028619e-01) (109, 1.90209131504514517008e-01) (110, -2.14607895041278584625e-02) (111, 5.78020083964455588799e-02) (112, -2.28633615450892202503e+00) (113, -2.86098726759057830904e+00) (114, -4.40660704768065958348e+00) (115, -5.04131546051291934418e+00) (116, -3.63868905694283029106e+00) (117, 7.04823260419243924346e-01) (118, -1.23219159423575885803e+00) (119, 1.13251312942889525992e+00) (120, -1.73021684020437138685e+00) (121, 2.60707673870179845732e-01) (122, -8.52100407396098324941e-02) (123, -3.30062805328306207997e+00) (124, -2.49967211029425184776e+00) (125, 8.93666459319249262272e-01) (126, 1.65859759589407196323e+00) (127, 8.33682668649339819744e-01) (128, 7.69121163207710289988e-01) (129, -7.93318510071959609453e-02) (130, -1.49958462178959162081e+00) (131, -9.13404896934147503273e-01) (132, -3.43095815410212567897e+00) (133, -1.97023387062935650960e-01) (134, -2.45353266590811643078e-02) (135, 3.94408391666488250538e-02) (136, -5.17248888111253302124e-02) (137, 6.01736302167566669552e-02) (138, 1.09134029297576637396e-01) (139, 5.13932676872758884001e-02) (140, 1.10649437408158787810e-01) (141, 1.31845014026933576856e-01) (142, 2.22044302108019390996e-03) (143, 7.45872314924500706690e-02) (144, -5.25381307740596381617e-02) (145, -3.99146943225043779324e-02) (146, 8.96086411510506192224e-02) (147, -9.57121546756455748861e-03) (148, -2.59054432353893297758e-02) (149, -1.00906019579910018885e-02) (150, -1.62048354053474230607e-01) (151, -1.85410060760954481518e-01) (152, -1.26979642288516467868e-02) (153, 9.13885376967041446195e-02) (154, 5.88442038846968482058e-02) (155, 1.40645767621317724361e-01) (156, 1.56573079854219726625e-01) (157, 1.14154753928692093146e-01) (158, 1.07576170436153389920e-01) (159, 6.60880243919236137762e-02) (160, -5.88647803219796220131e-02) (161, 6.93503912494622815066e-02) (162, 8.56861257538189674543e-02) (163, -4.84035786133165876755e-02) (164, -2.12980639260641098354e-02) (165, 1.24274370471338479853e-03) (166, 1.21071066477025965358e-01) (167, -2.95137550711582485885e-02) (168, 6.79242028229637070935e-03) (169, 1.35705738554579624644e-01) (170, 1.17062820993057460639e-02) (171, -5.43366435115447271587e-02) (172, 5.44663561188974895688e-02) (173, 2.19401044434528007254e-02) (174, 9.39259911132436647874e-02) (175, 7.14788595211748645220e-01) (176, 7.79817269644677568685e-02) (177, -2.31542864511511736758e-01) (178, 5.78036885985331538862e-01) (179, 1.00816550997149381730e-01) (180, 9.57178817628950434626e-02) (181, 9.00313158120350787161e-02) (182, -4.15569274646955810759e-02) (183, 1.75938649864711381399e-02) (184, 4.46468698989014450840e-02) (185, 4.46775712965497215357e-02) (186, -8.30112416413852499675e-02) (187, 1.35614785918163366363e-01) (188, -3.87947560718062689489e-02) (189, -7.26505871415628612375e-02) (190, -5.73896861484268772102e-02) (191, 9.37498437635279034674e-03) (192, 6.00274928019999612361e-02) (193, 2.22359907087087659006e-02) (194, -4.15658993079062039078e-02) (195, -1.28365148197551286191e-02) (196, 4.79257858633920300062e-02) (197, 1.64364535907964470947e-03) (198, 1.05410710536972734852e-01) (199, -6.94767933784045665924e-02) (200, 3.52837634836159130813e+00) (201, -2.78497247951552324707e+01) (202, 4.53562162245726909759e+01) (203, 4.05724674846463670974e+01) (204, 3.09253087741548027267e+00) (205, 8.11064519990671084493e-01) (206, 1.62023332351245059890e-02) (207, -4.04352361316493436050e-02) (208, -1.57313797116747033922e-01) (209, -1.11547029101194863920e-01) (210, -1.04489245162728117133e-01) (211, 1.49780840504575903788e-02) (212, -5.05736533539366053813e-02) (213, -3.25760315568338135184e-02) (214, 1.44568087169227255107e-01) (215, 2.25654256121265127388e-02) (216, -1.23730114093911908180e-02) (217, 7.13836427368001874560e-02) (218, 1.05198069236849441055e-02) (219, -6.68264819584216684945e-02) (220, -1.20012810677514542013e-01) (221, -7.29977838940144424518e-02) (222, -2.42328854512652541731e-01) (223, 3.43543017090232813415e-02) (224, 3.15942682098812877012e-02) (225, 1.64492834582650633568e-02) (0, 1.16710031331654806586e-01) (1, 1.72623309753933251720e-01) (2, 1.45385730516791239486e-01) (3, 1.82801441670097097880e-01) (4, 1.88992495219432343756e-01) (5, 2.05390413668307070250e-01) (6, 2.59958805730119646427e-01) (7, 2.12817823177119419542e-01) (8, 1.02126911318318566724e-01) (9, 9.18087814998951867729e-02) (10, 5.08898110112152926576e-02) (11, 8.46853412323444881826e-02) (12, 1.24919182935518471855e-01) (13, -9.54281088108352715249e-02) (14, -9.18778429412555747158e-02) (15, -4.05529206624882510024e-02) (16, 4.51209353646768313029e-02) (17, -9.79142903486852955730e-01) (18, -2.51908341931252999224e-01) (19, 5.76316855651649098680e-02) (20, -2.98309640106173057372e-01) (21, 5.15381411289681998222e-02) (22, -1.24053460789090713723e-01) (23, -7.21849980263549045878e-02) (24, 1.35210873775604228930e-01) (25, 1.04573585481416361787e-01) (26, 7.91378547652690084169e-02) (27, 2.58583222170770066217e-01) (28, 2.25665138890117300541e-01) (29, 1.53423973230249532929e-01) (30, 2.75650296129907990128e-01) (31, 2.64105863856896272424e-01) (32, 2.36131804719092286415e-01) (33, 2.60931011488162001299e-01) (34, 2.32922803409637696470e-01) (35, 2.57033294666703215903e-01) (36, 9.19417683958667214528e-02) (37, 1.86958023121824662427e-01) (38, 1.44436364899138247608e-01) (39, 1.09990522990837502615e-01) (40, 2.49890613301684938463e-01) (41, 2.06784835375345477093e-01) (42, 1.68503606280803908124e-01) (43, 1.66011480527861465806e-01) (44, 2.50640837032559349318e-01) (45, 9.51784293969454436857e-02) (46, 1.71361855742835134109e-01) (47, 1.60451594562051852444e-01) (48, 1.93204054754848364439e-01) (49, 1.39618186422913154177e-01) (50, 1.56374308215482815676e-02) (51, 1.09295585298622377479e-01) (52, 9.92981647323617488965e-02) (53, 1.97003113327312906478e-01) (54, 1.87168532474453752634e-01) (55, 1.89511009954471981720e-01) (56, 1.65049004423546530340e-01) (57, 2.16182818662689263389e-01) (58, 1.80573831061570322376e-01) (59, 5.56845963972239510476e-02) (60, 1.54254694569638167723e-01) (61, 1.74731016473827549529e-01) (62, 7.88242217187069132978e-02) (63, -1.81107746382723165668e-02) (64, 9.05551465351000783865e-02) (65, 1.70270317081717442731e-01) (66, 1.86609457267237932587e-01) (67, 9.82174331234712677530e-02) (68, 5.96597388855410123987e-02) (69, 1.58292976571860505297e-01) (70, 1.01530530873023092098e-01) (71, 1.67235001101487451569e-01) (72, 1.52664200738555855263e-01) (73, 1.41556926689125534002e-01) (74, 4.63273080134287001952e-02) (75, 2.33199544948252651677e-01) (76, 2.55970389752859461829e-01) (77, 2.66252086751415151245e-01) (78, 1.04061435724850881446e-01) (79, 2.24510903487195850881e-01) (80, 9.91842341779185926454e-02) (81, 1.51200379497407250140e-01) (82, 1.43097071467606945516e-01) (83, 2.13035035881478734821e-01) (84, 2.54776325502358624853e-01) (85, 2.19992964116043521194e-01) (86, 6.98342185526827780029e-02) (87, 2.24268855624827539996e-01) (88, 1.25587390791855296746e-01) (89, 1.10638574877443010558e-01) (90, 1.14614060981985926846e-01) (91, 1.31082910002474045674e-01) (92, -8.46377648213703370761e-02) (93, 7.52311658636059810146e-02) (94, -8.29249994845422840062e-03) (95, -6.48653953659861920444e-02) (96, -4.20020158269614896085e+00) (97, 3.50144556332105047480e-02) (98, 1.71586892098549104180e-01) (99, 3.13379078686790088493e-02) (100, -3.86790345360567833222e-02) (101, 5.42883181408403622803e-02) (102, 8.92147380061203698620e-02) (103, 8.83858332652200651136e-02) (104, 2.40388439237569501161e-01) (105, 2.13719346989866221254e-01) (106, 1.40198892997165008856e-01) (107, 9.57062162209549871505e-02) (108, 9.59668386813999213514e-02) (109, 4.91443683261929831207e-02) (110, 1.58094998330962993593e-01) (111, 1.73588707557036064921e-01) (112, -1.30142289253513121494e-01) (113, -8.68369981887123221220e-01) (114, -1.29221269952360995337e-01) (115, -6.93422145592881011833e-02) (116, 5.47848469384915465197e-02) (117, -7.19009040350333972214e-01) (118, 1.56575533382083548206e-02) (119, 2.67598092475238719112e-02) (120, -2.00079564885425997822e-01) (121, -6.33177243094287661718e-02) (122, -1.86833051359489799026e-01) (123, -6.27558698382563839857e-01) (124, -2.78761343999938959737e-01) (125, 1.04293867656897451535e-01) (126, 6.70731766229991782646e-02) (127, 2.05462292734889945267e-02) (128, 1.15571079567553372525e-01) (129, 4.94456052368514933915e-02) (130, 1.94392494237513341337e-01) (131, -3.29616561832627330553e-01) (132, 8.68649718927648820110e-03) (133, 2.60312643907818219713e-01) (134, 8.22228193216554131828e-02) (135, -1.87880704827388320122e-02) (136, 4.91267446686713057935e-02) (137, 2.26315413154110703364e-02) (138, 1.68634437686923238653e-02) (139, 1.09036553451698603467e-01) (140, -2.09499441128265129208e-01) (141, -3.27313876759215194312e+00) (142, -3.25103168620319760151e+00) (143, -1.05729604521753084434e+00) (144, -6.73854038157958079580e-01) (145, -6.72349166517232976759e-01) (146, -4.27706310783318954805e+00) (147, -2.51533999380535583379e-02) (148, 8.08365551098314538692e-02) (149, 1.59810277987330676130e-02) (150, 3.20000929936771622009e-02) (151, 6.09131540132219553851e-02) (152, 5.00761187821250827734e-02) (153, 4.79697470158338273860e-02) (154, 1.49149738993919117602e-01) (155, 9.21781425963038997251e-02) (156, 1.69356415067274862496e-01) (157, 2.37279021775351567358e-01) (158, 1.84370965679107629009e-01) (159, 1.61956947342476648144e-01) (160, 1.46688964409560418378e-01) (161, 8.97273448102549608940e-02) (162, 1.38316876310210196133e-01) (163, 6.94593908850944935507e-02) (164, 1.61916179797200715518e-01) (165, 1.51687462773112818892e-01) (166, 2.13236975900334829737e-01) (167, 2.68297633502010024475e-01) (168, 7.37460630309981213237e-02) (169, 1.35471124732074121866e-01) (170, 2.67762271098058668439e-01) (171, 2.20276194206986075663e-01) (172, 1.65206253212792086860e-01) (173, 1.53858483053212480307e-01) (174, 1.30595058931652491241e-01) (175, 3.28629016579242094753e-01) (176, 3.73234123799949024658e-01) (177, 2.74480253463347756426e-01) (178, 8.62739776682139580810e-02) (179, 1.93199772216064213914e-01) (180, 6.52530354941189133511e-02) (181, 2.03556354381785931107e-01) (182, 2.30478809362565345564e-01) (183, 1.74060448748337537328e-01) (184, 1.49610141102560795234e-01) (185, 5.92838644195686562122e-02) (186, 4.55560393063513188738e-02) (187, 1.64527602231245712039e-01) (188, 1.41107627557871817547e-01) (189, 1.10223416576853264215e-01) (190, 8.10900862730460220140e-02) (191, 1.96134848087394342286e-01) (192, 2.00980899422729120118e-01) (193, 5.28624456883082585734e-02) (194, 8.09400951086233361176e-02) (195, 1.65006362151022406559e-01) (196, 2.03366350413729329860e-01) (197, 1.78908905923496897028e-01) (198, 3.25508649425713669778e-02) (199, 1.11055760295839731078e-01) (200, 4.19218567921804385890e+00) (201, 5.13627471402099011755e+00) (202, -4.02048443356249229907e+00) (203, -8.08151069538943334081e-01) (204, 1.55203211048443062703e-01) (205, 1.30636878891171759332e-01) (206, 2.23740342016196469555e-01) (207, 1.39592252118292375895e-01) (208, 1.18094563494084647814e-01) (209, 1.95021535775157905945e-01) (210, -3.52397194418246420544e-02) (211, 3.21468741387934756060e-02) (212, 1.00443205411204314337e-01) (213, 1.26099902899054372440e-01) (214, 1.30099426892260366939e-01) (215, 4.21065182481352023869e-02) (216, 5.72424070173272389606e-02) (217, 2.03947735697742160710e-01) (218, 1.22798319136419586961e-01) (219, 1.35845356407596040693e-01) (220, 1.32991370896621080577e-01) (221, 1.95666984702500351689e-01) (222, 4.95934761097977377942e-02) (223, 1.39416042557901381782e-01) (224, 7.51649048481165815705e-02) (225, -9.51146046266217876086e-02) (0, -3.86701359644427700157e-01) (1, -4.00688724544635221925e-01) (2, -5.40485565902805942251e-01) (3, -3.86866887528217018311e-01) (4, -5.01757353109827830551e-01) (5, -5.13971819447763600408e-01) (6, -4.02609342173827600142e-01) (7, -4.69228581830752666804e-01) (8, -4.73159967123961744395e-01) (9, -3.90948682068567254788e-01) (10, -5.27759010580888143771e-01) (11, -5.51164784631125059811e-01) (12, -4.95070487184637308964e-01) (13, -4.48865702110563535854e-01) (14, -3.87890373402269672543e-01) (15, -4.79013050542703822110e-01) (16, -4.79955634837881117694e-01) (17, -4.73078179266184006835e-01) (18, -5.11264837056546572747e-01) (19, -5.52581538611011002793e-01) (20, -5.41075097214582689809e-01) (21, -5.11436053285253655609e-01) (22, -5.44421169930077941679e-01) (23, -5.50227722829057186438e-01) (24, -4.02532143169714140551e-01) (25, -4.69482102810125312420e-01) (26, -3.96572646890886226778e-01) (27, -4.74963216190187331733e-01) (28, -3.75740665541791529769e-01) (29, -3.78250768524609426446e-01) (30, -5.29041268868991720886e-01) (31, -3.99684232935299976752e-01) (32, -4.91490765265877149748e-01) (33, -4.11363627239815177195e-01) (34, -3.84375553791933610714e-01) (35, -3.67699164703647773944e-01) (36, -4.69281306985889379302e-01) (37, -5.55444981189447184455e-01) (38, -4.46692931524578229485e-01) (39, -3.99461212095573392489e-01) (40, -4.48209647013034839791e-01) (41, -4.75477509123172603633e-01) (42, -4.44182214893878268835e-01) (43, -4.41969337608302481613e-01) (44, -5.29851549783757369561e-01) (45, -5.08411829838542717042e-01) (46, -5.71729013849356815236e-01) (47, -4.90701524088157037262e-01) (48, -5.13274782195383361127e-01) (49, -4.37317093195891515300e-01) (50, -4.07980525443473740488e-01) (51, -5.38825732301258741863e-01) (52, -4.65557872503156000565e-01) (53, -3.58750531648602599688e-01) (54, -4.89481912438857247327e-01) (55, -4.55460666578936912430e-01) (56, -5.11366498343506004076e-01) (57, -4.06502277446478099687e-01) (58, -5.24192654558617410210e-01) (59, -4.35227919963293463645e-01) (60, -5.65213306249586655561e-01) (61, -4.90998975741833598718e-01) (62, -4.18405955868781598284e-01) (63, -4.24100605026781429796e-01) (64, -4.90122489283155937656e-01) (65, -5.75673060452370322082e-01) (66, -5.40769679317489870840e-01) (67, -4.92601614723486569414e-01) (68, -4.91047183114858898367e-01) (69, -5.03797292768201621094e-01) (70, -3.58415250332050905335e-01) (71, -4.73706119450835572149e-01) (72, -5.53876153521447145422e-01) (73, -4.06155942154053595239e-01) (74, -4.15873509943259000998e-01) (75, -4.70818725257848014198e-01) (76, -5.15782814295133618110e-01) (77, -4.95006676376864906963e-01) (78, -5.33435331499460652083e-01) (79, -5.56806607533441688673e-01) (80, -4.32475671930825256162e-01) (81, -5.30031785118086351538e-01) (82, -4.39315794437689588481e-01) (83, -3.76294463603856654821e-01) (84, -5.03412183044880445770e-01) (85, -4.31136543035624264508e-01) (86, -4.67291345069914543231e-01) (87, -4.88403856394092727999e-01) (88, -4.05954635339249636505e-01) (89, -5.21929183185262046685e-01) (90, -4.78696685603969773748e-01) (91, -4.90355821709819506005e-01) (92, -5.18311262723024746002e-01) (93, -3.78777972213477698293e-01) (94, -5.71013755935232403260e-01) (95, -5.65984182849231243218e-01) (96, -5.28292428364577681954e-01) (97, -5.17466590597930209405e-01) (98, -4.90713342687869258363e-01) (99, -4.46991271570220394249e-01) (100, -4.84709361473167454903e-01) (101, -3.60081358998174005936e-01) (102, -4.09162085341411185802e-01) (103, -5.40100727068408725806e-01) (104, -4.31586906872799880297e-01) (105, -3.65777970124709861377e-01) (106, -4.59303968507278004285e-01) (107, -5.59817024905886362340e-01) (108, -5.34040127962648214499e-01) (109, -5.06231586555805579408e-01) (110, -5.47379663760153900576e-01) (111, -5.75208592232605120387e-01) (112, -3.94191047288160512085e-01) (113, -5.14020468585463574662e-01) (114, -4.67334266418268473586e-01) (115, -3.55641780139353214096e-01) (116, -6.89799371209096068291e-02) (117, -2.28556796309449777871e-01) (118, -2.89612307506632082887e-01) (119, -2.82547163950139901267e-01) (120, -2.28689221415358717726e-01) (121, -1.92175813313078563960e-01) (122, -8.90930602424231526948e-02) (123, -1.70716393372520147675e-01) (124, -1.24813712481223956785e-01) (125, -1.64720267945744791582e-01) (126, -5.86336609930656130207e-02) (127, -3.01972862034667666187e-01) (128, -2.24251420958680058870e-01) (129, -3.51188659713424555786e-01) (130, -2.34338728595994499893e-01) (131, -3.19173698600653421575e-01) (132, -3.12997141789534971679e-01) (133, -1.56773352613013783330e-01) (134, -2.12117773942253728947e-01) (135, -1.10720451450125267900e-01) (136, -2.12593921804180518986e-01) (137, -2.45749885648154059448e-01) (138, -4.47579706237198560181e-01) (139, -3.28709259669623388156e-01) (140, -3.41434563811390090482e-01) (141, -5.41535091680884872467e-01) (142, -5.11255058561817743445e-01) (143, -5.00826273212124695178e-01) (144, -4.47411230753398225790e-01) (145, -3.99787930997634211039e-01) (146, -4.05445978917765958993e-01) (147, -3.77573653875232229105e-01) (148, -5.15073828825674429055e-01) (149, -5.50870306852295543720e-01) (150, 5.66252219081351260144e-02) (151, 5.24967571911288122255e-02) (152, 3.71444931444613324345e-02) (153, -4.58812607632158808713e-01) (154, -5.35306640910451547732e-01) (155, -5.59805898313914140907e-01) (156, -4.26052293781175039911e-01) (157, -3.86225703443315360186e-01) (158, -5.03578896321368651989e-01) (159, -4.24886399200370801221e-01) (160, -4.86442006261938120204e-01) (161, -3.88364738581018442698e-01) (162, -3.73640999176664323489e-01) (163, -4.59628291406793565432e-01) (164, -4.47350343886060708432e-01) (165, -3.94941891387312116191e-01) (166, -5.22774335904768183703e-01) (167, -5.48992057307413294787e-01) (168, -3.76487837332576069649e-01) (169, -3.90339559474742525680e-01) (170, -5.57597658196281709131e-01) (171, -4.64517398336684816940e-01) (172, -4.65234602234161020995e-01) (173, -4.34015794888034267540e-01) (174, -4.15628873595691117337e-01) (175, 2.74311508478696230995e-02) (176, -5.14633808018841662490e-02) (177, 9.15732356825859628024e-02) (178, 9.63550909098462998736e-02) (179, -4.23136762989430759152e-01) (180, -4.31167891229314093060e-01) (181, -5.11942159646328387446e-01) (182, -4.43378430978722926081e-01) (183, -5.61039594659863749548e-01) (184, -4.54996752582898955630e-01) (185, -4.54438159304593358723e-01) (186, -4.49191489474175587038e-01) (187, -4.53875241060269885018e-01) (188, -4.64341469175786891732e-01) (189, -4.37237288410825930551e-01) (190, -4.69230739740854496667e-01) (191, -5.15169298279823384412e-01) (192, -4.66787681875037607782e-01) (193, -4.04993550829124082657e-01) (194, -4.29201883337314182842e-01) (195, -4.60049292700245915366e-01) (196, -3.52844155519513202890e-01) (197, -4.43303249047043823605e-01) (198, -3.85512379769122892625e-01) (199, -5.20916218838742173247e-01) (200, 1.15221552323560350040e+00) (201, -1.90446798033408332129e-01) (202, 2.41193788359265220977e-01) (203, 3.95246875266007380301e-01) (204, 2.02187412138770117309e-01) (205, -2.50234970264276712637e-01) (206, -3.88442737208119115433e-01) (207, -4.87740486689931140862e-01) (208, -4.22275580119008175917e-01) (209, -5.63714217924516813873e-01) (210, -4.48862386232453280943e-01) (211, -5.16526295852460792801e-01) (212, -4.36017371038029788455e-01) (213, -4.63586312314877901919e-01) (214, -5.25377758454460219717e-01) (215, -5.58050286894697156193e-01) (216, -5.32989880242678348843e-01) (217, -4.25165008322418103148e-01) (218, -4.22028425649822125365e-01) (219, -5.05557052901465908690e-01) (220, -3.66970441143985637300e-01) (221, -4.06513517294295856352e-01) (222, -4.22849772750802155308e-01) (223, -4.51397297743594938524e-01) (224, -4.48786350867763139671e-01) (225, -5.14658253702353407633e-01) (0, -4.55897877056221034753e-01) (1, -4.34355639030746476514e-01) (2, -4.89368704428401912754e-01) (3, -5.47474001815083655131e-01) (4, -5.23777689609721486264e-01) (5, -5.51535532906217706994e-01) (6, -5.60821149903664717407e-01) (7, -4.60944630784364761666e-01) (8, -5.81135761864554845069e-01) (9, -4.24670007327042076106e-01) (10, -4.05221310620660135626e-01) (11, -4.12039520939253278708e-01) (12, -4.44727411848173603826e-01) (13, -5.76998424740118087684e-01) (14, -4.75412930903466535160e-01) (15, -4.46058687116491103808e-01) (16, -4.41987409679808485041e-01) (17, -5.42412096148310429733e-01) (18, -4.81223162707920260051e-01) (19, -4.82603282887528961531e-01) (20, -4.93786786727567150734e-01) (21, -5.71780413310242319191e-01) (22, -5.11444348116306790608e-01) (23, -4.13450901629171363449e-01) (24, -4.25102049272749860087e-01) (25, -5.27199429262099172888e-01) (26, -4.53891225540552667450e-01) (27, -4.84736170422457424145e-01) (28, -4.99881505846938578586e-01) (29, -5.54969991263905670920e-01) (30, -5.81941625092605829828e-01) (31, -4.54035052495640634174e-01) (32, -4.40882363947147526417e-01) (33, -4.31323805029406759370e-01) (34, -5.03837685534043955293e-01) (35, -3.74844165718394850551e-01) (36, -4.48945052091602680999e-01) (37, -5.14807043571711586694e-01) (38, -4.95732397129408253189e-01) (39, -4.57752860054497501263e-01) (40, -5.69874187811278631877e-01) (41, -4.45737085761368279080e-01) (42, -4.19199678395855424018e-01) (43, -3.90046767133606309130e-01) (44, -5.14128070466976949682e-01) (45, -5.24229359897605662333e-01) (46, -5.66942834414770113760e-01) (47, -5.52644018690026217477e-01) (48, -4.78368761561350441802e-01) (49, -4.85144134538605331652e-01) (50, -4.29963033219161960830e-01) (51, -4.10143253674236263340e-01) (52, -4.02575491710487176622e-01) (53, -4.82004767489734531338e-01) (54, -5.03718919104693574340e-01) (55, -3.89580306367427742220e-01) (56, -5.54837375634471219321e-01) (57, -4.24404547392453423971e-01) (58, -4.93139305703285957261e-01) (59, -3.98868213466710974657e-01) (60, -4.43518443252417682299e-01) (61, -4.58462197551606664980e-01) (62, -4.15590913976679243724e-01) (63, -3.87058510402286060081e-01) (64, -4.83194374678757532227e-01) (65, -4.95851966544570366136e-01) (66, -4.08787694533626400073e-01) (67, -3.96203340113903512698e-01) (68, -5.48920649049675857256e-01) (69, -4.24149963244852989952e-01) (70, -4.05275683690748844690e-01) (71, -4.15307050132529054220e-01) (72, -4.37089438377271710667e-01) (73, -5.66082266819691981574e-01) (74, -5.93122012131118259148e-01) (75, -6.06952330172797482888e-01) (76, -5.65112750465907365260e-01) (77, -4.37601477600057076067e-01) (78, -5.18641261808023279478e-01) (79, -3.98086578977676353031e-01) (80, -5.26850993649503496208e-01) (81, -5.21471110996855502506e-01) (82, -4.24116059002944523204e-01) (83, -5.10212280322935640697e-01) (84, -3.95332144394382634101e-01) (85, -4.89619450737492356573e-01) (86, -4.86367725841543585563e-01) (87, -5.14443899590328768134e-01) (88, -5.62794792549269118354e-01) (89, -5.04238722955704710138e-01) (90, -4.49183247352638814753e-01) (91, -5.37674792748692675914e-01) (92, -3.89436709175480288980e-01) (93, -5.80493698069339925105e-01) (94, -4.22812819621804503178e-01) (95, -4.32454148755622158617e-01) (96, -5.63673394610055389364e-01) (97, -4.91344038275209893385e-01) (98, -5.34298608307392064454e-01) (99, -3.83646224616448927591e-01) (100, -4.73316541324821371539e-01) (101, -4.50285157970283733686e-01) (102, -4.11487909023934728125e-01) (103, -4.67052953748114285659e-01) (104, -3.93814715418206673370e-01) (105, -5.36234655522206171696e-01) (106, -3.83118570637109023824e-01) (107, -4.26293796095604471397e-01) (108, -5.38486729329257673982e-01) (109, -5.91310904370662915319e-01) (110, -4.37338958989544834832e-01) (111, -5.95507941277543251246e-01) (112, -4.95043408554365127472e-01) (113, -4.72451252893645257114e-01) (114, -5.55870078885113971801e-01) (115, -5.46436415384702112163e-01) (116, -4.42242580170429167019e-01) (117, -5.08968146174774926926e-01) (118, -5.25974570322665480049e-01) (119, -4.29641018060746837648e-01) (120, -5.43015209149152355828e-01) (121, -4.36161975098626697456e-01) (122, -3.96149469352096716968e-01) (123, -2.99191125276242142483e-01) (124, -4.05895796811768627688e-01) (125, -3.62059977069650873460e-01) (126, -3.04736471617954640667e-01) (127, -2.44492745336011868540e-01) (128, -3.65756510169616577688e-01) (129, -2.97973166400776701135e-01) (130, -2.54792326609964647766e-01) (131, -3.86703239058368786196e-01) (132, -3.27271635413409478499e-01) (133, -3.75368392441835896367e-01) (134, -5.01984322859659992666e-01) (135, -4.07422032907550357717e-01) (136, -5.06488321622844961389e-01) (137, -5.17757154821861131921e-01) (138, -5.21326682380108152870e-01) (139, -4.93860287177407375481e-01) (140, -4.86126059961720369262e-01) (141, -5.00905931481451682785e-01) (142, -4.63138402072346355709e-01) (143, -5.70773493425731248685e-01) (144, -5.74592827143319606620e-01) (145, -4.08105432022801861702e-01) (146, -5.71285460532747535467e-01) (147, -4.66117667516575573394e-01) (148, -5.04442445839921260742e-01) (149, -4.93542668225972647189e-01) (150, -4.43374214624407514407e-01) (151, -5.67895234600455767193e-01) (152, -4.28807343573607613330e-01) (153, -4.58715170956157158866e-01) (154, -4.22299668249356330296e-01) (155, -5.63642595106469412869e-01) (156, -5.76857762519501937604e-01) (157, -4.67646503999684826081e-01) (158, -4.05545553913008061109e-01) (159, -5.60213413117391256790e-01) (160, -5.00976790990599551989e-01) (161, -4.85716759149574295318e-01) (162, -4.78029532364380393972e-01) (163, -4.51187728057968584494e-01) (164, -5.67729986798631292011e-01) (165, -5.56521306645944124902e-01) (166, -5.49954279570076809414e-01) (167, -4.90855572015588492718e-01) (168, -4.73427350108041544718e-01) (169, -5.75280259089327339339e-01) (170, -4.88405845048783926465e-01) (171, -5.55632165553960777338e-01) (172, -4.23868376578823091716e-01) (173, -4.39334949985210554413e-01) (174, -5.56112725637690097358e-01) (175, -5.91291030698596120629e-01) (176, -5.12053330745687595993e-01) (177, -5.03746297371696516443e-01) (178, -4.40651659537667883537e-01) (179, -4.83726335627317038934e-01) (180, -5.24908413220745329042e-01) (181, -5.44528630904736465901e-01) (182, -5.38401396986745273132e-01) (183, -4.94950192346327089155e-01) (184, -5.00396641149087662015e-01) (185, -5.28310596395077713971e-01) (186, -4.81244430118533628171e-01) (187, -3.86305385399052070294e-01) (188, -5.38394242719300142319e-01) (189, -4.26072952379513203436e-01) (190, -4.17325168911559407636e-01) (191, -4.48245414904393957300e-01) (192, -3.99621110162606929528e-01) (193, -5.59610205868150911712e-01) (194, -4.00982821152444490753e-01) (195, -5.63715324941904349920e-01) (196, -5.06914444167643751804e-01) (197, -4.71474636163249971599e-01) (198, -5.56000486124924364617e-01) (199, -5.60523814462312919282e-01) (200, 2.89431117072833522103e-03) (201, -2.09343703652072576915e+00) (202, -5.68523049180605366537e-01) (203, -2.93251916964494430129e-01) (204, -2.72497696789792520633e-01) (205, -5.60266779454486885115e-01) (206, -5.28096858219634923692e-01) (207, -5.61895121186283152959e-01) (208, -4.65047757774364856065e-01) (209, -4.00872748734692974093e-01) (210, -4.68693268574808252769e-01) (211, -4.74126674113351576079e-01) (212, -4.15654437367081297516e-01) (213, -4.49533711224647636318e-01) (214, -4.20607743796921007551e-01) (215, -4.53256354682126882949e-01) (216, -4.90745130626068726265e-01) (217, -5.37470812133329589599e-01) (218, -4.73669722720844954544e-01) (219, -3.95042320913442379648e-01) (220, -5.26015776878709373499e-01) (221, -5.70547483516763986877e-01) (222, -5.04819578783127886901e-01) (223, -4.54412638106349964229e-01) (224, -3.82569021485896054724e-01) (225, -4.77794509525198918265e-01) (0, -4.14994434141716800335e-02) (1, 8.85750586460589406368e-02) (2, -3.95790620171190127285e-02) (3, 1.04237930501270600891e-01) (4, 1.23739585182401592989e-01) (5, -4.61166748068865192667e-02) (6, 9.38591129601432233587e-02) (7, 4.29377488870573281732e-02) (8, 7.48915467759081326937e-02) (9, 9.21983348497902241436e-03) (10, 4.62969471676904775759e-02) (11, 7.51551104730744795601e-02) (12, 1.30447240375703051030e-02) (13, -2.39428807035198427944e-03) (14, 1.02685621895315923324e-01) (15, 1.28112658660766265406e-01) (16, 1.01838820012373335033e-01) (17, -2.43537968165160705059e-02) (18, 1.11911098211276122116e-01) (19, 1.30985547974134142191e-01) (20, 3.03411611172445666584e-02) (21, -2.80266399773892935232e-02) (22, 1.77779735858251200509e-02) (23, 5.42893345048568454203e-02) (24, 1.15888442906596639270e-01) (25, 2.31935608804139624384e-02) (26, 1.00569999467972306939e-01) (27, -2.35922100621588672065e-02) (28, 6.18949223084837019115e-02) (29, 8.56511760413768558076e-02) (30, 6.02092955306459468034e-02) (31, 1.36647720505467362706e-01) (32, 7.60638533728049681670e-02) (33, 3.55661018081801366675e-02) (34, -2.42462098931291898662e-02) (35, -4.96871838626386994053e-02) (36, 2.76707898522975496991e-02) (37, 1.36484685586388043710e-01) (38, 1.01569755675654738170e-01) (39, -3.68727934513333258093e-02) (40, 5.33727923391323702540e-02) (41, -2.58041616378810421961e-02) (42, -3.44010190779433025487e-02) (43, -2.54583858483120005489e-02) (44, -7.53971040051922523906e-03) (45, 1.34760282182824875363e-01) (46, 6.41816452731768004661e-04) (47, -6.12367801140410242255e-02) (48, 4.79153423243795020814e-02) (49, 1.90836306693886671899e-03) (50, -3.35872028696659122304e-02) (51, -6.18160976152121940941e-02) (52, 1.21285492594595534221e-01) (53, 5.22667664284009875209e-02) (54, 1.33428832242422801269e-01) (55, -1.01146944157806326081e-03) (56, -5.45513225341197685592e-02) (57, -1.22694061654299357844e-01) (58, -9.36279699134918291792e-02) (59, -1.17927774376116345501e-01) (60, -8.92954396458087024113e-02) (61, 6.08664981448965164423e-02) (62, -6.49846762532932942236e-02) (63, 7.24936615765521263910e-02) (64, 1.23001252970021818234e-02) (65, 1.59899413287118881410e-02) (66, 6.66833740245215307596e-03) (67, 1.33733804570033254500e-01) (68, 8.03228721483495722300e-02) (69, 4.09533993381793956501e-03) (70, 2.59594948302246664174e-02) (71, -3.30014485712208233137e-02) (72, 8.96067194701092861742e-02) (73, -2.05340023585698118469e-02) (74, -6.73072233337959902055e-02) (75, 5.67927827917780320144e-02) (76, 1.42570420327733177190e-01) (77, 4.14766562968016533341e-02) (78, 3.51346816387111127167e-02) (79, 8.39706206469878063681e-02) (80, -1.52139390184973031898e-03) (81, 1.07756731016896770137e-01) (82, -2.22374147604571630044e-02) (83, -1.46915800318458533019e-02) (84, 6.57533655082049306451e-02) (85, 1.58965969130116860364e-02) (86, -2.47912487461448248494e-03) (87, 1.15596912141644525551e-01) (88, 1.02720681640009844915e-01) (89, -1.25026303665091032685e-02) (90, 6.31117106399151223117e-02) (91, -5.77057737602217589445e-03) (92, -3.40144130861513363517e-02) (93, 1.10972679244914808339e-02) (94, -1.50446152281369007614e-02) (95, 8.22075453048907583975e-02) (96, 9.45005737451650451586e-02) (97, 5.52647294640640704411e-02) (98, 4.18589143687521508808e-02) (99, 1.64508735245927142921e-02) (100, -6.30218740737820571490e-03) (101, 8.23504351988493671355e-02) (102, 1.38599335351663272009e-01) (103, -1.34001431552816206716e-02) (104, 1.24010134429008191115e-02) (105, 5.32287943155386675254e-02) (106, 3.81850507646297604447e-02) (107, 3.80136582509979087385e-02) (108, 7.08022031183314359826e-02) (109, 9.85913206167112476930e-02) (110, 9.58130187454116627466e-02) (111, 4.00683822908105349847e-02) (112, -3.36769288814170592028e-02) (113, 6.16679368450613329955e-02) (114, -2.58275709713044789029e-02) (115, 9.51114042761534578263e-02) (116, -6.71985915439660963511e-02) (117, 7.20805279569725482203e-02) (118, -7.88818027288212264558e-02) (119, 1.85777590145805471256e-01) (120, 4.49058247345690220165e-01) (121, -8.37611500983738987980e-02) (122, -2.29803053904930817963e-02) (123, 1.37081816123250876949e-01) (124, -6.83018575360592045120e-02) (125, -7.65431502776793393217e-01) (126, -1.02762239702274094100e+00) (127, 3.80957060684073811618e-01) (128, 1.10772507892853963596e-01) (129, -4.54105616631238995229e-01) (130, -2.54739877833253358652e-01) (131, -1.04770431840178290805e+00) (132, -6.67784728284308237711e-01) (133, -1.58129376326920212392e+00) (134, -1.00715273384421544201e+00) (135, -1.02517921534598280275e-01) (136, 4.28072188673373626999e-02) (137, -8.85801377469494916062e-02) (138, 4.42104341634471584288e-02) (139, 1.39757518700293174863e-02) (140, -4.67102059478232828349e-02) (141, -3.24095670437240038209e-02) (142, 6.50922088633076739717e-02) (143, -9.72492659594754171870e-02) (144, 4.35863470500764682569e-02) (145, 1.23129071763797715705e-02) (146, 1.89074665343685298369e-02) (147, 7.21652354326537820439e-02) (148, 1.13660177717301982825e-01) (149, 4.31944149684400161004e-02) (150, 4.65010675937822825533e-04) (151, -2.01564072340050907950e-02) (152, 3.17126700511348308398e-02) (153, 9.00620874717345393234e-02) (154, 8.01674810727544956412e-02) (155, 3.83032561756027276068e-04) (156, -5.27689983561047057381e-02) (157, -6.21742585964607172300e-02) (158, 3.08065623895012047351e-02) (159, -1.76261885426202136173e-02) (160, -3.11973895142550160242e-02) (161, 1.10725317696238403919e-01) (162, 1.28269948045000747872e-01) (163, 4.26878455701840218289e-03) (164, 8.94189005317306134790e-02) (165, -1.82550397114062215066e-03) (166, 6.40819902232002136522e-02) (167, -6.59668684291980431111e-03) (168, 5.82864869670317933825e-02) (169, -2.94563856571695772968e-02) (170, -2.20145099793178644632e-03) (171, -3.22814856311959830215e-02) (172, -4.44247614327901094167e-03) (173, 7.76846797810076539204e-02) (174, -6.21303675790043086202e-02) (175, 5.88689012284157424382e-03) (176, -2.31076567774968297947e-04) (177, -3.31915594684687245697e-02) (178, 6.92686007003270598492e-02) (179, 5.31377197746813120793e-02) (180, -3.54605373335940485258e-02) (181, 4.60465381365909101619e-02) (182, 9.67534184272417913109e-02) (183, -2.14945072790228494664e-02) (184, 9.88805679186953029314e-02) (185, 4.71197882260083263269e-04) (186, -5.71569827074355010788e-02) (187, 4.75164423614395162176e-02) (188, 2.18523643474664575059e-02) (189, -4.71256965976614081160e-03) (190, 5.28283062373870043738e-02) (191, 1.27304680486513943638e-01) (192, 1.08553444931058049039e-01) (193, -2.89788732622083856916e-02) (194, 1.46880660393411167919e-02) (195, 1.99445398827249216478e-02) (196, 7.34247450438566817699e-02) (197, 1.22452661974176313375e-01) (198, -4.26786925398820390920e-02) (199, -1.28372805403144541608e-02) (200, 3.16242153461905850520e+00) (201, -9.38980788878621547289e-02) (202, 2.22322918580633732688e+00) (203, 2.13979461216749419772e-02) (204, 3.02578367352670740686e-01) (205, -1.28204630593352031376e+00) (206, -4.68996317664595763208e-01) (207, -3.65496749557396860553e-02) (208, -7.37866738265517962958e-02) (209, 1.62008210106144613649e-02) (210, 7.66712132764446052668e-02) (211, 7.29571719178016830920e-02) (212, -3.29035742368034081484e-02) (213, 8.93228297747043209487e-02) (214, 3.37643126262363313383e-02) (215, 8.34276573841077895288e-02) (216, -1.64079429469362915450e-02) (217, 1.23220403549826551526e-01) (218, 6.96579699918117439816e-02) (219, 1.19945113028907687780e-01) (220, 2.55969730368668726972e-02) (221, 1.27240225555319164119e-01) (222, 1.39481108768180567248e-01) (223, -3.64872669925066644980e-02) (224, 9.50941012164549792640e-02) (225, 4.50847333798628721602e-02) (0, 1.79661337501884371681e-01) (1, 1.16281137681747678836e-01) (2, 2.70244363251218200350e-01) (3, 1.06591480211510325482e-01) (4, 1.65229479238627963156e-01) (5, 1.50617045209481603685e-01) (6, 9.47476616922671432963e-02) (7, 1.70296323364577201209e-01) (8, 4.99098275014121378623e-02) (9, 4.02580092408418438454e-02) (10, 3.67547193450337011944e-02) (11, 1.11121091867092930405e-01) (12, 3.53799450186153052744e-01) (13, 3.24356714275666535574e-01) (14, 2.94893006726978323950e-01) (15, 1.89884502133491228637e-01) (16, 1.99552441133306390775e-01) (17, 1.04495942248042886225e-01) (18, 1.68801928403156803471e-01) (19, 1.70683809357633803350e-01) (20, 1.48836627049984959736e-01) (21, 1.14313521817892838062e-01) (22, 5.59572142756901078076e-02) (23, 2.29851566431515767774e-02) (24, 1.50286325777836626827e-01) (25, 7.34456627506735321154e-02) (26, 4.98571117000037977718e-01) (27, 9.04994366537576366838e-01) (28, 1.09545505662940037550e-01) (29, 7.95927289444175345423e-01) (30, 1.53073999974074531627e-01) (31, 5.40049170152257645983e-02) (32, 1.21126373769976078409e-01) (33, 6.22678121887421803793e-02) (34, 2.09190785575145615782e-01) (35, 1.37197426523271548415e-01) (36, 6.42148295017403725193e-02) (37, 1.38613320081381496962e-01) (38, 1.00383438184781251246e-01) (39, 1.21405088559919160929e-01) (40, 1.58894969141179231986e-01) (41, 3.35017503627519919185e-02) (42, 1.15774153038468205490e-01) (43, 1.52217232798328355736e-01) (44, 2.03752381797234372041e-01) (45, 1.84306016105846376396e-01) (46, 1.64433205034322377225e-01) (47, 1.94543708840150902928e-01) (48, 1.58999890292128492897e-01) (49, 2.25044824628577389003e-01) (50, 1.38295933047296898399e-01) (51, 1.93879379487883390931e-01) (52, 2.25713134524972713901e-01) (53, 2.66111543038770714809e-01) (54, -1.67191553715435661798e-02) (55, 1.41941918508607517468e-02) (56, -1.49169763290217787660e-02) (57, 6.32384571045669086065e-02) (58, 6.29942001752488711652e-02) (59, -3.85727159724599507132e-03) (60, 9.23568255715192937272e-02) (61, 1.74401803046049380663e-01) (62, 1.07284888356593138825e-01) (63, -1.17234051456397737889e-02) (64, 9.32837205506364813834e-02) (65, 1.39137975731535662449e-01) (66, 2.44952060283520817174e-01) (67, 2.55347943658680631707e-01) (68, 1.09760803982235727316e-01) (69, 1.05401427241689826797e-01) (70, -5.53950235132252832848e-03) (71, 8.55833452545472495032e-02) (72, -1.41233407206383995008e-02) (73, -2.93654864785247021741e-03) (74, 1.78836891299526762333e-01) (75, 7.25113358349882275444e-02) (76, 8.48347662401287228029e-01) (77, 1.82892341593339002870e+00) (78, 5.10458020955476682312e-02) (79, 1.69400033395934457303e-01) (80, 1.24299742155867948279e-01) (81, 5.42866789436224073118e-02) (82, 2.15214606347550574394e-01) (83, 2.21952440922727256556e-01) (84, 1.48557385902745725526e-01) (85, 4.12308548012975603636e-02) (86, 1.12550320818017676738e-01) (87, 4.35455940366393651209e-03) (88, -2.87246122694868669112e-02) (89, 1.58823325257568342961e-01) (90, 1.96738462144600945170e-01) (91, 1.34314891058264745949e-01) (92, 2.27751507882521853077e-01) (93, 1.89654219019887243514e-01) (94, 2.57491854628940419758e-01) (95, 1.73909166037923862413e-01) (96, 1.33451553062649580506e-01) (97, 1.46130730286008037044e-01) (98, 8.64125059245303833722e-02) (99, 1.42715919587000028557e-01) (100, 2.24983937754596102776e-01) (101, 1.16256844983530394089e-01) (102, 1.36007058648124401490e-01) (103, 2.29249340263617901181e-01) (104, 2.02827676854712868337e-01) (105, 1.23430150616198039404e-01) (106, 1.46762931694710663244e-01) (107, 2.37453966337135245757e-02) (108, 4.31970984099156740665e-02) (109, 1.57509333351371905163e-01) (110, 5.50475222440909434107e-02) (111, 1.47477591587123063599e-01) (112, 3.29851315919946430633e-01) (113, 2.17956637987282153546e-01) (114, 1.56679439034027562228e-01) (115, 1.21569285938883997478e-01) (116, -1.49459902545090290715e+01) (117, -7.30140261479553931423e+00) (118, 4.27394095725902520289e-02) (119, -2.42634966191145294567e-02) (120, -3.75090599433163385257e+00) (121, -3.03314449781440398368e+00) (122, -2.76771487434858930177e-02) (123, 5.44126421860895922999e-02) (124, 6.78995627875123020090e-02) (125, 1.77675566648158311800e-01) (126, 1.12977808029043183535e-01) (127, -7.99874717482301073046e-03) (128, -1.28556595429271669495e-01) (129, -8.54625822525943990016e-02) (130, 3.17175709029889896229e-02) (131, -1.15716185264304782798e+00) (132, 6.30881556939987125920e-02) (133, 5.22801697153105981997e-01) (134, 1.15331096510798564170e-01) (135, 7.57082911097913952014e-02) (136, 1.52788107108854209759e-01) (137, -8.29567835663375975630e-03) (138, 1.21634658278324189751e-01) (139, 1.64207320797060823958e-02) (140, 1.92462324180339788837e-01) (141, 5.88728952074091746449e-02) (142, 3.11161913816632718088e-01) (143, 2.87857232959296660546e-01) (144, 8.24849366600965555607e-02) (145, 5.60981497050779681635e-02) (146, 8.95877163673985676962e-02) (147, 1.35142756399378005661e-01) (148, 1.23757383344383187218e-01) (149, -1.40236174025370075730e-02) (150, 4.23604050722230229820e-02) (151, 9.77209987836587939958e-02) (152, 3.82574793611441532626e-02) (153, 1.38080888505541704570e-01) (154, 1.47485499936056974057e-01) (155, 3.88075856294784887757e-02) (156, 1.03118181863818839106e-01) (157, 1.54533879830123871413e-01) (158, 7.13268443056406468289e-03) (159, 1.34146752032743010741e-01) (160, -1.15159652516749373696e-02) (161, 3.24033361522944943212e-02) (162, 4.62730673722904911616e-02) (163, 1.43297391374708010803e-01) (164, 2.05103903059171865930e-01) (165, 1.92367875582002800794e-01) (166, 1.33372526326803936270e-01) (167, 1.37111272270905831805e-01) (168, 2.30727175779663784549e-01) (169, 2.69239954269476722271e-01) (170, 2.68379173093100442671e-01) (171, 2.20304088557518817915e-01) (172, 2.31460991605317439879e-01) (173, 1.36159952050888433117e-01) (174, 5.81970107056777180565e-02) (175, 5.21714956414464428591e-02) (176, 1.60638921376274890207e-01) (177, 5.73299791525482826948e-01) (178, 1.65614128825998213612e-01) (179, 1.62466341503532146762e-01) (180, 4.75158504529590575149e-02) (181, 1.60843630288670880191e-01) (182, 1.28715576533975986639e-02) (183, 9.45390322016821521567e-02) (184, 1.01046868974488501802e-01) (185, 5.75128310474676274211e-02) (186, 3.53033686564299190036e-02) (187, 1.09644487104429810831e-01) (188, 1.11666341081550102299e-01) (189, 1.16249654537008334509e-01) (190, 1.28038588269743430770e-01) (191, 1.16841130303007134650e-01) (192, 2.34865607794805392183e-01) (193, 2.38560432585872506106e-01) (194, 2.46036724086031693970e-01) (195, 2.56745388743630176265e-01) (196, 1.03299075962207081991e-01) (197, 1.43588565811535950889e-01) (198, 1.18183459476368046825e-01) (199, 1.23658117977527168274e-01) (200, 1.82768032194604401752e+01) (201, -2.13102963898108370699e+01) (202, 1.75120667127141338426e+00) (203, -6.38428882564839594860e-02) (204, 7.44966678636169582495e-02) (205, -4.66560300266938676739e-01) (206, 4.47254945918755322798e-02) (207, 1.28291711545122782967e-01) (208, 1.57493521878095316113e-01) (209, 3.86914506426082049906e-02) (210, 1.49408956393223185666e-01) (211, 7.29347376563066196464e-02) (212, 1.08630923261962761273e-01) (213, 1.51200764379004898297e-01) (214, 1.45548309353572630220e-01) (215, 9.54336787507235537187e-03) (216, 1.94839091739123532188e-01) (217, 1.26970589981448028771e-01) (218, 1.13943095805049784963e-01) (219, 1.52244573146510214778e-01) (220, 2.01517447856392389882e-01) (221, 2.60820926068479286286e-01) (222, 2.65242256059423864301e-01) (223, 1.66762559420102568497e-01) (224, 2.05331685417670911642e-01) (225, 1.34280812453366038550e-01) (0, 1.23161329204006153581e+00) (1, 1.14530976578127963172e+00) (2, 1.16032857512666631727e+00) (3, 1.13892435829009586179e+00) (4, 1.26984201744947045043e+00) (5, 1.12678934259011165331e+00) (6, 1.24849738464304738095e+00) (7, 1.20398381518007457913e+00) (8, 1.17364894907823447134e+00) (9, 1.12254949224404332320e+00) (10, 1.18489066667455777981e+00) (11, 1.12693818234488718488e+00) (12, 1.19630844293706206649e+00) (13, 1.22731940897530544810e+00) (14, 7.43607588201357416757e-01) (15, 8.17416481165237907014e-01) (16, 8.61901416808245834922e-01) (17, 8.71223538132960273472e-01) (18, 9.28333316651067330660e-01) (19, 9.67418386265721630402e-01) (20, 8.73400435852814349680e-01) (21, 8.54317498577656597725e-01) (22, 9.24625960447908901152e-01) (23, 8.68485358812929653105e-01) (24, 9.13901522765006135707e-01) (25, 7.71651767902310603553e-01) (26, 8.00287142299508369447e-01) (27, 8.77891825036310358144e-01) (28, 8.84489782225155285467e-01) (29, 6.86165896076344594690e-01) (30, 6.47678587125895655063e-01) (31, 6.42186807166781226108e-01) (32, 8.41004881977287177541e-01) (33, 8.07491012828633336618e-01) (34, 8.91511153746706419554e-01) (35, 1.22111568417625204752e+00) (36, 1.22198334498697946948e+00) (37, 1.23914969071451652738e+00) (38, 1.14007794033519194166e+00) (39, 1.16758105464736883228e+00) (40, 1.29676476127132933591e+00) (41, 1.16295283423738093909e+00) (42, 1.10192304205862456890e+00) (43, 1.25544283499501796442e+00) (44, 1.15616018831327971306e+00) (45, 1.18952141448424764114e+00) (46, 1.22879972447515739553e+00) (47, 1.14361146888471765237e+00) (48, 1.15149373716984726457e+00) (49, 1.14137059088105830007e+00) (50, 1.30862522701396355451e+00) (51, 1.26325008963142138008e+00) (52, 1.32836439405475359443e+00) (53, 1.23094090555645863105e+00) (54, 1.12924733212928418702e+00) (55, 1.27413562378120448493e+00) (56, 1.09750661157004247848e+00) (57, 1.19030444762636133937e+00) (58, 1.11378043877354571123e+00) (59, 1.15148311561574812067e+00) (60, 9.99358323901925027499e-01) (61, 1.02561916895917404347e+00) (62, 9.48879078323589864041e-01) (63, 8.45864357918854725682e-01) (64, 7.75110251233999458798e-01) (65, 7.77211223222615266160e-01) (66, 8.13086142323926175379e-01) (67, 7.69836865646443158084e-01) (68, 8.78934315930924414673e-01) (69, 9.33601140620184843932e-01) (70, 8.20695433365834503547e-01) (71, 8.53026132201937903332e-01) (72, 9.49654983825577447831e-01) (73, 8.20396338241541456249e-01) (74, 8.47543087269412631635e-01) (75, 7.95443423386604786529e-01) (76, 6.75792514316068682056e-01) (77, 7.85349236104261438918e-01) (78, 8.08586881140667901313e-01) (79, 8.34803807125505503706e-01) (80, 7.43158174388414582978e-01) (81, 8.29751071916546623086e-01) (82, 7.47616749097469446284e-01) (83, 8.65207295371672735484e-01) (84, 7.89608301840230564217e-01) (85, 1.31850505122069217023e+00) (86, 1.24571559196903502986e+00) (87, 1.19186206309020259475e+00) (88, 1.25767086987430731782e+00) (89, 1.19387619212133411217e+00) (90, 1.31754081549460866363e+00) (91, 1.12542692822441492417e+00) (92, 1.24833814133126286272e+00) (93, 1.26692135592759669294e+00) (94, 1.18587920361464949082e+00) (95, 1.26796374755626883868e+00) (96, 1.17553886515220984421e+00) (97, 1.16596199648096798818e+00) (98, 1.26013768236844092563e+00) (99, 1.17553524252538155181e+00) (100, 1.36587494894929495359e+00) (101, 1.22088682111631152694e+00) (102, 1.30083384786611255812e+00) (103, 1.23799699249766304021e+00) (104, 1.24916350523031915998e+00) (105, 1.23440924746255831224e+00) (106, 1.26878390421622166961e+00) (107, 1.24776417397310734891e+00) (108, 1.19952998932545185085e+00) (109, 1.19406814697285179605e+00) (110, 1.03831493812344577421e+00) (111, 6.96043454623490487343e-01) (112, 7.76694899063038901588e-01) (113, 7.45363011026507482626e-01) (114, 7.68948255215290865650e-01) (115, 5.23194512363644448349e-01) (116, 4.70429077858700028791e-01) (117, 5.49797937781745460484e-01) (118, 5.22268696559483380781e-01) (119, 6.20381137779431934831e-01) (120, 5.23480510085598815806e-01) (121, 5.85788012720995343585e-01) (122, 5.18585745419264720901e-01) (123, 5.10306110085932518317e-01) (124, 2.99551635085503975553e-01) (125, 4.02651913810443184971e-01) (126, 4.28896700789100804307e-01) (127, 4.45200566828597876778e-01) (128, 4.57656246208447636814e-01) (129, 3.65043160679325684459e-01) (130, 3.28016942334503958101e-01) (131, 3.92397449352994587279e-01) (132, 4.98010333881809263978e-01) (133, 1.93317382134603477084e-01) (134, 8.26337676957799249777e-01) (135, 7.28870669683506222647e-01) (136, 9.45942889240417694730e-01) (137, 8.07495548913855554218e-01) (138, 8.72426246518964942922e-01) (139, 1.33461963679534800775e+00) (140, 1.32098911839012655989e+00) (141, 1.31422724681974578687e+00) (142, 1.14349849688726679098e+00) (143, 1.25680013824869507566e+00) (144, 1.27577553695543932655e+00) (145, 1.12603688354319886322e+00) (146, 1.12182584668598317457e+00) (147, 1.20452252640403645323e+00) (148, 1.24450859810339609091e+00) (149, 1.27000987812944066135e+00) (150, 1.20702790302584950233e+00) (151, 1.36906944913358419313e+00) (152, 1.28810827890808998752e+00) (153, 1.30242152837478974980e+00) (154, 1.24694569052459769409e+00) (155, 7.34642785007974197242e-01) (156, 6.35176680396852266774e-01) (157, 8.13401276373344361836e-01) (158, 6.39966535062937436074e-01) (159, 6.81001001513728776438e-01) (160, 8.15895966009641870897e-01) (161, 7.61080350477884692850e-01) (162, 8.45464323139505036231e-01) (163, 8.80039047873334534522e-01) (164, 7.95060994890470995600e-01) (165, 1.16838350809108049155e+00) (166, 1.12843875504027635337e+00) (167, 1.17696922189484864951e+00) (168, 1.24214323327914555328e+00) (169, 1.10290006914502569657e+00) (170, 1.22415506020181630298e+00) (171, 1.21154691646697942886e+00) (172, 1.13102853900839095402e+00) (173, 1.20877458823970851398e+00) (174, 1.27199822168123777288e+00) (175, 1.20633743555476069531e+00) (176, 1.21363230665743349057e+00) (177, 1.18551179039890075551e+00) (178, 1.19319690753429985541e+00) (179, 9.37399499048044204663e-01) (180, 3.51136165189261328923e-01) (181, 3.87292608772487778612e-01) (182, 6.52403431946739997827e-01) (183, 7.97924781567655783121e-01) (184, 7.50447950709446254258e-01) (185, 6.73667393000969227934e-01) (186, 6.41459585829623368802e-01) (187, 8.93566446205868447628e-01) (188, 9.27124026751553587111e-01) (189, 9.23120394638358376938e-01) (190, 8.36974647062136534181e-01) (191, 1.29104018409823262381e+00) (192, 1.27612584040116194828e+00) (193, 1.22904873630428390641e+00) (194, 1.22488813820294306645e+00) (195, 1.28106411519459606474e+00) (196, 1.23071297976187632450e+00) (197, 1.24731599939806736543e+00) (198, 1.35998824043933086436e+00) (199, 1.18378509160642098053e+00) (200, 2.65473595593589406505e-01) (201, 1.08405389616223724047e+00) (202, 7.83945159192315554897e-01) (203, 4.91102371835779427656e-01) (204, 4.16327195964884544388e-01) (205, 4.27425868760449578776e-01) (206, 4.34604137257702027863e-01) (207, 6.64532356173430205359e-01) (208, 6.28022489705320263731e-01) (209, 6.53450696473863001934e-01) (210, 7.35045441489029172111e-01) (211, 7.68707984382940079371e-01) (212, 7.09662105377959484542e-01) (213, 7.41554089679526517997e-01) (214, 7.90912586025538488776e-01) (215, 8.91276472069538971965e-01) (216, 8.32843861082430914067e-01) (217, 9.32088593262659914629e-01) (218, 9.89960614392389692817e-01) (219, 8.62131959140925441254e-01) (220, 8.06937258531806977935e-01) (221, 1.34902196758599335347e+00) (222, 1.17876760466757990464e+00) (223, 1.27112852206110749087e+00) (224, 1.25951906124724799518e+00) (225, 1.33873644502816824264e+00) (0, 2.63717562232772609332e-02) (1, 1.45666482017831167006e-01) (2, 1.53984752101937322211e-01) (3, 1.30129329884324934641e-01) (4, 4.31565351729676915937e-02) (5, 8.35183565504999669837e-02) (6, -2.25187868553265377325e-02) (7, 2.05254752529885967083e-02) (8, -3.28310390533438425931e-02) (9, 1.33851240513121610975e-02) (10, -2.05480630663593503982e-02) (11, -1.06841828194452880679e-02) (12, 5.80190193384334945703e-02) (13, -4.75333154980539778628e-03) (14, -6.20618705148700822161e-02) (15, 4.27641224729408200855e-02) (16, -2.65199460761713357027e-02) (17, 1.21847733851273995476e-01) (18, 1.10122947646510441211e-01) (19, 1.00627430201779818897e-01) (20, -9.61143551846493394974e-03) (21, 7.77322467571444630785e-02) (22, 3.36304045972774870443e-02) (23, 2.23371291024699811234e-02) (24, -7.15846963902221512105e-03) (25, 6.14762420778171142510e-02) (26, 1.00214546083439715041e-01) (27, -8.36684072070228018747e-02) (28, -3.52230737122858073018e-02) (29, 8.75793419454398008872e-02) (30, -7.32126227559486142393e-02) (31, -4.67333033980627116089e-02) (32, 1.26408936953163686390e-01) (33, -3.94217571285482709653e-02) (34, 1.40943359579655064229e-01) (35, 1.26502905868166759529e-01) (36, 1.71736426765017879958e-02) (37, 2.54303925659749088806e-02) (38, 4.66938058927817770116e-02) (39, 7.16396676027776652118e-02) (40, 5.36587522805875676013e-03) (41, -2.94204625980831789914e-03) (42, 5.39298680424826620827e-02) (43, 5.03520516945864665681e-02) (44, -4.51100713812677273085e-02) (45, 1.07431712506112393701e-02) (46, 1.50434180164118691536e-01) (47, 1.15538508937873207749e-01) (48, -2.31460537386628251166e-02) (49, 3.02356636024192354517e-02) (50, -3.17974531113801974283e-03) (51, 6.02437019997841133323e-02) (52, 2.78933004443472215561e-02) (53, 1.59558949866578841936e-01) (54, -1.06565611362188887579e-02) (55, 1.14677143390120347965e-01) (56, 3.45242873538268366107e-02) (57, -4.29682045835685852420e-02) (58, 1.07998114662047034473e-01) (59, 9.59192021812529660441e-02) (60, 7.83356943355447143951e-02) (61, 8.66967206116715100039e-02) (62, 1.03967132213118568229e-01) (63, 1.38513153981285885852e-02) (64, -2.32273463946261957136e-02) (65, -4.97181928682856495716e-04) (66, -1.39875979211574654609e-02) (67, 2.35043971486972036455e-02) (68, -5.57676799393607910971e-02) (69, 2.91255381703419344297e-02) (70, 4.96029153234801845063e-02) (71, 6.14140644500044408094e-02) (72, -7.50450964305733186910e-02) (73, -1.64102674801257682191e-02) (74, 7.73127295822746002374e-02) (75, -6.78269282461821942931e-02) (76, -7.48711311892392844536e-02) (77, 4.41710926550529375811e-02) (78, 7.39629912034843461921e-02) (79, 1.46283505785157735141e-02) (80, -4.82415975399854701777e-02) (81, 6.61394057112821565081e-02) (82, 1.71603707294597951361e-01) (83, 1.48780403636279756618e-01) (84, 1.56714579656138414121e-01) (85, 8.00066425547063947432e-02) (86, 9.15117840199523718825e-02) (87, 1.74068260728851731400e-01) (88, 1.16032035065682534447e-01) (89, 1.16419781044026449113e-01) (90, 6.69592621676094457150e-02) (91, 1.07440600361798130336e-01) (92, -6.17708558210206329364e-02) (93, 1.24926418370426926124e-02) (94, 1.01843748097387623575e-01) (95, 1.31801462565489690970e-01) (96, 1.09505104576175002484e-01) (97, 4.59866858932774236202e-02) (98, 2.48011452078028826751e-02) (99, 8.15808695644732184693e-02) (100, 7.23020448951775251967e-02) (101, 8.54557696149870274493e-03) (102, 6.45831863691926771898e-02) (103, 8.68130480472434212791e-02) (104, 1.47636777862271945105e-01) (105, 9.07145612849855620397e-02) (106, 1.28275147420635563661e-02) (107, 6.29677248093719887923e-02) (108, 3.83776223223255066874e-02) (109, 4.22806236944720456594e-02) (110, 9.42328868174456962814e-02) (111, 1.95427953075368796010e-02) (112, 1.20174719828794532295e-01) (113, -2.03919663542563509018e-02) (114, 1.03548583882435527026e-01) (115, 1.00527862021589347447e-02) (116, 1.00479495744735775054e-01) (117, -3.38631793291176430571e-02) (118, -5.29500033728771204999e-02) (119, -7.41199198934038988584e-02) (120, 6.28254291030702627374e-02) (121, 4.16743949557640963599e-02) (122, 9.50246923089141243279e-02) (123, 2.11772093406484868128e-01) (124, 1.85067757785747577515e-01) (125, -5.32726643243482535055e-04) (126, 1.47194047687020268533e-01) (127, 8.55786909971025661070e-03) (128, 7.83815019135292584407e-02) (129, 2.00592043992524893259e-01) (130, 2.32306104133358642949e-01) (131, 2.65857304082947276669e-01) (132, 2.25135042343238750417e-01) (133, 7.65771309408242450978e-02) (134, 1.09883528346292266842e-02) (135, 5.71213642217917316746e-02) (136, 6.95062043391180273133e-02) (137, 3.93084378284835889161e-02) (138, 1.38657141645632170368e-01) (139, 9.16561205044080784532e-02) (140, 1.61668826347092675633e-01) (141, 1.80226153446886694365e-01) (142, 2.16468754664675064325e-02) (143, 1.31706994936862692436e-01) (144, 7.81471792487257455040e-02) (145, 1.20977529166808456251e-01) (146, -3.06295222864447595768e-02) (147, 9.11229462702653307538e-03) (148, 7.66554034782533089132e-02) (149, 5.10952719487455658820e-02) (150, 7.87201748095279485451e-02) (151, 1.62905599144731128014e-01) (152, 1.58195527465684770974e-01) (153, 1.01488183383361837975e-01) (154, 9.55014855959608194302e-02) (155, 1.22074065924224470225e-01) (156, 2.14879410453983933638e-03) (157, -2.77542734011417928375e-02) (158, -3.47879459957684336602e-02) (159, 4.29636625115918935336e-02) (160, -1.40872859967638864448e-02) (161, 5.46646116509037910403e-02) (162, 1.21313670484544888772e-01) (163, 1.24669767018252358737e-01) (164, -2.93553505686481933101e-02) (165, 5.56144981751045125451e-02) (166, 1.39458111435376369558e-01) (167, 8.29989110011758179919e-02) (168, 2.63634918777672574985e-02) (169, 1.23326526765900456456e-02) (170, -8.60357496084337459996e-03) (171, 1.33938335256139073870e-01) (172, 9.07614908145304571940e-02) (173, 5.03213323429076431204e-02) (174, 1.59557008411378986601e-01) (175, 1.68043786414259987971e-01) (176, 5.23089341145154609891e-02) (177, 1.59183376283464184109e-01) (178, 1.40040909757265047419e-01) (179, 1.24180045093051305560e-01) (180, -3.97601311345033708866e-02) (181, -5.89092683703495920144e-02) (182, -4.48177606135690895228e-02) (183, 1.75598930368611599873e-01) (184, 5.41906884529216870128e-02) (185, -5.09033978044717422273e-02) (186, -4.91369053743418091051e-02) (187, -3.36806767987692491986e-03) (188, 1.07955095678510928914e-01) (189, 1.00853079948927434883e-01) (190, 8.73959083933533859012e-02) (191, 1.24297233811539481474e-01) (192, 9.11338604344975322658e-02) (193, 4.57033874064180847818e-02) (194, 1.18372017512197572064e-01) (195, 1.16659195569390944369e-01) (196, 2.94799431699963587761e-02) (197, 1.08180623444069964889e-01) (198, -4.15537699872512399091e-03) (199, 8.44315135695130891680e-02) (200, 7.92328519924726082380e-01) (201, 1.92774514173959216068e-01) (202, 2.44804669475507358234e-01) (203, 2.06297217769536078702e-01) (204, 2.07851757610637122298e-01) (205, 3.70715781164117283430e-02) (206, -3.27832853653240510750e-02) (207, -7.93285912602774700986e-02) (208, 5.00283755438794691672e-02) (209, 1.12694925474239870944e-01) (210, -4.07175032461404226569e-02) (211, -7.79645791449323083411e-02) (212, 8.38015789178378212032e-02) (213, 1.45961321195812142315e-02) (214, -4.29696071247830727047e-02) (215, 1.69664983230524146762e-02) (216, 2.52090506949291318084e-02) (217, 7.79929018094242532122e-02) (218, 1.15890323584222326714e-01) (219, 8.72114443519132753746e-02) (220, 2.30290145436335691453e-02) (221, 1.29448895672008207347e-01) (222, 2.09180923670013937943e-02) (223, 7.38394688088243322799e-02) (224, 1.44728643206403884136e-01) (225, 9.24569242634058624519e-02) (0, 9.92851932071271009450e-02) (1, 1.78998511829970174958e-01) (2, 2.60169721608819515257e-01) (3, 1.72310543900691115482e-01) (4, 1.19417453852297794636e-01) (5, 2.16529220043621767333e-01) (6, 8.18143105702011513847e-02) (7, 2.65918927250966830034e-01) (8, 1.67378854751093097963e-01) (9, 2.11934192987552755261e-01) (10, 9.84753098916280461550e-02) (11, 1.17096561269247945170e-01) (12, 1.27420203343281385200e-01) (13, 9.83002331537815299267e-02) (14, 1.83250796285146733133e-01) (15, 2.04626916967095229261e-01) (16, 6.80416185593774730522e-02) (17, 5.18180171090660141031e-02) (18, 1.48952283798961609973e-01) (19, 1.37806791447837917453e-01) (20, 1.54212415146260189980e-01) (21, 4.85169775448817813812e-02) (22, 6.89862546317872582513e-02) (23, 8.58791788779917075747e-02) (24, 2.32432091949234614914e-01) (25, 2.02086340875390957361e-01) (26, 2.27272771334508322250e-01) (27, 1.43976908267299363864e-01) (28, 2.06729451842276257256e-01) (29, 1.30219831384864703772e-01) (30, 5.29415738237311306325e-02) (31, 2.46376711125600472707e-01) (32, 2.94039234825448303479e-01) (33, 1.79430444157831159302e-01) (34, 2.93487815937459373128e-01) (35, 2.11783962067639441873e-01) (36, 2.43359009261790854017e-01) (37, 2.27263961049474744192e-01) (38, 1.05654815191929582485e-01) (39, 2.90620540516821623811e-01) (40, 2.55738871530126588016e-01) (41, 1.93804175680516305169e-01) (42, 7.48862514757073216565e-02) (43, 1.29310372455629096766e-01) (44, 1.45611290177602326068e-01) (45, 2.22471566150475585921e-01) (46, 2.19045850725086171940e-01) (47, 2.60917955668972134653e-01) (48, 2.45527231968053288869e-01) (49, 2.35460959752055082328e-01) (50, 2.11454529419180997651e-01) (51, 1.56970109439354882364e-01) (52, 2.31406480079033888275e-01) (53, 8.93373925056054618565e-02) (54, 7.35317926685041256540e-02) (55, 2.08924553011618385767e-01) (56, 2.17589049283931051937e-01) (57, 8.18985934976847879119e-02) (58, 7.04843458135496619965e-02) (59, 1.89033659402685016993e-01) (60, 1.60213827660228208538e-01) (61, 6.49007562555511396951e-02) (62, 1.70789846990639815338e-01) (63, -2.08773615980210908161e-01) (64, -1.90710357267498686884e-01) (65, 1.76110365065270585427e-01) (66, 1.07266612385008078268e-01) (67, 1.63426704045641857377e-01) (68, 2.12914593924056816387e-01) (69, 1.86789799540833301172e-01) (70, 1.63759387130863715010e-01) (71, 2.57786024070129682340e-01) (72, 1.95488962155540485499e-01) (73, 2.20522104326227652571e-01) (74, 1.99667225957622235244e-01) (75, 2.22314694350256941702e-01) (76, 1.04412285817370442675e-01) (77, 2.14622970081703640099e-01) (78, 1.01341324582843256286e-01) (79, 5.01664569908496435491e-02) (80, 4.66537482500134007002e-02) (81, 1.70036225056610895701e-01) (82, 1.43195899032995566102e-01) (83, 2.89564486237267160185e-01) (84, 2.82410883387667011046e-01) (85, 2.18270320270945311636e-01) (86, 2.44913818788520309955e-01) (87, 2.67765931034384618847e-01) (88, 1.07948914175515733871e-01) (89, 2.43493545807851707874e-01) (90, 1.28787333841883538943e-01) (91, 1.10305525851926405911e-01) (92, 2.50019727495280397189e-01) (93, 2.28631258878448012650e-01) (94, 1.77590309100007698317e-01) (95, 2.17853797145976468830e-01) (96, 1.60745926673777350668e-01) (97, 1.21372909134996834202e-01) (98, 1.68520077155420694437e-01) (99, 2.44307750409226559496e-02) (100, 8.69648747040271535846e-02) (101, 1.17652070199485300761e-01) (102, 7.80746092690970810990e-02) (103, 2.27853864955018997618e-01) (104, 2.32448452186140130937e-01) (105, 8.77155380735603479314e-02) (106, 1.34151879471784418740e-01) (107, 1.10042532975523757455e-01) (108, 2.56723281411884829417e-01) (109, 1.37151733498020345081e-01) (110, 8.82413901514927517811e-02) (111, -8.35174681796240769849e-02) (112, -4.92019807688999291639e-02) (113, -1.03079190641937157302e-01) (114, -2.06076208668522997680e-01) (115, -2.73875646029886378463e-02) (116, 8.07628003901752350435e-02) (117, -1.16035135454317511750e-01) (118, 1.68264340133847778436e-01) (119, 2.50826202021966447597e-02) (120, 3.35110054764288442519e-02) (121, -1.14664700135284000626e-02) (122, 4.24196619093483093255e-02) (123, -4.79103289443248963470e-03) (124, -1.06005393257802768558e-02) (125, 1.02606460156081852331e-01) (126, 1.60669524840046790137e-01) (127, 1.55742272317830388051e-01) (128, 4.27234247690834734179e-02) (129, -3.18434247147734925121e-02) (130, -2.98150502354608513966e-02) (131, 8.95920827586159512768e-02) (132, 2.17340343643721983780e-01) (133, 2.39268705643207596490e-01) (134, 1.55662675195512911763e-01) (135, 1.40779888177807982474e-01) (136, 1.32539620705334454387e-01) (137, 1.54392796092076317604e-01) (138, 2.11122838989522026987e-01) (139, 1.44174224536053885437e-01) (140, 8.76515553364070193476e-02) (141, 1.37869606674533157209e-01) (142, 2.02799084666708845370e-01) (143, 9.55373406646168460421e-02) (144, 1.52691861818728263911e-02) (145, 2.03183100018995616010e-01) (146, 2.44476301168927823149e-01) (147, 1.50701080333989767546e-01) (148, 2.11181194361917234925e-01) (149, 6.39911072767913174930e-02) (150, 2.41523984716712353249e-01) (151, 2.82084672170098971211e-01) (152, 1.19680426926968147550e-01) (153, 1.68042289427534990987e-01) (154, 2.82862133905067480999e-01) (155, 1.15732758397096693881e-01) (156, 1.80337164835313756850e-01) (157, 9.60606568771365382231e-02) (158, 1.94361058445983947429e-01) (159, 2.25361263498342567768e-01) (160, 1.96196397405524858293e-01) (161, 1.99889048312031053500e-01) (162, 