FANN_FLO_2.1
num_layers=3
learning_rate=0.700000
connection_rate=1.000000
network_type=0
learning_momentum=0.000000
training_algorithm=2
train_error_function=1
train_stop_function=0
cascade_output_change_fraction=0.010000
quickprop_decay=-0.000100
quickprop_mu=1.750000
rprop_increase_factor=1.200000
rprop_decrease_factor=0.500000
rprop_delta_min=0.000000
rprop_delta_max=50.000000
rprop_delta_zero=0.100000
cascade_output_stagnation_epochs=12
cascade_candidate_change_fraction=0.010000
cascade_candidate_stagnation_epochs=12
cascade_max_out_epochs=150
cascade_max_cand_epochs=150
cascade_num_candidate_groups=2
bit_fail_limit=3.49999999999999977796e-01
cascade_candidate_limit=1.00000000000000000000e+03
cascade_weight_multiplier=4.00000000000000022204e-01
cascade_activation_functions_count=10
cascade_activation_functions=3 5 7 8 10 11 14 15 16 17 
cascade_activation_steepnesses_count=4
cascade_activation_steepnesses=2.50000000000000000000e-01 5.00000000000000000000e-01 7.50000000000000000000e-01 1.00000000000000000000e+00 
layer_sizes=301 21 3 
scale_included=0
neurons (num_inputs, activation_function, activation_steepness)=(0, 0, 0.00000000000000000000e+00) (0, 0, 0.00000000000000000000e+00) (0, 0, 0.00000000000000000000e+00) (0, 0, 0.00000000000000000000e+00) (0, 0, 0.00000000000000000000e+00) (0, 0, 0.00000000000000000000e+00) (0, 0, 0.00000000000000000000e+00) (0, 0, 0.00000000000000000000e+00) (0, 0, 0.00000000000000000000e+00) (0, 0, 0.00000000000000000000e+00) (0, 0, 0.00000000000000000000e+00) (0, 0, 0.00000000000000000000e+00) (0, 0, 0.00000000000000000000e+00) (0, 0, 0.00000000000000000000e+00) (0, 0, 0.00000000000000000000e+00) (0, 0, 0.00000000000000000000e+00) (0, 0, 0.00000000000000000000e+00) (0, 0, 0.00000000000000000000e+00) (0, 0, 0.00000000000000000000e+00) (0, 0, 0.00000000000000000000e+00) (0, 0, 0.00000000000000000000e+00) (0, 0, 0.00000000000000000000e+00) (0, 0, 0.00000000000000000000e+00) (0, 0, 0.00000000000000000000e+00) (0, 0, 0.00000000000000000000e+00) (0, 0, 0.00000000000000000000e+00) (0, 0, 0.00000000000000000000e+00) (0, 0, 0.00000000000000000000e+00) (0, 0, 0.00000000000000000000e+00) (0, 0, 0.00000000000000000000e+00) (0, 0, 0.00000000000000000000e+00) (0, 0, 0.00000000000000000000e+00) (0, 0, 0.00000000000000000000e+00) (0, 0, 0.00000000000000000000e+00) (0, 0, 0.00000000000000000000e+00) (0, 0, 0.00000000000000000000e+00) (0, 0, 0.00000000000000000000e+00) (0, 0, 0.00000000000000000000e+00) (0, 0, 0.00000000000000000000e+00) (0, 0, 0.00000000000000000000e+00) (0, 0, 0.00000000000000000000e+00) (0, 0, 0.00000000000000000000e+00) (0, 0, 0.00000000000000000000e+00) (0, 0, 0.00000000000000000000e+00) (0, 0, 0.00000000000000000000e+00) (0, 0, 0.00000000000000000000e+00) (0, 0, 0.00000000000000000000e+00) (0, 0, 0.00000000000000000000e+00) (0, 0, 0.00000000000000000000e+00) (0, 0, 0.00000000000000000000e+00) (0, 0, 0.00000000000000000000e+00) (0, 0, 0.00000000000000000000e+00) (0, 0, 0.00000000000000000000e+00) (0, 0, 0.00000000000000000000e+00) (0, 0, 0.00000000000000000000e+00) (0, 0, 0.00000000000000000000e+00) (0, 0, 0.00000000000000000000e+00) (0, 0, 0.00000000000000000000e+00) (0, 0, 0.00000000000000000000e+00) (0, 0, 0.00000000000000000000e+00) (0, 0, 0.00000000000000000000e+00) (0, 0, 0.00000000000000000000e+00) (0, 0, 0.00000000000000000000e+00) (0, 0, 0.00000000000000000000e+00) (0, 0, 0.00000000000000000000e+00) (0, 0, 0.00000000000000000000e+00) (0, 0, 0.00000000000000000000e+00) (0, 0, 0.00000000000000000000e+00) (0, 0, 0.00000000000000000000e+00) (0, 0, 0.00000000000000000000e+00) (0, 0, 0.00000000000000000000e+00) (0, 0, 0.00000000000000000000e+00) (0, 0, 0.00000000000000000000e+00) (0, 0, 0.00000000000000000000e+00) (0, 0, 0.00000000000000000000e+00) (0, 0, 0.00000000000000000000e+00) (0, 0, 0.00000000000000000000e+00) (0, 0, 0.00000000000000000000e+00) (0, 0, 0.00000000000000000000e+00) (0, 0, 0.00000000000000000000e+00) (0, 0, 0.00000000000000000000e+00) (0, 0, 0.00000000000000000000e+00) (0, 0, 0.00000000000000000000e+00) (0, 0, 0.00000000000000000000e+00) (0, 0, 0.00000000000000000000e+00) (0, 0, 0.00000000000000000000e+00) (0, 0, 0.00000000000000000000e+00) (0, 0, 0.00000000000000000000e+00) (0, 0, 0.00000000000000000000e+00) (0, 0, 0.00000000000000000000e+00) (0, 0, 0.00000000000000000000e+00) (0, 0, 0.00000000000000000000e+00) (0, 0, 0.00000000000000000000e+00) (0, 0, 0.00000000000000000000e+00) (0, 0, 0.00000000000000000000e+00) (0, 0, 0.00000000000000000000e+00) (0, 0, 0.00000000000000000000e+00) (0, 0, 0.00000000000000000000e+00) (0, 0, 0.00000000000000000000e+00) (0, 0, 0.00000000000000000000e+00) (0, 0, 0.00000000000000000000e+00) (0, 0, 0.00000000000000000000e+00) (0, 0, 0.00000000000000000000e+00) (0, 0, 0.00000000000000000000e+00) (0, 0, 0.00000000000000000000e+00) (0, 0, 0.00000000000000000000e+00) (0, 0, 0.00000000000000000000e+00) (0, 0, 0.00000000000000000000e+00) (0, 0, 0.00000000000000000000e+00) (0, 0, 0.00000000000000000000e+00) (0, 0, 0.00000000000000000000e+00) (0, 0, 0.00000000000000000000e+00) (0, 0, 0.00000000000000000000e+00) (0, 0, 0.00000000000000000000e+00) (0, 0, 0.00000000000000000000e+00) (0, 0, 0.00000000000000000000e+00) (0, 0, 0.00000000000000000000e+00) (0, 0, 0.00000000000000000000e+00) (0, 0, 0.00000000000000000000e+00) (0, 0, 0.00000000000000000000e+00) (0, 0, 0.00000000000000000000e+00) (0, 0, 0.00000000000000000000e+00) (0, 0, 0.00000000000000000000e+00) (0, 0, 0.00000000000000000000e+00) (0, 0, 0.00000000000000000000e+00) (0, 0, 0.00000000000000000000e+00) (0, 0, 0.00000000000000000000e+00) (0, 0, 0.00000000000000000000e+00) (0, 0, 0.00000000000000000000e+00) (0, 0, 0.00000000000000000000e+00) (0, 0, 0.00000000000000000000e+00) (0, 0, 0.00000000000000000000e+00) (0, 0, 0.00000000000000000000e+00) (0, 0, 0.00000000000000000000e+00) (0, 0, 0.00000000000000000000e+00) (0, 0, 0.00000000000000000000e+00) (0, 0, 0.00000000000000000000e+00) (0, 0, 0.00000000000000000000e+00) (0, 0, 0.00000000000000000000e+00) (0, 0, 0.00000000000000000000e+00) (0, 0, 0.00000000000000000000e+00) (0, 0, 0.00000000000000000000e+00) (0, 0, 0.00000000000000000000e+00) (0, 0, 0.00000000000000000000e+00) (0, 0, 0.00000000000000000000e+00) (0, 0, 0.00000000000000000000e+00) (0, 0, 0.00000000000000000000e+00) (0, 0, 0.00000000000000000000e+00) (0, 0, 0.00000000000000000000e+00) (0, 0, 0.00000000000000000000e+00) (0, 0, 0.00000000000000000000e+00) (0, 0, 0.00000000000000000000e+00) (0, 0, 0.00000000000000000000e+00) (0, 0, 0.00000000000000000000e+00) (0, 0, 0.00000000000000000000e+00) (0, 0, 0.00000000000000000000e+00) (0, 0, 0.00000000000000000000e+00) (0, 0, 0.00000000000000000000e+00) (0, 0, 0.00000000000000000000e+00) (0, 0, 0.00000000000000000000e+00) (0, 0, 0.00000000000000000000e+00) (0, 0, 0.00000000000000000000e+00) (0, 0, 0.00000000000000000000e+00) (0, 0, 0.00000000000000000000e+00) (0, 0, 0.00000000000000000000e+00) (0, 0, 0.00000000000000000000e+00) (0, 0, 0.00000000000000000000e+00) (0, 0, 0.00000000000000000000e+00) (0, 0, 0.00000000000000000000e+00) (0, 0, 0.00000000000000000000e+00) (0, 0, 0.00000000000000000000e+00) (0, 0, 0.00000000000000000000e+00) (0, 0, 0.00000000000000000000e+00) (0, 0, 0.00000000000000000000e+00) (0, 0, 0.00000000000000000000e+00) (0, 0, 0.00000000000000000000e+00) (0, 0, 0.00000000000000000000e+00) (0, 0, 0.00000000000000000000e+00) (0, 0, 0.00000000000000000000e+00) (0, 0, 0.00000000000000000000e+00) (0, 0, 0.00000000000000000000e+00) (0, 0, 0.00000000000000000000e+00) (0, 0, 0.00000000000000000000e+00) (0, 0, 0.00000000000000000000e+00) (0, 0, 0.00000000000000000000e+00) (0, 0, 0.00000000000000000000e+00) (0, 0, 0.00000000000000000000e+00) (0, 0, 0.00000000000000000000e+00) (0, 0, 0.00000000000000000000e+00) (0, 0, 0.00000000000000000000e+00) (0, 0, 0.00000000000000000000e+00) (0, 0, 0.00000000000000000000e+00) (0, 0, 0.00000000000000000000e+00) (0, 0, 0.00000000000000000000e+00) (0, 0, 0.00000000000000000000e+00) (0, 0, 0.00000000000000000000e+00) (0, 0, 0.00000000000000000000e+00) (0, 0, 0.00000000000000000000e+00) (0, 0, 0.00000000000000000000e+00) (0, 0, 0.00000000000000000000e+00) (0, 0, 0.00000000000000000000e+00) (0, 0, 0.00000000000000000000e+00) (0, 0, 0.00000000000000000000e+00) (0, 0, 0.00000000000000000000e+00) (0, 0, 0.00000000000000000000e+00) (0, 0, 0.00000000000000000000e+00) (0, 0, 0.00000000000000000000e+00) (0, 0, 0.00000000000000000000e+00) (0, 0, 0.00000000000000000000e+00) (0, 0, 0.00000000000000000000e+00) (0, 0, 0.00000000000000000000e+00) (0, 0, 0.00000000000000000000e+00) (0, 0, 0.00000000000000000000e+00) (0, 0, 0.00000000000000000000e+00) (0, 0, 0.00000000000000000000e+00) (0, 0, 0.00000000000000000000e+00) (0, 0, 0.00000000000000000000e+00) (0, 0, 0.00000000000000000000e+00) (0, 0, 0.00000000000000000000e+00) (0, 0, 0.00000000000000000000e+00) (0, 0, 0.00000000000000000000e+00) (0, 0, 0.00000000000000000000e+00) (0, 0, 0.00000000000000000000e+00) (0, 0, 0.00000000000000000000e+00) (0, 0, 0.00000000000000000000e+00) (0, 0, 0.00000000000000000000e+00) (0, 0, 0.00000000000000000000e+00) (0, 0, 0.00000000000000000000e+00) (0, 0, 0.00000000000000000000e+00) (0, 0, 0.00000000000000000000e+00) (0, 0, 0.00000000000000000000e+00) (0, 0, 0.00000000000000000000e+00) (0, 0, 0.00000000000000000000e+00) (0, 0, 0.00000000000000000000e+00) (0, 0, 0.00000000000000000000e+00) (0, 0, 0.00000000000000000000e+00) (0, 0, 0.00000000000000000000e+00) (0, 0, 0.00000000000000000000e+00) (0, 0, 0.00000000000000000000e+00) (0, 0, 0.00000000000000000000e+00) (0, 0, 0.00000000000000000000e+00) (0, 0, 0.00000000000000000000e+00) (0, 0, 0.00000000000000000000e+00) (0, 0, 0.00000000000000000000e+00) (0, 0, 0.00000000000000000000e+00) (0, 0, 0.00000000000000000000e+00) (0, 0, 0.00000000000000000000e+00) (0, 0, 0.00000000000000000000e+00) (0, 0, 0.00000000000000000000e+00) (0, 0, 0.00000000000000000000e+00) (0, 0, 0.00000000000000000000e+00) (0, 0, 0.00000000000000000000e+00) (0, 0, 0.00000000000000000000e+00) (0, 0, 0.00000000000000000000e+00) (0, 0, 0.00000000000000000000e+00) (0, 0, 0.00000000000000000000e+00) (0, 0, 0.00000000000000000000e+00) (0, 0, 0.00000000000000000000e+00) (0, 0, 0.00000000000000000000e+00) (0, 0, 0.00000000000000000000e+00) (0, 0, 0.00000000000000000000e+00) (0, 0, 0.00000000000000000000e+00) (0, 0, 0.00000000000000000000e+00) (0, 0, 0.00000000000000000000e+00) (0, 0, 0.00000000000000000000e+00) (0, 0, 0.00000000000000000000e+00) (0, 0, 0.00000000000000000000e+00) (0, 0, 0.00000000000000000000e+00) (0, 0, 0.00000000000000000000e+00) (0, 0, 0.00000000000000000000e+00) (0, 0, 0.00000000000000000000e+00) (0, 0, 0.00000000000000000000e+00) (0, 0, 0.00000000000000000000e+00) (0, 0, 0.00000000000000000000e+00) (0, 0, 0.00000000000000000000e+00) (0, 0, 0.00000000000000000000e+00) (0, 0, 0.00000000000000000000e+00) (0, 0, 0.00000000000000000000e+00) (0, 0, 0.00000000000000000000e+00) (0, 0, 0.00000000000000000000e+00) (0, 0, 0.00000000000000000000e+00) (0, 0, 0.00000000000000000000e+00) (0, 0, 0.00000000000000000000e+00) (0, 0, 0.00000000000000000000e+00) (0, 0, 0.00000000000000000000e+00) (0, 0, 0.00000000000000000000e+00) (0, 0, 0.00000000000000000000e+00) (0, 0, 0.00000000000000000000e+00) (0, 0, 0.00000000000000000000e+00) (0, 0, 0.00000000000000000000e+00) (0, 0, 0.00000000000000000000e+00) (0, 0, 0.00000000000000000000e+00) (0, 0, 0.00000000000000000000e+00) (0, 0, 0.00000000000000000000e+00) (0, 0, 0.00000000000000000000e+00) (0, 0, 0.00000000000000000000e+00) (0, 0, 0.00000000000000000000e+00) (0, 0, 0.00000000000000000000e+00) (0, 0, 0.00000000000000000000e+00) (0, 0, 0.00000000000000000000e+00) (0, 0, 0.00000000000000000000e+00) (301, 5, 5.00000000000000000000e-01) (301, 5, 5.00000000000000000000e-01) (301, 5, 5.00000000000000000000e-01) (301, 5, 5.00000000000000000000e-01) (301, 5, 5.00000000000000000000e-01) (301, 5, 5.00000000000000000000e-01) (301, 5, 5.00000000000000000000e-01) (301, 5, 5.00000000000000000000e-01) (301, 5, 5.00000000000000000000e-01) (301, 5, 5.00000000000000000000e-01) (301, 5, 5.00000000000000000000e-01) (301, 5, 5.00000000000000000000e-01) (301, 5, 5.00000000000000000000e-01) (301, 5, 5.00000000000000000000e-01) (301, 5, 5.00000000000000000000e-01) (301, 5, 5.00000000000000000000e-01) (301, 5, 5.00000000000000000000e-01) (301, 5, 5.00000000000000000000e-01) (301, 5, 5.00000000000000000000e-01) (301, 5, 5.00000000000000000000e-01) (0, 5, 0.00000000000000000000e+00) (21, 5, 5.00000000000000000000e-01) (21, 5, 5.00000000000000000000e-01) (0, 5, 0.00000000000000000000e+00) 
connections (connected_to_neuron, weight)=(0, 8.08049285268819361683e-01) (1, 9.36475298229516028847e-01) (2, 7.58456201708352817370e-01) (3, 4.42598302441911950478e-01) (4, 4.60095119255857720741e-01) (5, 4.51822471398191705116e-01) (6, 6.08448405343370524179e-01) (7, 8.87909637248551875111e-01) (8, 7.65742031341827167346e-01) (9, 4.68196753937082543739e-01) (10, 6.31986264664011088144e-01) (11, 4.42187715846376672157e-01) (12, 5.61740062206199874950e-01) (13, 7.92475917792356265856e-01) (14, 8.93800602710282832142e-01) (15, 5.99926684576349344979e-01) (16, 4.58714273351507439980e-01) (17, 4.69467249292211785683e-01) (18, 5.35579956143310775829e-01) (19, 7.66298753625190509631e-01) (20, 8.69524882590806513782e-01) (21, 5.58150064724760142099e-01) (22, 4.97007288563328042397e-01) (23, 5.78535412031488505136e-01) (24, 4.78350951342991159709e-01) (25, 8.51100207722222834583e-01) (26, 5.29284347373323527108e-01) (27, 5.18924928276947250438e-01) (28, 5.36747789948395004345e-01) (29, 5.07215342491081688792e-01) (30, 4.17968179105928816508e-01) (31, 4.90082324075775399574e-01) (32, 6.18774746137933817636e-01) (33, 4.62612024515083708476e-01) (34, 4.36334523379019179057e-01) (35, 3.82523759274891295146e-01) (36, 4.77186008363178537639e-01) (37, 4.66632057505922570595e-01) (38, 6.15718666988687601815e-01) (39, 5.29115698306968917919e-01) (40, 4.97580320167618050942e-01) (41, 5.51358825533798446727e-01) (42, 5.34054911702087631298e-01) (43, 7.57733372455871356799e-01) (44, 4.89119995910005822548e-01) (45, 5.73140789347963419686e-01) (46, 8.90612709198058127846e-01) (47, 7.87149654185807956530e-01) (48, 5.46261942952087631298e-01) (49, 8.77840639507806330677e-01) (50, 5.63072193938570109140e-01) (51, 5.61072085577325907479e-01) (52, 2.94893329497457079569e+00) (53, 1.47458390062495769968e+00) (54, 3.84416439536659959586e+00) (55, 6.29691429394706947420e+00) (56, 6.23465471673235160921e+00) (57, 5.94394866901712504159e-01) (58, 2.98990742769122652689e+00) (59, 1.37046866779967868588e+00) (60, 6.19799519288763267610e+00) (61, 1.28451855624829978098e+01) (62, 1.28137653763210028757e+01) (63, 5.04985582608061145393e-01) (64, 2.91418588440895609537e+00) (65, 1.48148616319343151559e+00) (66, 9.47912060798392275274e+00) (67, 1.86180286111416783967e+01) (68, 1.84906793462219205537e+01) (69, 7.64392507678306354357e-01) (70, 6.21196676004156334017e+00) (71, 6.19398451554998619173e+00) (72, 6.13557245540842277620e+00) (73, 6.16787080052718383882e+00) (74, 6.23790554660782081697e+00) (75, 7.89471970355546726061e-01) (76, 6.30376309114917976473e+00) (77, 6.24450474935993415926e+00) (78, 3.01300035323977999369e+00) (79, 6.27187415915950996492e+00) (80, 2.96075211372256807962e+00) (81, 9.58834106895983695473e-01) (82, 6.19569775420650703524e+00) (83, 6.29346290189251167391e+00) (84, 4.97651596146898522743e-01) (85, 8.62836272871530085560e-01) (86, 5.44959357946327438427e-01) (87, 1.47227487629100384225e+00) (88, 6.21795465010627967928e+00) (89, 9.49972310246214846075e+00) (90, 4.42891611724308409404e-01) (91, 5.70532000630310287548e-01) (92, 4.36584639369657911967e-01) (93, 1.48804324036284985056e+00) (94, 6.17190257045850021456e+00) (95, 6.22040056395754081819e+00) (96, 5.69677478640487899852e-01) (97, 5.10379067628792260081e-01) (98, 3.09440600211672578457e-01) (99, 5.21560565993588576283e-01) (100, 6.29459270793422920320e+00) (101, 6.26980055827125770662e+00) (102, 4.73745978444031046184e-01) (103, 3.84747332899979033183e-01) (104, 2.65709450925640799923e-01) (105, 5.29881918296616682973e-01) (106, 6.19404042470678550814e+00) (107, 2.64832478785634295448e+00) (108, 5.32587564557007064892e-01) (109, 4.09403859644344725321e-01) (110, 4.17777991379551683071e-01) (111, 4.29336241453102507304e-01) (112, 6.21785794902071220491e+00) (113, 5.33113534865772953353e-01) (114, 4.11014779477528013896e-01) (115, 5.44627583592346420360e-01) (116, 2.39284747177414214292e-01) (117, 2.39848636919311797300e-01) (118, 6.48086935859341739530e-01) (119, -3.77859064794091059625e+00) (120, 3.43991673077397142055e-01) (121, 3.92641789286545195292e-01) (122, 1.37836166554741124113e-01) (123, -5.84278525714641228106e-01) (124, 5.37090011776010789468e-02) (125, -1.39850627901820505627e+01) (126, 9.96110931873839255957e-02) (127, 2.56666174615673758908e-01) (128, 1.30182579988292912443e-01) (129, -6.17828512494331016924e-01) (130, -7.16642850939994247028e-01) (131, -1.85959963204445806184e+01) (132, 1.15461096996120740621e-01) (133, 3.65656225467972550991e-01) (134, 1.19587399894050885885e-01) (135, -8.73709674422508353331e-01) (136, -2.73166769407619103305e+00) (137, -1.85071437956871953645e+01) (138, 1.35645151966861943205e-01) (139, 1.30378627115539769132e-01) (140, -5.42176948790317192461e-01) (141, -2.80579330064285858981e+00) (142, -3.38084448520469971200e+00) (143, -1.85698172154011693635e+01) (144, 1.51900933021358708341e-01) (145, 2.14427911573700169523e-01) (146, -6.69626654987101943561e-01) (147, -2.75660019032586678378e+00) (148, -4.36474421459641970245e+00) (149, -1.86535903291883435884e+01) (150, -7.18985157017474563190e-01) (151, 1.06485181385330487935e-01) (152, -7.05385560099845321247e-01) (153, -2.75366147272218331210e+00) (154, -5.30729933340629411731e+00) (155, -1.86255666429283586183e+01) (156, -6.63547078077559859821e-01) (157, 1.16738685303978254049e-01) (158, -6.86793414805894286701e-01) (159, -3.16808792088890989191e+00) (160, -3.13581325744057615168e+00) (161, -1.86020529495658841768e+01) (162, 7.45473810375253953531e-02) (163, 1.09292202526382734029e-01) (164, -5.54289670591121330645e-01) (165, -2.75365110896457299106e+00) (166, -8.04593707864051932432e-01) (167, -1.85522378312530484834e+01) (168, -6.59647637908225448200e-01) (169, 9.41486292422335502295e-02) (170, -9.56321607773071402647e-01) (171, -6.66727425460582168171e-01) (172, -6.19484672252898826983e-01) (173, -1.85206476600947347322e+01) (174, 2.07539805108360508878e-01) (175, 6.75134369075815476968e-02) (176, -6.12682143156295433428e-01) (177, -7.02263096277480514118e-01) (178, -5.96926765446429863360e-01) (179, -1.85724719243230786958e+01) (180, 8.82310018778364457681e-02) (181, 5.32433307736328353954e-01) (182, -5.72449119691615715411e-01) (183, -6.57330790464644820759e-01) (184, 1.08230606550030042379e-01) (185, -3.14986871813202817805e+00) (186, 1.61186993950657109220e-01) (187, 5.17755336134842147899e-01) (188, -6.78759092395072372028e-01) (189, 2.09490754538826207121e-01) (190, 1.41337142223171452482e-01) (191, -3.27947518114710767634e+00) (192, 2.87679380263142381313e-01) (193, 5.13682923286369552685e-01) (194, -6.15812027756934776690e-01) (195, 5.70563086212198533609e-02) (196, 8.94905821323911943033e-02) (197, -1.07789646172642683553e+00) (198, 1.73629500800422886808e-01) (199, 5.02914755611828301340e-01) (200, -6.03336157207255974200e-01) (201, 1.80405088597587803800e-01) (202, 2.33309873277000701108e-01) (203, -8.80311544389723810156e-01) (204, 1.28568441504291752775e-01) (205, 5.97745676118211832772e-01) (206, -6.60386452381377608845e-01) (207, 5.09834670365373887613e-02) (208, 2.33507492476753508726e-01) (209, -7.22216041688685805866e-01) (210, 1.47322573596290806730e-01) (211, 4.78634514439182534584e-01) (212, -5.67933605913882866290e-01) (213, 3.21401177431397233608e-01) (214, 3.70759202624611650112e-01) (215, 7.53941693246881761148e-02) (216, 3.01176807369046006801e-01) (217, 5.48328784719508410817e-01) (218, 2.14998640948585728605e-01) (219, 4.84058960347584055217e-01) (220, 3.87628539472034849833e-01) (221, 1.16159536773018171041e-01) (222, 5.34228137700966110302e-01) (223, 9.29563752237618445839e-01) (224, 5.16915776670496263101e-02) (225, 4.53513278632572569560e-01) (226, 4.40581194131782927226e-01) (227, 3.12436493570856843593e-01) (228, 4.04757833565525804165e-01) (229, 5.74034458964279403759e-01) (230, 2.25769811207107762296e-01) (231, 4.63062926202228941630e-01) (232, 5.14263308613708725048e-01) (233, 5.56878066628387680126e-01) (234, 3.83892363394551072719e-01) (235, 4.02655526071003355693e-01) (236, 1.79400631123832920988e-01) (237, 3.85147153406551756571e-01) (238, 4.13462757139614500712e-01) (239, 5.10706520646026951304e-01) (240, 3.98028290837219633769e-01) (241, 5.20609087317398300243e-01) (242, 2.14117907816223362882e-01) (243, 5.65191841690948715282e-01) (244, 3.90403463511875548075e-01) (245, 4.71244945197513864787e-01) (246, 4.00409786968639769267e-01) (247, 7.75634953236615909411e-01) (248, 3.84864023412518296841e-01) (249, 5.75232184498718490673e-01) (250, 5.45881561010292282177e-01) (251, 5.20885772078445663524e-01) (252, 4.51215482323578276347e-01) (253, 1.41280935620709957590e+00) (254, 5.66436029045990219188e-01) (255, 5.21828439611273009469e-01) (256, 6.36418853479700175058e-01) (257, 4.28866337060144819926e-01) (258, 5.23560515611580123974e-01) (259, 8.66133750832116633411e-01) (260, 4.24749928533247389506e-01) (261, 5.68251703459100809823e-01) (262, 4.74481929618196740517e-01) (263, 6.19959984499292460214e-01) (264, 4.87881287007740305217e-01) (265, 8.83331359779870539661e-01) (266, 3.85367020039966978739e-01) (267, 4.86203283596115365395e-01) (268, 6.13763783651666727792e-01) (269, 4.79776520806627526650e-01) (270, 5.59661305516174545360e-01) (271, 9.10205052650010615345e-01) (272, 5.63137120573929061962e-01) (273, 5.92700604873972025644e-01) (274, 6.20682184177713480722e-01) (275, 6.34487335163431254159e-01) (276, 4.26697048365286268901e-01) (277, 7.19504953777826083972e-01) (278, 4.37212309806755461405e-01) (279, 6.19051892834978190194e-01) (280, 4.40022398310976281532e-01) (281, 4.64040618914442315468e-01) (282, 5.02689166932514641672e-01) (283, 7.89650873696840061022e-01) (284, 5.28750947683265914989e-01) (285, 5.50071929174738016854e-01) (286, 5.97666953283624735604e-01) (287, 5.87018926221208658944e-01) (288, 5.41689789860656967235e-01) (289, 8.19640473878419428821e-01) (290, 4.80242713361194895061e-01) (291, 4.47386447864847436318e-01) (292, 4.74079814332800164589e-01) (293, 5.76573763567285624276e-01) (294, 6.30097944814043131601e-01) (295, 8.60374094402825861927e-01) (296, 4.86995152204445169719e-01) (297, 4.37314097362833276161e-01) (298, 6.32765014249162760507e-01) (299, 5.22608068364935118844e-01) (300, -2.17257447262076602845e-01) (0, -1.16857380337419061722e-01) (1, -6.72070924521699919474e-01) (2, -7.26243328632131590616e-01) (3, -1.61405280894937108727e-01) (4, -2.28698373503388951988e-01) (5, -2.69065626628102794182e-01) (6, -1.12859100765885858597e-01) (7, -6.82944644571558012736e-01) (8, -6.69943053604379668009e-01) (9, -1.31055698461236519448e-01) (10, -2.20231868989171575279e-01) (11, -1.83212057418527196617e-01) (12, -2.06517406470479558678e-01) (13, -6.04332220138326658976e-01) (14, -4.75442103797858228731e-01) (15, -2.93693975276650920403e-01) (16, -1.83974885112943242760e-01) (17, -2.82841541535558238518e-01) (18, -1.30155057377519173256e-01) (19, -5.20976897085373868990e-01) (20, -1.80749707586469243736e-01) (21, -1.20017097062768487992e-01) (22, -2.41315451181830953331e-01) (23, -2.41424427098931859703e-01) (24, -1.27167642779054207436e-01) (25, -9.47537130782027531284e-02) (26, -1.32580131954850716225e-01) (27, -1.27102047867478890053e-01) (28, -9.92371744582076359409e-02) (29, -2.47220565296115468712e-01) (30, -2.84508400327863231194e-01) (31, -1.22210205263795404496e-01) (32, -1.65468276209535192223e-01) (33, -2.56928511626424382897e-01) (34, -1.89731136626901220055e-01) (35, -1.00282297200860529007e-01) (36, -2.32109789467753957481e-01) (37, -2.08705887860955785484e-01) (38, -2.29403727419080327721e-01) (39, -1.48229629463853429527e-01) (40, -2.45877240515651296349e-01) (41, -1.55751258797349523277e-01) (42, -2.37557329899968694420e-01) (43, -1.58510298199357579918e-01) (44, -2.06260257131757329674e-01) (45, -1.76284962064923833580e-01) (46, -6.18258785785451903116e-01) (47, -5.56289654554143919718e-01) (48, -1.65242151088418554039e-01) (49, -4.37420751655762662935e-01) (50, -2.80613214440049663079e-01) (51, -2.52107505417766164513e-01) (52, -1.57201480611358568318e+00) (53, -6.87983174206033720743e-01) (54, -1.55093899860177919514e+00) (55, -3.36438427059644284967e+00) (56, -3.33929125158780637506e+00) (57, -2.38343366152944158287e-01) (58, -1.63851579024587556965e+00) (59, -6.94205358953491225016e-01) (60, -5.40556658726575900431e+00) (61, -1.86527750866594281831e+01) (62, -1.86375190245094266572e+01) (63, -2.63263509339990153801e-01) (64, -1.59218399717603609211e+00) (65, -6.18377995075002684366e-01) (66, -5.48354846906307269450e+00) (67, -1.85540446715536084810e+01) (68, -1.86481873395028081575e+01) (69, -2.05180839366616796227e-01) (70, -3.34384086294764104608e+00) (71, -3.33563113896840635064e+00) (72, -3.37742531983846250299e+00) (73, -5.39102327000740100260e+00) (74, -5.50376651358249713297e+00) (75, -6.39362510622755064738e-01) (76, -5.47342388254049350138e+00) (77, -5.36820208203437854166e+00) (78, -1.53318149342332765706e+00) (79, -3.24127224771970334771e+00) (80, -1.60631277158056184895e+00) (81, -6.28557797850385679972e-01) (82, -5.50300483327749301310e+00) (83, -5.39574739259126712199e+00) (84, -1.02778882450761346878e-01) (85, -2.85343017219158334719e-01) (86, -1.41982705063523811928e-01) (87, -6.97747070671335234415e-01) (88, -5.35322708558681537028e+00) (89, -5.34920973252895404215e+00) (90, -1.78190351195039342613e-01) (91, -2.37135295487346242638e-01) (92, -8.50839090958662030983e-02) (93, -2.37360317050071822909e-01) (94, -5.42040146064403582926e+00) (95, -5.48018203597906161662e+00) (96, -2.11453132993878911705e-01) (97, -1.82291560537519048424e-01) (98, -1.17325789989573478489e-01) (99, -2.81291421292873544679e-01) (100, -5.50747506242635775919e+00) (101, -5.50499462258461047526e+00) (102, -1.22198641962708978714e-01) (103, -2.66751431591214671624e-01) (104, -8.74494372890737697857e-02) (105, -2.08655763207527267245e-01) (106, -5.36617772948387194987e+00) (107, -3.25038961260312619928e+00) (108, -1.78624511427583287926e-01) (109, -2.40296442724170278282e-01) (110, -1.42819456519228948910e-01) (111, -2.30223480402084457186e-01) (112, -3.22540862052434507135e+00) (113, 1.92890938873264250475e-01) (114, -2.27737546629609655113e-01) (115, -1.23925567335786371292e-01) (116, -2.39049620689494146664e-01) (117, -2.53874584765874544701e-01) (118, -3.58311395882221273013e-01) (119, 5.67079814777170909679e+00) (120, -1.17274285025300531449e-01) (121, -1.52155429787339757652e-01) (122, -2.27756276489836650967e-01) (123, 1.09741509526867653257e+00) (124, -1.83208092780553583045e-01) (125, 1.67244712786305846919e+01) (126, -9.31260806636445420681e-02) (127, -1.22738198108377008499e-01) (128, -1.76086409299209406543e-01) (129, 1.59972720793071232492e+00) (130, 1.02040854662556434995e+00) (131, 1.84999951945724454561e+01) (132, -1.47993668647252801795e-01) (133, -2.47997586346568654747e-01) (134, 6.87512504197050344779e-01) (135, 1.72602880406561376425e+00) (136, 4.60775657799199400699e+00) (137, 1.86687217505755391755e+01) (138, -7.45965016202561753689e-02) (139, -1.35085873039209131141e-01) (140, 1.53207321664872608835e+00) (141, 4.70036777909949599064e+00) (142, 5.40897326162222569224e+00) (143, 1.85011629687728849092e+01) (144, 6.65012462324787390067e-01) (145, -1.14816225798570384353e-01) (146, 1.48088532141032658274e+00) (147, 4.64262815248325644291e+00) (148, 6.40261126498186250444e+00) (149, 1.84971566798272100129e+01) (150, 1.51019960096660099680e+00) (151, -5.52089720056798960446e-02) (152, 1.64864917299333058054e+00) (153, 4.64972945358708678043e+00) (154, 6.65397663055699339907e+00) (155, 1.85276005381824937501e+01) (156, 1.66141985556664906198e+00) (157, -1.25204419998958427218e-01) (158, 1.50851025632205448801e+00) (159, 5.06212333866348984657e+00) (160, 5.05131268032780411659e+00) (161, 1.85729477482023206392e+01) (162, 1.52349188751163922007e+00) (163, -8.01224320219305202739e-02) (164, 1.62859809598508320505e+00) (165, 1.78580899569573881003e+00) (166, 1.85288063469710806430e+00) (167, 1.86404118241848912874e+01) (168, 1.58171970597091160471e+00) (169, -3.93417238281515146969e-02) (170, 1.79101256314101675571e+00) (171, 1.63521832427564106638e+00) (172, 1.56039564511361561472e+00) (173, 1.86682089718165364900e+01) (174, 8.18191102034736883475e-01) (175, -8.93361627147939846294e-02) (176, 1.63507932624402485544e+00) (177, 1.66988100311341725046e+00) (178, 1.65266159376683674509e+00) (179, 1.86004709901394811311e+01) (180, -1.87322205214336262591e-01) (181, -2.66211025150262514671e-01) (182, 1.56199985942426167185e+00) (183, 1.66830124160829029734e+00) (184, 6.98457604534317266776e-01) (185, 5.23478840568056824623e+00) (186, -2.23406862200938943763e-01) (187, -2.41776899165811132164e-01) (188, 1.54674262753310642893e+00) (189, 7.07647247500110876395e-01) (190, -1.41133694259956227191e-01) (191, 5.11948072441807511268e+00) (192, -8.93344652967088120876e-02) (193, -2.73588444827648269442e-01) (194, 1.14414983063835906663e+00) (195, -7.43622242496755625485e-02) (196, -1.92982008962467060931e-01) (197, 2.04341085049357262804e+00) (198, -1.67710154982053522010e-01) (199, -2.67208952246757613924e-01) (200, 1.08208838671345497495e+00) (201, -1.94323456196620808489e-01) (202, -1.33193170933559285052e-01) (203, 1.68886443188633750268e+00) (204, -2.59874261649095217308e-01) (205, -3.21569535671325734683e-01) (206, 1.08154754906792427427e+00) (207, -3.84207724617269541501e-02) (208, -1.52891075520351277239e-01) (209, 1.58800164810004673654e+00) (210, -1.71709559591256860633e-01) (211, -3.10611057816597091463e-01) (212, 1.06134655147690559751e+00) (213, -8.82842910604112046657e-02) (214, -1.43512351720168934710e-01) (215, 1.66297584971967182810e+00) (216, -1.23847440547647028031e-01) (217, -2.72368248342128860262e-01) (218, -2.35414325924360040565e-01) (219, -2.55679403162898610802e-01) (220, -1.03454441494645624222e-01) (221, -1.04624992518260781504e-01) (222, -1.84588902361096929283e-01) (223, -2.11327839432808028963e-01) (224, -2.58815869422399202904e-01) (225, -1.86646559006871770592e-01) (226, -1.88253820604981969566e-01) (227, -2.66784929401578441155e-01) (228, -1.96436881752454522987e-01) (229, -2.84040958351792827141e-01) (230, -1.27686239512407068153e-01) (231, -2.82517307169141307366e-01) (232, -2.71390133268537059319e-01) (233, -2.75866456992330089104e-01) (234, -2.64815346069039836419e-01) (235, -2.59341367251576970787e-01) (236, -1.91128343077146295448e-01) (237, -1.29475281305017037026e-01) (238, -2.90787868864240184319e-01) (239, -1.59006462163629125328e-01) (240, -2.20048227078618596764e-01) (241, -1.90574400789441655846e-01) (242, -2.63309873373948732933e-01) (243, -1.04909152455033807816e-01) (244, -2.06935667164029668541e-01) (245, -2.21809283561410497398e-01) (246, -1.20507911510171442093e-01) (247, -3.27360726682992986269e-01) (248, -2.00293157039734021074e-01) (249, -2.83999212748708262932e-01) (250, -1.98693805105390142174e-01) (251, -1.19401276774110345902e-01) (252, -1.81649923987092565270e-01) (253, -7.49337215305582060587e-01) (254, -2.36844766675087081698e-01) (255, -1.68542758292855809898e-01) (256, -1.82160556978883336754e-01) (257, -2.40752269245090078087e-01) (258, -1.41443342632951302162e-01) (259, -1.97136375843139782793e-01) (260, -2.30908871359529088707e-01) (261, -1.97206550008954595299e-01) (262, -9.53073657223601627964e-02) (263, -2.08414652116002629967e-01) (264, -1.79188647038640569420e-01) (265, -3.56700327037426045962e-01) (266, -1.73871674306096624107e-01) (267, -9.83939624497313786167e-02) (268, -1.01829291052522211136e-01) (269, -1.70775190658273290367e-01) (270, -1.63516075081529210777e-01) (271, -6.87932040871397032511e-01) (272, -2.67465234465302958977e-01) (273, -1.54902920789422582359e-01) (274, -2.39017990148963521690e-01) (275, -1.80516556567849706383e-01) (276, -2.82827862269582286370e-01) (277, -7.25580413223520293009e-01) (278, -2.13992927013488876131e-01) (279, -9.87747020193953800815e-02) (280, -2.55756404913367818565e-01) (281, -2.28340395457448552818e-01) (282, -1.24291629261674432816e-01) (283, -2.33983952342125045565e-01) (284, -2.23854393429460118981e-01) (285, -1.76790081627072881432e-01) (286, -2.18180388874711583824e-01) (287, -1.12130597896279840531e-01) (288, -1.23658002085389642777e-01) (289, -2.65739374525250926506e-01) (290, -1.24920651979150323929e-01) (291, -2.60682516462506841393e-01) (292, -1.69061564571561406822e-01) (293, -1.26343668169679207436e-01) (294, -1.75212816066445897789e-01) (295, -2.54365869528951238365e-01) (296, -9.86976779171843815464e-02) (297, -2.55200137115420888634e-01) (298, -2.58875482446851323814e-01) (299, -1.06642619437875299515e-01) (300, 6.06943779152498308349e-01) (0, 4.37892832498847639489e-01) (1, -5.56662405896316409004e-02) (2, 7.94133407008518338310e-02) (3, 3.76874246340095198082e-01) (4, 3.80514972548782026696e-01) (5, 3.74095976989566481041e-01) (6, 3.87930744033157026696e-01) (7, 2.74429184329380432272e-02) (8, -3.68654641378055522583e-02) (9, 3.83040384095012342858e-01) (10, 4.46885727982818281578e-01) (11, 4.09993343692123091149e-01) (12, 3.52633111815749800133e-01) (13, 1.59332391750683158294e-02) (14, 1.15817190994557797645e-01) (15, 4.69727375250159895348e-01) (16, 2.72952058058082258629e-01) (17, 4.61777054410277998375e-01) (18, 4.39953722696601545739e-01) (19, 2.18970942372618243565e-01) (20, 3.48614643389521083883e-01) (21, 2.73155555765926039147e-01) (22, 4.25919809084235823082e-01) (23, 3.98281433325111067223e-01) (24, 3.91827084760963118004e-01) (25, 3.83312205845652065328e-01) (26, 3.11342018718061885885e-01) (27, 4.30511303882896101403e-01) (28, 3.00447159152328169274e-01) (29, 3.80709842484294569420e-01) (30, 3.92304689328967726158e-01) (31, 3.83698205525217495016e-01) (32, 4.33842756491004621910e-01) (33, 3.80517177920638716149e-01) (34, 3.70182850103675520348e-01) (35, 3.41842033605872785973e-01) (36, 2.82097459476291334557e-01) (37, 2.03471805030642050038e-01) (38, 2.78084114830791151451e-01) (39, 3.54031161110698378014e-01) (40, 3.96122605245410597252e-01) (41, 4.52454142909347212242e-01) (42, 2.91508809368907606530e-01) (43, 1.94113913053808762044e-01) (44, 3.77186552326976454186e-01) (45, 2.99016409259139692711e-01) (46, -1.07863156782401672928e-01) (47, -3.69194774509769979565e-03) (48, 2.88277768235503828453e-01) (49, 2.76683615435895369217e-01) (50, 4.06204246621429121422e-01) (51, 4.46502827744781172203e-01) (52, 6.02147442233432889092e-02) (53, -2.17064830529819438598e-02) (54, -9.04629258991581503002e-03) (55, -2.30098222960186005182e+00) (56, -2.30929224957180023736e+00) (57, 2.93220975141822493004e-01) (58, -6.24782505500446200264e-02) (59, -8.52412270320478115959e-04) (60, -4.36391751470169442229e+00) (61, -7.38089436802012421879e+00) (62, -7.44574892285210587772e+00) (63, 3.62742186229526197838e-01) (64, -3.46877860891948650024e-02) (65, 9.01233416926731228935e-02) (66, -7.38745143028838135990e+00) (67, -7.46331113341195084843e+00) (68, -7.53499956193310715946e+00) (69, 3.55510870987711391500e-01) (70, -7.89669485146478944415e-01) (71, -8.19266469532923036212e-01) (72, -2.24424780924272537774e+00) (73, -4.30861523749431984953e+00) (74, -4.35348102452358620695e+00) (75, -5.90685891974101900948e-02) (76, -2.37860509027194977349e+00) (77, -4.35254502298435586027e+00) (78, 4.60386288297047058249e-02) (79, -9.28413578624204927081e-01) (80, -1.53190182460370694084e-04) (81, -2.02728125321994731567e-02) (82, -4.49236531557640450529e+00) (83, -4.41515709461769478850e+00) (84, 4.48134713511764204430e-01) (85, 3.72720197480022108483e-01) (86, 4.38500844579040205407e-01) (87, -5.31648683416972994698e-02) (88, -4.37190716715654748015e+00) (89, -4.48051089795431511931e+00) (90, 4.36096735935508406090e-01) (91, 3.22324917357265150475e-01) (92, 4.50931646566688215660e-01) (93, 3.81172396719336309401e-02) (94, -4.35278122129043953947e+00) (95, -4.44028962778052704863e+00) (96, 3.36274579804240858483e-01) (97, 3.72104257982074415612e-01) (98, 4.42939059482473473928e-01) (99, 2.57817318309693455092e-01) (100, -4.42810712011656182341e+00) (101, -4.39138788731893914274e+00) (102, 2.83890903632938063073e-01) (103, 2.82285236459075605797e-01) (104, 3.92349386261362176320e-01) (105, 3.32764869202523350111e-01) (106, -4.43331684546670334868e+00) (107, 1.14031310896134066568e-01) (108, 3.63498770337402021813e-01) (109, 2.86853589754401838707e-01) (110, 4.29516331897634606740e-01) (111, 3.81682758797555088393e-01) (112, -2.28644328583431244439e+00) (113, 1.49916783287477206610e-01) (114, 3.49804588299094831871e-01) (115, 3.50998946171104109215e-01) (116, 3.30172473238367181203e-01) (117, 3.15789744894801771569e-01) (118, 3.16171263922600864760e-01) (119, 2.20587276022015377208e+00) (120, 3.28095801811515486168e-01) (121, 3.70214276652633345055e-01) (122, 5.00891493307012769520e-01) (123, 7.58874650705976372400e-01) (124, 4.35050659518539106774e-01) (125, 7.60121289583785042510e+00) (126, 3.59039083760081922936e-01) (127, 2.98809536438285505699e-01) (128, 3.28274199442424308160e-01) (129, 7.47622441161794548670e-01) (130, 8.26936032284421806970e-01) (131, 7.56551128568989739165e+00) (132, 3.96688618402778303551e-01) (133, 3.85948353152572309899e-01) (134, 6.02221394814104638016e-01) (135, 4.59598298426822005069e+00) (136, 1.74671840700688840720e+00) (137, 7.63478095027548775420e+00) (138, 3.78652632873355543541e-01) (139, 4.27642562132178938317e-01) (140, 1.25531001419513432715e+00) (141, 1.71150929513755323264e+00) (142, 2.27707288307265365290e+00) (143, 7.55198308023554787383e+00) (144, 5.93421706442180063590e-01) (145, 3.04560498040019667076e-01) (146, 2.08603667858424701720e+00) (147, 1.85821255329432943881e+00) (148, 2.57657028694462253426e+00) (149, 7.56458387467009529814e+00) (150, 6.43326222241404566127e-01) (151, 4.37617556796926598928e-01) (152, 4.78145744707539854801e+00) (153, 1.79674913022103766025e+00) (154, 2.66614647169422536166e+00) (155, 7.62481742295367226347e+00) (156, 5.71707747221472772914e-01) (157, 3.58137013064283471486e-01) (158, 4.77028625514462767399e+00) (159, 1.76475492897811414572e+00) (160, 1.94932477715458740697e+00) (161, 7.55316870602709755644e+00) (162, 7.04011946261408838588e-01) (163, 5.05053804860967847645e-01) (164, 3.03707828459108597485e+00) (165, 4.67514315303519545353e+00) (166, 4.59431819673732100284e+00) (167, 7.53074515554053292021e+00) (168, 8.26342604186803164623e-01) (169, 4.20994462119001489064e-01) (170, 2.85634894755447632519e+00) (171, 1.96142973396363751171e+00) (172, 1.33716101393534292363e+00) (173, 7.64062794241053566680e+00) (174, 6.47158517778399500209e-01) (175, 3.67910311262904798912e-01) (176, 1.19961892262531844011e+00) (177, 1.28124642566277113787e+00) (178, 8.40634620812207522533e-01) (179, 7.54799160304409966216e+00) (180, 4.57391255240737593102e-01) (181, 4.63549875359832441735e-01) (182, 7.81488343205720026319e-01) (183, 9.49755794432431521557e-01) (184, 6.28533303082469019252e-01) (185, 2.05194382163729516222e+00) (186, 4.10482578616439497399e-01) (187, 4.26107533912955915856e-01) (188, 4.69437399391475052024e-01) (189, 6.45398474574568781215e-01) (190, 3.42490741656679253957e-01) (191, 1.78493663701596738669e+00) (192, 2.80753985684215223717e-01) (193, 1.98513207603840946547e-01) (194, 5.41934886459651377066e-01) (195, 3.14553962694067101857e-01) (196, 4.12141957925218682668e-01) (197, 4.69501543101027785099e+00) (198, 3.44091945033370649742e-01) (199, 3.44217648376374363295e-01) (200, 8.74487867669256346836e-01) (201, 3.97162595437425713918e-01) (202, 3.07737620221037011525e-01) (203, 4.75250186827138243473e+00) (204, 3.36583361666499769616e-01) (205, 3.06906668116002201430e-01) (206, 9.13093043581636565342e-01) (207, 3.76454727397817712209e-01) (208, 3.18867498682397942922e-01) (209, 1.32670023486448873662e+00) (210, 4.23239149790107405114e-01) (211, 3.79078199733643650404e-01) (212, 5.65021620575728800162e-01) (213, 4.35125448446571028160e-01) (214, 4.49693911414443647789e-01) (215, 5.52317268491271273767e-01) (216, 4.11906771998702680992e-01) (217, 2.97198822368531345717e-01) (218, 4.55100201707183515953e-01) (219, 4.40106519203483259606e-01) (220, 3.09734658043681776451e-01) (221, 3.25075240479368310353e-01) (222, 3.42468545477687513756e-01) (223, 1.87381193518519131858e-02) (224, 3.07331830900012648033e-01) (225, 4.43165787201224958824e-01) (226, 3.25808324556647932457e-01) (227, 4.12755199413596784996e-01) (228, 3.52001950781642591881e-01) (229, 3.97384577136336958336e-01) (230, 3.74919117133914625573e-01) (231, 3.75113994520007765221e-01) (232, 2.87828580181895887780e-01) (233, 3.75938147943317091393e-01) (234, 3.41436595361529982018e-01) (235, 3.51896249394714033532e-01) (236, 3.00791100304423963951e-01) (237, 4.03153815012275373864e-01) (238, 4.21632387380897200035e-01) (239, 3.12940005849897062706e-01) (240, 3.35903600495158827233e-01) (241, 3.72355849187671339440e-01) (242, 3.09964478652774488854e-01) (243, 4.59687553983031904625e-01) (244, 3.34965602200328504967e-01) (245, 2.87142702083884870934e-01) (246, 2.88680226247607862877e-01) (247, -2.48781568825364104991e-02) (248, 3.11825831998734592787e-01) (249, 4.71264728050529158043e-01) (250, 4.41947498064338362145e-01) (251, 4.39506777267753279137e-01) (252, 2.89621368687450086998e-01) (253, -6.94144952166210055244e-02) (254, 1.94502060879616855971e-01) (255, 3.24437495957910215783e-01) (256, 2.82550447326003706383e-01) (257, 3.38256665211021101403e-01) (258, 4.64676999192535078453e-01) (259, 6.28018700063108920029e-02) (260, 4.63125549893676435875e-01) (261, 3.67080420892535841393e-01) (262, 4.64635007720290815758e-01) (263, 2.78438442092239057946e-01) (264, 4.70502876382171308922e-01) (265, 2.43093931694178699843e-01) (266, 3.57818991582690870690e-01) (267, 2.98778281252681410241e-01) (268, 4.64194022755920088219e-01) (269, 3.06935683529674208092e-01) (270, 3.39202598374187147545e-01) (271, 2.83470921695112981764e-02) (272, 4.06775840263663923668e-01) (273, 3.76651384573280012535e-01) (274, 3.14753793816863691735e-01) (275, 4.69225742559730207848e-01) (276, 3.91278401654063856530e-01) (277, -5.03965231645236849678e-02) (278, 3.80604764093308567396e-01) (279, 3.21050514172612821984e-01) (280, 3.29667349051534330773e-01) (281, 4.40498538952171003746e-01) (282, 2.88041592281161940026e-01) (283, 4.75381933629393377272e-02) (284, 2.79883199076949751305e-01) (285, 3.00489940386115705895e-01) (286, 3.98694836240111982750e-01) (287, 2.89917953949271833824e-01) (288, 3.66230913143455183434e-01) (289, 3.90856139998733198571e-01) (290, 3.79438967149554884362e-01) (291, 3.56840775053798353600e-01) (292, 2.85420865457355177330e-01) (293, 3.71558271985351240563e-01) (294, 3.62763524692355787682e-01) (295, 2.83408053856193220543e-01) (296, 4.32598479728995954918e-01) (297, 4.48066823821365034508e-01) (298, 3.09670642655193006920e-01) (299, 4.24276807051002180504e-01) (300, -1.49678539151088585424e-01) (0, 3.48026812103931715292e-01) (1, 1.20855132246480923008e+00) (2, 1.34595523530708294224e+00) (3, 2.52162501243297865194e-01) (4, 2.93250396875088026327e-01) (5, 3.85126270381157154166e-01) (6, 3.70925210443680097860e-01) (7, 1.30919205898509960484e+00) (8, 1.34121632332073192906e+00) (9, 4.19460020986740345084e-01) (10, 4.08804677454178089224e-01) (11, 3.51660147336666395468e-01) (12, 3.61545916355792529284e-01) (13, 1.24060104170905094456e+00) (14, 3.59027653959934522909e-01) (15, 2.62960180667583753866e-01) (16, 4.09241162267868274771e-01) (17, 3.76429908004944080435e-01) (18, 2.83235389448348529040e-01) (19, 3.27581591931526472372e-01) (20, 2.83353175995294859213e-01) (21, 4.41000483957474043173e-01) (22, 3.40486764935200025839e-01) (23, 3.82395751801674121939e-01) (24, 2.57808293856326586901e-01) (25, 3.51379133788292219442e-01) (26, 2.69038524187747485339e-01) (27, 2.33359422243777758776e-01) (28, 3.15094079531375415026e-01) (29, 2.20799635804835803210e-01) (30, 2.43330541707221514880e-01) (31, 2.18935928947869784533e-01) (32, 2.27626979060117251574e-01) (33, 1.87561806000415332019e-01) (34, 2.26913489110414035022e-01) (35, 2.76692423678580767810e-01) (36, 3.28503127850238330065e-01) (37, 3.53653754748050219714e-01) (38, 1.84160504199210650622e-01) (39, 2.67995472706500537097e-01) (40, 3.28928824223224169909e-01) (41, 3.48780240572635180651e-01) (42, 1.75470668531600482165e-01) (43, 3.93169827786628955923e-01) (44, 1.87657300091926104724e-01) (45, 3.63753378418628980917e-01) (46, 1.36948407942520122837e+00) (47, 1.38369254523979168248e+00) (48, 2.22558326728288180529e-01) (49, 3.24435502318088819784e-01) (50, 2.36110146797839648425e-01) (51, 2.61726554192248828112e-01) (52, 2.96344371564298514343e+00) (53, 1.36339100951419811558e+00) (54, 2.91557005472093466736e+00) (55, 3.05050705797582510925e+00) (56, 2.95523884571700934387e+00) (57, 2.98230942047778613269e-01) (58, 2.91312154806762579895e+00) (59, 1.21493431681858043980e+00) (60, 3.06391834146886710144e+00) (61, 7.56633379253489479765e+00) (62, 7.52840560990316376433e+00) (63, 2.05167676962558276355e-01) (64, 3.00252401508003119446e+00) (65, 1.31929385418163280796e+00) (66, 5.19514679226319575633e+00) (67, 7.54090884271008476958e+00) (68, 7.56748296263558373198e+00) (69, 3.97970743504707569205e-01) (70, 3.05753273196130637146e+00) (71, 2.94504021904974822021e+00) (72, 3.01819873280435446716e+00) (73, 3.06225847132116202332e+00) (74, 2.89402508414893988586e+00) (75, 1.35045744234786968541e+00) (76, 2.98182689822822455383e+00) (77, 3.06178519554048422791e+00) (78, 3.01707965559869650818e+00) (79, 3.03364028460889700867e+00) (80, 2.94203573517113570190e+00) (81, 1.39779120439754467320e+00) (82, 2.92462189919858817078e+00) (83, 3.01910180277734641052e+00) (84, 4.01919208494369739615e-01) (85, 3.11621636179630567831e-01) (86, 2.67598535574618823230e-01) (87, 1.22831943387256603550e+00) (88, 5.24969924303929591503e+00) (89, 5.17837406012456202831e+00) (90, 2.10550732619706637561e-01) (91, 3.43208323873225695788e-01) (92, 9.50375465286399934151e-02) (93, 3.45392078188602735800e-01) (94, 2.89326376147180441833e+00) (95, 3.02545103855043295837e+00) (96, 1.89521941996757037341e-01) (97, 3.18001296080295092761e-01) (98, -1.55693342134340578786e-01) (99, 2.90000635839644915759e-01) (100, 2.98741978831201437927e+00) (101, 3.07051070458799246765e+00) (102, 3.48663221753779895007e-01) (103, 2.03608181036654956042e-01) (104, -8.65740810333081450834e-03) (105, 3.56310676492396838366e-01) (106, 3.06797434813886527039e+00) (107, 2.94184077955394629456e+00) (108, 3.31718217290584094226e-01) (109, 2.83043663657847888171e-01) (110, 7.48363105190421873392e-02) (111, 1.87376308895293719470e-01) (112, 2.99474360473066214539e+00) (113, -1.09071012632348376958e-01) (114, 2.21466068698229989753e-01) (115, 2.36845154024306780993e-01) (116, -1.13141382640418661221e-01) (117, -4.46122710653000742465e-01) (118, 2.63440612412635333239e-01) (119, -8.62731628154862373314e-01) (120, 1.13533701004198649132e-03) (121, 3.03246404684726245105e-01) (122, -1.72882671634534496041e-01) (123, -8.36862802007502737389e-01) (124, -3.46387022575546821290e-01) (125, -1.56851048951966309808e+00) (126, 1.00359536627873686260e-02) (127, 1.24596119446816644416e-01) (128, -2.18740190545896190377e-01) (129, -8.84811445572680654870e-01) (130, -8.57855185368365469323e-01) (131, -7.41602683576685883793e+00) (132, 7.14697613516895348396e-03) (133, -1.90117332786161538638e-02) (134, -8.48347946804558494804e-02) (135, -2.36209966077224065018e+00) (136, -6.54371168115443158086e-01) (137, -7.40156688305479981693e+00) (138, 2.26239927033528298583e-02) (139, -7.24727261513311987740e-02) (140, -3.87085041021581588438e-01) (141, -6.42475556233233380254e-01) (142, -7.90446862476573919309e-01) (143, -7.38090219112975098881e+00) (144, -3.04240887113266855746e-01) (145, -5.95856279214277972933e-02) (146, -9.97394196191138449059e-01) (147, -6.93098786869353222784e-01) (148, -1.55105039588914350723e+00) (149, -7.42210631581885316166e+00) (150, -2.92504747458153635531e-01) (151, -3.01894330820252021486e-01) (152, -9.72197059043950262414e-01) (153, -8.87477296833759421446e-01) (154, -1.91590949995473658340e+00) (155, -7.45589626344782807621e+00) (156, -3.34033017106705576449e-01) (157, -3.77353595039059241945e-01) (158, -8.86002867915934744225e-01) (159, -9.67450977207422013748e-01) (160, -1.00815802896141981648e+00) (161, -7.43166936698300339970e+00) (162, -3.73120320089512735873e-01) (163, -3.03650469919849952394e-01) (164, -9.64602000513381185876e-01) (165, -2.78438119999993904941e+00) (166, -2.70205628536571129672e+00) (167, -7.54678450289113023075e+00) (168, -1.00110688010723025698e+00) (169, -2.70323389610458930665e-01) (170, -2.77101506702531441562e+00) (171, -1.11687149787402728585e+00) (172, -1.14620406860566714791e+00) (173, -7.53775597873074509891e+00) (174, -4.40004074074679285555e-01) (175, -2.31322419054717592912e-01) (176, -9.58162687220877828942e-01) (177, -1.11856714570975879219e+00) (178, -8.88114705183810415612e-01) (179, -7.36717585238558747562e+00) (180, -3.70667600473572333986e-01) (181, 5.66183860014379258807e-02) (182, -9.71566769727772894250e-01) (183, -1.13626976991153338936e+00) (184, -4.75403090067559264131e-01) (185, -1.45023542117005654895e+00) (186, -1.18371069587678470758e-01) (187, 3.45972519077006823718e-01) (188, -3.60625167437249094515e-01) (189, -4.63094766479680619575e-01) (190, -3.28870167084389597445e-01) (191, -1.07645135456442808675e+00) (192, -2.59442560531110366639e-01) (193, 2.53418150998298175036e-01) (194, -8.73917594054049673424e-01) (195, -4.10473433383160501986e-01) (196, -3.26606412478142649203e-01) (197, -3.20858836059237439997e+00) (198, -1.94228321470231585222e-01) (199, 3.64959966100398547351e-01) (200, -9.98768247165984335290e-01) (201, -3.13835312672310740023e-01) (202, -2.99654887458492835695e-01) (203, -1.30796372586607900779e+00) (204, -8.85616691484161083769e-02) (205, 3.03513448394481188952e-01) (206, -8.96891012289828482018e-01) (207, -4.33153231688195139437e-01) (208, -2.59007938362569412050e-01) (209, -1.12890998208976367501e+00) (210, -1.29664265707119169546e-01) (211, 1.97471525229159838855e-01) (212, -4.76835762210541747042e-01) (213, -1.79269761003465227800e-01) (214, -7.51172873824675207954e-02) (215, -4.59906992562466532259e-01) (216, -1.42669898614271400961e-01) (217, 2.22234405286256320178e-01) (218, -2.41023044268468600304e-01) (219, 2.29818616582217416511e-01) (220, 2.25129042340579232917e-01) (221, -3.21217720456772715121e-01) (222, 1.09052341951194009528e-01) (223, 4.14067409959976429068e-01) (224, -6.79837808092489948031e-02) (225, 3.63365631259624011218e-01) (226, 2.22485817677918917834e-01) (227, -1.49158542200906990560e-01) (228, -5.49946177452642764871e-02) (229, 3.04564010060969836413e-01) (230, -4.78604060657673857637e-01) (231, 3.15249856270495898425e-01) (232, 2.83060546673480517565e-01) (233, 2.64913458086196429431e-01) (234, -1.36445020481928053213e-01) (235, 2.70805377222243792712e-01) (236, -4.65394822009259134798e-01) (237, 3.35676680959407336413e-01) (238, 3.29983990348521716296e-01) (239, 2.14980534918252474963e-01) (240, 1.11229491008582315192e-01) (241, 3.68991043127719409167e-01) (242, -4.21369669087582499056e-01) (243, 2.25359998352471835315e-01) (244, 2.66027781821433551013e-01) (245, 3.35261147178355700671e-01) (246, 2.57784854329768664538e-01) (247, 3.65469194976036360067e-01) (248, -1.52665634796007393392e-01) (249, 2.65437286056224353015e-01) (250, 2.49737273610774523913e-01) (251, 3.39769120968524462878e-01) (252, 2.36551407433692462146e-01) (253, 3.60119104412739088339e-01) (254, 2.11017165852847299323e-01) (255, 2.90338750637713916003e-01) (256, 2.79299791611377246081e-01) (257, 3.61392464197818286120e-01) (258, 3.09851508296672351062e-01) (259, 2.66416490105335523886e-01) (260, 1.96577121092143258796e-01) (261, 3.23579307354632861315e-01) (262, 3.37481405295077807605e-01) (263, 2.07527134276572711169e-01) (264, 2.17747825838271624743e-01) (265, 4.43147681680862715048e-01) (266, 2.08953161312403878913e-01) (267, 2.44684856094066149890e-01) (268, 3.34639411128703601062e-01) (269, 2.66826625622455126940e-01) (270, 2.88920458115283496081e-01) (271, 2.47198395458404829306e-01) (272, 2.65072721697036273181e-01) (273, 4.33322660652344038290e-01) (274, 3.01813457188551237387e-01) (275, 3.60355566896144396960e-01) (276, 3.24398841417972094714e-01) (277, 1.34639240557418804478e+00) (278, 2.81639810360614306628e-01) (279, 4.13844533292000049673e-01) (280, 2.83545721349661161703e-01) (281, 4.34072159258072187704e-01) (282, 3.09428717650119311511e-01) (283, 3.49352195886318495077e-01) (284, 2.76566307700816638171e-01) (285, 3.21775369373504926962e-01) (286, 2.68945999470894148153e-01) (287, 2.58561164168064405722e-01) (288, 2.38982889510337359606e-01) (289, 4.08052571145241016470e-01) (290, 2.07352693833056933581e-01) (291, 4.36889492002670576376e-01) (292, 3.60886931446735670370e-01) (293, 2.47529163984005262655e-01) (294, 2.00231682218257434069e-01) (295, 4.07889820662681812369e-01) (296, 1.73051889694873339831e-01) (297, 4.10514332381431812369e-01) (298, 2.81829744604770948690e-01) (299, 4.10386376110260242545e-01) (300, -4.63880884516368746651e-02) (0, 4.00005258647148365103e-01) (1, 1.37093884999023418736e+00) (2, 1.35846283787952404332e+00) (3, 3.89142967787925952994e-01) (4, 2.71028324989025404257e-01) (5, 3.90534423319046253287e-01) (6, 3.42796877053921034140e-01) (7, 1.37323578948245983433e+00) (8, 1.25896833220587711644e+00) (9, 3.12456458834354688925e-01) (10, 2.55057521191780378622e-01) (11, 2.91316512999479582113e-01) (12, 1.77700217522326953112e-01) (13, 1.31776378804908733677e+00) (14, 1.35467691475616436314e+00) (15, 3.28730642822925855917e-01) (16, 3.84985812035743946158e-01) (17, 4.11514110890571827017e-01) (18, 3.23528583801929003894e-01) (19, 3.48853439119999220175e-01) (20, 2.48121857670490553183e-01) (21, 3.89673136202041858756e-01) (22, 2.65555419055168440146e-01) (23, 2.51466073123161604208e-01) (24, 3.45719869888965136706e-01) (25, 4.29260291186516096396e-01) (26, 2.53773018745128919882e-01) (27, 3.12049250758830554187e-01) (28, 1.93465079821292407214e-01) (29, 3.46534441865626818835e-01) (30, 1.74460325099174029528e-01) (31, 3.49285389937106616198e-01) (32, 3.15749313391391284167e-01) (33, 3.31199180043879992663e-01) (34, 2.94243413664046771228e-01) (35, 3.42592682398501879870e-01) (36, 2.77548666752521044909e-01) (37, 1.92855339206401354968e-01) (38, 3.14104493416491992175e-01) (39, 3.34793012298289782702e-01) (40, 2.61126849509421832263e-01) (41, 3.24977066076938159167e-01) (42, 1.81924577511493212878e-01) (43, 3.41522142318432142538e-01) (44, 2.41016875661555773913e-01) (45, 4.08317528692428821646e-01) (46, 1.38360687846408825230e+00) (47, 1.21279677504764538121e+00) (48, 3.02206661261264331042e-01) (49, 3.78851480809395069205e-01) (50, 2.86486211873237139880e-01) (51, 3.79583589760009998404e-01) (52, 2.96653235382943991638e+00) (53, 1.33883572870956402134e+00) (54, 3.02905738778024558044e+00) (55, 2.94150729156642798401e+00) (56, 3.00856473721176032043e+00) (57, 3.23012765206042773425e-01) (58, 3.08281161315351370789e+00) (59, 1.34663121158348064732e+00) (60, 3.01443496770769003845e+00) (61, 7.46715363058192238555e+00) (62, 7.59045197012764916167e+00) (63, 2.43806633807364947497e-01) (64, 3.04698123462110403992e+00) (65, 1.24867014715538959813e+00) (66, 5.09968600112240100231e+00) (67, 7.53441160115344032988e+00) (68, 7.53606085422379479155e+00) (69, 4.32453952757065107626e-01) (70, 2.91783303446679953552e+00) (71, 3.04581612772851828552e+00) (72, 3.02887875265985373474e+00) (73, 2.92901267535596732117e+00) (74, 2.94315332598596457458e+00) (75, 1.21449702734218578648e+00) (76, 2.89314524508624915100e+00) (77, 2.92503621480971220947e+00) (78, 2.91022348828225974060e+00) (79, 3.02460697717576865173e+00) (80, 3.05970274336248282410e+00) (81, 1.34131110960708599400e+00) (82, 2.96000560797363165833e+00) (83, 5.10825638535659098949e+00) (84, 3.20883832899277021689e-01) (85, 2.60492675033752729696e-01) (86, 5.30727330649328477019e-02) (87, 1.40060995275245647740e+00) (88, 5.22335211250226283397e+00) (89, 5.15982000592391276683e+00) (90, 8.82564533555937058562e-02) (91, 2.67377819575015551745e-01) (92, -6.23587663947790180052e-02) (93, 3.11425864723865797323e-01) (94, 5.22447114500443721141e+00) (95, 5.12057296249310756053e+00) (96, 5.86503271067572024000e-02) (97, 1.85348953760806567370e-01) (98, -1.55653468129229394235e-01) (99, 3.53988613642398364245e-01) (100, 2.88925065524488333679e+00) (101, 3.05103676445394400574e+00) (102, 8.71454078758192307586e-02) (103, 3.16119070805255419909e-01) (104, -2.81563042459082424340e-01) (105, 3.70202790654841906726e-01) (106, 3.04452483780294302917e+00) (107, 2.90043940819412116028e+00) (108, -1.74203354811238962652e-02) (109, 3.52737988985721118151e-01) (110, -8.66905964753804242351e-02) (111, 1.82186465419475085437e-01) (112, 3.00795781291633490540e+00) (113, -1.24121982650258380620e-01) (114, -3.17130635287369011532e-02) (115, 3.69024004496280200183e-01) (116, -3.10966452251622282876e-01) (117, -3.18801005430870920687e-01) (118, 3.67909978784266955554e-01) (119, -9.55258682405102699242e-01) (120, -1.60407408311146276736e-01) (121, 3.11703186191264636218e-01) (122, -3.40106837797545580315e-01) (123, -8.45829382040805044518e-01) (124, -3.71896454533745368654e-01) (125, -2.95379054969106213946e+00) (126, -2.40952577483523500135e-01) (127, -4.62850529402334537332e-02) (128, -3.55808243501567034173e-01) (129, -8.46829264858073416100e-01) (130, -9.23966556289500418053e-01) (131, -7.45239741864544846806e+00) (132, -2.62790917779157751077e-01) (133, -1.20359235599621069990e-01) (134, -4.07561093914889427392e-01) (135, -2.71271291039813622348e+00) (136, -2.81966349519718750827e+00) (137, -7.34887609395129182133e+00) (138, -2.41434990788648717874e-01) (139, -8.27849704474051262260e-02) (140, -1.02297599548554996041e+00) (141, -2.74636003039706810824e+00) (142, -1.13860216712454875854e+00) (143, -7.44530289384467103275e+00) (144, -4.17631360930154404976e-01) (145, -2.17846380016018498216e-01) (146, -1.10311677241778949288e+00) (147, -7.73877929394012564757e-01) (148, -1.52366496734128409329e+00) (149, -7.44985880467040040287e+00) (150, -5.64602199238488977606e-01) (151, -3.95862914050767955576e-01) (152, -1.16499349037266353157e+00) (153, -8.55640332643753165343e-01) (154, -1.78872300786927973526e+00) (155, -7.50070138784987427982e+00) (156, -3.80037131947228989937e-01) (157, -3.62532331968496379648e-01) (158, -1.03440807694650271920e+00) (159, -3.25332383696700055964e+00) (160, -3.29919220392371137507e+00) (161, -7.47268521550042130741e+00) (162, -3.93696445268342576362e-01) (163, -2.32338785554121157739e-01) (164, -1.08046608353114703682e+00) (165, -2.85652506016124352328e+00) (166, -2.73483441434730156772e+00) (167, -7.37660323592764832767e+00) (168, -1.19406069004989245919e+00) (169, -3.08836005057046947275e-01) (170, -2.81114603616226776950e+00) (171, -1.01393948430276492623e+00) (172, -1.18064256692386249092e+00) (173, -7.39338903638464906010e+00) (174, -4.73764713150212846138e-01) (175, -2.40770160580824010843e-01) (176, -1.08723273808217624214e+00) (177, -1.01225766474462131050e+00) (178, -1.04443085128522494820e+00) (179, -7.49535974251968362125e+00) (180, -3.22232260729024944101e-01) (181, 7.39975059936940765537e-02) (182, -1.13709832662797549752e+00) (183, -1.07700848514295199898e+00) (184, -4.98478974443624212043e-01) (185, -1.51507975380545922839e+00) (186, -1.03914901770562687067e-01) (187, 2.21476465172711856066e-01) (188, -3.80526592083626657992e-01) (189, -4.23543068808267197944e-01) (190, -4.37571767014215073921e-01) (191, -3.18738693629170377619e+00) (192, -2.60906711377114852723e-01) (193, 2.68724348105136401355e-01) (194, -3.72195934005432993441e-01) (195, -4.26592889469811997749e-01) (196, -4.55736066442678056099e-01) (197, -3.27690945078397710688e+00) (198, -1.67874552465886645036e-01) (199, 2.88669209636394030749e-01) (200, -8.75480308630770864831e-01) (201, -3.99904492539117417671e-01) (202, -3.03135260368536052500e-01) (203, -1.21911429309964147727e+00) (204, -1.57971941091031603532e-01) (205, 3.68686046160403735339e-01) (206, -8.83578583100146475182e-01) (207, -5.30424784165570928351e-01) (208, -1.00076532718729849236e-01) (209, -1.09841295266604999092e+00) (210, -1.90462939597577624040e-01) (211, 2.47510607994739062487e-01) (212, -4.28959605343991190463e-01) (213, -1.37014738080096093453e-01) (214, -2.86002806183886348901e-01) (215, -4.35106727522561631538e-01) (216, -1.52708527788503883871e-01) (217, 3.45990936912242419421e-01) (218, -3.12083234139138132601e-01) (219, 4.30775667141378160174e-02) (220, 3.16362614344060724680e-02) (221, -4.57323166769692979194e-01) (222, 1.42135989440741739021e-01) (223, 3.75911496607010120474e-01) (224, -1.16491057731713407164e-01) (225, 3.60906328715030200183e-01) (226, 2.40502398170176989733e-01) (227, -2.08903781778026292892e-01) (228, -2.33410228200168184953e-01) (229, 3.48934363282863146960e-01) (230, -4.60239750393086344271e-01) (231, 3.67757390893641955554e-01) (232, 3.13653688586894519030e-01) (233, 3.09919040359202868640e-01) (234, -1.02723255909890689996e-01) (235, 2.31988269544784075915e-01) (236, -3.55216627069168955355e-01) (237, 2.90346082009021289050e-01) (238, 2.66187306202594287097e-01) (239, 2.96640824235621936023e-01) (240, -6.04050820161402199360e-02) (241, 3.52030884183589465319e-01) (242, -4.89670303710156518129e-01) (243, 2.58402581967059619128e-01) (244, 3.03873326338473803698e-01) (245, 1.76260877109710223376e-01) (246, 8.92852587235595795967e-02) (247, 3.93276117769424671256e-01) (248, 1.20906409174363956710e-02) (249, 3.68168290413562304675e-01) (250, 2.47604157484714038073e-01) (251, 2.67833623744193560778e-01) (252, 2.75468941487018115222e-01) (253, 3.91069628325645679556e-01) (254, 1.00925755275550088630e-01) (255, 2.80749004043284899890e-01) (256, 3.07791005529109484851e-01) (257, 2.69317630387488848864e-01) (258, 1.94916818000022418200e-01) (259, 4.24127303091232588095e-01) (260, 1.48872640503707132087e-01) (261, 2.27008916146699435412e-01) (262, 3.47699727572146899401e-01) (263, 1.90415810502711779773e-01) (264, 3.66183023608867175280e-01) (265, 3.94722990719024890982e-01) (266, 1.53024729861083230720e-01) (267, 3.03298245824519641101e-01) (268, 2.40884121216479785144e-01) (269, 3.47101520456019885241e-01) (270, 2.29194123007003314196e-01) (271, 3.38609538999740888876e-01) (272, 3.28387450135890490710e-01) (273, 3.05295683470909406942e-01) (274, 4.26267169443313886923e-01) (275, 3.34955848780815412802e-01) (276, 2.37371612049285418689e-01) (277, 1.40098093206153850865e+00) (278, 2.10607014305535800158e-01) (279, 2.91573569205944349569e-01) (280, 4.40865255919639875692e-01) (281, 3.60906243351642896933e-01) (282, 3.15222244418803698718e-01) (283, 3.45589257804100324911e-01) (284, 2.34350915707293994128e-01) (285, 4.17477481094543689810e-01) (286, 2.55593322244827558798e-01) (287, 2.44836986092274000448e-01) (288, 2.42610159970466143786e-01) (289, 2.79765203622524549765e-01) (290, 3.51339321292582995593e-01) (291, 3.92812289324943775259e-01) (292, 3.36029186872188856405e-01) (293, 4.01734121171180957877e-01) (294, 3.39043166197482592761e-01) (295, 3.31467270878498365683e-01) (296, 2.78832141019050128161e-01) (297, 2.93397370753233244223e-01) (298, 2.64020577100460340780e-01) (299, 4.22411344972793867392e-01) (300, -8.32301589715610523612e-02) (0, 7.92097167527711643054e-01) (1, 7.86463329052961124255e-01) (2, 8.97023857986962824818e-01) (3, 5.76644037443475809823e-01) (4, 4.91981693136768594155e-01) (5, 5.11230897682981799690e-01) (6, 4.43270709890203729042e-01) (7, 7.67802519208228839709e-01) (8, 8.27656844115293055530e-01) (9, 4.90659326839523568520e-01) (10, 4.87918962317781701454e-01) (11, 4.67814263480978265175e-01) (12, 5.76039022772720565868e-01) (13, 8.65887151515519648548e-01) (14, 8.07984107589757472034e-01) (15, 6.08429167944269266854e-01) (16, 6.00731660205202189218e-01) (17, 5.32072280126886454354e-01) (18, 4.21196776448896803569e-01) (19, 9.12875772869622736927e-01) (20, 7.89230526840722812487e-01) (21, 6.28921736556367960702e-01) (22, 5.28156143206434336435e-01) (23, 4.70215831476526513466e-01) (24, 5.38122332661560287548e-01) (25, 8.92002330577409296986e-01) (26, 5.78303043323831644784e-01) (27, 4.46432371217088952431e-01) (28, 6.35274101573305216561e-01) (29, 5.56529421883897867929e-01) (30, 4.12903754978588499736e-01) (31, 5.13558906096296508004e-01) (32, 6.29180405813531962167e-01) (33, 4.55212872999983086952e-01) (34, 3.93856837420872130107e-01) (35, 4.83913604694681420693e-01) (36, 4.70097674994877146037e-01) (37, 4.58976675349550500282e-01) (38, 5.37903767603712168466e-01) (39, 4.43039771694021478066e-01) (40, 5.12387518364267657844e-01) (41, 5.88574249821977701913e-01) (42, 4.14507924585750975321e-01) (43, 7.86839531219041599108e-01) (44, 5.40649038332777109872e-01) (45, 5.67777295190172281991e-01) (46, 7.58020204907691730334e-01) (47, 7.80696058130300296618e-01) (48, 4.03503476648739256571e-01) (49, 8.01066116845643549915e-01) (50, 5.03195625323133777229e-01) (51, 5.38019259053545084726e-01) (52, 2.94293043669343523661e+00) (53, 1.44585619037791790475e+00) (54, 3.91279199126808885367e+00) (55, 6.15068282518014175508e+00) (56, 6.24682913679107887361e+00) (57, 5.12041155773477862923e-01) (58, 2.91208579298139147440e+00) (59, 1.42207177644416393747e+00) (60, 6.30585795599445564363e+00) (61, 1.85516462626042333284e+01) (62, 1.26888450602804869760e+01) (63, 6.23254005390482035409e-01) (64, 2.96480305399776034037e+00) (65, 1.31408815001889789364e+00) (66, 9.43968126506791094243e+00) (67, 1.86615574510874715486e+01) (68, 1.85156259613218274751e+01) (69, 8.47138272082841425892e-01) (70, 6.31032206076606971834e+00) (71, 6.23373831767067176912e+00) (72, 6.19643603968843681429e+00) (73, 6.14667911041006309603e+00) (74, 6.30676549631580574129e+00) (75, 9.01864574706590205189e-01) (76, 6.27720792550071937654e+00) (77, 6.15097334566935760591e+00) (78, 2.91893937345624499002e+00) (79, 6.30256052273735267732e+00) (80, 2.01847520036506500318e+00) (81, 1.00489656892782486253e+00) (82, 6.20333129871114952181e+00) (83, 6.11715411353334648226e+00) (84, 5.14986355382280547310e-01) (85, 7.39097417748010410143e-01) (86, 4.22419103800466932963e-01) (87, 1.30178403770371997616e+00) (88, 9.50708836646065691411e+00) (89, 9.49936122031197527349e+00) (90, 5.24003899662903060985e-01) (91, 4.72302212386539743694e-01) (92, 5.53336701362541427685e-01) (93, 1.44423521226092876901e+00) (94, 6.19194121617302162264e+00) (95, 6.18776980746015770052e+00) (96, 5.58471432893684616161e-01) (97, 4.90978374152591989787e-01) (98, 3.20338665033631120327e-01) (99, 4.64383993822412743935e-01) (100, 6.15793777960762245272e+00) (101, 6.17905393201336128328e+00) (102, 5.27240342467239608837e-01) (103, 5.08955991833618615061e-01) (104, 1.42340564066223362882e-01) (105, 5.81319097954111185800e-01) (106, 6.23064169246181709383e+00) (107, 2.70983129763722674355e+00) (108, 5.61410478322914352489e-01) (109, 5.51944158046653976513e-01) (110, 3.09970880384497438076e-01) (111, 4.87853235571792887004e-01) (112, 6.20646070647463066194e+00) (113, 6.32939967630303024215e-01) (114, 3.66678921963028703335e-01) (115, 5.50565100281646957470e-01) (116, 2.15372332269005040128e-01) (117, 1.99516587787918309171e-01) (118, 5.75898421574624452823e-01) (119, -3.80859561867026163995e+00) (120, 9.18671795070688523843e-02) (121, 5.09200743406227562815e-01) (122, 2.09601410561851719816e-01) (123, -7.08220401708846480915e-01) (124, 1.26459919744781712492e-01) (125, -1.40932589034406507977e+01) (126, 1.43038452500156620939e-01) (127, 3.18211047436051164272e-01) (128, 2.02585765057853917082e-01) (129, -5.63503088359599724200e-01) (130, -6.41357416217094078448e-01) (131, -1.86602480711522069612e+01) (132, 7.90398985982458390787e-02) (133, 2.94436024959139619472e-01) (134, 1.79544308120064000089e-01) (135, -8.22069193665748709776e-01) (136, -2.68053356967795952670e+00) (137, -1.86105856189610925355e+01) (138, 4.87921320736925540063e-02) (139, 2.10335680180839756925e-01) (140, -7.03078487818007857868e-01) (141, -2.80045342855084999911e+00) (142, -3.44237044100094147225e+00) (143, -1.85421159865441289583e+01) (144, 5.70672460735361375406e-02) (145, 2.35110157066635405698e-01) (146, -6.35987909440761223223e-01) (147, -2.67534631155360802524e+00) (148, -4.38439401823487795440e+00) (149, -1.85845049100103345552e+01) (150, 1.07537166112713147847e-01) (151, 4.61414464653055605980e-02) (152, -7.19741182331805617878e-01) (153, -2.83064730875123604648e+00) (154, -5.29158494879087282214e+00) (155, -1.85671713428678479829e+01) (156, -6.48729043011432304766e-01) (157, 1.75880440408043126066e-01) (158, -5.66853241925006523516e-01) (159, -3.28086670373345334895e+00) (160, -3.22234608118201215632e+00) (161, -1.86068273523929086366e+01) (162, 9.75168467402975913672e-02) (163, 1.86338179642013768156e-01) (164, -6.30284273926978722002e-01) (165, -7.66388516371017569639e-01) (166, -8.75907260422474021055e-01) (167, -1.85770982952895131746e+01) (168, -6.80163090978627593586e-01) (169, 1.35982074672035435636e-01) (170, -9.01225022469526404478e-01) (171, -6.48144403402572288897e-01) (172, -5.72311358456378593829e-01) (173, -1.85270770492138829866e+01) (174, 5.38240455925981797769e-02) (175, 2.19853051835350254972e-01) (176, -5.98429279331927910235e-01) (177, -6.22340107266669884112e-01) (178, -5.63333244924312248614e-01) (179, -1.85778688566865888276e+01) (180, 2.37239428693107878843e-01) (181, 4.17275725870541014384e-01) (182, -6.38189794425731315997e-01) (183, -7.22678000037436873981e-01) (184, 1.16087184184841443746e-01) (185, -3.19989500080014188654e+00) (186, 1.54235080713085392912e-01) (187, 5.40429941385200729442e-01) (188, -6.69643619959121139118e-01) (189, 1.22479000026039411275e-01) (190, 5.12329646289865769937e-02) (191, -3.15689252947236020930e+00) (192, 1.84462674790672520597e-01) (193, 4.46548215120247282695e-01) (194, -6.16183401946788444903e-01) (195, 8.92755583763639726236e-02) (196, 1.05282255345634748189e-01) (197, -1.14958137357354139851e+00) (198, 1.80988290244392613371e-01) (199, 4.98190968304088988017e-01) (200, -6.33187631075149193194e-01) (201, 4.28604566395800051781e-02) (202, 4.71690975964586672875e-02) (203, -8.62989693285225900610e-01) (204, 1.84594430857948521574e-01) (205, 4.57889158803301110634e-01) (206, -6.90724989329343230793e-01) (207, 1.21262327665142347066e-01) (208, 1.73573979073814610441e-01) (209, -7.18961069290404708454e-01) (210, 2.12204494410804966886e-01) (211, 5.67709405499773112069e-01) (212, 9.54371922553103324560e-02) (213, 1.09111861223034192769e-01) (214, 3.94486895288281236294e-01) (215, 1.71348147922806004484e-01) (216, 2.38861211472801482358e-01) (217, 4.94187430071907296547e-01) (218, 1.33627221816829899748e-01) (219, 3.15745322490982804897e-01) (220, 5.17392582266739120556e-01) (221, 1.44683943027309636076e-01) (222, 4.15041229694298186015e-01) (223, 7.97340483820474399401e-01) (224, 2.13081293636612156828e-01) (225, 5.33955014317444076610e-01) (226, 5.10778329341820103160e-01) (227, 7.81873063087980546548e-02) (228, 2.02084072762779454191e-01) (229, 4.51590373187473692607e-01) (230, 1.98227413827232579191e-01) (231, 4.41968261270931639384e-01) (232, 4.54274593859127440165e-01) (233, 5.43194911449363937450e-01) (234, 1.68688991004280308683e-01) (235, 3.98692785768917479228e-01) (236, 2.25860946708969334562e-01) (237, 5.51035798161438217235e-01) (238, 4.79778870015552805217e-01) (239, 4.97233315377643980693e-01) (240, 4.40627834285549913051e-01) (241, 4.51807125478199400614e-01) (242, 8.97195980787794389322e-02) (243, 4.22432865022829451274e-01) (244, 5.20742750733307113720e-01) (245, 5.70574334829262008739e-01) (246, 5.53604773252418747020e-01) (247, 8.55089218771493464466e-01) (248, 3.00969200666003022793e-01) (249, 5.06153364259081195442e-01) (250, 4.42663867551164880165e-01) (251, 5.66754973500183334423e-01) (252, 5.51563463180473556591e-01) (253, 7.56118094033038867785e-01) (254, 3.23739042962841783169e-01) (255, 5.83566133457498636972e-01) (256, 6.35358352738695231210e-01) (257, 4.42008179205732598671e-01) (258, 5.62479591935089340282e-01) (259, 8.73830066478288203236e-01) (260, 3.29805998588852677944e-01) (261, 5.79628352600412455331e-01) (262, 4.61083587783651605019e-01) (263, 5.91571394878702250253e-01) (264, 4.85574773519447611125e-01) (265, 8.66160200393235713001e-01) (266, 4.26471626843266282680e-01) (267, 5.30357096868829813729e-01) (268, 5.62481273490266886483e-01) (269, 5.13741318661050994088e-01) (270, 3.90341914265564360331e-01) (271, 8.28066164112126856800e-01) (272, 5.28299949138572921825e-01) (273, 4.98982895690279260048e-01) (274, 5.95784295874910441171e-01) (275, 5.29989440518694010507e-01) (276, 4.32308743714502730082e-01) (277, 8.47802059209382563587e-01) (278, 4.12168680696895994853e-01) (279, 5.40768761712389078866e-01) (280, 4.40143060463743462929e-01) (281, 4.76681680011825814614e-01) (282, 4.70275259583404825481e-01) (283, 8.90119524157083064075e-01) (284, 4.59889805882385649394e-01) (285, 6.01505104976968851815e-01) (286, 5.59873294609861460458e-01) (287, 5.17097283679323393990e-01) (288, 5.47167188494613876415e-01) (289, 8.20765854275262385364e-01) (290, 4.18017379014900603007e-01) (291, 4.84464005160408273110e-01) (292, 4.86581866222696557411e-01) (293, 5.00950087386446307747e-01) (294, 4.38786920684652581581e-01) (295, 8.70569632804429560657e-01) (296, 3.94200316636970915507e-01) (297, 6.13651756721811381112e-01) (298, 4.87114374119119897255e-01) (299, 5.78530718165712443124e-01) (300, -2.06954996754197345643e-01) (0, 3.06241884854976942343e-01) (1, 1.25726000720725994420e+00) (2, 1.20476913953290920567e+00) (3, 3.67976285544578840536e-01) (4, 2.58256778148357679648e-01) (5, 3.39971065548603346151e-01) (6, 4.22134168473427107138e-01) (7, 1.34978551918731670689e+00) (8, 1.33152790123687725377e+00) (9, 3.25654439655487348837e-01) (10, 3.95141057697479480826e-01) (11, 4.13422070470993274771e-01) (12, 3.44338800467196948230e-01) (13, 1.32898725325332622837e+00) (14, 1.25270001346336345982e+00) (15, 3.82035456625168079459e-01) (16, 2.94073019204084684652e-01) (17, 3.75009797540848011099e-01) (18, 2.77611750818435198962e-01) (19, 4.01026524630729908072e-01) (20, 4.14876289693062061392e-01) (21, 3.98267291513626331412e-01) (22, 2.50359907773678114218e-01) (23, 2.78577893999759962362e-01) (24, 3.26365705288592822253e-01) (25, 4.07117195454780811392e-01) (26, 2.21187323040906436145e-01) (27, 3.02768971480075366198e-01) (28, 1.83543067134562976062e-01) (29, 3.62469549931231982409e-01) (30, 3.55665053881351000964e-01) (31, 2.45599996007625109851e-01) (32, 2.18005574948731906115e-01) (33, 3.58710210479442126452e-01) (34, 3.69391347922030932605e-01) (35, 2.32077408291045672595e-01) (36, 2.54496324516479022204e-01) (37, 3.47340549982730395495e-01) (38, 1.80138941563312060534e-01) (39, 1.84300239838305957019e-01) (40, 2.28810041851941592395e-01) (41, 3.31095050729457385241e-01) (42, 3.53537346876803881823e-01) (43, 2.75843925801460554403e-01) (44, 2.58358325518313891589e-01) (45, 2.77953401235287000937e-01) (46, 1.37123344594703655552e+00) (47, 1.33922543877826671910e+00) (48, 3.35338230885211474597e-01) (49, 3.20561245111172010702e-01) (50, 2.65087973035518176257e-01) (51, 3.06029569066707141101e-01) (52, 2.91683625854164008118e+00) (53, 1.30224197859035473179e+00) (54, 3.05605520732313040710e+00) (55, 3.07245701975732687927e+00) (56, 2.94982787645965460754e+00) (57, 1.90864894248191363513e-01) (58, 3.00448104418426398254e+00) (59, 1.27797234559522610020e+00) (60, 2.89822220481544379211e+00) (61, 7.57002779784543022856e+00) (62, 7.61810769828898415312e+00) (63, 2.29850135452691561877e-01) (64, 2.97736642188936118103e+00) (65, 1.35147380584941845250e+00) (66, 5.17521423164050364818e+00) (67, 7.64174445661646828398e+00) (68, 7.59334973188979134306e+00) (69, 3.74016620246116926474e-01) (70, 3.07467310554891470886e+00) (71, 3.07078819401174429871e+00) (72, 2.97655942715316657043e+00) (73, 3.05746552772432211853e+00) (74, 2.90244717575221899963e+00) (75, 1.37951914722190838170e+00) (76, 2.89123397744804266907e+00) (77, 3.07195665366559866882e+00) (78, 3.00167426146179083801e+00) (79, 3.05582726426034811951e+00) (80, 2.94833293981462363220e+00) (81, 1.21136363351808529210e+00) (82, 2.99111189372449759460e+00) (83, 2.97879156149536017395e+00) (84, 3.54342609671299269003e-01) (85, 3.18596772876922895712e-01) (86, 2.49238248623553759753e-01) (87, 1.37533187622295360875e+00) (88, 5.14930833938758159007e+00) (89, 5.25137328419129634227e+00) (90, 2.20601193315927035510e-01) (91, 2.77121279097739703356e-01) (92, 1.71730761004748544440e-01) (93, 2.45144635466282179159e-01) (94, 3.05185918934255484558e+00) (95, 3.07698665983587149597e+00) (96, 3.21454461373034960925e-01) (97, 2.56664160348121173083e-01) (98, -3.32210694251843744601e-03) (99, 2.47799906588737017810e-01) (100, 2.90212852932124976135e+00) (101, 3.04002230293661002136e+00) (102, 2.32210464484635836779e-01) (103, 2.76677611924354083239e-01) (104, -4.39387533515531863992e-02) (105, 2.48279992200080401599e-01) (106, 2.97010548837095145203e+00) (107, 3.01596653885751608826e+00) (108, 2.33859006024543292224e-01) (109, 3.69769420183841235339e-01) (110, 1.71149049474063119636e-01) (111, 2.95814301527682788073e-01) (112, 2.89504176802545432068e+00) (113, -1.46268289582230981427e-01) (114, 8.95938245189811799385e-02) (115, 2.89566728926841265856e-01) (116, -1.43363522893008826786e-01) (117, -3.96355238803082376986e-01) (118, 2.63174619234744555651e-01) (119, -7.93344661628354042016e-01) (120, -7.60979700535376196724e-02) (121, 3.13030879653636462390e-01) (122, -1.69582757334092754098e-01) (123, -8.37402909496134939538e-01) (124, -2.36849994799305546556e-01) (125, -1.60661515032870316766e+00) (126, 6.10314674595936745849e-02) (127, 1.66065674794974527106e-01) (128, -1.18181984106877954743e-01) (129, -8.81444692113703909264e-01) (130, -8.58586355545825186120e-01) (131, -7.40075989576918580326e+00) (132, -1.99746720572367454649e-02) (133, -1.36195664450510206533e-01) (134, -1.96498423050025600167e-01) (135, -2.42450263186112691116e+00) (136, -6.79585765698260457768e-01) (137, -7.41109937938792207035e+00) (138, 3.43467809180363625732e-02) (139, 4.45346798004320719444e-03) (140, -3.09891777103420307249e-01) (141, -7.34440043219632077154e-01) (142, -8.05082663791881314452e-01) (143, -7.40341076764208771976e+00) (144, -4.33402651049548059969e-01) (145, -6.09368161162288438093e-03) (146, -9.67181179174489202843e-01) (147, -6.52482669451540875372e-01) (148, -1.06808732850745169429e+00) (149, -7.39215928825480439457e+00) (150, -3.82501688845806986361e-01) (151, -2.75868230899979194337e-01) (152, -9.32465560236281576501e-01) (153, -7.74174298588997000792e-01) (154, -1.89042350007251536148e+00) (155, -7.50662773239356972965e+00) (156, -4.58834697552376657992e-01) (157, -3.00872081360031684572e-01) (158, -8.95264788964099111901e-01) (159, -9.91694436312913651932e-01) (160, -1.12830976480364775227e+00) (161, -7.44166246565920808109e+00) (162, -3.82096839197331339388e-01) (163, -2.50923858424831947023e-01) (164, -8.91779034831828298913e-01) (165, -2.70502133332122429721e+00) (166, -2.71173265241016014926e+00) (167, -7.49917613106710412296e+00) (168, -9.31279509761637869225e-01) (169, -2.68276953539063056642e-01) (170, -2.43007872833625127029e+00) (171, -1.16985086286521533516e+00) (172, -8.62621396282023611413e-01) (173, -7.42785721781594254765e+00) (174, -3.15491993971520334750e-01) (175, -2.50402227200479110536e-01) (176, -9.94771979251212301598e-01) (177, -9.90341338762349310265e-01) (178, -8.66578399637049856530e-01) (179, -7.50052572178585030827e+00) (180, -1.85995490690876591477e-01) (181, -1.18422423888742620046e-02) (182, -8.78890543678111257897e-01) (183, -9.38365444042987051354e-01) (184, -4.30560720213108927279e-01) (185, -1.53207319821840592944e+00) (186, -1.44698932923287920671e-01) (187, 2.66013223386947161853e-01) (188, -3.65981434531861216097e-01) (189, -4.26392589755707651644e-01) (190, -4.33072925605231195956e-01) (191, -3.17591863010788877375e+00) (192, -1.05025440610856571344e-01) (193, 3.40238880075160510241e-01) (194, -9.46698985495871725426e-01) (195, -3.83233343311005503207e-01) (196, -3.60425834603958994418e-01) (197, -3.29104610790277440913e+00) (198, -1.19379863299340763239e-01) (199, 2.00967918790523059069e-01) (200, -8.79179566600627127038e-01) (201, -3.14452295251542002230e-01) (202, -3.16626296779324134523e-01) (203, -1.27829309994101492087e+00) (204, -7.16446909755308752876e-02) (205, 2.11054105020705706774e-01) (206, -8.86300205686396780358e-01) (207, -3.60480730481797129183e-01) (208, -1.96742199517697863298e-01) (209, -1.09678286993957141426e+00) (210, 9.65835417808703043663e-03) (211, 2.44409363425914294421e-01) (212, -3.13169260569268137484e-01) (213, -3.96357152312834110086e-02) (214, -3.77584730087109857882e-03) (215, -4.51398135222845942049e-01) (216, 7.49117399753740885460e-03) (217, 2.67247963405791766345e-01) (218, -1.12473468462804468415e-01) (219, 1.74623419119181833015e-01) (220, 2.34552819801631173835e-01) (221, -5.32145455282723167656e-02) (222, 1.28349151982131204353e-01) (223, 3.77908311811630481802e-01) (224, 4.31837655524357766357e-02) (225, 3.09881057299319750964e-01) (226, 2.13566794700566775500e-01) (227, -7.18104216903288489204e-02) (228, 9.06305278839281656944e-03) (229, 3.70493437803927905261e-01) (230, -3.65247984476738840609e-01) (231, 2.98896219290439135730e-01) (232, 3.48373006738368518054e-01) (233, 3.61298124946300036608e-01) (234, -1.23128046438081936720e-01) (235, 2.45399620093051440417e-01) (236, -4.61469498522931009798e-01) (237, 3.59584476507846362292e-01) (238, 1.77250723994914538562e-01) (239, 2.81171600974742419421e-01) (240, 1.67264391256633004890e-01) (241, 3.55580385483447558581e-01) (242, -3.08240761109047800570e-01) (243, 2.45061393536273486315e-01) (244, 2.84615989483539111315e-01) (245, 3.19731484807673937976e-01) (246, 1.87360693289103708015e-01) (247, 3.34218472269718458456e-01) (248, -1.23181739047153668287e-01) (249, 2.22197107679788119494e-01) (250, 3.63291348971072680651e-01) (251, 1.78676794923488146960e-01) (252, 2.17658038891498095690e-01) (253, 2.92969997999613096518e-01) (254, 2.13765729738536081062e-01) (255, 1.82612914301101214587e-01) (256, 3.58666103042308337390e-01) (257, 3.55222012556735522448e-01) (258, 2.79473799921218402087e-01) (259, 4.09840486971084827506e-01) (260, 2.56336097194018563972e-01) (261, 2.06557664729300982653e-01) (262, 2.64551739848796374499e-01) (263, 3.32598577893916613757e-01) (264, 1.97110850073043353259e-01) (265, 3.83535020080749744498e-01) (266, 1.08618837369742593513e-01) (267, 2.27973203815166003405e-01) (268, 2.98934530175868518054e-01) (269, 2.13759034581128604113e-01) (270, 3.38399868167582995593e-01) (271, 2.67528407303039839071e-01) (272, 1.98594484187308795153e-01) (273, 3.95930968252365345084e-01) (274, 3.41844856766407301230e-01) (275, 3.12465529597941882312e-01) (276, 2.71477494097892291247e-01) (277, 1.21463405096994381260e+00) (278, 2.02499050356093890368e-01) (279, 3.90407077995483631216e-01) (280, 3.08547198799793531698e-01) (281, 2.68485486534778883261e-01) (282, 3.24898924387637622058e-01) (283, 3.55460301068966200155e-01) (284, 2.43830520368758685290e-01) (285, 3.39994139996712019247e-01) (286, 3.67328278747741987509e-01) (287, 3.05191703168098737997e-01) (288, 2.51031193591300494372e-01) (289, 2.76057139066402723593e-01) (290, 1.97407219268027789294e-01) (291, 3.08696776655857374472e-01) (292, 3.11869859722797682089e-01) (293, 3.64654041854088117880e-01) (294, 1.97110388137046343981e-01) (295, 3.38235773173515608114e-01) (296, 2.30564087338391787707e-01) (297, 3.07058714357559492392e-01) (298, 3.95464040366356128775e-01) (299, 4.32193703976814558310e-01) (300, -2.91129081131321493237e-03) (0, 3.91449720304309523033e-01) (1, -9.74469545352588950582e-02) (2, 2.49382567536701599265e-02) (3, 3.43195729594527876305e-01) (4, 3.81527811925708448815e-01) (5, 3.47973690073787367272e-01) (6, 4.43928279619514143395e-01) (7, 1.31230366361011832610e-02) (8, -1.58703951717716756908e-03) (9, 3.90150406103431379723e-01) (10, 4.58800145130454695153e-01) (11, 4.04028349261581098961e-01) (12, 3.44304398339091932701e-01) (13, -1.12393635380397469148e-02) (14, 1.12907821227845608925e-01) (15, 4.40113582353889143395e-01) (16, 2.93218814473449385094e-01) (17, 3.38120677213966047692e-01) (18, 3.20399840067922270226e-01) (19, 2.42964907610950908712e-01) (20, 2.82656866187391719869e-01) (21, 3.84911657016574537682e-01) (22, 3.92775908749400770592e-01) (23, 2.85252050202190077233e-01) (24, 4.11277123432456648278e-01) (25, 2.04700636739073293935e-01) (26, 3.45071197192966139244e-01) (27, 2.74150878827869093346e-01) (28, 4.38105829696952497887e-01) (29, 3.33079949658214247155e-01) (30, 3.80038738887607252526e-01) (31, 2.74913745993910274557e-01) (32, 3.44432145994006788658e-01) (33, 3.13776147257386839318e-01) (34, 4.27719869356452619957e-01) (35, 4.53444265466033613610e-01) (36, 3.89234141152202284264e-01) (37, 3.17006374770937404683e-01) (38, 3.75366464894115126061e-01) (39, 2.96446256976424848961e-01) (40, 3.16767186563312208580e-01) (41, 3.61650907140075361657e-01) (42, 4.27958913784324324059e-01) (43, 3.06429791325865230611e-01) (44, 4.59210701923667585778e-01) (45, 4.32557143907844221520e-01) (46, -2.51610639560352275512e-02) (47, -1.01401029812110549111e-01) (48, 2.98162125687896406578e-01) (49, 3.21911837035952053121e-01) (50, 3.32489122342168486046e-01) (51, 3.90429393093883192467e-01) (52, -6.48809547591338992012e-02) (53, 7.14344841372837185967e-02) (54, 2.18509000670780509368e-02) (55, -2.20662789065790176934e+00) (56, -2.19476284105730057306e+00) (57, 2.75721260052024519371e-01) (58, 7.55156588685382962334e-02) (59, 5.13356638085712829733e-02) (60, -4.42904713751873391203e+00) (61, -7.45516641202313401493e+00) (62, -7.50234531375510194096e+00) (63, 4.08201970796882307457e-01) (64, 2.42991459500660339499e-02) (65, 9.10639774930347561943e-02) (66, -7.43038941684109666141e+00) (67, -7.49718751150114037785e+00) (68, -7.42052436384303071293e+00) (69, 2.09855216616926715245e-01) (70, -8.81130763644651704425e-01) (71, -7.84146682674364381427e-01) (72, -2.28070669640254974908e+00) (73, -4.46362641455730813078e+00) (74, -4.40604535492262261442e+00) (75, -1.35033193099628121003e-02) (76, -4.30358497800430672697e+00) (77, -4.32240727545818703703e+00) (78, -6.10519080044132772533e-03) (79, -9.39999678487257295245e-01) (80, -6.86723618389469686596e-03) (81, 5.38682353627552429343e-02) (82, -4.36002483965954201750e+00) (83, -4.34696683289608376555e+00) (84, 4.15416740517913496422e-01) (85, 2.45495890845208286635e-01) (86, 4.01045449714957868981e-01) (87, 2.86465746295322815085e-02) (88, -7.48035653444869019779e+00) (89, -4.37997239085039513640e+00) (90, 3.70096237104236280846e-01) (91, 4.02933262925445234703e-01) (92, 2.77198106687366163658e-01) (93, 1.15520352917897653477e-01) (94, -4.42671311648687737517e+00) (95, -4.35503622891506569914e+00) (96, 4.14618336301147139000e-01) (97, 4.55234371762572920250e-01) (98, 4.94316087709325779898e-01) (99, 2.50636269916443943373e-01) (100, -4.49063265325626748137e+00) (101, -4.43147214504084008269e+00) (102, 3.11829642098247206139e-01) (103, 3.83300819139777815270e-01) (104, 3.97253939555544000051e-01) (105, 3.08139269818215488783e-01) (106, -4.48673598470291512541e+00) (107, -2.90318268406520793579e-02) (108, 3.69010925929843580651e-01) (109, 3.81290630142985975670e-01) (110, 3.67161438505946791100e-01) (111, 3.80480875839142917982e-01) (112, -2.31786520053100586480e+00) (113, 5.41052746915338667044e-02) (114, 4.16792967062293684410e-01) (115, 2.86859058480559980797e-01) (116, 3.97598625765699487111e-01) (117, 3.67284038738765250542e-01) (118, 3.33842819203286289564e-01) (119, 2.21903684835015102550e+00) (120, 4.58167277913390791344e-01) (121, 3.21885321926175749230e-01) (122, 3.60461027067004835533e-01) (123, 1.04170983107486536667e+00) (124, 4.64124821763335859703e-01) (125, 6.84453897286449475246e+00) (126, 4.00630422573386824059e-01) (127, 4.06227462630569136071e-01) (128, 4.31244866625823508599e-01) (129, 9.67088027016313578343e-01) (130, 8.53670133368166106358e-01) (131, 7.60595642718417153105e+00) (132, 4.49572705369292890953e-01) (133, 3.14123947810231840538e-01) (134, 5.43682116008848526079e-01) (135, 4.65377163197949705875e+00) (136, 4.75387307312444029606e+00) (137, 7.52282252478343949065e+00) (138, 4.19875391464530622887e-01) (139, 3.36704724173843061852e-01) (140, 1.23778863281696049903e+00) (141, 4.62818470653250990665e+00) (142, 2.05012161693105809945e+00) (143, 7.50303978416068062529e+00) (144, 5.63388141728491387283e-01) (145, 2.79409148435889875817e-01) (146, 1.97295349109354511974e+00) (147, 1.84289794448199728549e+00) (148, 2.44614037601476175254e+00) (149, 7.46917223873478874907e+00) (150, 7.67672965076915070348e-01) (151, 3.37867752354442274498e-01) (152, 1.97411222028913990734e+00) (153, 1.68837104770722867819e+00) (154, 2.55693748180579616402e+00) (155, 7.51015100198728546843e+00) (156, 8.09667454806319519811e-01) (157, 4.90519361244100560171e-01) (158, 2.09943310561957874327e+00) (159, 1.97177595439400543675e+00) (160, 1.97467548194374908910e+00) (161, 7.64615706297499642119e+00) (162, 6.85387456563464669834e-01) (163, 3.83288586185831170461e-01) (164, 1.94333567115846173046e+00) (165, 4.67148214634612379825e+00) (166, 4.73034162130311308658e+00) (167, 7.65545912775141701445e+00) (168, 1.21431657702415196631e+00) (169, 3.98240649746317010305e-01) (170, 4.63882314097240744388e+00) (171, 2.02828894201102771788e+00) (172, 2.05610212329211750060e+00) (173, 7.58226434084517464385e+00) (174, 6.65074437201502832728e-01) (175, 2.75486492257415449547e-01) (176, 2.04472813400807895690e+00) (177, 2.11470332387271442443e+00) (178, 1.23648957938640324805e+00) (179, 7.46885826381785378203e+00) (180, 4.66812350492774641442e-01) (181, 3.53660941760837232994e-01) (182, 1.14040149033754079078e+00) (183, 1.11902970106094090674e+00) (184, 7.36763538566581055456e-01) (185, 1.99805459174361077501e+00) (186, 3.61496672671138441491e-01) (187, 3.19302991669475233483e-01) (188, 6.00637706853003106033e-01) (189, 7.15661311295977875524e-01) (190, 4.50119347916502043905e-01) (191, 5.05459606178990128456e+00) (192, 3.17507949363290464806e-01) (193, 3.61020078529267429701e-01) (194, 5.76720687485785088455e-01) (195, 3.72471892879861932180e-01) (196, 3.70987826631921868703e-01) (197, 5.07532841988793137489e+00) (198, 3.26723840724527037072e-01) (199, 1.87444096077828525893e-01) (200, 9.69836084262521769261e-01) (201, 4.13570621655840020559e-01) (202, 4.17823278950113397023e-01) (203, 2.16715027171220686597e+00) (204, 2.94627778868972456383e-01) (205, 2.34908235837369083754e-01) (206, 9.06334387228878157750e-01) (207, 4.50984196411031768026e-01) (208, 3.51701797591108422658e-01) (209, 1.94082732144179836986e+00) (210, 4.18635287027656233239e-01) (211, 2.21333594639449265928e-01) (212, 5.93342783785910210526e-01) (213, 2.85841324072181379723e-01) (214, 3.57629821341334974694e-01) (215, 8.36161495891562744909e-01) (216, 4.08733435612022077965e-01) (217, 3.56148829330353855482e-01) (218, 3.27603952662505637505e-01) (219, 3.15426294397412931847e-01) (220, 3.12450268011390364098e-01) (221, 4.49043386321365034508e-01) (222, 3.21632147472201979088e-01) (223, 5.82076929986357211044e-02) (224, 4.28009726743995344567e-01) (225, 4.04408001046477949547e-01) (226, 4.23195832114516889977e-01) (227, 2.92278975885211622643e-01) (228, 4.31346201043426191735e-01) (229, 2.77403981130420362877e-01) (230, 2.97669344287215864586e-01) (231, 3.49806473295985853600e-01) (232, 3.84256005924045240807e-01) (233, 4.08774041276275312828e-01) (234, 4.01794233064948713707e-01) (235, 4.06368099789916670250e-01) (236, 4.61628549437820112633e-01) (237, 4.56752800088225996422e-01) (238, 3.50633696358501112389e-01) (239, 3.06611754637061750817e-01) (240, 2.75005497675239241051e-01) (241, 2.96753287952243482994e-01) (242, 3.45891625325977003502e-01) (243, 3.74403447549640333580e-01) (244, 3.10078919570743238854e-01) (245, 4.31005754213630354332e-01) (246, 3.60743083696662580895e-01) (247, 1.47061819630849299756e-01) (248, 3.14638888110070347182e-01) (249, 3.93870026510059034752e-01) (250, 2.89207257967292463707e-01) (251, 4.45035435896217024254e-01) (252, 3.70397709946929609703e-01) (253, -4.29911377895007967842e-02) (254, 2.39500300605445026747e-01) (255, 3.25891748707591688561e-01) (256, 4.70216014128028547692e-01) (257, 2.80642413239776289391e-01) (258, 3.45655024688541090416e-01) (259, 1.29811698991048274365e-01) (260, 2.85530694465934431481e-01) (261, 3.70808676522075331139e-01) (262, 3.06337297599612867760e-01) (263, 3.97271015386878645348e-01) (264, 3.07067022364436781334e-01) (265, 3.45153873433022617689e-01) (266, 3.31123416017591154503e-01) (267, 2.96179876368343031334e-01) (268, 4.19852950315772688317e-01) (269, 4.09241416197120344567e-01) (270, 3.30275938551723158287e-01) (271, 1.23107919889676523106e-01) (272, 4.33479004245101606774e-01) (273, 4.03651871424018537926e-01) (274, 3.24230507653056776451e-01) (275, 4.71042238812743818688e-01) (276, 3.62141937654315626549e-01) (277, 3.11430555713047424460e-02) (278, 3.54361211527733921400e-01) (279, 2.94727110009490644860e-01) (280, 3.33812226246892607140e-01) (281, 4.61514749269782698082e-01) (282, 4.67246853452026045250e-01) (283, 1.32459411817777095166e-01) (284, 3.27322766821681654381e-01) (285, 3.24693438302575743126e-01) (286, 2.85070300739108717369e-01) (287, 3.25023089241086637902e-01) (288, 3.32820155363380110192e-01) (289, 3.58209632973968183922e-01) (290, 2.81553917270003950524e-01) (291, 3.45835157375632917809e-01) (292, 4.56502624492942488121e-01) (293, 3.15375526141225492882e-01) (294, 4.70590480308829939293e-01) (295, 2.91053943972884809899e-01) (296, 2.78475672643481886315e-01) (297, 3.29198197167216932701e-01) (298, 3.14718120436965620446e-01) (299, 4.25812923054992353844e-01) (300, 3.37585772930222779986e-02) (0, 9.12409440219320244658e-01) (1, 1.08577219581359796230e+00) (2, 1.13701945727819375698e+00) (3, 5.09445008306821933708e-01) (4, 6.33185256688913344902e-01) (5, 6.31244231431802749199e-01) (6, 5.99071246056875228447e-01) (7, 1.07742922192567758266e+00) (8, 1.10785347407812051479e+00) (9, 6.21282671063264846367e-01) (10, 6.34424005120119094414e-01) (11, 5.92550781040510177178e-01) (12, 5.56916213492805622920e-01) (13, 9.27703157603658623565e-01) (14, 9.81458463311113304961e-01) (15, 6.68191571204980849785e-01) (16, 6.06157157986482619805e-01) (17, 4.99865252940973392448e-01) (18, 4.69398419271166100764e-01) (19, 8.25951703429140260404e-01) (20, 8.43004085659898927396e-01) (21, 6.01815503506978988213e-01) (22, 6.75838027565797805352e-01) (23, 5.51763307719549289665e-01) (24, 5.40792665342743172907e-01) (25, 4.94376268654188266716e-01) (26, 5.57723287909349552116e-01) (27, 5.97475177506858967647e-01) (28, 4.77481077323610558771e-01) (29, 4.51922899941856637263e-01) (30, 5.35596323170885235676e-01) (31, 6.36541355817636489434e-01) (32, 6.14144806235155105156e-01) (33, 5.45254937271530404352e-01) (34, 6.08542597751075886592e-01) (35, 5.09886293570453785762e-01) (36, 4.42865935125574372577e-01) (37, 5.88365298180898665947e-01) (38, 6.63765225975831985039e-01) (39, 4.23358573476726784968e-01) (40, 5.31301796852668872795e-01) (41, 5.60745454291755818232e-01) (42, 4.82276131370291016864e-01) (43, 6.68969471423944472832e-01) (44, 5.35099454640468708000e-01) (45, 5.65672520964464187188e-01) (46, 1.16311663573736123745e+00) (47, 1.16721220499032907192e+00) (48, 4.72806920268758923420e-01) (49, 8.43065351784147432035e-01) (50, 6.76415402858575820488e-01) (51, 6.17748935191949843926e-01) (52, 1.67981192982660298973e+00) (53, 1.72128509498106008202e+00) (54, 2.14157495810617781729e+00) (55, 7.55093870717573611984e+00) (56, 7.48689784515190570602e+00) (57, 5.70543203919252395195e-01) (58, 1.57958268514739064159e+00) (59, 1.59554773337112454357e+00) (60, 1.28043356607472151865e+01) (61, 1.27049578050886839975e+01) (62, 1.27074832017337531198e+01) (63, 5.39016206233820072136e-01) (64, 3.58363762817054931631e+00) (65, 1.54303698009716061534e+00) (66, 1.28307720715915412057e+01) (67, 1.84992154168071714082e+01) (68, 1.85961431564869847932e+01) (69, 9.49173637270845360625e-01) (70, 7.50982106882620303878e+00) (71, 7.65559441256809680709e+00) (72, 7.55353042143869846115e+00) (73, 1.28322933460389823068e+01) (74, 7.64621770787525623092e+00) (75, 1.11762498503679208461e+00) (76, 7.51546208966064899215e+00) (77, 7.62668642807293384323e+00) (78, 3.55167906305462066641e+00) (79, 7.62430754709530322799e+00) (80, 3.61413605830341522207e+00) (81, 1.10025850867980889980e+00) (82, 1.27678679297482222665e+01) (83, 1.28155505503331870187e+01) (84, 5.32420231859142445430e-01) (85, 9.13670346677221245635e-01) (86, 4.30966882864887490534e-01) (87, 1.65048689163194661766e+00) (88, 1.28728848988925665964e+01) (89, 1.27450412879502028574e+01) (90, 6.13835162381584309443e-01) (91, 5.37540568868572488093e-01) (92, 4.55032032885774762043e-01) (93, 1.54832955962883023204e+00) (94, 1.28584263468896597971e+01) (95, 1.27220347556089610208e+01) (96, 4.03880012192949555683e-01) (97, 5.49518412808830514216e-01) (98, 4.20489546190840279838e-01) (99, 7.16513962801739623387e-01) (100, 1.27464610109841078867e+01) (101, 7.58279595184612720260e+00) (102, 5.11499893822893292317e-01) (103, 5.09181973495706707844e-01) (104, 2.38398282282363455087e-01) (105, 6.67712786551758696874e-01) (106, 7.55550422179985492477e+00) (107, 3.31085148144870666798e+00) (108, 4.33790733077749512958e-01) (109, 6.18987492184097432002e-01) (110, 4.13436186471208833026e-01) (111, 4.73941739656167870809e-01) (112, 7.59265619176912753829e+00) (113, 5.86852759292132319935e-01) (114, 5.51875394740327984699e-01) (115, 3.94482699194177888202e-01) (116, 2.17181848787080328256e-01) (117, 6.33439165330030445888e-02) (118, 6.39431482723189392736e-01) (119, -3.85134687132147623956e+00) (120, 2.82761517303847187410e-01) (121, 5.13832208671793133625e-01) (122, 1.45262670493222639800e-02) (123, -1.00233232545120132251e+00) (124, 3.61879509663678572418e-02) (125, -1.40130642625359858044e+01) (126, 6.25619930005170826748e-02) (127, 3.76356300869211457538e-01) (128, -7.62417908036611552403e-02) (129, -1.08678695874673714172e+00) (130, -9.78966678850478055907e-01) (131, -1.85417677315058675447e+01) (132, 4.30261832451917097808e-02) (133, 4.91145384469255708026e-01) (134, -6.40245410823724742100e-02) (135, -1.34697929482919653843e+00) (136, -3.83823605111745669305e+00) (137, -1.85163496436657872835e+01) (138, 3.81838202239049434583e-03) (139, 2.93542555027019147484e-01) (140, -1.00641186105472457690e+00) (141, -3.69428801394013284209e+00) (142, -4.37137800294366396514e+00) (143, -1.85992611723127332368e+01) (144, -8.82853150605188846667e-03) (145, 1.89158660149671004058e-02) (146, -1.05854109989864242358e+00) (147, -3.71730768538025735381e+00) (148, -4.38383182722535647002e+00) (149, -1.86134558359267678895e+01) (150, -9.59527816049879911375e-01) (151, -1.16242605748166930035e-01) (152, -1.15338625329000366015e+00) (153, -3.73397050655392526153e+00) (154, -5.14810133237918687854e+00) (155, -1.84911088051381078401e+01) (156, -1.07893654274207939636e+00) (157, 3.88875794386960432769e-02) (158, -9.68515138499564054442e-01) (159, -4.20635823238435957450e+00) (160, -4.29907926995102140921e+00) (161, -1.84990684839072194734e+01) (162, -1.09184670763475288879e+00) (163, -1.09972688856115205502e-01) (164, -1.06168572919828307910e+00) (165, -1.24758294682962378452e+00) (166, -1.32066364299518546055e+00) (167, -1.85262511672558751741e+01) (168, -1.06712154614192855639e+00) 