FANN_FLO_2.1
num_layers=3
learning_rate=0.700000
connection_rate=1.000000
network_type=0
learning_momentum=0.000000
training_algorithm=2
train_error_function=1
train_stop_function=0
cascade_output_change_fraction=0.010000
quickprop_decay=-0.000100
quickprop_mu=1.750000
rprop_increase_factor=1.200000
rprop_decrease_factor=0.500000
rprop_delta_min=0.000000
rprop_delta_max=50.000000
rprop_delta_zero=0.100000
cascade_output_stagnation_epochs=12
cascade_candidate_change_fraction=0.010000
cascade_candidate_stagnation_epochs=12
cascade_max_out_epochs=150
cascade_max_cand_epochs=150
cascade_num_candidate_groups=2
bit_fail_limit=3.49999999999999977796e-01
cascade_candidate_limit=1.00000000000000000000e+03
cascade_weight_multiplier=4.00000000000000022204e-01
cascade_activation_functions_count=10
cascade_activation_functions=3 5 7 8 10 11 14 15 16 17 
cascade_activation_steepnesses_count=4
cascade_activation_steepnesses=2.50000000000000000000e-01 5.00000000000000000000e-01 7.50000000000000000000e-01 1.00000000000000000000e+00 
layer_sizes=301 21 3 
scale_included=0
neurons (num_inputs, activation_function, activation_steepness)=(0, 0, 0.00000000000000000000e+00) (0, 0, 0.00000000000000000000e+00) (0, 0, 0.00000000000000000000e+00) (0, 0, 0.00000000000000000000e+00) (0, 0, 0.00000000000000000000e+00) (0, 0, 0.00000000000000000000e+00) (0, 0, 0.00000000000000000000e+00) (0, 0, 0.00000000000000000000e+00) (0, 0, 0.00000000000000000000e+00) (0, 0, 0.00000000000000000000e+00) (0, 0, 0.00000000000000000000e+00) (0, 0, 0.00000000000000000000e+00) (0, 0, 0.00000000000000000000e+00) (0, 0, 0.00000000000000000000e+00) (0, 0, 0.00000000000000000000e+00) (0, 0, 0.00000000000000000000e+00) (0, 0, 0.00000000000000000000e+00) (0, 0, 0.00000000000000000000e+00) (0, 0, 0.00000000000000000000e+00) (0, 0, 0.00000000000000000000e+00) (0, 0, 0.00000000000000000000e+00) (0, 0, 0.00000000000000000000e+00) (0, 0, 0.00000000000000000000e+00) (0, 0, 0.00000000000000000000e+00) (0, 0, 0.00000000000000000000e+00) (0, 0, 0.00000000000000000000e+00) (0, 0, 0.00000000000000000000e+00) (0, 0, 0.00000000000000000000e+00) (0, 0, 0.00000000000000000000e+00) (0, 0, 0.00000000000000000000e+00) (0, 0, 0.00000000000000000000e+00) (0, 0, 0.00000000000000000000e+00) (0, 0, 0.00000000000000000000e+00) (0, 0, 0.00000000000000000000e+00) (0, 0, 0.00000000000000000000e+00) (0, 0, 0.00000000000000000000e+00) (0, 0, 0.00000000000000000000e+00) (0, 0, 0.00000000000000000000e+00) (0, 0, 0.00000000000000000000e+00) (0, 0, 0.00000000000000000000e+00) (0, 0, 0.00000000000000000000e+00) (0, 0, 0.00000000000000000000e+00) (0, 0, 0.00000000000000000000e+00) (0, 0, 0.00000000000000000000e+00) (0, 0, 0.00000000000000000000e+00) (0, 0, 0.00000000000000000000e+00) (0, 0, 0.00000000000000000000e+00) (0, 0, 0.00000000000000000000e+00) (0, 0, 0.00000000000000000000e+00) (0, 0, 0.00000000000000000000e+00) (0, 0, 0.00000000000000000000e+00) (0, 0, 0.00000000000000000000e+00) (0, 0, 0.00000000000000000000e+00) (0, 0, 0.00000000000000000000e+00) (0, 0, 0.00000000000000000000e+00) (0, 0, 0.00000000000000000000e+00) (0, 0, 0.00000000000000000000e+00) (0, 0, 0.00000000000000000000e+00) (0, 0, 0.00000000000000000000e+00) (0, 0, 0.00000000000000000000e+00) (0, 0, 0.00000000000000000000e+00) (0, 0, 0.00000000000000000000e+00) (0, 0, 0.00000000000000000000e+00) (0, 0, 0.00000000000000000000e+00) (0, 0, 0.00000000000000000000e+00) (0, 0, 0.00000000000000000000e+00) (0, 0, 0.00000000000000000000e+00) (0, 0, 0.00000000000000000000e+00) (0, 0, 0.00000000000000000000e+00) (0, 0, 0.00000000000000000000e+00) (0, 0, 0.00000000000000000000e+00) (0, 0, 0.00000000000000000000e+00) (0, 0, 0.00000000000000000000e+00) (0, 0, 0.00000000000000000000e+00) (0, 0, 0.00000000000000000000e+00) (0, 0, 0.00000000000000000000e+00) (0, 0, 0.00000000000000000000e+00) (0, 0, 0.00000000000000000000e+00) (0, 0, 0.00000000000000000000e+00) (0, 0, 0.00000000000000000000e+00) (0, 0, 0.00000000000000000000e+00) (0, 0, 0.00000000000000000000e+00) (0, 0, 0.00000000000000000000e+00) (0, 0, 0.00000000000000000000e+00) (0, 0, 0.00000000000000000000e+00) (0, 0, 0.00000000000000000000e+00) (0, 0, 0.00000000000000000000e+00) (0, 0, 0.00000000000000000000e+00) (0, 0, 0.00000000000000000000e+00) (0, 0, 0.00000000000000000000e+00) (0, 0, 0.00000000000000000000e+00) (0, 0, 0.00000000000000000000e+00) (0, 0, 0.00000000000000000000e+00) (0, 0, 0.00000000000000000000e+00) (0, 0, 0.00000000000000000000e+00) (0, 0, 0.00000000000000000000e+00) (0, 0, 0.00000000000000000000e+00) (0, 0, 0.00000000000000000000e+00) (0, 0, 0.00000000000000000000e+00) (0, 0, 0.00000000000000000000e+00) (0, 0, 0.00000000000000000000e+00) (0, 0, 0.00000000000000000000e+00) (0, 0, 0.00000000000000000000e+00) (0, 0, 0.00000000000000000000e+00) (0, 0, 0.00000000000000000000e+00) (0, 0, 0.00000000000000000000e+00) (0, 0, 0.00000000000000000000e+00) (0, 0, 0.00000000000000000000e+00) (0, 0, 0.00000000000000000000e+00) (0, 0, 0.00000000000000000000e+00) (0, 0, 0.00000000000000000000e+00) (0, 0, 0.00000000000000000000e+00) (0, 0, 0.00000000000000000000e+00) (0, 0, 0.00000000000000000000e+00) (0, 0, 0.00000000000000000000e+00) (0, 0, 0.00000000000000000000e+00) (0, 0, 0.00000000000000000000e+00) (0, 0, 0.00000000000000000000e+00) (0, 0, 0.00000000000000000000e+00) (0, 0, 0.00000000000000000000e+00) (0, 0, 0.00000000000000000000e+00) (0, 0, 0.00000000000000000000e+00) (0, 0, 0.00000000000000000000e+00) (0, 0, 0.00000000000000000000e+00) (0, 0, 0.00000000000000000000e+00) (0, 0, 0.00000000000000000000e+00) (0, 0, 0.00000000000000000000e+00) (0, 0, 0.00000000000000000000e+00) (0, 0, 0.00000000000000000000e+00) (0, 0, 0.00000000000000000000e+00) (0, 0, 0.00000000000000000000e+00) (0, 0, 0.00000000000000000000e+00) (0, 0, 0.00000000000000000000e+00) (0, 0, 0.00000000000000000000e+00) (0, 0, 0.00000000000000000000e+00) (0, 0, 0.00000000000000000000e+00) (0, 0, 0.00000000000000000000e+00) (0, 0, 0.00000000000000000000e+00) (0, 0, 0.00000000000000000000e+00) (0, 0, 0.00000000000000000000e+00) (0, 0, 0.00000000000000000000e+00) (0, 0, 0.00000000000000000000e+00) (0, 0, 0.00000000000000000000e+00) (0, 0, 0.00000000000000000000e+00) (0, 0, 0.00000000000000000000e+00) (0, 0, 0.00000000000000000000e+00) (0, 0, 0.00000000000000000000e+00) (0, 0, 0.00000000000000000000e+00) (0, 0, 0.00000000000000000000e+00) (0, 0, 0.00000000000000000000e+00) (0, 0, 0.00000000000000000000e+00) (0, 0, 0.00000000000000000000e+00) (0, 0, 0.00000000000000000000e+00) (0, 0, 0.00000000000000000000e+00) (0, 0, 0.00000000000000000000e+00) (0, 0, 0.00000000000000000000e+00) (0, 0, 0.00000000000000000000e+00) (0, 0, 0.00000000000000000000e+00) (0, 0, 0.00000000000000000000e+00) (0, 0, 0.00000000000000000000e+00) (0, 0, 0.00000000000000000000e+00) (0, 0, 0.00000000000000000000e+00) (0, 0, 0.00000000000000000000e+00) (0, 0, 0.00000000000000000000e+00) (0, 0, 0.00000000000000000000e+00) (0, 0, 0.00000000000000000000e+00) (0, 0, 0.00000000000000000000e+00) (0, 0, 0.00000000000000000000e+00) (0, 0, 0.00000000000000000000e+00) (0, 0, 0.00000000000000000000e+00) (0, 0, 0.00000000000000000000e+00) (0, 0, 0.00000000000000000000e+00) (0, 0, 0.00000000000000000000e+00) (0, 0, 0.00000000000000000000e+00) (0, 0, 0.00000000000000000000e+00) (0, 0, 0.00000000000000000000e+00) (0, 0, 0.00000000000000000000e+00) (0, 0, 0.00000000000000000000e+00) (0, 0, 0.00000000000000000000e+00) (0, 0, 0.00000000000000000000e+00) (0, 0, 0.00000000000000000000e+00) (0, 0, 0.00000000000000000000e+00) (0, 0, 0.00000000000000000000e+00) (0, 0, 0.00000000000000000000e+00) (0, 0, 0.00000000000000000000e+00) (0, 0, 0.00000000000000000000e+00) (0, 0, 0.00000000000000000000e+00) (0, 0, 0.00000000000000000000e+00) (0, 0, 0.00000000000000000000e+00) (0, 0, 0.00000000000000000000e+00) (0, 0, 0.00000000000000000000e+00) (0, 0, 0.00000000000000000000e+00) (0, 0, 0.00000000000000000000e+00) (0, 0, 0.00000000000000000000e+00) (0, 0, 0.00000000000000000000e+00) (0, 0, 0.00000000000000000000e+00) (0, 0, 0.00000000000000000000e+00) (0, 0, 0.00000000000000000000e+00) (0, 0, 0.00000000000000000000e+00) (0, 0, 0.00000000000000000000e+00) (0, 0, 0.00000000000000000000e+00) (0, 0, 0.00000000000000000000e+00) (0, 0, 0.00000000000000000000e+00) (0, 0, 0.00000000000000000000e+00) (0, 0, 0.00000000000000000000e+00) (0, 0, 0.00000000000000000000e+00) (0, 0, 0.00000000000000000000e+00) (0, 0, 0.00000000000000000000e+00) (0, 0, 0.00000000000000000000e+00) (0, 0, 0.00000000000000000000e+00) (0, 0, 0.00000000000000000000e+00) (0, 0, 0.00000000000000000000e+00) (0, 0, 0.00000000000000000000e+00) (0, 0, 0.00000000000000000000e+00) (0, 0, 0.00000000000000000000e+00) (0, 0, 0.00000000000000000000e+00) (0, 0, 0.00000000000000000000e+00) (0, 0, 0.00000000000000000000e+00) (0, 0, 0.00000000000000000000e+00) (0, 0, 0.00000000000000000000e+00) (0, 0, 0.00000000000000000000e+00) (0, 0, 0.00000000000000000000e+00) (0, 0, 0.00000000000000000000e+00) (0, 0, 0.00000000000000000000e+00) (0, 0, 0.00000000000000000000e+00) (0, 0, 0.00000000000000000000e+00) (0, 0, 0.00000000000000000000e+00) (0, 0, 0.00000000000000000000e+00) (0, 0, 0.00000000000000000000e+00) (0, 0, 0.00000000000000000000e+00) (0, 0, 0.00000000000000000000e+00) (0, 0, 0.00000000000000000000e+00) (0, 0, 0.00000000000000000000e+00) (0, 0, 0.00000000000000000000e+00) (0, 0, 0.00000000000000000000e+00) (0, 0, 0.00000000000000000000e+00) (0, 0, 0.00000000000000000000e+00) (0, 0, 0.00000000000000000000e+00) (0, 0, 0.00000000000000000000e+00) (0, 0, 0.00000000000000000000e+00) (0, 0, 0.00000000000000000000e+00) (0, 0, 0.00000000000000000000e+00) (0, 0, 0.00000000000000000000e+00) (0, 0, 0.00000000000000000000e+00) (0, 0, 0.00000000000000000000e+00) (0, 0, 0.00000000000000000000e+00) (0, 0, 0.00000000000000000000e+00) (0, 0, 0.00000000000000000000e+00) (0, 0, 0.00000000000000000000e+00) (0, 0, 0.00000000000000000000e+00) (0, 0, 0.00000000000000000000e+00) (0, 0, 0.00000000000000000000e+00) (0, 0, 0.00000000000000000000e+00) (0, 0, 0.00000000000000000000e+00) (0, 0, 0.00000000000000000000e+00) (0, 0, 0.00000000000000000000e+00) (0, 0, 0.00000000000000000000e+00) (0, 0, 0.00000000000000000000e+00) (0, 0, 0.00000000000000000000e+00) (0, 0, 0.00000000000000000000e+00) (0, 0, 0.00000000000000000000e+00) (0, 0, 0.00000000000000000000e+00) (0, 0, 0.00000000000000000000e+00) (0, 0, 0.00000000000000000000e+00) (0, 0, 0.00000000000000000000e+00) (0, 0, 0.00000000000000000000e+00) (0, 0, 0.00000000000000000000e+00) (0, 0, 0.00000000000000000000e+00) (0, 0, 0.00000000000000000000e+00) (0, 0, 0.00000000000000000000e+00) (0, 0, 0.00000000000000000000e+00) (0, 0, 0.00000000000000000000e+00) (0, 0, 0.00000000000000000000e+00) (0, 0, 0.00000000000000000000e+00) (0, 0, 0.00000000000000000000e+00) (0, 0, 0.00000000000000000000e+00) (0, 0, 0.00000000000000000000e+00) (0, 0, 0.00000000000000000000e+00) (0, 0, 0.00000000000000000000e+00) (0, 0, 0.00000000000000000000e+00) (0, 0, 0.00000000000000000000e+00) (0, 0, 0.00000000000000000000e+00) (0, 0, 0.00000000000000000000e+00) (0, 0, 0.00000000000000000000e+00) (0, 0, 0.00000000000000000000e+00) (0, 0, 0.00000000000000000000e+00) (0, 0, 0.00000000000000000000e+00) (0, 0, 0.00000000000000000000e+00) (0, 0, 0.00000000000000000000e+00) (0, 0, 0.00000000000000000000e+00) (0, 0, 0.00000000000000000000e+00) (0, 0, 0.00000000000000000000e+00) (0, 0, 0.00000000000000000000e+00) (0, 0, 0.00000000000000000000e+00) (0, 0, 0.00000000000000000000e+00) (0, 0, 0.00000000000000000000e+00) (0, 0, 0.00000000000000000000e+00) (0, 0, 0.00000000000000000000e+00) (0, 0, 0.00000000000000000000e+00) (0, 0, 0.00000000000000000000e+00) (0, 0, 0.00000000000000000000e+00) (301, 5, 5.00000000000000000000e-01) (301, 5, 5.00000000000000000000e-01) (301, 5, 5.00000000000000000000e-01) (301, 5, 5.00000000000000000000e-01) (301, 5, 5.00000000000000000000e-01) (301, 5, 5.00000000000000000000e-01) (301, 5, 5.00000000000000000000e-01) (301, 5, 5.00000000000000000000e-01) (301, 5, 5.00000000000000000000e-01) (301, 5, 5.00000000000000000000e-01) (301, 5, 5.00000000000000000000e-01) (301, 5, 5.00000000000000000000e-01) (301, 5, 5.00000000000000000000e-01) (301, 5, 5.00000000000000000000e-01) (301, 5, 5.00000000000000000000e-01) (301, 5, 5.00000000000000000000e-01) (301, 5, 5.00000000000000000000e-01) (301, 5, 5.00000000000000000000e-01) (301, 5, 5.00000000000000000000e-01) (301, 5, 5.00000000000000000000e-01) (0, 5, 0.00000000000000000000e+00) (21, 5, 5.00000000000000000000e-01) (21, 5, 5.00000000000000000000e-01) (0, 5, 0.00000000000000000000e+00) 
connections (connected_to_neuron, weight)=(0, 7.73747566538225406418e-02) (1, 8.33705517845522020570e-02) (2, 7.87192832463235944718e-03) (3, 8.22274688082109544984e-02) (4, -1.20861051508080303250e-03) (5, 3.20951420264612430344e-02) (6, 4.16863741449225409796e-03) (7, 3.22998030972933003468e-02) (8, -1.35387831319799811780e-01) (9, 6.62199410992037329482e-02) (10, -6.65662073009907484522e-02) (11, -1.27701692694126619360e-02) (12, 7.24997672634493384169e-02) (13, -7.55564929055715650552e-02) (14, -1.55248616855851589991e-01) (15, 6.46846297579180273818e-02) (16, -1.06862832646936106729e-01) (17, -6.12344824188648939600e-02) (18, 1.04376063068426699898e-01) (19, 4.26456481522461128275e-02) (20, -7.79632525856414626553e-02) (21, 1.01439595540083499214e-01) (22, -1.12795964884305714021e-02) (23, 1.22201605630373241057e-02) (24, 8.63724056082140062562e-02) (25, -1.22404672175035825199e-01) (26, 2.77578113262733905398e-02) (27, -3.64044276901375352812e-03) (28, -9.44121056305910200113e-02) (29, -1.87253938126111692253e-02) (30, 9.38814732628236864320e-02) (31, -1.46926425366983720577e-01) (32, -6.93158107216277907803e-02) (33, -1.77553367418874438743e-02) (34, 1.63738876885315097487e-02) (35, 2.55822404218172295975e-02) (36, 9.54126569824586823199e-02) (37, -8.74227010714555829995e-02) (38, -1.26697429909615726790e-02) (39, 1.18463501651800723335e-01) (40, -1.54625126112928779065e-01) (41, -1.31177611618624040402e-01) (42, -1.32338338011204256078e-02) (43, 1.34427263331865550627e-02) (44, -6.53632419527050839703e-02) (45, 5.45338832065773160274e-02) (46, -4.07998100924039652782e-02) (47, -1.41665474581266197934e-02) (48, -1.26214654039710605371e-01) (49, -5.53508983063245862954e-02) (50, -3.01500471652027812741e-02) (51, 3.37529676904482989208e-01) (52, -9.38095224645615032022e-03) (53, -2.04941823854732606269e-02) (54, -8.90370577984749556055e-02) (55, -1.05393207173302277946e-01) (56, -6.59462147846131552242e-02) (57, 8.41371105715948558457e-02) (58, 3.54967035577011258418e-02) (59, 6.15378462001991421992e-02) (60, 2.29160703307689159192e-02) (61, -5.30064837145353268122e-02) (62, -8.43593566559840656038e-03) (63, 9.90166129276472406495e-02) (64, 7.37685404941749722774e-02) (65, 4.07960407659721524531e-02) (66, -1.17896810960143663682e-01) (67, -1.32034705090070484529e-02) (68, 1.93640580878348261828e-02) (69, 9.19112108871650429487e-02) (70, -1.36617961908934524434e-02) (71, 3.76781430457474864060e-02) (72, 1.15052044709242434761e-01) (73, -8.23706034208891990644e-02) (74, -4.94101504559762982893e-03) (75, 7.75366204235075975881e-03) (76, 5.26492353890778558290e-02) (77, -1.02378976386159586953e-01) (78, -6.24694309904861300176e-02) (79, -1.29040399530088639724e-01) (80, -1.32048414158368824373e-02) (81, 6.48584805652809293086e-02) (82, -2.97160166885016285843e-02) (83, -1.42099863390877212410e-01) (84, -1.39188856672614658105e-01) (85, 2.71752287371385473080e-02) (86, -1.18583441745750028939e-01) (87, 1.73426933810424711846e-02) (88, -1.32005007901346421706e-01) (89, 1.24330087495302440276e-02) (90, -1.04672604095309901284e-01) (91, 3.54307605815386006398e-02) (92, -1.11663845401517469735e-01) (93, 1.09369202725620229266e-01) (94, -4.40092019512939441883e-02) (95, -1.42375564675285781746e-01) (96, -3.33879001849590739681e-02) (97, -9.18004065447906580921e-02) (98, -2.66693951899924786009e-02) (99, 8.45391231033324266897e-03) (100, -4.49838347509193131613e-02) (101, -9.63930758054176162197e-02) (102, -1.05167326135266921139e-02) (103, -1.26811661709776368756e-01) (104, -3.48255681211867909597e-02) (105, -7.15143155855763879014e-02) (106, -3.50387543135741857947e-02) (107, -6.58520592157743056561e-02) (108, -2.93682661456693243351e-02) (109, -2.05555567040352910047e-02) (110, -1.34989240686021277904e-01) (111, 1.01370334942854495308e-01) (112, 2.73627292149515154857e-03) (113, -1.36732241303195750648e-01) (114, 1.03213906605757327339e-01) (115, -5.53797320532346815103e-02) (116, -2.37904346945994965568e-01) (117, -5.63922893805135355683e-02) (118, 1.05319500287092776558e-01) (119, -1.55089048833121995186e-01) (120, 9.99841693239580109331e-02) (121, -1.17698668043568099861e-01) (122, -2.46058444808952947458e-01) (123, -5.27024265927899665529e-02) (124, -7.88865683260996097825e-02) (125, -1.39238113701810634071e-01) (126, -5.11345487637151069338e-02) (127, -1.67063907789731722064e-02) (128, -1.42943451514828206994e-01) (129, 8.11733010607133959047e-02) (130, -1.42261766780844123303e-01) (131, -1.39127068750135335362e-01) (132, -5.62425252599347696991e-02) (133, -5.72104216622854322427e-02) (134, -7.58143238335728941735e-02) (135, 6.79091665344607048338e-02) (136, -5.86138069325546073873e-02) (137, -1.73172333757005109112e-01) (138, -1.13518085879911086178e-02) (139, 4.05270000223867041256e-03) (140, -2.21597905587189281107e-01) (141, -7.57150497836698022081e-02) (142, -2.85379262978950123952e-02) (143, -1.66522794000379420476e-01) (144, -2.58562002880204783173e-02) (145, -4.37125870480446834798e-02) (146, -2.50345244470351890875e-01) (147, -6.28726897665154126071e-03) (148, -1.90320172800927250867e-02) (149, -6.39528924853741409517e-02) (150, 2.52147692637811962624e-02) (151, -3.85135906155028781561e-02) (152, -1.39212106388322293116e-01) (153, 3.60910076098810705947e-02) (154, -1.01431729609885810245e-02) (155, -2.21608206096404664054e-01) (156, 8.34439996080766771547e-02) (157, -7.81871953653312870558e-03) (158, -2.34889594619176536594e-02) (159, -6.09806893297325756931e-03) (160, -2.00055472786146298914e-02) (161, -1.05808087221853169835e-01) (162, -5.95564444757178124146e-02) (163, -2.07422284190557117134e-02) (164, -1.20579047292938029701e-01) (165, 1.17449030597723574898e-01) (166, -4.41463785583892306952e-02) (167, -2.42874828879735618625e-02) (168, 1.54842759274765959937e-02) (169, -2.03917005704856799803e-03) (170, -7.62913508121869643475e-02) (171, 5.02394738989244971084e-02) (172, 3.09324739163002390696e-02) (173, -1.45852035075893199378e-01) (174, -3.11962102157701086369e-02) (175, -1.41464727163781889274e-01) (176, -3.11259535853765020863e-02) (177, -2.40681801540483172874e-02) (178, -5.22180340472062007318e-02) (179, -9.17193127577207167889e-02) (180, -3.05478048128713201848e-02) (181, -1.32777680676690518213e-01) (182, -1.71255653888454123512e-01) (183, -1.07826512856114969940e-02) (184, -2.87665344062645877976e-02) (185, -2.24215743844411521946e-02) (186, 2.56693281457137968682e-02) (187, -5.05583816661744137044e-02) (188, -1.60353603179374283594e-02) (189, -1.18154656691182753658e-02) (190, 2.38778022711357562624e-02) (191, -7.50168236310401748135e-02) (192, -3.19495320096302021229e-02) (193, -1.40153555672123397713e-01) (194, -1.07668666762160983308e-01) (195, 3.34756079512011014976e-02) (196, -1.56665493767968594385e-01) (197, 5.66290594983906350052e-03) (198, -3.63389474895477919761e-03) (199, -4.56561432289624979930e-02) (200, 5.24863739733449560787e-03) (201, 1.06078937967337222359e-01) (202, -1.29377638023606772455e-01) (203, -1.98754640633979351438e-02) (204, -5.25950871184158175176e-02) (205, -7.54291042381385890003e-02) (206, 4.02847244334673046384e-02) (207, 1.02283135374106021187e-01) (208, -2.19577410712151616101e-02) (209, -5.48371496016898593573e-02) (210, -2.84507838913094406388e-03) (211, 2.80287293379387347780e-02) (212, -2.80990013375191846623e-02) (213, 1.24903547959696117897e-02) (214, -8.66472669946695417398e-02) (215, -7.02403248357320875161e-02) (216, -2.33401243192781077118e-02) (217, 4.47418071676105710138e-03) (218, 2.26061371748527972780e-02) (219, -8.03982314271558251573e-02) (220, -1.11234626274063608253e-01) (221, 2.04950286937212178273e-02) (222, 3.56218995622504175022e-03) (223, -1.05345858425369059974e-01) (224, 9.25109066415638094105e-03) (225, 5.39584003612709195430e-02) (226, 5.18555697415711419618e-02) (227, 2.66019907210709623258e-02) (228, 1.80116373496424023171e-02) (229, -5.04931779497694716019e-02) (230, -9.01498543436446975186e-02) (231, -3.22093859091091144764e-02) (232, -8.41405931498168113691e-02) (233, -4.55111059929488026565e-02) (234, 1.06305480320967288277e-01) (235, -2.09894235603342235730e-02) (236, 8.23782050506026153336e-02) (237, 9.11205552742194863081e-02) (238, -7.28937554742453697187e-02) (239, -2.95539218570349537796e-02) (240, -5.32626328893791908120e-03) (241, 5.37470543280990156743e-02) (242, 5.86510090984414169529e-03) (243, -7.43996731713104098027e-02) (244, -1.01102778651869118498e-01) (245, 1.47482212994935173861e-02) (246, -1.28346649833809673368e-03) (247, 1.27443011380807352806e-01) (248, 3.46608217385568490032e-02) (249, -1.91131651177692506172e-02) (250, -4.26954347278235279983e-02) (251, 1.09084751819016612107e-02) (252, -5.46747080757904041493e-02) (253, 3.87989104178897536990e-01) (254, -5.13851363631925572850e-02) (255, 1.13553642503948171161e-01) (256, -2.36160698916075655063e-02) (257, -4.86004285290527054952e-02) (258, 2.06493748883934680194e-01) (259, 2.21517913428298462986e-01) (260, 2.08416036469910095907e-02) (261, -4.76657819552052802736e-02) (262, -7.68419437521397352686e-02) (263, 1.98037392980159251965e-02) (264, 3.70039391269488482372e-01) (265, 2.76824323670415761711e-01) (266, 2.88813863652056468379e-01) (267, 2.86644998388658825417e-02) (268, -1.17857114266723253526e-01) (269, -2.14635290616451770984e-02) (270, 2.62326846768660693066e-01) (271, 3.32930909193887625275e-01) (272, 3.09130356418198359858e-01) (273, 4.44388690786730322646e-02) (274, -3.60242583268581828548e-02) (275, -2.93560482972561286041e-02) (276, 3.22403359164996294872e-01) (277, 4.20287432664718629827e-01) (278, 2.52533756898945638270e-01) (279, -7.47370120687116112901e-02) (280, -9.48621005230843306055e-02) (281, -2.75453113430439468223e-02) (282, 3.99387749781413226025e-01) (283, 3.12270880447930110346e-01) (284, 3.39654163228577388178e-01) (285, 1.16201415975607486031e-01) (286, -7.50112839454113722315e-02) (287, -1.21345528256267126688e-01) (288, 2.67365085830493121044e-01) (289, 2.70890132295197205714e-01) (290, 2.79382743643826259028e-01) (291, 5.26181909637819800185e-02) (292, -7.70245351308285475245e-02) (293, 2.91962701278101269264e-02) (294, 2.13825087609095160213e-01) (295, 4.36131306695050069422e-01) (296, 4.02127244280880702387e-01) (297, 6.89640942411791496580e-02) (298, 2.79990810351740185280e-02) (299, 1.10925600250280947945e-01) (300, 3.52290986860177457451e-01) (0, 5.17050357708254249012e-01) (1, 3.81924032849934202982e-01) (2, 4.18125082832660976973e-01) (3, 4.61620248330270765980e-01) (4, 2.90424801094200712992e-01) (5, 3.48112161887552840067e-01) (6, 5.26760133156099374929e-01) (7, 4.63896860462513160872e-01) (8, 2.73283042719160373935e-01) (9, 5.33095987686433847585e-01) (10, 3.28377883566286665751e-01) (11, 4.80828933102753042217e-01) (12, 4.30826240219505385287e-01) (13, 3.18819612400750906911e-01) (14, 2.71111778599352648556e-01) (15, 4.91552690216818077840e-01) (16, 4.03151462513010094835e-01) (17, 4.06865872127678496195e-01) (18, 4.24366675002243620707e-01) (19, 2.16893047799860211322e-01) (20, 3.36877301019758990108e-01) (21, 3.58057707233097655131e-01) (22, 3.04745378631155083848e-01) (23, 2.89506691235105584337e-01) (24, 4.56077508313324553324e-01) (25, 2.83728115966116245517e-01) (26, 6.34124246046683659461e-02) (27, 4.06114458722736937357e-01) (28, 3.98333780603627840566e-01) (29, 2.46835666435758632753e-01) (30, 4.79212902171280374919e-01) (31, 3.25993538608347233065e-01) (32, 1.49823811332955164621e-01) (33, 4.24645013792183501078e-01) (34, 2.66446001589553727040e-01) (35, 3.29344220595578940358e-01) (36, 4.85246084315445302959e-01) (37, 3.33135716753225119557e-01) (38, 1.43941391687168879221e-01) (39, 3.61584193689491850687e-01) (40, 1.05768111030831057917e-01) (41, 2.37628452241676085821e-01) (42, 3.54902036173012358500e-01) (43, 3.17854289810147683237e-01) (44, -1.55378059690408215632e-01) (45, 6.58467272105872192256e-01) (46, 3.15310242312948296739e-01) (47, 2.78428653913538048936e-01) (48, 3.70432108325626952006e-01) (49, 1.26842236931996782401e-01) (50, -1.67444166965773272304e-01) (51, 1.19598437182450534344e+00) (52, 5.49256388838448628142e-01) (53, 4.88933333196075403659e-01) (54, 4.04582857770588499857e-01) (55, -1.24798836208136892933e-01) (56, -3.02112020658647062454e-01) (57, 6.49513268652617492549e-01) (58, 6.87486523571669616572e-01) (59, 4.31555475676329680645e-01) (60, 4.71662230474617583109e-01) (61, -1.44936461217721815342e-02) (62, -1.77208282159959179536e-01) (63, 6.03004040005862274043e-01) (64, 6.16322273197829284541e-01) (65, 5.48357892418177450544e-01) (66, 3.22479650063183409525e-01) (67, 2.46692833404031169886e-01) (68, -2.58797422157918344254e-01) (69, 6.47939050379454650752e-01) (70, 5.73617834234507295577e-01) (71, 4.66033659560349089457e-01) (72, 4.32378941215904311068e-01) (73, 2.77917033719818185045e-01) (74, -6.18149947575850552961e-02) (75, 6.82152474108397521846e-01) (76, 3.11697594506409270121e-01) (77, 2.84150498646299431993e-01) (78, 3.68788023479612425692e-01) (79, 3.24404294329683373643e-01) (80, 1.80415019154803984991e-01) (81, 6.24364385190665283076e-01) (82, 4.39480460865166289164e-01) (83, 2.04083428492342150440e-01) (84, 3.85503053350117308451e-01) (85, 1.96577754716363267695e-01) (86, -2.76303216921483463242e-01) (87, 6.48204827490508117549e-01) (88, 3.44058067538173750766e-01) (89, 2.76184767620782645192e-01) (90, 2.91981838328507048441e-01) (91, 9.97776750881246843328e-02) (92, -1.46092899213167903838e+00) (93, 6.79587358418166198604e-01) (94, 6.10808545532881774776e-01) (95, 3.81893299656133444753e-01) (96, 4.40166763646271330668e-01) (97, 2.29568280041473143926e-01) (98, -3.06511895118274457772e+00) (99, 5.46183144483029403560e-01) (100, 4.24318783916862563022e-01) (101, 1.17672142069115442942e-01) (102, 3.17315756959583861185e-01) (103, 8.71351383448870642212e-02) (104, -3.01126936582841642220e+00) (105, 6.75490136179913158720e-01) (106, 2.05618403988103604085e-01) (107, -2.62389115620102986171e+00) (108, 3.53009752614166838480e-01) (109, 7.73950260684630186869e-02) (110, -3.07997531948604352792e+00) (111, 6.44066686663616772002e-01) (112, 5.01391106285484222660e-01) (113, -2.76481426138129338099e+00) (114, 4.61871079785492522074e-01) (115, 1.57670572161929783972e-01) (116, -1.12153718396702850590e+00) (117, 5.32325825575579170135e-01) (118, 5.09127373728741283720e-01) (119, -2.67211974788155659510e+00) (120, 4.49591436423690871127e-01) (121, 1.28726071532445390799e-01) (122, -1.09007929041663254033e+00) (123, 6.64025361571301098174e-01) (124, 3.27025821841808117529e-01) (125, -1.54968075909313007799e+01) (126, 4.54105876071121794535e-01) (127, 3.01631514827695290659e-01) (128, -9.61936504007513737413e-01) (129, 4.68080702645217894275e-01) (130, 2.22321920802389355609e-01) (131, -6.98276013394929240263e+00) (132, 4.44476924521591765238e-01) (133, -5.82469960948603926454e-02) (134, -1.10349332317391479741e+00) (135, 5.12301336450015853963e-01) (136, 1.32518794149415669592e-01) (137, -3.03778121380128629525e+00) (138, 3.73504332883026701762e-01) (139, -1.11329996233396066874e-01) (140, -1.04883050694743196196e+00) (141, 4.57218832952644926859e-01) (142, 1.12418692986740842432e-01) (143, -6.93122259786464045561e+00) (144, 2.92902685386803252054e-01) (145, -2.96517133819257261429e-01) (146, -1.18886574133912215068e+00) (147, 3.97627681178715330912e-01) (148, 1.60128206474435791362e-01) (149, -2.14652236285098663160e+00) (150, 3.58899661340149001010e-01) (151, -3.11849802838956358109e-01) (152, -1.51098692709300008730e+00) (153, 4.95082535781295740573e-01) (154, 5.86261492774627010482e-02) (155, -3.03581908849992521127e+00) (156, 4.10625094720640515522e-01) (157, -2.60114915299859150721e+00) (158, -1.54469323464330479112e+01) (159, 4.13591550835886334614e-01) (160, -8.14777768080578168597e-02) (161, -3.03634718565263517220e+00) (162, 5.05653977044561164789e-01) (163, -6.34474808607518347969e+00) (164, -1.53663736664351269212e+01) (165, 4.62299111706649779041e-01) (166, 2.77507780893949673739e-01) (167, -3.12733892856158979257e+00) (168, 5.69149526008882911121e-01) (169, -6.34936856363236579170e+00) (170, -1.53932218336161419359e+01) (171, 5.65639372391139816365e-01) (172, 3.33208753570226834384e-01) (173, -1.12246246225906443073e+00) (174, 5.04999267110147753712e-01) (175, -2.60853881764855488612e+00) (176, -6.26309895400225791207e+00) (177, 5.42395712980547117787e-01) (178, -4.39165017431125404013e-02) (179, -6.97162774241543825582e+00) (180, 4.54002289022890803682e-01) (181, 9.85337566305760081953e-02) (182, -1.09959437660647463275e+00) (183, 5.18505813726701791921e-01) (184, -3.07437038843974795588e-02) (185, -6.89329951292849596456e+00) (186, 5.39364869627941612151e-01) (187, 1.67888876478447718332e-01) (188, -4.23211502658474514327e-01) (189, 5.48342155465402769643e-01) (190, 1.29714466231024699860e-01) (191, -6.08189597409552473728e-01) (192, 5.68673121664513225859e-01) (193, 3.10845434801797659841e-01) (194, 2.61881388485687149892e-01) (195, 4.58209077069082593159e-01) (196, 1.93622794430031580637e-01) (197, -4.06349721180546352706e-01) (198, 5.87548303339470501250e-01) (199, 3.55522148447255881276e-01) (200, 2.09608070314185851446e-01) (201, 4.50236106464186047749e-01) (202, 1.41639773230328364084e-01) (203, -4.02922036873447964034e-01) (204, 5.85447314116943950957e-01) (205, 2.33855121543203564594e-01) (206, 3.06387812604700382479e-01) (207, 3.95588556477346753315e-01) (208, 2.21320998351349551569e-01) (209, 3.73907428786895076889e-02) (210, 5.08093799386013844632e-01) (211, 1.98602936846346611599e-01) (212, 3.34471513540014531163e-01) (213, 4.80196418413439019002e-01) (214, 2.37007580459373229376e-01) (215, 1.46030544996516881140e-01) (216, 6.71029890809048290556e-01) (217, 1.95771522504420036892e-01) (218, 1.84291727525324577908e-01) (219, 4.75235665389814709858e-01) (220, 2.64012507856147660146e-01) (221, 2.59799025714652909169e-01) (222, 5.29932725164879325774e-01) (223, 1.80474563104030066851e-01) (224, 2.64410085660548022091e-01) (225, 4.39191739482318876941e-01) (226, 3.68797178107301781846e-01) (227, 2.74521193194191048814e-01) (228, 6.27177799973477001494e-01) (229, 2.35744174129945666119e-01) (230, 2.55418744511800133168e-01) (231, 4.84163511020576364796e-01) (232, 3.45879490214387963487e-01) (233, 3.43332494336168358995e-01) (234, 6.75577248368252392119e-01) (235, 3.50385992144968461126e-01) (236, 4.40990386488400165632e-01) (237, 5.11089976353084396443e-01) (238, 2.66213259386818001939e-01) (239, 3.75691736775438378526e-01) (240, 6.14594751778304138057e-01) (241, 4.91780211582647730495e-01) (242, 6.01121934834123572422e-01) (243, 4.97568225409476039278e-01) (244, 4.64015699607994658304e-01) (245, 4.27887893898155791117e-01) (246, 6.34022736731230773799e-01) (247, 1.17681319533948269829e+00) (248, 6.23238943847824300448e-01) (249, 5.74261797513453076114e-01) (250, 3.67634987962580761511e-01) (251, 4.52099061143733105261e-01) (252, 6.24484786573111572139e-01) (253, 1.12127948819760647758e+00) (254, 4.85707469615150821962e-01) (255, 4.44842209960905787813e-01) (256, 4.56999173891879162390e-01) (257, 4.80747690928317150671e-01) (258, 5.71182818892657317988e-01) (259, 1.10788874595527020439e+00) (260, 4.99411389562298080325e-01) (261, 3.74060794396069151713e-01) (262, 4.00310064393083642198e-01) (263, 4.53478105051186186625e-01) (264, 5.07486486616790077875e-01) (265, 1.25397043419574183432e+00) (266, 1.11094038497542757504e+00) (267, 4.63042474968102080179e-01) (268, 3.07217026787797997667e-01) (269, 3.39579417986538512064e-01) (270, 1.28504891030335666180e+00) (271, 1.11740251939629930966e+00) (272, 1.24002197693919558041e+00) (273, 4.03498880250122649027e-01) (274, 2.98694076674978326036e-01) (275, 3.96249115152027708842e-01) (276, 1.20748712576771022320e+00) (277, 1.12830756168698687070e+00) (278, 1.18721587519978899472e+00) (279, 3.05087513906624419047e-01) (280, 4.56507019383576018168e-01) (281, 4.29006479365494353129e-01) (282, 1.31523109309220553875e+00) (283, 1.24970220856213809490e+00) (284, 1.16443953599666971677e+00) (285, 5.08193635382087838259e-01) (286, 4.05148103518154723002e-01) (287, 2.95594341737892729594e-01) (288, 1.31409222714448215008e+00) (289, 1.34504132799649478436e+00) (290, 1.26097063802027942181e+00) (291, 3.20758686401279524691e-01) (292, 3.67979585809376341654e-01) (293, 3.80372494144108397318e-01) (294, 6.61222034874617614619e-01) (295, 1.20084249537324327939e+00) (296, 1.18239529739951509946e+00) (297, 4.89877530373962366550e-01) (298, 3.56096423847344023539e-01) (299, 4.52038101536896330668e-01) (300, -1.32529740385865374419e-01) (0, 3.86368582197943066792e-01) (1, 4.94545676745803797214e-01) (2, 4.59361171759219921729e-01) (3, 5.02356374809065031606e-01) (4, 3.75943006016643599398e-01) (5, 3.82917308248909071811e-01) (6, 5.58720978149690794545e-01) (7, 3.81643904782386578223e-01) (8, 4.41992788623001398030e-01) (9, 5.76297389516153724109e-01) (10, 3.65457945503624037631e-01) (11, 4.03840028681190565951e-01) (12, 5.40405960926332640248e-01) (13, 4.49219515956493176123e-01) (14, 3.85237124390797935902e-01) (15, 5.28194876560487802664e-01) (16, 3.81674637087019041903e-01) (17, 4.68574264087112501986e-01) (18, 4.91164574572363121785e-01) (19, 3.22347977862021295437e-01) (20, 3.03168483652072273671e-01) (21, 4.91518566557684166707e-01) (22, 4.23168323619034392191e-01) (23, 4.71283772029312209018e-01) (24, 3.94387380220325545199e-01) (25, 2.95870421186348764309e-01) (26, 2.28285136625487022899e-01) (27, 4.27312387326279019550e-01) (28, 3.69989481848564449873e-01) (29, 4.77523930055763712321e-01) (30, 3.85401361622245863803e-01) (31, 3.66967459872624246486e-01) (32, 3.66953129872996108851e-01) (33, 3.39175940491588667758e-01) (34, 2.43115451269529520006e-01) (35, 2.92385106068935696211e-01) (36, 4.01688539423378065951e-01) (37, 4.65864767414417346725e-01) (38, 3.17454937211887333603e-01) (39, 3.43628467060955122836e-01) (40, 3.88411621556002395472e-01) (41, 4.07961917773148385891e-01) (42, 4.27063793875606612094e-01) (43, 3.72502851744500873554e-01) (44, 3.09243347578428529054e-01) (45, 5.43055027699626324811e-01) (46, 3.74010450822975737406e-01) (47, 4.66110222973259047397e-01) (48, 5.15319668688209442386e-01) (49, 4.24148547907678252766e-01) (50, 7.21410684109957678345e-02) (51, 1.20743576870570601400e+00) (52, 5.23848224893414093906e-01) (53, 4.56956186332138136752e-01) (54, 3.24216403998764113314e-01) (55, 4.05792910118905780781e-01) (56, 1.91134598533882898996e-01) (57, 5.25607150024331559734e-01) (58, 5.15216555422700506206e-01) (59, 4.44356245723733389585e-01) (60, 3.39715064503582075961e-01) (61, 3.14245078225938556660e-01) (62, 1.88239302913918299387e-01) (63, 6.79773811227239010968e-01) (64, 5.98984461254037259259e-01) (65, 5.62472162571915790252e-01) (66, 3.23560998775394514926e-01) (67, 4.14300146957246540058e-01) (68, 1.99718799869789936929e-01) (69, 5.95215361541665433087e-01) (70, 3.72410084452125034193e-01) (71, 4.83244438446054302982e-01) (72, 4.23565285453119610981e-01) (73, 4.04733221452955704844e-01) (74, 3.26428245835684083254e-01) (75, 6.20453622168458340802e-01) (76, 5.00456037054856195390e-01) (77, 4.75630961043503275310e-01) (78, 4.53706408092298840717e-01) (79, 4.46393582444910508311e-01) (80, 4.06734686427496217043e-01) (81, 5.67053403681672452130e-01) (82, 3.32219821191320374698e-01) (83, 3.50554933503529397854e-01) (84, 3.27699952759178236850e-01) (85, 2.57405800780443227982e-01) (86, 8.47190585539480955912e-02) (87, 6.68867517239011166730e-01) (88, 3.81412854473193119187e-01) (89, 3.50447018724766079512e-01) (90, 3.55521739460857466586e-01) (91, 2.91195578386394260395e-01) (92, 1.19620523946440598939e-01) (93, 6.93794015771306393781e-01) (94, 5.40627900487340329327e-01) (95, 3.69919052756877697608e-01) (96, 4.83746027983279869300e-01) (97, 2.72282324813984177858e-01) (98, -1.15257037276528695458e+00) (99, 6.48315895325101254620e-01) (100, 4.70165614760408356876e-01) (101, 2.58272870436627166590e-01) (102, 4.31870096363456801303e-01) (103, 4.07794217876808140488e-01) (104, -2.66735920196449649566e+00) (105, 5.07986934664904854486e-01) (106, 4.15819308198543347022e-01) (107, -8.62173624717909703463e-01) (108, 3.21610459126861647494e-01) (109, 3.82881562218386428675e-01) (110, -2.75127040481245410675e+00) (111, 6.78033733549773254268e-01) (112, 4.34682892808237408833e-01) (113, -8.98237221324164281100e-01) (114, 3.86933059431942061313e-01) (115, 2.82929010771892808229e-01) (116, -3.44485219763177377694e-02) (117, 6.20276504936873473994e-01) (118, 4.84654553642209828812e-01) (119, -8.44447262966353306979e-01) (120, 3.86986369439878796772e-01) (121, 2.96137671430913684834e-01) (122, -6.41416217496274532195e-02) (123, 6.59688154044806518428e-01) (124, 4.32319342740514811485e-01) (125, -6.25110796011575864384e+00) (126, 4.12976453253546094135e-01) (127, 2.86599582096723592972e-01) (128, 7.30260908509503536834e-02) (129, 4.61267570206442212299e-01) (130, 4.60605514899155243924e-01) (131, -2.79001869520223033660e+00) (132, 4.53288950957687453158e-01) (133, 3.35253130157796619404e-01) (134, -3.60855716148504479523e-01) (135, 4.86056195744791252888e-01) (136, 3.85156800702473489650e-01) (137, -2.69369727259552371734e+00) (138, 4.15958190509596203999e-01) (139, 3.44011057250879548342e-01) (140, -2.70540776530393767274e-01) (141, 5.01362072476663755971e-01) (142, 3.05135305032450454554e-01) (143, -6.91575541606284449614e+00) (144, 3.31748285331161574252e-01) (145, 1.94736313502564234446e-01) (146, -3.61593502441534264680e-01) (147, 5.01285078176775145131e-01) (148, 3.46836002524227915433e-01) (149, -7.43388826403896030293e-01) (150, 4.48913419791975354389e-01) (151, 1.23241257350220484446e-01) (152, -4.28099928001008378509e-01) (153, 4.57395861098089551167e-01) (154, 2.79011789510025698391e-01) (155, -1.00909907588861802452e+00) (156, 4.95378479011991557091e-01) (157, -9.00799625003058324069e-01) (158, -6.27070627279171155521e+00) (159, 4.10471873530664776997e-01) (160, 2.99875857219203290072e-01) (161, -2.81002562379515063995e+00) (162, 4.42309356876352366417e-01) (163, -8.90504688405711064547e-01) (164, -6.17234834946283505985e+00) (165, 4.89871764728346092976e-01) (166, 2.20625620136036565411e-01) (167, -1.04101376868816286603e+00) (168, 4.18030671425798472374e-01) (169, -2.44192500240581145121e+00) (170, -6.13514749623426602909e+00) (171, 5.55908011445322203237e-01) (172, 3.26917413182241323177e-01) (173, -9.20978457116801374482e-01) (174, 5.29793279418268259207e-01) (175, -5.66251485354484357382e-02) (176, -2.43783506579177489115e+00) (177, 5.61799781569757628041e-01) (178, 2.13337706312640568163e-01) (179, -8.57874311887938389987e-01) (180, 4.42541272439946009598e-01) (181, 3.21708941983476770510e-01) (182, -9.60505023979861372041e-01) (183, 5.52967297086038755971e-01) (184, 1.51933224782451054002e-01) (185, -8.98348600053507695407e-01) (186, 6.04713526363530151642e-01) (187, 3.68789251260177586289e-01) (188, 3.59506869839922083010e-01) (189, 5.77932121404924559194e-01) (190, 3.48202625440851343264e-01) (191, 7.69728358336833895503e-03) (192, 4.65973182557479603805e-01) (193, 3.19662311208334271040e-01) (194, 2.80068356626413605959e-01) (195, 5.36141099581041391531e-01) (196, 3.27488089131609094729e-01) (197, -8.69615494137153943743e-02) (198, 4.98151708370603241161e-01) (199, 2.74669093173828426924e-01) (200, 3.62061662331482736477e-01) (201, 5.54460140117921995717e-01) (202, 3.76826564774233596644e-01) (203, 6.24205504552154642750e-03) (204, 4.85541098560252515348e-01) (205, 3.87122889712712137111e-01) (206, 2.80158748582264749416e-01) (207, 4.65518782088079785542e-01) (208, 3.43057353623109184682e-01) (209, 2.97947349950987594447e-01) (210, 4.36834076714621044601e-01) (211, 3.83685913510518394887e-01) (212, 3.09512352302929727443e-01) (213, 4.31290669539490079121e-01) (214, 3.74804762855431405910e-01) (215, 2.87904907100580476076e-01) (216, 5.85001495475926391876e-01) (217, 3.13669156856732689320e-01) (218, 2.55331721730428062855e-01) (219, 5.10020675310411841785e-01) (220, 3.29752823069950906643e-01) (221, 4.08687409096143983156e-01) (222, 5.23694169516720986479e-01) (223, 2.89751757743108129262e-01) (224, 2.80597967211742571614e-01) (225, 5.38435380202021529605e-01) (226, 3.23112778050568205668e-01) (227, 4.71344284398224455668e-01) (228, 6.89045974794089355342e-01) (229, 2.43878063621270541050e-01) (230, 4.63853729846440021589e-01) (231, 4.92368634086337297884e-01) (232, 2.98938724618677598155e-01) (233, 4.50728240829233628428e-01) (234, 6.32227549138724365108e-01) (235, 3.62948598628666352361e-01) (236, 3.57844604136906441205e-01) (237, 5.53647290211405684879e-01) (238, 4.38384831622674442375e-01) (239, 5.01492013013849158298e-01) (240, 5.40375074181019821040e-01) (241, 5.30592214839502140933e-01) (242, 4.79746848564657657477e-01) (243, 4.91148430150237291780e-01) (244, 5.34575419555504471880e-01) (245, 3.63756427596409748215e-01) (246, 6.47233922010815976300e-01) (247, 1.14199099957112637505e+00) (248, 5.31562959660645928395e-01) (249, 5.64426492195811202457e-01) (250, 4.01900021414359043259e-01) (251, 4.94868354926903675217e-01) (252, 6.41294468170560238995e-01) (253, 1.14800826727513638481e+00) (254, 5.00343814822841959078e-01) (255, 5.79155112844195296695e-01) (256, 4.16867578457196186204e-01) (257, 4.13787508438427875657e-01) (258, 6.55976626998341916241e-01) (259, 1.12264215274968814917e+00) (260, 5.73389284643341268222e-01) (261, 5.29333191165247018972e-01) (262, 4.80595448054702722995e-01) (263, 4.39813905395896986850e-01) (264, 6.01622465974248288312e-01) (265, 1.16974234325383585897e+00) (266, 1.24138173950408381430e+00) (267, 5.05517714657218952823e-01) (268, 3.68247945793302611239e-01) (269, 4.20970664359958723910e-01) (270, 1.31732286946187437948e+00) (271, 1.24443981133246661663e+00) (272, 1.19896102405929805279e+00) (273, 3.99466224946411208041e-01) (274, 5.01549118198783783207e-01) (275, 3.62949502654703215487e-01) (276, 1.25745197818885268148e+00) (277, 1.28319122724080325604e+00) (278, 1.32953444950127841473e+00) (279, 5.79211386093416380483e-01) (280, 4.13578593172462538607e-01) (281, 3.60847518779666975863e-01) (282, 1.30485687093148650106e+00) (283, 1.18928126700067759991e+00) (284, 1.33344972960496188641e+00) (285, 5.72527321228304297840e-01) (286, 3.34397249855430678256e-01) (287, 3.79730355926187590487e-01) (288, 1.21709196702847899374e+00) (289, 1.32478208176636935711e+00) (290, 1.28159158758664371014e+00) (291, 5.57807879695215391713e-01) (292, 4.39540558494957045443e-01) (293, 4.11064491607578352816e-01) (294, 5.89669819897569058575e-01) (295, 1.17557123385215023248e+00) (296, 1.33929956786179782391e+00) (297, 4.46373703130998944477e-01) (298, 3.29966411926181868441e-01) (299, 3.56424973346622542270e-01) (300, 2.60639345191387948597e-02) (0, -5.88202621344442386220e-02) (1, -1.00750890555222002987e-01) (2, -2.19167170109588999027e-01) (3, -1.28698407255282504247e-01) (4, -1.20719737887751588090e-01) (5, -1.77735622555386524324e-01) (6, -6.61675709936825201529e-02) (7, -2.73978073861341153705e-01) (8, -2.76143333144824254521e-01) (9, -8.14554240111227123577e-02) (10, -2.06345810643616428548e-01) (11, -1.68409984724948641466e-01) (12, -1.29988444032509309345e-01) (13, -1.42645445432405232333e-01) (14, -3.79709810253742618968e-01) (15, -1.42431273639571198686e-01) (16, -1.28652897443513658526e-01) (17, -2.28096715263310184652e-01) (18, -7.87291945837330225944e-02) (19, -2.79664107971372588590e-01) (20, -3.27373872977632096593e-01) (21, -1.05891465723883637651e-01) (22, -3.80946049453431412335e-01) (23, -1.81426253881196708484e-01) (24, -2.11418022396404642338e-01) (25, -3.36079561524572245634e-01) (26, -4.72098528349210344590e-01) (27, -1.50014452219378452424e-01) (28, -3.46935646595174118634e-01) (29, -3.02317524315530161694e-01) (30, -1.85818412335951282932e-01) (31, -6.74834015407759224559e-01) (32, -5.06740710639764446732e-01) (33, -1.85539484190175824052e-01) (34, -6.23391064443785225535e-01) (35, -2.62498015524560368572e-01) (36, -1.21431064786751238826e-01) (37, -7.18002004638734314668e-01) (38, -7.03807057389486789845e-01) (39, -8.95530851505589170491e-02) (40, -7.02832938679922580860e-01) (41, -5.84502595105368172312e-01) (42, -2.17232291581470865482e-01) (43, -6.68155750349584076631e-01) (44, -6.10619323888021980906e-01) (45, 7.07640746739169462787e-03) (46, -4.30102834464722805219e-01) (47, -1.77375134792070149325e-01) (48, -1.35050964321832445147e-01) (49, -6.28026088789525482881e-01) (50, -9.42967129962308914237e-01) (51, 1.21890984917765760054e-01) (52, -8.01674584672203982549e-02) (53, 1.21889770759097846795e-03) (54, -1.55505788292627095126e-01) (55, -6.84045439675870392549e-01) (56, -9.57175931053026229911e-01) (57, 5.78729446302704356175e-02) (58, -5.23861323842737675038e-02) (59, -1.87189542762969979295e-01) (60, -2.72926513817052518451e-01) (61, -7.58588174447837326753e-01) (62, -9.55431198792322189384e-01) (63, 3.81216174742722013757e-02) (64, 7.52786959623270857112e-02) (65, -1.61620454005931918351e-01) (66, -1.09371964054534753785e-01) (67, -7.94739512816491577851e-01) (68, -9.24027396457059779777e-01) (69, 1.12601021920707450308e-01) (70, -8.27160906794033312650e-02) (71, -1.99501672017199566112e-01) (72, -8.07784493569250194867e-02) (73, -9.01963470712100257032e-01) (74, -6.56880261936384712840e-01) (75, 4.12732834568287909605e-02) (76, -3.01848738197853294629e-01) (77, -1.79997426237802266025e-01) (78, -1.90347075045477848176e-01) (79, -5.51673365824184580575e-01) (80, -6.42492080667215859080e-01) (81, 8.11158815970685065366e-02) (82, -3.17320299523694060451e-01) (83, -7.34308148362833534861e-01) (84, -1.07184578659374682430e-01) (85, -8.05422684267583344209e-01) (86, -8.89212815182073512688e-01) (87, -5.10436793217394213507e-02) (88, -1.49632176459070231900e-01) (89, -2.99132401110345280681e-01) (90, -2.19542537810642618412e-01) (91, -6.77518015817227814424e-01) (92, -6.39692369934635629569e-01) (93, 3.83430967679288109418e-02) (94, 3.33971048807078438325e-02) (95, -1.94229301776628227039e-01) (96, -1.91026967730264396472e-01) (97, -5.64916940965849434519e-01) (98, -3.31008462418916182823e-01) (99, -1.52972353050444508094e-02) (100, -1.83424959704628944002e-02) (101, -5.00222667062093395707e-01) (102, -2.22685162904102701420e-01) (103, -6.25044857659805774830e-01) (104, -4.04761037041547033777e-01) (105, 6.02024357665889159330e-02) (106, -2.85888171024958837041e-01) (107, -2.13329992512876931432e-01) (108, -1.81137026282389118625e-01) (109, -5.32390265667249340531e-01) (110, -3.49171420742871718712e-01) (111, 1.16138735031019915689e-01) (112, -1.75609963528981199987e-01) (113, -2.06221233872771525508e-01) (114, -2.46139842722622528837e-02) (115, -6.34461837449270760203e-01) (116, -9.71924096801147663349e-01) (117, 9.81709744681232010510e-02) (118, 8.46016045559756513228e-02) (119, 5.48691566962586363410e-03) (120, -1.18328138769042023881e-01) (121, -6.63534602240148041474e-01) (122, -9.48762745120392048115e-01) (123, 7.54523958910815473189e-02) (124, -1.23362980194568386261e-01) (125, 3.13412255747188062127e-01) (126, -1.81232187480103473787e-01) (127, -6.39262011364522431123e-01) (128, -1.08616128981934556563e+00) (129, 7.17400672221347457391e-02) (130, -4.24431221001329295195e-01) (131, -4.43468434919717047205e-01) (132, -1.47617093801867466096e-01) (133, -7.86728231326165650117e-01) (134, -9.95720237948761188740e-01) (135, 3.16025825524494305419e-02) (136, -6.25305401721197640086e-01) (137, -3.00903139819505172081e-01) (138, -1.81146885782849292879e-01) (139, -5.76353984513479744578e-01) (140, -1.11059933201299676497e+00) (141, -5.97368748806309315946e-02) (142, -4.41478512191583183366e-01) (143, -4.33383992125394079675e-01) (144, -1.05628285723159631715e-01) (145, -4.45533162855912712175e-01) (146, -8.26594834895914454265e-01) (147, -1.15228809759399072887e-01) (148, -5.26439267534188126696e-01) (149, -8.04684058988689887570e-01) (150, -6.58635492924566356976e-02) (151, -5.82270956539918560502e-01) (152, -7.05280980545599511800e-01) (153, -6.18317950222698614615e-02) (154, -4.54600877070237663347e-01) (155, -5.27666122611445631563e-01) (156, -2.12350179436046976322e-01) (157, -1.24346412042791718000e-01) (158, 2.26297793819077153188e+00) (159, -1.46830231294414165211e-01) (160, -3.17398241535098213362e-01) (161, -3.87222161700131850548e-01) (162, -1.30359564902622682148e-01) (163, 8.23978599089966734503e-03) (164, 2.30391779078610081655e+00) (165, -7.05284004723861768227e-02) (166, -4.85521926358611188856e-01) (167, -5.78496796037835325777e-01) (168, -2.15362627985317606205e-01) (169, 6.58632706779824217413e-03) (170, 2.22605256272919316274e+00) (171, -5.97682019537615211169e-02) (172, -4.65115546062857765364e-01) (173, -3.40558162485043502965e-01) (174, -2.36840044921564560343e-02) (175, -1.48531965235884133580e-01) (176, 3.86698282463420417443e-01) (177, -1.11224922522200939112e-01) (178, -4.24682511762053627180e-01) (179, -3.38441897003054881221e-01) (180, 2.95318128848239998263e-02) (181, -5.58148248994161266801e-01) (182, -3.32804827380843215590e-01) (183, -2.66344476196972504423e-02) (184, -3.00616807118327278303e-01) (185, -1.84557672409415507442e-01) (186, -2.89243099903896301595e-02) (187, -7.31781405904758930347e-01) (188, -4.18216890597154111742e-01) (189, -3.86457069148002764838e-03) (190, -5.07953322434236187455e-01) (191, -6.50189733925459090180e-01) (192, -8.94105880473535508113e-02) (193, -6.23746221974912140595e-01) (194, -7.42799582519728218699e-01) (195, -7.86531198475567266959e-02) (196, -5.62063678109456676957e-01) (197, -4.66424411908061165022e-01) (198, 6.00162820006925126770e-02) (199, -7.62859633282247040498e-01) (200, -6.70640344360071694041e-01) (201, -2.07091488287231034748e-01) (202, -5.01059240603257793900e-01) (203, -4.72662701213170610703e-01) (204, 7.92305680298968917352e-02) (205, -5.85215466656881844187e-01) (206, -6.72620663979250466014e-01) (207, -9.23428613398281500357e-02) (208, -5.72814173006822247025e-01) (209, -4.34209979080964592058e-01) (210, 4.40575840258762424506e-02) (211, -4.26593190932084531664e-01) (212, -4.28274954992703293932e-01) (213, -2.24817588508498117372e-01) (214, -5.99187331834036385203e-01) (215, -5.67541914620596443797e-01) (216, 7.61094304108783370477e-02) (217, -3.21341957432168534581e-01) (218, -5.87327285611440319535e-01) (219, -1.01815932916308263256e-02) (220, -7.58179875650602852488e-01) (221, -6.66421631910997902537e-01) (222, 9.60760436298105195696e-03) (223, -2.91442438836208461694e-01) (224, -2.89187520277637055699e-01) (225, -4.29571131989708865362e-02) (226, -6.29787733868184540498e-01) (227, -6.94956405178132508027e-01) (228, 1.23326325034033526529e-01) (229, -9.59307360861017810461e-02) (230, -1.15128195526405477378e-01) (231, -1.21550635509227872300e-01) (232, -3.90711626105270659615e-01) (233, -1.01321289522925495064e+00) (234, 1.37298413728605989137e-01) (235, 7.54296609539848034176e-02) (236, -1.79514080704134493249e-01) (237, -1.09558888785575986313e-01) (238, -2.58142800259215376979e-01) (239, -3.04226649182660180415e-01) (240, -1.22571241210587267290e-02) (241, 3.83934796961936317117e-02) (242, -1.16979172917636327356e-02) (243, -8.65408218418043384546e-02) (244, -2.91011945533377669459e-01) (245, -1.72732048856837377970e-01) (246, -2.77141754874918530560e-02) (247, 1.59976203242222447809e-01) (248, -2.05831567454139692866e-03) (249, -8.41349101577680835717e-02) (250, -2.05890869796510639356e-01) (251, -1.96177499443527220135e-01) (252, 7.58120367875363410093e-02) (253, 2.70762436997427080598e-01) (254, 4.08647361893673816136e-02) (255, -1.06030411920396611114e-01) (256, -1.34199811220403697476e-01) (257, -1.75859598517652454541e-01) (258, 7.43844757428433478452e-02) (259, 1.65641881933106333014e-01) (260, -1.19956355791071746925e-02) (261, -1.32405936301123600130e-01) (262, -1.94513662806931247884e-01) (263, -3.32995220176163397863e-01) (264, 6.29801667115234831140e-02) (265, 2.10600602316456275709e-01) (266, 2.58018123793201936689e-01) (267, -3.91196306351537653745e-02) (268, -3.00663445856313382709e-01) (269, -2.28406761553029691303e-01) (270, 7.79119678101092838496e-02) (271, 1.29353663760023496199e-01) (272, 2.26028191732960209714e-01) (273, -1.55239142060648899202e-01) (274, -2.22344492342214261615e-01) (275, -3.18807444623890601232e-01) (276, 9.32870492598563139097e-02) (277, 2.00425612616138837385e-01) (278, 1.60351845311718366194e-01) (279, -1.26679703176390656694e-01) (280, -1.74408256164971103841e-01) (281, -2.21725455573979129964e-01) (282, 1.76038315918162519003e-01) (283, 1.77429678725796124983e-01) (284, 1.28148742518777253308e-01) (285, -2.01005383909117624208e-01) (286, -2.19299695543232670003e-01) (287, -5.53562978081205553371e-02) (288, 1.22030532386019768820e-01) (289, 1.05569050214642884411e-01) (290, 1.14116617045754820126e-01) (291, -1.07873528778922089799e-01) (292, -8.43521693520048188031e-02) (293, -2.27043677287528750108e-01) (294, 7.19755689254071295835e-02) (295, 1.87004531609611890364e-01) (296, 2.24287706303196443525e-01) (297, -1.14308088601004609330e-01) (298, -1.25642917633425721391e-01) (299, -6.45765210989828197796e-02) (300, 3.31458563634204284032e-01) (0, -8.01746541965848644185e-03) (1, -1.36473828508592270881e-01) (2, -1.40888388369138795736e-03) (3, -1.34363356227737540394e-01) (4, -4.65708746980513163538e-02) (5, 1.75727457333718882493e-02) (6, -6.27686619302993825675e-02) (7, -1.15391796036696983596e-01) (8, -9.13219391844039551920e-02) (9, -1.64836394781929101994e-01) (10, -1.52010992116817317266e-01) (11, 2.47416645814096010370e-02) (12, -1.04904412767654522248e-02) (13, -4.38278406402832360067e-02) (14, -9.08144875905280701822e-02) (15, 1.54245794345056162766e-02) (16, -1.25338472373374809621e-01) (17, -1.09721302933582162686e-01) (18, -8.65456774375205628580e-02) (19, -4.65789199974357900902e-02) (20, 1.47301913822924485098e-01) (21, 3.25011909533654483329e-02) (22, -1.11377011932023858853e-01) (23, -2.99037843417013539382e-02) (24, -3.08142095348602415572e-02) (25, 1.91804706508168415491e-01) (26, 1.11748898054396528234e-01) (27, -1.18201903946288919278e-01) (28, 9.73634788932888073365e-02) (29, -1.08484900557193938986e-01) (30, -1.08905041172242714187e-01) (31, 5.25521407070247831284e-02) (32, 1.00825072850024094473e-01) (33, -1.55670374579318843145e-01) (34, 8.37033534588901562135e-02) (35, 2.16272532397755817835e-01) (36, 2.93897897460693169336e-02) (37, 1.79859533363827955865e-01) (38, 5.98055789413540067612e-02) (39, -1.03254771792087737814e-01) (40, 1.80537700110921156549e-01) (41, 7.10007170381633800904e-02) (42, -1.19340799696334695645e-01) (43, 1.04311882120398852214e-01) (44, 4.51717347552945180933e-01) (45, -5.35388842176018758812e-02) (46, -7.12005748398207016781e-02) (47, 3.42603773404275210868e-02) (48, 2.25438182841890960573e-03) (49, 3.86417090278723840413e-01) (50, 3.85035522928406759302e-01) (51, -7.35948025578739839503e-01) (52, -1.63241282056389713784e-02) (53, -2.07684293340264190808e-02) (54, -1.44828028924354396123e-01) (55, 3.10235015433886540670e-01) (56, 4.02170472493340536158e-01) (57, -3.87114681538691884910e-01) (58, -4.32092949698983236351e-02) (59, 1.54020085979880445165e-02) (60, -1.00784003208959707654e-02) (61, 4.05259042364218835530e-01) (62, 2.99088344624211133205e-01) (63, -4.63288873669257528221e-01) (64, 1.43462613274039398059e-02) (65, -1.01340252156120372296e-01) (66, -1.47166326589473567266e-01) (67, 3.69197565294556051541e-01) (68, 3.09653491428067029201e-01) (69, -1.16168054933410730412e-01) (70, -1.41421581799846762806e-01) (71, 6.05924875034704636667e-03) (72, -7.16662064145623112221e-02) (73, 5.65003548482785611373e-02) (74, 3.66165564110447816493e-01) (75, -1.12067363406282510807e-01) (76, 1.44194260288657317981e-02) (77, 1.80224522860895408627e-01) (78, -1.14600866283041086247e-01) (79, 1.33936541221512384059e-01) (80, 4.00752619555165334742e-01) (81, -2.16838523696480621472e-02) (82, -1.35044316942554559757e-01) (83, 8.43234205784885448853e-02) (84, -7.05954534939862987653e-02) (85, 3.73903830269704390288e-02) (86, 4.27244112541844411890e-01) (87, 3.31142440487326439325e-02) (88, -1.42258956979332846365e-02) (89, 8.39297505261985821168e-02) (90, 2.06205457904571412553e-02) (91, 3.93114060275217336304e-01) (92, 3.24725173150465784566e-01) (93, -3.03039804336181051170e-01) (94, -3.58872473475089437400e-01) (95, -1.32412640860301161760e-01) (96, -1.08235304757094932815e-01) (97, 4.38840866735150381128e-01) (98, 4.76778235394837490713e-01) (99, -9.72900494884072070123e-02) (100, 3.05542990614355858270e-02) (101, 2.95718997967594834919e-02) (102, -1.19126503869033409377e-01) (103, 3.82035725464989595057e-01) (104, 3.68829537291409492727e-01) (105, -4.50794413230186791219e-02) (106, -1.55604272625213726350e-02) (107, 3.57941702529717409309e-01) (108, -8.99284347436195008463e-02) (109, 4.86396626284291311304e-01) (110, 4.94158040840508572256e-01) (111, 1.87056869724029420365e-02) (112, -2.08160072109466673385e-02) (113, 3.33806451931525194343e-01) (114, -1.23469763948655664176e-01) (115, 3.18804197659661114894e-01) (116, 3.66609149327446870448e-01) (117, 1.16558433034652571963e-02) (118, -1.33610339417195966849e-01) (119, 4.19663805279127610781e-01) (120, -1.35194562322982658742e-01) (121, 2.37793839853861682654e-01) (122, 4.22314227273633047144e-01) (123, -1.01157323970532966873e-01) (124, 3.24502498367065031482e-02) (125, 8.40956396319367138759e-01) (126, -9.58218201469267227832e-02) (127, 2.43086728431038096021e-01) (128, 2.99719118228127301418e-01) (129, -1.13748279913402153274e-01) (130, 1.36788017505654585504e-01) (131, 3.11833624318171465095e-01) (132, -1.16144332982190942594e-01) (133, 3.51109582163147360134e-01) (134, 3.85705196013619466822e-01) (135, -4.63007762502516337366e-02) (136, 9.04317418279735607545e-02) (137, 3.35937094051720508414e-01) (138, 1.16833001865762620142e-03) (139, 4.25047785689999624292e-01) (140, 3.23347740521599591457e-01) (141, 2.93011073853914269516e-03) (142, 4.02678304066826864283e-01) (143, 5.58925489838609679261e-01) (144, 2.42911130715524233026e-02) (145, 4.38133389403988882105e-01) (146, 4.88142267515828121027e-01) (147, -9.69369649431472552026e-02) (148, 4.08714064111878438990e-01) (149, 4.08452263741377497031e-01) (150, -7.54389315317953446094e-02) (151, 4.36725617101361318628e-01) (152, 3.21167357002661524312e-01) (153, -1.40961924149728440314e-01) (154, 3.01360625882031329947e-01) (155, 4.04687232046011591269e-01) (156, -8.00836547753577959741e-02) (157, 3.71218338952549020693e-01) (158, 8.39715982683397976771e-01) (159, -7.24830418369537127221e-02) (160, 4.23099663630057520880e-01) (161, 5.66219157660534655463e-01) (162, -6.88135712883239381021e-02) (163, 4.70161457136202998175e-01) (164, 9.00092597015597295496e-01) (165, 2.47731268861526299219e-02) (166, 1.08262972336680571295e-01) (167, 4.92111493423510737433e-01) (168, -1.38275773777700089484e-01) (169, 4.39470037582508576968e-01) (170, 8.96954747744299840662e-01) (171, -1.07046538545823646804e-01) (172, 3.68008179482528646753e-02) (173, 3.35600566640425646003e-01) (174, -1.37708464219308518439e-01) (175, 5.03101889565516713354e-01) (176, 9.53529420204855648890e-01) (177, -1.41684697522855423957e-01) (178, 9.01101685533633178782e-02) (179, 3.98210999146033362006e-01) (180, -1.24627727962621545621e-01) (181, 4.43678807575585476553e-01) (182, 3.42818122878600084480e-01) (183, -9.41483020326858155435e-02) (184, 4.70819894745875544562e-01) (185, 3.45192757025290453132e-01) (186, -8.31647992085038090249e-02) (187, 3.33615419169833005153e-01) (188, 4.05773539204480282461e-01) (189, -1.69372349521881224166e-02) (190, 1.57299035590560104536e-01) (191, 3.20709046084763416129e-01) (192, -5.35999715279160543480e-02) (193, 4.45488462390987577377e-02) (194, 4.75838870456387563745e-01) (195, -1.26995773567891767630e-01) (196, 3.00733920295121082145e-01) (197, 3.61609008271576770621e-01) (198, -1.49638164038520898869e-01) (199, 4.88958725872127714096e-02) (200, 1.34707442873963606500e-01) (201, -2.61718272707229734908e-02) (202, 3.69244523083136488850e-01) (203, 4.14635066051365963613e-01) (204, -5.32513409362417311499e-03) (205, 1.21990553492554887338e-01) (206, 1.37085683101662886285e-01) (207, -2.52841352960830809127e-02) (208, 1.39230697804936603967e-01) (209, 4.59630937030484243433e-01) (210, -1.41827020044189566761e-01) (211, 1.77809103781232075159e-01) (212, 1.38704098218926624719e-01) (213, -1.04864615894445276090e-01) (214, 4.25856331529705228744e-02) (215, 3.66979472985436372401e-01) (216, -6.78360089134062427263e-02) (217, 1.27796852391631354795e-01) (218, 1.44044542337691178213e-01) (219, -1.61048464424499354619e-01) (220, 6.69230180027572674195e-02) (221, 3.36415094038416684352e-01) (222, -1.39325402624496330617e-01) (223, -5.15924751970612237295e-03) (224, -9.60444238308576364593e-02) (225, -1.57913471753460016300e-01) (226, 1.72809856078995294215e-01) (227, 5.26365433553586392623e-02) (228, -8.89481781057454845563e-02) (229, -1.57353784742091606930e-01) (230, -7.18994800273088374709e-02) (231, 1.29181191374243831138e-02) (232, 1.21439280054939813258e-01) (233, 1.49308862231148364863e-01) (234, -6.91243558596457002841e-02) (235, -6.44113531729920973934e-02) (236, -1.02132490676989928780e-01) (237, -1.60845990474086847355e-01) (238, -1.31117415370003792541e-01) (239, 1.11455500707463329990e-02) (240, -3.17374021050086385642e-01) (241, -4.20539051852666989628e-01) (242, -3.80904440108446179503e-02) (243, -8.11283245633660221596e-02) (244, -5.67581310819207235374e-02) (245, -2.91272357057152618542e-02) (246, -3.30307811733832723533e-01) (247, -7.76078946923002277458e-01) (248, -1.23847551632020241863e-01) (249, -8.99094894479332829018e-02) (250, -1.59230346972805109074e-01) (251, -9.02665585230408434869e-02) (252, -3.69653344389548665916e-01) (253, -7.50040546094163929070e-01) (254, -4.45657997516594295284e-01) (255, 1.67336657692374358997e-02) (256, -1.27748525882822122623e-01) (257, -1.53659987444740381290e-01) (258, -4.43212270971885091697e-01) (259, -6.72215335105642353142e-01) (260, -4.61740868196801768075e-01) (261, -3.26803132842598750840e-02) (262, -7.90917158077774906655e-02) (263, -2.06185236524163116589e-02) (264, -3.95953938600173360740e-01) (265, -5.99700875614866291130e-01) (266, -7.45084250352985533183e-01) (267, -1.33465378950918603373e-02) (268, 2.19670683671151674432e-02) (269, -9.84960719417417862598e-02) (270, -4.62076248970038738761e-01) (271, -6.25712724409706266826e-01) (272, -6.67941967032558592265e-01) (273, -1.24055664933809137174e-01) (274, -1.21465682930835580655e-01) (275, -1.39324724621662010549e-01) (276, -6.45485981697323518702e-01) (277, -7.82079296193725737041e-01) (278, -7.55058990798599394267e-01) (279, -1.52844488568195185918e-01) (280, -8.66133942674482820712e-02) (281, -1.28913961298354862173e-01) (282, -7.35414124423744874903e-01) (283, -5.86572544656402850016e-01) (284, -7.18609819195873411601e-01) (285, -5.00097199748838969202e-02) (286, 1.55365020562326060227e-02) (287, -6.09829723309362956019e-02) (288, -6.95972784752133089015e-01) (289, -7.57981562994129332012e-01) (290, -7.72853622220165403789e-01) (291, -2.61563360165441884109e-02) (292, -5.28649980533963618351e-03) (293, -6.65699541043127951401e-02) (294, -4.07609187301745778953e-01) (295, -7.31546228758699568218e-01) (296, -4.87970013335916108499e-01) (297, -4.32775988649214335413e-02) (298, -1.61825835652240596074e-01) (299, -1.00892126507648310918e-01) (300, 5.46318969947078847404e-01) (0, 3.38102834613392577712e-01) (1, 2.37540835828850577238e-01) (2, 3.28278528080642728604e-01) (3, 3.77253296167919860427e-01) (4, 2.79281286836931930129e-01) (5, 3.41517584712574706618e-01) (6, 3.52791088016102538649e-01) (7, 2.90911277310312299527e-01) (8, 3.83712636398370332547e-01) (9, 3.63152729661534057204e-01) (10, 3.56861668021748290602e-01) (11, 4.03817715437481628005e-01) (12, 2.48762378783295351470e-01) (13, 3.63998392151058225430e-01) (14, 2.83649735438904981866e-01) (15, 3.61958789022038207595e-01) (16, 3.32098687381813750807e-01) (17, 3.70498003752300963942e-01) (18, 2.87009777815411315505e-01) (19, 3.71371166872079438992e-01) (20, 4.24602662605048197797e-01) (21, 2.24059569032261651778e-01) (22, 3.25746045933425931729e-01) (23, 2.77347503544161544387e-01) (24, 3.06005398125717864577e-01) (25, 4.32493869319370338733e-01) (26, 5.97270629244971207328e-01) (27, 2.25933926494190973067e-01) (28, 3.78647068069637326992e-01) (29, 4.27444645689189939297e-01) (30, 4.10572516114781127516e-01) (31, 4.97112741503465793702e-01) (32, 4.66127783359237823912e-01) (33, 3.10336070449421630446e-01) (34, 5.47437697148872470798e-01) (35, 3.08521525488555936612e-01) (36, 2.33981030376026938322e-01) (37, 5.87867123278492775817e-01) (38, 5.70341110233798964657e-01) (39, 3.85633947641918883864e-01) (40, 6.28824049301484722108e-01) (41, 5.08142357501733865632e-01) (42, 3.71579038293431029860e-01) (43, 5.64036977681034890075e-01) (44, 6.47997584057408038127e-01) (45, 2.13771212668622867525e-01) (46, 3.02790070266792998854e-01) (47, 3.48974036367008910720e-01) (48, 3.74606641323635802809e-01) (49, 7.76669432693975592130e-01) (50, 7.04385812279536005498e-01) (51, -4.90518639810390635891e-03) (52, 3.69904119343961446109e-01) (53, 3.85516571195194945876e-01) (54, 3.96920221240589843337e-01) (55, 6.70989145809667730802e-01) (56, 7.50368709561182734014e-01) (57, 1.16471413338913615254e-01) (58, 2.19573949520374817057e-01) (59, 2.76190426023210255924e-01) (60, 3.32465583772728667800e-01) (61, 6.71750334376352453702e-01) (62, 7.70863103565527674199e-01) (63, 1.33998986149563431569e-01) (64, 3.04737278316999926631e-01) (65, 3.76295704217160909000e-01) (66, 2.31070036382744647963e-01) (67, 7.80322199040907049650e-01) (68, 7.65267508920981165410e-01) (69, 2.93208445013299567883e-01) (70, 2.88607024644400134150e-01) (71, 2.50898662777150838199e-01) (72, 2.54864821524689422194e-01) (73, 4.01661655976359721620e-01) (74, 8.13189614427643481243e-01) (75, 2.37999950823738842809e-01) (76, 2.92946327300275533023e-01) (77, 3.26135996942052752701e-01) (78, 4.02841599972317443434e-01) (79, 3.62504317535941700257e-01) (80, 6.52161668849545184123e-01) (81, 2.39514236626580029332e-01) (82, 3.69253072710241048160e-01) (83, 6.08031427297342497162e-01) (84, 2.40898410172531773910e-01) (85, 5.51201438563588497210e-01) (86, 7.42148366847018459147e-01) (87, 3.49084127516950337711e-01) (88, 2.63963945032561986270e-01) (89, 4.53823212122387631418e-01) (90, 2.34464356229961534694e-01) (91, 7.91509156400221014493e-01) (92, 1.20043254620658501608e+00) (93, 1.90171933314754348920e-01) (94, 1.02893318796887081601e-01) (95, 3.05340365992248563565e-01) (96, 3.37987632976234464444e-01) (97, 7.46404845130997363079e-01) (98, 1.31667471332690455554e+00) (99, 8.80996087109583159158e-02) (100, 2.80545469196046559635e-01) (101, 7.11600699028503980159e-01) (102, 3.10518281088531522549e-01) (103, 7.41848046776606317998e-01) (104, 1.32131852237722613452e+00) (105, 2.81943315954277740065e-01) (106, 3.93802361654336519070e-01) (107, 1.40460227085492372900e+00) (108, 3.59570482299984006680e-01) (109, 7.80684563216521021367e-01) (110, 1.44462004704615831763e+00) (111, 3.44437394139587238495e-01) (112, 2.19966063590119276228e-01) (113, 1.40421054167887926489e+00) (114, 3.51248549611637816970e-01) (115, 6.56241465223389330852e-01) (116, 1.12591278157459817599e+00) (117, 2.18573664388476363030e-01) (118, 3.82413404376576171462e-01) (119, 1.39715001387736537097e+00) (120, 2.66994787694285140578e-01) (121, 7.93104996258276129240e-01) (122, 1.07350808597841762548e+00) (123, 3.76691061851798847382e-01) (124, 3.41844671891391782559e-01) (125, 1.46812951965472482385e+00) (126, 2.79046638251612411086e-01) (127, 6.45417203480260992521e-01) (128, 9.53509409903779192597e-01) (129, 3.13579405040810332839e-01) (130, 3.47311686828544685657e-01) (131, 1.45429502828261614233e+00) (132, 2.73580869973967300002e-01) (133, 7.68187751347082281583e-01) (134, 9.32267387389435930878e-01) (135, 3.12757449538777099196e-01) (136, 4.36394056114900952270e-01) (137, 1.32391275493643023609e+00) (138, 2.35217782051632712248e-01) (139, 7.71821368349152270305e-01) (140, 1.17808810837307520458e+00) (141, 3.97695886285374389235e-01) (142, 8.05287142374495723551e-01) (143, 1.56084582849643149771e+00) (144, 3.19764489622185454909e-01) (145, 8.78409226416840716034e-01) (146, 1.08090117550717912387e+00) (147, 3.80471187026570067946e-01) (148, 8.20323470843392077434e-01) (149, 1.21410758825547548945e+00) (150, 2.95479247660706267897e-01) (151, 1.02792909212151073461e+00) (152, 1.31473601599217460034e+00) (153, 3.79381643922398315016e-01) (154, 7.35165071763972499674e-01) (155, 1.21605942841437864033e+00) (156, 3.76011574195087461270e-01) (157, 1.36598796798131205676e+00) (158, 1.36900007380387522815e+00) (159, 2.66639409900973067824e-01) (160, 1.12529653103596860575e+00) (161, 1.21430341358092674930e+00) (162, 2.49434830175102373317e-01) (163, 1.31740300012967326282e+00) (164, 3.65843977202775461066e+00) (165, 3.18820657522747741286e-01) (166, 6.07954295336008865291e-01) (167, 1.16951994801667580326e+00) (168, 3.71233799980342893399e-01) (169, 1.42963299555918932349e+00) (170, 1.32848535506269671558e+00) (171, 3.49073889048168883864e-01) (172, 6.05122717081309158260e-01) (173, 1.20301316137221703251e+00) (174, 3.39649739058087096755e-01) (175, 1.31134812189480998157e+00) (176, 1.44744944973132372290e+00) (177, 3.65987175629795102871e-01) (178, 7.49647468641851610904e-01) (179, 1.21838440949824700077e+00) (180, 3.35580701322624908034e-01) (181, 1.13461745507346711825e+00) (182, 1.47497408492705606164e+00) (183, 2.86306726129124389235e-01) (184, 9.76664094045230690710e-01) (185, 1.07937982137111077030e+00) (186, 3.50362466962406859938e-01) (187, 8.12389942702605005742e-01) (188, 9.46289991623093906803e-01) (189, 2.37220594973633597258e-01) (190, 4.87838729160952500052e-01) (191, 1.02464670480734998392e+00) (192, 3.79438284607137410465e-01) (193, 4.71309327724093285461e-01) (194, 7.45286289465981188762e-01) (195, 2.83648992271492705886e-01) (196, 8.61544740476588466471e-01) (197, 9.90053647919961754553e-01) (198, 3.81083223791326253238e-01) (199, 5.14976208301895943542e-01) (200, 6.18551438483942228608e-01) (201, 2.35636683495114157560e-01) (202, 7.35464845874289729899e-01) (203, 9.66055107897450748844e-01) (204, 3.74774175078938232009e-01) (205, 5.71499353084314543061e-01) (206, 5.75071921381700712494e-01) (207, 3.40081671567032561843e-01) (208, 5.10159350935951105832e-01) (209, 8.52619272747019985026e-01) (210, 2.94590408296654449050e-01) (211, 6.27867415551677687802e-01) (212, 4.36288026902426129272e-01) (213, 2.87422554881642089430e-01) (214, 4.95113720926988687410e-01) (215, 6.71580206466274920452e-01) (216, 3.02926706464359984938e-01) (217, 2.98722073394368514698e-01) (218, 4.46813195948139119107e-01) (219, 4.02276890666554198805e-01) (220, 4.46951536271322502625e-01) (221, 6.77180968088465395915e-01) (222, 2.81179877312252746169e-01) (223, 4.97704440851424789738e-01) (224, 3.61395110607387048951e-01) (225, 3.87133884997571675601e-01) (226, 3.97943825671895790030e-01) (227, 3.85404699692949215262e-01) (228, 2.14123692211925509277e-01) (229, 3.10291497302599028618e-01) (230, 4.00948795648092493060e-01) (231, 2.23244804711545785647e-01) (232, 3.67424420191829304017e-01) (233, 4.80442888214175745087e-01) (234, 3.25039971468269184296e-01) (235, 2.67803664477342939776e-01) (236, 3.35952770251116972222e-01) (237, 2.90681581766809193912e-01) (238, 3.33711061449254720035e-01) (239, 3.94588935942853658023e-01) (240, 7.66876461718662694178e-02) (241, 1.04400312445385334836e-01) (242, 4.16915254758889741726e-01) (243, 2.40345384748185814106e-01) (244, 2.79978778035844533267e-01) (245, 2.62881386847699849429e-01) (246, 1.18473155937148966199e-01) (247, 2.26287602492402623033e-01) (248, 1.20256703591753194571e-01) (249, 2.99678306849206654849e-01) (250, 3.49437121124471394840e-01) (251, 2.83935602576936452213e-01) (252, 1.83406850836231094526e-01) (253, 7.39991208992704790903e-02) (254, 1.30434599018503460943e-01) (255, 2.39899407894815147602e-01) (256, 3.43691431973959460322e-01) (257, 3.29665574999059407535e-01) (258, 1.20783268055869974500e-01) (259, 7.32516786537870806528e-02) (260, 2.13361587620187975745e-01) (261, 2.26308064849446100020e-01) (262, 2.33789207727978537443e-01) (263, 4.09987317712376342360e-01) (264, 2.13724172255947086896e-01) (265, 6.90218246843294636061e-02) (266, 2.60138895607400999488e-01) (267, 2.86969663889477477614e-01) (268, 2.47505741508076387847e-01) (269, 3.35875230224201903884e-01) (270, 1.01355778566552950926e-01) (271, -2.88139470551534195020e-02) (272, 1.74311314782916004784e-01) (273, 2.56751554400990233962e-01) (274, 2.99333768279621825759e-01) (275, 4.06957717926571593825e-01) (276, 9.29058751113554792678e-02) (277, 7.30096436407045856765e-02) (278, 1.99997802338419794488e-01) (279, 3.64042299182484374587e-01) (280, 2.60490270645687804763e-01) (281, 3.02102530689308867995e-01) (282, 2.12508326418539006397e-02) (283, 7.35582128176541505393e-02) (284, 1.42854136488257343895e-01) (285, 3.02565152139733062331e-01) (286, 2.26801568956444543623e-01) (287, 2.85737442166874633376e-01) (288, 5.50364312006440363489e-03) (289, -2.27540791025310079609e-02) (290, -3.49347352972178976094e-02) (291, 3.69744943769047484938e-01) (292, 3.08687890262673125807e-01) (293, 3.03988376946518645827e-01) (294, 1.91319397232486587690e-01) (295, 1.12749488166390340882e-01) (296, 9.02722972248180821619e-02) (297, 3.55813758761952148024e-01) (298, 3.44176726729939208571e-01) (299, 2.82235609681675658766e-01) (300, 3.88811579501979615037e-02) (0, 5.82240209975231737261e-01) (1, 5.17054029800881109757e-01) (2, 5.43751403339841621332e-01) (3, 4.21119139590252711258e-01) (4, 5.98515168824184984331e-01) (5, 5.65710411467541307573e-01) (6, 5.13216883935917689286e-01) (7, 4.54790970719905651709e-01) (8, 4.08305942128326715412e-01) (9, 4.59386562057722880326e-01) (10, 5.30282564349276008819e-01) (11, 5.30943520255190315460e-01) (12, 4.79829260208596064530e-01) (13, 4.76100733913036033851e-01) (14, 3.76745319256444943790e-01) (15, 5.64521790542591661577e-01) (16, 5.17903618402582588409e-01) (17, 4.86120037622553402556e-01) (18, 5.69217310347546190386e-01) (19, 3.61875767866995157185e-01) (20, 2.95903107109032448285e-01) (21, 5.21089629330624304338e-01) (22, 4.73042883910568312533e-01) (23, 4.24379141070278242953e-01) (24, 4.65076633789528681717e-01) (25, 3.09898099909450830403e-01) (26, 4.16748730423413094037e-01) (27, 4.03017767765511347733e-01) (28, 4.41735944188686169287e-01) (29, 3.08653882182689465186e-01) (30, 4.58961502709378077469e-01) (31, 4.16529714177276910725e-01) (32, 3.53901531855547180072e-01) (33, 4.33674120404709650956e-01) (34, 3.93384647953656907404e-01) (35, 4.20397660173030651709e-01) (36, 5.97471834220875352983e-01) (37, 3.52574052698465145728e-01) (38, 3.18614561723849720742e-01) (39, 5.05724900462616866470e-01) (40, 3.59060433375022358682e-01) (41, 3.55890329043295206013e-01) (42, 4.98207883038510157547e-01) (43, 4.87964457310290977698e-01) (44, 2.84052965629247422541e-01) (45, 6.04769696053842342742e-01) (46, 4.65391659178169325717e-01) (47, 3.26199383475215987094e-01) (48, 4.62209902591806942596e-01) (49, 3.75526633873555393262e-01) (50, 2.89323094598667118760e-01) (51, 1.36398472376200619038e+00) (52, 4.34789750021186083284e-01) (53, 4.22168471910942866288e-01) (54, 3.84043026603561932220e-01) (55, 3.24973877032605884541e-01) (56, 2.51806508116142246934e-01) (57, 1.40666346736285152730e+00) (58, 5.36200882212216178857e-01) (59, 5.69571624737467696598e-01) (60, 5.25814600176912727569e-01) (61, 3.83127737303582904804e-01) (62, 3.04432693235294316025e-01) (63, 1.32793935127589168843e+00) (64, 6.58077592026269919678e-01) (65, 4.21731758158889025179e-01) (66, 4.22286451854695155106e-01) (67, 4.43341900423142643017e-01) (68, 2.87103425077812168809e-01) (69, 5.64129361455322109187e-01) (70, 5.15520921224462247423e-01) (71, 5.09728344212372563860e-01) (72, 5.42139352359760851030e-01) (73, 5.20083280335266850969e-01) (74, 4.09938467133191819514e-01) (75, 6.46318422202945552790e-01) (76, 4.96173160205681751389e-01) (77, 4.17628751136692122348e-01) (78, 5.74285642304409593706e-01) (79, 4.19922540019352863450e-01) (80, 2.67216955709604020441e-01) (81, 5.19730696027160488093e-01) (82, 3.61530596445401142258e-01) (83, 3.41036922345783533039e-01) (84, 4.62158990153063609085e-01) (85, 3.87648687698276595004e-01) (86, 3.38415767059046523890e-01) (87, 4.93668574135985582796e-01) (88, 4.54852069955554216829e-01) (89, 3.36940495706649578711e-01) (90, 4.58510325350750758133e-01) (91, 3.02119956180426807446e-01) (92, 2.31244541336582426494e-01) (93, 6.35634440905011532941e-01) (94, 6.69037810523090192838e-01) (95, 4.74274432695956871253e-01) (96, 5.26774048455693977289e-01) (97, 4.22522661674169297541e-01) (98, -7.25508539683402814413e-02) (99, 5.02873362545848801020e-01) (100, 4.52531765442576616731e-01) (101, 2.68406559090101470844e-01) (102, 5.88730914140773609056e-01) (103, 4.44036257135055012490e-01) (104, -2.08417697132307289110e-01) (105, 5.47142223515499681596e-01) (106, 4.61601978577228233558e-01) (107, -5.21136580712379254843e-02) (108, 4.44366273530711008988e-01) (109, 3.82987436520240254190e-01) (110, -9.98098994866347677402e-01) (111, 4.53881864496458842240e-01) (112, 5.52235694774904417592e-01) (113, -1.50398744524198824113e-01) (114, 4.94865917661179377518e-01) (115, 2.86326473045495744074e-01) (116, 8.67990899959051320778e-02) (117, 5.07722924144930254364e-01) (118, 5.20885088541496954484e-01) (119, -3.16239802844108380819e-02) (120, 4.61836264529217555008e-01) (121, 4.38805107787224979443e-01) (122, 1.32909656130985764921e-01) (123, 4.45976422228802515946e-01) (124, 4.83933582552411978295e-01) (125, -2.26155527181405302528e+00) (126, 4.14664254584301783524e-01) (127, 3.02971567471830127705e-01) (128, 2.61084669203176300556e-01) (129, 5.63458890714634508257e-01) (130, 3.95816131542351068440e-01) (131, -8.60298580751157171420e-01) (132, 5.96172512569416612749e-01) (133, 3.19097171982137439716e-01) (134, 2.99732261270894806415e-01) (135, 4.09100302555550410233e-01) (136, 3.34038070450451196614e-01) (137, -9.14846099242902166537e-01) (138, 5.78332142033566087846e-01) (139, 3.01246520214460633547e-01) (140, 1.65229756945089734099e-01) (141, 4.27617401876438929520e-01) (142, 3.64100870053255309955e-01) (143, -2.89191632435387813160e+00) (144, 4.98564147450913264237e-01) (145, 2.24160450503546465617e-01) (146, 6.53874987153640029047e-03) (147, 4.36754868426312281571e-01) (148, 3.49983661482956232014e-01) (149, 2.15558381362889600608e-02) (150, 4.26476375260342432938e-01) (151, 3.12653671011645095668e-01) (152, 1.99577159811542809154e-01) (153, 4.55082730450619532547e-01) (154, 4.03667059843082598469e-01) (155, -2.52473913751324163801e-01) (156, 4.21962430323196246995e-01) (157, -5.46758680350364484335e-02) (158, -2.29461150116700407509e+00) (159, 5.66011832156170457964e-01) (160, 1.46610008842805394913e-01) (161, -2.84080565593918255018e-01) (162, 5.20223557599523211969e-01) (163, -9.88698883659423211068e-02) (164, -2.31009254849929090980e+00) (165, 5.29620275893200598283e-01) (166, 2.52012694782545287886e-01) (167, -6.28436415202201642538e-02) (168, 4.55984217668605640306e-01) (169, -1.15262856960970244691e-01) (170, -2.39966856933612104896e+00) (171, 5.23084894814480505509e-01) (172, 1.50181534058907995011e-01) (173, -5.79969494349540509726e-02) (174, 5.52390174069393724565e-01) (175, -1.92906720817762611375e-01) (176, -3.66358219391883649374e-02) (177, 4.10320566096295191727e-01) (178, 8.16751367519888832325e-02) (179, -1.86705028892236946092e-01) (180, 5.87223351993550135575e-01) (181, 1.67842590197376101413e-01) (182, -7.68506734377921857382e-02) (183, 5.39696128168095201616e-01) (184, 1.17057324096541334746e-01) (185, -1.22932596386152587220e-01) (186, 4.07063716151703669510e-01) (187, 4.21837684380195088174e-01) (188, 1.45080507680229037204e-01) (189, 5.47061399617184251909e-01) (190, 3.81086659733791521809e-01) (191, 1.36447399248694756224e-01) (192, 5.84230925183978233584e-01) (193, 3.88109049237819470068e-01) (194, 4.15826781700279535237e-01) (195, 5.07338971891392653824e-01) (196, 2.59979006950397661946e-01) (197, -1.14138020674232794349e-02) (198, 4.67249389033999651399e-01) (199, 3.76062339581104077002e-01) (200, 4.51572611044075311604e-01) (201, 5.00781410434235407791e-01) (202, 4.41396919195194414876e-01) (203, 1.30411445726440783366e-01) (204, 4.64129936941851450882e-01) (205, 4.42178263376381219807e-01) (206, 4.11798692355778039875e-01) (207, 4.48839602121104075394e-01) (208, 4.47483865806718839053e-01) (209, 4.10719689290010681049e-01) (210, 4.83480067052830531082e-01) (211, 4.13888318421803291791e-01) (212, 3.62924217293884576740e-01) (213, 4.27974888184059931717e-01) (214, 3.73680166016247095051e-01) (215, 3.03938834975387872639e-01) (216, 5.26387781896580420060e-01) (217, 3.28527306322593859456e-01) (218, 4.49168948414288227156e-01) (219, 5.91470287241925074539e-01) (220, 3.23979868600990594807e-01) (221, 4.02515060315754236164e-01) (222, 5.84768594303120448075e-01) (223, 2.32308453987632307358e-02) (224, 4.34733641449947416646e-01) (225, 5.01951086562361870058e-01) (226, 4.30667609908016280063e-01) (227, 5.15619375743301300297e-01) (228, 5.45979620017994493608e-01) (229, 2.56037380077586806948e-01) (230, 3.15439385478038958333e-01) (231, 4.98907941621031969515e-01) (232, 4.12928814123471210618e-01) (233, 3.97207437138159702439e-01) (234, 6.31866766200552598676e-01) (235, 3.21078616894897694856e-01) (236, 5.40960318538992623871e-01) (237, 4.93960830610480516878e-01) (238, 5.22072942982514165422e-01) (239, 4.89866094718773792405e-01) (240, 5.44819558652109514618e-01) (241, 4.28032706780361427157e-01) (242, 4.49345894377741417181e-01) (243, 5.31858931523051303714e-01) (244, 4.29702485035260151047e-01) (245, 4.99337272773583362717e-01) (246, 6.28733251220143674054e-01) (247, 9.19805154973097560678e-01) (248, 4.85045308801267394117e-01) (249, 5.06869423430648113893e-01) (250, 3.43735130558808277268e-01) (251, 4.02042588274081180710e-01) (252, 4.85750505273223553981e-01) (253, 1.09221862333399877265e+00) (254, 5.13808953198526041639e-01) (255, 5.94316269498553428896e-01) (256, 4.88672997098651140657e-01) (257, 5.80594311695780684879e-01) (258, 6.82519260770238278546e-01) (259, 1.10219951073682587150e+00) (260, 5.98262856337163584364e-01) (261, 4.53812741734970881424e-01) (262, 4.63465787358385616912e-01) (263, 3.62984247393709713592e-01) (264, 1.26374150500903548178e+00) (265, 1.24020339391893430481e+00) (266, 1.29610509268707319031e+00) (267, 5.10614783563603236161e-01) (268, 5.32999031133753131684e-01) (269, 4.80465017147165829314e-01) (270, 1.21320218281159819540e+00) (271, 1.19650922186440511474e+00) (272, 1.15689821623110988824e+00) (273, 5.46452597775448412065e-01) (274, 5.27202971167665901397e-01) (275, 4.34069588668448025359e-01) (276, 1.25851118252883376059e+00) (277, 1.25747047953075452575e+00) (278, 1.26104003272795917034e+00) (279, 5.44167221584309190874e-01) (280, 3.63174706585508877410e-01) (281, 4.52244043238264614715e-01) (282, 1.15893113301406303073e+00) (283, 1.18184704415345409600e+00) (284, 1.25162796012902499676e+00) (285, 4.73350801565636469803e-01) (286, 3.60180012769800717010e-01) (287, 5.87769837179173304520e-01) (288, 1.20321425483832777914e+00) (289, 1.15905165754103878228e+00) (290, 1.16639826528573253839e+00) (291, 4.02087830998886897049e-01) (292, 3.98289684094292217864e-01) (293, 5.42193696894634813432e-01) (294, 5.21008472865975846844e-01) (295, 1.32019005052590610028e+00) (296, 1.19530249096298457623e+00) (297, 5.86412207283963038407e-01) (298, 4.79682297506321742020e-01) (299, 4.40631163367022349320e-01) (300, -4.55322902851498720334e-02) (0, -4.83559349545432740070e-02) (1, -8.59013179310752356121e-02) (2, -5.25448897847129517413e-02) (3, -1.03816045261283088075e-01) (4, -9.71588844427062475750e-02) (5, -1.56935838795561943826e-01) (6, 1.92003511528787208004e-04) (7, -1.75992844439406548318e-01) (8, -4.70183471211387329913e-02) (9, -5.75534680851890259601e-02) (10, -1.51278665102381859597e-01) (11, -1.33234830386300240335e-01) (12, -5.31254837283088379718e-02) (13, -1.20554147101302230882e-01) (14, -2.51601127333363344674e-02) (15, -1.81687390244860802468e-01) (16, -9.88346615799857858287e-02) (17, -4.68722859391166382648e-02) (18, -1.32976276613135491189e-01) (19, -9.09055450924827063153e-02) (20, 1.68711762387792896245e-01) (21, -1.32801150716204796609e-01) (22, -3.10763845213843960258e-02) (23, -9.13155579933120215008e-02) (24, -1.08102304674048563249e-01) (25, 1.20133133228011432236e-01) (26, 1.53172697384397787923e-01) (27, -1.23602809197564264543e-01) (28, -2.09727734785530818204e-03) (29, -8.41714236821669396782e-03) (30, 2.90118362818222964503e-03) (31, 1.34371349210925389306e-01) (32, 9.08143999767706960879e-02) (33, -6.48191401728583915798e-02) (34, 1.06324154196770714886e-01) (35, 1.60313779111094789620e-01) (36, -3.69304100045158220644e-02) (37, 3.96454329676888513403e-04) (38, 1.69145518536753941552e-01) (39, -9.91241911419822457896e-02) (40, 2.18611817120106743939e-01) (41, 2.69141941804436476623e-03) (42, -4.75344637402488404132e-02) (43, 2.84132259833699218898e-01) (44, 2.91727471101170532375e-01) (45, -9.68646531095677804091e-02) (46, -1.19638209975619427827e-01) (47, -2.91902700432731289359e-02) (48, -1.57487010396380577859e-01) (49, 3.39117730903512049068e-01) (50, 2.71636399376278869777e-01) (51, -4.41826938243235989301e-01) (52, -1.71918545952016756095e-02) (53, -1.81523075140376244363e-01) (54, -1.10749987698454968599e-01) (55, 2.67863406735545150905e-01) (56, 3.48200279223805475581e-01) (57, -5.39455536785303668701e-01) (58, -8.42058301664949243603e-02) (59, -5.95474516143972079640e-02) (60, 3.34638562117081607081e-03) (61, 3.16810923564320612300e-01) (62, 2.85839463519936554103e-01) (63, -4.87717453422724378509e-01) (64, -1.76474654743826453451e-01) (65, -1.04431105135934995665e-01) (66, -1.58326601422686730203e-01) (67, 3.84710508334523249019e-01) (68, 3.06980910646801941066e-01) (69, 1.20761121520822686110e-02) (70, -1.42880128393328253988e-01) (71, -1.71001990615385207617e-01) (72, -1.81124558485407982644e-01) (73, 1.79514498469509675704e-01) (74, 2.99380193400269500881e-01) (75, -1.12905522166746249968e-01) (76, -1.11246747254388919646e-01) (77, 1.39800915117450047509e-01) (78, -1.55845871008296166238e-01) (79, 9.62373251291890607906e-02) (80, 2.81601204472666732936e-01) (81, -1.07717906414526123915e-01) (82, -1.03343625842588590635e-01) (83, 2.58936375333741024274e-02) (84, -1.02991049922366309510e-01) (85, 3.79063951718693781245e-01) (86, 2.96439598250275604396e-01) (87, -1.76873868144412194070e-01) (88, -1.75054942360097845477e-02) (89, 1.78676062817759800927e-01) (90, -5.01713881262733155109e-02) (91, 3.78998446214085626949e-01) (92, 5.60034905580121256108e-01) (93, -3.40910313515796592476e-01) (94, -5.30802082302748279297e-01) (95, -6.33686362691625315602e-02) (96, -1.04596188105006357438e-01) (97, 2.68998029577618591457e-01) (98, 5.72167551309859967468e-01) (99, -1.96983644732429165336e-02) (100, -1.41008940814989242041e-01) (101, 5.85723382440644368963e-01) (102, -4.45042345609206104612e-03) (103, 2.71024073409920684963e-01) (104, 6.06113249600923165161e-01) (105, -1.27153312600512630182e-01) (106, -6.25391805538131478892e-02) (107, 6.95991100306937005016e-01) (108, -1.84669835306067620095e-01) (109, 3.73347180831318903316e-01) (110, 5.83457159043348050353e-01) (111, -1.25151710397858773050e-01) (112, -1.55028460360427056131e-01) (113, 6.81238131161162163707e-01) (114, -9.65755188831283056805e-02) (115, 3.33712699758893061031e-01) (116, 5.88572380152779683904e-01) (117, -2.22190001973106045219e-02) (118, -6.52442404993964775173e-02) (119, 6.06963427300879376780e-01) (120, -4.08603826531364136554e-02) (121, 2.76316582161074630886e-01) (122, 2.52366791415101043849e-01) (123, -1.64773931539912377175e-01) (124, -1.32181508279700432595e-01) (125, 5.84295788343378919016e-01) (126, -7.39542150863601172039e-02) (127, 3.54954513656979608882e-01) (128, 3.19698731350785303462e-01) (129, -2.05070802935554165336e-02) (130, 9.53151002480462083977e-02) (131, 6.76451729174086358043e-01) (132, -1.18732144869227521089e-01) (133, 3.00454872596150390773e-01) (134, 6.32146981587237699607e-01) (135, -3.13393006094886475421e-02) (136, 1.33360499139018345849e-01) (137, 6.32803427220380410034e-01) (138, -6.89432898529960119793e-02) (139, 3.58280870067959833491e-01) (140, 5.05696457853145098227e-01) (141, -4.20653615083235645628e-03) (142, 4.61552816356318451607e-01) (143, 4.83725378879166501012e-01) (144, -5.65634945401145630695e-02) (145, 5.24469045033282621482e-01) (146, 4.47122191121405943015e-01) (147, -1.51939568854231987771e-01) (148, 3.12407436693804663186e-01) (149, 5.14935332008458090947e-01) (150, -7.85712281235648596356e-02) (151, 6.31038797130412443259e-01) (152, 6.64535132256585225896e-01) (153, -4.82875088223411255695e-02) (154, 2.76422249997752167427e-01) (155, 4.21811888583756344762e-01) (156, 2.41318550024491275049e-03) (157, 6.40330838204419716675e-01) (158, 6.99696259136626030894e-01) (159, -9.99711656936599496470e-02) (160, 3.86382065771674443333e-01) (161, 4.67555658879766633529e-01) (162, -1.57114533520598564920e-01) (163, 6.85615436668822075816e-01) (164, 7.45946630989662851086e-01) (165, -1.65316907502074394998e-01) (166, 1.35477657436023690707e-01) (167, 3.78967814205741215794e-01) (168, -5.12338856228782349445e-02) (169, 5.54981978173682000133e-01) (170, 5.48306541080901044261e-01) (171, 1.41132196417854509363e-02) (172, 3.19769708501205091045e-02) (173, 3.25910910420902866225e-01) (174, -9.07435620197249853680e-02) (175, 6.63861082430311943980e-01) (176, 6.28296875889727379771e-01) (177, -8.39707309373809301922e-02) (178, 4.78479809515961307387e-01) (179, 4.56755853646286624770e-01) (180, -1.57617566920180474099e-01) (181, 5.53352785316544748540e-01) (182, 6.50836894453561409790e-01) (183, -1.77030904031653557595e-01) (184, 3.06395523308371886539e-01) (185, 4.58185366743096011977e-01) (186, -1.43801169283051644143e-01) (187, 4.15262210118657160152e-01) (188, 3.30149161542551916604e-01) (189, -1.77700003422160301980e-01) (190, 1.08004580258022286898e-01) (191, 4.50849041401004180241e-01) (192, -1.13601175881285779146e-01) (193, 1.03060008580870887673e-01) (194, 3.24498335766678858150e-01) (195, -1.71130565739531670388e-01) (196, 3.90932398761408783638e-01) (197, 3.08375001011943206120e-01) (198, -9.26168913015319311688e-02) (199, 5.61583429529145250481e-02) (200, 2.66251951410248592633e-02) (201, -7.79054442414237463543e-02) (202, 3.23460864747660559182e-01) (203, 2.96994852746622961526e-01) (204, -6.73233473667098486493e-02) (205, 1.49177128071971254464e-01) (206, 1.58896112437434511300e-01) (207, -1.72621568478007469949e-01) (208, 6.81972573292658895694e-02) (209, 3.90411849046843506539e-01) (210, -3.11945209273292202445e-02) (211, 9.54042556476996511661e-02) (212, 1.91451439256854344384e-01) (213, -9.90780422457648995982e-02) (214, 8.50316375448181838159e-02) (215, 2.22158457088356964260e-01) (216, -1.56221484578509484109e-01) (217, 1.44221331436674399251e-01) (218, 2.08738248307745261068e-01) (219, -9.17545014985991919110e-02) (220, 1.33179599042125035302e-01) (221, 2.93370122957116119533e-01) (222, -1.41359602845568810281e-01) (223, -1.61550527916352909541e-01) (224, -2.25671882124810522455e-04) (225, -3.89443615445091081972e-02) (226, 1.80969998194649567269e-02) (227, 9.95972767426445693140e-02) (228, -3.10235003003074306938e-02) (229, -5.56488395790268944308e-02) (230, -1.00977406449382599296e-02) (231, -1.71573255147475256001e-03) (232, 1.38029465648313136306e-02) (233, 1.27960080477376551833e-02) (234, -1.70403068698306237039e-01) (235, -3.12284887890030872504e-02) (236, -6.49616991946306947259e-03) (237, -8.82440600480574426079e-03) (238, -6.00313637752189835362e-03) (239, -1.32141085903831861925e-01) (240, -4.35169180185422110885e-01) (241, -4.00003779557865590810e-01) (242, -7.38621292061528017525e-02) (243, -8.99607369669867956707e-02) (244, 2.73724150751286209732e-03) (245, 4.85742342565709424307e-03) (246, -4.40959801227673697799e-01) (247, -5.46926589015781727809e-01) (248, -5.74103457278927753471e-02) (249, -9.66308468946410620282e-02) (250, -7.55896170725995492079e-02) (251, -1.30542830853717928274e-01) (252, -3.76418252737149405807e-01) (253, -4.10391570333301647366e-01) (254, -4.54940091259252776812e-01) (255, -4.83141968020393067218e-02) (256, -8.62444390645200203993e-02) (257, -1.02677730201738523497e-01) (258, -4.97108814568146872848e-01) (259, -5.25198590768485740199e-01) (260, -3.21173313445818064960e-01) (261, 1.50863697758720511494e-02) (262, -1.47909184730906639871e-01) (263, -1.68358793295283470925e-01) (264, -5.17088664025887601028e-01) (265, -7.49081113548926480483e-01) (266, -4.43298081583741010459e-01) (267, 4.74488940153580587150e-03) (268, -1.57487509585280571756e-01) (269, -8.13406312831832373211e-02) (270, -5.84129358358147499075e-01) (271, -6.72351100655249722671e-01) (272, -5.90446877009632942190e-01) (273, -6.83893391856147253582e-02) (274, -1.61893842554946099099e-01) (275, 1.08871480456398175840e-02) (276, -4.93049714033874098007e-01) (277, -6.82548062117747433852e-01) (278, -5.83869482106926795950e-01) (279, -1.57437061704058800515e-01) (280, -1.78760906494517479715e-01) (281, -6.08623081811858895884e-02) (282, -5.17497699027332003219e-01) (283, -6.78472661563816914487e-01) (284, -5.19083912200692054739e-01) (285, -3.89373281964256121035e-02) (286, -8.27697718509627783368e-02) (287, -6.73156771745222950315e-03) (288, -5.71132864122661065842e-01) (289, -7.03172096201840290952e-01) (290, -8.12117540428105244565e-01) (291, -1.58805725909133110818e-01) (292, -4.40686324604942017413e-02) (293, -1.16009628213305585054e-01) (294, -4.93414399475678611129e-01) (295, -4.37605152554276288779e-01) (296, -4.77019603080513776572e-01) (297, 1.15333965054557965879e-02) (298, -3.56888303526832484369e-02) (299, -3.73356917866660906191e-02) (300, 5.09658532741321557147e-01) (0, 3.80050437839100585524e-01) (1, 2.93428393395016418044e-01) (2, 3.35081429706275968350e-01) (3, 2.96485664637158141677e-01) (4, 3.16359127254555450026e-01) (5, 3.20150794775555358473e-01) (6, 4.04028224141667113845e-01) (7, 2.44871401713550707058e-01) (8, 3.47639853226239747830e-01) (9, 2.31415735871861316664e-01) (10, 2.40292715222904962324e-01) (11, 2.57415006251404510085e-01) (12, 3.14510325284073577468e-01) (13, 4.16479492114246396817e-01) (14, 3.50877423125586729302e-01) (15, 2.60397555620739684645e-01) (16, 3.07891937286923156325e-01) (17, 3.13595528097222076003e-01) (18, 2.89856979937622771804e-01) (19, 2.62924039827878541775e-01) (20, 3.80461630061164346461e-01) (21, 3.15875822992394195143e-01) (22, 4.00135213063419370449e-01) (23, 4.14310025365421996657e-01) (24, 3.58360441715786681716e-01) (25, 3.63246249126489229031e-01) (26, 5.74199739237218786947e-01) (27, 3.54718404204914794509e-01) (28, 3.08837236390769986905e-01) (29, 2.92593078242004422940e-01) (30, 2.54560301394531951491e-01) (31, 4.18739771568543805991e-01) (32, 5.87163761557289332060e-01) (33, 3.61126767785618529860e-01) (34, 5.88297087487549941187e-01) (35, 2.66635348574579267300e-01) (36, 2.63404948951075301711e-01) (37, 4.75001003181404923836e-01) (38, 6.88449769166065927983e-01) (39, 3.78985079319546447341e-01) (40, 9.73051060914292498261e-01) (41, 4.53136609965331227379e-01) (42, 2.18527460784981641950e-01) (43, 5.06928179077205220970e-01) (44, 6.95983674240666094768e-01) (45, 2.55892890096440894787e-01) (46, 2.77847109676668868605e-01) (47, 3.72753369004795775954e-01) (48, 2.31880272121498920423e-01) (49, 6.21437471024093190941e-01) (50, 8.19718020853354212285e-01) (51, 1.28716355683313771197e-01) (52, 2.39624615581239402973e-01) (53, 3.75237943918774352614e-01) (54, 3.55940150411198363845e-01) (55, 7.93064673716085577482e-01) (56, 7.22524802085711237432e-01) (57, 5.54648747689863164112e-02) (58, 2.70433955882574572627e-01) (59, 3.78536704750264851871e-01) (60, 3.36607480735848174636e-01) (61, 7.66598140174406195158e-01) (62, 6.45347150859190699101e-01) (63, 5.91768806822439707993e-02) (64, 2.50375793372179522578e-01) (65, 2.95625665281797900263e-01) (66, 3.14361753256390319411e-01) (67, 6.22248422018584768090e-01) (68, 6.73729005154921289922e-01) (69, 2.88574109376206977551e-01) (70, 2.57020571325804247920e-01) (71, 3.70230484576429097476e-01) (72, 2.45735491008827883208e-01) (73, 4.17023628129546519716e-01) (74, 8.09139687431412402141e-01) (75, 2.30332458914056431576e-01) (76, 2.22484405906404336672e-01) (77, 2.66506900565088300503e-01) (78, 2.65477685571978316847e-01) (79, 2.67128265012775034659e-01) (80, 8.01073003423767748821e-01) (81, 2.17482534525349491261e-01) (82, 3.78122169347013203922e-01) (83, 5.76152505451209551168e-01) (84, 4.08588083775112853591e-01) (85, 5.34705841754237076735e-01) (86, 8.82855725564936855143e-01) (87, 2.63399717686131296102e-01) (88, 3.70846438975537984195e-01) (89, 3.36809467737207324234e-01) (90, 2.76656409279764203824e-01) (91, 5.69397341124114553246e-01) (92, 1.08684769994842134189e+00) (93, 6.03237820811411418198e-02) (94, 1.39095600510372757741e-01) (95, 3.37394045220077543057e-01) (96, 4.20517945216358213223e-01) (97, 6.65898825836735430705e-01) (98, 1.32379081128380038379e+00) (99, 7.90914283608930845926e-02) (100, 3.95405117244924275699e-01) (101, 1.06629044489137414509e+00) (102, 4.20841911361873655117e-01) (103, 6.47578353878809687139e-01) (104, 1.31221014661929347156e+00) (105, 3.62686846253692463105e-01) (106, 3.38389435874517030545e-01) (107, 1.32503197370311953662e+00) (108, 2.36851298735798021511e-01) (109, 7.87907722291304346562e-01) (110, 1.35186145855328776477e+00) (111, 3.70629567501365497773e-01) (112, 4.05157538445065246169e-01) (113, 1.32032104237220027088e+00) (114, 3.96072553784916625563e-01) (115, 8.09122610700684252727e-01) (116, 1.20991229242908104879e+00) (117, 2.04105024299441217828e-01) (118, 2.49610133317529486741e-01) (119, 1.38803200079343058704e+00) (120, 2.44093502254555422271e-01) (121, 7.28023958677309179777e-01) (122, 1.08506793059154715841e+00) (123, 2.40204937604486384872e-01) (124, 3.93439748809993772305e-01) (125, 1.40623817248484850317e+00) (126, 3.74614181311199889723e-01) (127, 7.79542585188406134122e-01) (128, 1.01111204641987262320e+00) (129, 4.16263060958454833571e-01) (130, 4.20746522115762300320e-01) (131, 1.42675730986735582739e+00) (132, 3.51794170529911742751e-01) (133, 8.03628568822401190275e-01) (134, 1.01045998650719104361e+00) (135, 3.81862374336788878981e-01) (136, 5.27597831660277849508e-01) (137, 1.34669242454907633899e+00) (138, 2.24752398521969598555e-01) (139, 7.90816712987976733196e-01) (140, 9.17744423222982219635e-01) (141, 2.94471914262840972487e-01) (142, 8.50474638023356654948e-01) (143, 1.37604012980363243912e+00) (144, 3.32651013822624908034e-01) (145, 9.68420726238980456024e-01) (146, 1.24897662527190789206e+00) (147, 2.77357211650679336135e-01) (148, 5.74640508950281958533e-01) (149, 1.07490995185978266413e+00) (150, 3.83247273356983886305e-01) (151, 9.90224133205854228912e-01) (152, 1.31045732636929557202e+00) (153, 3.69056048185894713942e-01) (154, 8.51320502438525417155e-01) (155, 1.26337582316068219868e+00) (156, 3.03794616387546567715e-01) (157, 1.37771095736167170642e+00) (158, 1.35044183982751109241e+00) (159, 2.52025092334816680495e-01) (160, 1.03970315100199872660e+00) (161, 1.12086237053182968815e+00) (162, 4.07282793448627500332e-01) (163, 1.31002293927809931873e+00) (164, 3.60043955390455705512e+00) (165, 3.54861216933796630446e-01) (166, 