FANN_FLO_2.1
num_layers=3
learning_rate=0.700000
connection_rate=1.000000
network_type=0
learning_momentum=0.000000
training_algorithm=2
train_error_function=1
train_stop_function=0
cascade_output_change_fraction=0.010000
quickprop_decay=-0.000100
quickprop_mu=1.750000
rprop_increase_factor=1.200000
rprop_decrease_factor=0.500000
rprop_delta_min=0.000000
rprop_delta_max=50.000000
rprop_delta_zero=0.100000
cascade_output_stagnation_epochs=12
cascade_candidate_change_fraction=0.010000
cascade_candidate_stagnation_epochs=12
cascade_max_out_epochs=150
cascade_max_cand_epochs=150
cascade_num_candidate_groups=2
bit_fail_limit=3.49999999999999977796e-01
cascade_candidate_limit=1.00000000000000000000e+03
cascade_weight_multiplier=4.00000000000000022204e-01
cascade_activation_functions_count=10
cascade_activation_functions=3 5 7 8 10 11 14 15 16 17 
cascade_activation_steepnesses_count=4
cascade_activation_steepnesses=2.50000000000000000000e-01 5.00000000000000000000e-01 7.50000000000000000000e-01 1.00000000000000000000e+00 
layer_sizes=301 21 3 
scale_included=0
neurons (num_inputs, activation_function, activation_steepness)=(0, 0, 0.00000000000000000000e+00) (0, 0, 0.00000000000000000000e+00) (0, 0, 0.00000000000000000000e+00) (0, 0, 0.00000000000000000000e+00) (0, 0, 0.00000000000000000000e+00) (0, 0, 0.00000000000000000000e+00) (0, 0, 0.00000000000000000000e+00) (0, 0, 0.00000000000000000000e+00) (0, 0, 0.00000000000000000000e+00) (0, 0, 0.00000000000000000000e+00) (0, 0, 0.00000000000000000000e+00) (0, 0, 0.00000000000000000000e+00) (0, 0, 0.00000000000000000000e+00) (0, 0, 0.00000000000000000000e+00) (0, 0, 0.00000000000000000000e+00) (0, 0, 0.00000000000000000000e+00) (0, 0, 0.00000000000000000000e+00) (0, 0, 0.00000000000000000000e+00) (0, 0, 0.00000000000000000000e+00) (0, 0, 0.00000000000000000000e+00) (0, 0, 0.00000000000000000000e+00) (0, 0, 0.00000000000000000000e+00) (0, 0, 0.00000000000000000000e+00) (0, 0, 0.00000000000000000000e+00) (0, 0, 0.00000000000000000000e+00) (0, 0, 0.00000000000000000000e+00) (0, 0, 0.00000000000000000000e+00) (0, 0, 0.00000000000000000000e+00) (0, 0, 0.00000000000000000000e+00) (0, 0, 0.00000000000000000000e+00) (0, 0, 0.00000000000000000000e+00) (0, 0, 0.00000000000000000000e+00) (0, 0, 0.00000000000000000000e+00) (0, 0, 0.00000000000000000000e+00) (0, 0, 0.00000000000000000000e+00) (0, 0, 0.00000000000000000000e+00) (0, 0, 0.00000000000000000000e+00) (0, 0, 0.00000000000000000000e+00) (0, 0, 0.00000000000000000000e+00) (0, 0, 0.00000000000000000000e+00) (0, 0, 0.00000000000000000000e+00) (0, 0, 0.00000000000000000000e+00) (0, 0, 0.00000000000000000000e+00) (0, 0, 0.00000000000000000000e+00) (0, 0, 0.00000000000000000000e+00) (0, 0, 0.00000000000000000000e+00) (0, 0, 0.00000000000000000000e+00) (0, 0, 0.00000000000000000000e+00) (0, 0, 0.00000000000000000000e+00) (0, 0, 0.00000000000000000000e+00) (0, 0, 0.00000000000000000000e+00) (0, 0, 0.00000000000000000000e+00) (0, 0, 0.00000000000000000000e+00) (0, 0, 0.00000000000000000000e+00) (0, 0, 0.00000000000000000000e+00) (0, 0, 0.00000000000000000000e+00) (0, 0, 0.00000000000000000000e+00) (0, 0, 0.00000000000000000000e+00) (0, 0, 0.00000000000000000000e+00) (0, 0, 0.00000000000000000000e+00) (0, 0, 0.00000000000000000000e+00) (0, 0, 0.00000000000000000000e+00) (0, 0, 0.00000000000000000000e+00) (0, 0, 0.00000000000000000000e+00) (0, 0, 0.00000000000000000000e+00) (0, 0, 0.00000000000000000000e+00) (0, 0, 0.00000000000000000000e+00) (0, 0, 0.00000000000000000000e+00) (0, 0, 0.00000000000000000000e+00) (0, 0, 0.00000000000000000000e+00) (0, 0, 0.00000000000000000000e+00) (0, 0, 0.00000000000000000000e+00) (0, 0, 0.00000000000000000000e+00) (0, 0, 0.00000000000000000000e+00) (0, 0, 0.00000000000000000000e+00) (0, 0, 0.00000000000000000000e+00) (0, 0, 0.00000000000000000000e+00) (0, 0, 0.00000000000000000000e+00) (0, 0, 0.00000000000000000000e+00) (0, 0, 0.00000000000000000000e+00) (0, 0, 0.00000000000000000000e+00) (0, 0, 0.00000000000000000000e+00) (0, 0, 0.00000000000000000000e+00) (0, 0, 0.00000000000000000000e+00) (0, 0, 0.00000000000000000000e+00) (0, 0, 0.00000000000000000000e+00) (0, 0, 0.00000000000000000000e+00) (0, 0, 0.00000000000000000000e+00) (0, 0, 0.00000000000000000000e+00) (0, 0, 0.00000000000000000000e+00) (0, 0, 0.00000000000000000000e+00) (0, 0, 0.00000000000000000000e+00) (0, 0, 0.00000000000000000000e+00) (0, 0, 0.00000000000000000000e+00) (0, 0, 0.00000000000000000000e+00) (0, 0, 0.00000000000000000000e+00) (0, 0, 0.00000000000000000000e+00) (0, 0, 0.00000000000000000000e+00) (0, 0, 0.00000000000000000000e+00) (0, 0, 0.00000000000000000000e+00) (0, 0, 0.00000000000000000000e+00) (0, 0, 0.00000000000000000000e+00) (0, 0, 0.00000000000000000000e+00) (0, 0, 0.00000000000000000000e+00) (0, 0, 0.00000000000000000000e+00) (0, 0, 0.00000000000000000000e+00) (0, 0, 0.00000000000000000000e+00) (0, 0, 0.00000000000000000000e+00) (0, 0, 0.00000000000000000000e+00) (0, 0, 0.00000000000000000000e+00) (0, 0, 0.00000000000000000000e+00) (0, 0, 0.00000000000000000000e+00) (0, 0, 0.00000000000000000000e+00) (0, 0, 0.00000000000000000000e+00) (0, 0, 0.00000000000000000000e+00) (0, 0, 0.00000000000000000000e+00) (0, 0, 0.00000000000000000000e+00) (0, 0, 0.00000000000000000000e+00) (0, 0, 0.00000000000000000000e+00) (0, 0, 0.00000000000000000000e+00) (0, 0, 0.00000000000000000000e+00) (0, 0, 0.00000000000000000000e+00) (0, 0, 0.00000000000000000000e+00) (0, 0, 0.00000000000000000000e+00) (0, 0, 0.00000000000000000000e+00) (0, 0, 0.00000000000000000000e+00) (0, 0, 0.00000000000000000000e+00) (0, 0, 0.00000000000000000000e+00) (0, 0, 0.00000000000000000000e+00) (0, 0, 0.00000000000000000000e+00) (0, 0, 0.00000000000000000000e+00) (0, 0, 0.00000000000000000000e+00) (0, 0, 0.00000000000000000000e+00) (0, 0, 0.00000000000000000000e+00) (0, 0, 0.00000000000000000000e+00) (0, 0, 0.00000000000000000000e+00) (0, 0, 0.00000000000000000000e+00) (0, 0, 0.00000000000000000000e+00) (0, 0, 0.00000000000000000000e+00) (0, 0, 0.00000000000000000000e+00) (0, 0, 0.00000000000000000000e+00) (0, 0, 0.00000000000000000000e+00) (0, 0, 0.00000000000000000000e+00) (0, 0, 0.00000000000000000000e+00) (0, 0, 0.00000000000000000000e+00) (0, 0, 0.00000000000000000000e+00) (0, 0, 0.00000000000000000000e+00) (0, 0, 0.00000000000000000000e+00) (0, 0, 0.00000000000000000000e+00) (0, 0, 0.00000000000000000000e+00) (0, 0, 0.00000000000000000000e+00) (0, 0, 0.00000000000000000000e+00) (0, 0, 0.00000000000000000000e+00) (0, 0, 0.00000000000000000000e+00) (0, 0, 0.00000000000000000000e+00) (0, 0, 0.00000000000000000000e+00) (0, 0, 0.00000000000000000000e+00) (0, 0, 0.00000000000000000000e+00) (0, 0, 0.00000000000000000000e+00) (0, 0, 0.00000000000000000000e+00) (0, 0, 0.00000000000000000000e+00) (0, 0, 0.00000000000000000000e+00) (0, 0, 0.00000000000000000000e+00) (0, 0, 0.00000000000000000000e+00) (0, 0, 0.00000000000000000000e+00) (0, 0, 0.00000000000000000000e+00) (0, 0, 0.00000000000000000000e+00) (0, 0, 0.00000000000000000000e+00) (0, 0, 0.00000000000000000000e+00) (0, 0, 0.00000000000000000000e+00) (0, 0, 0.00000000000000000000e+00) (0, 0, 0.00000000000000000000e+00) (0, 0, 0.00000000000000000000e+00) (0, 0, 0.00000000000000000000e+00) (0, 0, 0.00000000000000000000e+00) (0, 0, 0.00000000000000000000e+00) (0, 0, 0.00000000000000000000e+00) (0, 0, 0.00000000000000000000e+00) (0, 0, 0.00000000000000000000e+00) (0, 0, 0.00000000000000000000e+00) (0, 0, 0.00000000000000000000e+00) (0, 0, 0.00000000000000000000e+00) (0, 0, 0.00000000000000000000e+00) (0, 0, 0.00000000000000000000e+00) (0, 0, 0.00000000000000000000e+00) (0, 0, 0.00000000000000000000e+00) (0, 0, 0.00000000000000000000e+00) (0, 0, 0.00000000000000000000e+00) (0, 0, 0.00000000000000000000e+00) (0, 0, 0.00000000000000000000e+00) (0, 0, 0.00000000000000000000e+00) (0, 0, 0.00000000000000000000e+00) (0, 0, 0.00000000000000000000e+00) (0, 0, 0.00000000000000000000e+00) (0, 0, 0.00000000000000000000e+00) (0, 0, 0.00000000000000000000e+00) (0, 0, 0.00000000000000000000e+00) (0, 0, 0.00000000000000000000e+00) (0, 0, 0.00000000000000000000e+00) (0, 0, 0.00000000000000000000e+00) (0, 0, 0.00000000000000000000e+00) (0, 0, 0.00000000000000000000e+00) (0, 0, 0.00000000000000000000e+00) (0, 0, 0.00000000000000000000e+00) (0, 0, 0.00000000000000000000e+00) (0, 0, 0.00000000000000000000e+00) (0, 0, 0.00000000000000000000e+00) (0, 0, 0.00000000000000000000e+00) (0, 0, 0.00000000000000000000e+00) (0, 0, 0.00000000000000000000e+00) (0, 0, 0.00000000000000000000e+00) (0, 0, 0.00000000000000000000e+00) (0, 0, 0.00000000000000000000e+00) (0, 0, 0.00000000000000000000e+00) (0, 0, 0.00000000000000000000e+00) (0, 0, 0.00000000000000000000e+00) (0, 0, 0.00000000000000000000e+00) (0, 0, 0.00000000000000000000e+00) (0, 0, 0.00000000000000000000e+00) (0, 0, 0.00000000000000000000e+00) (0, 0, 0.00000000000000000000e+00) (0, 0, 0.00000000000000000000e+00) (0, 0, 0.00000000000000000000e+00) (0, 0, 0.00000000000000000000e+00) (0, 0, 0.00000000000000000000e+00) (0, 0, 0.00000000000000000000e+00) (0, 0, 0.00000000000000000000e+00) (0, 0, 0.00000000000000000000e+00) (0, 0, 0.00000000000000000000e+00) (0, 0, 0.00000000000000000000e+00) (0, 0, 0.00000000000000000000e+00) (0, 0, 0.00000000000000000000e+00) (0, 0, 0.00000000000000000000e+00) (0, 0, 0.00000000000000000000e+00) (0, 0, 0.00000000000000000000e+00) (0, 0, 0.00000000000000000000e+00) (0, 0, 0.00000000000000000000e+00) (0, 0, 0.00000000000000000000e+00) (0, 0, 0.00000000000000000000e+00) (0, 0, 0.00000000000000000000e+00) (0, 0, 0.00000000000000000000e+00) (0, 0, 0.00000000000000000000e+00) (0, 0, 0.00000000000000000000e+00) (0, 0, 0.00000000000000000000e+00) (0, 0, 0.00000000000000000000e+00) (0, 0, 0.00000000000000000000e+00) (0, 0, 0.00000000000000000000e+00) (0, 0, 0.00000000000000000000e+00) (0, 0, 0.00000000000000000000e+00) (0, 0, 0.00000000000000000000e+00) (0, 0, 0.00000000000000000000e+00) (0, 0, 0.00000000000000000000e+00) (0, 0, 0.00000000000000000000e+00) (0, 0, 0.00000000000000000000e+00) (0, 0, 0.00000000000000000000e+00) (0, 0, 0.00000000000000000000e+00) (0, 0, 0.00000000000000000000e+00) (0, 0, 0.00000000000000000000e+00) (0, 0, 0.00000000000000000000e+00) (0, 0, 0.00000000000000000000e+00) (0, 0, 0.00000000000000000000e+00) (0, 0, 0.00000000000000000000e+00) (0, 0, 0.00000000000000000000e+00) (0, 0, 0.00000000000000000000e+00) (0, 0, 0.00000000000000000000e+00) (0, 0, 0.00000000000000000000e+00) (0, 0, 0.00000000000000000000e+00) (0, 0, 0.00000000000000000000e+00) (0, 0, 0.00000000000000000000e+00) (0, 0, 0.00000000000000000000e+00) (0, 0, 0.00000000000000000000e+00) (0, 0, 0.00000000000000000000e+00) (0, 0, 0.00000000000000000000e+00) (0, 0, 0.00000000000000000000e+00) (0, 0, 0.00000000000000000000e+00) (0, 0, 0.00000000000000000000e+00) (0, 0, 0.00000000000000000000e+00) (0, 0, 0.00000000000000000000e+00) (0, 0, 0.00000000000000000000e+00) (0, 0, 0.00000000000000000000e+00) (0, 0, 0.00000000000000000000e+00) (0, 0, 0.00000000000000000000e+00) (0, 0, 0.00000000000000000000e+00) (0, 0, 0.00000000000000000000e+00) (0, 0, 0.00000000000000000000e+00) (0, 0, 0.00000000000000000000e+00) (0, 0, 0.00000000000000000000e+00) (0, 0, 0.00000000000000000000e+00) (0, 0, 0.00000000000000000000e+00) (0, 0, 0.00000000000000000000e+00) (0, 0, 0.00000000000000000000e+00) (0, 0, 0.00000000000000000000e+00) (0, 0, 0.00000000000000000000e+00) (0, 0, 0.00000000000000000000e+00) (0, 0, 0.00000000000000000000e+00) (0, 0, 0.00000000000000000000e+00) (0, 0, 0.00000000000000000000e+00) (0, 0, 0.00000000000000000000e+00) (0, 0, 0.00000000000000000000e+00) (0, 0, 0.00000000000000000000e+00) (0, 0, 0.00000000000000000000e+00) (301, 5, 5.00000000000000000000e-01) (301, 5, 5.00000000000000000000e-01) (301, 5, 5.00000000000000000000e-01) (301, 5, 5.00000000000000000000e-01) (301, 5, 5.00000000000000000000e-01) (301, 5, 5.00000000000000000000e-01) (301, 5, 5.00000000000000000000e-01) (301, 5, 5.00000000000000000000e-01) (301, 5, 5.00000000000000000000e-01) (301, 5, 5.00000000000000000000e-01) (301, 5, 5.00000000000000000000e-01) (301, 5, 5.00000000000000000000e-01) (301, 5, 5.00000000000000000000e-01) (301, 5, 5.00000000000000000000e-01) (301, 5, 5.00000000000000000000e-01) (301, 5, 5.00000000000000000000e-01) (301, 5, 5.00000000000000000000e-01) (301, 5, 5.00000000000000000000e-01) (301, 5, 5.00000000000000000000e-01) (301, 5, 5.00000000000000000000e-01) (0, 5, 0.00000000000000000000e+00) (21, 5, 5.00000000000000000000e-01) (21, 5, 5.00000000000000000000e-01) (0, 5, 0.00000000000000000000e+00) 
connections (connected_to_neuron, weight)=(0, -2.32031457684555630916e-01) (1, -1.38873287103691678279e-01) (2, -1.63805030844727139705e-01) (3, -2.06127226911106686824e-01) (4, 3.37800835051021763888e-01) (5, -5.39340605955511420699e-02) (6, -1.40878886542835812801e-01) (7, -1.77795094064989667171e-01) (8, -2.32168503664055447810e-01) (9, -9.24682846289068549606e-02) (10, 2.82040786721191705233e-01) (11, -1.33714862726250272029e-01) (12, -8.86423395462972579795e-02) (13, -1.33834044773195437461e-01) (14, -1.89971077580068731239e-01) (15, -8.88977279882818549606e-02) (16, 3.73554353393993565646e-01) (17, -2.19498321972408871883e-01) (18, -1.49328771371458196571e-01) (19, -1.59664216775510930946e-01) (20, -1.35078291732881716758e-01) (21, -1.43065877817192654842e-01) (22, -5.71773281317144721481e-02) (23, -1.67525068483868222469e-01) (24, -1.91888119418237829139e-01) (25, -5.97596274205190597373e-02) (26, -2.34122532744024419715e-01) (27, -1.85390454344072919124e-01) (28, -3.46716871481329430571e-02) (29, -1.52777843735733609432e-01) (30, -8.64538034420400947067e-02) (31, -3.42327436428457726469e-02) (32, -5.91807296495825141402e-02) (33, -2.17788436077156644100e-01) (34, -2.07889564893761258357e-01) (35, -1.56909525952854733699e-01) (36, -4.43677262850744325018e-02) (37, -1.16298050246754283710e-01) (38, -1.02234222553291925761e-01) (39, -3.89502128582388390532e-02) (40, -1.76295925490179639095e-01) (41, -5.57230791073232978317e-02) (42, -1.45310285825346136024e-01) (43, -2.27352254651108365291e-01) (44, -1.57086725670908117225e-01) (45, -9.25797304134756415817e-02) (46, -8.37795963507086127731e-02) (47, -2.13946387730160336726e-01) (48, -8.47232596465093551474e-02) (49, -1.95522338710346799129e-01) (50, -1.41140210766409063270e-01) (51, -1.77099939994135480159e-01) (52, -1.06117807887116083476e-01) (53, -1.60731539688625912898e-01) (54, -1.17270212013338259727e-01) (55, -6.55355410166723190146e-02) (56, -1.88020757723663473060e-01) (57, -1.08691126666584619853e-01) (58, -2.13339977524796109432e-01) (59, -1.85106423310556988948e-01) (60, -2.34114180643175268104e-01) (61, -7.24389956780416427451e-02) (62, -1.91984377194259786537e-01) (63, -5.57088932018667548629e-02) (64, 4.15358622350177952853e-01) (65, -1.62287928722420315975e-01) (66, -3.03458864298011610217e-01) (67, -6.45387278386098800498e-02) (68, -1.69426417406942225741e-01) (69, -5.50274656601888595420e-02) (70, 4.02097125329456517306e-01) (71, -1.95056720960949087074e-01) (72, -1.96475377735044282046e-01) (73, -1.78742810476635122230e-01) (74, -3.36376685438893485713e-01) (75, -1.97780846942279958656e-01) (76, -3.88521359749776917791e-02) (77, -4.12477658577901917791e-02) (78, -1.79256840933178090980e-01) (79, -8.59893964119893966513e-02) (80, -2.04299706358526372840e-01) (81, -2.01006254609967988101e-01) (82, -2.30618934471223974159e-01) (83, -1.96142351683522980776e-01) (84, -2.11072164911840581825e-01) (85, 3.62812523521862217990e-01) (86, -1.00781016610184320781e-01) (87, -2.79702140447046110339e-01) (88, -3.04719085302497694201e-01) (89, -2.04961440023328583804e-01) (90, -1.14142927665327256759e-01) (91, 2.90063631512604058749e-01) (92, -1.16503581963101024432e-01) (93, -1.86736530121709626284e-01) (94, -3.24485747572328397936e-01) (95, -2.59985430594827482409e-01) (96, -1.98358818281505727699e-01) (97, 4.66027548033677962991e-01) (98, -1.63627304695168118709e-01) (99, -3.30199225303079435534e-01) (100, -2.89604811426545927233e-01) (101, -3.20370672699357816882e-01) (102, -1.69474694270704412391e-01) (103, 5.34460715409919129293e-01) (104, 3.29783421732864567844e-01) (105, -2.40022479053880494204e-01) (106, -2.85378139197677849204e-01) (107, -2.57677968323082207114e-01) (108, -1.20373383722820873065e-01) (109, 6.54863029026721443770e-01) (110, 2.80113921292505563265e-01) (111, -2.05282289266437767417e-01) (112, 3.13921284653625787264e-01) (113, -3.23678131094622567598e-01) (114, -1.27448171935597071025e-01) (115, 1.78465714749474302359e+00) (116, 7.10080615484450783370e-01) (117, -3.13954021513313530356e-01) (118, 5.63394261021100906106e-01) (119, -3.45333087137389138643e-01) (120, -4.49389895420462121001e-02) (121, 4.09919179653371656968e+00) (122, 6.15676782333587357954e-01) (123, -2.84008746212935148101e-01) (124, 1.66242951998067711727e-01) (125, -3.49280856087202584703e+00) (126, -3.31763407211691369048e-02) (127, 4.10746372168506468370e+00) (128, 7.30590171420310463546e-01) (129, -3.19369827574705777984e-01) (130, 7.77602996241514410336e-01) (131, -6.60889496856609603981e+00) (132, -1.28922671638050684306e-01) (133, 1.68614460226673856802e+00) (134, 6.22248932027553047774e-01) (135, -1.57979732808019496249e-01) (136, 7.32007127913260502439e-01) (137, -6.51812517845312378029e+00) (138, -2.64992079194928953356e-01) (139, 2.45214497314576646003e-01) (140, -2.95322785964655831759e-01) (141, -1.02212558824632829269e-01) (142, 1.16157527826802731141e+00) (143, -1.08857588791803627792e+00) (144, -2.00582151478743420103e-01) (145, -2.90575208953070596163e-01) (146, -3.24303117758249936919e-01) (147, -7.18269453831655441123e-02) (148, 5.03775557000123885842e-01) (149, -3.91041040262627592750e-01) (150, -1.60125753339673854159e-01) (151, -2.66332196882414828920e-01) (152, -2.26613337984728879793e-01) (153, -1.52384497783699612850e-01) (154, 3.94805205482923415872e-01) (155, 1.86409641962139466242e-01) (156, -1.54853809356540972342e-01) (157, -3.38976036488861320883e-01) (158, -2.40441317549395627839e-01) (159, -1.80073882332491996827e-01) (160, 4.73931668753870471988e+00) (161, 1.27020875695224488844e+00) (162, -2.89989765465111015708e-01) (163, 4.18904100336513707248e-01) (164, -2.71202858269066093833e-01) (165, -2.23551074853587217195e-01) (166, 6.53213950599227999305e+00) (167, 4.25897629969055724342e-01) (168, -1.24501929245510706279e-01) (169, 1.05390837602393627748e+00) (170, -3.14802419125885246665e-01) (171, 1.16615842614804753052e-02) (172, 7.83589828109376185239e+00) (173, 7.02872249769519008566e-01) (174, -8.62968495111852973434e-02) (175, 1.17620665393846035585e+00) (176, -1.32320829294243436092e-01) (177, -1.35570985723716008753e-01) (178, 1.96722239720983815836e+00) (179, 4.73160197935639098565e-02) (180, 4.15664239541692515090e-01) (181, 1.44138619421706337675e+00) (182, 3.65942408122501561252e-01) (183, -3.73047481170344308321e-01) (184, -4.00935943970941038872e-02) (185, 5.41529690878955527467e-01) (186, 3.86368966416520853713e-01) (187, 1.31728391467318672881e+00) (188, 5.36907566208326247903e-01) (189, -1.91606837987751243979e-01) (190, -1.39251045647448307152e-01) (191, -2.12286887262892109973e+00) (192, 3.94226967112226267531e-01) (193, 1.37311539916978020415e+00) (194, 4.00108774620973495217e-01) (195, -5.72476583349508238996e-01) (196, -3.36143876305270150606e-01) (197, -3.23993550341085967403e+00) (198, 4.75304237322015432632e-01) (199, 5.29463765639745620462e-01) (200, 3.06369867898903192049e-01) (201, -2.01596546649784325034e-01) (202, -2.15736347913593529135e-01) (203, -6.18166600468724847239e-01) (204, -6.79060449819952338668e-02) (205, 4.63512492794477370950e-01) (206, 3.07971891738853753573e-01) (207, -1.67756476066628079646e-01) (208, -1.41990170441189389461e-01) (209, -2.00005651078739743465e-01) (210, -1.46241009793797116512e-01) (211, 3.79575733818493077365e-01) (212, 4.23672382511577794162e-01) (213, -2.15828240476170163387e-01) (214, 3.81757755555591771213e-01) (215, -2.08563767931976895564e-01) (216, -7.30199297886282294723e-02) (217, 4.06028349675617405978e-01) (218, 2.91011974938593209750e-01) (219, -1.18522018752613658710e-01) (220, 5.11967149991475856119e-01) (221, -1.50256731174507718318e-01) (222, -8.41973653059393256637e-02) (223, 5.44095767158948806497e-01) (224, 4.05150507368526646701e-01) (225, -6.64982428770452826949e-02) (226, 3.08807101823768914706e-01) (227, -2.23763906024017911189e-01) (228, -6.76231613378912299606e-02) (229, 5.68892983216726211282e-01) (230, 3.91290236987552830783e-01) (231, -1.96782924793282132381e-01) (232, 3.71082042135677525607e-01) (233, -1.41780526004353146785e-01) (234, -1.18604094348469371600e-01) (235, 3.35646387912712285129e-01) (236, 4.07322351612529942599e-01) (237, -4.61618384342581261626e-02) (238, 4.00360320486507603732e-01) (239, 2.97802571930370629794e-01) (240, -2.13697083852806668514e-01) (241, 2.86589712627611459261e-01) (242, -2.26151370070496182674e-01) (243, -2.25554340146103482478e-01) (244, 3.03231869615993798739e-01) (245, 3.88076801576099583713e-01) (246, -2.01647714338818173641e-01) (247, -2.05317691526928525203e-01) (248, -1.09424539468804010722e-01) (249, -1.46165371499577145809e-01) (250, 3.76630727924785801974e-01) (251, 2.88132996090135873324e-01) (252, -6.39516940336614797546e-02) (253, -1.43096276186028104060e-01) (254, -2.18180947564163785213e-01) (255, -9.43308254700094550582e-02) (256, 2.90875904985151589877e-01) (257, 3.23096555449447819797e-01) (258, -8.56243452053457587692e-02) (259, -2.12276891432324033016e-01) (260, -1.58420160971203427547e-01) (261, -1.29863747022667536113e-01) (262, 2.91410625704012216097e-01) (263, 2.45132279374084771639e-01) (264, -3.91738643865972985258e-02) (265, -6.27231081943899482223e-02) (266, -1.22750990651169428203e-01) (267, -6.73811664801031440231e-02) (268, 3.91585488595447728244e-01) (269, 3.10079720594368279940e-01) (270, -2.05108233354607205623e-01) (271, -5.76412161808401435348e-02) (272, -1.06860243342438349101e-01) (273, -1.98789194784679990047e-01) (274, 4.17274881877384373752e-01) (275, 4.28842027463398167697e-01) (276, -4.62420513849646080962e-02) (277, -2.19902471266308408016e-01) (278, -2.12005295417824368709e-01) (279, 3.44803859271488377658e-01) (280, 3.34402587987861821262e-01) (281, 3.97095833696804234592e-01) (282, -7.05928137522131293746e-02) (283, -1.65078744850674252742e-01) (284, -1.81530085019388776058e-01) (285, 4.11696676887951085178e-01) (286, 2.41060857452831567294e-01) (287, 3.41816221155605504123e-01) (288, -1.68736450932541470760e-01) (289, -8.00931086759954780074e-02) (290, -1.05990298650780329082e-01) (291, 3.73313833751163670627e-01) (292, 2.90513575800142587191e-01) (293, 4.17890717067203709689e-01) (294, -8.50835671644598334762e-02) (295, -1.84189931116619687312e-01) (296, -8.03620150308996528121e-02) (297, 2.92635881133756936556e-01) (298, 2.48899337627372985171e-01) (299, 3.43693879224739262668e-01) (300, 5.74073242276153861141e-01) (0, 3.49585664092239400969e-01) (1, 3.91847216157850286589e-01) (2, 3.66120290576156637297e-01) (3, 3.83266866772111913786e-01) (4, 3.73592451779779455290e-01) (5, 3.59432682959970495329e-01) (6, 2.41001883575828940165e-01) (7, 2.57667047957094552668e-01) (8, 2.51404447535189090601e-01) (9, 4.78769437043603807158e-01) (10, 4.85033333866533189482e-01) (11, 3.41463976173337957487e-01) (12, 3.12153687754782027675e-01) (13, 2.23931657204540640604e-01) (14, 2.63910962322862985285e-01) (15, 4.16814052133497148223e-01) (16, 3.57956212578948995695e-01) (17, 4.98690873949464708037e-01) (18, 3.52054661193998641444e-01) (19, 1.81840157190473944437e-01) (20, 2.96677632311495242945e-01) (21, 4.18332197337087541289e-01) (22, 3.65317427186903020964e-01) (23, 4.07532059221204667754e-01) (24, 2.37225698361309439433e-01) (25, 2.85104556063326297632e-01) (26, 2.31147101203115851176e-01) (27, 4.22825277416643052764e-01) (28, 4.26967599062856584258e-01) (29, 4.67804685800012498564e-01) (30, 2.36286377063398778109e-01) (31, 4.67699468700822740264e-01) (32, 3.50798100798067113981e-01) (33, 4.11748111813005357451e-01) (34, 3.42112541763719579802e-01) (35, 4.15536761848863511748e-01) (36, 3.33833670297773665858e-01) (37, 4.02753964631494432158e-01) (38, 4.92843360273775010771e-01) (39, 3.33370991616186163053e-01) (40, 3.72669615416463873014e-01) (41, 4.69022900431093126006e-01) (42, -7.67800475242969363010e-03) (43, 4.94164736168825058371e-01) (44, 1.84100752750547796976e-01) (45, 4.49531674950059800810e-01) (46, 4.12423082261022477812e-01) (47, 3.61696508346733114347e-01) (48, 6.57095733773386120324e-02) (49, 3.73819188373529454061e-01) (50, 2.34682874808224112284e-01) (51, 3.55685946165260336027e-01) (52, 4.93595690100129991240e-01) (53, 4.19639848737653642363e-01) (54, 8.07050291192209640068e-02) (55, 2.21967594752224356425e-01) (56, -4.92752295244061611079e-02) (57, 3.86955623975401230563e-01) (58, 4.64432418911394029326e-01) (59, 4.42497760622438340850e-01) (60, -2.26165204609107051148e-01) (61, -8.58669231313094333258e-02) (62, 5.41627904001617740959e-03) (63, 3.87850826135282822360e-01) (64, 4.12954547076162248320e-01) (65, 4.34602186648782640166e-01) (66, -2.77537926400374446168e-01) (67, -2.94994103389605855092e-02) (68, -6.74247990029677585211e-02) (69, 2.68225243369253574244e-01) (70, 2.62451617101343515071e-01) (71, 2.63824848512323739680e-01) (72, -3.33379271740387950196e-01) (73, 5.21451880556717053961e-02) (74, -7.99993673738092631043e-03) (75, -1.30312059331261914652e-02) (76, 2.60256884673746469172e-01) (77, 3.63003185073049849940e-01) (78, 1.75435369235649105124e-02) (79, 1.81493531157000953513e-01) (80, -2.91671367960795735463e-02) (81, 9.41339406859552779716e-02) (82, -7.56183902505275576389e-03) (83, -2.21572619188153407954e-02) (84, 4.91998826381328559221e-03) (85, 3.11607763736185094938e-01) (86, 2.64615727642687204035e-01) (87, 2.04501423728144435255e-02) (88, 1.34245646346775243662e-01) (89, -2.49715026724660060786e-02) (90, -4.59058907139622829341e-02) (91, 1.99113877915635173466e-01) (92, 2.21400784382732779276e-01) (93, -9.88858992150104310070e-01) (94, 8.66858783852732101005e-02) (95, -3.23511916461108217646e-01) (96, 2.17497987726839453471e-01) (97, 1.00181358360543301678e-01) (98, 3.11568827001985571012e-01) (99, -4.11866898896811439723e-01) (100, 7.84258816134607711357e-02) (101, -3.83846800091383832942e-01) (102, 4.49104279844697862334e-01) (103, 6.49360090247886434511e-01) (104, 5.36839648925558021730e-01) (105, -4.54814758408391139888e-02) (106, 2.94940776563586744968e-03) (107, 6.38312236163705026826e-02) (108, 3.10820431082185766325e-01) (109, 1.04861275022237876442e+00) (110, 1.59147428774132793095e-01) (111, 1.97829291913598874497e-02) (112, 6.19410484873548439211e-01) (113, 2.83771416373438500891e-01) (114, 6.15335911356702736086e-01) (115, 1.62097488988308824354e+00) (116, 2.19144972466721599247e-01) (117, 1.46686321565875410489e-01) (118, 1.06391353958144238567e-01) (119, 1.29529787378781485740e-01) (120, 5.39425067447915962404e-01) (121, 1.52512991327910385486e+00) (122, 1.94738898771335072757e-01) (123, -3.41685431461882349602e-01) (124, 7.04680040323034106997e-01) (125, -5.58164570432257978183e-01) (126, 5.25606475614801449403e-01) (127, 2.58968742017362973939e+00) (128, 7.69094335379295168664e-01) (129, -2.45833411123663053699e-02) (130, 2.77483645025984382304e-01) (131, -7.01792973947442555449e-01) (132, 6.13127715729967048830e-01) (133, 1.47069317001967392322e+00) (134, 1.13849172794117978191e-01) (135, 8.42476025912850534638e-02) (136, -2.42276425769417325107e-01) (137, -5.08629520916788901985e+00) (138, -1.18312402870565519519e-02) (139, -1.66559504993665896677e-01) (140, 1.96399600002855161118e-02) (141, 3.33249827376013108005e-01) (142, 5.65297588459747091250e-01) (143, 5.54535556358640713270e-02) (144, 7.40774408671944772919e-02) (145, 2.00382230332498967318e-01) (146, -2.66689489048075545341e-01) (147, 2.68857924321802554957e-01) (148, 2.41314800881638535923e-01) (149, 6.45781945278110780517e-02) (150, 2.17886478397935727525e-02) (151, 2.77220829091561038471e-01) (152, -3.24637027841162439934e-01) (153, 7.02373623692289172915e-01) (154, 5.48855498186843648867e-01) (155, -3.70972896253177059078e-02) (156, 2.86401347014993527818e-02) (157, 3.57662877700817671833e-01) (158, 2.17761947043127623846e-01) (159, 2.57378681264412600971e-01) (160, 6.34330991721527315264e+00) (161, 5.67760711901395609402e+00) (162, 1.93232370741552972326e-01) (163, 5.32186448418394020266e-01) (164, 1.29589928515143087973e-01) (165, 1.06220035033696341698e-01) (166, 6.36796025252716280107e+00) (167, 9.62117773268892917393e-01) (168, 3.16255769393933017231e-01) (169, 2.16782661580338542606e-01) (170, 2.22282877392954436591e-01) (171, 6.16790115984130693505e-01) (172, 7.12456885464439793054e+00) (173, 5.14474891329829464581e+00) (174, 6.01015321754709175295e-01) (175, 4.15820437091743988489e-01) (176, 5.39828829311624458498e-01) (177, 5.25762021692443792809e-01) (178, 2.24604838133711126602e+00) (179, 8.25245447836965628774e-01) (180, 7.96669156609429940374e-01) (181, 8.85981896189109274786e-01) (182, 2.86837933488045648822e-01) (183, 4.27363050780144249075e-01) (184, 2.45798596547829939496e+00) (185, 1.55713727039197435964e+00) (186, 4.89932026682747490121e-01) (187, 7.44270683494464346808e-01) (188, 3.34536012230766954811e-01) (189, 5.80479709081584763219e-02) (190, 5.35574387909818594444e-01) (191, 1.27517767757669853168e+00) (192, 3.86854078589333238991e-01) (193, 8.28575709131614157599e-01) (194, 4.72966294704331047249e-01) (195, -2.98686558764529097587e-01) (196, -3.37568248074602839104e-01) (197, -5.14259945552897779208e-01) (198, 4.67006515680206901742e-01) (199, 8.40792113212005087775e-01) (200, 3.88643141804588976296e-01) (201, -3.25841190677237269036e-01) (202, 1.56976901683896878648e-02) (203, -3.99733098607611414543e-01) (204, 8.08999008752262049882e-01) (205, 1.88802930020585124637e-01) (206, 5.51144148998752636537e-01) (207, 8.77089560721009409150e-02) (208, 3.65493451705580063571e-01) (209, 1.15463188359507876179e-01) (210, 6.64127662622228553957e-01) (211, 5.47195248835230310669e-02) (212, 6.47470518790975502199e-01) (213, 1.57846754858264270993e-01) (214, 1.74488174223198955204e-01) (215, 2.93975358358030736117e-01) (216, 6.48136123859182289308e-01) (217, -3.31402837944668529624e-02) (218, 6.53522968136564186281e-01) (219, 4.85111654369768052764e-01) (220, 7.27201499574327975273e-02) (221, 6.94182172261968544191e-01) (222, 6.49068161689535072512e-01) (223, -3.79862531734150646323e-02) (224, 1.47878433071866099979e-01) (225, 4.24473964242872148223e-01) (226, 7.66242169373178849678e-02) (227, 6.87646150433317115969e-01) (228, 5.51511090093151135072e-01) (229, -1.53929759533469046051e-01) (230, 1.53558800422444408085e-01) (231, 4.42593753902849107451e-01) (232, 1.33526096545949046757e-01) (233, 4.73385364382203965850e-01) (234, 4.52196568815645127959e-01) (235, 3.03499579715090922472e-02) (236, 4.17373404471811204619e-01) (237, 4.90525812475618272490e-01) (238, 1.62109973334565227177e-01) (239, 3.92208308546480199919e-01) (240, 4.46078941790994554228e-01) (241, 3.77461642591890356169e-01) (242, 4.02112961380418687529e-01) (243, 3.80734541087087652311e-01) (244, 1.11359419726624539471e-01) (245, 3.31786260573801061735e-01) (246, 3.65856101265554733981e-01) (247, 1.92524311593180119662e-01) (248, 3.39596991887693711032e-01) (249, 4.24759395985540300078e-01) (250, 2.22938480281128947880e-01) (251, 4.85697493522104173369e-01) (252, 2.87931432476644932894e-01) (253, 4.23230648605760484404e-01) (254, 2.88662252476816594271e-01) (255, 3.09190221695837152982e-01) (256, 7.48119004600191483956e-02) (257, 4.38666835992273240752e-01) (258, 3.65826224437361069430e-01) (259, 3.77546996443208715544e-01) (260, 3.25688099017744370212e-01) (261, 3.92765381007131597624e-01) (262, 4.72480379574442346802e-02) (263, 3.32594536809858343229e-01) (264, 2.39101716777687489657e-01) (265, 4.54629734723504930205e-01) (266, 2.03895506909494816927e-01) (267, 4.65816572873529344267e-01) (268, 1.72262834810509746220e-01) (269, 4.39385831921037584014e-01) (270, 2.30975849083071171908e-01) (271, 2.55331677845125670778e-01) (272, 3.89798452606802292575e-01) (273, 4.42430243461069017119e-01) (274, -2.25923776341122387046e-02) (275, 3.74538221030172369108e-01) (276, 3.47167482128744431247e-01) (277, 3.02409974387293278841e-01) (278, 2.58208741894369542269e-01) (279, 4.14301157562669664092e-01) (280, -1.31489236624304617340e-01) (281, 3.54527578322824499235e-01) (282, 3.91144849924978277311e-01) (283, 4.33783673314985185332e-01) (284, 4.68904436199602037139e-01) (285, 4.89148542849954515166e-01) (286, -3.38799327326458690757e-02) (287, 4.98901457159456163115e-01) (288, 4.18961585133012681670e-01) (289, 4.09287758736547380156e-01) (290, 3.67594656168159505949e-01) (291, 3.53991110442813894377e-01) (292, 4.93199363915857225127e-01) (293, 3.70027822076019308195e-01) (294, 3.77731860248979589567e-01) (295, 3.41642514436182043180e-01) (296, 3.15803766815599462614e-01) (297, 3.90968807606634161100e-01) (298, 4.98605281679567247100e-01) (299, 4.43251729576524644560e-01) (300, -6.34304598906174632589e-02) (0, -2.82910912580074183631e-02) (1, 1.40711173480075446562e-01) (2, -4.65729310459674777922e-02) (3, 1.05285376375239977942e-01) (4, 7.72650540523945050797e-02) (5, 1.91114992552219378763e-02) (6, 6.17942885213314321846e-02) (7, -1.09835489935459079680e-02) (8, 8.66616815977512555680e-02) (9, -3.27583476252139918494e-02) (10, 1.66734606676517474466e-02) (11, 1.32335469191592780547e-01) (12, 4.95327190213619289461e-02) (13, 1.41603335803073493437e-01) (14, 3.58786140256447394492e-01) (15, 2.98274756126819598490e-02) (16, 6.68696463756977277360e-02) (17, 8.24337751322208600602e-02) (18, 4.06335298591179450156e-01) (19, 2.33703654878658823035e-01) (20, 4.07574672871155341269e-01) (21, -1.49274169749797729068e-02) (22, -4.83508034891666424460e-02) (23, 2.34867638878211897405e-03) (24, 3.20350681119484503867e-01) (25, 2.50837945067209799888e-01) (26, 2.75698681049866278769e-01) (27, 1.36065661972087470488e-01) (28, -2.58105843610347621131e-02) (29, -5.63034116572917950339e-02) (30, -5.12872859186710369772e-02) (31, 4.25820059112892376763e-03) (32, -5.72323649472774517721e-02) (33, -3.95003407544673793006e-02) (34, -3.20965572542728297400e-02) (35, 7.83925504141269879899e-02) (36, 3.79710347109256732279e-02) (37, 8.80576074772297101578e-02) (38, 1.25768885081332770781e-01) (39, -1.70074030108035983977e-02) (40, 1.13659143512767402129e-01) (41, 8.02215253633116898851e-04) (42, -9.86525347550264164465e-03) (43, 2.15517283134876239115e-02) (44, 1.72122351257050845708e-02) (45, 1.24433934753459526923e-01) (46, 1.09739080136340733107e-01) (47, 1.25994950597804633574e-01) (48, 2.17716039827417745522e-01) (49, 1.24481030496760694537e-01) (50, -1.82530932397139238066e-02) (51, 6.47621006422458844742e-02) (52, -4.85333278126300823874e-02) (53, -3.83324696964801661658e-02) (54, 5.47594592758805176480e-01) (55, 9.38656426697480755772e-02) (56, 4.21533826210725548478e-01) (57, -6.87082477875366158526e-03) (58, 5.82027286940036692187e-02) (59, 3.70146111302791583353e-02) (60, 4.34361627892347612612e-01) (61, 4.87399258503109555907e-01) (62, 5.21756634899765758817e-01) (63, -3.68684896298065263240e-03) (64, -5.53569034562286677037e-01) (65, 1.25896006887477485137e-01) (66, 8.38912802046014705049e-01) (67, 2.79060674020908394688e-01) (68, 7.78160708254053035127e-01) (69, 3.83594368272347052695e-01) (70, -6.15885645971473993932e-01) (71, 5.79741464013538293498e-02) (72, 6.82203645115568080293e-01) (73, 3.52460959115884819859e-01) (74, 8.30091329520418086396e-01) (75, 3.15523399316737174214e-01) (76, 5.03015012497386865276e-02) (77, 2.32065029938039624202e-01) (78, 7.18578766546446923158e-01) (79, -7.55780512962625494744e-03) (80, 4.72589655448375278723e-01) (81, 4.43707412709174686682e-01) (82, 2.23968931842883023364e-01) (83, 4.82416211296496921790e-01) (84, 3.48477223077676812046e-01) (85, -5.37764127894072019309e-01) (86, 6.44884245969703888413e-03) (87, 5.26560022164760277441e-01) (88, 5.32541363169131920507e-01) (89, 5.21115897823749230078e-01) (90, 3.06676910379789391392e-01) (91, -6.65469505713161768590e-01) (92, 1.70620546240625170498e-01) (93, 3.79927075137076908362e-01) (94, 4.33907074845870821544e-01) (95, 3.80392989135822146007e-01) (96, 2.16730472319645539603e-01) (97, -6.19371027574714960728e-01) (98, 1.22189522438465175691e-02) (99, 4.88003490484794466564e-01) (100, 4.00886746115526049206e-01) (101, 4.99396739519676058361e-01) (102, -1.63038111574233951506e-02) (103, -1.51221068060925389887e+00) (104, -6.33080885634598078404e-01) (105, 4.86829393733777815445e-01) (106, 5.28566983647166033222e-01) (107, 5.06642399347862260051e-01) (108, 1.17003113096278754668e-01) (109, -1.54017263508370305658e+00) (110, -5.19453958497223311497e-01) (111, 5.38881277114929169159e-01) (112, -2.27156582377101234904e-01) (113, 5.43070363037443604171e-01) (114, -3.89762967176021449256e-02) (115, -1.63176685943908106324e+00) (116, -6.52165119425234141026e-01) (117, 7.43599248098445797517e-01) (118, -3.47847010097647957316e-01) (119, 4.61426852237297235870e-01) (120, -2.42923944539607875037e-02) (121, -1.59425760060257326600e+00) (122, -1.54763230911424543024e+00) (123, 7.98480954932285214021e-01) (124, 2.75733349447106701469e-01) (125, 5.77288379859043132569e-01) (126, 9.67192501478611188492e-02) (127, -1.56113282590813051698e+00) (128, -1.58567230260899472150e+00) (129, 4.50389357440329041182e-01) (130, -1.01258792681757170406e+00) (131, 7.52159460194149254164e-01) (132, 5.18492994851686650470e-01) (133, -1.49166189736655141473e+00) (134, -2.21660840413714699260e-01) (135, 3.81475863999941045002e-01) (136, -2.10005691861913645901e-01) (137, 1.17971951630870797167e+00) (138, 5.39478478974916630939e-01) (139, -2.66837584874774214061e-01) (140, 6.30891028605702230969e-01) (141, 5.16088260359384709552e-01) (142, -1.39917884624531674298e+00) (143, 5.80213537406040202882e-01) (144, 5.24302563704711177550e-01) (145, 4.57751709781887894390e-01) (146, 6.35671799968791972901e-01) (147, 4.78325841970064336017e-01) (148, -6.08240865991291346226e-01) (149, 4.62197450887275873566e-01) (150, 8.32350139485908413484e-01) (151, 5.46621786587095703780e-01) (152, 8.22580451418023828047e-01) (153, 3.50814847297289067463e-01) (154, -1.55395762107303525568e+00) (155, -1.65685251361369634271e-01) (156, 8.20700664984298611238e-01) (157, 4.25026836030340637862e-01) (158, 8.33334763514114285066e-01) (159, 5.83778681390142883956e-01) (160, -4.32504200375886149743e+00) (161, -2.53643436111567721625e+00) (162, 6.99950856136394405915e-01) (163, -1.73636457960820500546e-01) (164, 8.06302775608611965730e-01) (165, 8.85402629424196008223e-01) (166, -1.94230947483059490644e+00) (167, -2.44844666392390636345e-01) (168, 7.86179360913349056794e-01) (169, -4.84505503470378462438e-01) (170, 8.46009929644180203034e-01) (171, 7.17424921285087724421e-01) (172, -3.63312640420787502649e+00) (173, -9.69222586180466194605e-01) (174, 3.23146466509915297749e-01) (175, -1.07990779614552878662e+00) (176, 4.70098745421982711079e-01) (177, 6.52351297031814714167e-01) (178, -3.60452954478256870630e+00) (179, -1.82524197581377251032e-01) (180, -6.35877095983204188023e-01) (181, -1.40020540214112210187e+00) (182, -4.96121839509186257633e-01) (183, 8.50027163492751980378e-01) (184, 2.20994198548453424369e-03) (185, -2.15417516264286262873e-01) (186, -6.89104148075756373082e-01) (187, -1.44592301405003453851e+00) (188, -6.50610101298269571934e-01) (189, 8.40294380652023220613e-01) (190, 1.06802853884574500132e-01) (191, 6.97406754525740968376e-01) (192, -5.07288695202049777500e-01) (193, -1.46207991099884893060e+00) (194, -6.22288443968471827183e-01) (195, 1.52749488224580920459e+00) (196, 5.55081149529529582765e-01) (197, 3.68341581561472786177e+00) (198, -5.12821094021973067356e-01) (199, -1.57354791319897557855e+00) (200, -5.41356013045486861301e-01) (201, 1.56166963001087344409e+00) (202, 4.77808145798286287853e-01) (203, 1.66616526638803130744e+00) (204, 6.65876717024265485367e-02) (205, -5.23619041667160445286e-01) (206, 8.68800205870627756388e-02) (207, 4.57254318542101079181e-01) (208, -4.74464669174732220358e-02) (209, 4.62945488400278826191e-01) (210, 1.34867876833003608184e-01) (211, -6.24963686690506281529e-01) (212, 5.57920188360630092683e-02) (213, 4.01209820681137641074e-01) (214, -6.50091533438143076573e-01) (215, 3.29897318654579718711e-01) (216, -2.00319848305763187346e-02) (217, -6.43131923750814737950e-01) (218, -6.20955676660713495885e-01) (219, 2.91821700208706458213e-01) (220, -6.77992575690922083531e-01) (221, 1.29046380584758368926e-01) (222, 9.68287140779911237320e-02) (223, -6.89217516110119166051e-01) (224, -5.71563483104881586705e-01) (225, 2.37004046016258768104e-01) (226, -5.69294706807312311803e-01) (227, -1.92579253859104099211e-02) (228, 8.61453563623844342789e-02) (229, -5.86052060947593989049e-01) (230, -6.31335788295444788609e-01) (231, 4.08530906491695391947e-02) (232, -6.31954491958793940221e-01) (233, 1.35536432331126777129e-01) (234, 8.73738533787117230278e-03) (235, -5.07006944046196506015e-01) (236, -5.29722736106094771458e-01) (237, 8.21473450117527204117e-02) (238, -5.91830731258568110142e-01) (239, -5.18809334263977461887e-01) (240, -2.66928964324607926814e-03) (241, -5.98602981195625605260e-01) (242, -1.00053771681369724211e-02) (243, 1.11482605402988071974e-01) (244, -6.05433315859016718541e-01) (245, -6.01737030670818628941e-01) (246, 3.33397761636196124369e-02) (247, 7.05984533482013898453e-02) (248, 8.88986886196552472672e-02) (249, 1.08447864716571459875e-01) (250, -6.83323883340534510289e-01) (251, -5.30734018311676436497e-01) (252, 3.62254147105736334922e-01) (253, 1.09568581049960728224e-01) (254, 1.13816112344783393340e-01) (255, 2.03543902092395770365e-02) (256, -4.99171391949829568180e-01) (257, -5.97118728683170618687e-01) (258, 3.25856362157387335898e-01) (259, 8.30377042942463117203e-02) (260, 2.16996882730049744925e-01) (261, 1.24184295599979024893e-01) (262, -6.55453209654268564854e-01) (263, -6.22997761593040766392e-01) (264, 3.84480629735512335898e-01) (265, 4.93479371719776210847e-02) (266, 3.76294187239990503627e-03) (267, 8.44216198378025250992e-02) (268, -6.47848729864534678136e-01) (269, -5.29707924351868086887e-01) (270, 3.28076076381725867392e-01) (271, 4.55457419805942523294e-02) (272, 2.71856766813320716025e-01) (273, 1.10030546849292393263e-01) (274, -6.22315653488811793004e-01) (275, -5.41616693959412032200e-01) (276, 4.35726351074562298638e-03) (277, 1.07087880437892565832e-01) (278, 2.91445542746109564902e-01) (279, -6.86088063643154444371e-01) (280, -5.63808263168510737096e-01) (281, -5.99918492958721460973e-01) (282, 1.16945564811748115019e-01) (283, 2.81096101456104266458e-02) (284, 5.71385777525291668755e-03) (285, -5.48582346067604476048e-01) (286, -5.30880004987892561985e-01) (287, -6.35097675845798792515e-01) (288, -1.19334346897186222014e-02) (289, 2.46400833778797137552e-02) (290, -5.59962167687000286764e-02) (291, -6.40680582151588740025e-01) (292, -6.30519621894535364781e-01) (293, -6.53089546487507166539e-01) (294, 7.00892955713688092789e-02) (295, -1.63752585000575962004e-02) (296, 9.23221409969745832047e-02) (297, 1.32212117379230109648e-01) (298, -5.11297644004997664524e-01) (299, -4.97166708932098855289e-01) (300, 3.85909271501821860006e-01) (0, -3.78709574935491843917e-02) (1, -3.98703207967336936690e-02) (2, -1.21928556799655765652e-01) (3, 3.83002018898162266414e-02) (4, 1.41658507880512180011e-01) (5, 1.40299238857570590655e-01) (6, -1.86050923058283280975e-02) (7, -1.25161649176371049530e-02) (8, -9.59178151079904950382e-02) (9, 1.10993035730663228144e-01) (10, 3.93617531626853367488e-02) (11, 1.19849883612934041133e-01) (12, -3.33239526936304347737e-02) (13, 6.20881305248619473625e-03) (14, -1.35698819298435441327e-01) (15, 3.37798750370177647273e-02) (16, 9.10149893134269000194e-02) (17, 4.48896816342505902697e-02) (18, -3.94161061832201259358e-02) (19, -1.45607487995315754148e-01) (20, -7.23690779396784222843e-02) (21, 1.30741370855485344871e-01) (22, 3.47109493004430849639e-02) (23, 8.53794198619474559164e-02) (24, -5.55837617704164968502e-02) (25, -3.80787344166528957112e-02) (26, -7.87128524371874249699e-02) (27, 4.97625228153814463949e-02) (28, 6.14616703378309398031e-02) (29, 3.49584873901952822295e-02) (30, -9.62422517833765173156e-02) (31, -3.37362829459558200007e-02) (32, 3.48285669686738755257e-02) (33, 2.74347718941320567465e-02) (34, 3.94561793791402964926e-02) (35, 1.14311931668435493026e-01) (36, -1.12148025769878617597e-01) (37, -2.46342141044984565268e-02) (38, -4.66221412417944236495e-02) (39, 6.12231549011816172934e-02) (40, 1.21251089512025275741e-01) (41, 1.30564479170953207099e-01) (42, -9.88089980074655926945e-02) (43, -6.04907711741979672859e-02) (44, -1.16446083185728355147e-02) (45, -6.81514208910520696838e-02) (46, 1.11113978563462653670e-01) (47, 1.71952266382326308947e-02) (48, -2.11158532787546638493e-04) (49, -7.67200356123502874572e-02) (50, -7.68301551935728216369e-02) (51, -1.06223857939010429829e-01) (52, -3.30568289884431917858e-03) (53, 1.00553778945123115096e-01) (54, -4.40458539826715997356e-02) (55, -7.30734223104079032296e-03) (56, -9.77845543512594617130e-02) (57, -1.05302198767429161519e-01) (58, -1.48718301070581218615e-02) (59, 1.18191806613122382674e-01) (60, -1.19483175136036168240e+00) (61, -8.32153873035204327824e-02) (62, -4.16784767014826348919e-02) (63, -5.31017398235853407829e-02) (64, 5.91097574887512577924e-01) (65, 3.39251199237005068160e-03) (66, -1.26327786229438077115e+00) (67, 2.63264684489476798179e-02) (68, -1.24866233773416768216e+00) (69, -1.48402692267191362030e-02) (70, 3.71302649409656626567e-02) (71, -1.35284105081249467206e-01) (72, -1.19692213095611821316e+00) (73, -1.70042903610956620819e-02) (74, -1.20548862971252690457e+00) (75, -1.13507011670757509969e-01) (76, -1.42482714492965900632e-01) (77, -1.02247511733461610151e-01) (78, -5.89132285415882028801e-01) (79, 2.36625159385148754743e-02) (80, -3.62945513316881435140e-02) (81, -8.48778600845714215062e-01) (82, -5.61650672792143312861e-01) (83, -4.09780451892561348171e-01) (84, -5.04343749472391522648e-02) (85, 6.16976674852608097943e-01) (86, -5.26524698135908339469e-02) (87, -8.51754303131480816624e-01) (88, -1.01084036663569998282e+00) (89, -1.01669499531229967637e+00) (90, -3.57720272132646815999e-02) (91, 6.84612392758895960121e-01) (92, 4.35154075028840806039e-02) (93, -9.29885755334277752659e-01) (94, -1.00919943586387228507e+00) (95, -1.00692118957480425401e+00) (96, -2.87027747818720153916e-02) (97, 1.20491010500285877782e+00) (98, 6.57636355744947581625e-02) (99, -8.28513736877818707249e-01) (100, -8.25901429210086468480e-01) (101, -9.44275337009038873148e-01) (102, -3.65447094427179750009e-02) (103, 1.25456384001467480260e+00) (104, 1.34240852874654426063e-01) (105, -9.07870340202232006810e-01) (106, -3.98364900414195199918e-01) (107, -9.94732948689069695902e-01) (108, 1.66383305770295697457e-01) (109, 2.27739081634716189484e+00) (110, 6.73798757932201120013e-01) (111, -8.69174804515015386741e-01) (112, 1.64487504062000161609e-01) (113, -8.84124905738111976916e-01) (114, 3.92583107770858863450e-02) (115, 2.34525728328661120514e+00) (116, 6.40936988732829782123e-01) (117, -1.01172695562085146470e+00) (118, 2.31244438296071264105e+00) (119, -1.42920347692741001033e+00) (120, 4.41679081143318205682e-02) (121, 2.42481041802600927326e+00) (122, 1.34376453785393490392e+00) (123, -1.11064946904620165391e+00) (124, -2.45157085637264404721e-01) (125, -1.31204407306684101009e+00) (126, 1.55019203406709271675e-01) (127, 2.43330133809284276936e+00) (128, 2.27799473805860674958e+00) (129, -1.08048254877170535337e+00) (130, 2.17814089683319078716e+00) (131, -2.33715336284239905140e+00) (132, -1.41603404150721610966e-03) (133, 5.08763013593016655278e+00) (134, 1.25270927753323024767e+00) (135, -9.68354644922819085551e-01) (136, 1.45596938017878008154e+00) (137, -1.57609889262093205708e+00) (138, -1.03150353088816637559e+00) (139, 7.08008692458771293765e-01) (140, -1.03883660837849611802e+00) (141, -1.39611992015163527414e-01) (142, 2.42316542799898249072e+00) (143, -5.96728034297469456249e-01) (144, -1.02234561994513506455e+00) (145, -1.73666647540903051894e-01) (146, -9.35996743588056512309e-01) (147, 3.66841378075674628967e-02) (148, 2.23763036658729586037e+00) (149, -3.45098471958783625801e-01) (150, -1.07997151717385264647e+00) (151, -9.71696058008836432984e-02) (152, -1.08871296673854800474e+00) (153, -2.37041616307017387333e-03) (154, 2.89749788527919882597e+00) (155, 1.10395424050844437325e+00) (156, -1.04367657968801696988e+00) (157, -2.20993011554567825305e-01) (158, -8.90028686198469642932e-01) (159, -2.24777481814711105335e-01) (160, 1.13950630998455402221e+01) (161, 1.06461051241537845158e+01) (162, -7.91612967651439181083e-01) (163, 6.56198876734887082129e-01) (164, -8.82193629297135961664e-01) (165, -1.01433560974589709325e+00) (166, 5.32961726621584119812e+00) (167, 9.86735914533334090848e-01) (168, -2.50310498720975438403e-01) (169, 1.27198866744935235040e+00) (170, -1.34207494056792775439e-01) (171, -6.55127896219397792832e-02) (172, 2.51622944705185602743e+01) (173, 4.40819208494276093546e+00) (174, 9.55342789657170621265e-02) (175, 2.90842281316949957670e+00) (176, -1.56256158763954267066e-01) (177, -1.77798206195225905191e-01) (178, 4.53117149697393450936e+00) (179, 8.83343306429725316775e+00) (180, 7.66570442433104015656e-01) (181, 2.93959869479372137846e+00) (182, 6.69021875674471355744e-01) (183, -4.05167612853180370003e-01) (184, 5.45827442449582811435e-01) (185, 1.84437352709744106782e+00) (186, 7.18004890794500805207e-01) (187, 2.80371911113693439432e+00) (188, 1.54616771018206899946e+00) (189, -3.96536785783897838265e-01) (190, 5.11184473325757768314e-02) (191, 2.36946251329495954918e-01) (192, 6.93695017213568188019e-01) (193, 2.95230419968797797026e+00) (194, 1.42007418101727789228e+00) (195, -8.52368735375522379449e-01) (196, -8.38480233919538187060e-01) (197, -2.63123715471274799427e+00) (198, 6.86145008618578411408e-01) (199, 2.81991107424332820841e+00) (200, 6.69480138535246349640e-01) (201, -1.01180651322402548331e+00) (202, -9.32993980793561883402e-01) (203, -1.10323852553805323851e+00) (204, 1.43195333845144018303e-01) (205, 2.82229399343564235636e+00) (206, 2.08598750597959237130e-01) (207, -4.01430069271769662809e-01) (208, 4.89471983300794749594e-02) (209, -4.64158377413001144163e-01) (210, 8.79016322560365048755e-02) (211, 1.75105365431384796260e+00) (212, -9.60307644551960798429e-02) (213, -8.62632954364983550732e-02) (214, 8.00829471165880657502e-01) (215, -9.54250099009243818449e-02) (216, 1.70006202306275028269e-01) (217, 1.75075983321742767451e+00) (218, 2.79904907911452602298e-02) (219, 3.27849237376482763318e-02) (220, 1.49861667430102651899e+00) (221, 2.01294350392347054512e-01) (222, 3.95256063311728855769e-02) (223, 1.73478696560935730098e+00) (224, 5.93129131022102740189e-01) (225, 1.01342646533282027682e-02) (226, 1.41272585591375654523e+00) (227, 1.08983615185742052645e-01) (228, 9.24211224883231402538e-02) (229, 2.32215072803821476199e+00) (230, 6.17673295560486224076e-01) (231, 1.88593549073054608453e-03) (232, 6.64892485480247596996e-01) (233, 1.17112525400463032832e-01) (234, 1.26376681622806491534e-01) (235, 6.29977878389595402631e-01) (236, 1.62957706150356179675e-01) (237, 8.66962230175170461832e-02) (238, 6.94393774609504799145e-01) (239, 5.16452944248351544787e-02) (240, 1.58553086814228000323e-01) (241, 6.04185458479164494427e-01) (242, 4.30332055657538861682e-02) (243, -1.14220938622718620747e-01) (244, 7.78790382783351997631e-01) (245, -2.00074607164230852674e-02) (246, -6.69729487842289916699e-02) (247, 2.46385717990342846540e-02) (248, -1.36694087624316978902e-01) (249, 8.72068833695997386313e-02) (250, 7.13587788979946235912e-01) (251, 1.16382994350734639277e-01) (252, -5.10750414675442826473e-02) (253, -1.37121169805293846577e-01) (254, -1.62765001652296244228e-02) (255, -3.09074316037545836211e-02) (256, 7.29177383820949653881e-01) (257, 1.50909759697261752764e-01) (258, -1.22520776337353906604e-02) (259, -6.86360439059789800842e-02) (260, -7.51905580756719732483e-02) (261, 3.24596893178571779814e-02) (262, 5.89414170126854042309e-01) (263, 1.15028836426082539668e-01) (264, -1.06832601303455093644e-01) (265, 2.55563045146409741071e-02) (266, -1.53971081373747049892e-02) (267, -1.28374317318764273599e-02) (268, 6.72271622459827522533e-01) (269, 4.32355761224359480543e-03) (270, -3.40805863735731406905e-02) (271, -5.94098558423574521492e-02) (272, 4.81052184703294541390e-02) (273, 1.51625611481014194171e-01) (274, 6.94169020395217994945e-01) (275, 2.01470503427330943635e-01) (276, -1.41270316183334160298e-01) (277, 3.31067228915635849984e-02) (278, 1.17533290984575093663e-02) (279, 2.17373239176912418091e-02) (280, 6.85180818777023414867e-01) (281, 6.68014092485843757885e-01) (282, 1.59838432671968282139e-02) (283, 4.00164360406343247445e-02) (284, -5.15609076020773215987e-02) (285, 9.94090678470773564390e-02) (286, 7.73976219932972053783e-01) (287, 6.20289469252763847607e-01) (288, -7.18176429865415716369e-02) (289, -3.23652019498403831221e-02) (290, -3.08004161117132503611e-02) (291, 1.52693519212548284303e-01) (292, 7.64961702864109138744e-01) (293, 1.33188666619603213181e-01) (294, 4.85184770213712840414e-02) (295, -3.30276507748017977839e-02) (296, 4.73218243705381541586e-02) (297, -1.93575167686310355142e-02) (298, 4.31233289020700669147e-02) (299, 1.41987749037090243975e-01) (300, 1.96782295487311437165e-01) (0, 2.35327683018829642014e-01) (1, 1.58110856639530478196e-01) (2, 1.43496486919309912400e-01) (3, 2.21845551954891501145e-01) (4, 2.69826046752121240235e-01) (5, 1.30611240493442831712e-01) (6, 2.23248235510971365647e-01) (7, 2.45605758952286090668e-01) (8, 2.85037569331314299959e-01) (9, 2.30629808830406485276e-01) (10, 1.48332744466450033860e-01) (11, 1.70597828554298697190e-01) (12, 1.89286656307365713792e-01) (13, 1.31022169815685568528e-01) (14, 2.61709920691635344880e-01) (15, 2.74339981006767541505e-01) (16, 1.22544556485798122880e-01) (17, 9.95455529562494917384e-02) (18, 1.45195327328827200608e-01) (19, 2.32852346824791250901e-01) (20, 2.15987633151562719025e-01) (21, 2.83533103393699859041e-01) (22, 2.15360223876621542649e-01) (23, 1.30251057075645743089e-01) (24, 1.76361489278824834503e-01) (25, 2.22072973477032004075e-01) (26, 2.21882778389008550324e-01) (27, 1.87326743828441916184e-01) (28, 2.50840551780845855134e-01) (29, 1.94193288313534079270e-01) (30, 2.42077312993194876389e-01) (31, 1.88200533019687948899e-01) (32, 2.54336438702728484529e-01) (33, 2.87606097387459014314e-01) (34, 1.12078390645172373818e-01) (35, 2.26194776224281607346e-01) (36, 1.24819140119107233056e-01) (37, 2.37358919905807791428e-01) (38, 1.73832825945999441819e-01) (39, 1.07319488751079814004e-01) (40, 1.70021026956226645188e-01) (41, 2.24197871612694082932e-01) (42, 1.84519122523816136994e-01) (43, 2.61339969562675689119e-01) (44, 2.61821831745656041779e-01) (45, 1.43691822516109762864e-01) (46, 2.37712256240036307053e-01) (47, 2.81829185413505767244e-01) (48, 1.49839169514925985016e-01) (49, 2.89509381336720494904e-01) (50, 2.21283312124760656037e-01) (51, 2.58720092105056975740e-01) (52, 2.70505271481659204102e-01) (53, 1.34106322752620993333e-01) (54, 2.95572946948559789337e-01) (55, 1.48899055255206136383e-01) (56, 2.62781093997509984650e-01) (57, 2.10349008070614157395e-01) (58, 2.33688585089828787522e-01) (59, 2.11084439980175314622e-01) (60, 1.21952554231907275839e-01) (61, 1.82367700321229009308e-01) (62, 1.05886760336907415070e-01) (63, 2.62943334507133696931e-01) (64, 1.67436584459926901536e-01) (65, 1.15427940713550822305e-01) (66, 2.12750620043205329601e-01) (67, 1.94288010878117589630e-01) (68, 2.63463604636159809402e-01) (69, 2.71605010313542449829e-01) (70, 1.99070289360668478684e-01) (71, 1.31441976112874031601e-01) (72, 2.14845887219833442394e-01) (73, 2.85621698183568029084e-01) (74, 2.98889178223577411941e-01) (75, 1.57119783741982488312e-01) (76, 1.31345811469109535752e-01) (77, 2.34558786434681920685e-01) (78, 1.40981252474339513459e-01) (79, 1.78647774440796880402e-01) (80, 2.21530932170899419464e-01) (81, 2.59727354330571202912e-01) (82, 1.39400157315285710968e-01) (83, 1.94068509323151616730e-01) (84, 2.95865978283436803498e-01) (85, 6.25200195563046651204e-02) (86, 2.35860846566345511155e-01) (87, 2.56109859032185582794e-01) (88, 2.44817192835362462677e-01) (89, 1.76151226443799047150e-01) (90, 1.69226574880631475128e-01) (91, -3.26821954667392278182e-01) (92, 2.51412205027725432771e-01) (93, 4.48928247211552222673e-01) (94, 2.18399699015172032990e-01) (95, 1.25450576824696541367e-01) (96, 1.90036366862805394806e-01) (97, -4.68643659472289642043e-01) (98, 2.12631865965511618333e-01) (99, 4.23239919362640937273e-01) (100, 2.76100687312271386720e-01) (101, 3.94656072376347144548e-01) (102, 1.71223066376831350999e-01) (103, -4.04277899980369170851e-01) (104, 2.31472581471225458127e-01) (105, 4.33454901303993611617e-01) (106, 2.25981212782051382737e-01) (107, 3.95582355882870106978e-01) (108, 2.30175301278850275022e-01) (109, -1.03887892484842470076e+00) (110, -3.73938435435119231887e-01) (111, 2.14515387641575155930e-01) (112, 1.56269028629085260373e-01) (113, 2.38601050900604544358e-01) (114, 4.07003088247983244030e-02) (115, -1.79607676836269214427e+00) (116, -3.07176800191226506698e-01) (117, 5.13894632782684768202e-01) (118, -4.07159732401195129103e-01) (119, 5.86488160439147199199e-01) (120, 5.22074623358456946232e-02) (121, -2.98154150683541185884e+00) (122, -4.14009945213618835158e-01) (123, 6.46706755407465916363e-01) (124, 3.98987232101170805065e-02) (125, 1.61306996715035522172e+00) (126, 2.28565320218822198850e-01) (127, -5.86938704506830166707e+00) (128, -3.25770271444190573362e-01) (129, 4.78530668046223073286e-01) (130, -3.38581697761836608596e-01) (131, 3.67901784253530284019e+00) (132, 1.58996224249622064573e-01) (133, -1.90067073079364612376e+00) (134, -4.37518382191482146926e-01) (135, 2.23193831371452627854e-01) (136, -2.31995856143857231979e-01) (137, 9.28311386350961598168e+00) (138, 2.50853664802696441072e-01) (139, 1.08090169574043007406e-01) (140, 2.32629201935913382249e-01) (141, 1.54624078052427588181e-01) (142, -9.25268752644488268189e-01) (143, 4.61068192730833270598e-01) (144, 5.65212235178696120741e-01) (145, 9.80631928912661238185e-02) (146, 5.43208167280899489882e-01) (147, 2.65789456295158654786e-01) (148, -3.31641228616061711776e-01) (149, 4.48593748967338779021e-01) (150, 4.48556281950222401900e-01) (151, 1.98275059307834344846e-01) (152, 5.50995737638222182753e-01) (153, 1.76954001034518915159e-01) (154, -9.78600947330424242310e-01) (155, -2.87358226001086791701e-01) (156, 4.91816543366657588088e-01) (157, 1.67249649609348016721e-01) (158, 4.53049660053001790327e-01) (159, 1.45141914333125787717e-01) (160, -1.24609555783785168614e+01) (161, -5.25499220056004734403e+00) (162, 1.77247807013180075364e-01) (163, 2.04232692564746576291e-01) (164, 6.92581011307446675618e-02) (165, 5.22229535739113126525e-01) (166, -1.24093545558965985265e+01) (167, -1.85177540505034987639e-01) (168, 1.20295829917213173421e-01) (169, -4.27985394120040496535e-01) (170, 2.22641825522205072385e-01) (171, -4.00169282722454888734e-01) (172, -1.45074943371784659263e+01) (173, -6.11682355872032346156e-01) (174, 1.13266520048400626264e-01) (175, -4.10727304839957785276e-01) (176, 2.14753821338435846311e-01) (177, 2.10065162308099712130e-02) (178, -2.53628499063298074034e+00) (179, -2.78442036798593672842e+00) (180, 1.19100262345540705566e-01) (181, -1.55559755643193953212e+00) (182, 1.11188468457925543342e-01) (183, 4.87597799162555856078e-01) (184, -3.26047569084149224672e-01) (185, -1.18491594797951371731e+00) (186, -6.48534970068229688067e-01) (187, -1.68737087180202238734e+00) (188, -3.47230387353766989378e-01) (189, 6.33992697246684056012e-01) (190, -2.89632960724812371645e-01) (191, -1.20505118674618394436e+00) (192, -5.39153540217174542803e-01) (193, -1.69557020594661467250e+00) (194, -5.39710143291248334307e-01) (195, 4.94883733935965575146e-01) (196, 6.05299080856456006572e-01) (197, 3.49327244153024718543e+00) (198, 6.58741018034024183869e-02) (199, -4.95099393153060507444e-01) (200, -3.83821693682540487913e-01) (201, 5.99455858715190137431e-01) (202, 1.39601129668142615037e-01) (203, 5.10631087370528424785e-01) (204, 1.25151370586621957237e-01) (205, -3.55430224656882842726e-01) (206, 1.73245817269107538205e-01) (207, 1.87916889416363058762e-01) (208, 2.76177145170357019044e-01) (209, 1.10083460437443034219e-01) (210, 5.07705880654065466739e-02) (211, -3.97733809172931274123e-01) (212, 1.96862146104594903928e-01) (213, 2.09970749544288931565e-01) (214, -3.12895016491237187850e-01) (215, 1.58666204290773688035e-01) (216, 1.77162512983104425413e-01) (217, -4.37705611556592544265e-01) (218, 1.13671570862552390180e-01) (219, 2.09675296770717917161e-01) (220, -5.14077065014709067015e-01) (221, 4.65438736927716520397e-02) (222, 1.56731821442863183957e-01) (223, -2.92818234979930425155e-01) (224, 5.86962698352544026692e-02) (225, 2.06092416869785605149e-01) (226, -4.71610652029338439650e-01) (227, 1.90319210137149530393e-01) (228, 2.21597745860835748655e-01) (229, -3.35851417600932677932e-01) (230, 2.09616646016856866819e-01) (231, 2.17519245671417532639e-01) (232, -4.10071702420535644240e-01) (233, 1.16596437620308177041e-01) (234, 2.54474199937965606111e-01) (235, 2.73421533035423547364e-01) (236, 1.73528671110889154416e-01) (237, 1.95098660515930472092e-01) (238, -4.12305826067748626418e-01) (239, 2.17084481941845236497e-01) (240, 2.07214414703037558274e-01) (241, 1.81519969927456198411e-01) (242, 2.97059498356964324373e-01) (243, 1.71455211567070303635e-01) (244, -2.82153518616977294631e-01) (245, 2.61873311924125884431e-01) (246, 2.32153720783378897385e-01) (247, 2.38064176963951407151e-01) (248, 1.01876541601803080606e-01) (249, 1.13203934954788462686e-01) (250, -4.25904771059575637526e-01) (251, 1.02196305619861857461e-01) (252, 1.27126469837810784913e-01) (253, 2.73882247137214929200e-01) (254, 2.87086896227981780427e-01) (255, 1.53201400863315878587e-01) (256, -3.93669591963115295119e-01) (257, 2.93185062336113189119e-01) (258, 1.10899269210483805703e-01) (259, 1.70983358847286520676e-01) (260, 2.35042489694740591721e-01) (261, 2.87894568967010711091e-01) (262, -2.85141633570018371291e-01) (263, 1.02679609882023112344e-01) (264, 1.06523297356750742959e-01) (265, 2.47041381525184955414e-01) (266, 2.78133444117691308595e-01) (267, 2.47430629657890643891e-01) (268, -4.31504202753129562087e-01) (269, 1.43536444383051214890e-01) (270, 1.66547409819748221116e-01) (271, 2.53419048713829253572e-01) (272, 2.27088696884300528245e-01) (273, 1.65639206396724997239e-01) (274, -4.48769988238635619826e-01) (275, 2.22644008325722037034e-01) (276, 1.29544823991443930344e-01) (277, 2.61092550682213042634e-01) (278, 1.62740468608524618821e-01) (279, 1.33453651892330465989e-01) (280, -2.99347759902301335799e-01) (281, 1.49198151971122461301e-01) (282, 1.37682247536566021440e-01) (283, 1.05487539993908183145e-01) (284, 1.90459057318355856614e-01) (285, 1.26801438259269982911e-01) (286, -4.14955304682078918166e-01) (287, 2.74498305844452172852e-01) (288, 1.22018798815395596025e-01) (289, 1.73652797567035971360e-01) (290, 1.47513951735880194382e-01) (291, 2.59093589710380767244e-01) (292, 1.63579657303478537278e-01) (293, 1.40081140773680029588e-01) (294, 2.63805485891487334627e-01) (295, 1.72135255860473929124e-01) (296, 2.89154819773819182771e-01) (297, 2.43971205877449331956e-01) (298, 1.21598183738376858232e-01) (299, 1.35359443353798208909e-01) (300, 2.05927977182213756135e-01) (0, 2.49690763135338791856e-02) (1, 1.25601967372455741723e-01) (2, 5.34521169443512925157e-02) (3, 9.26405839105035044945e-02) (4, -4.54591908077811093780e-02) (5, -2.18715802352046004287e-02) (6, 1.24217694201030876000e-01) (7, 1.17665653624096033791e-01) (8, 4.29011783976937302598e-02) (9, -4.02963705877875180694e-02) (10, 9.60267237801934459007e-02) (11, -4.05220039705847592804e-02) (12, -5.81825576267141868214e-04) (13, 1.03546564974346277932e-01) (14, 5.19693619985962876329e-02) (15, 2.82518989820862778672e-02) (16, -3.36999170999144545546e-02) (17, 2.84999511618996594076e-02) (18, 5.23029915471459397325e-02) (19, 4.19851742167855271348e-02) (20, 7.80462078233147837913e-02) (21, 1.34288571257973714246e-02) (22, 1.07597132720508692483e-01) (23, 1.20159631170787928323e-01) (24, -2.07333699385737410537e-02) (25, -1.82353243748759261122e-02) (26, 1.11346741714038965920e-01) (27, 1.25270133413829948266e-01) (28, 5.39515683845530162610e-03) (29, -5.12615241627310605499e-02) (30, 1.16842379369297144631e-01) (31, 9.76053378959084727562e-02) (32, -5.84184475760077329132e-02) (33, 3.75356055279160508165e-02) (34, 5.74870235700989870575e-02) (35, -3.66365336398695937148e-02) (36, 8.29051337619210459984e-02) (37, 4.89458195348168381700e-02) (38, -5.17297708015059323761e-02) (39, -6.95256745024671295174e-03) (40, 7.58905462403680064476e-02) (41, 1.11538072623767969827e-01) (42, -3.13341177930098954696e-02) (43, -5.74501626710509152862e-02) (44, 8.23257468123818614281e-02) (45, -6.10229991893385739776e-02) (46, 3.80428559561158188829e-02) (47, 1.15866949357547877053e-01) (48, -1.63825832237464337482e-02) (49, -4.24130507330511899444e-02) (50, 2.50932327886010178575e-02) (51, -1.99946299712275496474e-02) (52, 3.82569185872460373887e-02) (53, -6.85327272032685771985e-05) (54, -8.36945407022696846733e-02) (55, 8.47646645684624888695e-02) (56, -2.16339602367699758434e-03) (57, -5.40060349325751157257e-02) (58, 7.72759071965600230492e-02) (59, 1.21573527850666163186e-01) (60, -4.60683096737760533479e-01) (61, 1.02587409387367954616e-02) (62, -3.36236674876111973909e-01) (63, -2.92037897328947942954e-02) (64, 4.29276914844952561801e-01) (65, 1.11481077452088399304e-02) (66, -4.21255861015218724397e-01) (67, 6.51816941867607718697e-02) (68, -2.95321617813009251741e-01) (69, 1.69121376653100057019e-02) (70, -2.34291054825400343886e-02) (71, -2.17270892314164132397e-01) (72, -4.26965337784189213899e-01) (73, -3.46800619975656754246e-01) (74, -3.42398990483182896760e-01) (75, -4.65121003107160813084e-01) (76, -2.17940937928406686108e-01) (77, -4.24837569014162308445e-01) (78, -2.94290412754911412385e-01) (79, -2.82441661278819040881e-02) (80, -4.12286986203092564729e-01) (81, -3.89678607002825028172e-01) (82, -3.91376847640604264011e-01) (83, -2.94511476770967728367e-01) (84, -3.22506020084947830906e-01) (85, 5.07512024303232167632e-01) (86, 6.78734681983376719749e-02) (87, -4.06327652052969223728e-01) (88, -3.43494544045061356297e-01) (89, -3.97988694027990586033e-01) (90, -4.17513014988035446873e-01) (91, 5.49961759408269967864e-01) (92, -5.90090178470229001495e-02) (93, -4.63851930812925583592e-01) (94, -4.76242566720575577488e-01) (95, -4.36010973767370468845e-01) (96, 2.49164528627778061876e-02) (97, 6.80178530709042550306e-01) (98, -4.21083368877981992218e-02) (99, -3.90886569635004288426e-01) (100, -3.23447415844530350437e-01) (101, -4.08675501362413651218e-01) (102, -4.27995943050001950714e-02) (103, 8.22663321763430488431e-01) (104, 2.15365870023003586065e-01) (105, -3.05680001393884903660e-01) (106, -3.25374137810914065838e-01) (107, -2.18176495484559029858e-01) (108, -3.86521512874068717824e-02) (109, 2.00554590287356582223e+00) (110, 7.85958074228062408828e-01) (111, -7.60908087919553305367e-02) (112, 1.77111548143775887620e-01) (113, -1.16382002664645545220e-01) (114, 2.20674281708298086757e-02) (115, 2.04860183956771102487e+00) (116, 7.93092154161228912734e-01) (117, -1.57867435200055500344e-01) (118, 1.22793457906142711167e+00) (119, -6.13656154106458281983e-02) (120, 1.26088274216378248838e-01) (121, 2.31641816534668887329e+00) (122, 8.85957389742289436185e-01) (123, -2.46557865492550876141e-01) (124, -1.18005062158811610540e-01) (125, -1.08924990652211270414e-01) (126, 1.75929663276398695615e-01) (127, 3.20195850271080617588e+00) (128, 1.62038971051479641083e+00) (129, -3.26167402966823791535e-03) (130, 1.08530234846760720302e+00) (131, -5.14455656995390198105e-01) (132, 7.00072250721101990711e-02) (133, 4.29805058859788768899e+00) (134, 9.28632877439413917386e-01) (135, -4.33748150483698136082e-01) (136, 8.67424931910482199804e-01) (137, -6.69922769171010568101e-01) (138, -2.96945939079851395359e-01) (139, 9.06407143208283971880e-01) (140, -1.77087392858712167065e-01) (141, -2.98878806103269667460e-01) (142, 2.02930591141437632885e+00) (143, 8.86441443178522386903e-02) (144, -4.59104204789728409519e-01) (145, -4.63266133292608017769e-02) (146, -1.95665952018944766522e-01) (147, -4.53902991879980177714e-01) (148, 1.44579893550608939989e+00) (149, 1.30314662339918119205e-01) (150, -3.59111989156336075535e-01) (151, 3.85391739579450795170e-03) (152, -7.98836013506253744820e-02) (153, 2.14509083056679733525e-01) (154, 2.41287311598520570755e+00) (155, 2.78146191066253400948e+00) (156, -9.77398639748891379098e-02) (157, 4.89642148058528139942e-02) (158, -1.60853836519559284524e-01) (159, -1.26884999284469363046e-01) (160, 7.07073156026022786591e+00) (161, 2.98688272996563597417e+00) (162, -3.31401805064495236230e-01) (163, 3.22831825940143979370e-01) (164, -4.71110979591638390218e-01) (165, -4.36252212648422121877e-01) (166, 3.02053272216338797307e+00) (167, 5.21321561059335580879e-01) (168, -2.60248440511381406992e-01) (169, 1.11259655903474352634e+00) (170, -2.45645257837927094569e-01) (171, 1.62565798110300407942e+00) (172, 3.76754221190723326274e+00) (173, 1.88784747663049246036e+00) (174, -1.91312219209825773447e-01) (175, 8.12727015136812780405e-01) (176, -1.28670792288934854319e-01) (177, -1.03173495658199984581e-02) (178, 2.11373009607064243909e+00) (179, 2.70160337579263565289e+00) (180, 9.46885443896208656156e-01) (181, 2.62979242268427571005e+00) (182, 8.95060963601027381742e-01) (183, -3.01605857344840688761e-01) (184, 1.76314600130783949439e+00) (185, 2.65393302631391403423e+00) (186, 9.57403503030691993558e-01) (187, 2.70938479963167866416e+00) (188, 9.05841588646326911771e-01) (189, -1.72058022948478328562e-01) (190, 3.16883513910284797532e-01) (191, -2.20523700139085954142e-01) (192, 9.84872392982397704131e-01) (193, 2.68031717899664601035e+00) (194, 8.61085876494799506986e-01) (195, -5.23132285201266533647e-01) (196, -1.47204387767156025246e-01) (197, -1.15079688999238483049e+00) (198, 8.26915636330996406400e-01) (199, 2.55604818153604185227e+00) (200, 9.28856461912547004545e-01) (201, -9.13295220756007775087e-01) (202, -3.17456767163722064495e-01) (203, -8.88932778509968657410e-01) (204, 3.02056164016257733262e-01) (205, 2.50316124096374803543e+00) (206, 1.67164389747531838548e-01) (207, -2.14455511621682137768e-01) (208, -1.91861164025513675213e-01) (209, -2.51110915295331027508e-01) (210, 2.15387545992862194932e-01) (211, 1.52847822210524864062e+00) (212, 8.69953974665717277848e-02) (213, 1.91500747372308696703e-02) (214, 9.49871368378554237211e-01) (215, 1.55378750294999062875e-01) (216, 2.24768646528254956163e-01) (217, 1.52019206634496040209e+00) (218, 2.03834724384696880373e-01) (219, 3.20003915136613109604e-02) (220, 8.71133051484976661527e-01) (221, 2.50510775125539542074e-01) (222, 9.94877643344049822360e-02) (223, 1.46892263195250816210e+00) (224, 7.50973500506176949720e-01) (225, 1.43380081981972634653e-01) (226, 8.56428786784563911283e-01) (227, 2.51425363696134329672e-01) (228, 5.40915704724435827955e-02) (229, 1.49626162103150672777e+00) (230, 4.23657991907532671672e-01) (231, 8.42493675132180430687e-02) (232, 9.27952378660593879545e-01) (233, -8.95026804097967879081e-03) (234, -8.44753266462164656425e-03) (235, 5.13034382412873246615e-01) (236, 1.16561246561351986029e-01) (237, 9.14502046485329844749e-02) (238, 4.63855680993731478434e-01) (239, 7.15219430108453013695e-02) (240, -1.37329579480963202658e-03) (241, 5.61629304240189530795e-01) (242, -1.58762694424951465721e-02) (243, 1.83554343362237019910e-02) (244, 5.69502049109871899546e-01) (245, 1.20280226268329737405e-01) (246, -4.05298270802115292999e-02) (247, 1.35159693141366048230e-02) (248, 1.64390257974053460854e-02) (249, 9.93469409127618052757e-02) (250, 5.04691266438897057078e-01) (251, 8.20140443225289561546e-02) (252, 7.04671196122552134788e-02) (253, 1.04840581812420008401e-01) (254, 1.26903419889965174416e-01) (255, 1.12817115564728780164e-02) (256, 5.07395566425259514354e-01) (257, -2.22258404414271346083e-02) (258, -1.66835099975680342665e-02) (259, 6.21486953874016839761e-02) (260, 5.00025130291367539415e-02) (261, 7.76690938034158180614e-04) (262, 4.87078079006607989054e-01) (263, -2.37371655412616407166e-02) (264, 5.57588166971589235810e-02) (265, 6.91240481515313365257e-02) (266, 8.95315609355355479515e-02) (267, 3.14043290396119126329e-02) (268, 5.01254261455471916697e-01) (269, -4.89445919402541618215e-02) (270, -2.98326336364363592368e-02) (271, 9.03744600196267344749e-02) (272, 1.12919037737407801369e-01) (273, 1.33753694076920552625e-02) (274, 4.49409903011258105021e-01) (275, 8.00892716042099495066e-02) (276, 8.96704890289407204051e-04) (277, 2.68228123382578415718e-03) (278, -4.30196099500273557159e-02) (279, 8.45768354316140391624e-02) (280, 4.42709223351414660197e-01) (281, 5.28912753782208366893e-01) (282, 3.38319889684105881700e-02) (283, 1.06978555717029688577e-01) (284, 2.75555528183365830430e-02) (285, 2.79765031714821824083e-02) (286, 4.58940283379490832072e-01) (287, 5.91894128869019486849e-01) (288, 7.29917786498452403343e-02) (289, 3.60589749594117173204e-02) (290, 5.81431440492058901337e-02) (291, -9.76460283204069051655e-03) (292, 5.67217582414589638340e-01) (293, 3.92885899802003835113e-01) (294, 2.98733762879754005670e-02) (295, 2.70767040033722886094e-02) (296, 7.53885857243920542992e-02) (297, -1.33539572875117293349e-02) (298, 1.25722145237484095315e-01) (299, -2.95549616734599035484e-02) (300, 2.57009868097273885823e-01) (0, 3.06245694881073053650e-02) (1, 1.95554548037587760945e-01) (2, 4.87306985085597943463e-02) (3, -1.33443797503607353150e-01) (4, -2.05918191497223457276e-01) (5, -5.24897375451494341281e-02) (6, 6.42940346611585306080e-02) (7, -6.39477181305026301517e-03) (8, -9.86682157503518952879e-02) (9, -1.13488043223517034996e-01) (10, -9.94833656894136553195e-02) (11, -1.05553264294760321129e-01) (12, -8.28149225102815522703e-02) (13, 4.33632922302150912441e-03) (14, -8.11565871821794404539e-02) (15, -1.17197329674856756676e-01) (16, -7.25212046252657061007e-02) (17, -2.14762175952093681275e-01) (18, -4.73644267307672395262e-02) (19, -3.96210979210290803465e-02) (20, 4.02220879210081136423e-02) (21, -1.19487928722994421471e-01) (22, -1.97903236870663246094e-01) (23, -8.31133970366884078373e-02) (24, -9.27734281407747163328e-02) (25, 2.60146055830564500166e-02) (26, -1.08836795674714971460e-02) (27, 7.61985491042724699673e-02) (28, -1.10622162495749090660e-01) (29, -1.02797562752859700241e-01) (30, 2.94314418448057175948e-02) (31, 4.93495855940427885500e-02) (32, 2.21041832579221726729e-02) (33, 1.92994111311971305867e-01) (34, -1.69262217854158958374e-01) (35, 1.75702833664952873249e-01) (36, 6.98515568388547725132e-02) (37, 5.45486520057311963239e-02) (38, 8.41400484567276091274e-02) (39, 1.10016865783844853752e-03) (40, -5.91922351466585283664e-02) (41, 2.90886919026962335877e-02) (42, 1.39978909028112052937e-01) (43, 1.75096849923721369080e-02) (44, 1.48256995809613822956e-01) (45, 5.85694853676404711407e-02) (46, -9.99404737101961260226e-02) (47, -2.28993872339672138727e-01) (48, 3.32414461427841959398e-03) (49, 1.22119347577682620110e-02) (50, 1.95378699434339164753e-01) (51, -1.90783450539058707651e-01) (52, -2.12005669410175345835e-01) (53, -3.07254208410924933847e-01) (54, 1.19696841669618220250e-01) (55, 1.59214579594670890828e-01) (56, 1.82754063141881584187e-01) (57, -9.14396848069581880125e-02) (58, -3.14001398320144675669e-01) (59, -2.32597762877887775934e-01) (60, -1.13486599130025081483e-01) (61, 1.06640318101290751396e-01) (62, -1.98020715219369092264e-01) (63, -2.46945897276348164118e-01) (64, 3.71480166460378624649e-01) (65, -1.93246388966983817514e-01) (66, -2.01100442511429944314e-01) (67, -2.08984901254897076361e-01) (68, -2.68555108410706733224e-01) (69, -1.87608698542064689097e-01) (70, -1.91465804512447379526e-01) (71, -1.53710792000240348276e-01) (72, -8.83773825591708944716e-02) (73, -1.04251469250443137837e-01) (74, -2.66058471006741736886e-01) (75, -2.10768679315990470347e-01) (76, -2.78338270420974753794e-01) (77, -1.91962400610393546518e-01) (78, -2.20458254171004452981e-01) (79, -1.91692036918181041294e-01) (80, -1.09607826871266536561e-01) (81, -1.31567843124810901489e-01) (82, -3.17141579623168967661e-01) (83, -7.89401082848946306081e-02) (84, -1.41144976466420518646e-01) (85, 3.93329566220154025480e-01) (86, -3.34302939392886577785e-01) (87, -1.56386784516890919861e-01) (88, -2.56112072652900368830e-01) (89, -4.52464424181385771462e-01) (90, 7.88158867968168086460e-02) (91, 3.81748637060035922453e-01) (92, -3.20224635221324382961e-01) (93, -1.59583068691810048279e-01) (94, -3.89122378117168210565e-01) (95, -5.01381430882616774269e-01) (96, -8.50290189968500031981e-02) (97, 3.61124483744014956876e-01) (98, -3.41552259559577964243e-01) (99, -3.15389025335709061171e-01) (100, -4.71835993338032499977e-01) (101, -1.90350662296215472624e-01) (102, -7.98727105842981233152e-02) (103, 4.49006786765167587028e-02) (104, 1.57059885447079217169e-01) (105, -3.07736079519192184950e-01) (106, -2.26760805953839905680e-01) (107, -2.22611005728641925261e-01) (108, -1.10471373377934459215e-01) (109, 4.10959428371498458610e-02) (110, 1.01272314672524052503e-01) (111, -1.81884105627933917448e-01) (112, -2.29090312654918720758e-01) (113, -3.17201881980101074721e-01) (114, -2.26170264087644512507e-02) (115, -3.73977725923379661355e-02) (116, 3.15787108102010827260e-01) (117, -2.11304973190227923796e-01) (118, 2.89202803631878280211e-01) (119, -4.11393054341863240175e-01) (120, -5.81687196992364541348e-02) (121, 7.12779768957907400306e-02) (122, -5.07790395591995041835e-02) (123, -2.32778358583847461150e-01) (124, -7.55639238251244182987e-02) (125, -1.10265359116244066051e+00) (126, 7.14408986367257997641e-02) (127, 1.75221481288891478556e-01) (128, -9.01795947526237429148e-02) (129, -1.74660916750828204558e-01) (130, 6.97195018759117823848e-01) (131, 5.00958429012365646926e-01) (132, 3.04569546593275071455e-02) (133, -8.98697474573394716746e-02) (134, 1.41369046130346509571e-01) (135, -2.10060525673535197777e-01) (136, 2.70209240643267900595e-01) (137, -1.43389776791203113482e-02) (138, -2.15353365366856036589e-01) (139, 2.11168810610825097296e-01) (140, -4.62180718887253538796e-01) (141, -2.02930817539638541636e-01) (142, 5.75561623201273006578e-03) (143, -2.31882920726644264908e-01) (144, -1.71223874514500079558e-01) (145, -6.69246328962837810916e-02) (146, -5.27708083498879210183e-01) (147, -1.75822803909725211557e-01) (148, 2.07355089371258294317e-01) (149, -1.25237880512582527848e-01) (150, -2.18301023667255816862e-01) (151, -7.95561982286965146960e-02) (152, -5.50078369784756437966e-01) (153, -7.45892133103761567625e-02) (154, -5.42919536008932418492e-03) (155, 7.13626947138787492975e-01) (156, -1.69920678561130938933e-01) (157, -3.48211548953157534747e-01) (158, -2.03724707787434039519e-01) (159, 1.08713464676385845875e-02) (160, 3.03428064710466482978e+00) (161, 1.91147720684343852549e-01) (162, -2.37963236748245550445e-02) (163, -2.22433257578712406666e-01) (164, -5.07070396203203932473e-01) (165, -7.63884884614541959102e-01) (166, 8.45333468069704885295e-01) (167, 3.63441485170713396435e-01) (168, -1.85730706888344587746e-01) (169, 1.68621300102371751706e-01) (170, -4.79275778043671385475e-01) (171, 2.78924674815259759919e-03) (172, 4.41675569564396519606e-01) (173, 1.34593959544796559769e+00) (174, 1.64971743239011765791e-02) (175, 1.53472291864040731590e-02) (176, -2.68874365567070006122e-01) (177, -1.99386875455776629851e-01) (178, 1.62745996066946596592e+00) (179, 1.29931994535313055650e+00) (180, 1.67279720192009484503e-01) (181, 1.25282512847292776259e-01) (182, 3.95891735216236495543e-01) (183, -2.80897799258629288222e-01) (184, 1.13420256636404359618e+00) (185, 5.78258477717324970158e-01) (186, 2.35663741375310875625e-01) (187, 1.50754870716441002898e-01) (188, 3.70248844722618319913e-01) (189, -1.67628984277645526335e-01) (190, 4.13388097571413148934e-01) (191, 2.26019624570464205959e-01) (192, 3.67858379627569176407e-01) (193, -6.50075649846758654715e-03) (194, 3.79099925855507113859e-01) (195, -3.41787982111374344374e-01) (196, -9.15572018727090153334e-01) (197, -1.15872154965196050291e+00) (198, 3.69719206835134484024e-01) (199, 3.33501341379764948414e-02) (200, 2.87552134940733283841e-01) (201, -3.12132547920147385145e-01) (202, -3.58561396706505497445e-01) (203, -2.39613871400753436491e-01) (204, 5.48084182792816891616e-03) (205, 3.67028375963081576749e-01) (206, -7.48666473971773271945e-02) (207, -8.14612544952896117101e-02) (208, -2.68235379989093802866e-01) (209, 2.08923590300142791865e-01) (210, -6.56823017941881304171e-02) (211, 3.94980301956047274992e-01) (212, -8.37874212609697188725e-02) (213, 6.25975672615613903949e-02) (214, 2.69232747951855033719e-01) (215, 5.00196163071241484133e-02) (216, -1.90163651977675041138e-01) (217, 2.62778184856279350967e-01) (218, 3.53856220389707543106e-01) (219, 1.82651721966802238484e-01) (220, 1.20497214234951549594e-02) (221, 1.93200164568959831257e-01) (222, -1.02121526871817219773e-01) (223, 2.18589834417207695694e-01) (224, 2.24696322823865868301e-01) (225, 7.95449475770584196743e-02) (226, 2.74502394596447318875e-01) (227, -1.78859310721056541382e-01) (228, -2.43830631052153218308e-01) (229, 2.02103301431043602676e-01) (230, 3.37172597195013024063e-01) (231, 4.62880517368904204067e-02) (232, 2.45121012921436287613e-01) (233, -1.13246525202887152184e-01) (234, -8.28604051219392623295e-02) (235, 2.50349025721652906906e-01) (236, 2.55663569564922255051e-01) (237, 1.31389805210172294636e-01) (238, 3.86205940986974693985e-01) (239, -1.07663000498907659996e-01) (240, 1.28070154321729329228e-01) (241, 3.64955633427007652969e-01) (242, -1.54801020895140251099e-01) (243, 8.87147421961418242153e-02) (244, 3.42385202194555260391e-01) (245, 3.16313452566965080948e-01) (246, -6.15184772299680535101e-02) (247, -4.73464676486421709445e-02) (248, -1.68953234488910697397e-01) (249, 7.85454465204392382471e-03) (250, 3.79052444840772606582e-01) (251, -2.13744955633776267945e-01) (252, -1.14282956300869945054e-01) (253, -1.22637110327379797448e-01) (254, 4.99617095118156384626e-02) (255, 2.59301747208229120545e-02) (256, 2.00655027772291161270e-01) (257, -1.62339041505949577271e-01) (258, 9.15028761153808684048e-02) (259, -2.42743613694803822556e-01) (260, -3.02037428604516981767e-02) (261, -2.15577403579847892701e-01) (262, 2.47291627819641063324e-01) (263, 3.29749255920751549453e-01) (264, 1.60292917025624870320e-01) (265, -2.35136794422762473999e-01) (266, 1.81215086114942192097e-01) (267, -2.28296371673243125855e-01) (268, 3.40000211740835167618e-01) (269, 3.67168187643392540664e-01) (270, 1.53157495987950920124e-01) (271, 6.85023452168098540005e-02) (272, 1.33240618837415336628e-01) (273, -2.01896368091003974854e-01) (274, 3.56279432321889855118e-01) (275, 2.75372981573446251602e-01) (276, 1.59533911479055046101e-01) (277, 1.02777640348068327603e-02) (278, 7.31433416729560942349e-02) (279, 3.38804706479413964004e-01) (280, 2.17194653595788933487e-01) (281, 2.51942943329914015305e-01) (282, 1.70176589024602531453e-01) (283, 1.84285054927459772400e-02) (284, 1.74422660005628227253e-01) (285, 2.19200633014543511123e-01) (286, 2.43421017671926476211e-01) (287, 3.74824851299627281875e-01) (288, 1.01978414786397561520e-01) (289, 1.35355868471204399128e-01) (290, 1.77198075783788322468e-01) (291, 3.85921865249975182266e-01) (292, 3.63525658394201256485e-01) (293, 2.24236867870195366592e-01) (294, 1.16787918937741846959e-01) (295, 1.24250576925813330242e-01) (296, 3.42169041758171171841e-02) (297, -1.46934675549166282593e-01) (298, 3.39701383854253746719e-01) (299, -7.00357505427766924289e-02) (300, 5.01810468232448680936e-01) (0, 1.46272618859880132458e-01) (1, 9.58803673981358517420e-02) (2, 2.51319882064931499066e-01) (3, 1.47377733384952469553e-01) (4, 1.44033774025826455389e-01) (5, 8.56943021172141133901e-02) (6, 1.48089346080892247937e-01) (7, 6.26167027054955332988e-02) (8, 2.00015347987287206433e-01) (9, 4.58954910391425191518e-02) (10, -2.83146731182051004938e-02) (11, 1.43832265623002053534e-01) (12, 5.72497738300492137187e-02) (13, 9.84189999996354092371e-02) (14, 2.26560112625234233441e-01) (15, 3.54518483036612569448e-02) (16, 3.37139882520723424553e-02) (17, 9.32589315251398098816e-02) (18, 1.78607967287175817273e-01) (19, 7.73750362693001736414e-02) (20, 1.78762179404370946667e-01) (21, 1.64961804240815801403e-01) (22, 1.32774665244011880194e-01) (23, 9.97924661425192705000e-02) (24, 8.14968837200333584558e-02) (25, 2.25132184324958128929e-01) (26, 2.97196874616839634697e-01) (27, 1.78994220286481542370e-01) (28, 1.05463780999057482601e-01) (29, 2.11791348248593969128e-01) (30, 2.44091701298825902722e-01) (31, 1.76106920679547140907e-01) (32, 3.20422260365265110238e-02) (33, 2.00746450816974564280e-01) (34, 9.26449264043425479986e-02) (35, 1.23637507313345794413e-02) (36, 1.16067227512471865536e-01) (37, 2.06535315354801962684e-01) (38, 1.22978160379626555443e-01) (39, 2.14174280518149295904e-02) (40, 2.15910936349486271002e-02) (41, 4.87545768374060689565e-02) (42, 1.00371331115085254959e-01) (43, 1.26838574407794280052e-01) (44, 1.73737213154155356598e-01) (45, 1.93898592388019486155e-01) (46, -1.78734220190954508356e-02) (47, 1.15848898179917336737e-01) (48, 2.22279168804008109284e-01) (49, 2.54425667364913565827e-01) (50, 2.86915041644889456940e-01) (51, 6.80085087770079671499e-02) (52, 1.92271538452196202873e-02) (53, 1.28087400682358687476e-01) (54, 2.59552318374569657156e-01) (55, 1.94415144760924918366e-01) (56, 3.36525034771904096864e-01) (57, 2.02365432178363724436e-01) (58, -2.67509527131033243708e-02) (59, 9.24123965577173245300e-02) (60, 4.02269560615475363363e-01) (61, 2.60447968409999952577e-01) (62, 3.34021408723339185975e-01) (63, 9.49972264842081082215e-02) (64, -4.69514660163831767936e-02) (65, 1.18520452864556313788e-01) (66, 4.04031771938259787191e-01) (67, 1.62806868691760642243e-01) (68, 3.90557882057174787782e-01) (69, 1.10418141463144575676e-01) (70, -2.73694628922175192676e-02) (71, 1.08922541716440474113e-01) (72, 4.50924057285244650473e-01) (73, 1.81189261515456778717e-01) (74, 4.14147120581611738466e-01) (75, 2.95035695818503113097e-02) (76, -2.46992144721378571737e-02) (77, -3.98252675148408272210e-02) (78, 2.92098228500827894472e-01) (79, 3.07918193260047837190e-02) (80, 2.65004344423133475495e-01) (81, 2.23089457675107807888e-02) (82, -3.78179062145580571763e-02) (83, -2.45135592545675604775e-03) (84, 1.21405668695289251091e-01) (85, -3.27253688269271009181e-02) (86, 1.79198906056008133714e-01) (87, 1.01226382069218995285e-01) (88, -4.08556681114067357652e-02) (89, 1.55254282168973328782e-01) (90, 1.64648085971194846344e-01) (91, -9.30458802872313750498e-02) (92, 2.27200910679421219651e-01) (93, 1.41965188197720915131e-01) (94, 5.85830774170528270628e-02) (95, -4.32645747276704170647e-02) (96, 1.93127256423108739636e-01) (97, 6.30713333205947468407e-01) (98, 1.09183659990765402625e-01) (99, 1.17865585021099839036e-01) (100, 9.50996505537841652078e-02) (101, 1.87595337859711441819e-01) (102, 6.05626741999243795034e-02) (103, 6.40768588048335141494e-01) (104, 6.05528841370200215932e-02) (105, 5.03207819977615558593e-02) (106, 4.66572817272530443455e-02) (107, -3.80412293716782312636e-01) (108, 4.42700574749564229604e-02) (109, 7.71755934220667905166e-01) (110, 1.34592723345146103586e-01) (111, 5.91026363669564097636e-02) (112, -1.01555923267373976460e-01) (113, -1.90444477991679295137e-01) (114, 6.56246917897318898794e-02) (115, 6.47951841813441342666e-01) (116, 6.22644909185286588027e-01) (117, -2.25410943960534682073e-01) (118, 2.14774332029984860171e-01) (119, -2.69955792622187773500e-01) (120, 1.95728007947788162912e-01) (121, 6.44834675563258241660e-01) (122, 6.82813093525286740615e-01) (123, -4.73056269043554758480e-02) (124, -6.65832529516590443386e-01) (125, -4.14862445259465584257e-01) (126, 2.01634828245029373850e-01) (127, 7.85943906586552332172e-01) (128, 7.43620947462435788466e-01) (129, -1.61822294926034504492e-01) (130, -2.99790436004981897256e-01) (131, -1.14287978412534307893e+00) (132, 3.91406382077788411733e-02) (133, 1.02578145002676390796e+00) (134, 6.74725920421000546767e-01) (135, 2.56814440873701782531e-02) (136, 3.56517916029674974965e-01) (137, -9.53424262835529612303e-01) (138, 1.46111742236955888252e-01) (139, 3.20135261719252384172e-02) (140, -4.52367684654830182200e-01) (141, 6.39809437469530117859e-02) (142, 3.94851942962391344594e-01) (143, -2.73877661383683967955e-01) (144, -3.78073756984271702741e-01) (145, -1.08297811835524976365e-01) (146, -1.37910438930371859190e-01) (147, 9.65669607904990068281e-02) (148, 2.53258628255112139271e-01) (149, -2.05323587811525209990e-01) (150, -1.81185962741958195288e-01) (151, -2.04237110064396265585e-01) (152, -6.83340008111370411648e-01) (153, 1.67098406946048660959e-01) (154, -1.65788473164424687845e-01) (155, 5.72312759079400601436e-01) (156, -2.13255612289296681006e-01) (157, 4.58094977893735016972e-02) (158, -3.41330976383307671540e-01) (159, -1.87763386563876255586e-01) (160, -3.07782994186267755410e-01) (161, 8.28358549028828106131e-01) (162, -3.11440427521356810736e-01) (163, -1.36203675613769892294e-01) (164, -3.61869649188140130036e-01) (165, -2.55409919814685026918e-01) (166, 1.12903192964895304762e+00) (167, 2.05601478168451146100e-01) (168, 1.34244509529411193416e-01) (169, 4.38287676993100339118e-01) (170, -2.57409096853354613099e-01) (171, -6.91457769908433994566e-02) (172, 1.18894131149385473556e+00) (173, 3.71323418202355259865e-01) (174, 5.24003063552969453043e-02) (175, -1.87885196482524219341e-01) (176, 1.11021789248875374367e-01) (177, -2.37549260918093363415e-01) (178, 6.13699891082481796545e-01) (179, 3.72614051992788519740e-01) (180, 1.52550898980438109920e-01) (181, -1.92103238379344287701e-01) (182, 1.60421723957947515160e-01) (183, -1.75841980771639927461e-01) (184, -1.38109885815573318890e-01) (185, -1.15355116510566291232e-01) (186, 4.46513765415466126751e-02) (187, 4.26065506163327389899e-01) (188, 6.88771609251882743763e-01) (189, -2.90831321076968352113e-01) (190, -1.37335949305487259320e-01) (191, -9.30384247949399112443e-01) (192, 1.70932645436218999535e-01) (193, 4.28087936464039975348e-01) (194, 6.30825769191171836781e-01) (195, 2.17572608844980558418e-01) (196, -3.08313206927397942536e-01) (197, -3.88225610247258323682e-01) (198, 1.26782486673287148049e-01) (199, 3.03602369251935177985e-01) (200, 9.09053766339185803647e-03) (201, -3.94551567774977102188e-02) (202, 4.83416321197365009277e-02) (203, 1.22405039028868040107e-01) (204, 1.29887456532410378029e-01) (205, -2.67949396347389123818e-01) (206, -2.88927976184500806545e-02) (207, 1.65642177907922072411e-01) (208, 1.16448086045599918936e-01) (209, 3.06060100196101414483e-01) (210, -3.63441324622270495182e-03) (211, -2.61621044551715642434e-01) (212, 6.83732505745278246190e-02) (213, 1.99323585470654318641e-01) (214, 4.13021062441105479834e-01) (215, 1.25234892805554220985e-01) (216, 1.64946919520832846473e-01) (217, -2.15167449390277654153e-01) (218, -5.82195717983855359767e-02) (219, 1.19754335125424229980e-01) (220, 3.44485324747795584877e-01) (221, 1.62728006478241704613e-01) (222, 9.14429987891683393464e-02) (223, 2.28240509933216539906e-01) (224, 1.17130988689859105722e-01) (225, 2.28782138069607510200e-01) (226, 5.07973437137836936195e-01) (227, 1.73307443495682500512e-01) (228, 6.73888514393424092885e-02) (229, 3.47578471010906664418e-01) (230, -7.87096069016363433790e-03) (231, 1.01363321979977438758e-01) (232, 6.98944662527808735497e-01) (233, 1.20371992810735586876e-02) (234, 1.73867289220676346506e-01) (235, 1.62377114613544704103e-03) (236, 6.35440417007493985047e-02) (237, 4.26635260337447225210e-02) (238, 5.77640841125614312723e-01) (239, -1.03700391574811957851e-02) (240, 3.56872568482016622182e-02) (241, 1.09307422526268960272e-01) (242, 9.31507192925500882019e-02) (243, 2.01749552285060806955e-01) (244, 5.48338557004100835002e-01) (245, 3.83109825774202508719e-02) (246, 9.61447174304579932347e-02) (247, 1.18984870986032567619e-02) (248, 1.88285332463599186514e-01) (249, 1.35614175593242569651e-01) (250, 5.71360374211437260783e-01) (251, -2.64612815900755228571e-02) (252, 1.23226119419075810790e-01) (253, 1.89393315473080497968e-03) (254, 6.74217177829521258081e-02) (255, 1.98634679072951236822e-02) (256, 4.70383635132677113688e-01) (257, -2.43143371864271463922e-02) (258, 2.18054851730801413368e-01) (259, 5.54211505130815587639e-02) (260, 1.88906630714871237586e-01) (261, 2.00786058103427811350e-01) (262, 5.96492017029888299540e-01) (263, 7.68189274148035061707e-02) (264, 4.14967520437019565804e-02) (265, 8.80079858378458035340e-02) (266, 7.27932064137237627710e-02) (267, 7.42010616139459622254e-02) (268, 5.89414710520870355204e-01) (269, -5.09529493375730571647e-02) (270, 2.87514219282366978447e-01) (271, 3.11110416649081455986e-01) (272, 2.82037655113436924736e-01) (273, 6.76285542921113980164e-02) (274, 1.32696121223359109198e-01) (275, 4.67925809697198949455e-02) (276, 2.83937165735461460869e-01) (277, 1.85396554170348448753e-01) (278, 2.82374257443644749443e-01) (279, 1.13500549681572915350e-01) (280, 6.11394161700374749735e-01) (281, 7.01509707049417507996e-02) (282, 2.28525793393589748970e-01) (283, 1.19396416684128606200e-01) (284, 2.13531455238797018836e-01) (285, -2.10553265734625162653e-02) (286, 5.11839958249694970682e-01) (287, -1.74719102307272257379e-02) (288, 1.18511755555741990498e-01) (289, 1.14670930644013235877e-01) (290, 1.79435765584446738075e-01) (291, -3.19793529435110218673e-02) (292, 1.74898051098871312736e-02) (293, 7.45407931880044949402e-02) (294, 2.08720993786924047253e-01) (295, 1.36704851478212041638e-01) (296, 8.49996621364211141225e-02) (297, 2.09243942295894547190e-01) (298, -4.23286862297964153190e-02) (299, -7.93695893129825816303e-03) (300, 1.19571405962369939346e-01) (0, 2.85440273212578032869e-01) (1, 1.43428194897558508591e-01) (2, 2.68779314684059411622e-01) (3, 1.75369139517624395008e-01) (4, 9.84246318591428109857e-02) (5, 1.37872215117294805165e-01) (6, 3.69992414577160366740e-01) (7, 3.94507305784378536906e-01) (8, 3.30932581885014065470e-01) (9, 1.15093882883865850086e-01) (10, 1.66955101991970555897e-01) (11, 2.32684474195320678547e-01) (12, 3.36502449674759396281e-01) (13, 4.79234287603054587290e-01) (14, 5.29320913372612555925e-01) (15, 1.47048044706661718006e-01) (16, 1.52127895261127965565e-01) (17, 2.53227706755478398915e-01) (18, 5.26269900618172248308e-01) (19, 4.86001940068641447024e-01) (20, 5.15768456278420051042e-01) (21, 2.35669236387093167240e-01) (22, 1.08772326017696888134e-01) (23, 1.31687972451527135487e-01) (24, 5.05100327549553362871e-01) (25, 4.42285405096450479068e-01) (26, 5.18828275619125922624e-01) (27, 1.88595492149670140858e-01) (28, 2.05237310136635320301e-01) (29, 2.52270024026711003895e-01) (30, 4.93383720841156281356e-01) (31, 1.92709859217484014149e-01) (32, 3.21452992124710568156e-01) (33, 1.61217424775440709706e-01) (34, 1.03134385998327762768e-01) (35, 1.31210516895134465809e-01) (36, 5.48089730558968146745e-01) (37, 1.84459697212059514637e-01) (38, 2.37050708140213589603e-01) (39, 7.64104982269597360345e-02) (40, 2.34608959163506131107e-01) (41, 1.39061186219532506581e-01) (42, 5.58095070539093573991e-01) (43, 9.34111088487594026786e-02) (44, 3.79671195146480233706e-01) (45, 4.97559845771538056258e-01) (46, 1.64547722543556707020e-01) (47, 2.16811638082344548817e-01) (48, 4.96809738693810010179e-01) (49, 1.22895101455160832282e-01) (50, 4.37868946787753732242e-01) (51, 4.22722068007933049483e-01) (52, 8.26529150260281869622e-02) (53, 2.31653835381348149891e-01) (54, 5.00432218430614916826e-01) (55, 4.58906756338515908755e-01) (56, 4.08994609114566476382e-01) (57, 4.29404359634863286299e-01) (58, 1.32514793182690160389e-01) (59, 9.92444564951253244134e-02) (60, 5.43230041435991628518e-01) (61, 5.08018822965064842379e-01) (62, 5.50734252432950599498e-01) (63, 4.49515633609043507857e-01) (64, -3.10828781359044459265e-01) (65, 6.51994605911565133782e-02) (66, 6.68272274428935109114e-01) (67, 3.96963671944742357844e-01) (68, 5.63982635710509327964e-01) (69, 4.98854416428185010179e-01) (70, 1.34915064777214543934e-01) (71, 4.68323568819141944353e-01) (72, 7.19550334179891559749e-01) (73, 3.87635280541782534236e-01) (74, 5.51146641347678212242e-01) (75, 4.37654717830992301408e-01) (76, 2.54724933204361736472e-01) (77, 3.85426337836361487810e-01) (78, 5.05055207333599431863e-01) (79, 1.72645351288029463843e-01) (80, 3.91979781143074190730e-01) (81, 5.12403237639046160723e-01) (82, 5.30422794638252814714e-01) (83, 4.50118298647976478044e-01) (84, 4.15210568901935250796e-01) (85, -3.27056585483399775427e-01) (86, 3.30135726925769479312e-01) (87, 6.78873223999980068832e-01) (88, 5.13447540817833392168e-01) (89, 5.67361397484782536971e-01) (90, 3.43517558273711831607e-01) (91, -4.84556370277250625378e-01) (92, 3.90737259385028512515e-01) (93, 6.75238145331385708481e-01) (94, 5.49601515571120580184e-01) (95, 6.49696929196360684067e-01) (96, 5.05837471780219871675e-01) (97, -8.87164883687942218415e-01) (98, 8.85031705153775521966e-02) (99, 5.95262875596526463973e-01) (100, 6.17425633410456975447e-01) (101, 5.78171936611178716170e-01) (102, 6.49987866533589669915e-02) (103, -2.00387769621646372187e+00) (104, -5.25216647286261051342e-01) (105, 5.80664227851046765849e-01) (106, 5.53552225556122268202e-01) (107, 5.95194812067164624736e-01) (108, 6.68910234991987734388e-02) (109, -1.23099299105919186559e+01) (110, -8.81729871407001208894e-01) (111, 6.40721912630213719098e-01) (112, -5.05897134693001904182e-01) (113, 5.06726589406544802863e-01) (114, -8.35931898909013371135e-03) (115, -1.24761928874171559301e+01) (116, -8.57120033725946139924e-01) (117, 5.27099165268553937480e-01) (118, -8.75753045454471301667e-01) (119, 5.85278311066169787402e-01) (120, 8.95073950116117844633e-02) (121, -1.24534325073576752629e+01) (122, -1.96995594781672922480e+00) (123, 4.85567416198863122112e-01) (124, -9.99712938796941952280e-02) (125, 1.45925324481692397782e+00) (126, 1.43748117575790923528e-01) (127, -2.88613981790022791074e+01) (128, -2.59935471151399477563e+00) (129, 4.74179933913363604869e-01) (130, -1.98591737133300272333e+00) (131, 3.01062208571029632509e+00) (132, 3.05124013698278739870e-01) (133, -1.23613132122076336827e+01) (134, -8.01773235574214648835e-01) (135, 4.04660471107708363814e-01) (136, -3.21945699998699430555e-01) (137, 1.15030889576402159946e+01) (138, 6.31932775624407749859e-01) (139, -3.12316836535754704940e-01) (140, 4.48023580338703542036e-01) (141, 5.44431731428848708632e-01) (142, -1.44135868505697328779e+00) (143, 2.86820265324848999722e-01) (144, 6.19971419819010716168e-01) (145, 5.38635045613991225721e-01) (146, 5.13552389242066587016e-01) (147, 5.57080209579216445448e-01) (148, -1.54966091320972521039e+00) (149, 2.90917328538618402689e-01) (150, 6.40254478104723911969e-01) (151, 2.13403888587620438333e-01) (152, 5.90541320987357343242e-01) (153, 1.80491291527416886087e-01) (154, -1.95857372564113108027e+00) (155, -5.09625074057251797877e-02) (156, 6.26785199292315464703e-01) (157, 2.02240415458347977395e-01) (158, 5.31365137899930117804e-01) (159, 2.44798176531460492944e-01) (160, -1.23565746876514737096e+01) (161, -5.21199721950955652261e+00) (162, 2.16143064741757096048e-01) (163, 1.04529801405930621028e-02) (164, 