FANN_FLO_2.1
num_layers=3
learning_rate=0.700000
connection_rate=1.000000
network_type=0
learning_momentum=0.000000
training_algorithm=2
train_error_function=1
train_stop_function=0
cascade_output_change_fraction=0.010000
quickprop_decay=-0.000100
quickprop_mu=1.750000
rprop_increase_factor=1.200000
rprop_decrease_factor=0.500000
rprop_delta_min=0.000000
rprop_delta_max=50.000000
rprop_delta_zero=0.100000
cascade_output_stagnation_epochs=12
cascade_candidate_change_fraction=0.010000
cascade_candidate_stagnation_epochs=12
cascade_max_out_epochs=150
cascade_max_cand_epochs=150
cascade_num_candidate_groups=2
bit_fail_limit=3.49999999999999977796e-01
cascade_candidate_limit=1.00000000000000000000e+03
cascade_weight_multiplier=4.00000000000000022204e-01
cascade_activation_functions_count=10
cascade_activation_functions=3 5 7 8 10 11 14 15 16 17 
cascade_activation_steepnesses_count=4
cascade_activation_steepnesses=2.50000000000000000000e-01 5.00000000000000000000e-01 7.50000000000000000000e-01 1.00000000000000000000e+00 
layer_sizes=301 21 3 
scale_included=0
neurons (num_inputs, activation_function, activation_steepness)=(0, 0, 0.00000000000000000000e+00) (0, 0, 0.00000000000000000000e+00) (0, 0, 0.00000000000000000000e+00) (0, 0, 0.00000000000000000000e+00) (0, 0, 0.00000000000000000000e+00) (0, 0, 0.00000000000000000000e+00) (0, 0, 0.00000000000000000000e+00) (0, 0, 0.00000000000000000000e+00) (0, 0, 0.00000000000000000000e+00) (0, 0, 0.00000000000000000000e+00) (0, 0, 0.00000000000000000000e+00) (0, 0, 0.00000000000000000000e+00) (0, 0, 0.00000000000000000000e+00) (0, 0, 0.00000000000000000000e+00) (0, 0, 0.00000000000000000000e+00) (0, 0, 0.00000000000000000000e+00) (0, 0, 0.00000000000000000000e+00) (0, 0, 0.00000000000000000000e+00) (0, 0, 0.00000000000000000000e+00) (0, 0, 0.00000000000000000000e+00) (0, 0, 0.00000000000000000000e+00) (0, 0, 0.00000000000000000000e+00) (0, 0, 0.00000000000000000000e+00) (0, 0, 0.00000000000000000000e+00) (0, 0, 0.00000000000000000000e+00) (0, 0, 0.00000000000000000000e+00) (0, 0, 0.00000000000000000000e+00) (0, 0, 0.00000000000000000000e+00) (0, 0, 0.00000000000000000000e+00) (0, 0, 0.00000000000000000000e+00) (0, 0, 0.00000000000000000000e+00) (0, 0, 0.00000000000000000000e+00) (0, 0, 0.00000000000000000000e+00) (0, 0, 0.00000000000000000000e+00) (0, 0, 0.00000000000000000000e+00) (0, 0, 0.00000000000000000000e+00) (0, 0, 0.00000000000000000000e+00) (0, 0, 0.00000000000000000000e+00) (0, 0, 0.00000000000000000000e+00) (0, 0, 0.00000000000000000000e+00) (0, 0, 0.00000000000000000000e+00) (0, 0, 0.00000000000000000000e+00) (0, 0, 0.00000000000000000000e+00) (0, 0, 0.00000000000000000000e+00) (0, 0, 0.00000000000000000000e+00) (0, 0, 0.00000000000000000000e+00) (0, 0, 0.00000000000000000000e+00) (0, 0, 0.00000000000000000000e+00) (0, 0, 0.00000000000000000000e+00) (0, 0, 0.00000000000000000000e+00) (0, 0, 0.00000000000000000000e+00) (0, 0, 0.00000000000000000000e+00) (0, 0, 0.00000000000000000000e+00) (0, 0, 0.00000000000000000000e+00) (0, 0, 0.00000000000000000000e+00) (0, 0, 0.00000000000000000000e+00) (0, 0, 0.00000000000000000000e+00) (0, 0, 0.00000000000000000000e+00) (0, 0, 0.00000000000000000000e+00) (0, 0, 0.00000000000000000000e+00) (0, 0, 0.00000000000000000000e+00) (0, 0, 0.00000000000000000000e+00) (0, 0, 0.00000000000000000000e+00) (0, 0, 0.00000000000000000000e+00) (0, 0, 0.00000000000000000000e+00) (0, 0, 0.00000000000000000000e+00) (0, 0, 0.00000000000000000000e+00) (0, 0, 0.00000000000000000000e+00) (0, 0, 0.00000000000000000000e+00) (0, 0, 0.00000000000000000000e+00) (0, 0, 0.00000000000000000000e+00) (0, 0, 0.00000000000000000000e+00) (0, 0, 0.00000000000000000000e+00) (0, 0, 0.00000000000000000000e+00) (0, 0, 0.00000000000000000000e+00) (0, 0, 0.00000000000000000000e+00) (0, 0, 0.00000000000000000000e+00) (0, 0, 0.00000000000000000000e+00) (0, 0, 0.00000000000000000000e+00) (0, 0, 0.00000000000000000000e+00) (0, 0, 0.00000000000000000000e+00) (0, 0, 0.00000000000000000000e+00) (0, 0, 0.00000000000000000000e+00) (0, 0, 0.00000000000000000000e+00) (0, 0, 0.00000000000000000000e+00) (0, 0, 0.00000000000000000000e+00) (0, 0, 0.00000000000000000000e+00) (0, 0, 0.00000000000000000000e+00) (0, 0, 0.00000000000000000000e+00) (0, 0, 0.00000000000000000000e+00) (0, 0, 0.00000000000000000000e+00) (0, 0, 0.00000000000000000000e+00) (0, 0, 0.00000000000000000000e+00) (0, 0, 0.00000000000000000000e+00) (0, 0, 0.00000000000000000000e+00) (0, 0, 0.00000000000000000000e+00) (0, 0, 0.00000000000000000000e+00) (0, 0, 0.00000000000000000000e+00) (0, 0, 0.00000000000000000000e+00) (0, 0, 0.00000000000000000000e+00) (0, 0, 0.00000000000000000000e+00) (0, 0, 0.00000000000000000000e+00) (0, 0, 0.00000000000000000000e+00) (0, 0, 0.00000000000000000000e+00) (0, 0, 0.00000000000000000000e+00) (0, 0, 0.00000000000000000000e+00) (0, 0, 0.00000000000000000000e+00) (0, 0, 0.00000000000000000000e+00) (0, 0, 0.00000000000000000000e+00) (0, 0, 0.00000000000000000000e+00) (0, 0, 0.00000000000000000000e+00) (0, 0, 0.00000000000000000000e+00) (0, 0, 0.00000000000000000000e+00) (0, 0, 0.00000000000000000000e+00) (0, 0, 0.00000000000000000000e+00) (0, 0, 0.00000000000000000000e+00) (0, 0, 0.00000000000000000000e+00) (0, 0, 0.00000000000000000000e+00) (0, 0, 0.00000000000000000000e+00) (0, 0, 0.00000000000000000000e+00) (0, 0, 0.00000000000000000000e+00) (0, 0, 0.00000000000000000000e+00) (0, 0, 0.00000000000000000000e+00) (0, 0, 0.00000000000000000000e+00) (0, 0, 0.00000000000000000000e+00) (0, 0, 0.00000000000000000000e+00) (0, 0, 0.00000000000000000000e+00) (0, 0, 0.00000000000000000000e+00) (0, 0, 0.00000000000000000000e+00) (0, 0, 0.00000000000000000000e+00) (0, 0, 0.00000000000000000000e+00) (0, 0, 0.00000000000000000000e+00) (0, 0, 0.00000000000000000000e+00) (0, 0, 0.00000000000000000000e+00) (0, 0, 0.00000000000000000000e+00) (0, 0, 0.00000000000000000000e+00) (0, 0, 0.00000000000000000000e+00) (0, 0, 0.00000000000000000000e+00) (0, 0, 0.00000000000000000000e+00) (0, 0, 0.00000000000000000000e+00) (0, 0, 0.00000000000000000000e+00) (0, 0, 0.00000000000000000000e+00) (0, 0, 0.00000000000000000000e+00) (0, 0, 0.00000000000000000000e+00) (0, 0, 0.00000000000000000000e+00) (0, 0, 0.00000000000000000000e+00) (0, 0, 0.00000000000000000000e+00) (0, 0, 0.00000000000000000000e+00) (0, 0, 0.00000000000000000000e+00) (0, 0, 0.00000000000000000000e+00) (0, 0, 0.00000000000000000000e+00) (0, 0, 0.00000000000000000000e+00) (0, 0, 0.00000000000000000000e+00) (0, 0, 0.00000000000000000000e+00) (0, 0, 0.00000000000000000000e+00) (0, 0, 0.00000000000000000000e+00) (0, 0, 0.00000000000000000000e+00) (0, 0, 0.00000000000000000000e+00) (0, 0, 0.00000000000000000000e+00) (0, 0, 0.00000000000000000000e+00) (0, 0, 0.00000000000000000000e+00) (0, 0, 0.00000000000000000000e+00) (0, 0, 0.00000000000000000000e+00) (0, 0, 0.00000000000000000000e+00) (0, 0, 0.00000000000000000000e+00) (0, 0, 0.00000000000000000000e+00) (0, 0, 0.00000000000000000000e+00) (0, 0, 0.00000000000000000000e+00) (0, 0, 0.00000000000000000000e+00) (0, 0, 0.00000000000000000000e+00) (0, 0, 0.00000000000000000000e+00) (0, 0, 0.00000000000000000000e+00) (0, 0, 0.00000000000000000000e+00) (0, 0, 0.00000000000000000000e+00) (0, 0, 0.00000000000000000000e+00) (0, 0, 0.00000000000000000000e+00) (0, 0, 0.00000000000000000000e+00) (0, 0, 0.00000000000000000000e+00) (0, 0, 0.00000000000000000000e+00) (0, 0, 0.00000000000000000000e+00) (0, 0, 0.00000000000000000000e+00) (0, 0, 0.00000000000000000000e+00) (0, 0, 0.00000000000000000000e+00) (0, 0, 0.00000000000000000000e+00) (0, 0, 0.00000000000000000000e+00) (0, 0, 0.00000000000000000000e+00) (0, 0, 0.00000000000000000000e+00) (0, 0, 0.00000000000000000000e+00) (0, 0, 0.00000000000000000000e+00) (0, 0, 0.00000000000000000000e+00) (0, 0, 0.00000000000000000000e+00) (0, 0, 0.00000000000000000000e+00) (0, 0, 0.00000000000000000000e+00) (0, 0, 0.00000000000000000000e+00) (0, 0, 0.00000000000000000000e+00) (0, 0, 0.00000000000000000000e+00) (0, 0, 0.00000000000000000000e+00) (0, 0, 0.00000000000000000000e+00) (0, 0, 0.00000000000000000000e+00) (0, 0, 0.00000000000000000000e+00) (0, 0, 0.00000000000000000000e+00) (0, 0, 0.00000000000000000000e+00) (0, 0, 0.00000000000000000000e+00) (0, 0, 0.00000000000000000000e+00) (0, 0, 0.00000000000000000000e+00) (0, 0, 0.00000000000000000000e+00) (0, 0, 0.00000000000000000000e+00) (0, 0, 0.00000000000000000000e+00) (0, 0, 0.00000000000000000000e+00) (0, 0, 0.00000000000000000000e+00) (0, 0, 0.00000000000000000000e+00) (0, 0, 0.00000000000000000000e+00) (0, 0, 0.00000000000000000000e+00) (0, 0, 0.00000000000000000000e+00) (0, 0, 0.00000000000000000000e+00) (0, 0, 0.00000000000000000000e+00) (0, 0, 0.00000000000000000000e+00) (0, 0, 0.00000000000000000000e+00) (0, 0, 0.00000000000000000000e+00) (0, 0, 0.00000000000000000000e+00) (0, 0, 0.00000000000000000000e+00) (0, 0, 0.00000000000000000000e+00) (0, 0, 0.00000000000000000000e+00) (0, 0, 0.00000000000000000000e+00) (0, 0, 0.00000000000000000000e+00) (0, 0, 0.00000000000000000000e+00) (0, 0, 0.00000000000000000000e+00) (0, 0, 0.00000000000000000000e+00) (0, 0, 0.00000000000000000000e+00) (0, 0, 0.00000000000000000000e+00) (0, 0, 0.00000000000000000000e+00) (0, 0, 0.00000000000000000000e+00) (0, 0, 0.00000000000000000000e+00) (0, 0, 0.00000000000000000000e+00) (0, 0, 0.00000000000000000000e+00) (0, 0, 0.00000000000000000000e+00) (0, 0, 0.00000000000000000000e+00) (0, 0, 0.00000000000000000000e+00) (0, 0, 0.00000000000000000000e+00) (0, 0, 0.00000000000000000000e+00) (0, 0, 0.00000000000000000000e+00) (0, 0, 0.00000000000000000000e+00) (0, 0, 0.00000000000000000000e+00) (0, 0, 0.00000000000000000000e+00) (0, 0, 0.00000000000000000000e+00) (0, 0, 0.00000000000000000000e+00) (0, 0, 0.00000000000000000000e+00) (0, 0, 0.00000000000000000000e+00) (0, 0, 0.00000000000000000000e+00) (0, 0, 0.00000000000000000000e+00) (0, 0, 0.00000000000000000000e+00) (0, 0, 0.00000000000000000000e+00) (0, 0, 0.00000000000000000000e+00) (0, 0, 0.00000000000000000000e+00) (0, 0, 0.00000000000000000000e+00) (0, 0, 0.00000000000000000000e+00) (0, 0, 0.00000000000000000000e+00) (0, 0, 0.00000000000000000000e+00) (0, 0, 0.00000000000000000000e+00) (0, 0, 0.00000000000000000000e+00) (0, 0, 0.00000000000000000000e+00) (0, 0, 0.00000000000000000000e+00) (0, 0, 0.00000000000000000000e+00) (0, 0, 0.00000000000000000000e+00) (0, 0, 0.00000000000000000000e+00) (0, 0, 0.00000000000000000000e+00) (0, 0, 0.00000000000000000000e+00) (0, 0, 0.00000000000000000000e+00) (0, 0, 0.00000000000000000000e+00) (0, 0, 0.00000000000000000000e+00) (0, 0, 0.00000000000000000000e+00) (0, 0, 0.00000000000000000000e+00) (0, 0, 0.00000000000000000000e+00) (0, 0, 0.00000000000000000000e+00) (0, 0, 0.00000000000000000000e+00) (0, 0, 0.00000000000000000000e+00) (0, 0, 0.00000000000000000000e+00) (0, 0, 0.00000000000000000000e+00) (0, 0, 0.00000000000000000000e+00) (0, 0, 0.00000000000000000000e+00) (0, 0, 0.00000000000000000000e+00) (0, 0, 0.00000000000000000000e+00) (0, 0, 0.00000000000000000000e+00) (0, 0, 0.00000000000000000000e+00) (0, 0, 0.00000000000000000000e+00) (0, 0, 0.00000000000000000000e+00) (0, 0, 0.00000000000000000000e+00) (0, 0, 0.00000000000000000000e+00) (0, 0, 0.00000000000000000000e+00) (0, 0, 0.00000000000000000000e+00) (0, 0, 0.00000000000000000000e+00) (0, 0, 0.00000000000000000000e+00) (0, 0, 0.00000000000000000000e+00) (0, 0, 0.00000000000000000000e+00) (0, 0, 0.00000000000000000000e+00) (0, 0, 0.00000000000000000000e+00) (0, 0, 0.00000000000000000000e+00) (0, 0, 0.00000000000000000000e+00) (0, 0, 0.00000000000000000000e+00) (0, 0, 0.00000000000000000000e+00) (0, 0, 0.00000000000000000000e+00) (301, 5, 5.00000000000000000000e-01) (301, 5, 5.00000000000000000000e-01) (301, 5, 5.00000000000000000000e-01) (301, 5, 5.00000000000000000000e-01) (301, 5, 5.00000000000000000000e-01) (301, 5, 5.00000000000000000000e-01) (301, 5, 5.00000000000000000000e-01) (301, 5, 5.00000000000000000000e-01) (301, 5, 5.00000000000000000000e-01) (301, 5, 5.00000000000000000000e-01) (301, 5, 5.00000000000000000000e-01) (301, 5, 5.00000000000000000000e-01) (301, 5, 5.00000000000000000000e-01) (301, 5, 5.00000000000000000000e-01) (301, 5, 5.00000000000000000000e-01) (301, 5, 5.00000000000000000000e-01) (301, 5, 5.00000000000000000000e-01) (301, 5, 5.00000000000000000000e-01) (301, 5, 5.00000000000000000000e-01) (301, 5, 5.00000000000000000000e-01) (0, 5, 0.00000000000000000000e+00) (21, 5, 5.00000000000000000000e-01) (21, 5, 5.00000000000000000000e-01) (0, 5, 0.00000000000000000000e+00) 
connections (connected_to_neuron, weight)=(0, 5.44829623046878541714e-01) (1, 6.81820803526405172512e-01) (2, 6.79381855968002157375e-01) (3, 6.31494217756751852200e-01) (4, 3.25475397436080116087e-01) (5, 4.04922949997839953795e-01) (6, 2.30259622363505361831e-01) (7, 2.46695882557091711318e-01) (8, 2.84134494988379504576e-01) (9, 5.75353206339839662320e-01) (10, 3.63139670012570858759e-01) (11, 3.40998264877257373229e-01) (12, 2.88787844507155444518e-01) (13, 2.33546326784548757827e-01) (14, 3.46437158910689380065e-01) (15, 6.52112358454231100247e-01) (16, 3.49260266540624142451e-01) (17, 2.83256421713290240660e-01) (18, 3.77028393475470569030e-01) (19, 3.98459228603301074401e-01) (20, 3.53161486713347461119e-01) (21, 6.01338126901153402493e-01) (22, 2.30968418447432516372e-01) (23, 3.53156509725508716002e-01) (24, 2.61618662295915127558e-01) (25, 3.79265698520598437682e-01) (26, 2.82787191597876574889e-01) (27, 6.08403020742896871731e-01) (28, 2.93030853299555804625e-01) (29, 2.74278516797480609313e-01) (30, 3.08162655351735592646e-01) (31, 3.55928230015692736998e-01) (32, 2.39258590756036310099e-01) (33, 6.16724320891860799954e-01) (34, 3.05490191010890033141e-01) (35, 3.93913808195052173033e-01) (36, 3.04806556223012448115e-01) (37, 2.95112687764741477014e-01) (38, 1.99972558436967401407e-01) (39, 4.94324469212058970058e-01) (40, 4.99645718577865494137e-01) (41, 5.03404141608241983974e-01) (42, 3.18482007501698971552e-01) (43, 2.71592843947984219355e-01) (44, 2.20109738079883127115e-01) (45, 2.94098990885672595397e-01) (46, 5.52885019424918855435e-01) (47, 2.33458313075957296645e-01) (48, 3.36718286989308834833e-01) (49, 2.13072690783120660685e-01) (50, 1.91280405638791589640e-01) (51, 3.19059590725359942809e-01) (52, 3.67387044159827258483e-01) (53, 2.51428647814450290099e-01) (54, 2.31578971860982446573e-01) (55, 2.23277046946860818766e-01) (56, 1.90057206569291620157e-01) (57, 6.19749584439758138821e-01) (58, 6.60859891417983846829e-01) (59, 5.88471473399165945217e-01) (60, 1.77187364218808679484e-01) (61, 2.87090290008164883417e-01) (62, 2.27558977572299508951e-01) (63, 1.00834788888311011057e+00) (64, 5.32994439098600225613e-01) (65, 6.38432600739959554836e-01) (66, 2.33810942290402917765e-01) (67, 3.55868737815000057978e-01) (68, 2.51613039193727072718e-01) (69, 1.02568543463563544016e+00) (70, 1.13098306715106589060e+00) (71, 5.80438577774528230435e-01) (72, 2.84435223458386898798e-01) (73, 3.15922792671300411982e-01) (74, 3.70099167941190243525e-01) (75, 1.09644688427066427927e+00) (76, 9.67015241678710890660e-01) (77, 1.00377404450988394480e+00) (78, 3.61454452989675045771e-01) (79, 3.70191242216207028193e-01) (80, 2.83304448841191769404e-01) (81, 9.44636782105918837438e-01) (82, 1.04624428361272436838e+00) (83, 1.00768495112275702219e+00) (84, 5.03818267914934447838e-01) (85, 3.44280983923055172724e-01) (86, 2.97419707892514761927e-01) (87, 9.25793451468894579293e-01) (88, 8.97512809464782956859e-01) (89, 8.91761855313629392406e-01) (90, 1.03233267853731880415e+00) (91, 5.64669089350386066428e-01) (92, 1.92617464480973749064e-01) (93, 9.72851843979116392980e-01) (94, 1.04221286366457710493e+00) (95, 9.22621404032657244088e-01) (96, 1.04557183871741066206e+00) (97, 4.75995782170722525617e-01) (98, 2.28728226987697152994e-01) (99, 1.36145381740891013855e+00) (100, 2.01156168401951296332e+00) (101, 9.88891122337337447057e-01) (102, 1.02487102637762794721e+00) (103, 2.05550388484123991439e-01) (104, 1.71271640477754144571e-01) (105, 2.83518478328485423745e+00) (106, 2.97808826330072040633e+00) (107, 5.20823254142614278095e+00) (108, 4.91643624338789331230e-01) (109, 1.47285554854367478628e-01) (110, 2.04115669844724206827e-01) (111, 4.62776327480847893270e+00) (112, 5.20014140461297902363e+00) (113, 5.71253256596802838629e+00) (114, 4.78270577225370752128e-01) (115, -1.54877754312744780885e-01) (116, 2.90278482852555808069e-01) (117, 2.17750622715225317094e+00) (118, 2.38231920667162144767e+00) (119, 8.46841284005336536467e-01) (120, 2.34193708417989282511e-01) (121, -1.29179385088051684738e-01) (122, -7.31765230868555022203e-02) (123, 3.87944057884510473677e-01) (124, 4.83312882783707098433e-01) (125, 8.34776273713009553390e-01) (126, 6.05054082307501239768e-01) (127, -9.40599111538781007535e-02) (128, -2.52838780854440572932e-02) (129, 3.18711586597259954878e-01) (130, 7.33913243584366492556e-02) (131, -1.22985537376749456961e-01) (132, 1.00482948630666357737e+00) (133, 1.72411912171963499496e-01) (134, 1.75879332838632135294e-01) (135, 1.41853916604176621963e-01) (136, -3.14071535973101889638e-01) (137, -2.87357374934703146963e-01) (138, 1.18651411960684272096e+00) (139, 2.17889554468966989420e-01) (140, 2.14722640482760934733e-01) (141, -1.27886201467859672576e-01) (142, -3.12347538678199088125e-01) (143, -2.46785297898799244054e-01) (144, 1.01849838107442480784e+00) (145, 1.79770820825222776840e-01) (146, 3.23183711288548947138e-01) (147, -3.58717523068815435927e-01) (148, 3.56745652349442776696e-01) (149, 2.74501829834431942956e-01) (150, 1.11600186954103919312e+00) (151, 5.03663985017223647667e-01) (152, 2.57981582461056735411e-01) (153, -1.79599299580484567107e-01) (154, -4.07305559708849074241e-01) (155, 1.49660684018702028197e-01) (156, 1.20521634350382300660e+00) (157, 5.46865114900751403404e-01) (158, 4.91074376944068857753e-01) (159, -2.54295904429017838311e-01) (160, -2.47352212221056216856e-01) (161, -4.87022160186544539329e-01) (162, 1.14535001198612662598e+00) (163, 1.12060917675113302927e+00) (164, 5.72088130954269136197e-01) (165, -3.05377479882299296410e-01) (166, -3.04326351285606533370e-01) (167, -2.70526520461469854872e-01) (168, 1.03226411103820425730e+00) (169, 1.09801095485305411081e+00) (170, 6.21607029083732443020e-01) (171, -7.89339890454507780992e-02) (172, -1.18131039080450625511e-01) (173, -7.77099927638269377672e-02) (174, 1.09321107248627158448e+00) (175, 1.26923437694870444581e+00) (176, 7.22579529739584169867e-01) (177, -5.68347027276254884720e-02) (178, -1.42153280791682771339e-02) (179, -4.90229626868463677636e-02) (180, 1.15659746060930701539e+00) (181, 1.10879962424599143311e+00) (182, 5.72486428774561129096e-01) (183, -9.35589125130869003755e-02) (184, -1.95531875174943886586e-01) (185, -5.05717148755289239159e-02) (186, 1.24164296964966269776e+00) (187, 1.21669756154381247804e+00) (188, 5.52760177496436799771e-01) (189, -3.70790141639156176079e-02) (190, -1.50526825618450127431e-01) (191, -2.04054492530269249162e-02) (192, 1.11287955473028632447e+00) (193, 1.20183628330790015504e+00) (194, 7.16985425211157045844e-01) (195, -8.48286825236721220289e-02) (196, -1.64696800527019127092e-02) (197, -1.74532980006639443227e-01) (198, 1.28034036014470209430e+00) (199, 1.17011627088152381226e+00) (200, 7.40259668089117250922e-01) (201, 3.60193255273757007018e-01) (202, -1.75123557728235207387e-01) (203, -1.06637060922090520787e-01) (204, 1.36386344734820474933e+00) (205, 1.30980013091358293842e+00) (206, 7.09028408927849018717e-01) (207, 2.83310200004038836852e-01) (208, 2.14701826600489614760e-01) (209, 2.87285800008235003844e-01) (210, 1.43782867472660846886e+00) (211, 1.47243143226993411510e+00) (212, 7.29774766666820728922e-01) (213, 2.85021054474768664733e-01) (214, 2.18447643248496053969e-01) (215, 3.26715613631663459593e-01) (216, 1.31582952071222414325e+00) (217, 1.43906147931012262653e+00) (218, 6.00144392110075197699e-01) (219, 3.26835567979273933226e-01) (220, 3.49173667756972339049e-01) (221, 3.19048422305045153990e-01) (222, 1.18856556991898032472e+00) (223, 1.25632457713448020264e+00) (224, 5.16237274948123880947e-01) (225, 2.52209249554254111292e-01) (226, -1.23900336561033802552e-01) (227, -1.96709853944609297516e-01) (228, 5.95801436546806173489e-01) (229, 5.94380022231105642483e-01) (230, 5.96045927349094228909e-01) (231, 2.81638133941270352167e-01) (232, 2.37732547937013177775e-01) (233, 2.90353716402176609268e-01) (234, 2.16922650961337087905e-01) (235, 6.47157528642181234524e-01) (236, 3.95981463519988086119e-01) (237, 3.05682043461260821715e-01) (238, 2.13627002803660898111e-01) (239, 3.43576476960304966202e-01) (240, 6.63442784193519430325e-01) (241, 6.36234579838480196479e-01) (242, 2.89674262432513263121e-01) (243, 2.96744937924799945250e-01) (244, 3.16566587476853122940e-01) (245, 2.41015085070256041000e-01) (246, 4.93935504201415964687e-01) (247, 5.65805955089296541693e-01) (248, 2.75904188780245807067e-01) (249, 2.39656936047650842569e-01) (250, 2.25508223803604829216e-01) (251, 9.55267879682433901367e-02) (252, 6.64088779333595113918e-01) (253, 5.94627404816116533759e-01) (254, 6.71026342752937154934e-01) (255, 1.87281731186486749552e-01) (256, 2.14611839087570893669e-01) (257, 1.68658289642895503624e-01) (258, 5.23242243770126291835e-01) (259, 5.89885669059719286444e-01) (260, 6.81132071856025533840e-01) (261, 3.26243858454801083369e-01) (262, 2.39298980267609345818e-01) (263, 1.48018437953556819542e-01) (264, 5.83359145763877595670e-01) (265, 7.11897617436613283637e-01) (266, 5.13269723597530314052e-01) (267, 2.97408359972891833678e-01) (268, 2.12890603630665586898e-01) (269, 2.18494796245220945785e-01) (270, 5.72837935033801759488e-01) (271, 5.31982903573278265164e-01) (272, 6.49000236037734823391e-01) (273, 3.80579951135573413268e-01) (274, 3.11887126086331845087e-01) (275, 3.10104261754132748408e-01) (276, 5.53448149207595552213e-01) (277, 6.35002442840102987454e-01) (278, 6.43711396697524862454e-01) (279, 3.47420084206519153014e-01) (280, 1.92727137027360467814e-01) (281, 2.76201303718663693232e-01) (282, 6.37244233134750204250e-01) (283, 4.85995740834239797756e-01) (284, 6.38629907015327291653e-01) (285, 6.26338326576713400051e-01) (286, 2.26253705946860311782e-01) (287, 2.95131902126727130309e-01) (288, 5.13090373221401163661e-01) (289, 5.43767296913627351529e-01) (290, 6.17910274508956747219e-01) (291, 5.12290188315872141445e-01) (292, 2.22987378863749502456e-01) (293, 2.99099425701556231871e-01) (294, 5.78402386251453126675e-01) (295, 6.00617864373687582180e-01) (296, 5.43889750931028093106e-01) (297, 6.09739863518241720364e-01) (298, 2.16093975035605428969e-01) (299, 3.36226272313056018248e-01) (300, -1.62698610632811463406e-01) (0, -6.77567895791304254660e-03) (1, 7.25015905843042207657e-02) (2, 6.09732178197168114830e-02) (3, -3.19243836059309241127e-02) (4, 1.92859794352446337062e-02) (5, 2.57311497714413171117e-04) (6, 4.61202414942885746685e-02) (7, -3.33612727775312659095e-02) (8, -2.53851438196371348432e-02) (9, -1.87170523061491317351e-02) (10, 1.12408154886261624564e-03) (11, 7.99959948031236656174e-02) (12, -5.08266674609849991584e-02) (13, 5.18758350294129186309e-03) (14, 3.66936525074769773203e-02) (15, 8.10010192141794038712e-02) (16, 2.57126366464425805403e-02) (17, -7.39031011493871403673e-02) (18, -7.52624744804571144119e-02) (19, 8.75476797787477500901e-02) (20, 6.20749195782472409921e-02) (21, -5.74829260661340948890e-02) (22, -9.51935971410940162674e-02) (23, -5.14152508821095685643e-02) (24, 5.15656074253846921640e-02) (25, 2.34920283524324181867e-02) (26, 1.74031978217889550520e-02) (27, -3.32051831140257117103e-02) (28, 2.69964064810667737915e-02) (29, -6.46775680436826594377e-02) (30, -1.86748603614042621435e-02) (31, -6.48716265590856266954e-02) (32, -7.15508857997129155137e-02) (33, -6.22333380236364461235e-02) (34, -1.32771011731396817654e-03) (35, 3.74859479413293741890e-02) (36, 5.86490681139756955820e-02) (37, -4.11110991867254457754e-02) (38, -7.52502257259557716385e-02) (39, -8.38461610331273921037e-02) (40, 3.56401560054086588569e-02) (41, 8.76377347567308499776e-03) (42, 1.04196538564376994795e-01) (43, 9.28601821629335411057e-02) (44, -7.80019412072370521560e-02) (45, 2.37800982938073876549e-02) (46, 6.93295058951639009415e-02) (47, 3.06005981908105684219e-02) (48, 5.79236944882203855234e-02) (49, 1.02113743659668132491e-01) (50, 2.61949797837068322492e-02) (51, 2.88852873900163767754e-03) (52, -5.99008853389955756019e-02) (53, 2.04200299693251888233e-02) (54, 6.63809379307557789751e-02) (55, 9.97114231554795948931e-02) (56, -5.45699732633302750373e-02) (57, -2.07475597294042857222e-02) (58, -2.54470506938169749311e-02) (59, 7.47556885449220387407e-02) (60, 2.26215695707132104231e-02) (61, 5.13463815419008054453e-02) (62, -9.46476409466932289138e-02) (63, 4.65389987198640622812e-02) (64, 9.71597632138063438401e-02) (65, 1.20713611809541553760e-02) (66, -7.92835152465804458843e-03) (67, 5.12771358458329953867e-02) (68, 6.64285620419313160845e-02) (69, 2.33764773734061112598e-02) (70, 7.54776796070863453814e-02) (71, 1.01154198614885181690e-02) (72, -7.08997944625089360215e-02) (73, 7.51425226895143238970e-02) (74, -1.55607855636580782663e-03) (75, -1.63905982851745374296e-01) (76, 1.80560699232069701847e-02) (77, -2.41798708470533640913e-02) (78, 8.52138599125673301682e-02) (79, -3.96386744709680757803e-02) (80, -2.65978301199148448042e-02) (81, -8.98735036322818037213e-02) (82, -8.98783345708400321916e-03) (83, 2.15480005113412621809e-02) (84, -7.11848387749860478380e-02) (85, 3.31458052365114011484e-02) (86, 1.67277207342912473398e-02) (87, -1.10570897059531478290e-01) (88, -1.72417853670211090877e-01) (89, 8.67489775387575157151e-02) (90, -4.89757680766136904715e-02) (91, 2.59564270941545251203e-02) (92, 3.35636784998704709726e-02) (93, -1.55992511398528627131e-01) (94, -1.12320673363299636249e-01) (95, 2.61917387811471703840e-02) (96, 5.93845746047942102397e-02) (97, 5.55036863056947507578e-02) (98, -2.70628283055494578413e-02) (99, -7.21107144495006679996e-01) (100, -1.69986341309914634756e+00) (101, -7.52182554901692779215e-02) (102, -7.31348344556839446984e-02) (103, -1.21697807939718568443e-02) (104, -8.55060244234273902908e-02) (105, -1.90754347876597685207e+00) (106, -8.95099876122699633640e+00) (107, -9.28759481678662623949e-01) (108, 9.20658311374632776225e-02) (109, 1.05472704140474170947e-02) (110, 7.27612426249314991900e-02) (111, -2.22780977149536907334e+00) (112, -1.39206578148063560008e+01) (113, -7.12159386991487591834e-02) (114, 6.68658813206483571001e-02) (115, -6.28237897785375309923e-02) (116, -3.18597877653310976309e-02) (117, -3.67619525858049467359e-01) (118, -9.43333078096566524096e-01) (119, -7.83236877626679872666e-02) (120, -3.87208299966524324698e-02) (121, 3.77638092009355344492e-02) (122, 9.28997894493867881760e-02) (123, -1.81191129662860786476e-02) (124, -3.44399822928775772857e-02) (125, -9.34669257706902956162e-02) (126, 1.19711881248285145068e-02) (127, 3.12760533599502066338e-01) (128, -9.26961997779081336990e-02) (129, -2.80535830237735803183e-02) (130, -1.01823278956324758671e-01) (131, 1.41520957428072385875e-01) (132, -9.28502696408964045549e-02) (133, -6.53338829310605717637e-02) (134, 4.93323405949403562265e-02) (135, -1.01269705120249631225e-01) (136, 3.34829212932235109612e-01) (137, 2.72552902167891408780e-01) (138, 2.29889090656187414230e-02) (139, 1.62724753586580075937e-02) (140, 8.06813290087511070237e-02) (141, 3.97535865071988792074e-01) (142, 4.78994489805347534173e-01) (143, 1.61972889095845662411e+00) (144, -5.81181812278520407156e-02) (145, 2.39245196549226525617e-02) (146, -7.83131147058675758377e-02) (147, 4.26326946513301940911e-01) (148, 3.72139387563743717635e+00) (149, 3.64245235905923969710e+00) (150, -1.89374313343221647998e-02) (151, -3.37110558025391637837e-02) (152, -4.72546877594660144628e-02) (153, 4.81638417737133117669e-01) (154, 1.60189610377283453424e+00) (155, 3.54514304534473545516e+00) (156, -1.78769215999906666559e-01) (157, 5.95078966148344934428e-02) (158, 2.93789359046126574704e-02) (159, 3.36210654275066467278e-01) (160, 1.68518057123155950983e+00) (161, 1.71523073718281149347e+00) (162, -1.14494971989458238504e-01) (163, 5.05493036039320747799e-02) (164, 7.84010442210341801372e-02) (165, 3.42513435678131195061e-01) (166, 4.82025445596820922844e-01) (167, 4.37148251728660675042e-01) (168, -9.95602608311826342558e-02) (169, 1.32666579015700038247e-02) (170, -7.45647920059059471365e-02) (171, 3.88797127799636932366e-01) (172, 3.25372235076076599114e-01) (173, 5.05947680370456565058e-01) (174, -1.38899948506420289895e-01) (175, -5.46817909173261604283e-02) (176, 1.88668093215477064399e-03) (177, 3.90462995664722534173e-01) (178, 4.70545918838626953118e-01) (179, 4.19263527886516662591e-01) (180, 8.46079011269319780641e-02) (181, 1.18978304014467056032e-02) (182, 3.99514791713022135444e-02) (183, 3.53658118443138214104e-01) (184, 4.01582957403308959954e-01) (185, 5.06384001271373618280e-01) (186, -5.86522350861765143226e-02) (187, -1.68969052686430282195e-02) (188, 2.02909019933007958580e-02) (189, 8.48230620590974815354e-02) (190, 9.95629781168001597169e-03) (191, 2.47607866136676263435e-01) (192, 2.20292565570138695885e-02) (193, 7.31548276887201143204e-02) (194, 7.49561843619607759415e-02) (195, 1.45266776649286052242e-02) (196, -9.36891833575437538162e-02) (197, 4.76241757838060178476e-02) (198, -8.28393268241620905901e-02) (199, -1.55559348716474837859e-02) (200, -6.73060099436975367571e-02) (201, -4.33077501388261995596e-02) (202, 6.38837417332460133501e-02) (203, -5.12912260623643936897e-02) (204, -7.18743222608304865862e-02) (205, -1.15704430166407468139e-01) (206, -1.96506473078466720183e-02) (207, 3.80590709162856449810e-02) (208, -1.62171596916387897314e-02) (209, -5.84621826441953582054e-02) (210, -8.95237157975872777094e-02) (211, -6.36686290537556986990e-02) (212, 4.89039627061151407905e-02) (213, 8.94345840184022911057e-02) (214, -9.86235800571282680144e-04) (215, -5.88705415161321563011e-02) (216, 6.13043365226053002526e-02) (217, 3.58298328862451456733e-02) (218, 1.97008607135080102135e-02) (219, 2.22033762615220101391e-03) (220, 2.86996042100717309309e-02) (221, -6.22961396606633924233e-02) (222, 3.77139804110788248726e-02) (223, -5.38028458907343146156e-02) (224, -9.36730074538923151994e-02) (225, 3.32952638832856931406e-02) (226, 6.87705328432847706743e-02) (227, -7.93154860170553199783e-02) (228, -3.61906605615354773353e-02) (229, 8.13995209679864717423e-02) (230, 5.96886609580403546677e-04) (231, 1.71284353105356015878e-02) (232, -5.38615310819814743781e-02) (233, -2.74726772936056407026e-02) (234, 4.87271157250665568061e-02) (235, -3.02675383939482040008e-02) (236, -2.93270739569402999480e-02) (237, -5.02984361978242935920e-02) (238, -7.81121054919431678787e-02) (239, 6.25024636952211110064e-02) (240, -2.58707123651243514617e-02) (241, -5.37857877864576575111e-02) (242, -8.73161273851133235002e-02) (243, -5.63416468234727782494e-02) (244, -5.63044907780359191185e-02) (245, 1.97443490592767480207e-02) (246, -3.23222818627096411537e-02) (247, -9.95318460120893366838e-02) (248, -4.89575135364271399330e-02) (249, -9.19963220389554969803e-02) (250, 1.07352038590242237354e-02) (251, 8.77887805668642051682e-02) (252, -7.14025514974332697893e-02) (253, -5.60825223877168890785e-02) (254, -7.05457533552385218645e-02) (255, -4.44504568608473024649e-02) (256, 8.52594574658205039963e-02) (257, -9.37285224230955116287e-02) (258, -4.08760326757169958900e-02) (259, -5.54629097535349127601e-02) (260, 8.31393060431741548477e-02) (261, 8.03459485737611778244e-02) (262, 6.97122415272523610064e-02) (263, -6.26755232246587468126e-02) (264, -6.42368177726007627548e-02) (265, 1.39076543197892959353e-02) (266, 2.52523842909563181816e-03) (267, 2.70612140862275842024e-02) (268, 7.16559191910554615923e-02) (269, 3.24598302809526173540e-02) (270, -2.75464075460172957976e-02) (271, -5.87464774801470038246e-02) (272, 7.41423574433587861954e-02) (273, -1.09837694426434409958e-03) (274, -7.04141950923903824078e-03) (275, -7.41154352458189003006e-02) (276, -9.16031765594221003557e-02) (277, 5.61046061263345482995e-02) (278, -7.81789737596250422502e-02) (279, -3.25139927520490881752e-02) (280, 7.21549888817598072954e-02) (281, 4.06029423443605222421e-02) (282, -4.92569039418436285804e-02) (283, -1.03779258097622478774e-01) (284, 7.99887088284753633438e-02) (285, -1.17559450521208096879e-02) (286, -4.01830064387987337393e-02) (287, 7.32948532072832115158e-02) (288, -1.00161599769331196436e-02) (289, 1.44092646584771926638e-02) (290, -8.66997408523298151994e-02) (291, -1.88301521196104354461e-02) (292, 2.80192249696747984825e-03) (293, 8.41982539151106823549e-02) (294, 1.39626247034333999392e-02) (295, 3.40334084973596476265e-02) (296, 4.35156856562984948461e-04) (297, -7.54654350533223994280e-02) (298, -4.34370654477812048744e-02) (299, -3.24406194343305823158e-02) (300, 4.43600947937565492918e-01) (0, 6.45393033602261190218e-02) (1, 4.43356831648373250765e-02) (2, 6.21278335430645589632e-02) (3, -3.42298286876655047384e-02) (4, -6.72374318263506964843e-02) (5, 8.34807057955288533968e-02) (6, -1.77863041779971475798e-02) (7, 9.69138790943646077913e-02) (8, 1.13348444280865129352e-01) (9, 5.77464004137539441142e-02) (10, 6.45371724941753988070e-02) (11, 4.94196762421154622835e-02) (12, 1.16536204991581376911e-01) (13, 6.88046117403530721468e-02) (14, 3.74550868847393636507e-02) (15, 1.28269692041897455381e-02) (16, -7.59100790045237616699e-02) (17, 6.21825206065413499390e-03) (18, 1.10857506571056807498e-01) (19, 4.65458978989147786898e-02) (20, 2.75652234532856657556e-02) (21, 7.40562655949285070928e-05) (22, -5.51838750860667373588e-02) (23, 1.40927185394787470030e-02) (24, -7.79166172168231085937e-02) (25, 8.68962456562542562288e-02) (26, -7.74254227898097113769e-02) (27, -4.53353400251841689994e-02) (28, -4.84941179773783828666e-02) (29, -1.81933742975953316283e-03) (30, 1.15174074945690568805e-01) (31, 9.66158111670040731234e-02) (32, -7.69130240104174689453e-02) (33, 5.78725387432598645243e-02) (34, -5.70433909914469863822e-02) (35, -6.35798226020312523543e-02) (36, 2.19238822438740377230e-02) (37, 5.74093806529280686890e-03) (38, 1.13904689727070268512e-01) (39, 1.58429418780827203916e-02) (40, -5.59420238158679153373e-02) (41, 5.90124924757504040751e-02) (42, -5.41667516252970840385e-02) (43, -5.88351811192011978080e-02) (44, 8.38774192118880296265e-03) (45, 6.38589759447598104281e-02) (46, 3.45624138691448812288e-02) (47, 1.30482961514019647764e-02) (48, -3.32116671851941033800e-02) (49, 2.59905655958675985140e-02) (50, -5.98351756951785232475e-02) (51, 5.87837149479412610087e-02) (52, 1.06635247645618880252e-01) (53, -3.44484212717986529317e-02) (54, -4.65529288074946548392e-02) (55, 1.09289263663532698612e-01) (56, -6.69815490863299445312e-02) (57, -4.34077258131480639425e-02) (58, -5.54754461071467544486e-02) (59, -3.49050338289714282003e-02) (60, 3.53435848929905538363e-02) (61, -5.97307483575320388725e-02) (62, -5.77185924074626113822e-02) (63, 3.90011866667294149202e-02) (64, 7.87124236204647664827e-02) (65, -3.41913464388823931661e-02) (66, 5.59919972994351033968e-02) (67, -1.87930713317370767790e-02) (68, 5.21202285864376668734e-02) (69, 5.04673172810101156038e-02) (70, 7.76205112316631917757e-02) (71, 7.67488380053066854281e-02) (72, -9.94956743931534742797e-03) (73, 1.04024400291683638553e-01) (74, 9.84842975714230184359e-02) (75, -6.78712161014071585496e-02) (76, -9.84260322282305699648e-02) (77, 1.36173416950726190733e-02) (78, -2.73722658774829333272e-02) (79, 9.58129725404909815545e-02) (80, -6.36809953502484316079e-02) (81, -1.53516824705361432102e-01) (82, -1.27853180629967727588e-01) (83, 1.07384418425800765018e-01) (84, 5.56258670040301259063e-02) (85, 8.32680048855665710938e-02) (86, 1.27467769614112685916e-01) (87, -2.02284002267329482416e-01) (88, -1.65151053630320815424e-01) (89, -6.15200364044972344835e-02) (90, 1.28963548174751113651e-01) (91, 3.63451200040701069560e-02) (92, -2.65971613613244714514e-02) (93, -3.72503495054713251733e-01) (94, -6.94276251982727132805e-01) (95, 1.18602897877328750109e-01) (96, -1.80512345706195084447e-03) (97, 9.24795749100568997836e-02) (98, -5.53655303393573057502e-03) (99, -2.68983089664084040749e+00) (100, -1.81055810820687201890e+00) (101, -2.24448892636059826877e-01) (102, 8.82052066239240872836e-02) (103, 1.03342357383255867287e-01) (104, 1.37249607077491564411e-01) (105, -2.75345650055510127174e+00) (106, -5.69489761128933125178e+00) (107, -1.67134216159930115708e+00) (108, -3.85518936005708398596e-02) (109, 1.16120162711625007912e-01) (110, 2.65173646124723522144e-02) (111, -2.85851936527592265236e+00) (112, -5.76776541456491642634e+00) (113, -5.76856118434403652984e-01) (114, -4.98476815906640710607e-02) (115, 1.10110047564988045021e-01) (116, 5.97300189050558247295e-02) (117, -5.75003695481751675445e-01) (118, -1.62194698289422833959e+00) (119, -2.17966976803826206766e-01) (120, 1.30877393713844131229e-01) (121, 2.30658830266045507262e-02) (122, 1.17200392714393447635e-01) (123, -2.70560908904706742817e-01) (124, -2.09163430920278475833e-01) (125, 3.59524534890390476405e-02) (126, 1.13304916959637250184e-01) (127, 3.64182772811956434467e-01) (128, 6.62912609490278470492e-02) (129, -3.80495563287690935494e-02) (130, 5.08093745310454897313e-02) (131, 3.03935904741429618880e-01) (132, -4.47506110093569900443e-02) (133, -1.56477881160852136389e-02) (134, 7.05587229677370753045e-02) (135, -4.74510043997720537545e-02) (136, 2.29369079538122411233e-01) (137, 2.78256564896604163817e-01) (138, 5.94676037409328991923e-02) (139, 1.13754812112701247928e-01) (140, 1.15747024593594011188e-01) (141, 1.94832829867961770942e-01) (142, 4.15848906647464267028e-01) (143, 2.66717526625892209502e-01) (144, 1.12794150886776411991e-01) (145, 1.12715762014024611926e-01) (146, 9.81978525497936849398e-02) (147, 2.81372031306388881156e-01) (148, 1.52234640859222558618e+00) (149, 1.43055309496975091577e+00) (150, -4.31534232327929825890e-02) (151, 5.61143060305142049593e-02) (152, 4.73056932070278768343e-02) (153, 3.29774862264755164176e-01) (154, 1.36149174110261483861e+00) (155, 1.41408062116471811009e+00) (156, -2.49009771483412661874e-01) (157, 4.90965147593044881624e-02) (158, 2.85918389537358000330e-02) (159, 2.91563573059148817279e-01) (160, 4.11754066821641839802e-01) (161, 1.83239555095794565132e-01) (162, -3.41868227558604242944e-01) (163, 1.17734779892208513141e-01) (164, -4.05617493114448016134e-02) (165, 4.17055587050027765095e-01) (166, 1.90448506037722398165e-01) (167, 3.61041864614020158175e-01) (168, -3.67825260596743586206e-01) (169, 8.11898161747479085726e-02) (170, 7.58469303228878621859e-02) (171, 2.30338247610675256327e-01) (172, 3.33306505068054925722e-01) (173, 3.01790273050795365695e-01) (174, -1.96776952011345929172e-01) (175, -5.54226668307772687982e-02) (176, 2.96392862775349333337e-02) (177, 2.36621784164058129862e-01) (178, 2.30113236888161543092e-01) (179, 2.20313570185414198122e-01) (180, -1.54341425163506573703e-01) (181, -1.67683481586932248142e-01) (182, -7.82154302022433356445e-02) (183, 1.55628851338139445604e-01) (184, 1.66255271716824443162e-01) (185, 2.98657997234574090761e-01) (186, -3.22167308757296891319e-02) (187, -9.01822032163134557070e-02) (188, -6.88880187487366825450e-03) (189, 2.38257845022701864046e-02) (190, 9.89927400925182943148e-02) (191, 7.79966084816485771825e-02) (192, -2.36475365763818251574e-01) (193, -1.86939844752464195965e-01) (194, -1.64828607703361412762e-01) (195, 6.91441495993160848421e-02) (196, 9.95776851751827840609e-02) (197, -2.43757727465606158224e-02) (198, -2.04150895184194075549e-01) (199, -1.23119222771262415428e-02) (200, -1.81345941389713188885e-01) (201, 1.78772931077503804964e-02) (202, 1.09577347812893355350e-01) (203, 1.16047879038097795368e-01) (204, -3.14669350689565252566e-01) (205, -1.78479568923625847576e-01) (206, -3.06547450672721155662e-02) (207, 6.11511965372585827860e-02) (208, -5.03067771813845779350e-02) (209, -3.64541957995868151632e-02) (210, -3.38789159959470342898e-01) (211, -2.42808180457269179309e-01) (212, -9.54176279555891959649e-02) (213, -7.08233292124247626464e-02) (214, 2.37880026080631856722e-02) (215, 3.49249516704105977816e-02) (216, -4.55392318617438493500e-02) (217, -9.97086706410979239923e-02) (218, -4.75395174996909655740e-02) (219, -5.31267995855784561088e-02) (220, -7.65816519877886847656e-02) (221, -4.82432271263575698783e-02) (222, -1.69595728538012857634e-02) (223, 3.31242506482624654573e-02) (224, -3.58818310222602313009e-02) (225, 1.75130640246891622347e-02) (226, -1.02049494302952495697e-03) (227, -3.95930447629757806260e-02) (228, 7.37079282381558065218e-02) (229, -7.51305992624735907714e-02) (230, -6.87441999933696007430e-02) (231, 9.16632314302944783968e-02) (232, 3.94578016349009449981e-02) (233, -6.24557622722454949815e-02) (234, 8.82817407228970174593e-02) (235, 5.48292447903179769320e-02) (236, -5.77745537183261062553e-02) (237, 5.69282223560833577913e-02) (238, 1.26915461369684953036e-02) (239, -1.13702305606671588006e-02) (240, 1.01044659791233504276e-01) (241, 3.94318002248045772207e-03) (242, 7.58623977282070760531e-02) (243, 4.92828088784453416382e-03) (244, 2.98309585996798382057e-02) (245, -3.63850603020870848325e-03) (246, -7.95761371872401312988e-02) (247, -3.25475099406218951192e-02) (248, 7.98136045315289144320e-02) (249, -2.68121014258838122335e-02) (250, 1.10367945381335038485e-02) (251, 9.99430528827837671990e-02) (252, 5.51530468249556565796e-03) (253, 5.85073878147625500712e-02) (254, -2.50253331875565764725e-03) (255, 5.02041031696819906038e-02) (256, -2.72684508017369577060e-02) (257, 7.70475975223711695428e-02) (258, 7.50412245371365194124e-02) (259, 1.10869636116268599491e-01) (260, 6.63471718409084920687e-02) (261, 8.68676652290844564241e-02) (262, 9.92439649053744044060e-02) (263, -1.36243999949761645379e-02) (264, 8.88420690872692708773e-02) (265, 5.19558687784695272249e-02) (266, 1.05635007200481856326e-01) (267, 1.11638148603680098514e-01) (268, 5.59518849336421673912e-03) (269, -1.10280895746433941010e-03) (270, -3.53019188067889636007e-02) (271, -2.89299773893332903829e-02) (272, 6.72705371954464559359e-02) (273, -7.88688982746577338379e-02) (274, 7.27093926616839136834e-02) (275, -2.23278776756593022590e-02) (276, -1.80772381744361276823e-02) (277, 5.75634290554546956820e-02) (278, 9.55477851414916062867e-03) (279, -5.76930071136927749564e-02) (280, 1.11321960864307845096e-01) (281, 8.50217391827129964632e-02) (282, 1.06680204448940718631e-01) (283, -2.59211164927247283279e-03) (284, 2.40997498013996724886e-02) (285, -1.52516911647296304899e-02) (286, -7.18173782250857428711e-02) (287, 6.12614651300930554423e-02) (288, -7.37739230415797309082e-02) (289, 8.37944795467877034945e-02) (290, 5.27017464020275716585e-02) (291, 7.31438894846462850374e-02) (292, 5.12327750303768758577e-02) (293, 1.63758670070194879698e-02) (294, -7.60503585360026435058e-02) (295, 2.06454669215702657503e-02) (296, -5.10976414105868484428e-02) (297, 1.10155274448635542850e-01) (298, 1.28542457797550836729e-02) (299, 1.89277206637882833284e-02) (300, 3.00446311400180132711e-01) (0, 2.26049842357188474073e-01) (1, 2.38495247482806510542e-01) (2, 8.92506707902252782727e-02) (3, 2.27751569866687070265e-01) (4, 1.75634810745269070997e-01) (5, 1.31352959244996320143e-01) (6, 9.02449656720459569836e-02) (7, 1.13768870055228510374e-01) (8, 2.21478374719172727003e-01) (9, 1.13122599243670740599e-01) (10, 1.05661453723460446730e-01) (11, 1.87070744156390439406e-01) (12, 1.00373441397696744337e-01) (13, 1.83639975308924924269e-01) (14, 9.17411242122948278332e-02) (15, 1.65692383467704068556e-01) (16, 1.92393230318576108351e-01) (17, 2.33573230027705497358e-01) (18, -1.55872940859740655162e-01) (19, 1.56758340119868527784e-01) (20, 1.46229832380943614023e-01) (21, 1.26203602224141370192e-01) (22, 8.85617454047501195813e-02) (23, 2.63792099475413543974e-01) (24, -1.97638157597726266124e-01) (25, 1.89777845561057340040e-01) (26, 7.26493214666179137895e-02) (27, 1.21449792801886793936e-01) (28, 2.83202724575549347197e-01) (29, 1.92763442217856656447e-01) (30, -1.52858979842608849742e-01) (31, 2.21896322488337766066e-01) (32, -1.84459592989629189708e-01) (33, 1.77397491454631101027e-01) (34, 1.62291655361205350294e-01) (35, 2.32181014537364310835e-01) (36, -1.06967821559852072077e-01) (37, 1.44564612716369944589e-01) (38, -6.97683988427576506908e-02) (39, 1.55516343235522519484e-01) (40, 1.90946729898005734816e-01) (41, 2.76898847937136871611e-01) (42, -7.31311885928568328197e-02) (43, -1.24398104689067284800e-01) (44, -1.55179463169520776011e-01) (45, 2.59615721225291473662e-01) (46, 2.82300071835070831572e-01) (47, 2.78219567656069977080e-01) (48, -1.22529327712005059459e-01) (49, -1.60929106018489281871e-01) (50, -1.80740363738482873179e-01) (51, 2.85322072028666717802e-01) (52, 2.06280285536795865431e-01) (53, 1.48827174722701321974e-01) (54, -6.66041074609217131908e-02) (55, 2.29032150417499885675e-01) (56, -7.71132557010111296947e-02) (57, 2.67666773914843780791e-01) (58, 2.83741461157351715361e-01) (59, 2.47095258950740165327e-01) (60, 1.52458204835586863535e-01) (61, 1.51272511988811808603e-01) (62, 1.61019577592544871347e-01) (63, 2.29620175480395621870e-01) (64, 2.61929528831988556181e-01) (65, 2.56570758342295923704e-01) (66, 1.74444938122779141798e-01) (67, 1.75351723045044260996e-01) (68, 1.13779126614265771456e-01) (69, 1.45682318180352460280e-01) (70, 2.64127584218531830107e-01) (71, 2.37985389351397819135e-01) (72, 1.35224921673089276686e-01) (73, 2.11386418849163398859e-01) (74, 1.33977307885818797129e-01) (75, 4.15187215728919256641e-01) (76, 3.98397608025233496143e-01) (77, 1.49536905854493390455e-01) (78, 1.91298819094829875009e-01) (79, 1.02122365444832177706e-01) (80, 2.08997822314434394952e-01) (81, 4.66315960807959839496e-01) (82, 3.14839897973696936084e-01) (83, 1.48537633984833966627e-01) (84, 1.13035167515211434908e-01) (85, 7.44898607432177978227e-02) (86, 9.02135362326434847580e-02) (87, 1.93183403394379615836e-01) (88, 4.69552105589072510394e-01) (89, 2.91766671428121092402e-02) (90, 2.57282497405558863157e-01) (91, 8.30960197338498907094e-02) (92, 1.71130797773533183115e-01) (93, 2.47201528332390896292e-01) (94, 1.99037734351315498404e-01) (95, 1.66319841563254605665e-01) (96, 1.00160344451599450655e-01) (97, 1.12448625076714880944e-01) (98, 1.96893229890767407220e-01) (99, 2.63454686782517488730e-01) (100, 7.19700961836909569591e-01) (101, 4.45838397665183294727e-01) (102, 9.78281339108279662797e-02) (103, 1.86433939227498533808e-02) (104, 1.18310518372956641198e-01) (105, 6.56569130250548638195e-01) (106, 1.17571481236147046268e+00) (107, 2.08893734893956184440e-01) (108, 2.27245635300808296320e-01) (109, 7.68967417964376287465e-02) (110, 7.05978272447027044301e-02) (111, 6.96695621791645902654e-01) (112, 1.43422258181707529268e+00) (113, 4.26095780352816089209e-01) (114, 2.30684361368351326105e-01) (115, 1.08015194345418341637e-01) (116, -2.76442279355264941554e-01) (117, 1.76277175225762444688e-01) (118, 9.77442559380808650982e-02) (119, 1.77792692601233731642e-01) (120, 7.40157132446101623247e-02) (121, -3.00008532838560382228e-01) (122, -2.14604732827879285395e-01) (123, 1.99021803259402524366e-01) (124, 2.09756127506428108331e-01) (125, -1.12722991698498975488e-02) (126, 2.57369643956356419778e-01) (127, -2.02383307056166028559e-01) (128, -2.95432915227152148585e-01) (129, -6.28017781590876067455e-02) (130, -1.84111762634461800792e-01) (131, -1.96163561037724892833e-01) (132, 2.29906456589251823042e-01) (133, 9.73000748047269659047e-02) (134, 1.20907715469532328623e-01) (135, -1.89463443896716515757e-01) (136, -5.46996144866404021556e-02) (137, -4.38185183619913543041e-02) (138, 1.64796153127700101271e-01) (139, 1.56129732538167365075e-01) (140, 1.31506099313431101816e-01) (141, -1.02286428055709296969e-01) (142, -5.10277597106791547255e-01) (143, -4.42683691032029147383e-01) (144, 1.20702752887755643263e-01) (145, 8.02582045494845824907e-02) (146, 8.26050256788066344926e-02) (147, -1.05282738647407003718e-01) (148, -1.00712157054500450748e+00) (149, -8.83307665723131907320e-01) (150, 1.13515744030028620237e-01) (151, 9.55661628837883581067e-02) (152, 9.09151230449974645520e-02) (153, -3.69477854914761538740e-01) (154, -8.88180770116613893528e-01) (155, -8.61481726306246531344e-01) (156, 2.57985489487201014036e-01) (157, 1.97860883593112241163e-01) (158, 2.10366273343116055861e-01) (159, -8.36587574536927114366e-01) (160, -8.01894076372511754869e-01) (161, -2.61752149790093591175e-01) (162, 1.86213621913939725294e-01) (163, 1.18615100204497586622e-01) (164, 1.55241990506201993361e-01) (165, -7.37578109110720525621e-01) (166, -1.58204585156386773326e-01) (167, -5.05659511185980847792e-01) (168, 4.31704080028693426563e-01) (169, 2.47597353577166862104e-01) (170, 8.83595068450272191907e-02) (171, -8.75625223125346074937e-01) (172, -1.42045318922942559459e-01) (173, -1.90428681514209191539e-01) (174, 4.13637435360114325000e-01) (175, 2.19663219570666562452e-01) (176, 1.51451082944422971144e-01) (177, -9.29959861850199048794e-02) (178, -1.72975763521140496470e-01) (179, -1.75976261339133660533e-01) (180, 3.54250585956732977344e-01) (181, 1.81545781015902768507e-01) (182, 1.60595694601088773146e-01) (183, -1.64688519976085107066e-01) (184, -1.56442664406245629527e-01) (185, -4.78908716058191741283e-02) (186, 1.10248031138926783079e-01) (187, 1.42548611431866895094e-01) (188, 1.90975809514075528517e-01) (189, -9.51039640521463697231e-02) (190, -8.23204247945065609171e-02) (191, 8.00264001536819466476e-04) (192, 2.13162140965014706984e-01) (193, 9.54211373324692357922e-02) (194, 1.10943311869651117796e-01) (195, 2.16369044845149231804e-03) (196, -3.04384260171170484277e-02) (197, -8.51396797888989559366e-02) (198, 1.35239807933121930494e-01) (199, 1.98657626330405484572e-01) (200, 1.53985636353045712843e-01) (201, 1.36243073313981305494e-01) (202, 2.13635133623629819288e-01) (203, -2.59380965226407300683e-02) (204, 1.86820181130915891066e-01) (205, 1.45780382722169171705e-01) (206, 1.85253085612803708448e-01) (207, 2.50915022611171045774e-01) (208, 9.37901754374802221204e-02) (209, 2.53283115148097315306e-01) (210, 1.15944558798819818968e-01) (211, 1.66548559486418973341e-01) (212, 1.47472651719599973097e-01) (213, 1.89184004485160123243e-01) (214, 2.42865832566767997358e-01) (215, 2.32035772919207877729e-01) (216, 1.82298945307284604445e-01) (217, 2.65757622241526825224e-01) (218, 2.87228154062777740751e-01) (219, 2.85918505906611664091e-01) (220, 2.11659440815001737013e-01) (221, 1.96435662030726682081e-01) (222, 2.78246717571765167509e-01) (223, 1.37465329885035764113e-01) (224, 2.04500565349608670607e-01) (225, 1.01833784997016202345e-01) (226, 1.10541197419100137300e-01) (227, 1.44974305242233592050e-01) (228, 2.08222063302546750441e-01) (229, 1.79040523290187131300e-01) (230, 2.76891471862345917021e-01) (231, 2.74851458191424591337e-01) (232, 2.07311592012577372568e-01) (233, 1.82554586738281565683e-01) (234, 2.40441324233561820600e-01) (235, 1.27391299277096997633e-01) (236, 2.61594491123706085478e-01) (237, 1.38338157951384793654e-01) (238, 7.03343143164447265336e-02) (239, 1.89990564990941357415e-01) (240, 1.04265028655081998243e-01) (241, 1.19538405954390775099e-01) (242, 1.47220743864327680006e-01) (243, 1.64381438910514127150e-01) (244, 1.43328308869305975914e-01) (245, 2.46924681553281309687e-02) (246, 1.09060974835902463331e-01) (247, 1.16308869838267603392e-01) (248, 2.81131701588183624541e-01) (249, 1.08932877003699551954e-01) (250, 3.68332711944020924077e-02) (251, 1.27397052753869421959e-01) (252, 2.18012305020838986769e-01) (253, 1.05761611878424893751e-01) (254, 2.55543993830233850950e-01) (255, 1.35156625926047574415e-01) (256, 4.22012878546155489889e-02) (257, 2.13068572768605711543e-02) (258, 2.13390456556826840773e-01) (259, 2.41104977249652158156e-01) (260, 1.91028999208956967726e-01) (261, 2.02925676524192105665e-01) (262, 1.50562315989438422204e-01) (263, 5.35622572490609821783e-02) (264, 1.18739793121367703810e-01) (265, 1.81685255884677182570e-01) (266, 1.71635175168067227736e-01) (267, 9.29780472512543310071e-02) (268, 1.54629304815236456871e-01) (269, 9.71911547669805364613e-02) (270, 2.73650230884104950224e-01) (271, 2.49575959562808341596e-01) (272, 2.07411179363280545607e-01) (273, 1.33514730304032575026e-01) (274, 1.05985379725628228731e-01) (275, 1.20805333316259699838e-01) (276, 1.48888824551850568190e-01) (277, 1.48305876224786054030e-01) (278, 1.70373732268363248243e-01) (279, 1.42664292871505032911e-01) (280, 1.69882522940188657179e-01) (281, 1.97888622104674588575e-01) (282, 2.60742964267283661162e-01) (283, 1.00538583516627560988e-01) (284, 2.16293992518931638136e-01) (285, 2.28930713653117484663e-01) (286, 1.48338964253216992750e-01) (287, 2.49176891564875907514e-01) (288, 2.40919189571887265577e-01) (289, 2.74373190521746856962e-01) (290, 2.02925616919547330275e-01) (291, 1.44591940611153851881e-01) (292, 1.89942622601538907423e-01) (293, 1.44169559746533643141e-01) (294, 1.88835823952704678907e-01) (295, 2.21326174258738767042e-01) (296, 2.38498585342913932417e-01) (297, 2.73114757656604034697e-01) (298, 2.26947980045825253859e-01) (299, 1.83809498369246732130e-01) (300, 2.37794643744999173451e-01) (0, 5.31938660992087308799e-01) (1, 4.64725900543631498252e-01) (2, 5.99739153040350969626e-01) (3, 5.78097138656081255270e-01) (4, 2.76794480691783140180e-01) (5, 2.26627680073611309508e-01) (6, 2.44519283727092057168e-01) (7, 3.67928414910730972043e-01) (8, 3.41711057082099256554e-01) (9, 4.94937773896159116660e-01) (10, 1.37325771569364457614e-01) (11, 2.20177537362210323790e-01) (12, 2.25470147223675199122e-01) (13, 2.33452728550068905333e-01) (14, 3.33437266887628813716e-01) (15, 4.09898962927760124320e-01) (16, 2.11490843861453864383e-01) (17, 3.10935924361579019148e-01) (18, 3.20607560814821501705e-01) (19, 2.65774387062990613551e-01) (20, 2.10827301384413190455e-01) (21, 4.22579201398776693743e-01) (22, 1.01094145744197741466e-01) (23, 2.83318626294963071821e-01) (24, 2.44762588348601622945e-01) (25, 3.18008686016432839949e-01) (26, 2.18782953114712186427e-01) (27, 5.09817289648936911028e-01) (28, 2.57600421617858010848e-01) (29, 5.59972139535831026080e-01) (30, 2.75823452587870443509e-01) (31, 1.83486143658988049010e-01) (32, 1.73909167887174975764e-01) (33, 5.77134790359424165729e-01) (34, 5.84588291583941987994e-01) (35, 5.16562985716747080644e-01) (36, 1.17260747667101455916e-01) (37, 1.73429134429895770442e-01) (38, 2.18890836835677032868e-01) (39, 5.53772825849951799704e-01) (40, 5.05168315125407163535e-01) (41, 5.14942672205866758262e-01) (42, 2.89330252524164888150e-01) (43, 3.12781816721731775743e-01) (44, 2.63775297518519247220e-01) (45, 5.67194032011912874225e-01) (46, 5.73167490302012971881e-01) (47, 2.89967199519557183862e-01) (48, 1.91628248508719040144e-01) (49, 2.74036800862127893907e-01) (50, 2.81909921284464570768e-01) (51, 5.46882065473483724993e-01) (52, 3.48229078308028516808e-01) (53, 3.97705150500220594445e-01) (54, 1.43698983903673777052e-01) (55, 2.04805719108158951203e-01) (56, 2.26204180236605240095e-01) (57, 4.74842570119735185585e-01) (58, 5.31162231558200192971e-01) (59, 3.80487210446235124550e-01) (60, 2.02406408638531570832e-01) (61, 2.81355313579008559088e-01) (62, 1.09537527974394408026e-01) (63, 4.37590754919883195839e-01) (64, 4.75876516991492692910e-01) (65, 5.61750500791903806252e-01) (66, 3.49227155159346658309e-01) (67, 2.95835795412890623091e-01) (68, 3.47507274151617640001e-01) (69, 4.13715160780784074745e-01) (70, 4.40547726446029130898e-01) (71, 4.71096425646182481728e-01) (72, 3.25612852881781655867e-01) (73, 1.54009324576405176588e-01) (74, 1.56924133266953119703e-01) (75, 8.17300847834023902472e-01) (76, 7.20058134859475562628e-01) (77, 3.97716312998172227822e-01) (78, 3.39774526277945021491e-01) (79, 2.04587646837977060743e-01) (80, 2.44799011464861576703e-01) (81, 8.45860164583546736417e-01) (82, 6.15166137196971551937e-01) (83, 4.57644834512111131630e-01) (84, 5.05129721366335382449e-01) (85, -6.35858873759350545773e-02) (86, 1.63129609080132659260e-01) (87, 6.55425111033870355648e-01) (88, 6.82257413940980605993e-01) (89, 2.47102754578641198302e-01) (90, 4.35643021367956850831e-01) (91, 1.93222897515347880049e-01) (92, 1.71835928777620633445e-01) (93, 8.93034991583267934168e-01) (94, 6.70263247766448633236e-01) (95, 4.68835842214991416199e-01) (96, 4.30752981804777834718e-01) (97, 2.25295560822537682677e-01) (98, 1.14576414822599878529e-01) (99, 3.27099177000668062121e+00) (100, 2.59320099900736433796e+00) (101, 9.75596107152109870420e-01) (102, 5.22093158565927972781e-01) (103, -3.77003479238030070331e-01) (104, -2.73625373329397847399e-01) (105, 3.06256376922066619883e+00) (106, 5.69081268944856244474e+00) (107, 5.37222381748667476842e+00) (108, 4.00555529050995562379e-01) (109, 6.20769477671673508556e-02) (110, -1.67362772637316692403e-02) (111, 5.72485977151509839445e+00) (112, 6.35451581173095814137e+00) (113, 2.54495466906060308077e+00) (114, 4.26821295522619936769e-01) (115, -9.50574956473798637901e-03) (116, -8.68952133470485554856e-02) (117, 1.35599609308392810014e+00) (118, 2.65126822392716032795e+00) (119, 1.13929461752061356172e+00) (120, 4.52488933109213675721e-01) (121, -3.79177377336928356222e-02) (122, -6.47052236610362319080e-02) (123, 8.49265466401721735856e-01) (124, 6.44795516947739177915e-01) (125, 8.47253839442874912002e-01) (126, 4.28421979119064877395e-01) (127, -5.73731072956035065280e-02) (128, 1.02291054207711479274e-01) (129, 5.80562526802055889341e-01) (130, 3.49947541555873264940e-01) (131, 2.53773783418781984089e-01) (132, 6.83496917108528667661e-01) (133, -3.49405489501453461743e-03) (134, 3.04070210457617395861e-01) (135, 3.58099874410929108759e-01) (136, 3.05860092412117035021e-01) (137, 2.70488259467728309193e-01) (138, 6.09724866668217346799e-01) (139, 8.06898541039517414042e-02) (140, 2.20213635266596680085e-01) (141, 3.97448877400548239436e-01) (142, -5.84463109259798718753e-01) (143, 2.16280106327487703366e-01) (144, 6.00694405356876903745e-01) (145, 1.68552113841895528923e-01) (146, 2.36632215918505139918e-01) (147, -6.43632833843424512210e-01) (148, -2.57488624166406854243e+00) (149, -2.59941903289117082210e+00) (150, 9.71597589161997565732e-01) (151, 5.43371408575412107034e-01) (152, 4.96764134717883054648e-01) (153, -1.06991758876221010333e+00) (154, -3.60327534938341065285e+00) (155, -3.65628252366667672035e+00) (156, 1.39059212275297450212e+00) (157, 5.17142384642001573525e-01) (158, 5.68741778353684002134e-01) (159, -1.82493286969928769636e+00) (160, -1.16769380801098177081e+00) (161, -1.00822759353296587115e+00) (162, 1.48291051231772708086e+00) (163, 4.21838756752909660452e-01) (164, 5.68416597763531261656e-01) (165, -1.77283838036327390242e+00) (166, -1.03361306273119279986e+00) (167, -1.00283124231474229937e+00) (168, 8.82853686419134864316e-01) (169, 5.70868188957207256529e-01) (170, 6.57996872881882244322e-01) (171, -1.78788599761991529036e+00) (172, -7.02293676305714265062e-01) (173, -1.06272979759352037554e+00) (174, 1.41286942206771182207e+00) (175, 1.04350003561080062475e+00) (176, 6.74885252932541424009e-01) (177, -1.38972911474733618054e-01) (178, 2.09110330846522668446e-01) (179, -6.29395179074883903692e-02) (180, 1.05545802375376784887e+00) (181, 1.05206958910525405493e+00) (182, 5.04941577533714824888e-01) (183, -2.10240940985708502087e-01) (184, 2.32885014322017053212e-01) (185, 2.04217524345663675733e-01) (186, 9.86902266350394019589e-01) (187, 1.02597302159369552221e+00) (188, 4.51234780354203224295e-01) (189, 3.16846963074420395756e-01) (190, 3.58473721088373442623e-01) (191, 2.35443021298849530787e-01) (192, 1.04739916285574996557e+00) (193, 1.00931985637248122778e+00) (194, 4.94083184851111356650e-01) (195, 2.11578938306772657008e-01) (196, 1.93915064574682660670e-01) (197, 1.77811913248513558949e-01) (198, 9.12967227008944282041e-01) (199, 9.13570161518460044370e-01) (200, 5.31321022761763517295e-01) (201, 1.80088070416443896127e-01) (202, 2.96478537106507289423e-01) (203, 3.53384259284937163326e-01) (204, 1.23518140364100825757e+00) (205, 1.29088718939235058691e+00) (206, 6.55797655204765850279e-01) (207, 2.92226237440102620813e-01) (208, 3.12595983231060969842e-01) (209, 2.18055353695147641213e-01) (210, 2.04457407009912195406e+00) (211, 1.21845902997662913769e+00) (212, 5.15677513996594116819e-01) (213, 3.45059280478947627557e-01) (214, 3.55539011897051115962e-01) (215, 2.88349094928705473873e-01) (216, 9.45069714990263709531e-01) (217, 9.79242674615984687314e-01) (218, 4.84514724565447751914e-01) (219, 2.46228169706080718404e-01) (220, 2.23427925315116265859e-01) (221, 2.02375266757224420155e-01) (222, 6.84607947687141948911e-01) (223, 9.42188731935625800595e-01) (224, 4.18329591391967459124e-01) (225, 1.78173945363310465284e-01) (226, 2.18216785307673050154e-01) (227, 1.41420953985003122755e-01) (228, 5.34972625313686056536e-01) (229, 5.66147389350818208698e-01) (230, 4.89954496262954286578e-01) (231, 1.80944509860490182485e-01) (232, 2.62050964947489584134e-01) (233, 5.53052368815894895837e-02) (234, 4.18360486024257127724e-01) (235, 5.05231360433982534808e-01) (236, 3.72076789449088174422e-01) (237, 9.94478058508566770124e-02) (238, 6.63298088367934995935e-02) (239, 1.82602913981294218138e-01) (240, 4.52946322499202413958e-01) (241, 5.77348623526991899801e-01) (242, 2.59012186631841001550e-01) (243, 1.61847610442989259250e-01) (244, 1.93161712890481590543e-01) (245, -5.01980603450248030750e-02) (246, 5.97119066966475542380e-01) (247, 5.06977247516148255002e-01) (248, 3.57933548942488966027e-01) (249, 1.98166254964087823476e-01) (250, 3.91852325982143812055e-02) (251, -4.88275260442206648914e-02) (252, 5.49317780984343584372e-01) (253, 6.14401350239746735227e-01) (254, 5.17360594225825254355e-01) (255, 2.82298248317454758549e-01) (256, 1.06884009320168754664e-01) (257, -6.13931649142215041248e-02) (258, 6.00824374807776506735e-01) (259, 6.19303951481812164914e-01) (260, 5.93480799449385698630e-01) (261, 1.72723386853092103488e-01) (262, 8.62282729929974567362e-02) (263, 5.85612423008969040783e-02) (264, 4.84783444655837003623e-01) (265, 5.14101962069504425656e-01) (266, 4.52519171042145673667e-01) (267, 2.50807295153967935164e-01) (268, 7.62102249320503050134e-02) (269, 1.12796047633504523122e-01) (270, 4.07220412147940635794e-01) (271, 4.73908823085726682578e-01) (272, 4.36778534305991172904e-01) (273, 2.28113772879473736266e-01) (274, 2.34080934043673194456e-01) (275, 2.70830609913615072415e-01) (276, 4.95700221610964719687e-01) (277, 5.30890572918356840049e-01) (278, 5.88777680052222307516e-01) (279, 4.44572875736640615862e-01) (280, 3.23003884461139145756e-01) (281, 2.41156484987948754872e-01) (282, 4.84471928430499021445e-01) (283, 5.43683324111403520895e-01) (284, 4.38198741627635002249e-01) (285, 5.97661169706271699908e-01) (286, 1.87222291200511842257e-01) (287, 2.08514595936171581725e-01) (288, 4.24994584275187492484e-01) (289, 4.92114674402178708945e-01) (290, 5.60221199048461016012e-01) (291, 4.12422444773615837210e-01) (292, 3.41729725311629373152e-01) (293, 3.09881309579245645125e-01) (294, 5.61591852558554704977e-01) (295, 4.47636570883692741507e-01) (296, 5.56385908378066118551e-01) (297, 4.08058080924452781790e-01) (298, 2.92390930066935728071e-01) (299, 5.81111612258838228229e-01) (300, -3.17721207956906670500e-02) (0, 3.60480927748324450621e-02) (1, -3.76007436888573590150e-02) (2, 1.35269620341898974547e-02) (3, 8.52852546496035424095e-02) (4, 8.62910012235918733037e-02) (5, -2.58316313395222686700e-02) (6, -3.49472192594727573689e-02) (7, 1.11286351909914982272e-02) (8, -4.31068939635476169880e-02) (9, 1.15708866042735121493e-02) (10, -2.37721664504381674510e-01) (11, 6.94112489452639314091e-02) (12, -1.60990403200021919838e-01) (13, -5.68754216203412113484e-02) (14, -1.39543459916940865151e-01) (15, 7.97165118975283470970e-02) (16, -2.08800969318720330836e-01) (17, -6.88049559960088041866e-02) (18, -1.81029746865168067460e-01) (19, -3.20623898113600092064e-01) (20, -1.84444839691057654862e-01) (21, 1.05027669004881557546e-01) (22, -1.41285996770508029408e-02) (23, 1.63680026760378884154e-02) (24, -2.31021323903523784216e-01) (25, -7.50866299042424467647e-02) (26, -3.03107159768476908113e-01) (27, 6.25717126650454646963e-02) (28, 3.84276966085711421672e-02) (29, -6.01219450602253971394e-02) (30, -3.67581123217069094533e-01) (31, -4.68905148575028477009e-02) (32, -2.88897129331961100007e-01) (33, 1.61674477977397056117e-02) (34, -8.29715495476445463741e-02) (35, -3.44047649877427044740e-02) (36, -2.12738627298795085485e-01) (37, -9.83036261947080880486e-02) (38, -2.26350569828473430212e-01) (39, -7.57441512422917517799e-02) (40, 7.06790321392657266975e-02) (41, -4.07550214903710308900e-02) (42, -2.09407338603459697302e-01) (43, -2.52285295828305611288e-01) (44, -3.00704883142434542531e-01) (45, 7.22510748428942667365e-02) (46, -2.34718538097123795988e-03) (47, 1.13811367086851772390e-01) (48, -1.99628332360707622106e-01) (49, -3.16643232210599367971e-01) (50, -3.68786478146039431447e-01) (51, 5.59565732708254895411e-02) (52, -4.13939646559117260805e-02) (53, 8.47648689976015778935e-02) (54, -3.20870110496007387990e-01) (55, -9.53178516384432100716e-03) (56, -1.83516451819859843786e-01) (57, 1.38597313200775423825e-01) (58, 2.91319722762385310832e-02) (59, 2.51328582396784724895e-02) (60, -5.30143421029693820423e-02) (61, -6.56858723497039942441e-02) (62, -2.14952343805753093298e-01) (63, 3.64133081191218288541e-02) (64, 4.91184404843485744596e-02) (65, 3.39938803005960295950e-03) (66, -1.10800909713022449621e-01) (67, -1.34017508363373019642e-02) (68, -3.50302280589066927785e-01) (69, 2.24513288473430855374e-01) (70, 2.09490980839077217679e-01) (71, 1.18202875404432097839e-02) (72, -1.29051192566864231237e-01) (73, -2.33947748049222331579e-01) (74, -2.83053228362523445760e-01) (75, 3.60976022725972067740e-01) (76, 3.50257334357174765493e-01) (77, 2.07366037850141377019e-01) (78, -9.56494253015167522625e-02) (79, -3.12469707532845919484e-01) (80, -3.53188337489091341848e-01) (81, 3.54856212681206595327e-01) (82, 2.65320641046437155630e-01) (83, 8.83043817036783806884e-02) (84, -1.20935958239997129460e-01) (85, -1.34398363891804928372e-01) (86, -1.55258771393264022320e-01) (87, 2.07501608679516752476e-01) (88, 9.27124083426703743394e-02) (89, -6.08260136285394270583e-02) (90, -2.05844830608017184681e-02) (91, -9.68749638533241558269e-02) (92, -1.17327411088908414860e-01) (93, 3.73875518537020945509e-01) (94, 4.53234601414433335709e-01) (95, 2.03044921544303577643e-02) (96, -1.04504045460189085026e-01) (97, -1.93639671103331079127e-01) (98, -1.29670288774932140896e-01) (99, 1.47439079443811249526e+00) (100, 1.77777885945349400920e+00) (101, 2.94859823828610312368e-01) (102, -1.15352642152274351139e-01) (103, -5.20335484964125516427e-01) (104, -1.63694342271658438426e-01) (105, 1.80699485095053380412e+00) (106, 4.13660971299757473929e+00) (107, 2.26609894745377360437e+00) (108, -6.47293593620903162655e-02) (109, -4.29796361470789811676e-01) (110, -4.61982705736727505830e-01) (111, 1.19942626523984396947e+00) (112, 4.82233856946614114491e+00) (113, 2.00288178428393148778e+00) (114, 6.57693633083034599751e-03) (115, -4.73003015959830075410e-01) (116, -4.08187323356242082184e-01) (117, 6.04208675468984046653e-01) (118, 9.38613127435270366838e-01) (119, 7.03827169979634681418e-01) (120, -1.43515806531555392689e-02) (121, -9.29073438468616896735e-01) (122, -5.62951118791670479524e-01) (123, 6.21211522514644065573e-01) (124, 2.32889201798671313659e-01) (125, 3.06514747597624870323e-01) (126, -6.19757439827568271107e-02) (127, -2.22571891876726235537e+00) (128, -5.33382692480654618805e-01) (129, 2.21191444049890800772e-01) (130, 6.34588157640059297160e-02) (131, -9.01575579415098693481e-02) (132, 2.65277614093279989760e-01) (133, -4.81744119072527676728e-01) (134, -2.43172401293240886266e-01) (135, -6.65627726312535000774e-02) (136, -5.05859468245638654871e-01) (137, -7.52027980817346120013e-01) (138, 4.63948932972555350140e-01) (139, -2.58739827491426988004e-01) (140, -2.43231096967183452184e-01) (141, -7.85653911365060575456e-01) (142, -1.23832951360113141526e+00) (143, 1.88827132389644242183e-01) (144, 4.92061866012220572308e-01) (145, -3.27915398694658688505e-01) (146, -3.04416576131307070607e-01) (147, -1.31867824368841168869e+00) (148, -2.16410556633004416693e-02) (149, -1.28470102866364455085e-01) (150, 5.81682985213403669356e-01) (151, -5.94913204164430817200e-02) (152, 5.00112483730593693210e-02) (153, -5.14869789460497551126e-02) (154, -7.83003072121935816963e-02) (155, -3.82505605796175374156e-02) (156, 4.97115937557821463422e-01) (157, -2.63323587844094299248e-02) (158, 2.07789176029803401846e-02) (159, -4.53807153006237362636e-01) (160, -5.21328244556826025935e-01) (161, -4.41829361220043570491e-01) (162, 5.08778517630701254681e-01) (163, 3.07756279802775645216e-01) (164, -2.27854679694763605224e-02) (165, -5.56640878518265158625e-01) (166, -1.47869403019270095889e+00) (167, -4.97673653264683157893e-01) (168, 6.17686396029596518353e-01) (169, 3.33016921823891531851e-01) (170, -4.02863874214051190248e-02) (171, -2.23088153782157982974e+00) (172, -1.14963571918100826430e+00) (173, -1.36448791727146301334e+00) (174, 5.08556758549814413861e-01) (175, 5.10212821450834463910e-01) (176, 9.57867202506064163714e-02) (177, -2.20119666638641442447e+00) (178, -8.22194486690549397601e-01) (179, -9.21066792630017228127e-01) (180, 5.93833004620676008223e-01) (181, 3.27812177186879050161e-01) (182, 1.20007429008245347646e-01) (183, -1.41390870735236773292e+00) (184, -1.06953077944403851518e+00) (185, -1.15350532722563259291e+00) (186, 3.45029515272053610708e-01) (187, 1.42077225928068068272e-01) (188, 1.20373587791681169179e-01) (189, -1.76978180741205665116e-01) (190, -3.21448133493295984398e-01) (191, -2.10672849024168190590e-01) (192, 5.31982665446405600385e-01) (193, 1.32193792347669508702e-01) (194, 2.17389587049245686101e-01) (195, -2.11131380105844673745e-01) (196, -2.34165274704328740807e-01) (197, -3.50212181543245737458e-01) (198, 4.41456764263298828688e-01) (199, 1.28384526555299666173e-01) (200, 1.21938768510579956250e-01) (201, -3.06650811041227655540e-01) (202, -3.29125368202558832298e-01) (203, -2.33435386026731694908e-01) (204, 6.00461935189371076582e-01) (205, 3.37224594575550873365e-01) (206, 2.21640843634366840886e-01) (207, -3.05938140655390100608e-01) (208, -3.03530217314592676292e-01) (209, -2.40192079151502840828e-01) (210, 6.57477754418157145366e-01) (211, 8.46881154243253275737e-01) (212, 1.98046479110479206609e-01) (213, -2.51666010523668548515e-01) (214, -2.34662898982397283287e-01) (215, -1.45766765976778206459e-01) (216, 3.49070235413697083082e-01) (217, 2.20793012265920490789e-01) (218, 1.25924419348001387364e-01) (219, -1.89629847740068885331e-01) (220, -2.72728605486536435087e-01) (221, -3.40774772979402951201e-01) (222, 1.31544004862069990880e-01) (223, 1.05457398776769517568e-01) (224, 2.22372907881498188543e-01) (225, -3.69842591054821423491e-01) (226, -2.50925047613764329313e-01) (227, -3.57043436087751797636e-01) (228, 1.13131869320630906728e-01) (229, 2.08555835966825336980e-01) (230, 7.97501587195040551048e-02) (231, -2.83705530978823117216e-01) (232, -2.43346033908510700483e-01) (233, -2.72081433154726437529e-01) (234, -4.50865057775696811970e-02) (235, 8.07744049353243676048e-02) (236, -4.92573370704373417195e-02) (237, -3.10572636918398425898e-01) (238, -2.47869966842318073530e-01) (239, -3.65614025212908200224e-01) (240, 3.19448568744303759703e-02) (241, 2.28846732263326496648e-01) (242, -2.20387681501267376771e-02) (243, -1.21257882926429014225e-01) (244, -3.68070354975843838652e-01) (245, -2.79407901980066708525e-01) (246, -3.00725913720486584535e-02) (247, 1.99023995284795612859e-01) (248, 4.97941755575778063903e-02) (249, -2.01154922739836206080e-01) (250, -3.07149282015943936308e-01) (251, -3.44300730444574765166e-01) (252, -5.78801772671101652512e-02) (253, 5.53486158297060923394e-02) (254, 6.95657365841509806037e-02) (255, -2.31738595582628742475e-01) (256, -3.58405104197645596464e-01) (257, -3.02725611545229367216e-01) (258, -5.50793028644303971769e-03) (259, 1.85680661086797565984e-01) (260, 1.42392971439005977530e-02) (261, -3.00219675199362323603e-01) (262, -3.41935998119497708281e-01) (263, -3.50473044730806759794e-01) (264, 1.11748405627691921316e-01) (265, 1.76355991248845905828e-01) (266, -3.87447430866120282045e-02) (267, -1.27773552104942539343e-01) (268, -2.77352361299181393584e-01) (269, -4.07981014169836453398e-01) (270, 1.63444065374972434534e-02) (271, -1.44536039905903759828e-02) (272, -7.07252240853665503639e-02) (273, 6.30595842829028002674e-02) (274, -3.02059887267733029326e-01) (275, -3.60161869146013668974e-01) (276, 2.44853355807902461905e-02) (277, 9.88214098734499779564e-02) (278, -5.27288160400746358514e-02) (279, -5.69665496716221866902e-02) (280, -3.22924381412649563750e-01) (281, -1.82019805209013452174e-01) (282, 3.95663835925700244078e-02) (283, 5.01493298334719714293e-02) (284, 8.25132810396792260033e-02) (285, -1.22341803388951245180e-02) (286, -5.79734634494430758900e-02) (287, -1.23716003164760807165e-01) (288, 1.15994104079687770925e-01) (289, -7.75095886664746436256e-02) (290, 9.68316131157519188744e-02) (291, 8.86710815855283954190e-03) (292, -1.24778023824207523473e-01) (293, -2.40302448639592193536e-02) (294, 8.93479668421389428001e-02) (295, -5.56178457217572225213e-02) (296, 1.18294381432020839773e-01) (297, -7.07630804853795203346e-02) (298, -3.58593789407929477986e-02) (299, 6.20161602726260127727e-02) (300, 4.88458672480477473776e-01) (0, 3.28862862989068416297e-01) (1, 1.69720077024628962503e-01) (2, 2.19982670947671404837e-01) (3, 2.80435907050729293921e-01) (4, 3.24834408566117671668e-01) (5, 2.90774712666631129920e-01) (6, 1.83554949566483910361e-01) (7, 3.02289525374532130897e-01) (8, 3.16679599091172603309e-01) (9, 2.15101862653851977347e-01) (10, 2.45484832804410940676e-01) (11, 2.66389096483350296118e-01) (12, 3.33301948711038020789e-01) (13, 3.39102076694131282508e-01) (14, 2.27536077007413378714e-01) (15, 1.99701467856526787559e-01) (16, 3.02266214173048108904e-01) (17, 2.61231856748223800757e-01) (18, 2.29495082180707937747e-01) (19, 2.68224539562821884253e-01) (20, 2.71862968932598203509e-01) (21, 2.81830089494348068335e-01) (22, 3.36024087052553266375e-01) (23, 3.01180394693971065223e-01) (24, 2.84977559130399793474e-01) (25, 3.23874147936463741004e-01) (26, 3.33274271469324201433e-01) (27, 2.57682385250688095191e-01) (28, 3.76528220578789984962e-01) (29, 2.48638103112340386192e-01) (30, 3.23691692333429426043e-01) (31, 3.24160414144158748329e-01) (32, 2.98513610046117872088e-01) (33, 3.27277886077523616493e-01) (34, 2.23365633144736758231e-01) (35, 2.06951538428426201621e-01) (36, 2.71987699102371305315e-01) (37, 2.60855697225540250628e-01) (38, 3.63176178317277997820e-01) (39, 3.72270824715257075965e-01) (40, 2.59561078950524826148e-01) (41, 3.57098745509744075477e-01) (42, 2.92595017831533521502e-01) (43, 2.46798146646230703860e-01) (44, 3.50135933737962812273e-01) (45, 3.03734617635369685829e-01) (46, 2.30103133573890145103e-01) (47, 2.00839871868253166953e-01) (48, 2.18901593368261343509e-01) (49, 2.78367534409969419329e-01) (50, 3.22999518494814008562e-01) (51, 2.39202289238334114829e-01) (52, 3.43801142975449947059e-01) (53, 2.07461329504609520713e-01) (54, 3.94317802171915143816e-01) (55, 2.47548025231569296389e-01) (56, 3.85270591955392927019e-01) (57, 1.29149781231044619156e-01) (58, 1.41953909460662691666e-01) (59, 3.45402332350373653114e-01) (60, 3.78603007774561017840e-01) (61, 2.31294941287248617678e-01) (62, 3.23497858028619855730e-01) (63, 1.13840117544142249706e-01) (64, 2.30462122202125946346e-01) (65, 2.18752789736000458065e-01) (66, 2.86440994720666974871e-01) (67, 2.32933361213415152102e-01) (68, 4.10092037301271417071e-01) (69, 8.63406690361180340076e-02) (70, 4.19276744762648798104e-02) (71, 1.41542408108917688869e-01) (72, 4.09088742118089765398e-01) (73, 3.00172042231767743914e-01) (74, 3.18824093919008344500e-01) (75, 1.60782390896438448502e-01) (76, 1.44098404704816381722e-02) (77, 1.85650730196594088151e-01) (78, 3.62437393646448224871e-01) (79, 2.25181099157541281253e-01) (80, 2.29667607825010305911e-01) (81, 8.69946122804869798051e-02) (82, 1.01106891099571147286e-01) (83, 2.45358053088394562069e-01) (84, 1.48391056299416013164e-01) (85, 2.61074029039352506487e-01) (86, 2.23389621954172140628e-01) (87, 1.17265164345709327343e-01) (88, 2.08993125200477997128e-01) (89, 2.35659089248818565121e-01) (90, 8.14368160965123211170e-02) (91, 1.71199652791229645077e-01) (92, 3.45891337971895307390e-01) (93, 1.53372408513187258317e-01) (94, 2.15523320675102630917e-01) (95, 1.59956979990211856091e-01) (96, 1.37774537742344355129e-01) (97, 2.83994090758009742892e-01) (98, 3.23373880367487043230e-01) (99, -1.82919334231822050540e+00) (100, -1.39103149751931964850e+00) (101, 1.22684762245345815868e-01) (102, 2.03496042132584015194e-01) (103, 2.93510575793429207003e-01) (104, 4.14726462345331170489e-01) (105, -3.23030786095046096307e+00) (106, -9.24085775118761354463e+00) (107, -3.96345425277469010084e+00) (108, 2.57223743438927177074e-01) (109, 3.75186999218738548301e-01) (110, 2.29790587108343130618e-01) (111, -3.26573666063927703362e+00) (112, -9.24217288297109895723e+00) (113, -4.25614033600473717911e+00) (114, 2.46336463332382599178e-01) (115, 3.06705553906238492790e-01) (116, 3.41224376242368787615e-01) (117, -1.11402118456058563112e+00) (118, -1.44852658009224066760e+00) (119, -3.69258934486001721975e-01) (120, 3.14806033055990308611e-01) (121, 3.66374631302631370566e-01) (122, 4.33930468760176546450e-01) (123, -2.83897167804055272633e-01) (124, -4.59396385186707362225e-02) (125, -1.99806957306676052921e-01) (126, 3.34741417448728650896e-01) (127, 3.53654456215179435752e-01) (128, 3.44442483167856305926e-01) (129, -2.88671844237839564373e-02) (130, 2.31152103679798076596e-01) (131, 2.53612102406642891950e-01) (132, 1.74227425519584505631e-01) (133, 3.40383899412794954653e-01) (134, 4.02885940056055158465e-01) (135, 2.30897264021060893979e-01) (136, 2.01538906829975078550e-01) (137, 6.07974814604717472832e-01) (138, 1.50946595138240574618e-01) (139, 3.12952157240121930926e-01) (140, 2.52926040570943921892e-01) (141, 8.38192571016617704593e-01) (142, 5.67019852231937848686e-01) (143, 6.56699793766933881400e-01) (144, 4.44910380899198112936e-02) (145, 2.90750574450700849383e-01) (146, 2.33169566970079428225e-01) (147, 9.27568723968050679041e-01) (148, 8.24547370484850494776e-01) (149, 7.76063080939122129642e-01) (150, 3.36235020219571648092e-02) (151, 2.26093250751701752010e-01) (152, 3.64539685055375484168e-01) (153, 9.57861041239283284021e-01) (154, 9.50861339977762898279e-01) (155, 9.57939019015810688806e-01) (156, 1.11605883008170828075e-01) (157, 1.72342594206539551083e-01) (158, 2.49297546550393517295e-01) (159, 8.19990722630959956163e-01) (160, 8.94528602770350067530e-01) (161, 7.72908588460466949854e-01) (162, 2.00573467081714418292e-01) (163, 1.02375911239742198311e-01) (164, 2.33980023370911921488e-01) (165, 1.09111273955697152260e+00) (166, 7.72612137309095947657e-01) (167, 9.54198186806223591638e-01) (168, 1.25551984077621192615e-01) (169, 1.57178603476215122958e-01) (170, 9.25040770231969483595e-02) (171, 9.20331334284327229334e-01) (172, 8.71638757697126953516e-01) (173, 9.48287954143068989588e-01) (174, 1.49295576280284642001e-01) (175, 1.49749674266505955478e-01) (176, 6.43922615706212508879e-02) (177, 9.24318467787287434412e-01) (178, 7.84790147157975126468e-01) (179, 8.80809297374270050440e-01) (180, 6.01495396255738723479e-02) (181, 1.36431433623958348056e-01) (182, 7.91363123714215882520e-02) (183, 8.01708338371298401270e-01) (184, 8.86162144652388183985e-01) (185, 8.21867307237169830714e-01) (186, 3.50174460469968376608e-02) (187, 3.13878957092053947897e-02) (188, 1.66443653768230198642e-01) (189, 3.11350453775137037127e-01) (190, 2.36009789958358223716e-01) (191, 3.02858289461343854754e-01) (192, 2.84947558406119239027e-02) (193, -2.57654533621544806765e-02) (194, 1.62617393201518772861e-01) (195, 3.61682789727807429969e-01) (196, 2.42551315705984121829e-01) (197, 3.77115558963029950945e-01) (198, 9.52824755671744239027e-02) (199, 7.05887927773718726332e-02) (200, 3.67796450021986853773e-02) (201, 2.33874587669730599204e-01) (202, 2.78758393928170700171e-01) (203, 1.96256654664636071006e-01) (204, -3.84359554287667104511e-02) (205, -3.42947364684815236835e-02) (206, 8.36576177838568579848e-02) (207, 2.72044347926736373999e-01) (208, 3.77861978813767707130e-01) (209, 2.40683930322289879600e-01) (210, -6.77448556658501455097e-02) (211, -2.43371956881756751345e-02) (212, 1.14766652798963073034e-01) (213, 2.57479498490453262427e-01) (214, 2.65209393903375167945e-01) (215, 2.88767056867242244422e-01) (216, 5.87483151915793311293e-02) (217, 3.78781362536673438246e-02) (218, 1.38924278682399510165e-01) (219, 3.06445803623407453387e-01) (220, 2.22216282170026785403e-01) (221, 4.01969518642633527605e-01) (222, 1.84641488259959934970e-01) (223, 1.15432583159137472362e-01) (224, 4.09256223499066887350e-02) (225, 3.98940918050452120180e-01) (226, 3.55697070263071901675e-01) (227, 3.26892835102721102114e-01) (228, 1.26067937974094268494e-01) (229, 6.41548562704808700285e-02) (230, 1.57536977039506281839e-01) (231, 2.17881102245061880618e-01) (232, 3.76611148021860964175e-01) (233, 3.67997047506018526430e-01) (234, 1.97741279706120903770e-01) (235, 1.77570828858970491959e-01) (236, 3.19977971121430782020e-01) (237, 3.89552381019800275652e-01) (238, 3.01976551316424257632e-01) (239, 4.03321293197317964907e-01) (240, 2.13839838608861382285e-01) (241, 4.74070165216214645110e-02) (242, 3.65259768768906978309e-01) (243, 2.36759979407995230227e-01) (244, 3.83468207917853243227e-01) (245, 3.35950513384981996889e-01) (246, 3.09130551621079829872e-01) (247, 5.53918372749574172698e-02) (248, 3.33883986877133609461e-01) (249, 2.75090292226284116595e-01) (250, 4.05253541670485384341e-01) (251, 4.52636149726553804751e-01) (252, 1.99277219431331031885e-01) (253, 1.21952310568023428172e-01) (254, 2.47006037341286982523e-01) (255, 2.93458622079103559344e-01) (256, 3.12762879781170732851e-01) (257, 4.47692749105139620180e-01) (258, 2.91022629545857669520e-01) (259, 1.44667782252956150790e-01) (260, 1.90784917281796806421e-01) (261, 3.54935359339922040789e-01) (262, 4.05964788995428926821e-01) (263, 4.12385699353857881899e-01) (264, 1.93603579955031745996e-01) (265, 1.62663005655933140536e-01) (266, 2.42673524724175776468e-01) (267, 3.58571188851952937782e-01) (268, 3.95631280742331392641e-01) (269, 3.89639717541380770083e-01) (270, 2.67729454742600680994e-01) (271, 1.68428071206737278720e-01) (272, 3.15984041498830081629e-01) (273, 2.77978869482636947730e-01) (274, 4.48603940210982210512e-01) (275, 3.44441895387812502261e-01) (276, 3.19766343640019656824e-01) (277, 1.16691448157954916209e-01) (278, 2.78771036373307468104e-01) (279, 3.24860291883111385047e-01) (280, 3.83651401977747052996e-01) (281, 2.77467988561599820940e-01) (282, 2.83333406852414371180e-01) (283, 1.96521136819608269186e-02) (284, 3.29903842018773318934e-01) (285, 2.01549398109078820029e-01) (286, 3.04980401079862684099e-01) (287, 2.00944329008222039024e-01) (288, 1.55079112456967677103e-01) (289, 3.27265266238935051413e-02) (290, 3.11261461185147525477e-01) (291, 2.17073994084954730033e-01) (292, 3.44365762874246028602e-01) (293, 2.75503846212983627417e-01) (294, 3.35296661661793948817e-01) (295, 9.85863841168952391436e-03) (296, 2.03816187636782969461e-01) (297, 2.22959824906518305765e-01) (298, 3.60299500033021358192e-01) (299, 3.57725086018205074012e-01) (300, 3.28259667389684817174e-01) (0, 4.03941706557309543335e-01) (1, 4.81011804127778552775e-01) (2, 4.62773942191636478150e-01) (3, 5.00689887244737064087e-01) (4, 2.96329955170981595991e-01) (5, 2.69257489119534898503e-01) (6, 4.65445884306466495239e-01) (7, 3.38168256719148185852e-01) (8, 4.63033818442857181275e-01) (9, 4.09075484414136325562e-01) (10, 3.72145990441672402937e-01) (11, 1.90828132043711712340e-01) (12, 2.04121331284873058776e-01) (13, 3.16944957513844882691e-01) (14, 3.65721608112685281355e-01) (15, 3.57717242826259052002e-01) (16, 2.72251690338484841902e-01) (17, 1.85435252796046307067e-01) (18, 2.24508802007071545104e-01) (19, 3.44214690533207745560e-01) (20, 3.41686348031394082625e-01) (21, 3.93629305799043094360e-01) (22, 2.59982960830561715682e-01) (23, 2.35959506194226315001e-01) (24, 2.40638418655030300597e-01) (25, 3.94988455612695132935e-01) (26, 2.84765342782370756147e-01) (27, 4.41865079839265262329e-01) (28, 2.40780080269209911803e-01) (29, 3.24521291528706845586e-01) (30, 2.98234360824458311079e-01) (31, 3.79934807923363537796e-01) (32, 1.98051864813201000670e-01) (33, 3.82131696481740390503e-01) (34, 4.54381280381715213501e-01) (35, 4.48782407481706058228e-01) (36, 2.75973843942515562055e-01) (37, 2.74396168599955636580e-01) (38, 3.41519678543440896590e-01) (39, 3.60131059576308643067e-01) (40, 5.04595049459969913208e-01) (41, 4.68066253502404605591e-01) (42, 1.64578817426888651676e-01) (43, 1.96562583158843090514e-01) (44, 3.39580232809416848738e-01) (45, 3.58927593369519626343e-01) (46, 3.75403226156270419800e-01) (47, 3.66232511390483295166e-01) (48, 1.57982471972434229679e-01) (49, 2.87758233557574349959e-01) (50, 2.76700023203818479267e-01) (51, 2.58280340109830308659e-01) (52, 5.02510928351914798462e-01) (53, 2.95294507865672406499e-01) (54, 2.52101699422232705672e-01) (55, 2.30995556871525814513e-01) (56, 3.14867625544898110945e-01) (57, 5.35711436230442927808e-01) (58, 5.38427828509114192457e-01) (59, 3.76771102259986001570e-01) (60, 2.40373565415970852355e-01) (61, 2.80064585219256589887e-01) (62, 3.30462495396964150984e-01) (63, 4.37269827980302006054e-01) (64, 5.27763484675190852613e-01) (65, 2.72689985643260079939e-01) (66, 1.96177440296046307067e-01) (67, 2.47139731953970959166e-01) (68, 3.68209550689093667586e-01) (69, 8.51728780726033418702e-01) (70, 4.72837998229764022717e-01) (71, 5.12012823251690285531e-01) (72, 3.14732978652350503523e-01) (73, 3.55045790384642678816e-01) (74, 3.04110202580420652119e-01) (75, 9.30461544230980930337e-01) (76, 7.23901042899612212622e-01) (77, 4.19307200867436558056e-01) (78, 3.29515317986838418562e-01) (79, 1.80925454586474604435e-01) (80, 2.76241246252982297626e-01) (81, 1.37938776458939948988e+00) (82, 7.93375680408004546607e-01) (83, 8.33733244398671358155e-01) (84, 5.06083695916141884652e-01) (85, 2.41963819264433416256e-01) (86, 1.18717338531939664570e-01) (87, 9.16193564799190007797e-01) (88, 7.59254699944348687701e-01) (89, 7.98591995297136092447e-01) (90, 4.66328194994233169446e-01) (91, 8.25746065368866410950e-02) (92, 1.73406638800165630032e-01) (93, 1.31801553289732376051e+00) (94, 1.17558721683392786161e+00) (95, 6.82749560474248284869e-01) (96, 4.54440748788868864594e-01) (97, 1.80547662674448466946e-01) (98, 2.12835640310308854550e-01) (99, 5.67181719579812604337e+00) (100, 8.22419667679366739321e+00) (101, 9.90389585142894546266e-01) (102, 4.25547888972317656098e-01) (103, 9.63479509940361605880e-02) (104, 1.05245218276045313099e-01) (105, 1.14032795889404265921e+01) (106, 2.97075771791644669406e+01) (107, 6.28287045129094234852e+00) (108, 4.75913936056023834098e-01) (109, 2.68556453609933819260e-02) (110, 2.04463631509802262753e-01) (111, 1.14375804079797713797e+01) (112, 1.31562542938982165452e+01) (113, 2.87690598741712078024e+00) (114, 1.98267467915079570462e-01) (115, 1.25389417293118449193e-01) (116, 2.62523949741385043133e-01) (117, 2.45074457803989487203e+00) (118, 5.60494979956266003995e+00) (119, 1.63160190069969801563e+00) (120, 2.08232328890821855039e-01) (121, -1.54003958625749975964e-01) (122, 2.13533968328497331113e-01) (123, 1.18051359151092127853e+00) (124, 1.20015933458295420699e+00) (125, 5.62479115957633446499e-01) (126, 3.23491556253956646927e-01) (127, -3.37557624502138553524e-01) (128, -9.62737951741036990239e-02) (129, 5.72103209728614281460e-01) (130, 6.81608820936498993603e-01) (131, 2.37611529510158653311e-01) (132, 4.72288379728980634020e-01) (133, 1.50793232618830180813e-01) (134, 1.37212451189486689396e-01) (135, 6.41477679994246874351e-01) (136, 8.02977027672496235233e-02) (137, 2.97267074023657040804e-01) (138, 1.31882564817157366122e+00) (139, 2.64897183178923190106e-01) (140, 1.95251422534815838317e-01) (141, 2.43569107984476201922e-01) (142, -4.88212786023455025397e-01) (143, -2.38878824583876298027e-01) (144, 1.26752828900304415072e+00) (145, 1.46841534077188945462e-01) (146, 3.50925008366934854109e-01) (147, -1.04690076193055103815e+00) (148, -1.85862832259249688427e+00) (149, -1.58815791523806182362e+00) (150, 1.18469048385110453658e+00) (151, 4.95042903978131332288e-01) (152, 3.49123597879445468628e-01) (153, -2.22186042246979909009e+00) (154, -2.22480486211938099927e+00) (155, -2.30663462606829838819e+00) (156, 1.34604191873756029452e+00) (157, 4.21287788707516819287e-01) (158, 4.33604303681935920878e-01) (159, -2.26935671893519597120e+00) (160, -2.29379405704898076124e+00) (161, -2.35462716472906308240e+00) (162, 1.28694264684405901278e+00) (163, 5.70741238355823021777e-01) (164, 4.56311557376470111613e-01) (165, -2.22425868985814290113e+00) (166, -2.29183477041882710523e+00) (167, -2.27998573956650929517e+00) (168, 1.26865434740272142733e+00) (169, 7.82039780421766694829e-01) (170, 4.45056911492433204813e-01) (171, -2.25873461244267659254e+00) (172, -1.13757194000071826245e+00) (173, -2.34283562255663113660e+00) (174, 1.29131823871818163241e+00) (175, 1.23070051614728548373e+00) (176, 5.19063283108450068681e-01) (177, -1.12789154456597290332e-01) (178, 5.93144833096157717001e-02) (179, -6.98442286410677487529e-02) (180, 1.31301044021335222567e+00) (181, 7.28890400631937440679e-01) (182, 4.64042682551122964707e-01) (183, 2.15338407369972551636e-03) (184, 6.28746091374050852796e-02) (185, -1.63956870750461752850e-01) (186, 1.05377623323640645658e+00) (187, 8.93801961346182283208e-01) (188, 4.96174905799604715195e-01) (189, 5.13768582590710398694e-02) (190, -1.97101295939791920642e-02) (191, 7.34127401360165077193e-02) (192, 2.32581096271301346334e+00) (193, 9.98335036598613778658e-01) (194, 5.79598207377172602861e-01) (195, 3.02048544000022123335e-01) (196, -1.16296118592392278002e-01) (197, -4.12046597353327992419e-02) (198, 2.35016401240850525411e+00) (199, 1.08346075858967605399e+00) (200, 5.47731284402586116045e-01) (201, 3.78408479963307620153e-01) (202, 2.98575285349850949590e-01) (203, 1.26488514483799691090e-01) (204, 2.50041253248478012594e+00) (205, 1.47098665571193554236e+00) (206, 6.29490717478362604709e-01) (207, 3.47751494024758633916e-01) (208, 3.50226457689767123327e-01) (209, 4.14491686497693301305e-01) (210, 2.34681005159641342672e+00) (211, 2.38431279490018921408e+00) (212, 6.25460206695167109103e-01) (213, 3.39128400658135709111e-01) (214, 2.46921891878478100280e-01) (215, 3.50759739588133889754e-01) (216, 1.01398753653683493248e+00) (217, 9.05843361346626130270e-01) (218, 5.50497819088674678056e-01) (219, 2.05263348828188946227e-01) (220, 3.04457882951132963179e-01) (221, 2.32616169910065700988e-01) (222, 4.21014506720281900254e-01) (223, 5.35792906187749995439e-01) (224, 4.35758355939473762675e-01) (225, 1.06999601810900832333e-01) (226, 3.23263277735551420033e-04) (227, 3.78159967264793742125e-02) (228, 4.68999142110534283923e-01) (229, 4.81037156939693066882e-01) (230, 1.99127430628172924498e-01) (231, 2.10704671750895550231e-01) (232, 1.36186729758708185978e-01) (233, 1.81337978332965082950e-01) (234, 3.22476620386473733504e-01) (235, 3.29372138519322787964e-01) (236, 2.51803080151907998641e-01) (237, 3.13432226489417153914e-01) (238, 2.27481703847377009220e-01) (239, 2.85664800196616330830e-01) (240, 4.19062943000829135620e-01) (241, 5.54042403005338801592e-01) (242, 3.62750460196769153320e-01) (243, 2.72710832367770272811e-01) (244, 1.56551103681056208439e-01) (245, 2.23291974156825251407e-01) (246, 3.77871156473195468628e-01) (247, 5.80376062892652644365e-01) (248, 3.82916726906335269653e-01) (249, 1.95960211168162395934e-01) (250, -3.27386729096899031788e-02) (251, 1.55974303963231086811e-01) (252, 4.15042858505334510966e-01) (253, 4.28645741544939340439e-01) (254, 4.77225225353326343303e-01) (255, 3.41238448928229409773e-01) (256, -8.50616615767574302254e-03) (257, 1.52468925001667976460e-01) (258, 4.03907529944266929789e-01) (259, 5.14223669074751033037e-01) (260, 4.32324875080670967264e-01) (261, 2.58815276037089425643e-01) (262, 1.06550266625927897435e-01) (263, 7.92720072293748856396e-02) (264, 5.00846307659234546428e-01) (265, 4.89651743673063577500e-01) (266, 4.81079932236756824260e-01) (267, 2.08429711471430828551e-01) (268, 1.29725809782473749943e-01) (269, 1.64341956019131846256e-01) (270, 3.54787554526414528056e-01) (271, 5.31116504572607173174e-01) (272, 3.58822438800420417948e-01) (273, 2.40041142861477901915e-01) (274, 1.30469176560370631046e-01) (275, 1.71153861671416468448e-01) (276, 5.24026181483354225321e-01) (277, 4.35756195271100654764e-01) (278, 3.91968004340018882914e-01) (279, 2.92707576875453290288e-01) (280, 2.87496725629202920516e-01) (281, 2.34256161908738186339e-01) (282, 3.91133319521035804911e-01) (283, 5.23662980580415382548e-01) (284, 4.29113406622495308085e-01) (285, 4.92072992761170779907e-01) (286, 3.20681745718352395613e-01) (287, 2.95634070943228910444e-01) (288, 5.16977693820085182352e-01) (289, 3.45712672853555336161e-01) (290, 3.76069251382436409159e-01) (291, 3.73016998906171237671e-01) (292, 2.60308268080584603865e-01) (293, 3.57646341036192971785e-01) (294, 5.24724792623605384989e-01) (295, 3.82277976656045570536e-01) (296, 4.13509588623132362528e-01) (297, 4.61585041070069812541e-01) (298, 2.46487999866835644225e-01) (299, 4.06519488234555637085e-01) (300, 1.39839399455576912645e-01) (0, 9.94565931311355982958e-02) (1, 4.76279330602394149197e-02) (2, 2.12937362228940607611e-01) (3, 1.60621128713201166693e-01) (4, 7.34470856538521205126e-02) (5, 7.94411932280765925585e-02) (6, -1.64717510670085692803e-01) (7, 1.64983592664312006537e-01) (8, -1.90957181338184789343e-01) (9, 1.90997056399892450873e-01) (10, -2.31541414141317153375e-01) (11, 1.82569078837941767279e-01) (12, -2.80236013416164886358e-01) (13, -2.65099689546936523321e-01) (14, -2.50683900151365768316e-01) (15, 2.17829875384877802436e-01) (16, -1.10292978912254188706e-01) (17, 1.84220261608670832221e-01) (18, -1.27558812681549560430e-01) (19, -1.21801555339210929030e-01) (20, -1.02076873365753592604e-01) (21, 5.14510941854225203884e-02) (22, -2.27368325322528624932e-01) (23, 1.94839559232305170600e-01) (24, -2.88790431638768052558e-01) (25, -2.02311597946995214148e-01) (26, -2.56617163141777848701e-01) (27, 1.49321563278745295111e-01) (28, 1.83446503912519098822e-01) (29, 1.58495165144513727729e-01) (30, -1.98755839669625927746e-01) (31, -2.56520927134865295294e-01) (32, -1.35900852104237329643e-01) (33, 1.18038892482827798003e-01) (34, 2.00969584023069025580e-01) (35, 3.70155495753990287922e-02) (36, -1.48931929671685864269e-01) (37, -2.00626742859890710990e-01) (38, -1.44412869417588879406e-01) (39, 8.21149719110237513719e-02) (40, 8.98396221152054225145e-02) (41, 3.30482271662460580508e-02) (42, -2.81727963888566745876e-01) (43, -2.18661697411458660900e-01) (44, -2.60316779667060627101e-01) (45, 8.95922181359039698778e-02) (46, 1.03025555347512856597e-01) (47, 3.83927521458374068630e-02) (48, -2.72599534892957462429e-01) (49, -2.52798570150058521389e-01) (50, -1.11674124205033975521e-01) (51, 4.73276746621833846462e-02) (52, 1.02509900664399758452e-01) (53, -2.35185064702888274590e-01) (54, -1.04244777762811380306e-01) (55, -2.11945900523584057629e-01) (56, -1.60616839134614636242e-01) (57, 6.37420748522983665607e-02) (58, 4.12330401292549178494e-02) (59, 1.26687034701417566840e-01) (60, -1.24174782836358757465e-01) (61, -1.74412053843548547905e-01) (62, -1.58099213445108105480e-01) (63, 1.64528391992162348334e-01) (64, 4.30961546650634810818e-02) (65, 1.46727747952054621283e-01) (66, 1.42823012352033928973e-01) (67, -1.22725021859219352027e-01) (68, -2.79564367437284244655e-01) (69, 1.39711141323159815375e-01) (70, 5.88592623522983596218e-02) (71, 8.29288694632362433090e-02) (72, 1.14038424372717231425e-01) (73, -2.39757955839445840995e-01) (74, -1.25806385481279120464e-01) (75, 6.58512985066190381644e-01) (76, 1.49303577577184320990e-01) (77, 8.10765509656177912889e-02) (78, 1.64163132526363803043e-01) (79, -1.44573280417840649426e-01) (80, -1.92999334835927655041e-01) (81, 6.67811682180181165336e-01) (82, 6.70102109864965100883e-01) (83, 2.13367946182798029486e-01) (84, 5.02912453600353956396e-03) (85, 1.58249412991489840641e-01) (86, -2.19855272972505261242e-01) (87, 6.06200307130862148242e-01) (88, 4.58644829213668003831e-01) (89, 7.72601862926144133947e-02) (90, 5.36793743748325766219e-02) (91, -3.16380354568647492730e-02) (92, 2.31744102426953077489e-03) (93, 4.74139390229577128988e-01) (94, 5.81578507542658718066e-01) (95, 2.41362725872654448889e-02) (96, 1.12853160221846174349e-01) (97, 7.06023407175851575035e-02) (98, -2.81293675264729481356e-01) (99, 8.64646296874300057667e-01) (100, 7.16536294595018441456e-01) (101, 5.49927806214109082816e-01) (102, 3.00014895394159208930e-02) (103, -1.50898523589981986559e-01) (104, -1.84000372847928000963e-01) (105, 6.98789164333934231799e-01) (106, 8.20486348048463876026e-01) (107, 7.41665445194259698170e-01) (108, -1.84684465656228050112e-04) (109, -2.14640936245014540829e-01) (110, -2.96690016946209889070e-01) (111, 6.41738458871677464046e-01) (112, 7.94391151443735177295e-01) (113, 6.82283987954869886039e-01) (114, -9.72360143764113699083e-02) (115, -1.99870145310451857723e-01) (116, -1.26408494970215834474e-01) (117, 4.44696741831137387635e-01) (118, 6.67479352009131665646e-01) (119, 4.30171423733069935302e-01) (120, 1.58760329802305782954e-01) (121, -1.44525802125027108547e-01) (122, -2.91902244052304249422e-01) (123, 3.77669649851156807863e-01) (124, 3.02002148940818671008e-01) (125, 6.05462645785714292934e-02) (126, 3.86093390181375395454e-02) (127, -1.66805005063106942531e-01) (128, -2.32221938630951835192e-01) (129, -1.84886849952692507160e-03) (130, -2.19255262394902311618e-01) (131, -2.61130729099270930682e-01) (132, 1.53913872122808770282e-01) (133, -2.93843902608765583651e-01) (134, -2.41465447300594021618e-01) (135, -2.42268709827949874080e-01) (136, -3.03736371328589438434e-01) (137, -5.14599750793291565998e-01) (138, 1.37923005558283268135e-01) (139, -1.35460266673486401379e-01) (140, -1.87167303466718365490e-01) (141, -4.80689639786021971624e-01) (142, -5.22871027744127747638e-01) (143, 1.41084282540324207345e-01) (144, 1.47621217705042329094e-01) (145, -1.08485171401422220150e-01) (146, -1.39805507679989587944e-01) (147, 2.87110695475051636016e-01) (148, 2.36006812983462960220e-01) (149, 2.19081016117046029068e-01) (150, 1.39959830380709110420e-01) (151, 7.02336745262587824890e-02) (152, 5.47495070469688691062e-02) (153, 3.13955554598281616485e-01) (154, 2.60007487469623321807e-01) (155, 2.30605365568111092545e-01) (156, 1.24244603849680362861e-01) (157, 1.74083353757902459247e-01) (158, 4.39946647358249939841e-02) (159, 1.57920645409534182724e-01) (160, 2.42269294196078982528e-01) (161, 1.47314788633296694931e-01) (162, 1.05313133038313327949e-01) (163, 5.53233731162857331198e-02) (164, 5.31667802456133563316e-03) (165, 3.24731165402839416778e-01) (166, -4.80519468525188231389e-01) (167, 2.24155703419158552903e-01) (168, 1.61815691329271760246e-01) (169, 9.81245148551773138657e-02) (170, 3.55267334354233063620e-02) (171, 