FANN_FLO_2.1
num_layers=3
learning_rate=0.700000
connection_rate=1.000000
network_type=0
learning_momentum=0.000000
training_algorithm=2
train_error_function=1
train_stop_function=0
cascade_output_change_fraction=0.010000
quickprop_decay=-0.000100
quickprop_mu=1.750000
rprop_increase_factor=1.200000
rprop_decrease_factor=0.500000
rprop_delta_min=0.000000
rprop_delta_max=50.000000
rprop_delta_zero=0.100000
cascade_output_stagnation_epochs=12
cascade_candidate_change_fraction=0.010000
cascade_candidate_stagnation_epochs=12
cascade_max_out_epochs=150
cascade_max_cand_epochs=150
cascade_num_candidate_groups=2
bit_fail_limit=3.49999999999999977796e-01
cascade_candidate_limit=1.00000000000000000000e+03
cascade_weight_multiplier=4.00000000000000022204e-01
cascade_activation_functions_count=10
cascade_activation_functions=3 5 7 8 10 11 14 15 16 17 
cascade_activation_steepnesses_count=4
cascade_activation_steepnesses=2.50000000000000000000e-01 5.00000000000000000000e-01 7.50000000000000000000e-01 1.00000000000000000000e+00 
layer_sizes=301 21 5 
scale_included=0
neurons (num_inputs, activation_function, activation_steepness)=(0, 0, 0.00000000000000000000e+00) (0, 0, 0.00000000000000000000e+00) (0, 0, 0.00000000000000000000e+00) (0, 0, 0.00000000000000000000e+00) (0, 0, 0.00000000000000000000e+00) (0, 0, 0.00000000000000000000e+00) (0, 0, 0.00000000000000000000e+00) (0, 0, 0.00000000000000000000e+00) (0, 0, 0.00000000000000000000e+00) (0, 0, 0.00000000000000000000e+00) (0, 0, 0.00000000000000000000e+00) (0, 0, 0.00000000000000000000e+00) (0, 0, 0.00000000000000000000e+00) (0, 0, 0.00000000000000000000e+00) (0, 0, 0.00000000000000000000e+00) (0, 0, 0.00000000000000000000e+00) (0, 0, 0.00000000000000000000e+00) (0, 0, 0.00000000000000000000e+00) (0, 0, 0.00000000000000000000e+00) (0, 0, 0.00000000000000000000e+00) (0, 0, 0.00000000000000000000e+00) (0, 0, 0.00000000000000000000e+00) (0, 0, 0.00000000000000000000e+00) (0, 0, 0.00000000000000000000e+00) (0, 0, 0.00000000000000000000e+00) (0, 0, 0.00000000000000000000e+00) (0, 0, 0.00000000000000000000e+00) (0, 0, 0.00000000000000000000e+00) (0, 0, 0.00000000000000000000e+00) (0, 0, 0.00000000000000000000e+00) (0, 0, 0.00000000000000000000e+00) (0, 0, 0.00000000000000000000e+00) (0, 0, 0.00000000000000000000e+00) (0, 0, 0.00000000000000000000e+00) (0, 0, 0.00000000000000000000e+00) (0, 0, 0.00000000000000000000e+00) (0, 0, 0.00000000000000000000e+00) (0, 0, 0.00000000000000000000e+00) (0, 0, 0.00000000000000000000e+00) (0, 0, 0.00000000000000000000e+00) (0, 0, 0.00000000000000000000e+00) (0, 0, 0.00000000000000000000e+00) (0, 0, 0.00000000000000000000e+00) (0, 0, 0.00000000000000000000e+00) (0, 0, 0.00000000000000000000e+00) (0, 0, 0.00000000000000000000e+00) (0, 0, 0.00000000000000000000e+00) (0, 0, 0.00000000000000000000e+00) (0, 0, 0.00000000000000000000e+00) (0, 0, 0.00000000000000000000e+00) (0, 0, 0.00000000000000000000e+00) (0, 0, 0.00000000000000000000e+00) (0, 0, 0.00000000000000000000e+00) (0, 0, 0.00000000000000000000e+00) (0, 0, 0.00000000000000000000e+00) (0, 0, 0.00000000000000000000e+00) (0, 0, 0.00000000000000000000e+00) (0, 0, 0.00000000000000000000e+00) (0, 0, 0.00000000000000000000e+00) (0, 0, 0.00000000000000000000e+00) (0, 0, 0.00000000000000000000e+00) (0, 0, 0.00000000000000000000e+00) (0, 0, 0.00000000000000000000e+00) (0, 0, 0.00000000000000000000e+00) (0, 0, 0.00000000000000000000e+00) (0, 0, 0.00000000000000000000e+00) (0, 0, 0.00000000000000000000e+00) (0, 0, 0.00000000000000000000e+00) (0, 0, 0.00000000000000000000e+00) (0, 0, 0.00000000000000000000e+00) (0, 0, 0.00000000000000000000e+00) (0, 0, 0.00000000000000000000e+00) (0, 0, 0.00000000000000000000e+00) (0, 0, 0.00000000000000000000e+00) (0, 0, 0.00000000000000000000e+00) (0, 0, 0.00000000000000000000e+00) (0, 0, 0.00000000000000000000e+00) (0, 0, 0.00000000000000000000e+00) (0, 0, 0.00000000000000000000e+00) (0, 0, 0.00000000000000000000e+00) (0, 0, 0.00000000000000000000e+00) (0, 0, 0.00000000000000000000e+00) (0, 0, 0.00000000000000000000e+00) (0, 0, 0.00000000000000000000e+00) (0, 0, 0.00000000000000000000e+00) (0, 0, 0.00000000000000000000e+00) (0, 0, 0.00000000000000000000e+00) (0, 0, 0.00000000000000000000e+00) (0, 0, 0.00000000000000000000e+00) (0, 0, 0.00000000000000000000e+00) (0, 0, 0.00000000000000000000e+00) (0, 0, 0.00000000000000000000e+00) (0, 0, 0.00000000000000000000e+00) (0, 0, 0.00000000000000000000e+00) (0, 0, 0.00000000000000000000e+00) (0, 0, 0.00000000000000000000e+00) (0, 0, 0.00000000000000000000e+00) (0, 0, 0.00000000000000000000e+00) (0, 0, 0.00000000000000000000e+00) (0, 0, 0.00000000000000000000e+00) (0, 0, 0.00000000000000000000e+00) (0, 0, 0.00000000000000000000e+00) (0, 0, 0.00000000000000000000e+00) (0, 0, 0.00000000000000000000e+00) (0, 0, 0.00000000000000000000e+00) (0, 0, 0.00000000000000000000e+00) (0, 0, 0.00000000000000000000e+00) (0, 0, 0.00000000000000000000e+00) (0, 0, 0.00000000000000000000e+00) (0, 0, 0.00000000000000000000e+00) (0, 0, 0.00000000000000000000e+00) (0, 0, 0.00000000000000000000e+00) (0, 0, 0.00000000000000000000e+00) (0, 0, 0.00000000000000000000e+00) (0, 0, 0.00000000000000000000e+00) (0, 0, 0.00000000000000000000e+00) (0, 0, 0.00000000000000000000e+00) (0, 0, 0.00000000000000000000e+00) (0, 0, 0.00000000000000000000e+00) (0, 0, 0.00000000000000000000e+00) (0, 0, 0.00000000000000000000e+00) (0, 0, 0.00000000000000000000e+00) (0, 0, 0.00000000000000000000e+00) (0, 0, 0.00000000000000000000e+00) (0, 0, 0.00000000000000000000e+00) (0, 0, 0.00000000000000000000e+00) (0, 0, 0.00000000000000000000e+00) (0, 0, 0.00000000000000000000e+00) (0, 0, 0.00000000000000000000e+00) (0, 0, 0.00000000000000000000e+00) (0, 0, 0.00000000000000000000e+00) (0, 0, 0.00000000000000000000e+00) (0, 0, 0.00000000000000000000e+00) (0, 0, 0.00000000000000000000e+00) (0, 0, 0.00000000000000000000e+00) (0, 0, 0.00000000000000000000e+00) (0, 0, 0.00000000000000000000e+00) (0, 0, 0.00000000000000000000e+00) (0, 0, 0.00000000000000000000e+00) (0, 0, 0.00000000000000000000e+00) (0, 0, 0.00000000000000000000e+00) (0, 0, 0.00000000000000000000e+00) (0, 0, 0.00000000000000000000e+00) (0, 0, 0.00000000000000000000e+00) (0, 0, 0.00000000000000000000e+00) (0, 0, 0.00000000000000000000e+00) (0, 0, 0.00000000000000000000e+00) (0, 0, 0.00000000000000000000e+00) (0, 0, 0.00000000000000000000e+00) (0, 0, 0.00000000000000000000e+00) (0, 0, 0.00000000000000000000e+00) (0, 0, 0.00000000000000000000e+00) (0, 0, 0.00000000000000000000e+00) (0, 0, 0.00000000000000000000e+00) (0, 0, 0.00000000000000000000e+00) (0, 0, 0.00000000000000000000e+00) (0, 0, 0.00000000000000000000e+00) (0, 0, 0.00000000000000000000e+00) (0, 0, 0.00000000000000000000e+00) (0, 0, 0.00000000000000000000e+00) (0, 0, 0.00000000000000000000e+00) (0, 0, 0.00000000000000000000e+00) (0, 0, 0.00000000000000000000e+00) (0, 0, 0.00000000000000000000e+00) (0, 0, 0.00000000000000000000e+00) (0, 0, 0.00000000000000000000e+00) (0, 0, 0.00000000000000000000e+00) (0, 0, 0.00000000000000000000e+00) (0, 0, 0.00000000000000000000e+00) (0, 0, 0.00000000000000000000e+00) (0, 0, 0.00000000000000000000e+00) (0, 0, 0.00000000000000000000e+00) (0, 0, 0.00000000000000000000e+00) (0, 0, 0.00000000000000000000e+00) (0, 0, 0.00000000000000000000e+00) (0, 0, 0.00000000000000000000e+00) (0, 0, 0.00000000000000000000e+00) (0, 0, 0.00000000000000000000e+00) (0, 0, 0.00000000000000000000e+00) (0, 0, 0.00000000000000000000e+00) (0, 0, 0.00000000000000000000e+00) (0, 0, 0.00000000000000000000e+00) (0, 0, 0.00000000000000000000e+00) (0, 0, 0.00000000000000000000e+00) (0, 0, 0.00000000000000000000e+00) (0, 0, 0.00000000000000000000e+00) (0, 0, 0.00000000000000000000e+00) (0, 0, 0.00000000000000000000e+00) (0, 0, 0.00000000000000000000e+00) (0, 0, 0.00000000000000000000e+00) (0, 0, 0.00000000000000000000e+00) (0, 0, 0.00000000000000000000e+00) (0, 0, 0.00000000000000000000e+00) (0, 0, 0.00000000000000000000e+00) (0, 0, 0.00000000000000000000e+00) (0, 0, 0.00000000000000000000e+00) (0, 0, 0.00000000000000000000e+00) (0, 0, 0.00000000000000000000e+00) (0, 0, 0.00000000000000000000e+00) (0, 0, 0.00000000000000000000e+00) (0, 0, 0.00000000000000000000e+00) (0, 0, 0.00000000000000000000e+00) (0, 0, 0.00000000000000000000e+00) (0, 0, 0.00000000000000000000e+00) (0, 0, 0.00000000000000000000e+00) (0, 0, 0.00000000000000000000e+00) (0, 0, 0.00000000000000000000e+00) (0, 0, 0.00000000000000000000e+00) (0, 0, 0.00000000000000000000e+00) (0, 0, 0.00000000000000000000e+00) (0, 0, 0.00000000000000000000e+00) (0, 0, 0.00000000000000000000e+00) (0, 0, 0.00000000000000000000e+00) (0, 0, 0.00000000000000000000e+00) (0, 0, 0.00000000000000000000e+00) (0, 0, 0.00000000000000000000e+00) (0, 0, 0.00000000000000000000e+00) (0, 0, 0.00000000000000000000e+00) (0, 0, 0.00000000000000000000e+00) (0, 0, 0.00000000000000000000e+00) (0, 0, 0.00000000000000000000e+00) (0, 0, 0.00000000000000000000e+00) (0, 0, 0.00000000000000000000e+00) (0, 0, 0.00000000000000000000e+00) (0, 0, 0.00000000000000000000e+00) (0, 0, 0.00000000000000000000e+00) (0, 0, 0.00000000000000000000e+00) (0, 0, 0.00000000000000000000e+00) (0, 0, 0.00000000000000000000e+00) (0, 0, 0.00000000000000000000e+00) (0, 0, 0.00000000000000000000e+00) (0, 0, 0.00000000000000000000e+00) (0, 0, 0.00000000000000000000e+00) (0, 0, 0.00000000000000000000e+00) (0, 0, 0.00000000000000000000e+00) (0, 0, 0.00000000000000000000e+00) (0, 0, 0.00000000000000000000e+00) (0, 0, 0.00000000000000000000e+00) (0, 0, 0.00000000000000000000e+00) (0, 0, 0.00000000000000000000e+00) (0, 0, 0.00000000000000000000e+00) (0, 0, 0.00000000000000000000e+00) (0, 0, 0.00000000000000000000e+00) (0, 0, 0.00000000000000000000e+00) (0, 0, 0.00000000000000000000e+00) (0, 0, 0.00000000000000000000e+00) (0, 0, 0.00000000000000000000e+00) (0, 0, 0.00000000000000000000e+00) (0, 0, 0.00000000000000000000e+00) (0, 0, 0.00000000000000000000e+00) (0, 0, 0.00000000000000000000e+00) (0, 0, 0.00000000000000000000e+00) (0, 0, 0.00000000000000000000e+00) (0, 0, 0.00000000000000000000e+00) (0, 0, 0.00000000000000000000e+00) (0, 0, 0.00000000000000000000e+00) (0, 0, 0.00000000000000000000e+00) (0, 0, 0.00000000000000000000e+00) (0, 0, 0.00000000000000000000e+00) (0, 0, 0.00000000000000000000e+00) (0, 0, 0.00000000000000000000e+00) (0, 0, 0.00000000000000000000e+00) (0, 0, 0.00000000000000000000e+00) (0, 0, 0.00000000000000000000e+00) (0, 0, 0.00000000000000000000e+00) (0, 0, 0.00000000000000000000e+00) (0, 0, 0.00000000000000000000e+00) (0, 0, 0.00000000000000000000e+00) (0, 0, 0.00000000000000000000e+00) (0, 0, 0.00000000000000000000e+00) (0, 0, 0.00000000000000000000e+00) (0, 0, 0.00000000000000000000e+00) (0, 0, 0.00000000000000000000e+00) (0, 0, 0.00000000000000000000e+00) (0, 0, 0.00000000000000000000e+00) (0, 0, 0.00000000000000000000e+00) (0, 0, 0.00000000000000000000e+00) (0, 0, 0.00000000000000000000e+00) (0, 0, 0.00000000000000000000e+00) (0, 0, 0.00000000000000000000e+00) (0, 0, 0.00000000000000000000e+00) (0, 0, 0.00000000000000000000e+00) (0, 0, 0.00000000000000000000e+00) (0, 0, 0.00000000000000000000e+00) (0, 0, 0.00000000000000000000e+00) (0, 0, 0.00000000000000000000e+00) (0, 0, 0.00000000000000000000e+00) (0, 0, 0.00000000000000000000e+00) (0, 0, 0.00000000000000000000e+00) (0, 0, 0.00000000000000000000e+00) (0, 0, 0.00000000000000000000e+00) (0, 0, 0.00000000000000000000e+00) (0, 0, 0.00000000000000000000e+00) (0, 0, 0.00000000000000000000e+00) (0, 0, 0.00000000000000000000e+00) (0, 0, 0.00000000000000000000e+00) (0, 0, 0.00000000000000000000e+00) (0, 0, 0.00000000000000000000e+00) (0, 0, 0.00000000000000000000e+00) (0, 0, 0.00000000000000000000e+00) (0, 0, 0.00000000000000000000e+00) (301, 5, 5.00000000000000000000e-01) (301, 5, 5.00000000000000000000e-01) (301, 5, 5.00000000000000000000e-01) (301, 5, 5.00000000000000000000e-01) (301, 5, 5.00000000000000000000e-01) (301, 5, 5.00000000000000000000e-01) (301, 5, 5.00000000000000000000e-01) (301, 5, 5.00000000000000000000e-01) (301, 5, 5.00000000000000000000e-01) (301, 5, 5.00000000000000000000e-01) (301, 5, 5.00000000000000000000e-01) (301, 5, 5.00000000000000000000e-01) (301, 5, 5.00000000000000000000e-01) (301, 5, 5.00000000000000000000e-01) (301, 5, 5.00000000000000000000e-01) (301, 5, 5.00000000000000000000e-01) (301, 5, 5.00000000000000000000e-01) (301, 5, 5.00000000000000000000e-01) (301, 5, 5.00000000000000000000e-01) (301, 5, 5.00000000000000000000e-01) (0, 5, 0.00000000000000000000e+00) (21, 5, 5.00000000000000000000e-01) (21, 5, 5.00000000000000000000e-01) (21, 5, 5.00000000000000000000e-01) (21, 5, 5.00000000000000000000e-01) (0, 5, 0.00000000000000000000e+00) 
connections (connected_to_neuron, weight)=(0, 2.24728478251728091664e+02) (1, 2.24707518978747401661e+02) (2, 2.24770054205092463917e+02) (3, 4.84196976849797863451e+02) (4, 2.24641157774957690663e+02) (5, 4.84216816491914357812e+02) (6, 9.13410735435269138804e+00) (7, 4.37028972621322324699e+01) (8, 4.37678074131966283744e+01) (9, 7.97648999141371291444e+02) (10, 3.90764243947297060799e+01) (11, 4.84129461541307534844e+02) (12, 9.06006675891063473216e+00) (13, 9.13791261918328068248e+00) (14, 9.12845947898409804111e+00) (15, 7.97652976418922094126e+02) (16, 9.39252187492197236907e+01) (17, 4.84188883344866042080e+02) (18, 9.01665545650024569113e+00) (19, 2.16140425629927150908e+01) (20, 9.14503711766980131870e+00) (21, 1.50000000000000000000e+03) (22, 4.84296491920483674676e+02) (23, 1.17676717636312378090e+03) (24, 7.37889653540128587217e-01) (25, 2.18067464257567991126e+01) (26, 2.17371876823693384040e+01) (27, 1.50000000000000000000e+03) (28, 7.97689689564595369120e+02) (29, 1.17673286092977059525e+03) (30, 2.15749279034972568647e-01) (31, 4.83591952765703410932e+02) (32, 1.82484618031482952460e+01) (33, 8.01640647760689148527e+02) (34, 7.97679907071480897685e+02) (35, 7.97618055180691499118e+02) (36, 1.72126902550498805944e+00) (37, 4.82792798580127453079e+02) (38, 4.82924541962789987792e+02) (39, 1.18667329848271810988e+03) (40, 7.97724097746501115580e+02) (41, 8.01739022858405064653e+02) (42, 3.90460839625101741035e+01) (43, 1.50000000000000000000e+03) (44, 1.50000000000000000000e+03) (45, 8.01658059366011571001e+02) (46, 7.97660108754253428742e+02) (47, 8.00489464849984869943e+02) (48, 9.36193591337359549698e+01) (49, 1.50000000000000000000e+03) (50, 1.50000000000000000000e+03) (51, 4.85831814656468452540e+02) (52, 4.85505982085661287329e+02) (53, 4.85383951142029161474e+02) (54, 2.22266750287422127030e+02) (55, 1.34073341826291834877e+03) (56, 1.34092898926512270918e+03) (57, 1.17689690429554775619e+03) (58, 8.00452765616340343513e+02) (59, 8.00586729208690826454e+02) (60, 2.22328224582111630525e+02) (61, 7.62883836646518830094e+02) (62, 1.34091263723439669775e+03) (63, 1.50000000000000000000e+03) (64, 2.28488758888276123571e+02) (65, 8.01964081030203033151e+02) (66, 2.22343203452861104097e+02) (67, 4.78168609624706789418e+02) (68, 1.09367100665564180417e+03) (69, 1.50000000000000000000e+03) (70, 3.92024388396569136717e+01) (71, 1.46026843081854076445e+03) (72, 1.14364487489436169199e+03) (73, 4.78173041007767835708e+02) (74, 2.22647584079145332225e+02) (75, 1.50000000000000000000e+03) (76, 1.50000000000000000000e+03) (77, 1.50000000000000000000e+03) (78, 9.73193061868221462873e+01) (79, 7.16415654079145092226e+00) (80, 6.90477397946899884573e+00) (81, 1.50000000000000000000e+03) (82, 1.50000000000000000000e+03) (83, 1.50000000000000000000e+03) (84, 6.69917803634961160242e+02) (85, 2.01811749752641844680e+00) (86, 7.51983462264753987903e-01) (87, 1.50000000000000000000e+03) (88, 1.50000000000000000000e+03) (89, 1.50000000000000000000e+03) (90, 6.69803557397359440984e+02) (91, 3.22231405496924361298e-01) (92, 4.00046462404262115342e+00) (93, 1.50000000000000000000e+03) (94, 1.20333506522892776047e+03) (95, 1.50000000000000000000e+03) (96, 6.71781723738080586372e+02) (97, 2.52474110659731465489e-01) (98, 1.92708631773369742923e+00) (99, 1.50000000000000000000e+03) (100, 8.49367601749105688214e+02) (101, 1.50000000000000000000e+03) (102, 8.00094086925760848317e+02) (103, 7.57258411588602853293e-01) (104, 3.12152935512355877989e+00) (105, 1.50000000000000000000e+03) (106, 1.50000000000000000000e+03) (107, 1.50000000000000000000e+03) (108, 5.27527930813663985532e+01) (109, 4.24071719545086489589e-01) (110, 3.24512523941900532520e+00) (111, 1.50000000000000000000e+03) (112, 1.50000000000000000000e+03) (113, 1.50000000000000000000e+03) (114, 3.92765942938583449973e+01) (115, 2.87445177945023111477e+00) (116, 1.66591268592091457101e+00) (117, 1.50000000000000000000e+03) (118, 1.50000000000000000000e+03) (119, 1.50000000000000000000e+03) (120, 2.20275621401246226583e+01) (121, 3.02102013704929728277e+00) (122, 1.79774978218467151869e+00) (123, 1.50000000000000000000e+03) (124, 1.50000000000000000000e+03) (125, 1.50000000000000000000e+03) (126, 1.83121734597695251523e+00) (127, 4.81670214434287515815e+02) (128, 1.50000000000000000000e+03) (129, 8.72474516948762357060e+02) (130, 1.50000000000000000000e+03) (131, 1.50000000000000000000e+03) (132, 2.22179565483533210113e+01) (133, 1.15912283599825013880e+03) (134, 1.50000000000000000000e+03) (135, 1.50000000000000000000e+03) (136, 1.50000000000000000000e+03) (137, 1.50000000000000000000e+03) (138, 6.65572450493281394301e+02) (139, 1.50000000000000000000e+03) (140, 1.50000000000000000000e+03) (141, 1.24025971408109096927e+01) (142, 1.50000000000000000000e+03) (143, 1.50000000000000000000e+03) (144, 6.65620624446129113494e+02) (145, 1.16258491085382092933e+03) (146, 1.50000000000000000000e+03) (147, 1.13499299202704362344e+00) (148, 1.08192555504871734229e+03) (149, 1.03414528801856064888e+02) (150, 5.47413678817497597606e+01) (151, 5.14936799221668266568e+01) (152, 1.24284912240710625042e+02) (153, 4.60927505754205324440e-01) (154, 1.50000000000000000000e+03) (155, 1.46814309835007111360e+03) (156, 5.22217566374051056499e+00) (157, 4.55110431090821887512e-02) (158, 3.57593060525206118960e-01) (159, 5.80550703486970354206e-01) (160, 1.50000000000000000000e+03) (161, 2.37555868764905284252e+02) (162, 1.31685763869985539287e+00) (163, 9.67907993778009678731e-03) (164, 2.79096271021492425835e-01) (165, 5.29760165758112799850e-01) (166, 9.70743259325286544481e+02) (167, 4.01094454323181182076e+01) (168, 3.14779697664914294819e+02) (169, 5.17848480216642812479e+01) (170, 1.35215384810572459173e+03) (171, 8.57822386396642100337e-01) (172, 1.50000000000000000000e+03) (173, 1.50000000000000000000e+03) (174, 5.06879511595308542837e+02) (175, 4.13857721490361374350e+00) (176, 1.50000000000000000000e+03) (177, 5.00872187332860150377e+01) (178, 1.50000000000000000000e+03) (179, 1.50000000000000000000e+03) (180, 2.37125059561444714973e+02) (181, 4.50445227071434661781e+00) (182, 1.50000000000000000000e+03) (183, 1.50000000000000000000e+03) (184, 1.50000000000000000000e+03) (185, 1.50000000000000000000e+03) (186, 1.41674590609864701207e+01) (187, 1.22440243929135821332e+01) (188, 1.50000000000000000000e+03) (189, 5.38969447117239724321e+02) (190, 1.50000000000000000000e+03) (191, 1.50000000000000000000e+03) (192, 1.27093036677789783084e+02) (193, 2.86629973523083890541e+02) (194, 1.50000000000000000000e+03) (195, 1.50000000000000000000e+03) (196, 1.50000000000000000000e+03) (197, 1.50000000000000000000e+03) (198, 2.56559686619292051546e+02) (199, 1.20993193197311299514e+02) (200, 1.50000000000000000000e+03) (201, 1.50000000000000000000e+03) (202, 1.13643020257650300664e+03) (203, 1.50000000000000000000e+03) (204, 1.17688541509048536682e+03) (205, 2.86574607327345574959e+02) (206, 1.50000000000000000000e+03) (207, 1.50000000000000000000e+03) (208, 4.82782176506261350823e+02) (209, 1.50000000000000000000e+03) (210, 1.50000000000000000000e+03) (211, 1.47885299305908665701e+03) (212, 1.50000000000000000000e+03) (213, 1.50000000000000000000e+03) (214, 7.94551647395133159080e+02) (215, 1.50000000000000000000e+03) (216, 1.50000000000000000000e+03) (217, 1.50000000000000000000e+03) (218, 1.50000000000000000000e+03) (219, 1.50000000000000000000e+03) (220, 2.24073365086879761066e+02) (221, 1.50000000000000000000e+03) (222, 8.12372705344645964942e+02) (223, 1.50000000000000000000e+03) (224, 1.50000000000000000000e+03) (225, 1.50000000000000000000e+03) (226, 7.80805801049393721769e+02) (227, 1.50000000000000000000e+03) (228, 5.01194508509739364399e+02) (229, 1.50000000000000000000e+03) (230, 1.50000000000000000000e+03) (231, 1.50000000000000000000e+03) (232, 1.13672643778923884383e+03) (233, 1.50000000000000000000e+03) (234, 4.90791873834442924363e+02) (235, 1.50000000000000000000e+03) (236, 1.50000000000000000000e+03) (237, 1.50000000000000000000e+03) (238, 3.91874143699136325836e+01) (239, 7.97663917502597655584e+02) (240, 1.46323667773816305271e+03) (241, 1.50000000000000000000e+03) (242, 1.50000000000000000000e+03) (243, 1.17692956216587390372e+03) (244, 3.13419821558819000629e+00) (245, 4.85377293873544374492e+02) (246, 1.50000000000000000000e+03) (247, 1.50000000000000000000e+03) (248, 1.50000000000000000000e+03) (249, 1.50000000000000000000e+03) (250, 3.92088993816424320471e+01) (251, 4.85364285271580854442e+02) (252, 1.50000000000000000000e+03) (253, 1.50000000000000000000e+03) (254, 1.50000000000000000000e+03) (255, 1.50000000000000000000e+03) (256, 7.97711299175238650605e+02) (257, 1.46323293899324789891e+03) (258, 1.50000000000000000000e+03) (259, 1.50000000000000000000e+03) (260, 1.50000000000000000000e+03) (261, 4.85340350859631996627e+02) (262, 7.97657427290296595856e+02) (263, 1.47353024085169545287e+03) (264, 1.50000000000000000000e+03) (265, 1.50000000000000000000e+03) (266, 1.50000000000000000000e+03) (267, 9.42755406573407270798e+01) (268, 2.25507833808714252655e+02) (269, 1.14848907140415235517e+03) (270, 1.50000000000000000000e+03) (271, 1.14084947892576883532e+03) (272, 1.50000000000000000000e+03) (273, 4.85876214660441803517e+02) (274, 1.50000000000000000000e+03) (275, 1.50000000000000000000e+03) (276, 2.24750655396613154835e+02) (277, 1.79654417723287664899e+01) (278, 4.32680042309268557688e+01) (279, 4.84282136305702294976e+02) (280, 1.46337931717399078480e+03) (281, 1.50000000000000000000e+03) (282, 2.24664020991655860371e+02) (283, 3.90322391139298403573e+01) (284, 9.36353992479836705343e+01) (285, 4.84230937249494161279e+02) (286, 7.97549537280416529939e+02) (287, 1.50000000000000000000e+03) (288, 2.24632427132460151142e+02) (289, 9.37150466996228459493e+01) (290, 2.24705857208701644367e+02) (291, 4.84295903056395616204e+02) (292, 7.97696334028458636567e+02) (293, 1.17057866840558699550e+03) (294, 2.24813506169947658009e+02) (295, 2.24682104109558139271e+02) (296, 2.24749419568809543080e+02) (297, 2.24751708953413043446e+02) (298, 2.24692349447640452809e+02) (299, 4.84174225112411875216e+02) (300, -2.17785291380104894188e+02) (0, 1.50000000000000000000e+03) (1, 1.50000000000000000000e+03) (2, 1.50000000000000000000e+03) (3, 1.50000000000000000000e+03) (4, 1.50000000000000000000e+03) (5, 1.50000000000000000000e+03) (6, 1.50000000000000000000e+03) (7, 1.50000000000000000000e+03) (8, 1.50000000000000000000e+03) (9, 1.50000000000000000000e+03) (10, 1.50000000000000000000e+03) (11, 1.50000000000000000000e+03) (12, 1.50000000000000000000e+03) (13, 1.50000000000000000000e+03) (14, 1.50000000000000000000e+03) (15, 1.50000000000000000000e+03) (16, 1.50000000000000000000e+03) (17, 1.50000000000000000000e+03) (18, 1.50000000000000000000e+03) (19, 1.50000000000000000000e+03) (20, 1.50000000000000000000e+03) (21, 1.50000000000000000000e+03) (22, 1.50000000000000000000e+03) (23, 1.50000000000000000000e+03) (24, 1.50000000000000000000e+03) (25, 1.50000000000000000000e+03) (26, 1.50000000000000000000e+03) (27, 1.50000000000000000000e+03) (28, 1.50000000000000000000e+03) (29, 1.50000000000000000000e+03) (30, 1.50000000000000000000e+03) (31, 1.50000000000000000000e+03) (32, 1.50000000000000000000e+03) (33, 1.50000000000000000000e+03) (34, 1.50000000000000000000e+03) (35, 1.50000000000000000000e+03) (36, 1.50000000000000000000e+03) (37, 1.50000000000000000000e+03) (38, 1.50000000000000000000e+03) (39, 1.50000000000000000000e+03) (40, 1.50000000000000000000e+03) (41, 1.50000000000000000000e+03) (42, 1.50000000000000000000e+03) (43, 1.50000000000000000000e+03) (44, 1.50000000000000000000e+03) (45, 1.50000000000000000000e+03) (46, 1.50000000000000000000e+03) (47, 1.50000000000000000000e+03) (48, 1.50000000000000000000e+03) (49, 1.50000000000000000000e+03) (50, 1.50000000000000000000e+03) (51, 1.50000000000000000000e+03) (52, 1.50000000000000000000e+03) (53, 1.50000000000000000000e+03) (54, 1.50000000000000000000e+03) (55, 1.50000000000000000000e+03) (56, 1.50000000000000000000e+03) (57, 1.50000000000000000000e+03) (58, 1.50000000000000000000e+03) (59, 1.50000000000000000000e+03) (60, 1.50000000000000000000e+03) (61, 1.50000000000000000000e+03) (62, 1.50000000000000000000e+03) (63, 1.50000000000000000000e+03) (64, 1.50000000000000000000e+03) (65, 1.50000000000000000000e+03) (66, 1.50000000000000000000e+03) (67, 1.50000000000000000000e+03) (68, 1.50000000000000000000e+03) (69, 1.50000000000000000000e+03) (70, 1.50000000000000000000e+03) (71, 1.50000000000000000000e+03) (72, 1.50000000000000000000e+03) (73, 1.50000000000000000000e+03) (74, 1.50000000000000000000e+03) (75, 1.50000000000000000000e+03) (76, 1.50000000000000000000e+03) (77, 1.50000000000000000000e+03) (78, 1.50000000000000000000e+03) (79, 1.50000000000000000000e+03) (80, 1.50000000000000000000e+03) (81, 1.50000000000000000000e+03) (82, 1.50000000000000000000e+03) (83, 1.50000000000000000000e+03) (84, 1.50000000000000000000e+03) (85, 1.50000000000000000000e+03) (86, 1.50000000000000000000e+03) (87, 1.50000000000000000000e+03) (88, 1.50000000000000000000e+03) (89, 1.50000000000000000000e+03) (90, 1.50000000000000000000e+03) (91, 1.50000000000000000000e+03) (92, 1.50000000000000000000e+03) (93, 1.50000000000000000000e+03) (94, 1.50000000000000000000e+03) (95, 1.50000000000000000000e+03) (96, 1.50000000000000000000e+03) (97, 1.50000000000000000000e+03) (98, 1.50000000000000000000e+03) (99, 1.50000000000000000000e+03) (100, 1.50000000000000000000e+03) (101, 1.50000000000000000000e+03) (102, 1.50000000000000000000e+03) (103, 1.50000000000000000000e+03) (104, 1.50000000000000000000e+03) (105, 1.50000000000000000000e+03) (106, 1.50000000000000000000e+03) (107, 1.50000000000000000000e+03) (108, 1.50000000000000000000e+03) (109, 1.50000000000000000000e+03) (110, 1.50000000000000000000e+03) (111, 9.06807039694478703495e+02) (112, 1.50000000000000000000e+03) (113, 1.50000000000000000000e+03) (114, 1.50000000000000000000e+03) (115, 1.50000000000000000000e+03) (116, 1.50000000000000000000e+03) (117, 1.50000000000000000000e+03) (118, 1.50000000000000000000e+03) (119, 1.50000000000000000000e+03) (120, 1.50000000000000000000e+03) (121, 1.50000000000000000000e+03) (122, 1.50000000000000000000e+03) (123, 1.50000000000000000000e+03) (124, 1.50000000000000000000e+03) (125, 1.50000000000000000000e+03) (126, 1.50000000000000000000e+03) (127, 1.50000000000000000000e+03) (128, 1.50000000000000000000e+03) (129, 1.50000000000000000000e+03) (130, 1.50000000000000000000e+03) (131, 1.50000000000000000000e+03) (132, 1.50000000000000000000e+03) (133, 1.50000000000000000000e+03) (134, 1.50000000000000000000e+03) (135, 2.21123710378655118802e+02) (136, 1.50000000000000000000e+03) (137, 1.50000000000000000000e+03) (138, 1.50000000000000000000e+03) (139, 1.50000000000000000000e+03) (140, 1.50000000000000000000e+03) (141, 7.74474396269662747727e+02) (142, 1.50000000000000000000e+03) (143, 5.01071196906783825398e+02) (144, 1.50000000000000000000e+03) (145, 1.50000000000000000000e+03) (146, 1.50000000000000000000e+03) (147, 4.31641558503356350229e+02) (148, 1.15790872008125211323e+03) (149, 1.50000000000000000000e+03) (150, 5.15165241781007011923e+02) (151, 1.50000000000000000000e+03) (152, 8.50386821084727216657e+02) (153, 7.00989358877894687794e+02) (154, 1.98259230488182197405e+02) (155, 3.77647507843798777571e+01) (156, 6.83840958677040930525e+02) (157, 1.06070215827203787740e+03) (158, 4.54889015013124904385e+01) (159, 1.50000000000000000000e+03) (160, 1.50000000000000000000e+03) (161, 3.31484190875542196864e+02) (162, 6.83838674351381655470e+02) (163, 1.29858582171266220939e+03) (164, 2.67408222224551934687e+01) (165, 1.50000000000000000000e+03) (166, 1.50000000000000000000e+03) (167, 1.00275640863346211518e+03) (168, 5.90108122335522693902e+02) (169, 4.96342121681168691794e+02) (170, 2.47943536449653066711e+02) (171, 1.50000000000000000000e+03) (172, 1.50000000000000000000e+03) (173, 1.50000000000000000000e+03) (174, 1.04778766670215236445e+03) (175, 9.50652097072136598399e+02) (176, 4.83016303560179096621e+02) (177, 1.50000000000000000000e+03) (178, 1.50000000000000000000e+03) (179, 1.50000000000000000000e+03) (180, 1.50000000000000000000e+03) (181, 1.50000000000000000000e+03) (182, 1.41776268142854655707e+03) (183, 1.50000000000000000000e+03) (184, 1.50000000000000000000e+03) (185, 1.50000000000000000000e+03) (186, 1.50000000000000000000e+03) (187, 1.50000000000000000000e+03) (188, 1.50000000000000000000e+03) (189, 1.50000000000000000000e+03) (190, 1.50000000000000000000e+03) (191, 1.50000000000000000000e+03) (192, 1.50000000000000000000e+03) (193, 1.50000000000000000000e+03) (194, 9.35382310269748131759e+02) (195, 1.50000000000000000000e+03) (196, 1.50000000000000000000e+03) (197, 1.50000000000000000000e+03) (198, 1.50000000000000000000e+03) (199, 1.50000000000000000000e+03) (200, 1.40704441142957216471e+03) (201, 1.50000000000000000000e+03) (202, 1.50000000000000000000e+03) (203, 1.50000000000000000000e+03) (204, 1.50000000000000000000e+03) (205, 1.50000000000000000000e+03) (206, 1.50000000000000000000e+03) (207, 1.50000000000000000000e+03) (208, 1.50000000000000000000e+03) (209, 1.50000000000000000000e+03) (210, 1.50000000000000000000e+03) (211, 1.50000000000000000000e+03) (212, 1.50000000000000000000e+03) (213, 1.50000000000000000000e+03) (214, 1.50000000000000000000e+03) (215, 1.50000000000000000000e+03) (216, 1.50000000000000000000e+03) (217, 1.50000000000000000000e+03) (218, 1.50000000000000000000e+03) (219, 1.50000000000000000000e+03) (220, 1.50000000000000000000e+03) (221, 1.50000000000000000000e+03) (222, 1.50000000000000000000e+03) (223, 1.50000000000000000000e+03) (224, 1.50000000000000000000e+03) (225, 1.50000000000000000000e+03) (226, 1.50000000000000000000e+03) (227, 1.50000000000000000000e+03) (228, 1.50000000000000000000e+03) (229, 1.50000000000000000000e+03) (230, 1.50000000000000000000e+03) (231, 1.50000000000000000000e+03) (232, 1.50000000000000000000e+03) (233, 1.50000000000000000000e+03) (234, 1.50000000000000000000e+03) (235, 1.50000000000000000000e+03) (236, 1.50000000000000000000e+03) (237, 1.50000000000000000000e+03) (238, 1.50000000000000000000e+03) (239, 1.50000000000000000000e+03) (240, 1.50000000000000000000e+03) (241, 1.50000000000000000000e+03) (242, 1.50000000000000000000e+03) (243, 1.50000000000000000000e+03) (244, 1.50000000000000000000e+03) (245, 1.50000000000000000000e+03) (246, 1.50000000000000000000e+03) (247, 1.50000000000000000000e+03) (248, 1.50000000000000000000e+03) (249, 1.50000000000000000000e+03) (250, 1.50000000000000000000e+03) (251, 1.50000000000000000000e+03) (252, 1.50000000000000000000e+03) (253, 1.50000000000000000000e+03) (254, 1.50000000000000000000e+03) (255, 1.50000000000000000000e+03) (256, 1.50000000000000000000e+03) (257, 1.50000000000000000000e+03) (258, 1.50000000000000000000e+03) (259, 1.50000000000000000000e+03) (260, 1.50000000000000000000e+03) (261, 1.50000000000000000000e+03) (262, 1.50000000000000000000e+03) (263, 1.50000000000000000000e+03) (264, 1.50000000000000000000e+03) (265, 1.50000000000000000000e+03) (266, 1.50000000000000000000e+03) (267, 1.50000000000000000000e+03) (268, 1.50000000000000000000e+03) (269, 1.50000000000000000000e+03) (270, 1.50000000000000000000e+03) (271, 1.50000000000000000000e+03) (272, 1.50000000000000000000e+03) (273, 1.50000000000000000000e+03) (274, 1.50000000000000000000e+03) (275, 1.50000000000000000000e+03) (276, 1.50000000000000000000e+03) (277, 1.50000000000000000000e+03) (278, 1.50000000000000000000e+03) (279, 1.50000000000000000000e+03) (280, 1.50000000000000000000e+03) (281, 1.50000000000000000000e+03) (282, 1.50000000000000000000e+03) (283, 1.50000000000000000000e+03) (284, 1.50000000000000000000e+03) (285, 1.50000000000000000000e+03) (286, 1.50000000000000000000e+03) (287, 1.50000000000000000000e+03) (288, 1.50000000000000000000e+03) (289, 1.50000000000000000000e+03) (290, 1.50000000000000000000e+03) (291, 1.50000000000000000000e+03) (292, 1.50000000000000000000e+03) (293, 1.50000000000000000000e+03) (294, 1.50000000000000000000e+03) (295, 1.50000000000000000000e+03) (296, 1.50000000000000000000e+03) (297, 1.50000000000000000000e+03) (298, 1.50000000000000000000e+03) (299, 1.50000000000000000000e+03) (300, -1.50000000000000000000e+03) (0, 7.93429745652306284143e-01) (1, 7.59822158434021899254e-01) (2, 7.61555856384861895592e-01) (3, 8.52689506941812891405e-01) (4, 8.21981314612673874542e-01) (5, 8.02402602778502282987e-01) (6, 8.11973225399295728266e-01) (7, 8.40621542259494702876e-01) (8, 8.06406345292369763911e-01) (9, 5.57901297490427827697e-01) (10, 8.26339839897596073470e-01) (11, 7.12933122583853107201e-01) (12, 8.20973437353412549555e-01) (13, 7.56601993068496847528e-01) (14, 7.59114544912616873162e-01) (15, 5.12802078181091358644e-01) (16, 7.87733391416091777160e-01) (17, 5.04023096092834577142e-01) (18, 6.88754021468005905859e-01) (19, 7.00410628577947336204e-01) (20, 6.61958938351154047020e-01) (21, 3.72991302481982034411e-01) (22, 6.68662091184752505058e-01) (23, 5.97690943451169798273e-01) (24, 7.01709508318396957272e-01) (25, 7.66437925614410819897e-01) (26, 8.19366816634625738658e-01) (27, 4.26342727116438779955e-01) (28, 5.70755321675327165210e-01) (29, 4.86286137664417139614e-01) (30, 9.58940953185751121524e-01) (31, 8.07219272155420775050e-01) (32, 7.04752562243597724390e-01) (33, 4.17071998492877626941e-01) (34, 5.37671783789182011759e-01) (35, 3.81676320616016417908e-01) (36, 8.29771319494541303996e-01) (37, 8.93376995341531809913e-01) (38, 8.17997754118387598865e-01) (39, 3.37502621342454123265e-01) (40, 7.29040959713425862354e-01) (41, 3.70008738781770707416e-01) (42, 9.59872227537967082078e-01) (43, 9.14168228917655811827e-01) (44, 9.08672543585045344727e-01) (45, 4.01598791511355579509e-01) (46, 8.37678300693907806895e-01) (47, 6.03837287304024528112e-01) (48, 8.88785783657553229986e-01) (49, 1.04817893464275235793e+00) (50, 1.07055949361769875416e+00) (51, 6.43976716148302763543e-01) (52, 7.67909595247775911275e-01) (53, 6.18094093317350545824e-01) (54, 9.88488353059934210521e-01) (55, 1.10147979447310695456e+00) (56, 9.68078774611973780218e-01) (57, 5.37912962841190278596e-01) (58, 7.12716470808903101997e-01) (59, 6.57152707244351041993e-01) (60, 9.47449021105758681927e-01) (61, 1.33201797704048652271e+00) (62, 9.81363786601084808758e-01) (63, 7.88918429665778631055e-01) (64, 8.08621828783787743866e-01) (65, 8.31621445077478038677e-01) (66, 8.42145440959832791705e-01) (67, 1.30353531266398925403e+00) (68, 1.07256257369424834458e+00) (69, 8.99070202975531418410e-01) (70, 6.96990922494337028503e-01) (71, 7.24905823933599147146e-01) (72, 6.64870205641510336747e-01) (73, 9.82121523681105279557e-01) (74, 8.05157287718975767099e-01) (75, 7.85732168840909017682e-01) (76, 8.44914521372715277003e-01) (77, 6.20733488725471294067e-01) (78, 6.60016214454491989549e-01) (79, 1.03484119896109194592e+00) (80, 8.00412567249162210103e-01) (81, 7.80619113395426000857e-01) (82, 7.64092931412788112233e-01) (83, 7.84941457962505695356e-01) (84, 6.68006526736164008007e-01) (85, 8.16350758297790135565e-01) (86, 7.67499182690406622775e-01) (87, 7.02182606483147897514e-01) (88, 6.83778917719711554213e-01) (89, 6.48141948304889470300e-01) (90, 7.67359881299500945495e-01) (91, 7.06244581001013504995e-01) (92, 5.88374199298902555988e-01) (93, 7.92664652054224760924e-01) (94, 8.54205996178208248892e-01) (95, 7.13360334677594742914e-01) (96, 7.93177774744992736267e-01) (97, 7.78134678576851479548e-01) (98, 7.02868055440247996302e-01) (99, 7.30475662599928798890e-01) (100, 1.13279659725216585997e+00) (101, 9.04093252684060044722e-01) (102, 7.88019092780056107372e-01) (103, 1.25055521509987510598e+00) (104, 8.67100592583154750059e-01) (105, 7.92271628711675224288e-01) (106, 7.98875671893415129077e-01) (107, 8.76818730589984829393e-01) (108, 6.36518289903032497001e-01) (109, 1.22302150421664701518e+00) (110, 8.43927999197192635350e-01) (111, 7.10404086580795013361e-01) (112, 1.32781139855597196675e-01) (113, -8.95370651524660554621e-01) (114, 7.09880896079548850963e-01) (115, 1.57612093504905059760e+00) (116, 8.10737852668111047549e-01) (117, 8.07120515801486027030e-01) (118, -6.94767302824643495640e-01) (119, -7.87035920076886386099e-01) (120, 8.23323035367557132247e-01) (121, 8.46146374583366722710e-01) (122, 6.70114658661129847239e-01) (123, 7.54355497232467309132e-01) (124, 4.85999399812656607267e-01) (125, 4.74538074993364825116e-02) (126, 7.11246717385056292926e-01) (127, 8.88602835146797387367e-01) (128, 7.27153957255864846765e-01) (129, 8.07791066519978007143e-01) (130, 5.95910603729079446644e-01) (131, 6.26216474915024856607e-01) (132, 6.60679155808127194227e-01) (133, 9.06053661764678941459e-01) (134, 6.88443004331654950789e-01) (135, 4.58358508082402471562e-01) (136, -2.04575128602040967607e+00) (137, 6.51312046131543809224e-01) (138, 6.84095900800622436222e-01) (139, 7.76837217429335202823e-01) (140, 6.50523959422648068163e-01) (141, 7.67574065566319130305e-01) (142, -1.16508234619603467941e+00) (143, -3.08324889968115378736e+01) (144, 7.17882287781262840021e-01) (145, 6.66883496463621772143e-01) (146, 3.77105262352898873424e-01) (147, 8.19352597703889129477e-01) (148, 5.60189433932220204326e-01) (149, 5.30006200688555417777e-01) (150, 4.16860566600588899888e-01) (151, 6.66391884697335235010e-01) (152, 6.00667920516437581213e-01) (153, 8.06078524210598224009e-01) (154, 5.66140921167037625139e-01) (155, 8.79786470363407707707e-03) (156, 6.17120383850217613109e-01) (157, 6.29242761109905957007e-01) (158, 5.84060053742307405678e-01) (159, 9.50389440234624904846e-01) (160, 1.32795115414764941519e+00) (161, -8.67446266441771196565e-02) (162, 5.95540284678221509829e-01) (163, 7.91292074681612001008e-01) (164, 5.99253653042998046807e-01) (165, 7.94146137676157493068e-01) (166, 1.21113242047568481219e+00) (167, 1.42280951367119623541e+00) (168, 2.55169058113522917441e-01) (169, 7.80587549958723037058e-01) (170, 5.23624101426302779316e-01) (171, 8.04310771444820438170e-01) (172, 1.19199918533672155618e+00) (173, 8.87742666007444669596e-01) (174, 4.86898562466378193037e-01) (175, 8.02012213313420763150e-01) (176, 2.79215413726703332031e-01) (177, 6.41715309369618625013e-01) (178, 7.01548536873286776583e-01) (179, 6.75847371081793268921e-01) (180, 3.39561007376720902506e-01) (181, 7.07531164715890503736e-01) (182, 2.73051365851046667910e-01) (183, 8.12373098110621416623e-01) (184, 7.59910407090403250407e-01) (185, 6.49239776417722236346e-01) (186, 4.96095136206173736859e-01) (187, 7.70351021608360220227e-01) (188, 3.94651248116936304022e-01) (189, 6.30496048208487369635e-01) (190, 7.17861772215768079164e-01) (191, 5.66794521220066793710e-01) (192, 4.45832379560494485027e-01) (193, 6.22901690548931963320e-01) (194, 2.99393581948935727510e-01) (195, 7.33741750462383213183e-01) (196, 6.77732255942031125429e-01) (197, 6.36701404427719164225e-01) (198, 4.00589386369874844718e-01) (199, 6.97049176622324795360e-01) (200, 7.20094903131077601621e-01) (201, 7.86720133169334867596e-01) (202, 6.81487865320724583995e-01) (203, 6.73280837032834811318e-01) (204, 6.80325125074081715759e-01) (205, 7.70204330643382117927e-01) (206, 8.19267819540194563999e-01) (207, 7.60322625531595686077e-01) (208, 8.06958794168514126355e-01) (209, 6.01175806164966464173e-01) (210, 5.72478485023670269349e-01) (211, 6.24972543736942443005e-01) (212, 7.33422788260309710395e-01) (213, 6.55368173450606161801e-01) (214, 6.42696018078272479634e-01) (215, 6.29136960925832489089e-01) (216, 6.36940530020861706006e-01) (217, 7.40212469419487151256e-01) (218, 8.60305160481175335008e-01) (219, 8.62443759708662827101e-01) (220, 7.67941831857863133060e-01) (221, 7.21268009030385237601e-01) (222, 6.58136257728760498686e-01) (223, 6.33810569051655114947e-01) (224, 7.67588266970541166501e-01) (225, 7.01092173526932538330e-01) (226, 7.33080629326212984687e-01) (227, 5.15073044880161590164e-01) (228, 7.47587343191603248549e-01) (229, 7.49612712141287662604e-01) (230, 7.91054248508175850141e-01) (231, 6.92708501410627675021e-01) (232, 6.44908385651290827489e-01) (233, 3.68756744935400060381e-01) (234, 7.26392040766724256251e-01) (235, 7.67392311695964890461e-01) (236, 7.64732856509831249170e-01) (237, 4.20041912097712411001e-01) (238, 6.46301929408668929256e-01) (239, 4.70800983624258706506e-01) (240, 7.66729716710254027845e-01) (241, 6.54695708755405725299e-01) (242, 8.11667550426039996481e-01) (243, 3.04178403175132672231e-01) (244, 7.42862231052210386650e-01) (245, 5.09761389124211983237e-01) (246, 7.05268320194884834606e-01) (247, 7.10529102314406246776e-01) (248, 7.07396408081715222238e-01) (249, 3.74538855891006605692e-01) (250, 6.26085434659072070929e-01) (251, 3.97163481504540560874e-01) (252, 7.85936244603407496712e-01) (253, 7.18628133740213503877e-01) (254, 6.48601383925461405511e-01) (255, 3.12529204365655233211e-01) (256, 6.35116170790765544041e-01) (257, 4.76635422642780304248e-01) (258, 6.19934560855008531810e-01) (259, 6.91887605902753000109e-01) (260, 6.75508990092126504479e-01) (261, 2.88907560405984198404e-01) (262, 5.69675143731951383330e-01) (263, 3.82726144645460508720e-01) (264, 8.18967385218217880372e-01) (265, 8.02051705683042515105e-01) (266, 6.27492748168311242907e-01) (267, 3.83565460747735897939e-01) (268, 4.19498583514642697789e-01) (269, 2.93762933815640503443e-01) (270, 8.04013684063216271802e-01) (271, 6.60261610926245801068e-01) (272, 6.96648091710015515687e-01) (273, 3.37931094119869601666e-01) (274, 5.40558134151229552344e-01) (275, 4.16828047955735581098e-01) (276, 7.21933802880871722252e-01) (277, 7.91078029491532053186e-01) (278, 7.10543072142231890709e-01) (279, 5.13840751901899039922e-01) (280, 5.19134281802241637216e-01) (281, 4.43808040150299176752e-01) (282, 7.01557645865309664757e-01) (283, 8.41947303745848141254e-01) (284, 6.97301829524863192589e-01) (285, 4.53437491467894138175e-01) (286, 5.40591802741121174591e-01) (287, 4.95524388636061741131e-01) (288, 7.36520311154950091392e-01) (289, 7.09199206564528172869e-01) (290, 7.26194000162709185631e-01) (291, 6.80009798007795596142e-01) (292, 6.34054594267858151468e-01) (293, 4.71046041172254903451e-01) (294, 7.18725898907148219585e-01) (295, 6.55605694570172259361e-01) (296, 7.22787386097538897545e-01) (297, 7.53483812883767867241e-01) (298, 7.89675930728806374503e-01) (299, 6.81646029007631937269e-01) (300, -2.26825728992413017115e-01) (0, 1.50000000000000000000e+03) (1, 1.50000000000000000000e+03) (2, 1.50000000000000000000e+03) (3, 1.50000000000000000000e+03) (4, 1.50000000000000000000e+03) (5, 1.50000000000000000000e+03) (6, 1.50000000000000000000e+03) (7, 1.50000000000000000000e+03) (8, 1.50000000000000000000e+03) (9, 1.50000000000000000000e+03) (10, 1.17872742606605743276e+03) (11, 1.17871945673133586752e+03) (12, 1.16429919047024759493e+03) (13, 1.16441285363252973184e+03) (14, 1.16427764017548179254e+03) (15, 1.17872320993150924551e+03) (16, 1.17854454284067605840e+03) (17, 1.17854940085764383184e+03) (18, 1.16431510628503474436e+03) (19, 1.16429722231294726953e+03) (20, 1.16433647648658370599e+03) (21, 7.96100386278951191343e+02) (22, 1.17868617178405975210e+03) (23, 1.17349891758275907705e+03) (24, 3.17311543708554779641e+02) (25, 1.16440265909250592813e+03) (26, 1.16433161656971788034e+03) (27, 4.85238413733317372589e+02) (28, 4.85312049580799850901e+02) (29, 4.83395278806822204842e+02) (30, 5.89330654405590514955e+00) (31, 1.50000000000000000000e+03) (32, 1.50000000000000000000e+03) (33, 4.85219037764592883377e+02) (34, 7.96135137978432112504e+02) (35, 4.83376464190916919961e+02) (36, 5.51680349760209836063e+01) (37, 1.50000000000000000000e+03) (38, 1.50000000000000000000e+03) (39, 4.85264877074285266190e+02) (40, 2.25185276991317806505e+02) (41, 2.25274073161153609135e+02) (42, 4.83655360230885264627e+02) (43, 1.50000000000000000000e+03) (44, 1.50000000000000000000e+03) (45, 8.00542464300861297488e+02) (46, 2.25225025780467802861e+02) (47, 2.25249004639653975346e+02) (48, 7.94553430735203164659e+02) (49, 1.50000000000000000000e+03) (50, 1.50000000000000000000e+03) (51, 8.00645876653363643527e+02) (52, 2.25159136865256840565e+02) (53, 2.25249933727054411747e+02) (54, 1.14071182808328171632e+03) (55, 1.09305084657494444400e+03) (56, 1.50000000000000000000e+03) (57, 4.85541640602893096457e+02) (58, 4.85491674658751946936e+02) (59, 2.24904917085840992286e+02) (60, 1.14083307693946858308e+03) (61, 1.34096604271129035624e+03) (62, 1.34094453189356590883e+03) (63, 1.50000000000000000000e+03) (64, 2.28571321537278123515e+02) (65, 4.85469201304859382162e+02) (66, 1.14084057018954058549e+03) (67, 1.14091779689474674342e+03) (68, 1.34088833658231760637e+03) (69, 1.50000000000000000000e+03) (70, 1.17580404693245600356e+03) (71, 1.46513311253768733877e+03) (72, 1.14678140153787398958e+03) (73, 4.78605529467176609160e+02) (74, 4.78908760294640899247e+02) (75, 1.50000000000000000000e+03) (76, 1.50000000000000000000e+03) (77, 1.50000000000000000000e+03) (78, 1.05838644359658289318e+02) (79, 4.02879629374617493909e+01) (80, 3.94810862417289527571e+01) (81, 1.50000000000000000000e+03) (82, 1.50000000000000000000e+03) (83, 1.50000000000000000000e+03) (84, 1.05813489639557516853e+02) (85, 9.41602081440060878492e+00) (86, 2.29628908491202210485e+01) (87, 1.21547156940599552399e+03) (88, 1.50000000000000000000e+03) (89, 1.50000000000000000000e+03) (90, 1.25781785416741811900e+02) (91, 4.53599959014337805741e+00) (92, 1.01741970558319927420e+01) (93, 2.28663515733327955104e+02) (94, 4.91087985140890111779e+02) (95, 2.28510505410943579818e+02) (96, 3.03194934234483014279e+02) (97, 8.55706522421218140906e-01) (98, 2.21740860984267129652e+00) (99, 2.28567878692511868621e+02) (100, 4.12817742161399721113e+01) (101, 9.54329731076559966141e+01) (102, 7.99318745330634328639e+02) (103, 1.39310049797838164665e+00) (104, 7.47145756909306513194e+00) (105, 8.08838304345744631974e+02) (106, 8.08771851239043257920e+02) (107, 1.45997732557482413540e+03) (108, 1.25987233086755125555e+02) (109, 1.43419303751886073606e+00) (110, 7.42100238948805035477e+00) (111, 1.17355349772844829204e+03) (112, 1.20349048118887458259e+03) (113, 1.37369646841142321136e+03) (114, 9.40607667375096951901e+01) (115, 3.98949646002788611554e+01) (116, 3.95360534824498088824e+01) (117, 8.08684122864582832335e+02) (118, 8.08729191600236163140e+02) (119, 1.50000000000000000000e+03) (120, 5.27511307723778415379e+01) (121, 1.67876105097590198056e+01) (122, 3.92206301871838078910e+01) (123, 1.17361926227111734988e+03) (124, 1.16812146879480587813e+03) (125, 1.50000000000000000000e+03) (126, 2.21068859402549264814e+01) (127, 1.50000000000000000000e+03) (128, 1.50000000000000000000e+03) (129, 1.13433483396202028359e+01) (130, 4.05022154098877322781e+01) (131, 1.50000000000000000000e+03) (132, 5.26028390517078534572e+01) (133, 1.50000000000000000000e+03) (134, 1.50000000000000000000e+03) (135, 6.04556609749183948566e+01) (136, 8.11212808447192060157e+02) (137, 4.80116724068639939560e+02) (138, 2.99229358642289355430e+02) (139, 1.50000000000000000000e+03) (140, 1.50000000000000000000e+03) (141, 8.78284162474152418909e-01) (142, 8.17090388736494674049e+02) (143, 5.91550988207672162389e+02) (144, 6.62460944716881158456e+02) (145, 1.50000000000000000000e+03) (146, 1.50000000000000000000e+03) (147, 2.76468745542953808769e-01) (148, 7.31084025625368212786e+02) (149, 2.44111415106662832386e+02) (150, 3.11433908004223496846e+02) (151, 6.58348264141171739539e+02) (152, 6.60392956965222310828e+02) (153, 3.45182686666135218889e-01) (154, 6.11838636701424320563e+02) (155, 5.79932958278913801564e+01) (156, 5.63176089237328891812e+00) (157, 5.61428875057410348148e-01) (158, 2.94268584614560957391e-01) (159, 1.17312113343356561046e+00) (160, 3.47787229736810843406e+02) (161, 1.48217533248634136811e+01) (162, 5.56273898939486866055e+00) (163, 5.00890490368848584346e-01) (164, 8.29115771503527332342e-01) (165, 9.07110469864240487325e-01) (166, 1.42260423837753614862e+03) (167, 2.03115081681120955182e+02) (168, 5.60158543479816941613e+01) (169, 1.24002738760544744423e+02) (170, 4.79825958503285448842e+02) (171, 2.16401177833862812250e+00) (172, 1.50000000000000000000e+03) (173, 1.50000000000000000000e+03) (174, 9.91222184019336083338e+01) (175, 2.51473027855732794933e+02) (176, 1.09294769722421915503e+03) (177, 2.86749631311353596175e+02) (178, 1.50000000000000000000e+03) (179, 1.50000000000000000000e+03) (180, 9.89942359941253045008e+01) (181, 1.97479456307056722153e+01) (182, 7.83581358908698348387e+02) (183, 1.50000000000000000000e+03) (184, 1.50000000000000000000e+03) (185, 1.50000000000000000000e+03) (186, 9.46178643933726881698e+00) (187, 2.45875418139106542981e+01) (188, 1.09383480403350745291e+03) (189, 1.50000000000000000000e+03) (190, 1.50000000000000000000e+03) (191, 1.50000000000000000000e+03) (192, 1.04088651034656905381e+02) (193, 5.27591480119221614586e+02) (194, 1.50000000000000000000e+03) (195, 1.50000000000000000000e+03) (196, 1.50000000000000000000e+03) (197, 1.50000000000000000000e+03) (198, 1.06386801035330236687e+02) (199, 1.20718486632382720813e+02) (200, 1.50000000000000000000e+03) (201, 1.50000000000000000000e+03) (202, 1.50000000000000000000e+03) (203, 1.50000000000000000000e+03) (204, 1.17870214687312818569e+03) (205, 1.39396944503923941738e+03) (206, 1.50000000000000000000e+03) (207, 1.50000000000000000000e+03) (208, 1.50000000000000000000e+03) (209, 1.50000000000000000000e+03) (210, 1.50000000000000000000e+03) (211, 1.50000000000000000000e+03) (212, 1.50000000000000000000e+03) (213, 1.50000000000000000000e+03) (214, 1.50000000000000000000e+03) (215, 1.50000000000000000000e+03) (216, 1.17877613230819679302e+03) (217, 1.50000000000000000000e+03) (218, 1.50000000000000000000e+03) (219, 1.50000000000000000000e+03) (220, 1.50000000000000000000e+03) (221, 1.50000000000000000000e+03) (222, 4.90794962761714657518e+02) (223, 1.50000000000000000000e+03) (224, 1.50000000000000000000e+03) (225, 1.50000000000000000000e+03) (226, 1.50000000000000000000e+03) (227, 1.50000000000000000000e+03) (228, 2.32224940258525833769e+02) (229, 1.50000000000000000000e+03) (230, 1.50000000000000000000e+03) (231, 1.50000000000000000000e+03) (232, 1.50000000000000000000e+03) (233, 1.50000000000000000000e+03) (234, 2.32277847625931286757e+02) (235, 1.50000000000000000000e+03) (236, 1.50000000000000000000e+03) (237, 1.50000000000000000000e+03) (238, 4.84554729590696126706e+02) (239, 1.17146910238159989603e+03) (240, 1.14680005375522159738e+03) (241, 1.50000000000000000000e+03) (242, 1.50000000000000000000e+03) (243, 1.17127712779383887209e+03) (244, 4.07238835317616221232e+01) (245, 9.37979981801095874516e+01) (246, 1.50000000000000000000e+03) (247, 1.50000000000000000000e+03) (248, 1.50000000000000000000e+03) (249, 1.17123833159249056735e+03) (250, 2.25251077337751922869e+02) (251, 9.38609467423144252507e+01) (252, 1.50000000000000000000e+03) (253, 1.50000000000000000000e+03) (254, 1.50000000000000000000e+03) (255, 7.96125822624439024366e+02) (256, 1.17155411539120768794e+03) (257, 4.78056203399307321433e+02) (258, 1.50000000000000000000e+03) (259, 1.50000000000000000000e+03) (260, 1.50000000000000000000e+03) (261, 4.85231237728967187195e+02) (262, 4.83531536567165460383e+02) (263, 2.22448354729084343262e+02) (264, 1.50000000000000000000e+03) (265, 1.50000000000000000000e+03) (266, 1.50000000000000000000e+03) (267, 2.25052682829226483818e+02) (268, 2.25109407922814426684e+02) (269, 4.78187106516666005973e+02) (270, 1.50000000000000000000e+03) (271, 1.50000000000000000000e+03) (272, 1.50000000000000000000e+03) (273, 2.25152934999591792575e+02) (274, 1.14160944116753717026e+03) (275, 1.34170670304625082281e+03) (276, 1.50000000000000000000e+03) (277, 9.37184936286704328268e+02) (278, 9.37156190844075467794e+02) (279, 1.50000000000000000000e+03) (280, 1.50000000000000000000e+03) (281, 1.50000000000000000000e+03) (282, 1.50000000000000000000e+03) (283, 1.17856785197462295400e+03) (284, 1.17868769352044319021e+03) (285, 1.50000000000000000000e+03) (286, 1.50000000000000000000e+03) (287, 1.50000000000000000000e+03) (288, 1.50000000000000000000e+03) (289, 1.17867010871972297537e+03) (290, 1.17873703917767261373e+03) (291, 1.50000000000000000000e+03) (292, 1.50000000000000000000e+03) (293, 1.50000000000000000000e+03) (294, 1.50000000000000000000e+03) (295, 1.50000000000000000000e+03) (296, 1.50000000000000000000e+03) (297, 1.50000000000000000000e+03) (298, 1.50000000000000000000e+03) (299, 1.50000000000000000000e+03) (300, -1.41803652970473012829e+03) (0, 4.63642434301222011728e-02) (1, 7.38773972811541251859e-02) (2, 5.21141544999921685344e-02) (3, 1.12880920393832670512e-01) (4, 3.60163015858019214255e-02) (5, 1.34660353497349748186e-02) (6, 2.56863656043091248549e-01) (7, 1.54157976209201602602e-01) (8, 3.02862251698055806592e-01) (9, 8.97368411660821874154e-02) (10, -1.88370909283861430461e-02) (11, -1.12226721703376601524e-02) (12, 3.02997475743172706153e-01) (13, 2.02773328162285382259e-01) (14, 3.31815405971858323753e-01) (15, 6.76369886041315176994e-02) (16, 1.22812168205216010186e-01) (17, -9.78923518799150980951e-03) (18, 3.15977594137070827429e-01) (19, 2.42886192472518663843e-01) (20, 1.84523369492830019434e-01) (21, 8.37171740453513391067e-02) (22, 2.74946834088001489105e-02) (23, 3.57210441744843579248e-02) (24, 2.31301413977829495305e-01) (25, 3.26984531897051011740e-01) (26, 2.63610048032085930725e-01) (27, 1.08069637877038646212e-01) (28, 1.02412400368391123817e-01) (29, 8.65054634033005781513e-02) (30, 3.08777410490324533132e-01) (31, 1.55633634721201674633e-01) (32, 1.66204974340742911432e-01) (33, 8.08293554299509275918e-02) (34, 1.00615484324970499985e-01) (35, 3.57339085920367269256e-02) (36, 4.15111375339177968158e-01) (37, 2.41154270898437356196e-01) (38, 2.76968538473495951013e-01) (39, 8.07168069594537962441e-02) (40, -4.68125517983770389474e-02) (41, 8.46740640321406168312e-02) (42, 4.22423602451362179000e-01) (43, 3.28275056796939523895e-01) (44, 3.65431694524701256022e-01) (45, 1.35443299055740651315e-01) (46, 2.06495050768518498274e-02) (47, 1.43270030042524199043e-01) (48, 2.63008572671170171020e-01) (49, 2.09412627228584391492e-01) (50, 2.48451400854673487562e-01) (51, 3.79129773050148333180e-02) (52, 1.27257779807612381173e-01) (53, 1.30697706404685753956e-01) (54, 3.27723146169936696559e-01) (55, 1.99664951084101455203e-01) (56, 3.14523531165396330600e-01) (57, 1.02304211666742229936e-02) (58, 1.31710451160580055419e-01) (59, 3.08774313554407292548e-02) (60, 1.47548930192589605737e-01) (61, 2.07349265236616897568e-01) (62, 2.27851114572432206229e-01) (63, -3.42180824042799536233e-02) (64, 2.43245865487820817075e-01) (65, -8.74100387785263222007e-02) (66, 2.36556300898727089876e-01) (67, 2.39317156720088991539e-01) (68, 2.31087267675632701547e-01) (69, -4.77453373727479563060e-02) (70, 1.04383862743807065421e-01) (71, -7.20125023520331308813e-02) (72, 1.70707150256100614882e-01) (73, -2.61386144648740048613e-01) (74, -2.95029771267471263574e-01) (75, 7.97919546002547608321e-02) (76, 9.54496718100378144234e-02) (77, -2.95510234472749697132e-02) (78, -2.25780589472576842525e+00) (79, -2.77084646616473917469e-01) (80, -1.12574785777103292261e+00) (81, -4.02634516114912383022e-02) (82, 1.12060672465010502385e-01) (83, -1.31925500171794662929e-01) (84, -2.34468109431109272833e+00) (85, -5.06415927795193354655e+00) (86, -5.23371411342427617086e+00) (87, 8.91801169461627907253e-02) (88, 3.23229592318615838176e-02) (89, -5.48219018996472962080e-01) (90, -2.34848922564474760222e+00) (91, -5.25071739425459682593e+00) (92, -6.10508168410534057813e+00) (93, 1.75540220567403537633e-01) (94, 1.51665654572348013174e-01) (95, 3.89230688484277012607e-02) (96, -2.31991008852228164372e+00) (97, -2.06314920390127198857e+00) (98, -2.47459085030643954894e+00) (99, 1.67170145206474218824e-01) (100, -5.32629074197636595556e-02) (101, -3.58092144444770860146e-02) (102, -1.85107478907242051225e-01) (103, 1.30673009559287789383e-01) (104, 1.28858835658531428736e-01) (105, 2.29483046696506376438e-01) (106, 3.16118951463519592959e-01) (107, 2.02614342156788751481e-01) (108, 1.71420569291769686604e-01) (109, 2.73751710666971792563e-01) (110, 2.31489299787915603357e-01) (111, 2.60345606143277563671e-01) (112, 1.15739261781795277351e+00) (113, 5.76825602334954723460e-01) (114, 2.28033368291464116906e-01) (115, 3.29450429200540129138e-01) (116, 2.03585987366371706786e-01) (117, 2.61675062005519099007e-01) (118, -1.78031199620426627828e-01) (119, -9.52545350560253245575e-01) (120, 2.59540640111989240335e-01) (121, 4.06422188660566507945e-01) (122, 2.14218750988096479082e-01) (123, 3.16331835837645736209e-01) (124, -9.74337684287262972838e-01) (125, -9.63689106312201615445e-01) (126, 1.51289983986935300253e-01) (127, 4.44211869953089089069e-01) (128, 2.13808956239484648787e-01) (129, 1.18553681824062173700e-01) (130, -1.22963543380863571386e-01) (131, -9.48980197508694445219e-01) (132, 1.59845337565964612514e-01) (133, 3.06641221755549808758e-01) (134, 3.18945682590042078886e-01) (135, -3.43862763543306415581e-01) (136, 2.52898663332454276542e+00) (137, -8.15087397911449101917e-02) (138, 1.92218285671604066644e-01) (139, 2.81323446314265590562e-01) (140, 3.87045812597281158052e-01) (141, -1.10697104353199987647e-02) (142, -1.13160675483723038859e+00) (143, 6.21486508656828195996e-01) (144, 6.27827659434663232219e-02) (145, 3.60716516116855179241e-01) (146, 1.37123978619621555985e-01) (147, 2.42230105591740296767e-01) (148, 5.43060091839484448961e-01) (149, 1.58003983336257036729e-01) (150, 1.16784666752669907819e-01) (151, 1.45577347161942066700e-01) (152, -4.96214569611761538437e-02) (153, 7.42203885940533436560e-01) (154, 2.35332030325370178403e+00) (155, -5.28341625900624278778e-01) (156, 1.13106699174843408628e-01) (157, 3.15146512525139976812e-01) (158, 1.80296245740264676760e-01) (159, 4.98903630973122125258e-01) (160, 2.89741214830594273622e+00) (161, -1.31666980691846347007e+00) (162, 4.20072566381685871817e-02) (163, 3.34592271339849089973e-01) (164, 4.35164245011812333974e-02) (165, 2.93657591832157449652e-01) (166, 1.62595614702555213427e+00) (167, 1.49806024272844662271e+00) (168, -1.21489736926468111511e-01) (169, 1.49816090473136181993e-01) (170, -3.17611662037341979659e-01) (171, 3.23479434863921444521e-01) (172, 1.07539079257733494188e+00) (173, 1.42550326008712313630e+00) (174, -2.34189714980037544390e-01) (175, 2.95395423650218647005e-01) (176, -6.81132590539472393409e-01) (177, 1.81415462930249293816e-01) (178, 9.02934670360535512890e-02) (179, 1.55298213001720253335e-01) (180, -2.16891395939195236187e-01) (181, 1.16578406453710370361e-01) (182, -6.49159487031367773285e-03) (183, 9.25391343956338255014e-04) (184, 6.74660866446586821032e-02) (185, 4.79125671365333502538e-02) (186, -5.40395023785233519220e-01) (187, -1.87188268621509057432e-01) (188, -5.37487820363113821820e-01) (189, 3.36328419598104638721e-02) (190, 4.20494567073419825420e-02) (191, -1.57112822683677724744e-02) (192, -1.35239482039786862444e-01) (193, -3.99126247738150405353e-02) (194, -6.23440303480694124616e-01) (195, 1.08378136855284148976e-01) (196, 6.63750880687039718220e-03) (197, -7.01992377392040428630e-02) (198, 7.37714443184724205649e-02) (199, 2.42621118659290702091e-01) (200, -3.47078934079249543099e-02) (201, 1.34507920143469794638e-01) (202, 2.72187620017439735332e-01) (203, 6.71411850451645170201e-02) (204, 6.23362832272094692654e-03) (205, 2.52761211774207905645e-01) (206, -6.21064764241867281469e-02) (207, 1.26229056322079119523e-01) (208, 1.11770714186130104562e-01) (209, 9.99362642640903714453e-02) (210, 8.04135584185914908950e-02) (211, 3.01056883001322328486e-01) (212, 6.97500445307166899722e-02) (213, 6.19895425727058010934e-02) (214, -2.37759444853637147421e-02) (215, 5.99758060699988587022e-04) (216, 1.49067606887103801944e-02) (217, 2.22138497448057553596e-01) (218, 2.41912403132459541411e-01) (219, 1.29034943749538000279e-01) (220, -3.51413565200966934721e-02) (221, -1.25289822464061534335e-01) (222, 3.70770257842011272120e-02) (223, 1.50911800535664608613e-01) (224, 3.10174016006968700232e-01) (225, 4.40145968757542499494e-02) (226, -4.30743885690748964934e-02) (227, -2.92140963326004532430e-01) (228, -2.02852683822136101166e-02) (229, 2.13414659054754235479e-01) (230, 9.81483878171856699568e-02) (231, 8.84337204448683439351e-02) (232, -1.56407112185184715702e-01) (233, -3.36054564777385045282e-01) (234, -4.97220506263481003967e-03) (235, 2.11081330713472459237e-01) (236, 2.22113890170177880057e-01) (237, 2.67823846048174524226e-02) (238, -2.48264434616503326669e-02) (239, -3.21843677414060183595e-02) (240, -1.81535198626941417233e-02) (241, 2.96035008746098060595e-01) (242, 1.42227441602953474931e-01) (243, 1.39855778235866173853e-01) (244, 1.99808665178603794832e-02) (245, -4.45349664418035612323e-03) (246, 2.74406507500016411116e-02) (247, 2.63264285377041828973e-01) (248, 1.31981899002284852607e-01) (249, 1.26638910192920284281e-01) (250, 8.31908835515628025670e-02) (251, 5.14019491663685393346e-02) (252, 1.56231845261124130397e-01) (253, 2.68175938826963666806e-01) (254, 4.57668826834596101372e-02) (255, 1.41943953379886717014e-01) (256, 5.73743543143293982522e-02) (257, 6.32687263562256990701e-02) (258, 1.51238907449789156123e-01) (259, 1.67152860862180618895e-01) (260, 8.48593070489434275760e-02) (261, -2.66007074279265816677e-03) (262, 1.03648417068253305418e-02) (263, 2.25076128760738417012e-02) (264, 9.65539174332868538331e-02) (265, 1.24916599012564369375e-01) (266, 5.48782476130381564883e-03) (267, 3.42081897729853284806e-02) (268, 1.10448665851580155040e-01) (269, 1.48276618060896980822e-01) (270, 5.45502715402878257667e-02) (271, 2.12874298519541066410e-01) (272, 1.95168032431877802590e-01) (273, 8.71464912393620921849e-02) (274, 9.68882800244622449659e-02) (275, 1.80874022757415237050e-01) (276, 1.17866698623493706966e-01) (277, 2.55608347196159602088e-01) (278, 2.25834310240230262679e-01) (279, 8.15626948162257725539e-02) (280, 1.03562084822829580943e-01) (281, 1.62386854739306855933e-02) (282, 1.71223870345715567520e-01) (283, 1.99647878248271654078e-01) (284, 3.11064896125374135138e-01) (285, 1.01796823505443348457e-01) (286, 4.41185847905904426902e-02) (287, 5.81374784518360401830e-02) (288, 4.69783422020694037182e-04) (289, 1.74775150207317070405e-02) (290, 1.11367723771694696056e-01) (291, -1.45280086235592062471e-02) (292, 3.95938087287773798906e-02) (293, 1.26277725957661207667e-01) (294, 6.29102911461229454687e-03) (295, 1.62925435741095386843e-01) (296, 1.57304561539320764130e-01) (297, 1.11853306515582548442e-01) (298, 3.99762864817018812730e-03) (299, 6.10129585102877902703e-02) (300, 4.52244926291887672232e-01) (0, 6.73194806447895664758e-03) (1, 9.23155678378666799677e-02) (2, 8.59441591369236868037e-02) (3, 1.12210925594929858407e-01) (4, -2.10838305288403755899e-02) (5, 6.30804677157573850943e-02) (6, 3.51304378613213966198e-02) (7, -8.34776310576783170392e-02) (8, -3.31591559614848388482e-02) (9, -5.78877405153145688232e-02) (10, -6.67435594737963155954e-02) (11, -1.89866635841207144486e-02) (12, -4.13049946217209751342e-01) (13, -2.25680604119170763466e-01) (14, -3.48577165843047764859e-01) (15, 6.01516737712989371656e-02) (16, -6.87524173547263139916e-02) (17, 4.33357338487650525782e-02) (18, -2.67606737268910988004e-01) (19, -3.43837691684862889474e-01) (20, -3.56498607041667636697e-01) (21, 1.53727700036903169867e-01) (22, 2.64449110272016833789e-02) (23, -1.34883081362586147028e-02) (24, -2.61796414375013331011e-01) (25, -3.26333196445262985197e-01) (26, -2.39802123590267785014e-01) (27, 6.34435189207287142388e-01) (28, 3.56916962557250125321e-02) (29, 5.54464501350512284361e-01) (30, -3.02443228475450298642e-01) (31, -4.20220725071349443525e-01) (32, -3.81668056454614768036e-01) (33, 7.91606784600545787534e-01) (34, -5.72373063620126992790e-02) (35, 6.44120707859263563755e-01) (36, -2.93471572981288841842e-01) (37, -2.78992486077446422144e-01) (38, -2.78714227906195655127e-01) (39, 8.09831503302480659734e-01) (40, 9.47783448596210692516e-02) (41, 5.68010542562608189421e-01) (42, -3.37980415957218172096e-01) (43, -2.26722399459688667145e-01) (44, -3.36782243478916110124e-01) (45, 1.38289223150211582070e-01) (46, 4.33648520963879902101e-02) (47, 8.30006987100960491599e-02) (48, -3.21382134815457243260e-01) (49, -4.17988154178926596405e-01) (50, -2.26355851653698647574e-01) (51, 8.13527333085026088666e-02) (52, -2.45361341650910877443e-02) (53, 2.73984336261536738644e-02) (54, -2.55037594465126360443e-01) (55, -5.69818989256381636110e-01) (56, -3.88629328293460252208e-01) (57, 7.65478879500186282225e-02) (58, 9.85230731715917573688e-02) (59, 4.78984381539219669643e-02) (60, -4.16315089216249933912e-01) (61, -4.43521564032944570766e-01) (62, -4.70722189822660064262e-01) (63, 5.10890626562605248452e-04) (64, 6.97726571557401170631e-02) (65, 9.11860181375529071923e-02) (66, 9.79889817491714498754e-02) (67, -8.76020548681920141476e-01) (68, -6.12636709560523476381e-02) (69, 7.00027578737494743377e-02) (70, -5.34372516359184462215e-03) (71, 2.59924759811925188552e-03) (72, 9.84182100150670369221e-02) (73, -4.63055389046925780505e-01) (74, -1.11509691584466164027e-01) (75, -1.93161626913186355858e-02) (76, 3.29128735392964083539e-02) (77, 1.19640764878843786079e-01) (78, 3.69287566924659388379e-02) (79, -6.01104052139917813258e-02) (80, -1.20417026736106463902e-01) (81, 3.73511892359901093164e-02) (82, -2.29098078320728065771e-01) (83, 4.39163428996073371136e-02) (84, 8.70576203410379501069e-02) (85, -1.63725665116387808506e-01) (86, -4.07412029490441043866e-02) (87, -1.81615073313536573574e-01) (88, -3.61316287144794079378e-01) (89, -2.41021552913111919425e-01) (90, -2.39482946633554679566e-03) (91, -2.64508547349886713462e-01) (92, -1.17528872277179660677e-01) (93, -3.22543614717284099491e-01) (94, -2.40561361356124742139e-01) (95, -2.37325932550500384721e-01) (96, 8.68240091548038023239e-02) (97, -5.64569339079122434200e-01) (98, -1.07455307048680573367e-01) (99, -2.11542674475821590452e-01) (100, -2.78013724833287512173e-01) (101, -8.21892635727388271016e-02) (102, 5.98285684724418065361e-02) (103, 2.00273496197558228960e-02) (104, 1.77181160609911313164e-02) (105, -2.74802893009208182296e-01) (106, -2.50214592810249436550e-01) (107, -1.41378152913623177100e-02) (108, 1.11577164236208670189e-01) (109, 4.29657818383330711298e-02) (110, -4.34343362762366555496e-02) (111, -1.80538549864790204280e-01) (112, -2.60682733641000252689e-01) (113, 2.83668152407731410936e-01) (114, 8.78915221724576589679e-02) (115, -3.89979767316972258939e-01) (116, -3.93402201608737747685e-02) (117, -2.15240964201347501072e-01) (118, -2.45696561567767618461e-01) (119, -1.31739983195828691542e-01) (120, -2.29446224451940287981e-02) (121, -3.35207256673258346957e-01) (122, 2.88515842813542137957e-02) (123, -2.54576838913801672959e-01) (124, -2.55586342069151262191e-01) (125, 1.86735771346865947473e-01) (126, 6.52563720427399296398e-02) (127, -3.33035624313226974458e-01) (128, -4.67206329771827771902e-03) (129, -1.58456831912448359301e-01) (130, -2.34559210282056312957e-01) (131, 1.84350085509441159737e-02) (132, 1.44774566886719635583e-01) (133, -2.59546158568772833419e-01) (134, 5.43124592777724166104e-02) (135, -2.61597849431923323849e-01) (136, -2.39568671306535169174e-01) (137, 1.67355503105019653987e+00) (138, 1.84065102097976662776e-01) (139, 6.00876236853531489612e-02) (140, 8.20449535894916814893e-02) (141, 6.97554855829828762692e-02) (142, -6.06892269237421344563e-01) (143, 9.11343464322846075198e-01) (144, 1.26303077386012513328e-01) (145, 4.21355087489423546510e-02) (146, 1.73531657441141656806e-01) (147, -1.00072918080462078261e-02) (148, -1.21941498137468595786e+00) (149, 5.84805589588404450829e-01) (150, 1.26601891720747233849e-01) (151, -3.90127751088371776955e-01) (152, 6.27199038752382920237e-02) (153, -1.67641161343454331289e-01) (154, -1.32423004394995658117e+00) (155, 4.08042482670121720023e-01) (156, 1.21135843532515191656e-01) (157, -2.20170923625610387431e-01) (158, 5.40069061262956409686e-02) (159, 5.42045712962103271026e-02) (160, -3.35563201452088066823e-01) (161, 4.49030525356389820235e-01) (162, -6.76482468737284736715e-02) (163, -3.65360234003744621667e-01) (164, 1.10008602182423684268e-01) (165, 3.77731337693216540075e-01) (166, -1.34058205041437984717e-02) (167, 5.52500794421839303006e-01) (168, 6.80376243480118186868e-02) (169, -7.75226629942845080201e-02) (170, 2.35619355957001008761e-01) (171, 5.06642883873379482051e-02) (172, 1.16066739456359549476e-01) (173, 5.96201369300554340214e-01) (174, 5.86275666012853469145e-02) (175, -3.39735373522579986449e-01) (176, 7.54922839464648443020e-02) (177, 6.41329762043769818769e-02) (178, -1.82960445067150895282e-01) (179, 2.92688681581901699591e-01) (180, 1.46949932623264140075e-01) (181, -2.45660228803110586293e-01) (182, 8.93691631725388457852e-02) (183, -1.43571604478610392874e-01) (184, -1.44771795077601947432e-02) (185, -1.61041742592467035378e-01) (186, 4.39153670325368866711e-02) (187, 5.99348047546999287971e-02) (188, -1.34734031123273523961e-02) (189, -1.95585480032110028970e-02) (190, -5.31314256193031464459e-02) (191, -1.17008704754703360407e-01) (192, 1.18444788203212428290e-01) (193, 4.61849351730482873823e-02) (194, 1.49574762151084228456e-01) (195, -3.68303243306826802450e-03) (196, -6.85168207895655613504e-03) (197, -5.22161999481476624130e-02) (198, 1.20684297884084620889e-01) (199, -8.38554018087078918697e-03) (200, 1.85641142068821464461e-02) (201, 8.50629328579273480404e-02) (202, -1.61568275282619466804e-01) (203, -3.22969004143570104226e-02) (204, 8.80542628453830633628e-02) (205, -2.79188764930272947939e-02) (206, 8.98047374845246243469e-02) (207, -6.08172138560770791926e-02) (208, -1.07071650150375827226e-01) (209, 6.78904240248318219253e-02) (210, 5.34929566796810349039e-02) (211, -4.00558618928950560534e-01) (212, 6.82404478159935878878e-02) (213, -3.66443663747842915401e-02) (214, -1.26774849110352971771e-01) (215, 3.82001882412189505689e-02) (216, -7.02662918922749776818e-03) (217, -3.38846849637931268884e-01) (218, 8.89082573469932024857e-03) (219, -7.78091657011354461554e-03) (220, -9.30636994202813788712e-03) (221, -1.58016383603710452999e-01) (222, 1.43827412769710321488e-02) (223, 2.31517033225832370713e-02) (224, 8.55749998557024799117e-02) (225, -2.44166126827084911666e-02) (226, -1.80667271035453824712e-01) (227, -4.69088592889764649518e-02) (228, 4.77918086329853566974e-02) (229, 8.97856959211167232615e-02) (230, -6.25410288880397374767e-02) (231, 1.10362024869055982967e-01) (232, -3.73592275911494645091e-02) (233, -7.86419244132114114709e-02) (234, -3.04376708741688692395e-02) (235, -2.89600275470627225444e-03) (236, -5.22502130799381843233e-04) (237, 1.06335544571889165089e-01) (238, -8.33020055489337302168e-02) (239, 7.87306122512015649217e-02) (240, 6.54131768119012718676e-02) (241, -6.71525218339148605162e-02) (242, 5.47257676968649700577e-02) (243, 4.35851781942506733003e-02) (244, -5.46512998655135848192e-02) (245, 6.38730364997316724107e-01) (246, 1.25315742600197038703e-01) (247, 2.81157362328397671114e-02) (248, -3.17286512544194543306e-02) (249, 6.51970076442448392973e-02) (250, 8.56875472330706350332e-02) (251, 4.94291246015333474162e-01) (252, 1.62594444260107107159e-02) (253, -9.89707679102893797540e-03) (254, 4.48519243287406749188e-02) (255, 6.54190159463594156364e-01) (256, 7.05903628447821923642e-02) (257, 7.25413011603973423291e-01) (258, 9.79147820616369235491e-02) (259, -2.01171770602405972084e-02) (260, 1.43313272064876928713e-02) (261, 7.92865099602363621045e-01) (262, 3.98992471171629309312e-02) (263, 6.52631384483963294940e-01) (264, -7.83807994394548623873e-02) (265, 1.33260159336147047254e-02) (266, 4.35074804942906304128e-02) (267, 5.86193874828149219525e-01) (268, 6.69988596674979952628e-02) (269, 6.38023280702024631061e-01) (270, 1.04742715693775259589e-01) (271, -6.53038996467028565185e-02) (272, -3.79035302894732487045e-02) (273, 6.22948056475926215114e-01) (274, 5.85540434224907535565e-01) (275, 6.28230509412118665047e-01) (276, -9.90077947410276980669e-04) (277, 7.30192873454458754590e-03) (278, -7.00272178438735709571e-02) (279, 1.13798831833465591279e-01) (280, 1.58308622983938857010e-01) (281, 5.15152238727021427600e-01) (282, 5.39665167384503347003e-02) (283, -1.39840713910241859486e-02) (284, -4.30024948143593703509e-03) (285, -7.64775856188445578993e-03) (286, 6.13302556529021491993e-02) (287, 8.77111639413693904010e-03) (288, 1.03956456104590658218e-01) (289, 3.05885321584119275473e-02) (290, 1.02489732412586326271e-02) (291, 1.97253467256673677144e-02) (292, 3.97102072794089586139e-02) (293, 8.52751102979786429481e-02) (294, 5.48673941743053616982e-02) (295, 3.64655952847743880518e-02) (296, -2.29365081537091682062e-02) (297, -1.31664185232960601751e-02) (298, -8.15344287462080735684e-02) (299, 7.54499593008353952595e-02) (300, 3.38113017734158194383e-01) (0, 1.50000000000000000000e+03) (1, 1.50000000000000000000e+03) (2, 1.50000000000000000000e+03) (3, 1.50000000000000000000e+03) (4, 1.50000000000000000000e+03) (5, 1.50000000000000000000e+03) (6, 1.50000000000000000000e+03) (7, 1.50000000000000000000e+03) (8, 1.50000000000000000000e+03) (9, 1.50000000000000000000e+03) (10, 1.50000000000000000000e+03) (11, 1.50000000000000000000e+03) (12, 1.50000000000000000000e+03) (13, 1.50000000000000000000e+03) (14, 1.50000000000000000000e+03) (15, 1.50000000000000000000e+03) (16, 1.50000000000000000000e+03) (17, 1.50000000000000000000e+03) (18, 1.50000000000000000000e+03) (19, 1.50000000000000000000e+03) (20, 1.50000000000000000000e+03) (21, 1.50000000000000000000e+03) (22, 1.50000000000000000000e+03) (23, 1.50000000000000000000e+03) (24, 1.50000000000000000000e+03) (25, 1.50000000000000000000e+03) (26, 1.50000000000000000000e+03) (27, 1.50000000000000000000e+03) (28, 1.50000000000000000000e+03) (29, 1.50000000000000000000e+03) (30, 1.50000000000000000000e+03) (31, 1.50000000000000000000e+03) (32, 1.50000000000000000000e+03) (33, 1.50000000000000000000e+03) (34, 1.50000000000000000000e+03) (35, 1.50000000000000000000e+03) (36, 1.50000000000000000000e+03) (37, 1.50000000000000000000e+03) (38, 1.50000000000000000000e+03) (39, 1.50000000000000000000e+03) (40, 1.50000000000000000000e+03) (41, 1.50000000000000000000e+03) (42, 1.50000000000000000000e+03) (43, 1.50000000000000000000e+03) (44, 1.50000000000000000000e+03) (45, 1.50000000000000000000e+03) (46, 1.50000000000000000000e+03) (47, 1.50000000000000000000e+03) (48, 1.50000000000000000000e+03) (49, 1.50000000000000000000e+03) (50, 1.50000000000000000000e+03) (51, 1.50000000000000000000e+03) (52, 1.50000000000000000000e+03) (53, 1.50000000000000000000e+03) (54, 1.50000000000000000000e+03) (55, 1.50000000000000000000e+03) (56, 1.50000000000000000000e+03) (57, 1.50000000000000000000e+03) (58, 1.17691195410186810477e+03) (59, 1.17694839498469991668e+03) (60, 1.50000000000000000000e+03) (61, 1.50000000000000000000e+03) (62, 1.50000000000000000000e+03) (63, 1.50000000000000000000e+03) (64, 1.17687441115150613768e+03) (65, 1.40612375363922251381e+03) (66, 1.50000000000000000000e+03) (67, 1.50000000000000000000e+03) (68, 1.50000000000000000000e+03) (69, 1.50000000000000000000e+03) (70, 1.50000000000000000000e+03) (71, 1.50000000000000000000e+03) (72, 1.50000000000000000000e+03) (73, 1.43826457489160566183e+03) (74, 1.43831654125185741577e+03) (75, 1.50000000000000000000e+03) (76, 1.50000000000000000000e+03) (77, 1.50000000000000000000e+03) (78, 4.36622185066972349432e+02) (79, 1.17136827301121957134e+03) (80, 6.63723029004715954215e+02) (81, 1.50000000000000000000e+03) (82, 1.50000000000000000000e+03) (83, 1.50000000000000000000e+03) (84, 2.74478069053926105880e+02) (85, 6.51936182601653626989e+02) (86, 6.51926673649155191015e+02) (87, 1.50000000000000000000e+03) (88, 1.50000000000000000000e+03) (89, 1.50000000000000000000e+03) (90, 1.14740478299160542974e+02) (91, 1.21374249296653999863e+02) (92, 1.21470612693395096926e+02) (93, 1.50000000000000000000e+03) (94, 1.50000000000000000000e+03) (95, 1.50000000000000000000e+03) (96, 6.50750569789457813386e+02) (97, 6.92749248053537201031e+01) (98, 1.39724059769249879537e+03) (99, 1.15744778959317136469e+03) (100, 6.31551693092942585395e+01) (101, 2.55112400761191651100e+02) (102, 1.50000000000000000000e+03) (103, 1.50000000000000000000e+03) (104, 1.50000000000000000000e+03) (105, 1.11491017791782110180e+03) (106, 9.24845077764000166098e+02) (107, 1.50000000000000000000e+03) (108, 1.50000000000000000000e+03) (109, 1.50000000000000000000e+03) (110, 1.50000000000000000000e+03) (111, 1.40680262272064646822e+03) (112, 1.47609937853348264980e+03) (113, 1.50000000000000000000e+03) (114, 1.50000000000000000000e+03) (115, 1.50000000000000000000e+03) (116, 1.50000000000000000000e+03) (117, 7.00805295908097946267e+02) (118, 1.21058199002114542964e+03) (119, 1.50000000000000000000e+03) (120, 1.50000000000000000000e+03) (121, 1.50000000000000000000e+03) (122, 1.50000000000000000000e+03) (123, 1.47831051585880260291e+02) (124, 5.13969006481010410425e+02) (125, 1.50000000000000000000e+03) (126, 1.50000000000000000000e+03) (127, 1.50000000000000000000e+03) (128, 1.50000000000000000000e+03) (129, 2.03435897748911003191e+01) (130, 1.13556371298812464943e+02) (131, 8.59004312829835498633e+02) (132, 1.50000000000000000000e+03) (133, 1.50000000000000000000e+03) (134, 1.50000000000000000000e+03) (135, 9.12919584704109468021e+01) (136, 1.08654200932364506116e+03) (137, 3.30913289248865169156e+02) (138, 1.50000000000000000000e+03) (139, 1.50000000000000000000e+03) (140, 1.50000000000000000000e+03) (141, 2.97553122461125028053e+01) (142, 1.36071826037983100832e+03) (143, 5.03599027672513614107e+02) (144, 1.50000000000000000000e+03) (145, 1.50000000000000000000e+03) (146, 1.50000000000000000000e+03) (147, 1.33906406480466586117e+02) (148, 1.05173089341218641835e+02) (149, 1.37495223664076718251e+02) (150, 5.14378938757391438230e+02) (151, 1.50000000000000000000e+03) (152, 1.48916584705334059890e+02) (153, 7.30575110740726927361e+02) (154, 3.88114023310823910151e+01) (155, 2.08921964103298876125e+02) (156, 1.25060379400535538252e+02) (157, 1.05396593673037591543e+03) (158, 5.06487559000249731866e+01) (159, 1.50000000000000000000e+03) (160, 1.44024887980136168153e+03) (161, 9.51821437659823232025e+02) (162, 2.84446206684217827387e+02) (163, 6.78023047285379448113e+02) (164, 1.95939020935089480702e+01) (165, 1.50000000000000000000e+03) (166, 1.50000000000000000000e+03) (167, 1.50000000000000000000e+03) (168, 7.44529687980928827074e+01) (169, 8.43668788119805128645e+01) (170, 1.03079014252029423915e+02) (171, 1.50000000000000000000e+03) (172, 1.50000000000000000000e+03) (173, 1.50000000000000000000e+03) (174, 4.80319979839013001310e+02) (175, 2.01539870095910657710e+02) (176, 2.00886628530436269102e+02) (177, 1.50000000000000000000e+03) (178, 1.50000000000000000000e+03) (179, 1.50000000000000000000e+03) (180, 4.36500432750370862323e+02) (181, 9.34834756124712953351e+02) (182, 4.34776040926486416538e+02) (183, 1.50000000000000000000e+03) (184, 1.50000000000000000000e+03) (185, 1.50000000000000000000e+03) (186, 9.35856692318834120670e+02) (187, 9.35396071250725526625e+02) (188, 9.34733365645778690123e+02) (189, 1.50000000000000000000e+03) (190, 1.50000000000000000000e+03) (191, 1.50000000000000000000e+03) (192, 4.36588077275243165332e+02) (193, 9.35290717254567880445e+02) (194, 4.34044219938659011859e+02) (195, 1.50000000000000000000e+03) (196, 1.50000000000000000000e+03) (197, 1.50000000000000000000e+03) (198, 1.50000000000000000000e+03) (199, 4.36702059093825141645e+02) (200, 4.36702195801470850256e+02) (201, 1.50000000000000000000e+03) (202, 1.50000000000000000000e+03) (203, 1.50000000000000000000e+03) (204, 1.50000000000000000000e+03) (205, 4.34530021914664132510e+02) (206, 1.33584429414098030975e+03) (207, 1.50000000000000000000e+03) (208, 1.50000000000000000000e+03) (209, 1.50000000000000000000e+03) (210, 1.50000000000000000000e+03) (211, 1.33412562277088886731e+03) (212, 1.50000000000000000000e+03) (213, 1.50000000000000000000e+03) (214, 1.50000000000000000000e+03) (215, 1.50000000000000000000e+03) (216, 1.50000000000000000000e+03) (217, 1.50000000000000000000e+03) (218, 1.50000000000000000000e+03) (219, 1.50000000000000000000e+03) (220, 1.50000000000000000000e+03) (221, 1.50000000000000000000e+03) (222, 1.50000000000000000000e+03) (223, 1.50000000000000000000e+03) (224, 1.50000000000000000000e+03) (225, 1.50000000000000000000e+03) (226, 1.50000000000000000000e+03) (227, 1.50000000000000000000e+03) (228, 1.50000000000000000000e+03) (229, 1.50000000000000000000e+03) (230, 1.50000000000000000000e+03) (231, 1.50000000000000000000e+03) (232, 1.50000000000000000000e+03) (233, 1.50000000000000000000e+03) (234, 1.50000000000000000000e+03) (235, 1.50000000000000000000e+03) (236, 1.50000000000000000000e+03) (237, 1.50000000000000000000e+03) (238, 1.50000000000000000000e+03) (239, 1.50000000000000000000e+03) (240, 1.50000000000000000000e+03) (241, 1.50000000000000000000e+03) (242, 1.50000000000000000000e+03) (243, 1.50000000000000000000e+03) (244, 1.50000000000000000000e+03) (245, 1.50000000000000000000e+03) (246, 1.50000000000000000000e+03) (247, 1.50000000000000000000e+03) (248, 1.50000000000000000000e+03) (249, 1.50000000000000000000e+03) (250, 1.50000000000000000000e+03) (251, 1.50000000000000000000e+03) (252, 1.50000000000000000000e+03) (253, 1.50000000000000000000e+03) (254, 1.50000000000000000000e+03) (255, 1.50000000000000000000e+03) (256, 1.50000000000000000000e+03) (257, 1.50000000000000000000e+03) (258, 1.50000000000000000000e+03) (259, 1.50000000000000000000e+03) (260, 1.50000000000000000000e+03) (261, 1.50000000000000000000e+03) (262, 1.50000000000000000000e+03) (263, 1.50000000000000000000e+03) (264, 1.50000000000000000000e+03) (265, 1.50000000000000000000e+03) (266, 1.50000000000000000000e+03) (267, 1.50000000000000000000e+03) (268, 1.50000000000000000000e+03) (269, 1.50000000000000000000e+03) (270, 1.50000000000000000000e+03) (271, 1.50000000000000000000e+03) (272, 1.50000000000000000000e+03) (273, 1.50000000000000000000e+03) (274, 1.50000000000000000000e+03) (275, 1.50000000000000000000e+03) (276, 1.50000000000000000000e+03) (277, 1.50000000000000000000e+03) (278, 1.50000000000000000000e+03) (279, 1.50000000000000000000e+03) (280, 1.50000000000000000000e+03) (281, 1.50000000000000000000e+03) (282, 1.50000000000000000000e+03) (283, 1.50000000000000000000e+03) (284, 1.50000000000000000000e+03) (285, 1.50000000000000000000e+03) (286, 1.50000000000000000000e+03) (287, 1.50000000000000000000e+03) (288, 1.50000000000000000000e+03) (289, 1.50000000000000000000e+03) (290, 1.50000000000000000000e+03) (291, 1.50000000000000000000e+03) (292, 1.50000000000000000000e+03) (293, 1.50000000000000000000e+03) (294, 1.50000000000000000000e+03) (295, 1.50000000000000000000e+03) (296, 1.50000000000000000000e+03) (297, 1.50000000000000000000e+03) (298, 1.50000000000000000000e+03) (299, 1.50000000000000000000e+03) (300, -1.50000000000000000000e+03) (0, 1.50000000000000000000e+03) (1, 1.50000000000000000000e+03) (2, 1.50000000000000000000e+03) (3, 1.50000000000000000000e+03) (4, 1.50000000000000000000e+03) (5, 1.50000000000000000000e+03) (6, 1.50000000000000000000e+03) (7, 1.50000000000000000000e+03) (8, 1.50000000000000000000e+03) (9, 1.50000000000000000000e+03) (10, 1.50000000000000000000e+03) (11, 1.50000000000000000000e+03) (12, 1.50000000000000000000e+03) (13, 1.50000000000000000000e+03) (14, 1.50000000000000000000e+03) (15, 1.50000000000000000000e+03) (16, 1.50000000000000000000e+03) (17, 1.50000000000000000000e+03) (18, 1.50000000000000000000e+03) (19, 1.50000000000000000000e+03) (20, 1.50000000000000000000e+03) (21, 1.50000000000000000000e+03) (22, 1.50000000000000000000e+03) (23, 1.50000000000000000000e+03) (24, 1.50000000000000000000e+03) (25, 1.50000000000000000000e+03) (26, 1.50000000000000000000e+03) (27, 1.50000000000000000000e+03) (28, 1.50000000000000000000e+03) (29, 1.50000000000000000000e+03) (30, 1.50000000000000000000e+03) (31, 1.50000000000000000000e+03) (32, 1.50000000000000000000e+03) (33, 1.50000000000000000000e+03) (34, 1.50000000000000000000e+03) (35, 1.50000000000000000000e+03) (36, 1.50000000000000000000e+03) (37, 1.50000000000000000000e+03) (38, 1.50000000000000000000e+03) (39, 1.50000000000000000000e+03) (40, 1.50000000000000000000e+03) (41, 1.50000000000000000000e+03) (42, 1.50000000000000000000e+03) (43, 1.50000000000000000000e+03) (44, 1.50000000000000000000e+03) (45, 1.50000000000000000000e+03) (46, 1.50000000000000000000e+03) (47, 1.50000000000000000000e+03) (48, 1.50000000000000000000e+03) (49, 1.50000000000000000000e+03) (50, 1.50000000000000000000e+03) (51, 1.50000000000000000000e+03) (52, 1.50000000000000000000e+03) (53, 1.50000000000000000000e+03) (54, 1.50000000000000000000e+03) (55, 1.50000000000000000000e+03) (56, 1.50000000000000000000e+03) (57, 1.50000000000000000000e+03) (58, 1.50000000000000000000e+03) (59, 1.50000000000000000000e+03) (60, 1.50000000000000000000e+03) (61, 1.50000000000000000000e+03) (62, 1.50000000000000000000e+03) (63, 1.50000000000000000000e+03) (64, 1.50000000000000000000e+03) (65, 1.50000000000000000000e+03) (66, 1.50000000000000000000e+03) (67, 1.50000000000000000000e+03) (68, 1.50000000000000000000e+03) (69, 1.50000000000000000000e+03) (70, 1.50000000000000000000e+03) (71, 1.50000000000000000000e+03) (72, 1.50000000000000000000e+03) (73, 1.50000000000000000000e+03) (74, 1.50000000000000000000e+03) (75, 1.50000000000000000000e+03) (76, 1.50000000000000000000e+03) (77, 1.50000000000000000000e+03) (78, 1.50000000000000000000e+03) (79, 1.50000000000000000000e+03) (80, 1.50000000000000000000e+03) (81, 1.50000000000000000000e+03) (82, 1.50000000000000000000e+03) (83, 1.50000000000000000000e+03) (84, 1.50000000000000000000e+03) (85, 1.50000000000000000000e+03) (86, 1.50000000000000000000e+03) (87, 1.50000000000000000000e+03) (88, 1.50000000000000000000e+03) (89, 1.50000000000000000000e+03) (90, 1.50000000000000000000e+03) (91, 1.50000000000000000000e+03) (92, 1.37103881696135226775e+03) (93, 1.50000000000000000000e+03) (94, 1.50000000000000000000e+03) (95, 1.50000000000000000000e+03) (96, 1.50000000000000000000e+03) (97, 1.50000000000000000000e+03) (98, 1.50000000000000000000e+03) (99, 1.50000000000000000000e+03) (100, 1.50000000000000000000e+03) (101, 1.50000000000000000000e+03) (102, 1.50000000000000000000e+03) (103, 1.50000000000000000000e+03) (104, 1.50000000000000000000e+03) (105, 1.50000000000000000000e+03) (106, 1.50000000000000000000e+03) (107, 1.50000000000000000000e+03) (108, 1.50000000000000000000e+03) (109, 1.50000000000000000000e+03) (110, 1.50000000000000000000e+03) (111, 1.50000000000000000000e+03) (112, 1.50000000000000000000e+03) (113, 1.50000000000000000000e+03) (114, 1.50000000000000000000e+03) (115, 1.50000000000000000000e+03) (116, 1.50000000000000000000e+03) (117, 1.50000000000000000000e+03) (118, 1.50000000000000000000e+03) (119, 1.50000000000000000000e+03) (120, 1.50000000000000000000e+03) (121, 1.50000000000000000000e+03) (122, 1.50000000000000000000e+03) (123, 1.50000000000000000000e+03) (124, 1.50000000000000000000e+03) (125, 1.50000000000000000000e+03) (126, 1.50000000000000000000e+03) (127, 1.50000000000000000000e+03) (128, 1.50000000000000000000e+03) (129, 1.16312487238338098905e+03) (130, 5.77878113597855190164e+02) (131, 1.50000000000000000000e+03) (132, 1.50000000000000000000e+03) (133, 1.50000000000000000000e+03) (134, 1.50000000000000000000e+03) (135, 6.40660551169527025195e+02) (136, 1.50000000000000000000e+03) (137, 1.50000000000000000000e+03) (138, 1.50000000000000000000e+03) (139, 1.50000000000000000000e+03) (140, 1.50000000000000000000e+03) (141, 7.45876210636280006838e+02) (142, 1.50000000000000000000e+03) (143, 1.50000000000000000000e+03) (144, 1.50000000000000000000e+03) (145, 1.50000000000000000000e+03) (146, 1.50000000000000000000e+03) (147, 2.15043406200177571463e+02) (148, 4.32567905434958163369e+02) (149, 1.50000000000000000000e+03) (150, 1.50000000000000000000e+03) (151, 1.50000000000000000000e+03) (152, 1.50000000000000000000e+03) (153, 2.41231439015101472023e+02) (154, 1.33131203233893558036e+02) (155, 4.44367032948200062492e+02) (156, 1.50000000000000000000e+03) (157, 2.26518095203529640003e+02) (158, 2.59894836219957063861e+01) (159, 4.54773984663444821308e+02) (160, 1.50000000000000000000e+03) (161, 9.51834599905098002637e+02) (162, 1.50000000000000000000e+03) (163, 5.02949780470238394514e+01) (164, 2.55167634025794605179e+01) (165, 3.40112238014664853836e+02) (166, 1.50000000000000000000e+03) (167, 1.50000000000000000000e+03) (168, 1.50000000000000000000e+03) (169, 1.41650472497291934815e+03) (170, 1.42137047194681622386e+03) (171, 1.50000000000000000000e+03) (172, 1.50000000000000000000e+03) (173, 1.50000000000000000000e+03) (174, 1.50000000000000000000e+03) (175, 1.50000000000000000000e+03) (176, 1.50000000000000000000e+03) (177, 1.50000000000000000000e+03) (178, 1.50000000000000000000e+03) (179, 1.50000000000000000000e+03) (180, 1.50000000000000000000e+03) (181, 1.50000000000000000000e+03) (182, 1.50000000000000000000e+03) (183, 1.50000000000000000000e+03) (184, 1.50000000000000000000e+03) (185, 1.50000000000000000000e+03) (186, 1.50000000000000000000e+03) (187, 1.50000000000000000000e+03) (188, 1.50000000000000000000e+03) (189, 1.50000000000000000000e+03) (190, 1.50000000000000000000e+03) (191, 1.50000000000000000000e+03) (192, 1.50000000000000000000e+03) (193, 1.50000000000000000000e+03) (194, 1.50000000000000000000e+03) (195, 1.50000000000000000000e+03) (196, 1.50000000000000000000e+03) (197, 1.50000000000000000000e+03) (198, 1.50000000000000000000e+03) (199, 1.50000000000000000000e+03) (200, 1.50000000000000000000e+03) (201, 1.50000000000000000000e+03) (202, 1.50000000000000000000e+03) (203, 1.50000000000000000000e+03) (204, 1.50000000000000000000e+03) (205, 1.50000000000000000000e+03) (206, 1.50000000000000000000e+03) (207, 1.50000000000000000000e+03) (208, 1.50000000000000000000e+03) (209, 1.50000000000000000000e+03) (210, 1.50000000000000000000e+03) (211, 1.50000000000000000000e+03) (212, 1.50000000000000000000e+03) (213, 1.50000000000000000000e+03) (214, 1.50000000000000000000e+03) (215, 1.50000000000000000000e+03) (216, 1.50000000000000000000e+03) (217, 1.50000000000000000000e+03) (218, 1.50000000000000000000e+03) (219, 1.50000000000000000000e+03) (220, 1.50000000000000000000e+03) (221, 1.50000000000000000000e+03) (222, 1.50000000000000000000e+03) (223, 1.50000000000000000000e+03) (224, 1.50000000000000000000e+03) (225, 1.50000000000000000000e+03) (226, 1.50000000000000000000e+03) (227, 1.50000000000000000000e+03) (228, 1.50000000000000000000e+03) (229, 1.50000000000000000000e+03) (230, 1.50000000000000000000e+03) (231, 1.50000000000000000000e+03) (232, 1.50000000000000000000e+03) (233, 1.50000000000000000000e+03) (234, 1.50000000000000000000e+03) (235, 1.50000000000000000000e+03) (236, 1.50000000000000000000e+03) (237, 1.50000000000000000000e+03) (238, 1.50000000000000000000e+03) (239, 1.50000000000000000000e+03) (240, 1.50000000000000000000e+03) (241, 1.50000000000000000000e+03) (242, 1.50000000000000000000e+03) (243, 1.50000000000000000000e+03) (244, 1.50000000000000000000e+03) (245, 1.50000000000000000000e+03) (246, 1.50000000000000000000e+03) (247, 1.50000000000000000000e+03) (248, 1.50000000000000000000e+03) (249, 1.50000000000000000000e+03) (250, 1.50000000000000000000e+03) (251, 1.50000000000000000000e+03) (252, 1.50000000000000000000e+03) (253, 1.50000000000000000000e+03) (254, 1.50000000000000000000e+03) (255, 1.50000000000000000000e+03) (256, 1.50000000000000000000e+03) (257, 1.50000000000000000000e+03) (258, 1.50000000000000000000e+03) (259, 1.50000000000000000000e+03) (260, 1.50000000000000000000e+03) (261, 1.50000000000000000000e+03) (262, 1.50000000000000000000e+03) (263, 1.50000000000000000000e+03) (264, 1.50000000000000000000e+03) (265, 1.50000000000000000000e+03) (266, 1.50000000000000000000e+03) (267, 1.50000000000000000000e+03) (268, 1.50000000000000000000e+03) (269, 1.50000000000000000000e+03) (270, 1.50000000000000000000e+03) (271, 1.50000000000000000000e+03) (272, 1.50000000000000000000e+03) (273, 1.50000000000000000000e+03) (274, 1.50000000000000000000e+03) (275, 1.50000000000000000000e+03) (276, 1.50000000000000000000e+03) (277, 1.50000000000000000000e+03) (278, 1.50000000000000000000e+03) (279, 1.50000000000000000000e+03) (280, 1.50000000000000000000e+03) (281, 1.50000000000000000000e+03) (282, 1.50000000000000000000e+03) (283, 1.50000000000000000000e+03) (284, 1.50000000000000000000e+03) (285, 1.50000000000000000000e+03) (286, 1.50000000000000000000e+03) (287, 1.50000000000000000000e+03) (288, 1.50000000000000000000e+03) (289, 1.50000000000000000000e+03) (290, 1.50000000000000000000e+03) (291, 1.50000000000000000000e+03) (292, 1.50000000000000000000e+03) (293, 1.50000000000000000000e+03) (294, 1.50000000000000000000e+03) (295, 1.50000000000000000000e+03) (296, 1.50000000000000000000e+03) (297, 1.50000000000000000000e+03) (298, 1.50000000000000000000e+03) (299, 1.50000000000000000000e+03) (300, -1.50000000000000000000e+03) (0, 4.82451452481578238474e-02) (1, 1.29935315119011129958e-01) (2, 5.42928709256480582224e-02) (3, -3.73026608592155681232e-02) (4, 5.21486822703600347295e-02) (5, 1.73045905038378966534e-02) (6, 1.20548770840528438053e-01) (7, -9.64245752239071933498e-03) (8, -3.05856260731204449010e-02) (9, -1.01791047475942433853e-01) (10, 9.86666727067855853228e-02) (11, -8.57728384419800121696e-02) (12, -2.50740924511857476986e-01) (13, -3.22510929439969562527e-01) (14, -3.05496583258320075771e-01) (15, -1.12807831457609322734e-01) (16, 7.73496775302330713542e-02) (17, -8.68771933003784496696e-02) (18, 2.14995900350325397365e-01) (19, -1.27305668237268111709e-02) (20, 4.59050259529767065714e-02) (21, -6.66983570889010279892e-01) (22, 8.93868234468521011271e-02) (23, -5.99238409607010913405e-01) (24, 5.86068338777393296746e-02) (25, 1.05045845982420504860e-01) (26, 1.10586406087812685883e-01) (27, -5.66422775613532714090e-01) (28, 1.77960073772323146279e-01) (29, -6.98568252718795440481e-02) (30, 1.53198517132504291594e-01) (31, 1.04070575515889426899e-01) (32, 1.04363475941101804811e-01) (33, -4.36633626806634755901e-01) (34, 2.55847475795824563782e-01) (35, -5.52360979376284796927e-02) (36, 1.96233054794786060393e-01) (37, 2.36713177483612979835e-01) (38, 2.65270659287447863051e-01) (39, -3.65892408070979002765e-01) (40, 2.88328123937546199063e-01) (41, -3.56120618649270956335e-02) (42, 2.80389239607986562319e-01) (43, 2.91020463026598341649e-01) (44, 2.68270687953439668227e-01) (45, 2.19034700290299221004e-02) (46, 1.82390766295560391441e-01) (47, 3.21473257306421067447e-01) (48, 3.20487712323782869550e-01) (49, 2.12349594229181898308e-01) (50, 3.39067410440964334128e-01) (51, 7.37520882739534783257e-03) (52, 3.09436872922091883720e-02) (53, 1.56848907741556103934e-01) (54, 2.43497701800400701000e-01) (55, 2.26298546548647422361e-01) (56, 2.91116844330513158123e-01) (57, 2.38967449583788182910e-02) (58, 2.10881541893694374190e-01) (59, 7.25217636626405287581e-02) (60, 3.98600377735078392760e-01) (61, 3.17112440644205795248e-01) (62, 4.73954660756355172779e-01) (63, 1.96171960945865746229e-02) (64, 2.79001029588914449542e-02) (65, 3.94224131209589337410e-02) (66, 2.79004313283151283986e-01) (67, 3.63601157439562672202e-01) (68, 4.14519162846419153556e-01) (69, 3.21227476942296599760e-02) (70, 1.18930484711355227700e-01) (71, 1.23856116115307265946e-01) (72, 1.93280871559442624097e-01) (73, 3.88673599636768785093e-01) (74, 2.98046593423066497053e-01) (75, 1.78110348580497492021e-02) (76, 5.63794248695906052848e-02) (77, -4.57128560887162804782e-02) (78, 2.65435655208771548175e-01) (79, 1.95085459145600770281e-01) (80, 2.61061281658650501392e-01) (81, -7.05593880245354437841e-02) (82, 5.75409958962976933461e-02) (83, -3.37864532609940954044e-02) (84, 1.86931418355500617023e-01) (85, 2.70396153599832378411e-01) (86, 2.29330585764999289600e-01) (87, 1.38111399703618548118e-01) (88, 1.09351572163007126209e-02) (89, 9.58200493862720464877e-02) (90, 1.10731362238696659506e-01) (91, 1.36391323730891800281e-01) (92, 2.75687596872280726856e-01) (93, 2.02043643489015795067e-01) (94, 1.29077809011519661908e-01) (95, 2.84285048102916659829e-01) (96, 2.23987785284994939117e-01) (97, 2.64232112866594481826e-01) (98, 2.35807547015886687092e-01) (99, 1.63806176799437597236e-01) (100, 2.48043317711100552714e-01) (101, 2.01942112485442165637e-01) (102, 3.11395767132995993087e-01) (103, 6.07169271272844146559e-01) (104, 3.13697922762185499312e-01) (105, 1.00703603802406324585e-01) (106, -2.64713132916545412776e-01) (107, -2.18386878192684874556e-01) (108, 1.94962082874920533682e-01) (109, 3.01838243668396732922e-01) (110, 4.08982592373989706225e-01) (111, -4.36976989441441976414e-01) (112, -7.23913354449838952753e-01) (113, -4.92205981063318698254e-01) (114, 2.24133500349503633764e-01) (115, 4.03476848146532618422e-01) (116, 3.52022811741661889595e-01) (117, 9.84203332165477923210e-02) (118, -2.07691132213688872676e-01) (119, -3.14485534844401282140e-01) (120, 2.42276161717951299401e-01) (121, 2.29277058909382353002e-01) (122, 2.14045819631527828308e-01) (123, 2.39895607076275524383e-01) (124, -2.27425250623834257491e-01) (125, -1.59213426222469434101e+00) (126, 7.13566138618464823606e-02) (127, 2.15452387717526672173e-01) (128, 7.37643212414042376279e-02) (129, 3.19486433771814626326e-01) (130, 5.10044567285306116311e-01) (131, 1.80498427841755360035e+00) (132, 2.95991116955058135296e-02) (133, 2.47966269147737894407e-01) (134, 1.44845715035902850021e-01) (135, 2.64881822234735331278e-01) (136, 3.05832150010988346178e-01) (137, 3.61896950176821941003e-01) (138, 7.52273183623150681898e-02) (139, 1.90556266070848190353e-01) (140, 1.08340320625556166267e-01) (141, 2.00887124453117432710e-01) (142, -1.18263159922484886732e-01) (143, 1.90830162173267803283e+00) (144, 1.45224901517289534114e-01) (145, 1.12522869619113841111e-01) (146, 8.49221584984275884578e-02) (147, 3.18337026977073833667e-01) (148, 4.36372659282859176599e-01) (149, 4.67256234480523835462e-01) (150, -4.05889153070915886801e-01) (151, 5.75647534588273057654e-02) (152, -3.26756734753098299073e-01) (153, 2.67697501840783058658e-01) (154, 1.03624942727207725035e+00) (155, -6.32161938069617868052e+00) (156, -9.91597370337809862206e-03) (157, 6.23558377940276256646e-02) (158, 1.33332909045500741518e-01) (159, 1.85633494819773703366e-01) (160, 2.20133315602184476134e+00) (161, 3.74040566692219123013e+00) (162, 1.60009786641013312947e-01) (163, 8.68437255528350660061e-02) (164, 1.55802521605873073307e-01) (165, 8.48522870035583909321e-01) (166, 2.09906233712024947735e+00) (167, 3.11969893170280010430e-01) (168, -3.16330175007986824642e-01) (169, 6.52449714924771134728e-02) (170, -1.25554234979424417240e+00) (171, 5.66751948255633797302e-01) (172, 6.06897469564628977423e-01) (173, 5.20544887490073326930e-01) (174, -1.20594151489559986423e+00) (175, -9.70001361253076781199e-03) (176, -1.26390933217417167356e+00) (177, 1.20762182344886892515e-01) (178, 1.14790532838435474505e-01) (179, -8.48913999374810018805e-02) (180, -1.21079258775672427006e+00) (181, 